eth_registers/always_1/block_1/if_1/block_1/case_1/stmt_19 -0.973429 0.932178 -0.622980 -0.219381 0.394165 0.609277 -0.156883 1.165672 -0.207974 -0.952341 2.511681 -0.409496 0.242544 -0.483232 1.594912 -0.145262 -0.153695 -1.670531 -2.095730 1.658018
eth_top/input_wb_adr_i 0.290527 3.908395 1.235995 1.191421 -3.782537 -0.519187 -1.905073 3.625732 0.874232 0.219265 3.889491 0.452555 -2.633315 -0.836274 -2.758289 0.707664 0.584025 1.867531 -4.335670 3.839686
eth_outputcontrol/always_2/block_1/if_1/block_2 -1.934812 3.023021 1.314840 0.753918 -0.895131 -3.301211 0.535150 1.491902 -1.543780 2.449225 -1.455598 -1.122214 0.836322 1.289298 -0.018080 -2.355574 1.150385 -0.475528 -2.910015 0.438285
eth_outputcontrol/always_2/block_1/if_1/block_1 -2.629872 3.965207 0.578279 -0.023149 -0.456273 -2.307006 2.061695 -0.320755 -1.560917 1.963139 -0.576348 -2.128442 0.669306 0.695456 -0.269377 -2.826610 0.772385 0.261423 -4.903950 0.690038
eth_miim/assign_4_StartOp 0.436548 -0.371181 -1.189356 0.758452 -1.584624 -0.594953 -3.035313 -0.395648 -1.852889 -1.206307 -1.470176 1.023987 -0.427177 0.640136 -0.952082 -1.062148 -0.494534 1.497890 -0.473260 -0.442670
eth_top/assign_14_wb_dat_o -2.000845 3.442616 0.532964 0.190122 -3.151791 -4.081562 2.929266 -1.410252 -0.184391 3.725582 -0.147491 -0.590928 0.117815 -0.544823 1.602194 -2.335313 2.722048 -0.456757 -4.885418 2.686517
eth_outputcontrol/reg_MdoEn_2d 1.092364 0.295308 -0.500394 0.964568 -3.573523 1.370005 -3.707839 -3.666511 0.397239 -0.721628 0.795020 5.112553 -1.242623 -2.627787 -1.512962 -0.879217 1.230618 3.712847 -3.988811 0.994184
eth_top/assign_8_BDCs/expr_1/expr_1 -1.369600 1.454921 1.259934 0.044442 0.447305 -0.650755 1.880711 1.499392 0.459049 0.769500 0.201499 1.342605 2.550189 -1.018321 -1.290052 -0.584451 0.636451 -0.045584 -3.313256 1.159347
eth_miim/always_4/block_1/if_1/block_2/if_1 0.346369 -0.675982 -2.100787 0.180299 -1.049307 -0.341657 -2.384369 0.281614 -2.273647 -1.969005 -2.839880 0.240195 1.593629 1.070120 -1.363674 -1.390758 -1.790685 1.552477 -1.188794 0.474641
eth_register/always_1/block_1/if_1/if_1/if_1/cond 2.653477 2.378923 2.806345 0.500801 -4.837793 -3.748694 -1.930594 -0.564420 2.589732 5.225524 -2.030063 -0.324637 -4.790856 0.114472 1.564054 0.064982 3.570357 0.615510 3.108766 -0.363687
eth_miim/assign_3_ScanStatusOp/expr_1/expr_1 -0.083739 -0.723627 0.263551 1.132931 0.285171 -1.674196 -2.394600 1.974498 -2.074002 -0.356800 -1.414807 -0.160576 -0.442805 1.977008 -0.634280 -0.504253 -0.118427 -0.450478 2.522564 -2.206117
eth_miim/assign_3_ScanStatusOp/expr_1/expr_2 -0.360481 -1.530786 1.006654 1.201909 1.491926 0.042515 -1.542057 1.728194 -2.225091 -2.293495 -0.682943 0.869694 -0.632742 1.900801 -3.208419 -0.006709 -0.877063 1.429464 2.122346 -3.043973
eth_top/inst_check_eth_top -0.656521 2.686045 2.882574 -0.629556 -0.548551 -0.981431 3.828877 0.973842 2.716119 1.971927 1.919813 -1.074338 -1.271328 -1.525126 1.652811 0.176638 1.308483 -1.994164 -1.899825 1.214341
eth_miim/wire_MdcEn_n -1.536466 3.497814 0.740535 0.830612 0.764397 -1.072913 -1.465980 0.591962 -2.911318 1.240501 -0.787861 -0.985667 0.230013 1.092969 0.790553 -2.111809 0.315923 -0.297888 -2.948977 -0.005068
eth_wishbone/reg_TxEn_needed -0.791682 -0.948502 1.327464 0.023337 2.321420 1.651926 1.827182 1.396454 0.288528 -1.657224 0.760092 1.716465 2.135900 -0.480644 -2.427895 0.691933 -0.704476 0.598277 -1.085609 -0.281887
eth_top/always_4/block_1 0.215335 0.052690 0.896275 -0.289980 -0.392352 -0.624499 1.234724 -0.383074 1.594008 1.328623 -0.368686 -0.031814 -0.020236 -0.317702 -1.243541 -0.110790 0.630657 0.373914 0.220462 -0.717916
eth_register/reg_DataOut 1.648153 1.712891 2.481960 0.761840 -3.549953 -1.918144 1.291538 -2.398287 0.811148 2.696905 -1.432209 -0.422741 -4.564584 -0.418252 0.413339 0.499543 1.640897 1.694499 1.513657 -0.211084
eth_registers/wire_r_MiiNoPre -0.439877 -1.373942 1.113602 1.177105 1.421185 -0.136557 -1.424587 1.759454 -2.125655 -2.014720 -0.703697 0.882487 -0.547364 1.815065 -3.095689 -0.069026 -0.690566 1.318781 1.926867 -2.957627
eth_rxstatem/assign_3_StartSFD 0.214165 0.019192 0.959170 -0.341329 -0.368054 -0.637098 1.397037 -0.360272 1.697189 1.362847 -0.353163 -0.050326 0.038954 -0.363174 -1.344489 -0.105476 0.621645 0.408708 0.202410 -0.749027
eth_wishbone/always_4/block_1/if_1 -0.798842 -0.858773 1.293107 0.019309 2.232318 1.567042 1.853039 1.288470 0.354154 -1.539743 0.831212 1.619934 2.064425 -0.493194 -2.320757 0.690247 -0.636604 0.553994 -1.057301 -0.266656
eth_outputcontrol/reg_MdoEn_d 1.106930 0.303034 -0.388813 0.991326 -3.599363 1.276031 -3.734590 -3.580843 0.432839 -0.664903 0.835926 5.154343 -1.335170 -2.587170 -1.541202 -0.839595 1.301473 3.657341 -3.815603 0.870278
eth_txethmac/always_13/block_1/if_1/stmt_2 0.206310 0.003289 0.943744 -0.345198 -0.337620 -0.578298 1.376299 -0.337027 1.665450 1.318253 -0.334540 -0.036296 0.032218 -0.319800 -1.325747 -0.106126 0.602905 0.403901 0.181345 -0.730305
eth_miim/always_4/block_1/if_1/block_2/if_1/block_2/if_2/cond 1.881216 -2.267864 -1.156425 1.150907 -0.597315 -0.358799 -4.888291 0.563850 -1.369119 -1.007843 -1.366731 0.496505 -1.262945 1.563908 0.652298 0.528457 -0.361618 -0.264378 4.650485 -1.680440
eth_registers/input_Rw 0.992804 -2.956834 -2.631351 -0.260210 -4.173446 -3.093967 -1.185242 -3.241026 1.612829 2.378543 -0.606475 -0.659111 -2.409874 1.001999 1.103079 -1.221079 1.935764 -0.070637 2.902603 -0.910079
eth_wishbone/reg_TxBDReady 0.244326 -0.022553 0.925594 -0.351721 -0.305939 -0.547157 1.383503 -0.347692 1.657137 1.313278 -0.338016 -0.037997 0.023821 -0.296150 -1.335836 -0.063475 0.604617 0.426811 0.274643 -0.752851
eth_rxstatem/assign_1_StartIdle/expr_1/expr_2/expr_1/expr_1 0.232434 -0.006402 0.929324 -0.377706 -0.254477 -0.527795 1.458858 -0.347705 1.727266 1.333126 -0.287568 -0.090516 0.033786 -0.363606 -1.310690 -0.023617 0.602037 0.387944 0.251688 -0.737209
eth_outputcontrol/reg_MdoEn 1.208228 0.201396 -0.504431 0.922861 -3.608232 1.295232 -3.700811 -3.634496 0.457608 -0.704826 0.742020 5.008232 -1.380209 -2.547265 -1.492739 -0.818218 1.227953 3.682612 -3.696748 0.889797
eth_register/always_1/block_1 1.557640 1.793873 2.467146 0.844429 -3.449107 -1.942375 1.267614 -2.138899 0.673127 2.731025 -1.370308 -0.641173 -4.647486 -0.285869 0.302731 0.548423 1.604902 1.645447 1.628812 -0.269331
eth_top/assign_16_temp_wb_ack_o/expr_1/expr_1 -1.396674 1.600478 1.391327 0.102007 0.319881 -0.796481 1.840186 1.479615 0.435525 0.890295 0.122451 1.432144 2.617322 -1.020660 -1.289136 -0.683091 0.797435 0.015373 -3.498672 1.200590
eth_top/reg_temp_wb_dat_o_reg -2.005337 3.478679 0.390447 0.140127 -3.185126 -4.117226 2.965727 -1.533315 -0.191121 3.803101 -0.131070 -0.571476 0.150387 -0.549356 1.706736 -2.357129 2.757415 -0.459772 -4.932845 2.768854
eth_miim/reg_RStatStart_q1 1.933457 -1.702819 -0.190402 1.696807 -1.408939 -0.982621 -5.436248 -0.181026 -0.861237 0.116236 -0.176773 1.184656 -3.334763 1.136992 1.243672 0.662836 1.155546 -0.416044 5.297976 -2.489435
eth_miim/reg_RStatStart_q2 1.682317 -2.265556 0.668826 1.745679 -0.498969 0.611298 -4.574976 -0.573993 -0.752196 -1.574830 0.568691 2.363632 -3.515594 0.797543 -1.087367 1.072481 0.625849 1.400048 4.485125 -3.053819
eth_clockgen/input_Divider 2.157732 1.504759 0.935682 1.023862 -4.249787 -2.866763 -5.839215 0.280612 -1.222189 1.181438 -7.277538 2.773946 0.326461 0.661621 -0.295796 -2.130430 0.410988 2.676628 -0.779297 0.774552
eth_wishbone/always_1/block_1/stmt_1 -1.357926 1.497836 1.349426 0.115429 0.303661 -0.750907 1.699801 1.478387 0.396309 0.841215 0.088848 1.423529 2.551653 -0.985496 -1.322146 -0.673144 0.759240 0.048300 -3.357176 1.134542
eth_top/inst_rxethmac1 0.242524 -0.001132 0.957741 -0.342683 -0.331608 -0.643063 1.371981 -0.382875 1.646112 1.344511 -0.403975 -0.056130 0.040697 -0.343984 -1.359450 -0.093987 0.600333 0.458769 0.217974 -0.798684
check_ethernet/reg_wb_wr_dat -0.609022 2.556794 2.781783 -0.639012 -0.475179 -0.789717 3.769036 0.983823 2.706609 1.786595 1.975821 -1.105319 -1.289560 -1.514941 1.644276 0.245042 1.180787 -1.951036 -1.819260 1.223584
eth_miim/reg_RStatStart 1.881840 -2.230552 -1.195886 1.153177 -0.646848 -0.425304 -4.962723 0.588982 -1.427134 -0.944867 -1.480446 0.487335 -1.205125 1.584899 0.717758 0.482154 -0.330787 -0.275241 4.646514 -1.659176
eth_outputcontrol/always_1/block_1/if_1/block_2/if_1 1.110169 0.438134 -0.400482 0.908958 -3.809075 1.242656 -3.509054 -3.766567 0.575179 -0.523789 0.765939 5.094218 -1.352758 -2.715776 -1.481986 -0.915918 1.396256 3.749896 -4.122856 1.081186
eth_registers/wire_r_ScanStat -0.094855 -0.921428 0.249462 1.117573 0.513970 -1.601487 -2.481683 2.142961 -2.238177 -0.470288 -1.399621 -0.280588 -0.487054 2.177501 -0.681800 -0.412061 -0.238844 -0.518597 2.965785 -2.436532
eth_txstatem/assign_3_StartPreamble/expr_1/expr_1 0.182525 0.007486 0.900142 -0.345335 -0.295023 -0.551511 1.341405 -0.349280 1.593948 1.236997 -0.321288 -0.029189 0.053631 -0.337267 -1.260558 -0.057120 0.556474 0.399725 0.205157 -0.720656
eth_top/assign_7_BDCs/expr_1/expr_1/expr_1/expr_1/expr_1 -0.796715 -0.968369 1.308472 -0.015635 2.360305 1.696017 1.860637 1.380534 0.324515 -1.642689 0.845745 1.658928 2.156866 -0.515648 -2.450060 0.743234 -0.720026 0.557010 -1.076691 -0.278999
eth_miim/always_8/block_1/if_1/block_1/if_1/block_1/if_1/cond -0.040133 -0.935824 0.179934 1.135980 0.513837 -1.556289 -2.507896 2.091051 -2.160805 -0.457640 -1.333074 -0.276639 -0.482414 2.114710 -0.625074 -0.392290 -0.207141 -0.578747 2.955220 -2.391425
eth_top/assign_2_RegCs/expr_1/expr_1/expr_1/expr_1/expr_1 -0.805294 -0.945537 1.294441 0.002534 2.442189 1.744862 1.893308 1.402890 0.312362 -1.741454 0.868059 1.639612 2.150293 -0.513103 -2.481565 0.743148 -0.761651 0.590062 -1.070517 -0.280432
eth_top/assign_5_RegCs -0.474735 0.839776 3.145113 1.866227 -1.309152 -2.850530 -2.468185 2.730498 -1.763515 0.273801 -3.278245 3.753186 1.417630 0.885290 -0.746745 -1.215272 1.896313 1.106025 -0.950756 0.514491
eth_outputcontrol/always_2/block_1 -1.730117 3.103422 0.657349 0.554711 -1.432231 -2.598839 0.132621 0.322798 -1.217403 2.506609 -1.127945 -1.051303 0.421159 0.890447 -0.402989 -2.501084 1.022405 0.329735 -3.626065 0.825867
eth_wishbone/always_27/block_1/if_1/stmt_2 0.206039 -0.002417 0.915631 -0.368895 -0.270600 -0.539964 1.401419 -0.358852 1.659702 1.291948 -0.308397 -0.087564 0.065530 -0.335864 -1.320137 -0.059690 0.581948 0.400925 0.220735 -0.763924
eth_miim/assign_1_WriteDataOp 0.236143 -0.631653 -1.987541 0.151911 -1.010819 -0.377307 -2.168279 0.316491 -2.258413 -1.928324 -2.831084 0.155206 1.547901 1.100286 -1.514861 -1.384195 -1.764839 1.598977 -1.285417 0.355801
eth_miim -1.390193 3.164993 0.040889 0.169793 -1.633516 -2.879137 0.226618 0.302039 -1.053579 2.317377 -1.972669 -0.780656 1.438163 0.176138 -0.097295 -2.697331 0.664707 -0.030064 -4.092648 0.750962
eth_wishbone/always_1/block_1 -1.359646 1.485097 1.372810 0.088992 0.416229 -0.697882 1.793533 1.536896 0.389573 0.740500 0.105356 1.441955 2.586719 -1.003961 -1.395201 -0.604099 0.668821 0.080371 -3.412275 1.109773
eth_top/assign_9_BDCs -1.371953 1.554459 1.345501 0.111687 0.302993 -0.819206 1.753686 1.487916 0.366579 0.867157 0.086926 1.416809 2.502101 -0.980294 -1.294890 -0.692453 0.787962 0.004436 -3.412167 1.135301
eth_miim/assign_1_WriteDataOp/expr_1/expr_1 1.905242 -2.502341 -2.476188 0.337037 -1.389410 2.188051 -3.765066 -1.500484 -1.475336 -3.963952 -2.270416 2.236794 0.789202 0.215875 -2.653288 -0.258540 -2.313479 3.807740 -0.535148 0.624564
eth_outputcontrol/always_2/block_1/if_1 -1.689147 3.126064 0.649633 0.533785 -1.351597 -2.526702 0.061276 0.378688 -1.177701 2.554314 -1.085871 -1.053711 0.381095 0.853185 -0.418966 -2.456792 0.973234 0.259111 -3.535446 0.713216
eth_txethmac 0.245675 -0.026768 0.991597 -0.317969 -0.339576 -0.647222 1.416656 -0.373521 1.728037 1.372465 -0.345002 -0.061756 0.037186 -0.344402 -1.394083 -0.104563 0.640479 0.449506 0.258451 -0.790653
eth_miim/reg_InProgress -0.153687 0.629567 -0.530353 0.784454 -1.959391 -0.683859 -2.217460 -0.934994 -1.541390 -0.633461 -0.690015 1.476992 -0.956388 -0.001357 -1.462896 -1.404262 0.132032 2.006361 -2.092484 -0.421867
eth_miim/always_7/block_1/if_1/block_2/if_1/block_1/if_1/block_2/if_1/cond -0.997392 -1.193997 -0.104162 1.396122 1.621425 2.050709 -2.893395 0.244135 -4.070392 -4.768922 0.195390 2.419266 -0.456171 1.229540 -4.723702 -0.783335 -1.865512 3.620028 -1.189442 -2.891274
eth_wishbone/reg_WbEn -0.442607 -0.571779 0.566857 -0.046104 1.394520 1.059031 1.022188 0.725170 0.133116 -1.009699 0.503580 0.774443 1.200734 -0.253642 -1.193707 0.470004 -0.526448 0.240005 -0.505977 -0.087333
eth_txethmac/wire_StatePAD 0.244277 -0.047306 0.932060 -0.348163 -0.296695 -0.605065 1.374318 -0.374493 1.657718 1.326393 -0.384534 -0.056377 0.052346 -0.332774 -1.427295 -0.104091 0.609964 0.438152 0.267377 -0.820329
eth_clockgen/always_1/block_1/if_1/block_1/if_1/stmt_1/expr_1 -0.661550 2.215262 0.705373 0.768631 -2.406213 -2.745635 -2.420424 -0.611744 -1.594069 0.648750 -2.295106 2.564829 0.891404 -0.858552 1.589702 -2.316597 2.192453 0.293326 -2.692505 0.316267
eth_registers/assign_112_r_ScanStat -0.041335 -0.829044 0.242326 1.140984 0.386186 -1.630726 -2.491179 2.039854 -2.149181 -0.382827 -1.417840 -0.209591 -0.485623 2.085719 -0.582452 -0.451241 -0.130988 -0.544500 2.828943 -2.363407
eth_miim/always_6/block_1/if_1/block_2/if_1/block_1/stmt_10 -0.290656 -1.504814 1.059113 1.186425 1.397126 -0.050232 -1.582832 1.690567 -2.142149 -2.205021 -0.727263 0.941434 -0.632648 1.846394 -3.151310 -0.015519 -0.763403 1.434671 2.087063 -2.982610
eth_miim/always_6/block_1/if_1/block_2/if_1/block_1/stmt_11 0.662769 -0.161798 -2.379190 -0.690285 -1.892370 1.402853 -0.743161 -2.069402 -0.518478 -2.070830 -1.681516 0.902524 1.450020 -0.807007 -1.533649 -1.081757 -1.701715 2.987571 -3.819889 2.315957
eth_top/assign_7_BDCs/expr_1 -1.344625 1.442035 1.372140 0.092604 0.424747 -0.679536 1.794753 1.536667 0.437008 0.749815 0.113115 1.442770 2.574342 -1.027550 -1.377550 -0.631374 0.717543 0.028545 -3.369534 1.129985
eth_miim/always_8/block_1/if_1/block_1/if_1/block_1/if_1/block_1/if_1 -1.419515 0.362450 1.560835 1.910108 0.337852 1.517002 -2.566626 -1.301023 -2.790738 -2.782351 2.682687 3.816215 -3.146085 -0.254541 -4.305489 -0.852932 0.544969 3.738125 -2.266914 -3.408155
eth_txethmac/always_13 0.189272 0.006558 0.914126 -0.346428 -0.266298 -0.569502 1.437168 -0.341874 1.695920 1.310700 -0.338376 -0.072868 0.077437 -0.347931 -1.343906 -0.059129 0.610869 0.395905 0.215833 -0.767598
eth_register/always_1 1.679480 1.828580 2.473683 0.720402 -3.634952 -2.060445 1.343989 -2.314364 0.885611 2.910487 -1.614785 -0.684524 -4.636435 -0.376453 0.502719 0.514466 1.663428 1.560171 1.656618 -0.238606
eth_shiftreg/input_Rgad 0.057273 -1.482990 -0.339644 0.171267 1.650214 0.791489 -0.348521 0.805490 -1.019049 -1.723045 0.242887 -0.976373 -0.595423 1.297868 -1.077645 0.604442 -1.198653 0.052828 2.385093 -1.757804
eth_top/assign_5_RegCs/expr_1 -0.561843 0.930381 3.067261 1.906192 -1.286589 -2.754902 -2.402015 2.613385 -1.831860 0.112435 -2.922494 3.727278 1.246096 0.796607 -0.737203 -1.228589 1.944236 1.112143 -1.116951 0.523705
eth_maccontrol/wire_TxStartFrmOut 0.231236 -0.064083 0.901793 -0.359697 -0.247768 -0.482958 1.409217 -0.354121 1.640800 1.265036 -0.283205 -0.083046 0.020142 -0.313126 -1.334381 -0.028619 0.522461 0.368034 0.287598 -0.730842
eth_registers/wire_MIIADDRESSOut 0.001782 -1.502346 -0.355091 0.164647 1.669925 0.804900 -0.310603 0.855860 -1.038900 -1.748123 0.259279 -0.999396 -0.565912 1.362007 -1.105770 0.618676 -1.255173 0.058347 2.442382 -1.783967
eth_miim/assign_9_ByteSelect -1.762780 -0.331020 1.172120 0.352286 2.696671 -0.889687 1.631231 2.791493 -2.659477 -1.772377 -0.917786 -2.056352 -0.192473 2.817011 -2.932031 -0.413554 -1.493468 0.357528 1.441285 -2.935842
eth_clockgen/always_1/block_1 -0.739978 2.274815 1.176816 0.399046 -1.788803 -2.559918 -0.562699 0.079285 -0.801888 0.526981 -1.745325 0.858083 0.631958 -0.315039 1.397633 -1.560685 1.761521 0.002887 -2.037066 0.935265
eth_rxstatem/wire_StateData 0.217787 0.018021 0.875750 -0.303240 -0.329595 -0.563200 1.309939 -0.355259 1.562901 1.302063 -0.348693 -0.030608 0.022050 -0.279202 -1.280880 -0.086951 0.560112 0.379505 0.228148 -0.723849
eth_miim/wire_Mdc -0.834393 2.232168 -0.817457 -1.006563 -5.337840 -4.648540 2.952982 -1.588399 1.487497 2.480164 -4.434017 1.846787 4.589865 -2.378276 0.515079 -3.409024 1.726079 1.027406 -7.340738 4.440265
eth_top/wire_TxStartFrmOut 0.222537 -0.032290 0.915358 -0.357595 -0.269896 -0.555307 1.391151 -0.326805 1.680769 1.331011 -0.328791 -0.073990 0.041765 -0.325685 -1.368160 -0.052463 0.598391 0.395428 0.247899 -0.799717
eth_rxstatem/always_1/block_1/if_1 0.213626 0.018371 0.886770 -0.357200 -0.273239 -0.559728 1.364003 -0.338193 1.635952 1.279791 -0.292706 -0.039008 0.060194 -0.330356 -1.296243 -0.061819 0.579961 0.374735 0.202755 -0.700158
eth_miim/always_1/block_1/if_1/block_2/stmt_2 0.701374 -0.140358 -2.376734 -0.657083 -1.937130 1.445912 -0.757638 -2.187458 -0.505339 -2.084935 -1.610831 0.950570 1.362183 -0.846045 -1.521140 -1.076036 -1.689582 3.050525 -3.844995 2.331305
eth_miim/wire_Mdo -1.781331 2.982707 0.799730 0.522075 -1.222814 -2.450504 0.330922 0.390184 -1.158308 2.432398 -0.904318 -1.071595 0.336439 0.920258 -0.519819 -2.331039 1.042341 0.306286 -3.438153 0.679375
eth_top/inst_maccontrol1 0.234456 -0.008504 0.935964 -0.375936 -0.304458 -0.580450 1.416669 -0.344199 1.719884 1.340523 -0.357698 -0.078248 0.059601 -0.335736 -1.428035 -0.075790 0.607934 0.455767 0.234076 -0.780457
eth_txstatem/assign_5_StartData/expr_1/expr_1/expr_1 0.225233 -0.033443 0.870855 -0.358137 -0.267388 -0.531376 1.400449 -0.364187 1.653105 1.258466 -0.259079 -0.117145 0.057467 -0.308207 -1.337694 -0.031623 0.569202 0.366121 0.263244 -0.740923
eth_registers/assign_109_r_ClkDiv 2.303995 1.571451 0.898571 0.996175 -4.258487 -2.654562 -5.884410 0.266500 -1.104174 1.091392 -7.230551 2.854571 0.323038 0.526789 -0.438281 -1.999775 0.333909 2.789509 -0.898963 0.891619
eth_miim/always_3/block_1/if_1/block_2/if_1 0.002993 -1.078408 0.117827 1.130485 0.573083 -1.433819 -2.625895 2.058318 -2.229413 -0.627504 -1.375798 -0.195662 -0.535437 2.171218 -0.722322 -0.318283 -0.323879 -0.418368 3.049740 -2.505080
eth_register/always_1/block_1/if_1/stmt_1 2.213299 2.620727 2.606781 0.631806 -4.778711 -3.765684 -2.018604 -0.422325 1.837000 4.911693 -2.173638 -0.277809 -4.658203 0.239827 2.047702 -0.205382 3.334914 0.440186 2.381387 -0.059047
eth_top/wire_RegDataOut -1.166432 2.010600 0.125610 0.372167 -4.642429 -2.545575 2.021973 -2.414558 0.954978 2.462308 2.665281 0.336099 -3.193408 -1.388053 1.542217 -1.190607 2.606649 0.178424 -3.904622 2.282130
eth_txstatem/always_1/block_1/if_1/block_2/if_6/if_1 0.219112 0.002535 0.976274 -0.363599 -0.322873 -0.627410 1.433619 -0.367529 1.683179 1.366477 -0.359832 -0.036497 0.012499 -0.307016 -1.392392 -0.092662 0.644568 0.446203 0.249034 -0.778219
eth_wishbone/always_6/block_1/if_1/if_1/if_1 0.208085 -0.029050 0.916592 -0.334872 -0.328175 -0.586449 1.294700 -0.338680 1.615644 1.313576 -0.388529 -0.041597 0.008706 -0.301272 -1.369858 -0.084520 0.605616 0.438677 0.255740 -0.799067
eth_registers/assign_39_MIIMODER_Wr 2.256350 1.556941 0.872458 1.000836 -4.241694 -2.760514 -5.954869 0.380887 -1.141084 1.203044 -7.254663 2.809413 0.344689 0.583337 -0.348009 -2.044339 0.318240 2.652139 -0.833724 0.886100
eth_top/assign_9_BDCs/expr_1/expr_1 -1.365054 1.506163 1.351746 0.073647 0.362120 -0.727007 1.864315 1.489873 0.490252 0.841634 0.148765 1.414802 2.591063 -1.011366 -1.319537 -0.597877 0.747181 0.004733 -3.386212 1.174385
eth_miim/input_Rgad 0.037694 -1.524563 -0.350389 0.192361 1.727909 0.825332 -0.301865 0.860358 -1.063899 -1.751091 0.217093 -1.031150 -0.583526 1.399911 -1.178664 0.654779 -1.293868 0.073307 2.478407 -1.827807
eth_miim/wire_EndOp -1.008167 -1.196938 -0.111072 1.358692 1.634705 2.034224 -2.803690 0.270519 -4.055902 -4.704869 0.158234 2.345308 -0.381965 1.232269 -4.693287 -0.821402 -1.873201 3.571862 -1.201436 -2.814145
eth_wishbone/always_24/block_1 0.248007 -0.044902 0.907611 -0.370251 -0.276698 -0.533042 1.433279 -0.338819 1.681786 1.323030 -0.339613 -0.091386 0.053863 -0.308841 -1.401965 -0.075331 0.572541 0.417776 0.284203 -0.794013
eth_top/wire_r_WCtrlData -0.052259 -0.780949 0.220127 1.131963 0.305684 -1.648339 -2.500697 1.965589 -2.072835 -0.316904 -1.448302 -0.184021 -0.490828 2.031267 -0.497278 -0.447333 -0.122412 -0.556915 2.737047 -2.241408
eth_miim/reg_BitCounter -2.002282 1.716686 1.137578 1.362313 1.105129 -1.116144 -2.426533 0.655969 -2.048263 1.852393 1.378062 2.233566 -0.073235 -0.339823 0.715529 -1.613838 1.636510 -1.684675 -1.621289 -2.664910
eth_miim/always_8/block_1/if_1/block_1/if_1/block_1/if_1 -2.719401 3.431118 2.918409 2.322689 2.409844 -1.475491 -3.959244 0.821079 -4.140383 1.602824 2.800419 0.831675 -3.533227 0.993708 1.098619 -1.683799 2.752813 -1.959409 0.731288 -5.772665
eth_top/assign_6_BDCs/expr_1/expr_1 -1.349996 1.540357 1.404910 0.106341 0.341318 -0.782657 1.824692 1.521550 0.429447 0.846096 0.117631 1.448290 2.568198 -1.033533 -1.357316 -0.624686 0.747464 0.013038 -3.402072 1.139855
eth_top/always_1/block_1 -2.022755 1.326534 -0.966200 0.022588 -2.064240 -2.906798 2.466719 -0.581802 0.433230 3.568135 0.647408 1.102176 1.408692 -1.427561 0.278056 -1.467048 2.101493 -0.918211 -4.142503 1.371666
eth_rxethmac 0.227653 -0.070034 0.875642 -0.324933 -0.268434 -0.528921 1.393497 -0.349829 1.613997 1.267805 -0.293709 -0.070270 0.070947 -0.333783 -1.327572 -0.031146 0.556898 0.377088 0.292449 -0.751455
eth_registers/wire_r_WCtrlData -0.001520 -0.891057 0.127641 1.147329 0.301715 -1.642518 -2.535701 2.010509 -2.113174 -0.402502 -1.435823 -0.211137 -0.481745 2.057756 -0.605588 -0.450970 -0.169301 -0.519326 2.808403 -2.280964
eth_miim/reg_EndBusy 0.561109 -0.080665 -2.322435 -0.684762 -1.894760 1.478583 -0.636592 -2.212361 -0.544820 -2.045923 -1.480625 1.004443 1.399441 -0.914643 -1.506261 -1.093009 -1.651425 2.986596 -4.030607 2.340945
eth_wishbone/always_26/block_1/if_1/stmt_2 0.230312 -0.014784 0.915924 -0.346900 -0.332336 -0.600472 1.442370 -0.408348 1.737289 1.387887 -0.297809 -0.074094 0.036222 -0.374800 -1.317562 -0.096359 0.652368 0.397221 0.202895 -0.764067
eth_miim/always_8/block_1/if_1/stmt_1 -1.310541 1.619624 0.192183 -1.772327 -0.758085 -0.175839 5.857580 -1.137597 3.902127 2.818086 1.120136 0.951183 3.955239 -3.457116 0.740952 -0.593027 1.000609 -1.024358 -6.155461 3.834746
eth_outputcontrol -0.911919 2.492564 0.366322 0.401438 -0.447648 -0.950102 -0.510465 -0.521781 -0.591092 2.431217 -0.304611 -0.964162 -0.071981 0.509180 -0.046137 -1.593699 0.847043 0.244614 -2.390394 0.359973
eth_txstatem/always_1/block_1 0.231578 -0.049745 0.929011 -0.341020 -0.254330 -0.544907 1.423131 -0.355666 1.714496 1.317866 -0.303196 -0.101995 0.027397 -0.329709 -1.346027 -0.071385 0.600242 0.413825 0.266681 -0.740541
eth_top/wire_BDCs -1.393120 1.559963 1.376885 0.087226 0.276088 -0.803068 1.840001 1.471720 0.442094 0.891776 0.102122 1.477550 2.568944 -1.051407 -1.314100 -0.669785 0.785701 0.001560 -3.517527 1.198714
eth_outputcontrol/always_2/block_1/if_1/block_2/if_1/block_1/stmt_1/expr_1/expr_2 -2.486371 3.705114 3.213917 1.516351 0.330443 -4.994804 -1.384549 3.907069 -2.624125 4.146596 -2.689320 0.762371 1.612048 1.176618 1.859719 -2.757024 2.220468 -3.224658 -1.519508 -1.800095
eth_transmitcontrol/reg_WillSendControlFrame 0.220254 -0.001446 0.934346 -0.326920 -0.325328 -0.588821 1.390359 -0.354709 1.673635 1.314855 -0.329613 -0.046837 0.014421 -0.305316 -1.361901 -0.064292 0.614187 0.404133 0.236321 -0.768813
eth_miim/assign_3_ScanStatusOp/expr_1/expr_1/expr_2 -0.455636 -1.474285 1.141779 1.176400 1.575675 -0.093443 -1.422941 1.869698 -2.241598 -2.192796 -0.723914 0.792703 -0.612401 1.946324 -3.195353 -0.020110 -0.830550 1.322083 2.116011 -3.127618
eth_miim/assign_3_ScanStatusOp/expr_1/expr_1/expr_1 -0.101901 -0.734879 0.294270 1.104022 0.313328 -1.736137 -2.340399 2.033144 -2.062323 -0.234362 -1.429442 -0.219677 -0.476096 2.042192 -0.506317 -0.462898 -0.104254 -0.555431 2.676766 -2.224005
eth_miim/always_7/block_1/if_1/block_2/if_1/block_1/if_1/block_1/stmt_1 -0.281439 0.304426 0.629635 0.917784 -1.435862 0.414842 -1.493071 -1.319492 -1.154972 -1.556072 0.098202 2.762875 -1.412571 -0.425088 -3.383219 -1.014721 0.171213 3.524689 -2.622958 -1.019893
eth_rxstatem/assign_7_StateData 0.241449 -0.016596 0.973371 -0.375112 -0.289508 -0.566645 1.446730 -0.337435 1.715356 1.326246 -0.333110 -0.048291 0.053863 -0.338122 -1.424131 -0.086043 0.593332 0.437936 0.274938 -0.798044
eth_rxstatem/reg_StateDrop 0.252176 -0.010953 0.945281 -0.338828 -0.327718 -0.594620 1.355624 -0.340550 1.647985 1.327507 -0.322340 -0.086396 0.001192 -0.304048 -1.362496 -0.057124 0.605803 0.414846 0.278294 -0.795251
eth_registers/wire_MAC_ADDR0Out 0.011040 1.540113 0.937022 0.444097 -5.064065 -2.434987 2.779688 -3.701407 1.568569 3.326833 1.483761 0.090659 -4.728508 -1.327542 0.904711 -0.308635 2.661674 1.311217 -1.662931 1.257723
eth_outputcontrol/always_1/block_1 1.206747 0.241125 -0.564422 0.962960 -3.683813 1.400916 -3.818325 -3.701881 0.384861 -0.824238 0.735503 5.132092 -1.289482 -2.596935 -1.605515 -0.855915 1.175852 3.846701 -3.915034 1.002393
eth_clockgen/always_2/block_1/if_1/stmt_1 -1.533988 3.966914 0.934572 -0.658481 -1.064288 -3.086423 3.590576 0.778770 -2.674568 -0.686738 -5.796542 -2.691166 3.398245 1.325358 0.439859 -2.930189 -1.116652 1.491300 -5.634454 3.879439
eth_clockgen/always_1 -0.756081 2.420794 1.121110 0.318616 -1.764416 -2.393407 -0.539917 0.107078 -0.694100 0.508604 -1.552719 0.867794 0.649061 -0.480263 1.335059 -1.518232 1.680149 0.017639 -2.307664 1.034032
eth_clockgen/always_2 -1.353002 3.442030 1.058529 0.027485 -0.088926 -1.473418 -0.736396 -1.760952 -2.274183 -0.326932 -2.960370 0.106370 1.434861 -0.097079 2.555694 -2.779253 1.035823 0.271895 -3.434971 0.640060
eth_rxstatem/assign_1_StartIdle 0.207992 0.001756 0.880223 -0.338341 -0.303236 -0.533689 1.322913 -0.313987 1.589536 1.264340 -0.320651 -0.056828 0.042410 -0.295230 -1.262187 -0.095681 0.538737 0.374696 0.238914 -0.723784
eth_clockgen/assign_4_MdcEn -0.444297 0.233955 0.581025 0.880682 -1.188672 0.542669 -1.264163 -1.238922 -1.275246 -1.784635 0.117890 2.679798 -1.254651 -0.340481 -3.615492 -1.030784 -0.002350 3.590606 -2.776261 -1.045517
eth_registers/assign_113_r_RGAD 0.006759 -1.410278 -0.340127 0.192152 1.654899 0.735468 -0.272445 0.814411 -1.042259 -1.683644 0.233613 -0.954536 -0.541082 1.311181 -1.120648 0.586416 -1.224445 0.064239 2.352013 -1.737239
eth_miim/always_1/block_1/if_1/block_2/stmt_1 0.600801 -0.084455 -2.394429 -0.711742 -1.837535 1.468318 -0.612463 -2.125252 -0.573702 -2.094902 -1.572990 0.918865 1.533415 -0.862862 -1.477556 -1.092970 -1.694535 2.949644 -3.979294 2.365055
eth_txstatem/assign_3_StartPreamble 0.193746 -0.002592 0.878162 -0.317790 -0.277233 -0.558644 1.304394 -0.355554 1.581439 1.300826 -0.335321 -0.082579 0.026030 -0.308467 -1.318489 -0.065726 0.575171 0.415340 0.219175 -0.731858
eth_miim/always_8/block_1 -2.032691 1.858556 1.069127 1.139029 1.397078 -0.928260 -2.092355 0.690028 -1.974580 1.816509 1.378150 1.957843 0.220165 -0.445233 0.769251 -1.530865 1.463650 -1.822701 -1.694534 -2.620387
check_ethernet/input_wb_adr_i -0.624935 2.678190 2.865911 -0.602225 -0.607745 -0.969051 3.698794 0.953689 2.704747 1.958300 1.853929 -1.025356 -1.252454 -1.486309 1.602937 0.135511 1.308509 -1.935651 -1.921685 1.231503
eth_miim/always_6/block_1/if_1/block_2/if_1 0.355558 -0.290041 -1.133518 0.767600 -1.562776 -0.635004 -3.072301 -0.346182 -1.941377 -1.227147 -1.543996 1.027571 -0.415379 0.650495 -0.997977 -1.129726 -0.464264 1.450331 -0.538810 -0.508953
eth_registers/assign_2_Read 1.055946 -2.884818 -2.540578 -0.262945 -4.155510 -3.037602 -1.228677 -3.156496 1.613087 2.331649 -0.729499 -0.623467 -2.351656 0.978239 1.070708 -1.209377 1.873994 0.009697 2.915561 -0.899317
eth_txethmac/inst_txstatem1 0.191453 0.045027 0.893201 -0.318291 -0.355468 -0.607457 1.396727 -0.385690 1.644372 1.351560 -0.302853 -0.049382 0.016610 -0.360967 -1.281962 -0.108496 0.637617 0.382535 0.186772 -0.697848
eth_top/always_1/block_1/if_1 -1.998998 1.109903 -1.023274 0.032661 -2.128050 -2.836885 2.430619 -0.528433 0.456851 3.536322 0.742759 1.288958 1.375413 -1.412999 0.258444 -1.343659 2.095781 -0.810395 -3.950061 1.375913
eth_txstatem/always_1/block_1/if_1/block_2/if_5/if_1/cond 0.212785 -0.002895 0.925060 -0.330738 -0.334857 -0.602408 1.383181 -0.347960 1.646627 1.339761 -0.369921 -0.029660 0.039822 -0.320885 -1.352458 -0.087704 0.617264 0.431291 0.219633 -0.795648
eth_transmitcontrol/always_1/block_1/if_1/if_1/if_1 0.191444 -0.027935 0.862324 -0.345591 -0.277025 -0.548103 1.386213 -0.337661 1.636183 1.263278 -0.322020 -0.094977 0.057202 -0.342809 -1.294759 -0.070195 0.581528 0.374386 0.253050 -0.707758
eth_top/input_wb_stb_i -1.482015 -3.349263 2.683599 0.486359 -0.386276 0.218503 1.434459 -3.166976 -0.388958 -2.193067 -0.769418 5.246634 -0.642282 -0.082014 1.716433 -1.351302 1.554805 1.793316 -1.019013 -0.977414
eth_miim/always_8/block_1/if_1/block_1/if_1/block_1/if_1/stmt_1 -2.628454 3.326890 2.860084 2.407977 2.259558 -1.668551 -4.253273 0.779833 -4.244090 1.607645 2.505276 0.834041 -3.686007 1.179608 1.017379 -1.806356 2.753783 -1.831688 0.964221 -5.966075
eth_registers/inst_MIICOMMAND0 -0.127961 -0.783331 0.292238 1.109198 0.432700 -1.637243 -2.385808 2.052216 -2.146429 -0.405479 -1.410995 -0.217611 -0.450150 2.103002 -0.690995 -0.420928 -0.168698 -0.508492 2.758763 -2.357107
eth_registers/inst_MIICOMMAND1 1.894837 -2.256488 -1.200781 1.192400 -0.686615 -0.403922 -4.992397 0.534794 -1.391439 -0.960521 -1.420172 0.527571 -1.227536 1.543424 0.765962 0.487553 -0.317638 -0.332226 4.695776 -1.666195
eth_registers/inst_MIICOMMAND2 -0.139298 -0.728996 0.267549 1.083097 0.300514 -1.715463 -2.327774 1.983293 -2.058138 -0.269977 -1.397467 -0.132533 -0.438811 1.979997 -0.635037 -0.506794 -0.059318 -0.498791 2.546599 -2.244272
eth_miim/always_6/block_1/if_1/block_2/if_1/block_1/stmt_2 1.861784 -2.515123 -2.479184 0.300227 -1.253706 2.263462 -3.669752 -1.494748 -1.467717 -4.028518 -2.228517 2.143397 0.797782 0.233371 -2.752473 -0.211565 -2.386415 3.763841 -0.485961 0.557263
eth_miim/always_6/block_1/if_1/block_2/if_1/block_1/stmt_3 1.819366 -2.258336 -1.130124 1.218008 -0.511088 -0.436394 -4.955492 0.684907 -1.540125 -1.028262 -1.448542 0.412322 -1.270050 1.695118 0.621785 0.505759 -0.397985 -0.293240 4.808827 -1.827829
eth_shiftreg/always_1/block_1/if_1/block_2/if_1/block_1/if_1/block_2/stmt_1 -1.729544 -0.241990 1.214616 0.366485 2.525929 -0.983296 1.638100 2.670694 -2.560934 -1.634310 -0.953913 -1.987413 -0.186018 2.710754 -2.929963 -0.479042 -1.391133 0.381738 1.247274 -2.795011
eth_miim/always_6/block_1/if_1/block_2/if_1/block_1/stmt_1 0.231457 -0.637851 -1.940740 0.219900 -1.062363 -0.316869 -2.365980 0.276189 -2.355345 -2.008243 -2.795061 0.360806 1.561445 1.062627 -1.643604 -1.429946 -1.751171 1.720766 -1.406469 0.326502
eth_miim/always_6/block_1/if_1/block_2/if_1/block_1/stmt_4 1.546325 -2.838419 -0.303672 1.278417 0.411908 1.088603 -4.033242 0.354631 -1.534580 -2.738204 -0.799163 1.549844 -1.376091 1.450567 -1.855914 0.860855 -0.944343 1.607731 3.918934 -2.407613
eth_rxethmac/input_Transmitting 0.221697 -0.031145 0.961008 -0.372353 -0.322625 -0.610111 1.445986 -0.345776 1.705984 1.346469 -0.317948 -0.066439 0.043189 -0.320356 -1.389364 -0.077673 0.598155 0.410551 0.232092 -0.751827
eth_registers/input_Address -0.016695 4.537544 -0.543673 1.689033 -2.526248 -3.387865 -6.856938 7.422793 -0.721318 3.484362 4.665513 -2.680522 -3.100965 1.547394 3.619073 0.501768 2.237718 -5.004922 0.913644 2.515503
eth_miim/always_6/block_1/if_1/block_2/if_1/block_1/stmt_9 -0.409153 -1.493445 1.105266 1.218860 1.542644 -0.034690 -1.589342 1.813371 -2.229178 -2.159582 -0.650314 0.936946 -0.598013 1.865388 -3.177499 0.021451 -0.790253 1.310212 2.121678 -3.070488
eth_registers/wire_MIIMODER_Wr 2.280168 1.417980 0.750801 0.944367 -4.309122 -2.723727 -5.818530 0.194420 -1.085518 1.153334 -7.366234 2.766787 0.457080 0.623923 -0.300090 -2.073304 0.321152 2.687482 -0.807914 1.004520
eth_wishbone/always_24/block_1/if_1/if_1/cond/expr_1 0.226808 0.009750 0.943359 -0.326894 -0.299191 -0.565727 1.411395 -0.370676 1.644958 1.332975 -0.322635 -0.049530 0.036144 -0.342272 -1.324002 -0.088783 0.600479 0.384147 0.205947 -0.725565
eth_miim/always_6/block_1 0.537000 -0.436466 -1.219280 0.776167 -1.698573 -0.556796 -3.182314 -0.435990 -1.897165 -1.272516 -1.584599 0.999422 -0.533500 0.660622 -0.936266 -1.034055 -0.535126 1.558416 -0.294250 -0.509190
eth_outputcontrol/always_1/block_1/if_1 1.151394 0.324164 -0.521582 0.892964 -3.659833 1.320300 -3.614862 -3.700544 0.454667 -0.693361 0.724470 5.132451 -1.179382 -2.630356 -1.519456 -0.902236 1.239355 3.747232 -4.071533 1.084956
eth_top/input_wb_we_i -2.085354 1.680948 0.835982 0.317056 -4.284750 -3.356217 2.670398 -1.628616 1.185500 2.643732 2.119422 1.572565 -0.889518 -1.177754 1.327098 -1.788697 3.445478 0.359062 -4.991895 3.026977
eth_wishbone/always_6/block_1/if_1/if_1 0.206764 0.035705 0.917466 -0.355001 -0.359576 -0.605797 1.377422 -0.388866 1.653183 1.360247 -0.356107 -0.046628 0.020423 -0.341897 -1.309882 -0.105920 0.636977 0.401646 0.179552 -0.743263
eth_miim/always_7/block_1 -0.025450 0.623265 -0.559688 0.757423 -2.124971 -0.627281 -2.408221 -1.111257 -1.396303 -0.522179 -0.624642 1.680462 -1.012748 -0.151517 -1.297920 -1.395125 0.272449 2.013004 -2.109967 -0.324661
eth_wishbone -1.068660 1.399864 2.115092 -0.296656 0.211680 -1.174948 3.161350 1.213342 2.092770 1.992804 -0.069080 1.231820 2.619027 -1.307218 -2.578559 -0.552314 1.203846 0.316799 -2.992390 0.452464
eth_txstatem/always_1/block_1/if_1/block_2/if_4/if_1/cond 0.193347 0.005584 0.890081 -0.337520 -0.284523 -0.567076 1.419776 -0.374063 1.662299 1.317416 -0.319069 -0.067701 0.051939 -0.333579 -1.333743 -0.054721 0.590906 0.364216 0.212501 -0.741776
eth_wishbone/always_77/block_1/if_1 -0.840027 -0.910022 1.288943 0.016949 2.343849 1.682732 1.878415 1.352186 0.337096 -1.649869 0.822874 1.618690 2.119522 -0.513450 -2.351715 0.694058 -0.718518 0.556183 -1.095613 -0.259873
eth_top/assign_7_BDCs/expr_1/expr_1/expr_1 -1.343759 1.450507 1.326481 0.065413 0.406927 -0.671151 1.809297 1.525183 0.429077 0.744084 0.125214 1.359661 2.571772 -0.957754 -1.301148 -0.611924 0.689545 0.007612 -3.300312 1.115728
eth_rxstatem/reg_StatePreamble 0.226770 -0.026465 0.909721 -0.331214 -0.278614 -0.555760 1.411775 -0.362131 1.645223 1.290742 -0.293065 -0.070829 0.052983 -0.351068 -1.294622 -0.045394 0.568793 0.394242 0.233464 -0.708200
eth_rxstatem/always_1/block_1/if_1/block_2/if_3 0.254164 0.014543 0.951764 -0.328615 -0.315771 -0.592361 1.400161 -0.368150 1.676150 1.371382 -0.398612 -0.072395 0.043620 -0.311189 -1.370795 -0.099937 0.590847 0.434926 0.265584 -0.806827
eth_rxstatem/always_1/block_1/if_1/block_2/if_2 0.226107 0.015314 0.897483 -0.341611 -0.326515 -0.576480 1.376046 -0.356346 1.634605 1.316870 -0.291998 -0.083758 0.017647 -0.338467 -1.240265 -0.103923 0.610055 0.397447 0.190806 -0.718021
eth_rxstatem/always_1/block_1/if_1/block_2/if_5 0.228353 -0.001666 0.918717 -0.343340 -0.305934 -0.576628 1.359086 -0.352838 1.658893 1.342532 -0.352430 -0.069008 0.026351 -0.333657 -1.349593 -0.076612 0.606023 0.410994 0.241657 -0.761326
eth_rxstatem 0.204316 -0.039176 0.911568 -0.353570 -0.290875 -0.545356 1.407442 -0.361382 1.671079 1.320714 -0.250727 -0.078347 0.015170 -0.346274 -1.284267 -0.050655 0.604089 0.365548 0.253404 -0.740314
eth_wishbone/always_30/block_1/if_1/if_1/if_1 0.216490 0.020711 0.930046 -0.304006 -0.351430 -0.644991 1.387916 -0.366235 1.646600 1.349249 -0.383820 -0.051781 0.047771 -0.355180 -1.348415 -0.121877 0.610368 0.386562 0.192979 -0.713797
eth_rxstatem/always_1/block_1/if_1/block_2/if_6 0.231369 -0.008781 0.867086 -0.342164 -0.295050 -0.537948 1.347045 -0.368779 1.616583 1.250292 -0.313347 -0.070194 0.022502 -0.321530 -1.269045 -0.062282 0.585249 0.367656 0.230847 -0.718699
eth_miim/input_WCtrlData -0.059336 -0.865499 0.178180 1.128545 0.428173 -1.578614 -2.445399 1.980354 -2.152036 -0.482225 -1.452768 -0.237897 -0.466115 2.090477 -0.659237 -0.419271 -0.246617 -0.455125 2.798041 -2.315346
eth_miim/always_7/block_1/if_1/block_2 -0.114798 0.691235 -0.392541 0.827995 -2.047269 -0.742854 -2.320237 -0.995599 -1.381440 -0.413167 -0.538327 1.642506 -1.066430 -0.136148 -1.366133 -1.378718 0.376388 1.925187 -2.094761 -0.461323
eth_miim/always_7/block_1/if_1/block_1 1.438176 -1.454129 -0.179357 0.929428 -0.873454 1.004321 -3.441514 -0.760364 0.219312 -0.772802 0.179962 2.824202 -0.559226 -0.656362 -0.271052 0.569347 0.445665 0.950843 1.211951 -0.420070
eth_top/assign_2_RegCs/expr_1/expr_1/expr_1/expr_1 -0.821617 -0.838464 1.283178 0.025738 2.266145 1.567009 1.791093 1.332207 0.277441 -1.564732 0.772266 1.668324 2.106042 -0.535443 -2.378852 0.608728 -0.660042 0.574347 -1.129043 -0.261533
eth_wishbone/always_77/block_1/if_1/if_1 -0.791492 -0.918457 1.290983 0.021206 2.371489 1.675381 1.881016 1.360334 0.332757 -1.648835 0.828509 1.622457 2.114083 -0.502022 -2.372844 0.705648 -0.734322 0.564011 -1.083707 -0.261051
eth_registers/always_1/block_1/if_1/cond 1.018023 -3.025115 -2.687875 -0.300857 -4.119259 -3.033951 -1.035431 -3.314282 1.719588 2.386045 -0.509038 -0.732881 -2.457154 0.973891 1.133877 -1.155286 1.935467 -0.090442 3.040910 -0.902838
eth_top/always_4/block_1/stmt_2 0.200067 0.024168 0.902783 -0.307485 -0.337391 -0.577468 1.300141 -0.352621 1.614307 1.292601 -0.312358 -0.033187 0.013900 -0.296111 -1.261086 -0.067468 0.602019 0.382268 0.218373 -0.725611
eth_top/always_4/block_1/stmt_1 0.238519 -0.041478 0.930600 -0.372472 -0.306923 -0.529363 1.387870 -0.355697 1.680210 1.306093 -0.296600 -0.065289 0.011485 -0.349212 -1.312187 -0.048757 0.607087 0.396480 0.234066 -0.752241
eth_outputcontrol/always_1/block_1/if_1/block_2 1.162766 0.270671 -0.470956 0.954274 -3.588990 1.337108 -3.709815 -3.675405 0.432719 -0.721878 0.838361 5.134605 -1.297948 -2.586372 -1.548598 -0.868788 1.278816 3.734729 -3.865263 0.928473
eth_top/always_1/block_1/if_1/block_2/stmt_3/expr_1 -2.250425 2.002108 -0.775355 -0.522870 -0.437424 -1.576573 0.715144 -1.618925 -0.465587 3.140810 -0.430959 0.670790 1.055684 -1.429309 1.129623 -2.661508 1.036071 -1.775103 -4.083361 -1.601096
eth_top/assign_6_BDCs -1.379594 1.528169 1.389660 0.092896 0.443763 -0.728367 1.909550 1.515336 0.446419 0.792685 0.171952 1.428003 2.614651 -1.033693 -1.336810 -0.630215 0.698630 0.004735 -3.445047 1.150197
eth_wishbone/input_BDCs -1.423639 1.490011 1.362670 0.048027 0.486022 -0.675592 1.951052 1.548720 0.479100 0.808343 0.170278 1.435694 2.657131 -1.012847 -1.372420 -0.617211 0.689273 0.021088 -3.485166 1.145728
eth_registers/assign_2_Read/expr_1 0.969709 -2.938676 -2.591871 -0.245111 -4.232663 -3.191983 -1.140325 -3.257629 1.636419 2.473791 -0.626081 -0.676423 -2.442220 0.963084 1.106403 -1.254709 1.965776 -0.097472 2.879548 -0.947542
eth_wishbone/always_30/block_1 0.233024 -0.015232 0.905017 -0.346941 -0.279633 -0.540678 1.426497 -0.346495 1.705277 1.313555 -0.321828 -0.097338 0.039255 -0.324546 -1.341228 -0.066551 0.610388 0.418100 0.258178 -0.763846
eth_miim/always_4/block_1/if_1/block_2/if_1/block_2/if_1/cond/expr_1 1.936928 -2.561189 -2.529002 0.254836 -1.334592 2.240354 -3.659501 -1.493313 -1.421573 -4.026781 -2.318637 2.070296 0.778601 0.262225 -2.686789 -0.193617 -2.432097 3.784096 -0.436164 0.594264
eth_registers/assign_2_Read/expr_2 0.982849 -2.954553 -2.626053 -0.271926 -4.135284 -3.090877 -1.143407 -3.220099 1.561581 2.339892 -0.543817 -0.617563 -2.392853 0.959460 1.056832 -1.247400 1.933997 -0.058733 2.870596 -0.917370
eth_miim/always_3/block_1/if_1/block_2/stmt_8 -0.149536 -0.760366 0.269792 1.122349 0.433205 -1.608318 -2.382650 2.071866 -2.153212 -0.404007 -1.370427 -0.199366 -0.471051 2.062201 -0.671667 -0.431545 -0.139007 -0.519603 2.717597 -2.336440
eth_miim/always_4/block_1/if_1/block_2/if_1/block_2 0.277573 -0.726853 -2.023300 0.173812 -0.933049 -0.285578 -2.241741 0.367143 -2.376487 -2.031026 -2.825825 0.143638 1.580720 1.141879 -1.559914 -1.368460 -1.892998 1.636238 -1.159614 0.310130
eth_registers/assign_43_MIIADDRESS_Wr/expr_1 0.032990 -1.480448 -0.319967 0.167652 1.645227 0.775785 -0.323061 0.841177 -1.068186 -1.744015 0.231502 -0.993211 -0.561485 1.327217 -1.162938 0.604585 -1.220596 0.113270 2.401073 -1.787592
eth_miim/always_3/block_1/if_1/block_2/stmt_4 1.893865 -2.274129 -1.155795 1.180321 -0.590940 -0.434136 -4.966901 0.634489 -1.433386 -0.954936 -1.454780 0.453090 -1.277725 1.607852 0.714931 0.499849 -0.326350 -0.329169 4.782844 -1.701901
eth_miim/always_3/block_1/if_1/block_2/stmt_5 1.844011 -2.260508 -1.113943 1.164316 -0.574535 -0.419898 -4.868950 0.611314 -1.444967 -0.964204 -1.437820 0.440676 -1.215001 1.641517 0.690242 0.505927 -0.352826 -0.311265 4.731041 -1.738533
eth_miim/always_3/block_1/if_1/block_2/stmt_6 1.576085 -2.927705 -0.353392 1.250335 0.459513 1.207386 -4.098201 0.370686 -1.510889 -2.793163 -0.689960 1.610884 -1.406576 1.404670 -1.821453 0.912417 -0.974956 1.543954 4.022024 -2.398710
eth_miim/always_3/block_1/if_1/block_2/stmt_7 -0.103834 -0.773860 0.226652 1.104945 0.280063 -1.639386 -2.389126 1.917623 -2.044595 -0.330091 -1.351069 -0.101085 -0.516750 1.949098 -0.655085 -0.467883 -0.084800 -0.416798 2.557490 -2.215230
eth_miim/always_3/block_1/if_1/block_2/stmt_1 -0.087301 -0.820291 0.234461 1.128265 0.322845 -1.629954 -2.382150 1.974836 -2.104946 -0.409218 -1.421555 -0.209277 -0.461056 2.039347 -0.683974 -0.494385 -0.181450 -0.445657 2.666885 -2.322705
eth_miim/always_3/block_1/if_1/block_2/stmt_2 0.187547 -0.571240 -1.991761 0.198614 -1.056239 -0.335923 -2.254699 0.287686 -2.334566 -1.952477 -2.692317 0.299685 1.551064 1.000290 -1.524652 -1.436957 -1.719365 1.610977 -1.409567 0.376596
eth_miim/always_3/block_1/if_1/block_2/stmt_3 1.865007 -2.387892 -2.462590 0.248391 -1.475893 2.172537 -3.591660 -1.578766 -1.359171 -3.918613 -2.284445 2.184361 0.840608 0.136825 -2.685690 -0.326493 -2.328002 3.847655 -0.745441 0.729909
eth_miim/always_4/block_1/if_1/block_2/if_1/block_2/if_1 0.336801 -0.709954 -1.953036 0.235608 -0.980408 -0.301189 -2.421208 0.358129 -2.323571 -1.990673 -2.724199 0.255489 1.435656 1.134066 -1.489818 -1.346698 -1.747097 1.566793 -1.014377 0.231402
eth_miim/always_4/block_1/if_1/block_2/if_1/block_2/if_2 1.778008 -2.128543 -1.056131 1.174425 -0.601698 -0.468225 -4.844939 0.634888 -1.402794 -0.867133 -1.383378 0.463637 -1.260476 1.568922 0.727298 0.444204 -0.243305 -0.356138 4.630809 -1.702641
eth_miim/always_4/block_1/if_1/block_2/if_1/block_2/if_2/cond/expr_1 1.562505 -2.844060 -0.324750 1.262518 0.448558 1.181297 -4.028332 0.311361 -1.464973 -2.722651 -0.673939 1.598709 -1.393767 1.361526 -1.791559 0.934079 -0.953411 1.569643 3.976412 -2.343121
eth_txstatem/wire_StartData 0.195403 -0.028288 0.873119 -0.372570 -0.228821 -0.475182 1.450254 -0.342465 1.654515 1.284100 -0.270987 -0.101225 0.059175 -0.320610 -1.303968 -0.035888 0.552791 0.354313 0.253427 -0.693449
eth_top/reg_WillTransmit_q 0.252463 0.007769 0.991390 -0.347947 -0.358503 -0.646345 1.422415 -0.369337 1.744595 1.420590 -0.377446 -0.070304 0.025517 -0.330775 -1.400489 -0.102466 0.643406 0.417330 0.221855 -0.787828
eth_rxstatem/wire_StartIdle 0.211980 -0.032102 0.955008 -0.374524 -0.260355 -0.557680 1.468240 -0.312739 1.693503 1.298885 -0.286232 -0.069735 0.065093 -0.329994 -1.426312 -0.031466 0.568312 0.401381 0.235860 -0.751110
eth_rxstatem/assign_2_StartPreamble/expr_1/expr_1 0.212112 -0.014942 0.924537 -0.364944 -0.282309 -0.516692 1.404016 -0.328716 1.670497 1.299097 -0.312194 -0.091010 0.033181 -0.305806 -1.360871 -0.057819 0.549981 0.412201 0.234914 -0.766503
eth_top/assign_3_RegCs -1.329695 1.436387 1.273364 0.072946 0.406497 -0.663458 1.783762 1.469708 0.460754 0.784418 0.172970 1.314356 2.509836 -0.981072 -1.274106 -0.547592 0.669391 -0.002667 -3.223178 1.128445
eth_wishbone/always_24 0.214701 0.006362 0.901621 -0.323932 -0.370844 -0.627978 1.357097 -0.385460 1.686089 1.360245 -0.356342 -0.066187 0.013261 -0.354949 -1.301019 -0.099089 0.638019 0.406064 0.192612 -0.735642
eth_wishbone/always_26 0.219981 0.011022 0.908512 -0.313308 -0.338996 -0.607466 1.374398 -0.344009 1.657414 1.357847 -0.364606 -0.039634 0.037052 -0.295136 -1.359020 -0.112481 0.591100 0.441795 0.261628 -0.816476
eth_wishbone/always_27 0.205640 0.046130 0.906324 -0.317399 -0.332608 -0.655533 1.310063 -0.343599 1.620413 1.357438 -0.387396 -0.034304 0.026846 -0.316747 -1.315354 -0.149112 0.598213 0.408943 0.224381 -0.768786
eth_register/always_1/block_1/if_1/if_1/if_1/stmt_1 -0.849155 0.566975 1.024447 0.422639 -2.432715 -0.667641 4.609186 -3.799840 0.339829 1.008409 0.748116 0.607535 -2.277567 -1.216360 -2.253763 -0.315344 0.803977 2.850146 -2.720762 0.150298
eth_clockgen/always_1/block_1/if_1/block_1/if_1/cond -0.633393 2.071894 0.682255 0.701048 -2.374079 -2.894005 -2.258071 -0.416932 -1.582929 0.587863 -2.571938 2.436212 1.108313 -0.703168 1.634654 -2.277709 2.145245 0.238021 -2.506664 0.445615
eth_clockgen/assign_4_MdcEn/expr_1/expr_1 -0.280567 0.340254 0.555433 0.949721 -1.637245 0.390401 -1.614874 -1.434939 -1.163307 -1.571823 -0.018443 2.876927 -1.419965 -0.504730 -3.490088 -1.139885 0.185058 3.677691 -2.859789 -0.932439
eth_top/reg_temp_wb_err_o_reg -2.255833 2.045655 -0.754605 -0.538185 -0.513268 -1.615536 0.749906 -1.675118 -0.339998 3.206520 -0.384154 0.685793 0.984171 -1.517390 1.151782 -2.638826 1.109277 -1.758157 -4.118001 -1.500299
eth_registers/assign_43_MIIADDRESS_Wr 0.065536 -1.571664 -0.389068 0.143289 1.686556 0.814613 -0.317591 0.826585 -1.072405 -1.795337 0.223194 -0.995501 -0.603541 1.374728 -1.175633 0.671682 -1.309396 0.096904 2.486012 -1.789996
eth_clockgen/always_1/block_1/if_1/stmt_1 0.731673 1.372948 0.602099 -0.079838 -3.676964 -3.785437 0.659601 2.844976 1.653042 2.308325 -2.528134 -1.212364 0.731240 0.377802 -0.102771 -0.443761 0.539145 -0.620737 -0.554578 2.498525
eth_miim/assign_7_ByteSelect/expr_1/expr_1 -1.769789 -0.315321 1.221899 0.359030 2.747869 -0.868604 1.644808 2.820810 -2.639199 -1.738927 -0.869265 -2.078750 -0.166692 2.784654 -2.908538 -0.370996 -1.461226 0.272784 1.475827 -2.966812
eth_top/assign_4_RegCs -1.415242 0.063083 1.864679 1.009074 1.535860 -0.832631 0.226870 2.811039 -1.301424 -0.834332 -0.342731 1.588247 1.517060 0.759733 -3.342550 -0.429595 0.077068 0.723957 -0.688065 -1.591066
eth_miim/assign_2_ReadStatusOp 2.021550 -1.727002 -0.279065 1.669762 -1.645266 -0.948575 -5.508016 -0.384660 -0.792340 0.001890 -0.294611 1.301576 -3.394837 1.005680 1.164709 0.581078 1.165112 -0.185454 5.067173 -2.375653
eth_miim/always_4/block_1/if_1/block_2/if_1/cond 0.609096 -0.169717 -2.372065 -0.644021 -1.808254 1.535790 -0.722769 -2.138040 -0.612030 -2.212689 -1.578019 0.934163 1.450788 -0.829492 -1.580696 -1.048526 -1.729951 3.009017 -3.898161 2.285735
eth_outputcontrol/assign_1_SerialEn/expr_1/expr_2/expr_1 1.481431 -1.479712 -0.158485 0.929399 -0.849626 1.007030 -3.506262 -0.742954 0.206638 -0.759844 0.182685 2.909431 -0.535105 -0.664973 -0.288492 0.566575 0.494123 0.928045 1.293789 -0.505787
eth_clockgen/always_2/block_1 -1.471656 3.536342 0.925379 0.025388 -0.123413 -1.628526 -0.824722 -1.591964 -2.534340 -0.420229 -3.095683 0.008140 1.547729 0.051283 2.610112 -2.934335 0.932197 0.226790 -3.625821 0.767841
eth_maccontrol 0.214047 0.036642 0.932554 -0.301710 -0.392716 -0.637615 1.320057 -0.367902 1.663777 1.381742 -0.383262 -0.013260 0.006100 -0.301772 -1.335454 -0.097450 0.659171 0.451127 0.207927 -0.792075
eth_registers/wire_r_RGAD 0.012714 -1.449934 -0.318772 0.181906 1.580242 0.742924 -0.248861 0.777239 -1.047482 -1.676313 0.207416 -0.960657 -0.556280 1.302519 -1.156875 0.595627 -1.224073 0.096211 2.274453 -1.697755
eth_top/assign_17_MRxDV_Lb 0.239281 -0.046123 0.921362 -0.348913 -0.267279 -0.543777 1.387817 -0.356691 1.642815 1.295532 -0.326531 -0.073679 0.001199 -0.315578 -1.335825 -0.030294 0.600811 0.407409 0.279806 -0.746460
eth_top/wire_r_RGAD 0.088178 -1.565983 -0.373245 0.164035 1.716707 0.865373 -0.382185 0.821617 -1.093086 -1.817482 0.239533 -0.970194 -0.574386 1.362851 -1.135085 0.694889 -1.312699 0.109591 2.508731 -1.809337
eth_rxstatem/assign_2_StartPreamble/expr_1/expr_2/expr_1 0.203823 -0.039546 0.893625 -0.342328 -0.208385 -0.477810 1.421898 -0.351073 1.639050 1.250764 -0.247878 -0.099994 0.048529 -0.322994 -1.313019 -0.034128 0.527150 0.396235 0.259513 -0.728348
eth_clockgen/wire_MdcEn -0.370362 0.352675 0.654619 0.918422 -1.408966 0.344663 -1.410457 -1.278174 -1.244861 -1.580827 0.038324 2.744159 -1.409915 -0.365487 -3.513208 -1.125925 0.164678 3.608915 -2.789337 -1.055741
eth_top/assign_12_temp_wb_err_o/expr_1 -1.674248 -0.539459 0.050278 -0.103990 0.552430 0.122064 0.468887 -2.308306 0.183571 0.863684 1.421051 1.445817 -0.402811 -0.413708 0.370810 -1.677950 0.892833 0.066491 -1.483387 -2.326884
eth_wishbone/always_3/block_1/if_1/block_2/case_1/cond -0.825156 -0.888769 1.343753 0.029104 2.316768 1.615847 1.855789 1.370275 0.299927 -1.594245 0.788872 1.696769 2.172091 -0.503535 -2.442919 0.675931 -0.688513 0.570775 -1.120023 -0.265972
eth_txethmac/always_13/block_1/if_1/stmt_2/expr_1/expr_1 0.196112 -0.004664 0.930812 -0.329190 -0.331007 -0.596058 1.422592 -0.362629 1.645162 1.306349 -0.339120 -0.033594 0.068128 -0.335006 -1.354503 -0.077435 0.623688 0.391688 0.167765 -0.756505
eth_top/wire_MRxDV_Lb 0.231777 0.009773 0.947612 -0.301093 -0.347864 -0.631756 1.305489 -0.317684 1.602749 1.301843 -0.386779 -0.012974 0.015222 -0.285277 -1.337036 -0.117262 0.591297 0.427670 0.233046 -0.780775
eth_top/assign_7_BDCs/expr_1/expr_1 -1.356378 1.481961 1.281565 0.045552 0.420854 -0.709221 1.806505 1.495977 0.429891 0.791196 0.134416 1.350013 2.584342 -1.019580 -1.298681 -0.629993 0.691956 -0.016184 -3.388992 1.158024
eth_top/assign_17_MRxDV_Lb/expr_1 0.210377 -0.005368 0.897234 -0.363173 -0.287046 -0.564743 1.369060 -0.334747 1.632801 1.256826 -0.284330 -0.068690 0.046156 -0.313014 -1.309844 -0.084833 0.569848 0.389430 0.183647 -0.704863
eth_clockgen/always_2/block_1/if_1/block_1/if_1 -0.829385 2.372376 1.010349 -0.103960 -0.875129 -1.902199 -0.798239 -1.700573 -1.191879 -0.146411 -3.089110 1.392555 1.735284 -0.906507 2.992765 -2.264271 1.505589 -0.271508 -2.520405 0.479356
eth_registers/assign_47_MAC_ADDR0_Wr/expr_1 1.496563 2.965561 1.624376 0.894268 -1.195493 -0.278176 -3.412280 2.769858 0.156806 1.845495 1.047194 -0.212535 -2.764266 -0.038069 3.110102 1.826426 1.235971 -1.287200 1.700532 1.765791
eth_wishbone/always_3/block_1/if_1/block_2/case_1 -1.341107 1.499414 1.315603 0.084498 0.351828 -0.741201 1.777226 1.469057 0.446868 0.809953 0.128689 1.366145 2.485392 -0.984283 -1.309291 -0.618972 0.698025 0.033840 -3.286871 1.144723
eth_rxethmac/input_MRxDV 0.241420 -0.023665 0.923120 -0.358954 -0.330574 -0.576167 1.362975 -0.367553 1.632702 1.294953 -0.356188 -0.069170 0.006915 -0.331978 -1.363566 -0.062841 0.594031 0.425388 0.270917 -0.791205
eth_miim/always_6/block_1/if_1/block_1/stmt_3 1.081370 -1.150799 -0.525492 0.385923 -0.363187 1.032315 -2.122737 -0.553968 0.091031 -0.799826 0.194318 1.345814 -0.359663 -0.270778 0.004262 0.542705 -0.105004 0.510268 1.092728 -0.143851
eth_clockgen/assign_1_TempDivider/expr_1 1.392411 1.818314 1.270015 1.068521 -4.010747 -3.336570 -2.923325 2.816513 0.385724 2.728510 -3.154456 0.149089 -1.618975 1.347948 -1.799559 -0.604159 0.750749 1.490839 0.048435 1.208163
eth_miim/always_6/block_1/if_1/block_1/stmt_7 0.528828 0.007528 -2.319429 -0.720918 -1.913090 1.371715 -0.537680 -2.080864 -0.531210 -2.004369 -1.637169 0.953565 1.644334 -0.910536 -1.480438 -1.164389 -1.694498 2.935087 -4.176624 2.507463
eth_wishbone/always_1/block_1/stmt_1/expr_1 -1.391140 1.502220 1.375301 0.097762 0.345027 -0.769488 1.771497 1.528173 0.396309 0.813677 0.070054 1.468972 2.584254 -1.019875 -1.298386 -0.676298 0.767364 0.013531 -3.438565 1.158281
eth_miim/reg_RStat_q3 1.627666 -2.927984 -0.381747 1.265218 0.425148 1.257451 -4.195947 0.296419 -1.496907 -2.850102 -0.734948 1.662842 -1.395138 1.370389 -1.836206 0.930710 -1.014461 1.662377 4.029788 -2.368095
eth_miim/reg_RStat_q2 1.886742 -2.261559 -1.136441 1.205201 -0.611077 -0.455943 -4.923379 0.610949 -1.408911 -0.924738 -1.431861 0.511610 -1.233988 1.577825 0.666608 0.488287 -0.293230 -0.276000 4.707509 -1.745097
eth_miim/reg_RStat_q1 1.779039 -2.050801 -1.098059 1.167722 -0.800918 -0.561864 -4.818583 0.517060 -1.311762 -0.745642 -1.430652 0.527579 -1.211109 1.490606 0.778536 0.402715 -0.156494 -0.284995 4.401564 -1.570516
eth_wishbone/always_30/block_1/if_1/if_1 0.236368 0.029814 0.881205 -0.317909 -0.374429 -0.588809 1.292660 -0.361296 1.584654 1.307325 -0.349931 -0.080480 -0.008090 -0.333996 -1.227627 -0.091405 0.613352 0.408227 0.233825 -0.736419
eth_registers/always_1/block_1/if_1/block_1/case_1/stmt_16 -0.140014 1.587085 0.864050 0.405157 -5.055053 -2.549098 2.840193 -3.641325 1.580974 3.347487 1.554924 0.158215 -4.462789 -1.354035 0.964778 -0.444133 2.724889 1.242203 -1.946292 1.364805
eth_registers/wire_MIICOMMANDOut -0.181747 -0.750198 0.245476 1.077055 0.444624 -1.678123 -2.258284 2.077861 -2.070143 -0.307595 -1.390637 -0.321775 -0.386754 2.053190 -0.553598 -0.462732 -0.123785 -0.624375 2.695447 -2.260206
eth_outputcontrol/always_1/block_1/if_1/block_2/if_1/block_1 1.202486 0.260784 -0.561133 0.880575 -3.753623 1.343610 -3.652071 -3.750262 0.485391 -0.745995 0.655989 5.056043 -1.208574 -2.633967 -1.572993 -0.903759 1.197208 3.804605 -3.979652 1.130106
eth_miim/assign_7_ByteSelect -1.769647 -0.204778 1.245305 0.351096 2.519472 -0.983791 1.729501 2.655185 -2.520941 -1.590825 -0.873911 -1.950617 -0.144287 2.629028 -2.864594 -0.452987 -1.332406 0.382056 1.128856 -2.741535
eth_outputcontrol/assign_1_SerialEn/expr_1 -0.876122 1.715648 2.043845 1.598138 -0.013521 -2.853448 -3.080261 1.668953 -0.598421 4.228830 -0.642304 3.064543 1.686463 -0.745570 2.973709 -1.547962 2.902136 -3.506816 -0.324645 -1.508356
eth_top/assign_3_RegCs/expr_1/expr_1/expr_1/expr_1/expr_1 -0.772529 -0.924840 1.261665 -0.004321 2.283798 1.652416 1.754025 1.314015 0.252850 -1.632140 0.788918 1.647665 2.086488 -0.465309 -2.382715 0.654717 -0.700626 0.565638 -1.030581 -0.300599
eth_register/always_1/block_1/if_1/if_1/cond 0.617261 -6.702002 -3.397990 -0.306482 -5.088788 -7.717979 0.275332 -3.556264 0.398988 3.580188 -7.672144 -0.998377 0.505899 4.052978 0.795177 -3.468395 2.021556 0.051747 5.939823 -2.628772
eth_rxstatem/always_1 0.200238 -0.041027 0.874490 -0.366430 -0.246291 -0.495743 1.364695 -0.335396 1.604775 1.263457 -0.298784 -0.105147 0.030961 -0.340765 -1.292470 -0.077560 0.550143 0.348489 0.215886 -0.734442
eth_outputcontrol/input_InProgress 1.076612 0.287472 -0.421634 0.958032 -3.471268 1.295266 -3.661910 -3.536076 0.324800 -0.738318 0.777266 5.039981 -1.293174 -2.489283 -1.628763 -0.865133 1.213572 3.699536 -3.856932 0.845697
eth_miim/wire_StartOp 0.555471 -0.402811 -1.238205 0.754927 -1.755063 -0.529628 -3.208628 -0.581550 -1.857823 -1.295353 -1.601662 1.132917 -0.488533 0.587084 -1.011485 -1.104454 -0.495861 1.688709 -0.534333 -0.369138
eth_top/assign_9_BDCs/expr_1/expr_1/expr_1/expr_1 -1.369093 1.563448 1.377597 0.081881 0.284620 -0.820977 1.873071 1.477828 0.508267 0.902382 0.147102 1.386209 2.562765 -1.047664 -1.229036 -0.663687 0.797812 -0.034741 -3.459618 1.208900
eth_top/assign_4_RegCs/expr_1/expr_1 -1.401885 0.113870 1.952672 1.117802 1.534742 -0.952569 0.011038 2.908954 -1.474251 -0.834803 -0.456430 1.583991 1.456964 0.845121 -3.311324 -0.481682 0.117141 0.705370 -0.547108 -1.720263
eth_wishbone/always_3/block_1/if_1/block_2/case_1/block_7/stmt_6/expr_1 -1.359409 1.432837 1.315278 0.019317 0.503373 -0.639757 1.944398 1.496623 0.497987 0.743810 0.250240 1.348737 2.566992 -1.013856 -1.317804 -0.537284 0.659207 -0.025392 -3.343256 1.168113
eth_txstatem/reg_StateData 0.231163 -0.001477 0.931191 -0.346835 -0.322988 -0.587197 1.357833 -0.326351 1.649145 1.315889 -0.359038 -0.068676 -0.004524 -0.285537 -1.354663 -0.100895 0.614561 0.443022 0.270211 -0.820730
eth_registers/assign_40_MIIMODER_Wr/expr_1 -0.417489 -1.430253 1.098687 1.174637 1.477003 -0.133417 -1.486222 1.838174 -2.179739 -2.110500 -0.700072 0.839634 -0.619221 1.848097 -3.091979 -0.036374 -0.774023 1.329100 2.062101 -2.986681
eth_registers/wire_Write 0.964310 0.697060 0.764963 0.235489 -3.337780 -3.288054 -1.787533 -1.991801 1.547020 3.759190 -1.703241 0.335404 -1.867939 0.136461 0.005659 -1.786009 2.939415 0.600286 1.063342 -1.601748
eth_wishbone/always_27/block_1/if_1 0.218691 -0.071190 0.907264 -0.327275 -0.260629 -0.510151 1.359676 -0.336632 1.622526 1.265276 -0.317075 -0.097613 0.044657 -0.303021 -1.331360 -0.069100 0.552948 0.381476 0.260864 -0.747566
eth_txethmac/always_13/block_1/if_1/stmt_2/expr_1/expr_1/expr_1/expr_1 0.225965 0.039075 0.931765 -0.332371 -0.358013 -0.656974 1.339829 -0.361187 1.625241 1.362654 -0.368510 -0.016772 0.027119 -0.312763 -1.346958 -0.114818 0.619585 0.438871 0.227090 -0.757905
eth_miim/always_8/block_1/if_1/block_1/if_1/cond -1.555320 0.495691 1.753386 1.848217 0.463112 1.257306 -2.249465 -1.127811 -2.723172 -2.583499 2.623467 3.645310 -3.007493 -0.154357 -4.319617 -0.889547 0.658784 3.590011 -2.321446 -3.472243
eth_miim/always_6/block_1/if_1/block_2/if_1/cond 0.065403 -1.273135 -1.096800 0.301316 -0.143151 1.154131 -1.510877 0.030090 -2.319906 -3.620304 -2.105551 1.451527 1.294716 0.838862 -3.942025 -0.961817 -2.271149 3.499269 -1.941825 -0.302385
eth_miim/input_RStat 1.840968 -2.146008 -1.118181 1.183064 -0.695437 -0.493588 -4.929181 0.573649 -1.362917 -0.844294 -1.476002 0.471105 -1.269403 1.580369 0.818003 0.452398 -0.266935 -0.360698 4.638803 -1.620665
eth_registers/assign_1_Write 0.775997 0.844420 0.905263 0.216497 -3.294493 -3.369155 -1.369701 -1.880650 1.583818 3.757842 -1.641112 0.399582 -1.695548 -0.011275 -0.064406 -1.823199 2.913905 0.538470 0.683047 -1.467377
eth_rxstatem/reg_StateIdle 0.225909 -0.028259 0.937410 -0.337951 -0.281331 -0.564742 1.409525 -0.369121 1.707854 1.339176 -0.283170 -0.072132 0.045852 -0.345834 -1.331265 -0.067445 0.618737 0.371852 0.210944 -0.741922
eth_top/wire_mdc_pad_o -0.900480 2.368002 -0.775960 -0.985010 -5.340741 -4.664119 2.840708 -1.613014 1.346204 2.468139 -4.489355 1.967117 4.614750 -2.403097 0.575059 -3.511740 1.770957 1.024255 -7.460765 4.331274
eth_registers/assign_111_r_RStat 1.850544 -2.259941 -1.165781 1.207489 -0.590070 -0.495773 -4.999660 0.713545 -1.493881 -0.935446 -1.503284 0.363183 -1.214262 1.699358 0.775233 0.485615 -0.339546 -0.380140 4.851646 -1.742856
eth_rxstatem/always_1/block_1/if_1/block_2 0.232887 -0.011603 0.904481 -0.361692 -0.296643 -0.568687 1.345724 -0.348005 1.654555 1.341386 -0.321297 -0.063201 0.042266 -0.314890 -1.296680 -0.088917 0.577012 0.375873 0.210819 -0.717615
eth_wishbone/always_6/block_1/if_1/if_1/cond/expr_1 0.220301 0.003894 0.914155 -0.328627 -0.357492 -0.613559 1.362143 -0.361793 1.699694 1.373757 -0.359237 -0.084303 0.012666 -0.319932 -1.316984 -0.092016 0.594506 0.397091 0.214917 -0.743656
eth_outputcontrol/assign_1_SerialEn/expr_1/expr_2/expr_2/expr_1 1.449682 -1.417687 -0.177285 0.883463 -0.891943 1.026688 -3.420291 -0.755556 0.222039 -0.739619 0.207804 2.877906 -0.534054 -0.681733 -0.277500 0.546536 0.496414 0.958782 1.194908 -0.407335
eth_txethmac/always_13/block_1/if_1/stmt_2/expr_1/expr_1/expr_1 0.211334 -0.024895 0.933965 -0.352501 -0.287463 -0.562787 1.379679 -0.357975 1.643068 1.270381 -0.318767 -0.045521 0.035342 -0.310637 -1.350147 -0.063747 0.589640 0.431448 0.259581 -0.767387
eth_txstatem/assign_6_StartPAD/expr_1/expr_1/expr_1 0.244783 -0.058308 0.922100 -0.369424 -0.275331 -0.563897 1.387952 -0.358844 1.663504 1.305452 -0.338741 -0.064924 0.048839 -0.299855 -1.382940 -0.038859 0.535687 0.427835 0.274663 -0.795569
eth_txethmac/always_13/block_1/if_1 0.240210 -0.016978 0.936775 -0.353675 -0.343564 -0.599272 1.422580 -0.376695 1.711496 1.369541 -0.387249 -0.048717 0.040418 -0.357217 -1.347054 -0.078135 0.609156 0.412380 0.214454 -0.760971
eth_maccontrol/input_TxStartFrmIn 0.200924 0.026283 0.949098 -0.323102 -0.311883 -0.583538 1.415025 -0.344189 1.677829 1.363530 -0.384544 -0.043558 0.082809 -0.337380 -1.367728 -0.100341 0.601736 0.435176 0.221470 -0.784939
eth_txstatem/assign_7_StartFCS 0.196822 0.003454 0.951246 -0.326406 -0.293351 -0.582436 1.408883 -0.327679 1.697314 1.358209 -0.321025 -0.068803 0.046570 -0.334427 -1.375414 -0.077661 0.590112 0.433869 0.225341 -0.755375
eth_wishbone/always_1/block_1/stmt_1/expr_1/expr_1/expr_1 -1.308883 1.482269 1.305555 0.060519 0.320664 -0.734593 1.881928 1.455776 0.549013 0.898443 0.173053 1.326612 2.470405 -1.057736 -1.217433 -0.615424 0.772169 -0.075602 -3.295244 1.179716
eth_shiftreg/always_1 -1.775965 -0.257649 1.219661 0.313108 2.523304 -0.927460 1.713416 2.653772 -2.521466 -1.636920 -0.871760 -2.003734 -0.149224 2.667939 -2.909074 -0.449868 -1.405745 0.383303 1.262494 -2.786566
eth_shiftreg/wire_ShiftedBit -1.903270 -0.148820 1.306184 0.317773 2.544620 -1.035756 1.848858 2.753965 -2.591157 -1.592135 -0.931623 -2.037936 -0.095083 2.680899 -3.009448 -0.517334 -1.328901 0.403345 1.113603 -2.807862
check_ethernet/input_wb_we_i -0.684765 2.702370 2.812106 -0.596887 -0.625675 -0.967747 3.771297 0.915744 2.624068 1.954641 1.886710 -1.066668 -1.328313 -1.480078 1.656812 0.139591 1.292426 -1.969918 -1.940161 1.227885
eth_miim/always_4/block_1/if_1/block_2/if_1/block_2/if_1/stmt_1 0.522426 -0.098964 -2.357743 -0.634056 -1.742775 1.535676 -0.682297 -2.112282 -0.694918 -2.234475 -1.506467 0.966491 1.555582 -0.875586 -1.581159 -1.067409 -1.753516 2.983761 -4.034086 2.288203
eth_top/wire_temp_wb_err_o -2.366200 2.038361 -0.669084 -0.525188 -0.466918 -1.614038 0.832918 -1.685037 -0.362309 3.222302 -0.231795 0.703847 0.888115 -1.452881 1.191245 -2.663545 1.125784 -1.773677 -4.201825 -1.519403
eth_rxstatem/always_1/block_1/if_1/block_2/if_4 0.229963 0.002233 0.895782 -0.325418 -0.332256 -0.594143 1.360292 -0.377482 1.694095 1.385933 -0.350778 -0.071077 0.021427 -0.355258 -1.329715 -0.125273 0.632746 0.375321 0.227994 -0.771131
eth_outputcontrol/always_1/block_1/if_1/block_2/if_1/block_1/stmt_1/expr_1/expr_1/expr_1 0.289887 1.183907 -0.770558 0.187444 -3.097903 0.918126 -1.400909 -3.479547 0.011587 -0.688804 0.560880 2.697011 -1.308419 -1.921271 -1.430827 -1.239082 0.485716 3.456464 -4.659493 1.258474
eth_miim/reg_WCtrlDataStart_q1 0.319126 -0.681932 -2.012011 0.186512 -0.975933 -0.246925 -2.318558 0.318346 -2.298178 -1.987916 -2.787807 0.270373 1.512436 1.077164 -1.541829 -1.361418 -1.823550 1.652236 -1.204513 0.350988
eth_miim/reg_WCtrlDataStart_q2 1.722593 -2.463276 -2.388140 0.406805 -1.139636 2.342841 -3.776704 -1.475993 -1.623964 -4.138656 -1.983316 2.313945 0.731701 0.172282 -2.791470 -0.260889 -2.307111 3.805897 -0.580404 0.413369
eth_registers/wire_MIIMODER_Sel 2.025023 2.105295 -0.665171 1.168143 0.284091 1.145791 -6.965050 3.707685 -1.941425 -0.907297 0.648553 -1.081700 -1.713525 0.944134 2.309509 1.741228 -0.849867 -1.512228 2.863221 1.179470
eth_miim/wire_WriteDataOp 0.444951 -0.872757 -2.157838 0.241713 -0.953253 -0.094041 -2.673540 0.229276 -2.432058 -2.229857 -2.761918 0.375546 1.443961 1.106584 -1.550072 -1.296338 -1.925836 1.747703 -1.004773 0.261199
eth_top/reg_WillTransmit_q2 0.217792 -0.030321 0.951851 -0.372730 -0.301940 -0.561279 1.441674 -0.346050 1.723771 1.333568 -0.285622 -0.064241 0.038467 -0.361261 -1.342210 -0.070475 0.567110 0.388166 0.256965 -0.771795
eth_miim/always_8/block_1/if_1/block_1/if_1/block_1/if_1/block_1/if_1/stmt_2 -1.390102 0.321534 1.493233 1.908066 0.432368 1.513755 -2.610564 -1.212220 -2.842281 -2.900481 2.599456 3.783077 -2.982327 -0.192648 -4.319600 -0.828295 0.474191 3.727570 -2.248675 -3.423760
eth_miim/always_8/block_1/if_1/block_1/if_1/block_1/if_1/block_1/if_1/stmt_1 -0.363099 -1.400528 1.089455 1.167645 1.363783 -0.133305 -1.515720 1.725382 -2.138426 -2.080425 -0.719323 0.901572 -0.625706 1.821282 -3.065836 -0.039810 -0.683487 1.334551 1.958393 -2.939320
eth_top/wire_temp_wb_dat_o -2.144938 1.604947 0.799683 0.258171 -4.168779 -3.385570 2.804381 -1.715300 1.196060 2.688424 1.986993 1.572815 -0.680712 -1.188734 1.211710 -1.889740 3.428187 0.357329 -5.052505 2.861575
eth_clockgen/wire_MdcEn_n -1.528635 3.597339 0.676664 0.799248 0.737756 -1.029402 -1.474567 0.592674 -2.960608 1.169891 -0.922101 -0.960080 0.406354 1.018974 0.851696 -2.121337 0.255890 -0.275939 -3.067777 0.171921
eth_outputcontrol/reg_Mdo_d -2.445510 2.695016 2.854428 1.285271 1.365645 -4.219524 -0.715507 4.355667 -2.580149 3.194445 -2.141071 0.108556 1.715629 1.581799 1.121928 -2.175964 1.316002 -3.267979 -0.549857 -2.354538
eth_txstatem/assign_5_StartData/expr_1 0.234115 -0.018513 0.893058 -0.370028 -0.292281 -0.523589 1.387337 -0.364018 1.636914 1.282540 -0.308616 -0.084401 0.013616 -0.325395 -1.279047 -0.067885 0.577710 0.384423 0.289543 -0.721335
check_ethernet/always_1/if_1 -0.629074 2.688786 2.846743 -0.627252 -0.619504 -0.974770 3.693664 1.024675 2.682698 1.939682 1.862123 -1.032303 -1.229227 -1.478275 1.632667 0.121052 1.301966 -1.976568 -1.935847 1.223610
eth_top/wire_r_ScanStat -0.142972 -0.615215 0.258210 1.079661 0.209911 -1.798861 -2.356729 1.971254 -2.026508 -0.176071 -1.459788 -0.210290 -0.424768 1.962554 -0.445996 -0.507759 -0.059023 -0.573892 2.526029 -2.152534
eth_miim/input_Mdi -1.858180 1.183898 1.587327 0.173072 1.140965 -1.683395 2.067299 2.018714 -1.634645 -0.040274 -1.133594 -1.197847 0.407148 1.510375 -1.832036 -1.008742 -0.270936 0.214949 -0.906227 -1.217191
eth_rxstatem/assign_1_StartIdle/expr_1/expr_1 0.195181 -0.014133 0.917194 -0.327059 -0.258428 -0.591452 1.402997 -0.310830 1.679681 1.320941 -0.344376 -0.027753 0.070855 -0.339876 -1.406094 -0.077270 0.562828 0.407915 0.246391 -0.807782
eth_rxstatem/always_1/block_1/if_1/block_2/if_1/cond 0.196559 0.041819 0.892906 -0.311992 -0.325188 -0.600798 1.346960 -0.324737 1.609189 1.305723 -0.350612 -0.050287 0.056957 -0.341449 -1.304680 -0.088236 0.602151 0.402668 0.193245 -0.741522
eth_rxstatem/assign_1_StartIdle/expr_1/expr_2 0.228987 -0.047116 0.963496 -0.366182 -0.277013 -0.574328 1.437587 -0.345024 1.693844 1.316284 -0.335311 -0.050392 0.031152 -0.314436 -1.407198 -0.050206 0.571895 0.451377 0.281925 -0.804469
eth_outputcontrol/always_2/block_1/if_1/block_2/if_1/block_1/stmt_1 -2.540644 2.585718 2.826429 1.240180 1.325193 -4.172336 -0.495582 4.108443 -2.595564 3.043405 -2.301386 0.156144 1.837052 1.565597 0.975420 -2.307203 1.277768 -3.100093 -0.675449 -2.416559
eth_outputcontrol/always_2/block_1/if_1/block_2/if_1/block_1/stmt_3 -2.490526 2.640929 2.794363 1.130366 1.231517 -4.261032 -0.278322 4.133457 -2.344965 3.307264 -2.231465 0.027372 1.842857 1.492393 1.005584 -2.262056 1.308374 -3.207249 -0.795644 -2.249491
eth_outputcontrol/always_2/block_1/if_1/block_2/if_1/block_1/stmt_2 -2.378372 2.736808 2.913935 1.279788 1.337281 -4.172285 -0.829457 4.284566 -2.555381 3.173975 -2.182178 0.203538 1.664416 1.540594 1.090284 -2.199681 1.341744 -3.206709 -0.493286 -2.423572
eth_txstatem/always_1/block_1/if_1 0.241754 -0.031789 0.894738 -0.329888 -0.312429 -0.558936 1.399275 -0.345396 1.698096 1.326597 -0.347800 -0.081235 0.010356 -0.308174 -1.355311 -0.074899 0.603078 0.387678 0.258950 -0.795754
eth_top/assign_11_temp_wb_dat_o/expr_1/expr_1/expr_2 -2.168530 1.707619 0.782412 0.280147 -4.117684 -3.375366 2.779265 -1.665095 1.120603 2.725440 1.972121 1.491343 -0.673571 -1.158412 1.341621 -1.837693 3.377344 0.264944 -5.037393 2.900707
eth_miim/reg_WCtrlData_q2 0.233835 -0.537042 -2.009258 0.182351 -1.134075 -0.320795 -2.201382 0.192788 -2.261518 -1.893275 -2.756366 0.288992 1.603505 0.945907 -1.463866 -1.475093 -1.732398 1.623048 -1.565985 0.495436
eth_miim/reg_WCtrlData_q1 -0.124863 -0.732122 0.248210 1.112962 0.332429 -1.723530 -2.347627 2.039198 -2.063621 -0.254178 -1.408810 -0.249987 -0.406690 1.998858 -0.480563 -0.464774 -0.103338 -0.624852 2.677096 -2.215557
eth_top/assign_11_temp_wb_dat_o/expr_1/expr_1/expr_1 -2.108722 1.561460 0.664820 0.257526 -4.185760 -3.405122 2.760153 -1.696775 1.108473 2.608027 1.921646 1.465503 -0.658945 -1.082148 1.397081 -1.881479 3.357930 0.270431 -4.949479 2.932619
eth_top/assign_8_BDCs/expr_1/expr_1/expr_1/expr_1/expr_1 -0.782817 -0.852725 1.268370 0.019470 2.205974 1.583815 1.727885 1.298683 0.323403 -1.574185 0.742785 1.629216 2.037915 -0.474369 -2.318521 0.642129 -0.690913 0.568856 -1.049629 -0.277338
eth_wishbone/always_77/block_1/if_1/if_1/cond -0.801437 -0.961571 1.269305 -0.009421 2.419843 1.719886 1.801018 1.402728 0.259312 -1.743084 0.815280 1.668415 2.172264 -0.503850 -2.478654 0.727638 -0.810527 0.578456 -1.067093 -0.302021
eth_shiftreg/always_1/block_1/if_1/block_2/if_1 -1.735494 -0.303689 1.183720 0.332690 2.594824 -0.930640 1.673114 2.713220 -2.582975 -1.710350 -0.890261 -2.005197 -0.152773 2.710210 -2.955876 -0.449813 -1.431654 0.390410 1.328995 -2.828039
eth_registers/always_1/block_1/if_1 -1.038837 1.830144 0.114325 0.316720 -4.477253 -2.387982 1.942998 -2.341978 1.004349 2.304124 2.589931 0.181272 -3.201402 -1.295747 1.569039 -1.109623 2.489248 0.089665 -3.533139 2.147797
eth_top/wire_RegCs -0.650298 0.052877 1.480472 0.737923 -1.161009 -1.210313 0.705300 -0.072297 -0.307103 -0.085331 0.285372 1.368219 -0.210043 0.135572 0.365266 -0.238829 1.482666 0.756409 -0.839359 1.201368
eth_clockgen/reg_Mdc -1.343604 3.690611 1.095597 0.072747 -0.204144 -1.606428 -0.980042 -1.608333 -2.469537 -0.315404 -3.127938 0.096324 1.442053 -0.030964 2.705473 -2.847205 1.076993 0.215672 -3.561425 0.745811
eth_shiftreg/always_1/block_1/if_1/block_2/if_1/cond -1.792861 -0.276139 1.217651 0.354824 2.636440 -0.955657 1.705658 2.728104 -2.587644 -1.689142 -0.913982 -2.047457 -0.139992 2.742508 -2.941797 -0.437991 -1.418216 0.328807 1.318758 -2.884179
eth_shiftreg/always_1/block_1 -1.720253 -0.278899 1.183702 0.343827 2.509978 -0.932540 1.603319 2.655289 -2.611840 -1.724449 -0.989647 -1.977362 -0.172703 2.706264 -2.933771 -0.457982 -1.414126 0.468521 1.288546 -2.804882
eth_top/assign_2_RegCs/expr_1 -1.403118 1.457707 1.377052 0.054772 0.478924 -0.675061 1.862747 1.527982 0.434179 0.735658 0.192173 1.416423 2.607447 -1.029200 -1.392721 -0.573909 0.691450 0.034513 -3.423126 1.156528
eth_wishbone/always_2/block_1/if_1/if_1 -0.829868 -0.899792 1.327137 0.004866 2.369962 1.651460 1.961015 1.369227 0.337104 -1.624904 0.863723 1.670626 2.198468 -0.533162 -2.465535 0.693477 -0.679247 0.586052 -1.141989 -0.248141
eth_rxstatem/assign_2_StartPreamble 0.201038 0.024724 0.945827 -0.341500 -0.348525 -0.614439 1.422381 -0.348106 1.705504 1.359570 -0.314768 -0.054113 0.048353 -0.335076 -1.354679 -0.085917 0.600596 0.379392 0.217471 -0.756818
eth_miim/inst_shftrg -1.734745 -0.261485 1.198811 0.337764 2.443262 -0.959223 1.637249 2.611001 -2.582811 -1.669521 -0.968739 -1.939786 -0.188742 2.684418 -2.983432 -0.472596 -1.396032 0.486151 1.222583 -2.816601
eth_top/always_1/block_1/if_1/block_2/stmt_1 -2.280889 3.748521 1.404943 0.327038 -1.483661 -3.283890 0.773071 1.364107 -0.298498 2.991712 -1.604854 1.927894 3.515239 -1.348606 0.217753 -2.609699 2.300662 -0.559896 -6.024185 1.753831
eth_top/always_1/block_1/if_1/block_2/stmt_2 -1.915267 3.498275 0.519590 0.162428 -3.110398 -4.091177 2.851697 -1.330528 -0.199228 3.742935 -0.214543 -0.613121 0.112486 -0.507752 1.676843 -2.252994 2.716673 -0.468587 -4.770898 2.723693
eth_top/always_1/block_1/if_1/block_2/stmt_3 -2.315595 1.896859 -0.680541 -0.522559 -0.447596 -1.564679 0.848009 -1.802639 -0.314043 3.169718 -0.360498 0.738775 0.980144 -1.478675 1.182803 -2.654967 1.098908 -1.767153 -4.054547 -1.621677
eth_clockgen/always_2/block_1/if_1/block_1 -0.982454 2.534510 1.134286 -0.091776 -0.846239 -1.976702 -0.769101 -1.611191 -1.287983 -0.046543 -3.099200 1.402317 1.813232 -0.944108 2.938126 -2.393528 1.575920 -0.305195 -2.731545 0.448259
eth_txstatem/always_1/block_1/if_1/block_2/if_3/if_1/cond 0.231597 -0.007534 0.924578 -0.367568 -0.303064 -0.587130 1.410094 -0.356019 1.695541 1.341070 -0.321412 -0.089921 0.047899 -0.349483 -1.364835 -0.062901 0.609595 0.432146 0.261497 -0.781189
check_ethernet/input_wb_stb_i -0.725650 2.651861 2.859045 -0.603950 -0.475904 -0.905016 3.770962 0.958398 2.568968 1.811166 1.809188 -1.013461 -1.174083 -1.505155 1.533288 0.110939 1.206213 -1.892583 -2.045931 1.160014
eth_clockgen/assign_4_MdcEn/expr_1 -0.363768 0.339562 0.585639 0.938128 -1.435568 0.448542 -1.421147 -1.365143 -1.236381 -1.684239 0.106911 2.845622 -1.263387 -0.483426 -3.539325 -1.100336 0.098420 3.660508 -2.975089 -0.906425
eth_miim/assign_7_ByteSelect/expr_1/expr_1/expr_2 -1.822765 -0.250554 1.230538 0.332123 2.612482 -0.927514 1.826258 2.683299 -2.594975 -1.692043 -0.886784 -2.003961 -0.128147 2.692213 -3.068496 -0.471889 -1.412960 0.449329 1.172890 -2.823684
eth_miim/assign_7_ByteSelect/expr_1/expr_1/expr_1 -1.849883 -0.102245 1.278850 0.310222 2.518247 -1.047524 1.826557 2.679343 -2.524547 -1.527639 -0.900738 -1.988986 -0.119043 2.634252 -2.905293 -0.498409 -1.311693 0.347536 1.023978 -2.732881
eth_miim/always_7/block_1/if_1/block_2/if_1/block_1/if_1/block_2/if_1 -0.713008 -0.691890 -1.085739 1.264984 0.806926 0.727418 -3.734855 0.484235 -4.111290 -3.281428 -0.351757 1.221639 -0.208835 1.431882 -2.270148 -1.146007 -1.445031 1.735469 -0.495267 -2.179522
eth_txstatem/assign_4_StartData/expr_1/expr_2/expr_2 0.235521 -0.025780 0.936296 -0.372339 -0.279215 -0.564801 1.384617 -0.362785 1.678895 1.312175 -0.305352 -0.076154 0.056390 -0.351403 -1.330577 -0.082093 0.591957 0.398059 0.235886 -0.738905
eth_miim/wire_ShiftedBit -1.700953 -0.300752 1.185564 0.374590 2.484644 -0.945776 1.615320 2.606092 -2.530781 -1.643993 -0.910895 -1.952534 -0.226616 2.637761 -2.914490 -0.413015 -1.360546 0.409359 1.263329 -2.788978
eth_miim/assign_10_ByteSelect -1.748191 -0.307172 1.212868 0.338708 2.601957 -0.936356 1.692956 2.737512 -2.575051 -1.688728 -0.885401 -2.044197 -0.176577 2.754891 -2.923925 -0.430430 -1.451030 0.362432 1.363285 -2.863142
eth_miim/reg_SyncStatMdcEn -0.070817 -0.775629 0.264286 1.095809 0.276012 -1.623199 -2.364999 1.895907 -2.019629 -0.343493 -1.367889 -0.081427 -0.462497 1.936244 -0.720190 -0.453424 -0.083611 -0.378848 2.529148 -2.195518
eth_top/assign_4_RegCs/expr_1/expr_1/expr_1 -1.070955 -2.106572 2.253467 1.121046 3.367271 1.278661 0.335339 2.905956 -1.607582 -3.227549 0.094062 2.360132 1.361473 1.186219 -4.892759 0.627604 -1.201344 1.591440 0.952438 -2.948327
eth_wishbone/always_2/block_1 -0.803675 -0.871526 1.275551 0.013423 2.219457 1.562986 1.775823 1.286380 0.300717 -1.539934 0.789369 1.626855 2.065247 -0.497451 -2.307663 0.644584 -0.671342 0.551899 -1.090723 -0.227788
eth_top/assign_4_RegCs/expr_1/expr_1/expr_2 0.050378 -1.553019 -0.390210 0.183216 1.678010 0.822063 -0.288605 0.809981 -1.043208 -1.786246 0.246875 -1.012351 -0.571983 1.336169 -1.174970 0.620439 -1.295892 0.125872 2.428853 -1.798409
eth_top/assign_7_BDCs -1.409240 1.516164 1.323184 0.056391 0.460937 -0.674308 1.933373 1.498939 0.461207 0.837394 0.203747 1.371347 2.671392 -1.078946 -1.325459 -0.611394 0.709529 -0.015052 -3.511413 1.204018
eth_clockgen/wire_CounterPreset 1.187295 1.900998 1.407701 1.056674 -3.923995 -3.353665 -2.731082 2.608659 0.348706 2.810682 -2.910483 0.187787 -1.632067 1.256229 -1.649124 -0.671912 0.945914 1.347692 -0.088020 1.082009
check_ethernet/always_1/if_1/if_1 -0.641707 2.628359 2.771913 -0.585362 -0.594724 -0.913485 3.653902 0.945922 2.600840 1.872704 1.872685 -1.055335 -1.294346 -1.489316 1.651558 0.156771 1.253798 -1.929800 -1.909563 1.245271
eth_shiftreg/input_MdcEn_n -1.801776 -0.177322 1.245169 0.287011 2.472398 -0.976585 1.798745 2.610763 -2.453231 -1.561275 -0.874246 -2.014504 -0.109195 2.600161 -2.859092 -0.478397 -1.319900 0.341692 1.096477 -2.699186
eth_miim/always_7/block_1/if_1/block_2/if_1/cond -0.329937 0.347105 0.562366 0.854812 -1.401670 0.483703 -1.330088 -1.363866 -1.162284 -1.687785 0.094215 2.818392 -1.239680 -0.492457 -3.532637 -1.098767 0.056889 3.677396 -2.968866 -0.864701
eth_miim/always_7/block_1/if_1/block_2/if_1/block_1 -0.182807 0.730468 -0.436045 0.827078 -1.980183 -0.748587 -2.269273 -0.932435 -1.508077 -0.426001 -0.500048 1.618088 -0.969230 -0.123901 -1.289256 -1.431076 0.320282 1.820894 -2.137473 -0.415999
eth_rxethmac/wire_StateIdle 0.212718 -0.011183 0.942134 -0.344166 -0.302833 -0.567146 1.478450 -0.379570 1.735436 1.349098 -0.319928 -0.089410 0.021063 -0.345013 -1.361293 -0.036209 0.578357 0.400228 0.262609 -0.779659
eth_miim/always_1 0.654780 -0.132131 -2.403593 -0.720262 -1.976100 1.439631 -0.663568 -2.206199 -0.491594 -2.087429 -1.610379 0.971148 1.506600 -0.907103 -1.511522 -1.077129 -1.708387 3.034665 -4.003485 2.405937
eth_miim/input_ScanStat -0.116782 -0.669892 0.286923 1.128863 0.272524 -1.716338 -2.368809 1.974853 -2.010107 -0.193457 -1.368331 -0.139752 -0.464384 1.952526 -0.529172 -0.497433 -0.004625 -0.539849 2.561374 -2.183498
eth_miim/always_3 0.374319 -0.769047 -2.052590 0.206403 -1.097706 -0.286090 -2.430022 0.307962 -2.259468 -1.972982 -2.856085 0.308358 1.588397 1.044994 -1.512259 -1.364980 -1.781308 1.619943 -1.131019 0.409204
eth_miim/always_4 0.282981 -0.831416 -1.999721 0.192052 -0.864654 -0.100785 -2.285759 0.319092 -2.348147 -2.188098 -2.628263 0.255509 1.519372 1.079837 -1.578873 -1.252673 -1.898446 1.690220 -1.116204 0.265613
eth_miim/always_6 0.563792 -0.406016 -1.245406 0.765531 -1.809965 -0.633818 -3.174268 -0.495892 -1.818079 -1.208098 -1.674935 1.123122 -0.408060 0.626301 -0.982052 -1.113460 -0.520622 1.616575 -0.482507 -0.390683
eth_miim/always_7 -0.181642 0.722691 -0.400710 0.807383 -2.038004 -0.774102 -2.329389 -0.981639 -1.482349 -0.394140 -0.514977 1.635515 -1.044491 -0.088933 -1.287470 -1.414911 0.360143 1.842237 -2.094240 -0.489212
eth_maccontrol/assign_4_TxStartFrmOut/expr_1/expr_1 0.221271 -0.020632 0.913425 -0.371972 -0.306121 -0.551354 1.403356 -0.331828 1.703614 1.332414 -0.336636 -0.060252 0.032049 -0.322563 -1.370281 -0.049984 0.589405 0.412824 0.270945 -0.779710
eth_top/input_wb_dat_i -0.625795 2.649734 2.820926 -0.563438 -0.679328 -1.029822 3.709099 0.965962 2.659751 1.975087 1.888004 -1.052861 -1.362180 -1.464833 1.653185 0.146230 1.306092 -1.944117 -1.851043 1.250576
eth_top/assign_12_temp_wb_err_o/expr_1/expr_2/expr_1 -1.450513 -0.510613 0.031501 -0.109040 0.281322 0.144425 0.549841 -2.371600 0.361527 0.897348 1.507311 1.411980 -0.576966 -0.532382 0.366254 -1.497914 0.956155 0.148600 -1.428779 -2.037956
eth_top/assign_4_RegCs/expr_1/expr_1/expr_1/expr_1 -1.124700 -2.028544 2.272817 1.139757 3.335806 1.263920 0.306934 2.897268 -1.624098 -3.156890 0.108042 2.407220 1.398185 1.190688 -4.883274 0.538753 -1.154896 1.596070 0.841227 -2.953138
eth_register/input_SyncReset 0.608266 -6.806215 -3.493231 -0.331592 -4.987932 -7.687941 0.159333 -3.519116 0.265274 3.506802 -7.722234 -1.076754 0.504733 4.147969 0.903068 -3.440965 1.970361 -0.045227 6.181082 -2.741084
eth_wishbone/always_6/block_1/if_1/if_1/cond 0.211349 0.016961 0.958806 -0.356602 -0.327235 -0.626683 1.452016 -0.383193 1.755066 1.377184 -0.315607 -0.059228 -0.007063 -0.364913 -1.361788 -0.088524 0.663537 0.400285 0.252443 -0.769393
check_ethernet/input_wb_cyc_i -0.624538 2.624677 2.835182 -0.603942 -0.593563 -0.916722 3.750832 0.892120 2.634860 1.908127 1.828195 -1.071280 -1.351099 -1.472492 1.606408 0.173966 1.239679 -1.870792 -1.789302 1.132105
eth_top/assign_2_RegCs/expr_1/expr_1 -1.405501 1.562211 1.361981 0.045983 0.367232 -0.757429 1.905135 1.496148 0.501852 0.889663 0.155701 1.407567 2.629452 -1.048764 -1.328690 -0.662308 0.760312 0.010774 -3.523878 1.178783
eth_top/assign_6_BDCs/expr_1/expr_1/expr_1/expr_1 -1.375584 1.572896 1.375015 0.069520 0.297368 -0.839813 1.835355 1.489444 0.472157 0.929307 0.087291 1.421045 2.573246 -1.050211 -1.269846 -0.668763 0.782923 -0.027132 -3.524233 1.179366
eth_wishbone/always_26/block_1/if_1 0.225929 0.036885 0.950608 -0.353978 -0.366439 -0.657710 1.382082 -0.368265 1.661024 1.371341 -0.369658 -0.045668 0.013555 -0.329908 -1.324163 -0.131133 0.646456 0.405987 0.207600 -0.769663
eth_top/assign_22_Transmitting 0.221729 -0.022076 0.872111 -0.348494 -0.264997 -0.535769 1.348408 -0.347188 1.601221 1.239177 -0.306815 -0.059689 0.016204 -0.341627 -1.283994 -0.068295 0.559903 0.370985 0.206515 -0.734677
eth_txstatem/reg_StatePAD 0.240494 0.012534 0.913621 -0.294621 -0.370407 -0.620206 1.288417 -0.350486 1.605704 1.355745 -0.349079 -0.058336 -0.010592 -0.297952 -1.264764 -0.133838 0.628680 0.384446 0.215808 -0.763365
eth_txstatem/assign_5_StartData 0.206364 0.019559 0.893350 -0.354662 -0.342485 -0.595965 1.375496 -0.368142 1.616739 1.317687 -0.332370 -0.071320 0.063103 -0.327975 -1.341546 -0.117884 0.587407 0.403987 0.202824 -0.712269
eth_rxethmac/inst_rxstatem1 0.208943 0.035130 0.950248 -0.306263 -0.377735 -0.645444 1.334350 -0.358123 1.682799 1.389834 -0.419036 -0.056791 0.024540 -0.323279 -1.350454 -0.124362 0.671196 0.410443 0.208492 -0.766300
eth_top/always_1 -1.961609 1.272754 -0.967162 0.058561 -2.124096 -2.811572 2.346810 -0.643602 0.337743 3.456889 0.661623 1.153026 1.219277 -1.383492 0.303558 -1.379984 2.022162 -0.812909 -3.963234 1.379054
eth_shiftreg/always_1/block_1/if_1/block_2/if_1/block_1/if_1/block_1/case_1/cond 0.010710 -1.535431 -0.374896 0.190296 1.744012 0.804903 -0.326338 0.841516 -1.087892 -1.758120 0.211392 -0.974533 -0.561992 1.383534 -1.145517 0.641039 -1.281852 0.075023 2.492214 -1.799528
eth_shiftreg/always_1/block_1/if_1/block_2/if_1/block_1/if_1/block_1 0.052438 -1.503357 -0.370679 0.204637 1.670369 0.804416 -0.381269 0.830125 -1.067877 -1.763300 0.219461 -0.980105 -0.573165 1.381462 -1.154519 0.622688 -1.251928 0.096125 2.429981 -1.773105
eth_wishbone/always_6/block_1/if_1 0.250203 -0.097931 0.900002 -0.377977 -0.242773 -0.514274 1.451438 -0.360895 1.722473 1.288787 -0.295989 -0.086567 0.044918 -0.325645 -1.340262 0.001245 0.550708 0.403017 0.312205 -0.761738
eth_txethmac/wire_StatePreamble 0.173948 0.007981 0.854355 -0.305270 -0.342177 -0.566380 1.286526 -0.336923 1.577618 1.250108 -0.311427 -0.033078 0.045030 -0.324587 -1.248788 -0.118315 0.589911 0.382343 0.171184 -0.686201
eth_top/input_md_pad_i -1.718521 1.068072 1.508203 0.188841 1.058086 -1.620549 1.884735 1.932676 -1.619803 -0.115691 -1.178329 -1.097347 0.376603 1.471322 -1.827667 -0.958025 -0.286045 0.281589 -0.845950 -1.153220
eth_txstatem/assign_3_StartPreamble/expr_1 0.216966 -0.010282 0.905389 -0.299736 -0.313812 -0.569502 1.338776 -0.338925 1.615251 1.278834 -0.345358 -0.053755 0.042177 -0.321728 -1.285076 -0.092602 0.570078 0.397333 0.229998 -0.738614
eth_txstatem/always_1/block_1/if_1/block_2 0.229360 0.010376 0.930240 -0.327324 -0.289362 -0.589649 1.367527 -0.361573 1.676150 1.312080 -0.338220 -0.094301 0.013663 -0.337512 -1.330671 -0.065373 0.607397 0.392090 0.259569 -0.755504
eth_top/always_1/block_1/if_1/block_2/stmt_1/expr_1 -2.148778 2.890559 0.338677 0.032570 -1.639779 -2.530565 2.154669 0.516902 0.324032 2.166522 -0.591346 2.466209 3.803213 -2.020331 -0.879661 -2.491813 1.459559 0.462530 -7.244552 2.707313
eth_wishbone/reg_TxStartFrm_wb 0.233725 -0.047662 0.895348 -0.365665 -0.247315 -0.545721 1.382573 -0.340125 1.640978 1.317157 -0.321892 -0.053901 0.039945 -0.336050 -1.356388 -0.047190 0.575440 0.430686 0.260168 -0.795588
eth_miim/reg_WCtrlData_q3 1.822125 -2.452139 -2.496249 0.303041 -1.292220 2.226189 -3.627384 -1.495355 -1.494590 -4.027453 -2.234328 2.252449 0.966823 0.132435 -2.744578 -0.268377 -2.394320 3.791002 -0.778159 0.667875
eth_shiftreg/always_1/block_1/if_1/block_2/if_1/block_1/if_1/cond -1.800547 -0.228685 1.253995 0.340145 2.538025 -0.962191 1.747327 2.699095 -2.579043 -1.637547 -0.916537 -1.962787 -0.164613 2.680038 -3.029301 -0.500124 -1.373802 0.409828 1.196535 -2.809256
eth_miim/always_1/block_1/if_1 0.541309 -0.075414 -2.305262 -0.683817 -1.835470 1.403492 -0.581025 -2.099273 -0.550572 -2.035911 -1.591766 0.931993 1.546275 -0.900111 -1.567989 -1.113959 -1.677689 2.954035 -3.989274 2.354957
eth_clockgen/always_1/block_1/if_1/block_1/if_1/block_1 1.452453 1.752235 1.345653 1.038452 -3.939277 -3.115840 -2.871124 2.729052 0.477037 2.587216 -3.037778 0.182137 -1.648767 1.236259 -1.804853 -0.498955 0.701071 1.465626 0.089290 1.168102
eth_shiftreg/always_1/block_1/if_1/block_2/if_1/block_1 -1.758623 -0.297614 1.211894 0.349992 2.528941 -0.897866 1.693945 2.675836 -2.536496 -1.658116 -0.905060 -2.017876 -0.152675 2.681041 -2.902563 -0.438506 -1.429908 0.392804 1.304011 -2.828263
eth_top/wire_ByteSelected -3.218029 1.035813 0.171306 0.190829 -3.074036 -2.891467 2.056292 -3.174935 0.745555 3.106937 2.916842 2.308206 -1.083486 -1.282125 2.217963 -2.967531 3.600744 -0.302064 -5.165419 0.416933
eth_miim/always_4/block_1 0.229120 -0.596242 -1.990799 0.200477 -1.059530 -0.285678 -2.238701 0.232834 -2.269349 -1.922362 -2.673534 0.341998 1.555591 0.982553 -1.534220 -1.430951 -1.724917 1.648359 -1.436151 0.344741
eth_clockgen/always_1/block_1/if_1/block_1/if_1/stmt_1 -0.648382 2.057384 0.668637 0.700713 -2.412195 -2.770626 -2.177800 -0.505380 -1.387341 0.683917 -2.226140 2.509703 0.930785 -0.873556 1.485289 -2.194437 2.200682 0.215507 -2.524673 0.285398
eth_txstatem/assign_6_StartPAD/expr_1 0.231863 0.015991 0.881587 -0.358094 -0.304953 -0.536223 1.369637 -0.360524 1.625567 1.304970 -0.329447 -0.069142 0.065915 -0.307206 -1.297688 -0.071172 0.596852 0.375621 0.245374 -0.744440
eth_wishbone/reg_WB_ACK_O -1.341224 1.569720 1.265404 0.056291 0.270197 -0.857228 1.814130 1.452575 0.445634 0.937226 0.134550 1.321236 2.507468 -1.004764 -1.160731 -0.656566 0.770237 -0.068791 -3.404284 1.203397
eth_transmitcontrol/always_1/block_1/if_1/if_1 0.221182 -0.011891 0.947841 -0.335236 -0.352711 -0.609377 1.384931 -0.338404 1.680678 1.361710 -0.382372 -0.049525 0.018831 -0.327657 -1.331390 -0.090125 0.615381 0.432325 0.220730 -0.763422
eth_top/assign_9_BDCs/expr_1/expr_1/expr_1/expr_1/expr_1 -0.844397 -0.871097 1.309576 0.010706 2.260587 1.580233 1.854662 1.345095 0.319791 -1.589968 0.804505 1.684789 2.140042 -0.521738 -2.363353 0.646989 -0.687910 0.564399 -1.166301 -0.203456
eth_top/wire_wb_ack_o -2.174671 3.521419 1.300186 0.340548 -1.452229 -3.173296 0.702600 1.340871 -0.287742 2.881671 -1.540510 1.937571 3.423981 -1.305240 0.172101 -2.502284 2.234064 -0.532277 -5.729785 1.699569
eth_miim/always_7/block_1/if_1/block_2/if_1/block_1/if_1/cond 0.449332 -0.251056 -1.173996 0.752698 -1.747182 -0.593148 -3.174753 -0.465202 -1.905689 -1.250056 -1.601134 1.091495 -0.507028 0.604690 -0.903716 -1.136333 -0.478283 1.559869 -0.586470 -0.386345
eth_outputcontrol/assign_1_SerialEn/expr_1/expr_2/expr_2 1.468781 -1.470071 -0.140733 0.928697 -0.852075 1.001787 -3.429161 -0.753864 0.168625 -0.750375 0.174028 2.863105 -0.544934 -0.621479 -0.331822 0.541784 0.470179 0.945852 1.287234 -0.462362
eth_top/inst_miim1 -1.378021 3.374957 0.222018 0.274928 -1.765696 -3.043018 0.066181 0.189863 -1.066206 2.521049 -2.073238 -0.711771 1.255641 0.175625 0.115695 -2.770115 0.857799 -0.005340 -4.084343 0.711973
eth_top/assign_17_MRxDV_Lb/expr_1/expr_1 0.217609 0.029956 0.928169 -0.331020 -0.342018 -0.602361 1.384113 -0.361079 1.661188 1.352084 -0.367694 -0.048160 0.032389 -0.344894 -1.324917 -0.115434 0.609659 0.383438 0.201311 -0.754684
eth_txethmac/always_13/block_1/if_1/stmt_2/expr_1 0.225201 0.000123 0.949274 -0.365385 -0.355854 -0.637386 1.421067 -0.366365 1.690850 1.361896 -0.347227 -0.035263 0.019434 -0.351176 -1.413063 -0.087723 0.644132 0.432696 0.204150 -0.793554
eth_wishbone/always_30 0.231182 -0.026073 0.912401 -0.347280 -0.273045 -0.554578 1.444870 -0.358026 1.701959 1.325713 -0.340254 -0.073313 0.075734 -0.323666 -1.377682 -0.085717 0.607253 0.431899 0.262599 -0.760265
eth_rxstatem/wire_StartSFD 0.250315 -0.023112 0.974570 -0.372082 -0.298279 -0.565300 1.473529 -0.324395 1.700413 1.319263 -0.359857 -0.037794 0.046344 -0.342804 -1.430657 -0.080881 0.618041 0.434155 0.266362 -0.803067
eth_txstatem/always_1/block_1/if_1/block_2/stmt_1 0.199668 -0.028856 0.904772 -0.366198 -0.290596 -0.541170 1.395214 -0.360324 1.672098 1.273632 -0.281143 -0.058070 0.057271 -0.321450 -1.366359 -0.078855 0.572031 0.413684 0.271143 -0.768854
eth_miim/always_6/block_1/if_1/block_2/if_1/block_1 0.365450 -0.631410 -1.941770 0.225563 -1.181831 -0.435805 -2.274748 0.289116 -2.218257 -1.782149 -2.837431 0.241011 1.446315 1.065520 -1.457270 -1.365575 -1.681519 1.591247 -1.122327 0.373582
eth_wishbone/always_6/block_1 0.202969 -0.013848 0.909513 -0.349283 -0.329791 -0.570698 1.390885 -0.356715 1.670445 1.321657 -0.361332 -0.054095 0.046947 -0.317357 -1.344085 -0.061822 0.596598 0.410166 0.243829 -0.757992
eth_registers/assign_110_r_WCtrlData -0.132355 -0.787696 0.216687 1.095455 0.449150 -1.644413 -2.295552 2.094180 -2.125375 -0.332207 -1.373898 -0.367959 -0.469785 2.057250 -0.536754 -0.437816 -0.163535 -0.613736 2.779993 -2.279708
eth_wishbone/always_1/block_1/stmt_1/expr_1/expr_1/expr_1/expr_1 -1.384238 1.508085 1.344828 0.065533 0.403448 -0.716080 1.919008 1.486372 0.459276 0.813790 0.180699 1.414037 2.636577 -1.049255 -1.307510 -0.643918 0.734435 -0.041294 -3.505662 1.219178
eth_top/assign_7_BDCs/expr_1/expr_1/expr_1/expr_1 -1.357244 1.619164 1.353708 0.101693 0.264124 -0.849076 1.755610 1.472486 0.417882 0.959757 0.070153 1.410249 2.570630 -1.032052 -1.254505 -0.687828 0.777981 -0.029563 -3.460123 1.176685
eth_top/assign_8_BDCs/expr_1 -1.371641 1.473270 1.338918 0.062950 0.379423 -0.688789 1.871481 1.486678 0.496080 0.823217 0.156170 1.381280 2.548523 -1.018799 -1.322695 -0.597789 0.736323 0.002701 -3.363555 1.110233
eth_outputcontrol/always_2 -1.864443 3.261285 0.642296 0.459177 -1.294588 -2.567231 0.298354 0.379819 -1.162581 2.716539 -0.890825 -1.265673 0.365193 0.910852 -0.377255 -2.513597 1.013752 0.168873 -3.675418 0.758414
eth_miim/always_8/block_1/if_1 -1.984907 1.793903 0.980383 1.160998 1.150366 -1.080260 -2.134435 0.728191 -1.812448 2.075905 1.374332 1.988205 0.201551 -0.435083 0.747785 -1.578057 1.494682 -1.810071 -1.814981 -2.486622
eth_top/assign_15_wb_err_o -2.246639 1.913083 -0.705946 -0.581659 -0.421585 -1.528891 0.888232 -1.723442 -0.227201 3.183689 -0.333591 0.586689 0.963665 -1.435164 1.239989 -2.596859 1.057259 -1.785210 -4.000907 -1.543070
eth_shiftreg/always_1/block_1/if_1/block_2/if_1/block_1/if_1/block_1/case_1 0.037264 -1.490003 -0.335899 0.155728 1.649393 0.792579 -0.315789 0.779273 -1.066980 -1.735288 0.214006 -0.974871 -0.548105 1.332291 -1.164610 0.625124 -1.224872 0.121368 2.373286 -1.731553
eth_txethmac/wire_StateJam 0.220159 -0.017754 0.930307 -0.324911 -0.311510 -0.593174 1.414170 -0.385479 1.710804 1.352035 -0.307731 -0.063454 0.044392 -0.334275 -1.303368 -0.089808 0.614585 0.380379 0.224629 -0.720437
eth_wishbone/always_4 -0.790298 -0.894533 1.281412 0.034935 2.320889 1.590308 1.778137 1.362314 0.284502 -1.623625 0.786764 1.657203 2.095535 -0.453192 -2.346432 0.642653 -0.724094 0.575974 -1.056345 -0.299356
eth_wishbone/always_6 0.215248 -0.008133 0.862085 -0.334985 -0.299029 -0.580694 1.287246 -0.346798 1.608765 1.287067 -0.367791 -0.051129 0.026075 -0.286167 -1.305011 -0.097432 0.568260 0.398088 0.230697 -0.769946
eth_wishbone/always_1 -1.420697 1.594121 1.392475 0.062299 0.276317 -0.807821 1.881704 1.462448 0.451159 0.927967 0.109972 1.450611 2.634321 -1.046860 -1.245131 -0.716979 0.797255 -0.012865 -3.585389 1.247651
eth_txstatem/always_1 0.213540 0.033327 0.904430 -0.335488 -0.362098 -0.647922 1.294483 -0.347685 1.580811 1.310544 -0.378962 -0.033920 -0.007214 -0.325507 -1.260588 -0.142713 0.641005 0.396088 0.190405 -0.749572
eth_wishbone/always_3 -1.366423 1.433413 1.282377 0.053283 0.482270 -0.595446 1.939997 1.515200 0.485910 0.730776 0.212427 1.354010 2.608083 -1.041211 -1.358984 -0.564416 0.633098 -0.014572 -3.310175 1.134922
eth_wishbone/always_2 -0.790568 -0.920595 1.291838 0.033906 2.292443 1.664205 1.806179 1.329363 0.270294 -1.660533 0.798175 1.655275 2.111950 -0.471873 -2.391722 0.649355 -0.696635 0.591225 -1.109767 -0.269336
eth_registers/assign_41_MIICOMMAND_Wr/expr_1 -0.109940 -0.802877 0.268544 1.131663 0.453233 -1.704854 -2.445742 2.146029 -2.217370 -0.378525 -1.473806 -0.249862 -0.469616 2.109517 -0.617345 -0.429178 -0.138650 -0.573521 2.814848 -2.391531
eth_top/assign_3_RegCs/expr_1/expr_1 -1.378628 1.515202 1.405914 0.069533 0.419668 -0.730901 1.862459 1.530967 0.473396 0.796469 0.138361 1.434601 2.616509 -1.028334 -1.401102 -0.616211 0.748251 0.023243 -3.437340 1.142555
eth_registers/wire_MIIMODEROut 2.145797 1.689061 0.942578 0.960785 -4.190650 -2.864797 -5.614380 0.412040 -1.121423 1.324457 -7.289704 2.618908 0.475809 0.608051 -0.250225 -2.081335 0.367585 2.549848 -0.935457 0.974650
eth_miim/wire_MdoEn 1.183113 0.234995 -0.546408 0.965032 -3.718088 1.384988 -3.741977 -3.754293 0.389692 -0.843193 0.738664 5.209424 -1.294540 -2.632080 -1.654083 -0.894013 1.185779 3.880800 -3.974056 1.004128
eth_outputcontrol/always_1/block_1/if_1/block_2/if_1/cond 1.004243 0.389270 -0.416067 0.939781 -3.594270 1.236997 -3.526093 -3.606812 0.388376 -0.648243 0.695555 5.065794 -1.131555 -2.572244 -1.574809 -0.950245 1.285407 3.715821 -4.104020 0.991942
eth_top/assign_12_temp_wb_err_o/expr_1/expr_2 -1.686596 -0.415552 0.083151 -0.233055 0.404538 -0.006658 0.833115 -2.376356 0.467592 1.134130 1.521256 1.317828 -0.407547 -0.520469 0.416274 -1.664092 0.966874 -0.018789 -1.592218 -2.137657
eth_shiftreg/input_ByteSelect -1.768707 -0.173149 1.246420 0.328113 2.522535 -0.968996 1.715224 2.679978 -2.532604 -1.590054 -0.908006 -1.989482 -0.155125 2.669138 -2.909065 -0.480360 -1.344588 0.334388 1.199122 -2.777221
eth_outputcontrol/wire_SerialEn -0.885793 1.568830 2.050543 1.674673 -0.099736 -2.952409 -3.080670 1.658676 -0.485240 4.362985 -0.465604 3.075415 1.611802 -0.725981 2.955831 -1.509649 3.039268 -3.597120 -0.176608 -1.574161
eth_register/always_1/block_1/if_1 1.628809 1.957557 2.553632 0.779001 -3.583048 -2.000885 1.252845 -2.163311 0.833391 2.857838 -1.401212 -0.470926 -4.589249 -0.455974 0.448720 0.522815 1.727274 1.607182 1.452322 -0.145710
eth_shiftreg/always_1/block_1/if_1/block_2/if_1/block_1/if_1/block_2 -1.715912 -0.379127 1.156516 0.331972 2.625962 -0.853532 1.652558 2.731118 -2.618059 -1.750937 -0.900648 -2.047640 -0.196697 2.770185 -2.956631 -0.384673 -1.490750 0.373390 1.443988 -2.869873
eth_top/assign_3_RegCs/expr_1 -1.360917 1.525625 1.342747 0.094486 0.372621 -0.774698 1.804397 1.466236 0.436053 0.831411 0.120976 1.377866 2.566107 -0.996457 -1.294385 -0.615235 0.729463 -0.033622 -3.409394 1.172243
eth_top/assign_11_temp_wb_dat_o -2.098195 1.559868 0.790860 0.310852 -4.181541 -3.329343 2.764749 -1.666761 1.155749 2.563871 2.027977 1.526755 -0.774404 -1.127490 1.194906 -1.822145 3.347266 0.368350 -4.927778 2.893797
eth_miim/assign_3_ScanStatusOp/expr_1 -0.204153 -0.770336 0.256194 1.098405 0.449536 -1.626066 -2.274211 2.092444 -2.214561 -0.451869 -1.441474 -0.240760 -0.415424 2.090926 -0.758396 -0.472891 -0.225519 -0.464155 2.605656 -2.349268
eth_wishbone/always_1/block_1/stmt_1/expr_1/expr_2 -1.377475 1.544460 1.283159 0.037066 0.414090 -0.685535 1.896096 1.447158 0.441022 0.836859 0.153857 1.340054 2.592903 -1.059125 -1.194986 -0.623247 0.725234 -0.037066 -3.453218 1.178874
eth_wishbone/always_1/block_1/stmt_1/expr_1/expr_1 -1.398156 1.475149 1.383565 0.082190 0.459138 -0.666315 1.841196 1.528777 0.447152 0.776115 0.149480 1.436197 2.640645 -0.994353 -1.399166 -0.596805 0.705321 0.039463 -3.422820 1.116461
eth_rxstatem/always_1/block_1/if_1/block_2/if_1/cond/expr_1 0.241073 -0.053614 0.863752 -0.352297 -0.217285 -0.442410 1.450788 -0.323523 1.672249 1.251927 -0.232322 -0.091719 0.058216 -0.348365 -1.319086 -0.029730 0.538794 0.368521 0.267182 -0.740422
eth_top/wire_md_pad_o -1.802336 3.101295 0.747702 0.557685 -1.277762 -2.529161 0.246480 0.265557 -1.243151 2.515325 -1.078829 -1.015254 0.328651 0.914475 -0.483613 -2.485824 1.012502 0.332749 -3.518698 0.587559
eth_outputcontrol/always_2/block_1/if_1/block_2/if_1/block_1 -2.542221 2.701540 2.851157 1.241653 1.460783 -4.232790 -0.580465 4.294759 -2.665918 3.193811 -2.132479 -0.092238 1.613309 1.705583 1.062784 -2.237822 1.297286 -3.266865 -0.418633 -2.542588
eth_txstatem/assign_6_StartPAD 0.219127 -0.043242 0.916898 -0.357883 -0.287362 -0.554540 1.362140 -0.328797 1.649192 1.262341 -0.340596 -0.079948 0.036797 -0.298691 -1.368362 -0.071492 0.574828 0.385851 0.264709 -0.768557
check_ethernet/always_1/if_1/cond -1.197196 1.980024 1.915024 -0.747178 0.138630 -0.111567 3.498680 0.505800 1.787949 0.295529 2.006681 -0.687638 -0.185332 -1.430882 0.932483 -0.436990 0.445282 -1.502525 -3.068887 1.096853
eth_miim/always_7/block_1/if_1/block_2/if_1 -0.029010 0.560868 -0.617091 0.799868 -2.072964 -0.589447 -2.459176 -1.099471 -1.478949 -0.609830 -0.536347 1.598445 -1.128449 -0.092729 -1.317065 -1.351537 0.209641 1.955563 -1.965596 -0.429462
eth_rxstatem/assign_2_StartPreamble/expr_1/expr_2 0.207463 -0.020699 0.923906 -0.328983 -0.259702 -0.552066 1.429140 -0.324140 1.655565 1.273741 -0.296682 -0.075910 0.054681 -0.312691 -1.336236 -0.044409 0.593991 0.422967 0.248862 -0.781093
eth_top/assign_1_ByteSelected -3.288690 1.061760 0.202711 0.179354 -3.024478 -2.825049 2.126526 -3.118549 0.717358 2.985951 2.948626 2.531307 -0.948272 -1.363547 2.109165 -2.988512 3.568778 -0.224204 -5.394856 0.488652
eth_registers/assign_13_MIICOMMAND_Sel 0.359622 0.464054 -0.890418 -0.003698 -0.843657 -1.531290 -1.236964 0.485598 -0.172264 1.654462 -0.725878 -1.208363 0.053046 0.397802 2.594433 -0.291757 0.528123 -2.017317 1.193802 0.436363
eth_transmitcontrol 0.197496 -0.037372 0.862354 -0.349299 -0.259244 -0.547271 1.384228 -0.348909 1.616350 1.244450 -0.324423 -0.072525 0.058490 -0.333777 -1.298102 -0.056176 0.551216 0.399279 0.226321 -0.729025
eth_wishbone/always_2/block_1/if_1/if_1/cond/expr_1 -0.790509 -0.911083 1.300603 0.043118 2.285976 1.601227 1.777555 1.335072 0.270072 -1.626007 0.793140 1.657820 2.077618 -0.512577 -2.372550 0.653489 -0.720588 0.598066 -1.057396 -0.265012
eth_miim/always_1/block_1/if_1/block_1/stmt_1 0.571899 -0.065240 -2.366304 -0.700294 -1.899305 1.401398 -0.589416 -2.148327 -0.488506 -2.010655 -1.614315 0.929796 1.545274 -0.909040 -1.473576 -1.112148 -1.658915 2.924934 -4.019369 2.441172
eth_outputcontrol/always_2/block_1/if_1/block_2/if_1/block_1/stmt_1/expr_1 -2.480603 2.814719 2.837954 1.299353 1.318357 -4.242789 -0.845550 4.246146 -2.650645 3.202580 -2.008785 0.074030 1.513040 1.541895 1.225133 -2.197019 1.491714 -3.306572 -0.476259 -2.453793
eth_clockgen/always_1/block_1/if_1/block_1/if_1 -0.746361 2.166128 0.608241 0.617509 -2.187234 -2.749599 -2.175103 -0.606938 -1.575983 0.574021 -2.416281 2.362161 1.122732 -0.812583 1.618548 -2.348229 2.084044 0.227182 -2.697000 0.328388
eth_miim/wire_MdcEn -0.378744 0.290539 0.640042 0.951971 -1.326015 0.501876 -1.507514 -1.310388 -1.226787 -1.695925 0.235842 2.864096 -1.385617 -0.427243 -3.484110 -1.045455 0.134182 3.562000 -2.800568 -1.065906
eth_top/assign_22_Transmitting/expr_1 0.210374 -0.036481 0.925752 -0.370302 -0.277604 -0.558360 1.405993 -0.333095 1.666749 1.299352 -0.353608 -0.051423 0.047991 -0.313257 -1.402893 -0.084961 0.584237 0.405039 0.264128 -0.793199
eth_clockgen/reg_Counter -0.701180 2.158679 0.961789 0.235474 -1.780647 -2.452224 -0.437727 0.000762 -0.460671 0.636163 -1.653033 0.696852 0.706023 -0.407242 1.332288 -1.550193 1.600682 -0.111987 -2.019105 0.955506
eth_rxstatem/always_1/block_1 0.231136 -0.008218 0.908362 -0.363720 -0.281984 -0.580294 1.422411 -0.325916 1.678725 1.313119 -0.345284 -0.061024 0.032642 -0.312393 -1.365030 -0.091188 0.592991 0.402882 0.232126 -0.766173
eth_txstatem/assign_5_StartData/expr_1/expr_1 0.221181 0.002832 0.915413 -0.311362 -0.339488 -0.560514 1.321231 -0.361716 1.636021 1.331213 -0.323329 -0.070825 0.034478 -0.297465 -1.325953 -0.108932 0.579654 0.428012 0.207251 -0.754619
