eth_miim/assign_7_ByteSelect 0.655112 -3.320536 -0.272114 -1.820670 1.173976 1.422214 2.973872 2.973187 -0.929183 -0.147560 -1.197936 0.058114 0.126642 1.597827 -0.833571 -1.044199 -1.754286 -0.433633 1.709431 -3.753057
eth_top/input_wb_adr_i 3.158985 1.038459 4.491724 2.906941 1.807378 1.948984 -4.134570 -0.147629 -0.216527 -5.968745 2.921713 -0.731859 -1.027277 1.842778 -2.704426 -1.776387 2.747197 -0.442907 -2.069672 0.526834
eth_outputcontrol/always_2/block_1/if_1/block_2 0.829791 -1.328898 -0.568705 -1.890951 3.356892 -1.433089 0.969807 5.092249 -1.537845 2.320487 -1.474762 -1.518477 -0.416641 2.229808 2.097483 -1.939773 0.339306 -1.910105 2.406153 -3.198529
eth_outputcontrol/always_2/block_1/if_1/block_1 3.489152 -0.249122 -0.642945 2.569886 -0.686864 3.389457 2.589527 1.281000 -2.236582 0.266452 0.146632 -0.390746 0.923845 2.159686 0.419407 -1.005268 -2.527812 -0.050071 1.254722 -1.798637
eth_miim/assign_4_StartOp 1.702555 -4.659681 -0.268283 -1.914477 1.427407 1.331075 -1.507794 -0.034443 0.754547 -2.597388 -2.239469 0.776458 -0.233235 0.866026 -1.360669 -1.173146 -2.062061 -0.000934 -0.926982 -0.649885
eth_top/assign_14_wb_dat_o 3.438732 1.153277 -1.046987 2.447182 -0.447301 1.663455 -1.704671 -0.101115 -2.581131 -1.862396 0.793109 -0.887322 0.625915 0.853015 1.101854 1.921175 1.670429 -0.231576 1.024948 -0.438007
eth_outputcontrol/reg_MdoEn_2d 1.339008 -1.034865 0.107631 1.395205 0.324550 3.392739 -2.104739 -3.918152 1.473855 -3.367623 0.396937 1.042377 0.738754 -1.769754 -0.846039 2.054947 -1.210990 0.987916 -1.790761 2.546624
eth_top/assign_8_BDCs/expr_1/expr_1 -0.751200 -0.242155 0.204766 -0.619391 1.559549 2.636663 3.049744 1.145168 -0.291419 -0.504380 1.550286 0.638229 1.891400 -0.836258 -1.290973 0.987083 -0.756349 -0.216571 -0.393060 -1.189276
eth_miim/always_4/block_1/if_1/block_2/if_1 1.959525 -3.981854 -1.109972 -1.849058 0.878478 1.521680 0.203096 0.905358 -0.053744 -1.918975 -2.575943 1.332857 1.431858 0.748501 -2.279104 -1.335652 -3.074791 0.258607 -1.975639 -0.998693
eth_register/always_1/block_1/if_1/if_1/if_1/cond 1.137685 -0.618496 1.159176 0.354155 0.990013 -2.114082 -4.894059 2.025669 1.045144 0.071698 -3.776114 1.404676 -0.744680 0.270567 0.630846 1.495413 1.966455 1.122461 1.408356 -0.749200
eth_miim/assign_3_ScanStatusOp/expr_1/expr_1 0.788982 -4.112766 -0.291264 -2.423874 2.069942 0.433907 -0.432868 2.030793 0.382658 -0.995537 -2.189139 0.312615 -0.497464 1.231913 -0.701291 -0.790150 -1.263408 -0.263645 0.783722 -2.153216
eth_miim/assign_3_ScanStatusOp/expr_1/expr_2 0.059592 -4.786112 0.526712 -2.202990 1.788496 2.322111 0.852898 1.029996 1.024058 -2.291585 -1.165271 0.966720 -0.305561 0.563627 -2.101259 0.096905 -1.769740 0.378378 0.511391 -2.435823
eth_top/inst_check_eth_top 1.902969 1.418221 -0.405346 1.687019 1.292143 3.482836 1.698598 0.873847 -2.188285 -1.162761 1.906208 -0.755927 0.830280 -1.437636 2.495153 3.100512 1.391321 -0.742396 3.416722 -2.220519
eth_miim/wire_MdcEn_n 1.007519 -5.254155 2.866020 -1.716267 3.587780 1.838626 0.431363 0.812242 1.242583 -1.344647 -0.827359 -0.356056 -2.084711 2.081428 0.347593 -6.007623 -2.677583 -1.925524 -1.154844 -1.048898
eth_wishbone/reg_TxEn_needed -0.564160 -1.660042 -0.123875 -1.150742 1.838274 3.130696 2.762507 1.017882 0.046760 -1.245679 1.097378 0.932032 1.543190 -0.974385 -1.588222 1.730906 -0.980036 -0.072671 0.204738 -1.781098
eth_top/always_4/block_1 -0.133143 -0.976821 -0.613105 -0.336485 0.084047 0.873276 0.425137 0.373624 0.563754 -0.514230 -0.105773 -0.221355 -0.486855 0.221868 -0.711471 2.640319 0.085605 1.010041 2.743505 -1.477973
eth_register/reg_DataOut 0.530312 -1.922881 -0.589015 -0.311530 -2.730213 -3.570731 -3.957016 -0.952061 1.012708 -0.640190 -4.177334 -1.101647 -3.770198 1.305826 1.225963 1.100053 1.032610 2.225763 3.539417 -0.797580
eth_registers/wire_r_MiiNoPre 0.059592 -4.786112 0.526712 -2.202990 1.788496 2.322111 0.852898 1.029996 1.024058 -2.291585 -1.165271 0.966720 -0.305561 0.563627 -2.101259 0.096905 -1.769740 0.378378 0.511391 -2.435823
eth_top/always_4 -0.133143 -0.976821 -0.613105 -0.336485 0.084047 0.873276 0.425137 0.373624 0.563754 -0.514230 -0.105773 -0.221355 -0.486855 0.221868 -0.711471 2.640319 0.085605 1.010041 2.743505 -1.477973
eth_wishbone/always_26/block_1/if_1/stmt_2 -0.133143 -0.976821 -0.613105 -0.336485 0.084047 0.873276 0.425137 0.373624 0.563754 -0.514230 -0.105773 -0.221355 -0.486855 0.221868 -0.711471 2.640319 0.085605 1.010041 2.743505 -1.477973
eth_wishbone/always_4/block_1/if_1 -0.564160 -1.660042 -0.123875 -1.150742 1.838274 3.130696 2.762507 1.017882 0.046760 -1.245679 1.097378 0.932032 1.543190 -0.974385 -1.588222 1.730906 -0.980036 -0.072671 0.204738 -1.781098
eth_outputcontrol/reg_MdoEn_d 1.339008 -1.034865 0.107631 1.395205 0.324550 3.392739 -2.104739 -3.918152 1.473855 -3.367623 0.396937 1.042377 0.738754 -1.769754 -0.846039 2.054947 -1.210990 0.987916 -1.790761 2.546624
eth_txethmac/always_13/block_1/if_1/stmt_2 -0.133143 -0.976821 -0.613105 -0.336485 0.084047 0.873276 0.425137 0.373624 0.563754 -0.514230 -0.105773 -0.221355 -0.486855 0.221868 -0.711471 2.640319 0.085605 1.010041 2.743505 -1.477973
eth_miim/always_4/block_1/if_1/block_2/if_1/block_2/if_2/cond 2.444530 -3.592981 -1.911767 -2.057837 3.189701 0.426802 -3.956691 0.734031 0.455061 -1.727186 -2.244114 -0.228032 -0.479573 0.388870 1.165863 1.148524 -0.136247 -0.756871 1.362522 -0.372158
eth_registers/input_Rw 2.818438 -2.532869 -5.302407 -1.344752 -1.323938 -0.182140 -3.123175 -1.203828 -1.489324 -0.202473 0.096974 0.377091 -0.020359 0.310415 0.031707 2.772500 0.898565 -1.450209 1.326736 -0.324633
eth_wishbone/reg_TxBDReady -0.133143 -0.976821 -0.613105 -0.336485 0.084047 0.873276 0.425137 0.373624 0.563754 -0.514230 -0.105773 -0.221355 -0.486855 0.221868 -0.711471 2.640319 0.085605 1.010041 2.743505 -1.477973
eth_rxstatem/assign_1_StartIdle/expr_1/expr_2/expr_1/expr_1 -0.133143 -0.976821 -0.613105 -0.336485 0.084047 0.873276 0.425137 0.373624 0.563754 -0.514230 -0.105773 -0.221355 -0.486855 0.221868 -0.711471 2.640319 0.085605 1.010041 2.743505 -1.477973
eth_outputcontrol/reg_MdoEn 1.339008 -1.034865 0.107631 1.395205 0.324550 3.392739 -2.104739 -3.918152 1.473855 -3.367623 0.396937 1.042377 0.738754 -1.769754 -0.846039 2.054947 -1.210990 0.987916 -1.790761 2.546624
eth_register/always_1/block_1 0.530312 -1.922881 -0.589015 -0.311530 -2.730213 -3.570731 -3.957016 -0.952061 1.012708 -0.640190 -4.177334 -1.101647 -3.770198 1.305826 1.225963 1.100053 1.032610 2.225763 3.539417 -0.797580
eth_top/assign_16_temp_wb_ack_o/expr_1/expr_1 -0.751200 -0.242155 0.204766 -0.619391 1.559549 2.636663 3.049744 1.145168 -0.291419 -0.504380 1.550286 0.638229 1.891400 -0.836258 -1.290973 0.987083 -0.756349 -0.216571 -0.393060 -1.189276
eth_top/reg_temp_wb_dat_o_reg 3.438732 1.153277 -1.046987 2.447182 -0.447301 1.663455 -1.704671 -0.101115 -2.581131 -1.862396 0.793109 -0.887322 0.625915 0.853015 1.101854 1.921175 1.670429 -0.231576 1.024948 -0.438007
eth_miim/reg_RStatStart_q1 1.124929 -4.039455 0.160362 -2.054390 4.305438 0.886174 -4.827034 -0.414051 1.594160 -2.588181 -1.635660 -0.507805 -1.566932 -0.204448 2.232496 1.379700 0.888515 -0.904671 1.820233 0.167338
eth_miim/always_4/block_1/if_1/block_2/if_1/block_2 1.959525 -3.981854 -1.109972 -1.849058 0.878478 1.521680 0.203096 0.905358 -0.053744 -1.918975 -2.575943 1.332857 1.431858 0.748501 -2.279104 -1.335652 -3.074791 0.258607 -1.975639 -0.998693
eth_clockgen/input_Divider 2.706537 -4.641599 -0.902730 -1.068282 0.406825 -0.092830 -3.997534 -0.402684 1.268832 -1.648897 -4.465474 1.876990 -0.155465 0.489477 -1.260331 -1.647402 -2.985995 0.767849 -2.695212 0.564573
eth_wishbone/always_1/block_1/stmt_1 -0.751200 -0.242155 0.204766 -0.619391 1.559549 2.636663 3.049744 1.145168 -0.291419 -0.504380 1.550286 0.638229 1.891400 -0.836258 -1.290973 0.987083 -0.756349 -0.216571 -0.393060 -1.189276
eth_top/inst_rxethmac1 -0.133143 -0.976821 -0.613105 -0.336485 0.084047 0.873276 0.425137 0.373624 0.563754 -0.514230 -0.105773 -0.221355 -0.486855 0.221868 -0.711471 2.640319 0.085605 1.010041 2.743505 -1.477973
check_ethernet/reg_wb_wr_dat 1.902969 1.418221 -0.405346 1.687019 1.292143 3.482836 1.698598 0.873847 -2.188285 -1.162761 1.906208 -0.755927 0.830280 -1.437636 2.495153 3.100512 1.391321 -0.742396 3.416722 -2.220519
eth_miim/reg_RStatStart 2.444530 -3.592981 -1.911767 -2.057837 3.189701 0.426802 -3.956691 0.734031 0.455061 -1.727186 -2.244114 -0.228032 -0.479573 0.388870 1.165863 1.148524 -0.136247 -0.756871 1.362522 -0.372158
eth_outputcontrol/always_1/block_1/if_1/block_2/if_1 1.339008 -1.034865 0.107631 1.395205 0.324550 3.392739 -2.104739 -3.918152 1.473855 -3.367623 0.396937 1.042377 0.738754 -1.769754 -0.846039 2.054947 -1.210990 0.987916 -1.790761 2.546624
eth_registers/wire_r_ScanStat 0.788982 -4.112766 -0.291264 -2.423874 2.069942 0.433907 -0.432868 2.030793 0.382658 -0.995537 -2.189139 0.312615 -0.497464 1.231913 -0.701291 -0.790150 -1.263408 -0.263645 0.783722 -2.153216
eth_txstatem/assign_3_StartPreamble/expr_1/expr_1 -0.133143 -0.976821 -0.613105 -0.336485 0.084047 0.873276 0.425137 0.373624 0.563754 -0.514230 -0.105773 -0.221355 -0.486855 0.221868 -0.711471 2.640319 0.085605 1.010041 2.743505 -1.477973
eth_top/assign_7_BDCs/expr_1/expr_1/expr_1/expr_1/expr_1 -0.564160 -1.660042 -0.123875 -1.150742 1.838274 3.130696 2.762507 1.017882 0.046760 -1.245679 1.097378 0.932032 1.543190 -0.974385 -1.588222 1.730906 -0.980036 -0.072671 0.204738 -1.781098
eth_miim/always_8/block_1/if_1/block_1/if_1/block_1/if_1/cond 0.788982 -4.112766 -0.291264 -2.423874 2.069942 0.433907 -0.432868 2.030793 0.382658 -0.995537 -2.189139 0.312615 -0.497464 1.231913 -0.701291 -0.790150 -1.263408 -0.263645 0.783722 -2.153216
eth_top/assign_2_RegCs/expr_1/expr_1/expr_1/expr_1/expr_1 -0.564160 -1.660042 -0.123875 -1.150742 1.838274 3.130696 2.762507 1.017882 0.046760 -1.245679 1.097378 0.932032 1.543190 -0.974385 -1.588222 1.730906 -0.980036 -0.072671 0.204738 -1.781098
eth_top/assign_5_RegCs -2.643828 -2.978500 4.791039 -0.604141 0.697407 0.011524 -2.706507 1.014899 2.723444 -2.140951 -0.462842 3.582393 -1.378258 -0.891831 -4.381872 -1.584582 0.377292 1.482644 -5.064116 -0.560087
eth_outputcontrol/always_2/block_1 1.091094 -1.299888 0.292670 -0.742701 2.588853 -0.693135 1.032377 4.996256 -1.579557 2.302672 -0.927302 -1.260541 -1.278563 2.844232 2.108636 -2.595724 0.053629 -1.731399 2.756855 -3.540965
eth_wishbone/always_27/block_1/if_1/stmt_2 -0.133143 -0.976821 -0.613105 -0.336485 0.084047 0.873276 0.425137 0.373624 0.563754 -0.514230 -0.105773 -0.221355 -0.486855 0.221868 -0.711471 2.640319 0.085605 1.010041 2.743505 -1.477973
eth_miim/assign_1_WriteDataOp 1.959525 -3.981854 -1.109972 -1.849058 0.878478 1.521680 0.203096 0.905358 -0.053744 -1.918975 -2.575943 1.332857 1.431858 0.748501 -2.279104 -1.335652 -3.074791 0.258607 -1.975639 -0.998693
eth_rxstatem/always_1/block_1/if_1/block_2/if_1/cond/expr_1 -0.133143 -0.976821 -0.613105 -0.336485 0.084047 0.873276 0.425137 0.373624 0.563754 -0.514230 -0.105773 -0.221355 -0.486855 0.221868 -0.711471 2.640319 0.085605 1.010041 2.743505 -1.477973
eth_miim 1.285820 -1.912263 0.714735 -0.564628 0.903504 -0.756628 -1.002484 1.278859 -0.042589 -0.201347 -2.807518 0.067922 -0.043375 1.840436 0.206104 -3.330093 -1.658105 -0.102294 -1.584661 -0.016028
eth_wishbone/always_1/block_1 -0.751200 -0.242155 0.204766 -0.619391 1.559549 2.636663 3.049744 1.145168 -0.291419 -0.504380 1.550286 0.638229 1.891400 -0.836258 -1.290973 0.987083 -0.756349 -0.216571 -0.393060 -1.189276
eth_top/assign_9_BDCs -0.751200 -0.242155 0.204766 -0.619391 1.559549 2.636663 3.049744 1.145168 -0.291419 -0.504380 1.550286 0.638229 1.891400 -0.836258 -1.290973 0.987083 -0.756349 -0.216571 -0.393060 -1.189276
eth_miim/assign_1_WriteDataOp/expr_1/expr_1 2.256615 -3.962668 -1.358308 -0.993425 0.936767 3.037224 -1.628094 -1.395511 0.816294 -3.698317 -1.802614 1.493206 1.261544 -0.629757 -2.051040 1.661323 -2.278616 0.949325 -1.263804 0.127492
eth_outputcontrol/always_2/block_1/if_1 1.091094 -1.299888 0.292670 -0.742701 2.588853 -0.693135 1.032377 4.996256 -1.579557 2.302672 -0.927302 -1.260541 -1.278563 2.844232 2.108636 -2.595724 0.053629 -1.731399 2.756855 -3.540965
eth_txethmac -0.133143 -0.976821 -0.613105 -0.336485 0.084047 0.873276 0.425137 0.373624 0.563754 -0.514230 -0.105773 -0.221355 -0.486855 0.221868 -0.711471 2.640319 0.085605 1.010041 2.743505 -1.477973
eth_miim/reg_InProgress 0.633713 -4.037316 1.258660 -0.981056 1.369273 2.059582 -1.161810 -1.125582 1.579341 -2.755866 -0.901569 1.009523 -0.764024 0.335669 -1.551724 -1.389770 -1.894642 0.130801 -1.550468 0.067495
eth_miim/always_7/block_1/if_1/block_2/if_1/block_1/if_1/block_2/if_1/cond 0.111995 -4.457661 1.669282 -1.064732 2.117160 3.735325 1.256278 -0.930748 1.411473 -2.786825 0.258752 0.668283 -0.807670 0.316222 -1.236482 -1.350980 -2.353052 -0.364894 -0.385145 -0.975529
eth_wishbone/reg_WbEn 0.446990 -0.518801 -0.707048 -0.395930 1.023320 1.562534 0.978844 0.455888 -0.592974 -0.511381 0.565919 0.277628 1.083371 -0.606606 -0.090794 0.882847 -0.318159 -0.505604 0.056339 -0.650548
eth_txethmac/wire_StatePAD -0.133143 -0.976821 -0.613105 -0.336485 0.084047 0.873276 0.425137 0.373624 0.563754 -0.514230 -0.105773 -0.221355 -0.486855 0.221868 -0.711471 2.640319 0.085605 1.010041 2.743505 -1.477973
eth_clockgen/always_1/block_1/if_1/block_1/if_1/stmt_1/expr_1 -0.134888 -3.329567 0.962790 -1.553897 1.074870 -0.748711 -3.978800 -1.372237 2.295893 -2.186300 -2.447506 1.952915 -0.546724 -0.567880 -2.486481 -1.686654 -1.323129 0.666720 -4.249511 1.781929
eth_registers/assign_112_r_ScanStat 0.788982 -4.112766 -0.291264 -2.423874 2.069942 0.433907 -0.432868 2.030793 0.382658 -0.995537 -2.189139 0.312615 -0.497464 1.231913 -0.701291 -0.790150 -1.263408 -0.263645 0.783722 -2.153216
eth_miim/always_6/block_1/if_1/block_2/if_1/block_1/stmt_10 0.059592 -4.786112 0.526712 -2.202990 1.788496 2.322111 0.852898 1.029996 1.024058 -2.291585 -1.165271 0.966720 -0.305561 0.563627 -2.101259 0.096905 -1.769740 0.378378 0.511391 -2.435823
eth_miim/always_6/block_1/if_1/block_2/if_1/block_1/stmt_11 2.583013 -0.090967 -1.904230 1.688788 -0.923920 3.649297 -0.126339 -2.954168 -0.477207 -2.560855 0.224028 1.067679 2.456853 -1.671989 -0.972117 2.516385 -1.850755 0.866272 -1.570784 1.588785
eth_top/assign_7_BDCs/expr_1 -0.751200 -0.242155 0.204766 -0.619391 1.559549 2.636663 3.049744 1.145168 -0.291419 -0.504380 1.550286 0.638229 1.891400 -0.836258 -1.290973 0.987083 -0.756349 -0.216571 -0.393060 -1.189276
eth_miim/always_8/block_1/if_1/block_1/if_1/block_1/if_1/block_1/if_1 -1.567438 -3.662475 4.112812 -0.051055 2.178346 3.146140 -0.083025 -1.965701 2.158147 -2.767209 1.219369 0.186257 -2.799161 -0.197702 0.585273 -0.863907 -0.008573 -0.454347 0.795542 -0.711206
eth_txethmac/always_13 -0.133143 -0.976821 -0.613105 -0.336485 0.084047 0.873276 0.425137 0.373624 0.563754 -0.514230 -0.105773 -0.221355 -0.486855 0.221868 -0.711471 2.640319 0.085605 1.010041 2.743505 -1.477973
eth_register/always_1 0.530312 -1.922881 -0.589015 -0.311530 -2.730213 -3.570731 -3.957016 -0.952061 1.012708 -0.640190 -4.177334 -1.101647 -3.770198 1.305826 1.225963 1.100053 1.032610 2.225763 3.539417 -0.797580
eth_shiftreg/input_Rgad 1.185613 -3.079300 -0.892771 -1.447405 1.773584 1.806509 0.449263 1.423341 -0.208932 -1.139464 -0.909806 0.101600 0.043729 0.591084 -0.284357 0.829311 -1.004303 -0.292864 1.727757 -2.212766
eth_top/assign_5_RegCs/expr_1 -2.643828 -2.978500 4.791039 -0.604141 0.697407 0.011524 -2.706507 1.014899 2.723444 -2.140951 -0.462842 3.582393 -1.378258 -0.891831 -4.381872 -1.584582 0.377292 1.482644 -5.064116 -0.560087
eth_maccontrol/wire_TxStartFrmOut -0.133143 -0.976821 -0.613105 -0.336485 0.084047 0.873276 0.425137 0.373624 0.563754 -0.514230 -0.105773 -0.221355 -0.486855 0.221868 -0.711471 2.640319 0.085605 1.010041 2.743505 -1.477973
eth_registers/wire_MIIADDRESSOut 1.185613 -3.079300 -0.892771 -1.447405 1.773584 1.806509 0.449263 1.423341 -0.208932 -1.139464 -0.909806 0.101600 0.043729 0.591084 -0.284357 0.829311 -1.004303 -0.292864 1.727757 -2.212766
eth_miim/assign_9_ByteSelect 0.655112 -3.320536 -0.272114 -1.820670 1.173976 1.422214 2.973872 2.973187 -0.929183 -0.147560 -1.197936 0.058114 0.126642 1.597827 -0.833571 -1.044199 -1.754286 -0.433633 1.709431 -3.753057
eth_clockgen/always_1/block_1 0.019124 -2.144135 -0.096459 -2.058435 1.397878 -1.440109 -3.586430 -0.801466 1.604621 -2.018353 -3.768952 1.417919 1.175322 -0.911812 -1.096918 -0.756939 -1.156163 0.825800 -3.869880 2.250681
eth_miim/wire_Mdc 2.517101 2.144699 -4.746355 -0.539273 0.807791 -1.170751 -1.182545 1.879892 -2.307237 0.286320 -5.272689 0.067323 5.558102 -1.690353 2.113968 4.438157 -0.454962 1.548929 -0.200810 0.846439
eth_top/wire_TxStartFrmOut -0.133143 -0.976821 -0.613105 -0.336485 0.084047 0.873276 0.425137 0.373624 0.563754 -0.514230 -0.105773 -0.221355 -0.486855 0.221868 -0.711471 2.640319 0.085605 1.010041 2.743505 -1.477973
eth_rxstatem/always_1/block_1/if_1 -0.133143 -0.976821 -0.613105 -0.336485 0.084047 0.873276 0.425137 0.373624 0.563754 -0.514230 -0.105773 -0.221355 -0.486855 0.221868 -0.711471 2.640319 0.085605 1.010041 2.743505 -1.477973
eth_miim/always_1/block_1/if_1/block_2/stmt_2 2.583013 -0.090967 -1.904230 1.688788 -0.923920 3.649297 -0.126339 -2.954168 -0.477207 -2.560855 0.224028 1.067679 2.456853 -1.671989 -0.972117 2.516385 -1.850755 0.866272 -1.570784 1.588785
eth_miim/wire_Mdo 1.091094 -1.299888 0.292670 -0.742701 2.588853 -0.693135 1.032377 4.996256 -1.579557 2.302672 -0.927302 -1.260541 -1.278563 2.844232 2.108636 -2.595724 0.053629 -1.731399 2.756855 -3.540965
eth_top/inst_maccontrol1 -0.133143 -0.976821 -0.613105 -0.336485 0.084047 0.873276 0.425137 0.373624 0.563754 -0.514230 -0.105773 -0.221355 -0.486855 0.221868 -0.711471 2.640319 0.085605 1.010041 2.743505 -1.477973
eth_txstatem/assign_5_StartData/expr_1/expr_1/expr_1 -0.133143 -0.976821 -0.613105 -0.336485 0.084047 0.873276 0.425137 0.373624 0.563754 -0.514230 -0.105773 -0.221355 -0.486855 0.221868 -0.711471 2.640319 0.085605 1.010041 2.743505 -1.477973
eth_registers/assign_109_r_ClkDiv 2.706537 -4.641599 -0.902730 -1.068282 0.406825 -0.092830 -3.997534 -0.402684 1.268832 -1.648897 -4.465474 1.876990 -0.155465 0.489477 -1.260331 -1.647402 -2.985995 0.767849 -2.695212 0.564573
eth_miim/always_3/block_1/if_1/block_2/if_1 0.788982 -4.112766 -0.291264 -2.423874 2.069942 0.433907 -0.432868 2.030793 0.382658 -0.995537 -2.189139 0.312615 -0.497464 1.231913 -0.701291 -0.790150 -1.263408 -0.263645 0.783722 -2.153216
eth_register/always_1/block_1/if_1/stmt_1 2.702073 -1.121769 1.293101 0.680262 1.362589 -1.329209 -5.486240 2.228310 -0.475259 -1.027588 -3.840107 1.423192 -0.786519 -0.193480 2.027515 0.517042 2.403414 0.054716 0.826336 -1.396916
eth_top/wire_RegDataOut 4.127464 -1.596920 -2.319236 1.046723 -0.487710 1.162176 -3.810732 -1.726903 -1.745316 -2.056921 0.243559 -1.362652 -2.254439 0.384682 2.455967 1.941545 1.372712 -1.144901 3.165814 -0.557638
eth_txstatem/always_1/block_1/if_1/block_2/if_6/if_1 -0.133143 -0.976821 -0.613105 -0.336485 0.084047 0.873276 0.425137 0.373624 0.563754 -0.514230 -0.105773 -0.221355 -0.486855 0.221868 -0.711471 2.640319 0.085605 1.010041 2.743505 -1.477973
eth_wishbone/always_6/block_1/if_1/if_1/if_1 -0.133143 -0.976821 -0.613105 -0.336485 0.084047 0.873276 0.425137 0.373624 0.563754 -0.514230 -0.105773 -0.221355 -0.486855 0.221868 -0.711471 2.640319 0.085605 1.010041 2.743505 -1.477973
eth_registers/assign_39_MIIMODER_Wr 2.706537 -4.641599 -0.902730 -1.068282 0.406825 -0.092830 -3.997534 -0.402684 1.268832 -1.648897 -4.465474 1.876990 -0.155465 0.489477 -1.260331 -1.647402 -2.985995 0.767849 -2.695212 0.564573
eth_top/assign_9_BDCs/expr_1/expr_1 -0.751200 -0.242155 0.204766 -0.619391 1.559549 2.636663 3.049744 1.145168 -0.291419 -0.504380 1.550286 0.638229 1.891400 -0.836258 -1.290973 0.987083 -0.756349 -0.216571 -0.393060 -1.189276
eth_miim/input_Rgad 1.185613 -3.079300 -0.892771 -1.447405 1.773584 1.806509 0.449263 1.423341 -0.208932 -1.139464 -0.909806 0.101600 0.043729 0.591084 -0.284357 0.829311 -1.004303 -0.292864 1.727757 -2.212766
eth_wishbone/always_6 -0.133143 -0.976821 -0.613105 -0.336485 0.084047 0.873276 0.425137 0.373624 0.563754 -0.514230 -0.105773 -0.221355 -0.486855 0.221868 -0.711471 2.640319 0.085605 1.010041 2.743505 -1.477973
eth_miim/wire_EndOp 0.111995 -4.457661 1.669282 -1.064732 2.117160 3.735325 1.256278 -0.930748 1.411473 -2.786825 0.258752 0.668283 -0.807670 0.316222 -1.236482 -1.350980 -2.353052 -0.364894 -0.385145 -0.975529
eth_wishbone/always_24/block_1 -0.133143 -0.976821 -0.613105 -0.336485 0.084047 0.873276 0.425137 0.373624 0.563754 -0.514230 -0.105773 -0.221355 -0.486855 0.221868 -0.711471 2.640319 0.085605 1.010041 2.743505 -1.477973
eth_top/wire_r_WCtrlData 0.788982 -4.112766 -0.291264 -2.423874 2.069942 0.433907 -0.432868 2.030793 0.382658 -0.995537 -2.189139 0.312615 -0.497464 1.231913 -0.701291 -0.790150 -1.263408 -0.263645 0.783722 -2.153216
eth_miim/reg_BitCounter -1.671889 -4.836257 3.324402 -2.733744 4.100083 0.397295 -0.859832 0.826462 2.591578 -1.060721 0.450862 -0.364032 -3.834625 1.547481 -0.014423 -4.008869 -0.497078 -1.826251 0.432835 -1.205886
eth_miim/always_8/block_1/if_1/block_1/if_1/block_1/if_1 -0.970635 -4.924531 3.784044 -1.905548 3.179023 0.974250 -1.454551 -0.644814 1.747126 -3.389591 -1.586446 -1.167188 -3.521555 1.963336 2.174706 -2.657079 0.239383 -0.920006 1.832938 -0.792998
eth_top/assign_6_BDCs/expr_1/expr_1 -0.751200 -0.242155 0.204766 -0.619391 1.559549 2.636663 3.049744 1.145168 -0.291419 -0.504380 1.550286 0.638229 1.891400 -0.836258 -1.290973 0.987083 -0.756349 -0.216571 -0.393060 -1.189276
eth_top/always_1/block_1 -0.094411 1.142479 -0.492642 0.588557 0.086881 1.632571 -0.595233 -1.172014 -1.271033 -0.850865 4.355046 0.630634 -0.065511 -2.364194 0.330842 2.033310 2.809771 -1.950683 -0.433345 -0.083878
eth_rxethmac -0.133143 -0.976821 -0.613105 -0.336485 0.084047 0.873276 0.425137 0.373624 0.563754 -0.514230 -0.105773 -0.221355 -0.486855 0.221868 -0.711471 2.640319 0.085605 1.010041 2.743505 -1.477973
eth_registers/wire_r_WCtrlData 0.788982 -4.112766 -0.291264 -2.423874 2.069942 0.433907 -0.432868 2.030793 0.382658 -0.995537 -2.189139 0.312615 -0.497464 1.231913 -0.701291 -0.790150 -1.263408 -0.263645 0.783722 -2.153216
eth_miim/reg_EndBusy 2.583013 -0.090967 -1.904230 1.688788 -0.923920 3.649297 -0.126339 -2.954168 -0.477207 -2.560855 0.224028 1.067679 2.456853 -1.671989 -0.972117 2.516385 -1.850755 0.866272 -1.570784 1.588785
eth_rxstatem/assign_3_StartSFD -0.133143 -0.976821 -0.613105 -0.336485 0.084047 0.873276 0.425137 0.373624 0.563754 -0.514230 -0.105773 -0.221355 -0.486855 0.221868 -0.711471 2.640319 0.085605 1.010041 2.743505 -1.477973
eth_miim/always_8/block_1/if_1/stmt_1 1.559440 -0.424393 -1.877112 -1.033729 3.190054 1.512914 1.998016 3.210778 -1.890063 1.299321 0.879709 -0.800439 1.322445 0.619237 1.724271 -0.168577 -0.395500 -2.236714 1.846776 -2.153497
eth_outputcontrol 1.198046 -4.227976 3.231618 0.205527 1.133484 2.028151 0.796390 0.492505 0.591058 -0.829684 0.613388 -0.185373 -3.242372 3.125732 -0.461255 -6.066817 -2.374121 -1.534013 -0.493800 -1.624647
eth_txstatem/always_1/block_1 -0.133143 -0.976821 -0.613105 -0.336485 0.084047 0.873276 0.425137 0.373624 0.563754 -0.514230 -0.105773 -0.221355 -0.486855 0.221868 -0.711471 2.640319 0.085605 1.010041 2.743505 -1.477973
eth_top/wire_BDCs -0.751200 -0.242155 0.204766 -0.619391 1.559549 2.636663 3.049744 1.145168 -0.291419 -0.504380 1.550286 0.638229 1.891400 -0.836258 -1.290973 0.987083 -0.756349 -0.216571 -0.393060 -1.189276
eth_outputcontrol/always_2/block_1/if_1/block_2/if_1/block_1/stmt_1/expr_1/expr_2 -0.373975 -0.290059 -0.145842 -1.546843 3.916746 -1.157727 -0.395026 3.875966 -0.435625 1.622513 -0.814913 -0.584259 -0.366701 0.087974 2.062165 -0.177633 1.107282 -1.509389 1.572879 -1.939825
eth_transmitcontrol/reg_WillSendControlFrame -0.133143 -0.976821 -0.613105 -0.336485 0.084047 0.873276 0.425137 0.373624 0.563754 -0.514230 -0.105773 -0.221355 -0.486855 0.221868 -0.711471 2.640319 0.085605 1.010041 2.743505 -1.477973
eth_miim/assign_3_ScanStatusOp/expr_1/expr_1/expr_2 0.059592 -4.786112 0.526712 -2.202990 1.788496 2.322111 0.852898 1.029996 1.024058 -2.291585 -1.165271 0.966720 -0.305561 0.563627 -2.101259 0.096905 -1.769740 0.378378 0.511391 -2.435823
eth_miim/assign_3_ScanStatusOp/expr_1/expr_1/expr_1 0.788982 -4.112766 -0.291264 -2.423874 2.069942 0.433907 -0.432868 2.030793 0.382658 -0.995537 -2.189139 0.312615 -0.497464 1.231913 -0.701291 -0.790150 -1.263408 -0.263645 0.783722 -2.153216
eth_miim/always_7/block_1/if_1/block_2/if_1/block_1/if_1/block_1/stmt_1 0.533801 -3.143020 1.451520 0.503157 -0.659815 3.181672 -0.226331 -2.972927 1.433406 -3.539277 -0.304795 1.469584 -0.295438 -0.544846 -2.085653 -0.169961 -2.059681 1.135112 -1.833781 0.478830
eth_rxstatem/assign_7_StateData -0.133143 -0.976821 -0.613105 -0.336485 0.084047 0.873276 0.425137 0.373624 0.563754 -0.514230 -0.105773 -0.221355 -0.486855 0.221868 -0.711471 2.640319 0.085605 1.010041 2.743505 -1.477973
eth_rxstatem/reg_StateDrop -0.133143 -0.976821 -0.613105 -0.336485 0.084047 0.873276 0.425137 0.373624 0.563754 -0.514230 -0.105773 -0.221355 -0.486855 0.221868 -0.711471 2.640319 0.085605 1.010041 2.743505 -1.477973
eth_registers/wire_MAC_ADDR0Out 3.246899 -2.429312 -3.169011 0.290192 -1.651204 0.761735 -2.812141 -2.829137 -1.731185 -2.467998 -0.256602 -1.672186 -2.327610 0.112392 2.355335 1.938810 0.824878 -0.679962 2.842438 -0.579137
eth_outputcontrol/always_1/block_1 1.339008 -1.034865 0.107631 1.395205 0.324550 3.392739 -2.104739 -3.918152 1.473855 -3.367623 0.396937 1.042377 0.738754 -1.769754 -0.846039 2.054947 -1.210990 0.987916 -1.790761 2.546624
eth_clockgen/always_2/block_1/if_1/stmt_1 2.514317 -0.582054 0.039807 2.102770 -1.992486 0.705062 1.527573 2.872070 -3.244328 -0.218860 -6.858027 1.206594 3.771797 -0.281412 2.630121 1.451096 -0.906581 2.903856 -0.292637 -2.917597
eth_clockgen/always_1 0.019124 -2.144135 -0.096459 -2.058435 1.397878 -1.440109 -3.586430 -0.801466 1.604621 -2.018353 -3.768952 1.417919 1.175322 -0.911812 -1.096918 -0.756939 -1.156163 0.825800 -3.869880 2.250681
eth_clockgen/always_2 0.487676 -2.140080 -0.701163 -2.163566 0.449366 0.060857 0.513768 -2.214810 -0.763464 -3.023851 -4.282291 -0.138592 2.697480 -0.711093 2.449650 -1.851023 -1.771697 -0.044696 -2.801835 2.074945
eth_rxstatem/assign_1_StartIdle -0.133143 -0.976821 -0.613105 -0.336485 0.084047 0.873276 0.425137 0.373624 0.563754 -0.514230 -0.105773 -0.221355 -0.486855 0.221868 -0.711471 2.640319 0.085605 1.010041 2.743505 -1.477973
eth_clockgen/assign_4_MdcEn 0.533801 -3.143020 1.451520 0.503157 -0.659815 3.181672 -0.226331 -2.972927 1.433406 -3.539277 -0.304795 1.469584 -0.295438 -0.544846 -2.085653 -0.169961 -2.059681 1.135112 -1.833781 0.478830
eth_registers/assign_113_r_RGAD 1.185613 -3.079300 -0.892771 -1.447405 1.773584 1.806509 0.449263 1.423341 -0.208932 -1.139464 -0.909806 0.101600 0.043729 0.591084 -0.284357 0.829311 -1.004303 -0.292864 1.727757 -2.212766
eth_miim/always_1/block_1/if_1/block_2/stmt_1 2.583013 -0.090967 -1.904230 1.688788 -0.923920 3.649297 -0.126339 -2.954168 -0.477207 -2.560855 0.224028 1.067679 2.456853 -1.671989 -0.972117 2.516385 -1.850755 0.866272 -1.570784 1.588785
eth_txstatem/assign_3_StartPreamble -0.133143 -0.976821 -0.613105 -0.336485 0.084047 0.873276 0.425137 0.373624 0.563754 -0.514230 -0.105773 -0.221355 -0.486855 0.221868 -0.711471 2.640319 0.085605 1.010041 2.743505 -1.477973
eth_miim/always_8/block_1 -1.671889 -4.836257 3.324402 -2.733744 4.100083 0.397295 -0.859832 0.826462 2.591578 -1.060721 0.450862 -0.364032 -3.834625 1.547481 -0.014423 -4.008869 -0.497078 -1.826251 0.432835 -1.205886
check_ethernet/input_wb_adr_i 1.902969 1.418221 -0.405346 1.687019 1.292143 3.482836 1.698598 0.873847 -2.188285 -1.162761 1.906208 -0.755927 0.830280 -1.437636 2.495153 3.100512 1.391321 -0.742396 3.416722 -2.220519
eth_miim/always_6/block_1/if_1/block_2/if_1 1.702555 -4.659681 -0.268283 -1.914477 1.427407 1.331075 -1.507794 -0.034443 0.754547 -2.597388 -2.239469 0.776458 -0.233235 0.866026 -1.360669 -1.173146 -2.062061 -0.000934 -0.926982 -0.649885
eth_registers/assign_2_Read 2.818438 -2.532869 -5.302407 -1.344752 -1.323938 -0.182140 -3.123175 -1.203828 -1.489324 -0.202473 0.096974 0.377091 -0.020359 0.310415 0.031707 2.772500 0.898565 -1.450209 1.326736 -0.324633
eth_txethmac/inst_txstatem1 -0.133143 -0.976821 -0.613105 -0.336485 0.084047 0.873276 0.425137 0.373624 0.563754 -0.514230 -0.105773 -0.221355 -0.486855 0.221868 -0.711471 2.640319 0.085605 1.010041 2.743505 -1.477973
eth_top/always_1/block_1/if_1 -0.094411 1.142479 -0.492642 0.588557 0.086881 1.632571 -0.595233 -1.172014 -1.271033 -0.850865 4.355046 0.630634 -0.065511 -2.364194 0.330842 2.033310 2.809771 -1.950683 -0.433345 -0.083878
eth_txstatem/always_1/block_1/if_1/block_2/if_5/if_1/cond -0.133143 -0.976821 -0.613105 -0.336485 0.084047 0.873276 0.425137 0.373624 0.563754 -0.514230 -0.105773 -0.221355 -0.486855 0.221868 -0.711471 2.640319 0.085605 1.010041 2.743505 -1.477973
eth_transmitcontrol/always_1/block_1/if_1/if_1/if_1 -0.133143 -0.976821 -0.613105 -0.336485 0.084047 0.873276 0.425137 0.373624 0.563754 -0.514230 -0.105773 -0.221355 -0.486855 0.221868 -0.711471 2.640319 0.085605 1.010041 2.743505 -1.477973
eth_top/input_wb_stb_i -4.210507 -3.088949 2.385872 0.279155 -3.961022 -0.208177 0.648130 -1.854270 0.138697 -0.942382 -1.521621 5.370965 -2.121074 -4.407228 3.625534 0.784798 2.745588 0.068416 -1.448327 -3.516725
eth_miim/always_8/block_1/if_1/block_1/if_1/block_1/if_1/stmt_1 -0.970635 -4.924531 3.784044 -1.905548 3.179023 0.974250 -1.454551 -0.644814 1.747126 -3.389591 -1.586446 -1.167188 -3.521555 1.963336 2.174706 -2.657079 0.239383 -0.920006 1.832938 -0.792998
eth_registers/inst_MIICOMMAND0 0.788982 -4.112766 -0.291264 -2.423874 2.069942 0.433907 -0.432868 2.030793 0.382658 -0.995537 -2.189139 0.312615 -0.497464 1.231913 -0.701291 -0.790150 -1.263408 -0.263645 0.783722 -2.153216
eth_registers/inst_MIICOMMAND1 2.444530 -3.592981 -1.911767 -2.057837 3.189701 0.426802 -3.956691 0.734031 0.455061 -1.727186 -2.244114 -0.228032 -0.479573 0.388870 1.165863 1.148524 -0.136247 -0.756871 1.362522 -0.372158
eth_registers/inst_MIICOMMAND2 0.788982 -4.112766 -0.291264 -2.423874 2.069942 0.433907 -0.432868 2.030793 0.382658 -0.995537 -2.189139 0.312615 -0.497464 1.231913 -0.701291 -0.790150 -1.263408 -0.263645 0.783722 -2.153216
eth_miim/always_6/block_1/if_1/block_2/if_1/block_1/stmt_2 2.256615 -3.962668 -1.358308 -0.993425 0.936767 3.037224 -1.628094 -1.395511 0.816294 -3.698317 -1.802614 1.493206 1.261544 -0.629757 -2.051040 1.661323 -2.278616 0.949325 -1.263804 0.127492
eth_miim/always_6/block_1/if_1/block_2/if_1/block_1/stmt_3 2.444530 -3.592981 -1.911767 -2.057837 3.189701 0.426802 -3.956691 0.734031 0.455061 -1.727186 -2.244114 -0.228032 -0.479573 0.388870 1.165863 1.148524 -0.136247 -0.756871 1.362522 -0.372158
eth_shiftreg/always_1/block_1/if_1/block_2/if_1/block_1/if_1/block_2/stmt_1 0.655112 -3.320536 -0.272114 -1.820670 1.173976 1.422214 2.973872 2.973187 -0.929183 -0.147560 -1.197936 0.058114 0.126642 1.597827 -0.833571 -1.044199 -1.754286 -0.433633 1.709431 -3.753057
eth_miim/always_6/block_1/if_1/block_2/if_1/block_1/stmt_1 1.959525 -3.981854 -1.109972 -1.849058 0.878478 1.521680 0.203096 0.905358 -0.053744 -1.918975 -2.575943 1.332857 1.431858 0.748501 -2.279104 -1.335652 -3.074791 0.258607 -1.975639 -0.998693
eth_miim/always_6/block_1/if_1/block_2/if_1/block_1/stmt_4 1.274758 -4.885806 -0.765480 -2.081020 2.262434 2.131560 -2.169226 -0.001576 1.318707 -3.136164 -1.848228 0.759194 -0.437945 -0.020503 -1.076225 2.054172 -0.955055 0.534872 1.181736 -1.330310
eth_rxethmac/input_Transmitting -0.133143 -0.976821 -0.613105 -0.336485 0.084047 0.873276 0.425137 0.373624 0.563754 -0.514230 -0.105773 -0.221355 -0.486855 0.221868 -0.711471 2.640319 0.085605 1.010041 2.743505 -1.477973
eth_registers/input_Address 5.022894 -0.140158 -0.962803 1.660567 3.968451 0.861393 -6.799624 3.699763 -2.562034 -0.411645 0.580997 0.837474 0.511038 2.009015 1.468286 1.365435 3.348928 -3.077894 0.280923 -0.703506
eth_miim/always_6/block_1/if_1/block_2/if_1/block_1/stmt_9 0.059592 -4.786112 0.526712 -2.202990 1.788496 2.322111 0.852898 1.029996 1.024058 -2.291585 -1.165271 0.966720 -0.305561 0.563627 -2.101259 0.096905 -1.769740 0.378378 0.511391 -2.435823
eth_registers/wire_MIIMODER_Wr 2.706537 -4.641599 -0.902730 -1.068282 0.406825 -0.092830 -3.997534 -0.402684 1.268832 -1.648897 -4.465474 1.876990 -0.155465 0.489477 -1.260331 -1.647402 -2.985995 0.767849 -2.695212 0.564573
eth_wishbone/always_24/block_1/if_1/if_1/cond/expr_1 -0.133143 -0.976821 -0.613105 -0.336485 0.084047 0.873276 0.425137 0.373624 0.563754 -0.514230 -0.105773 -0.221355 -0.486855 0.221868 -0.711471 2.640319 0.085605 1.010041 2.743505 -1.477973
eth_miim/always_6/block_1 1.702555 -4.659681 -0.268283 -1.914477 1.427407 1.331075 -1.507794 -0.034443 0.754547 -2.597388 -2.239469 0.776458 -0.233235 0.866026 -1.360669 -1.173146 -2.062061 -0.000934 -0.926982 -0.649885
eth_outputcontrol/always_1/block_1/if_1 1.339008 -1.034865 0.107631 1.395205 0.324550 3.392739 -2.104739 -3.918152 1.473855 -3.367623 0.396937 1.042377 0.738754 -1.769754 -0.846039 2.054947 -1.210990 0.987916 -1.790761 2.546624
eth_top/input_wb_we_i 2.312668 0.260597 -0.392452 2.126078 -0.305031 2.392696 -2.343892 -1.132331 -1.402021 -2.748620 1.675762 0.228778 -0.116351 -0.682725 0.998600 2.741235 2.224463 -0.281878 0.883687 -0.486280
eth_wishbone/always_6/block_1/if_1/if_1 -0.133143 -0.976821 -0.613105 -0.336485 0.084047 0.873276 0.425137 0.373624 0.563754 -0.514230 -0.105773 -0.221355 -0.486855 0.221868 -0.711471 2.640319 0.085605 1.010041 2.743505 -1.477973
eth_miim/always_7/block_1 0.633713 -4.037316 1.258660 -0.981056 1.369273 2.059582 -1.161810 -1.125582 1.579341 -2.755866 -0.901569 1.009523 -0.764024 0.335669 -1.551724 -1.389770 -1.894642 0.130801 -1.550468 0.067495
eth_wishbone -1.932446 -0.008970 0.429269 -0.678028 0.532072 1.173156 2.679559 1.167657 0.881388 0.120485 0.850069 0.287840 0.791127 -0.172555 -2.089244 2.088508 -0.379554 1.218355 1.142920 -1.342963
eth_txstatem/always_1/block_1/if_1/block_2/if_4/if_1/cond -0.133143 -0.976821 -0.613105 -0.336485 0.084047 0.873276 0.425137 0.373624 0.563754 -0.514230 -0.105773 -0.221355 -0.486855 0.221868 -0.711471 2.640319 0.085605 1.010041 2.743505 -1.477973
eth_wishbone/always_77/block_1/if_1 -0.564160 -1.660042 -0.123875 -1.150742 1.838274 3.130696 2.762507 1.017882 0.046760 -1.245679 1.097378 0.932032 1.543190 -0.974385 -1.588222 1.730906 -0.980036 -0.072671 0.204738 -1.781098
eth_top/assign_7_BDCs/expr_1/expr_1/expr_1 -0.751200 -0.242155 0.204766 -0.619391 1.559549 2.636663 3.049744 1.145168 -0.291419 -0.504380 1.550286 0.638229 1.891400 -0.836258 -1.290973 0.987083 -0.756349 -0.216571 -0.393060 -1.189276
eth_rxstatem/reg_StatePreamble -0.133143 -0.976821 -0.613105 -0.336485 0.084047 0.873276 0.425137 0.373624 0.563754 -0.514230 -0.105773 -0.221355 -0.486855 0.221868 -0.711471 2.640319 0.085605 1.010041 2.743505 -1.477973
eth_rxstatem/always_1/block_1/if_1/block_2/if_3 -0.133143 -0.976821 -0.613105 -0.336485 0.084047 0.873276 0.425137 0.373624 0.563754 -0.514230 -0.105773 -0.221355 -0.486855 0.221868 -0.711471 2.640319 0.085605 1.010041 2.743505 -1.477973
eth_rxstatem/always_1/block_1/if_1/block_2/if_2 -0.133143 -0.976821 -0.613105 -0.336485 0.084047 0.873276 0.425137 0.373624 0.563754 -0.514230 -0.105773 -0.221355 -0.486855 0.221868 -0.711471 2.640319 0.085605 1.010041 2.743505 -1.477973
eth_rxstatem/always_1/block_1/if_1/block_2/if_5 -0.133143 -0.976821 -0.613105 -0.336485 0.084047 0.873276 0.425137 0.373624 0.563754 -0.514230 -0.105773 -0.221355 -0.486855 0.221868 -0.711471 2.640319 0.085605 1.010041 2.743505 -1.477973
eth_rxstatem/always_1/block_1/if_1/block_2/if_4 -0.133143 -0.976821 -0.613105 -0.336485 0.084047 0.873276 0.425137 0.373624 0.563754 -0.514230 -0.105773 -0.221355 -0.486855 0.221868 -0.711471 2.640319 0.085605 1.010041 2.743505 -1.477973
eth_wishbone/always_30/block_1/if_1/if_1/if_1 -0.133143 -0.976821 -0.613105 -0.336485 0.084047 0.873276 0.425137 0.373624 0.563754 -0.514230 -0.105773 -0.221355 -0.486855 0.221868 -0.711471 2.640319 0.085605 1.010041 2.743505 -1.477973
eth_rxstatem/always_1/block_1/if_1/block_2/if_6 -0.133143 -0.976821 -0.613105 -0.336485 0.084047 0.873276 0.425137 0.373624 0.563754 -0.514230 -0.105773 -0.221355 -0.486855 0.221868 -0.711471 2.640319 0.085605 1.010041 2.743505 -1.477973
eth_miim/input_WCtrlData 0.788982 -4.112766 -0.291264 -2.423874 2.069942 0.433907 -0.432868 2.030793 0.382658 -0.995537 -2.189139 0.312615 -0.497464 1.231913 -0.701291 -0.790150 -1.263408 -0.263645 0.783722 -2.153216
eth_miim/always_7/block_1/if_1/block_2 0.633713 -4.037316 1.258660 -0.981056 1.369273 2.059582 -1.161810 -1.125582 1.579341 -2.755866 -0.901569 1.009523 -0.764024 0.335669 -1.551724 -1.389770 -1.894642 0.130801 -1.550468 0.067495
eth_miim/always_7/block_1/if_1/block_1 0.995095 -3.396930 -1.154753 -1.605187 2.627746 1.595009 -4.176764 -1.177781 1.712917 -3.159918 -0.886604 0.455756 -0.668654 -1.151718 0.011785 3.682961 0.699124 0.324630 1.374978 0.184432
eth_top/assign_2_RegCs/expr_1/expr_1/expr_1/expr_1 -0.564160 -1.660042 -0.123875 -1.150742 1.838274 3.130696 2.762507 1.017882 0.046760 -1.245679 1.097378 0.932032 1.543190 -0.974385 -1.588222 1.730906 -0.980036 -0.072671 0.204738 -1.781098
eth_wishbone/always_77/block_1/if_1/if_1 -0.564160 -1.660042 -0.123875 -1.150742 1.838274 3.130696 2.762507 1.017882 0.046760 -1.245679 1.097378 0.932032 1.543190 -0.974385 -1.588222 1.730906 -0.980036 -0.072671 0.204738 -1.781098
eth_registers/always_1/block_1/if_1/cond 2.818438 -2.532869 -5.302407 -1.344752 -1.323938 -0.182140 -3.123175 -1.203828 -1.489324 -0.202473 0.096974 0.377091 -0.020359 0.310415 0.031707 2.772500 0.898565 -1.450209 1.326736 -0.324633
eth_top/always_4/block_1/stmt_2 -0.133143 -0.976821 -0.613105 -0.336485 0.084047 0.873276 0.425137 0.373624 0.563754 -0.514230 -0.105773 -0.221355 -0.486855 0.221868 -0.711471 2.640319 0.085605 1.010041 2.743505 -1.477973
eth_top/always_4/block_1/stmt_1 -0.133143 -0.976821 -0.613105 -0.336485 0.084047 0.873276 0.425137 0.373624 0.563754 -0.514230 -0.105773 -0.221355 -0.486855 0.221868 -0.711471 2.640319 0.085605 1.010041 2.743505 -1.477973
eth_outputcontrol/always_1/block_1/if_1/block_2 1.339008 -1.034865 0.107631 1.395205 0.324550 3.392739 -2.104739 -3.918152 1.473855 -3.367623 0.396937 1.042377 0.738754 -1.769754 -0.846039 2.054947 -1.210990 0.987916 -1.790761 2.546624
eth_top/always_1/block_1/if_1/block_2/stmt_3/expr_1 1.405685 -1.622472 -2.682081 -1.463100 1.043129 1.827901 1.051796 -1.336160 -1.153359 0.308306 1.388949 -0.047888 0.197522 -1.859845 2.147834 -0.169171 -0.893718 -2.896492 0.674467 -0.249169
eth_top/assign_6_BDCs -0.751200 -0.242155 0.204766 -0.619391 1.559549 2.636663 3.049744 1.145168 -0.291419 -0.504380 1.550286 0.638229 1.891400 -0.836258 -1.290973 0.987083 -0.756349 -0.216571 -0.393060 -1.189276
eth_wishbone/input_BDCs -0.751200 -0.242155 0.204766 -0.619391 1.559549 2.636663 3.049744 1.145168 -0.291419 -0.504380 1.550286 0.638229 1.891400 -0.836258 -1.290973 0.987083 -0.756349 -0.216571 -0.393060 -1.189276
eth_registers/assign_2_Read/expr_1 2.818438 -2.532869 -5.302407 -1.344752 -1.323938 -0.182140 -3.123175 -1.203828 -1.489324 -0.202473 0.096974 0.377091 -0.020359 0.310415 0.031707 2.772500 0.898565 -1.450209 1.326736 -0.324633
eth_wishbone/always_30/block_1 -0.133143 -0.976821 -0.613105 -0.336485 0.084047 0.873276 0.425137 0.373624 0.563754 -0.514230 -0.105773 -0.221355 -0.486855 0.221868 -0.711471 2.640319 0.085605 1.010041 2.743505 -1.477973
eth_miim/always_4/block_1/if_1/block_2/if_1/block_2/if_1/cond/expr_1 2.256615 -3.962668 -1.358308 -0.993425 0.936767 3.037224 -1.628094 -1.395511 0.816294 -3.698317 -1.802614 1.493206 1.261544 -0.629757 -2.051040 1.661323 -2.278616 0.949325 -1.263804 0.127492
eth_registers/assign_2_Read/expr_2 2.818438 -2.532869 -5.302407 -1.344752 -1.323938 -0.182140 -3.123175 -1.203828 -1.489324 -0.202473 0.096974 0.377091 -0.020359 0.310415 0.031707 2.772500 0.898565 -1.450209 1.326736 -0.324633
eth_miim/always_3/block_1/if_1/block_2/stmt_8 0.788982 -4.112766 -0.291264 -2.423874 2.069942 0.433907 -0.432868 2.030793 0.382658 -0.995537 -2.189139 0.312615 -0.497464 1.231913 -0.701291 -0.790150 -1.263408 -0.263645 0.783722 -2.153216
eth_miim/reg_RStatStart_q2 -0.841629 -3.907061 2.349158 -1.258737 2.773178 1.723113 -2.579699 -0.941498 1.766816 -2.941183 -0.477636 0.148422 -2.202956 -0.778805 1.437978 1.417625 1.340278 -0.196920 1.788752 -0.995780
eth_registers/assign_43_MIIADDRESS_Wr/expr_1 1.185613 -3.079300 -0.892771 -1.447405 1.773584 1.806509 0.449263 1.423341 -0.208932 -1.139464 -0.909806 0.101600 0.043729 0.591084 -0.284357 0.829311 -1.004303 -0.292864 1.727757 -2.212766
eth_miim/always_3/block_1/if_1/block_2/stmt_4 2.444530 -3.592981 -1.911767 -2.057837 3.189701 0.426802 -3.956691 0.734031 0.455061 -1.727186 -2.244114 -0.228032 -0.479573 0.388870 1.165863 1.148524 -0.136247 -0.756871 1.362522 -0.372158
eth_miim/always_3/block_1/if_1/block_2/stmt_5 2.444530 -3.592981 -1.911767 -2.057837 3.189701 0.426802 -3.956691 0.734031 0.455061 -1.727186 -2.244114 -0.228032 -0.479573 0.388870 1.165863 1.148524 -0.136247 -0.756871 1.362522 -0.372158
eth_miim/always_3/block_1/if_1/block_2/stmt_6 1.274758 -4.885806 -0.765480 -2.081020 2.262434 2.131560 -2.169226 -0.001576 1.318707 -3.136164 -1.848228 0.759194 -0.437945 -0.020503 -1.076225 2.054172 -0.955055 0.534872 1.181736 -1.330310
eth_miim/always_3/block_1/if_1/block_2/stmt_7 0.788982 -4.112766 -0.291264 -2.423874 2.069942 0.433907 -0.432868 2.030793 0.382658 -0.995537 -2.189139 0.312615 -0.497464 1.231913 -0.701291 -0.790150 -1.263408 -0.263645 0.783722 -2.153216
eth_miim/always_3/block_1/if_1/block_2/stmt_1 0.788982 -4.112766 -0.291264 -2.423874 2.069942 0.433907 -0.432868 2.030793 0.382658 -0.995537 -2.189139 0.312615 -0.497464 1.231913 -0.701291 -0.790150 -1.263408 -0.263645 0.783722 -2.153216
eth_miim/always_3/block_1/if_1/block_2/stmt_2 1.959525 -3.981854 -1.109972 -1.849058 0.878478 1.521680 0.203096 0.905358 -0.053744 -1.918975 -2.575943 1.332857 1.431858 0.748501 -2.279104 -1.335652 -3.074791 0.258607 -1.975639 -0.998693
eth_miim/always_3/block_1/if_1/block_2/stmt_3 2.256615 -3.962668 -1.358308 -0.993425 0.936767 3.037224 -1.628094 -1.395511 0.816294 -3.698317 -1.802614 1.493206 1.261544 -0.629757 -2.051040 1.661323 -2.278616 0.949325 -1.263804 0.127492
eth_miim/always_4/block_1/if_1/block_2/if_1/block_2/if_1 1.959525 -3.981854 -1.109972 -1.849058 0.878478 1.521680 0.203096 0.905358 -0.053744 -1.918975 -2.575943 1.332857 1.431858 0.748501 -2.279104 -1.335652 -3.074791 0.258607 -1.975639 -0.998693
eth_miim/always_4/block_1/if_1/block_2/if_1/block_2/if_2 2.444530 -3.592981 -1.911767 -2.057837 3.189701 0.426802 -3.956691 0.734031 0.455061 -1.727186 -2.244114 -0.228032 -0.479573 0.388870 1.165863 1.148524 -0.136247 -0.756871 1.362522 -0.372158
eth_miim/always_4/block_1/if_1/block_2/if_1/block_2/if_2/cond/expr_1 1.274758 -4.885806 -0.765480 -2.081020 2.262434 2.131560 -2.169226 -0.001576 1.318707 -3.136164 -1.848228 0.759194 -0.437945 -0.020503 -1.076225 2.054172 -0.955055 0.534872 1.181736 -1.330310
eth_txstatem/wire_StartData -0.133143 -0.976821 -0.613105 -0.336485 0.084047 0.873276 0.425137 0.373624 0.563754 -0.514230 -0.105773 -0.221355 -0.486855 0.221868 -0.711471 2.640319 0.085605 1.010041 2.743505 -1.477973
eth_top/reg_WillTransmit_q -0.133143 -0.976821 -0.613105 -0.336485 0.084047 0.873276 0.425137 0.373624 0.563754 -0.514230 -0.105773 -0.221355 -0.486855 0.221868 -0.711471 2.640319 0.085605 1.010041 2.743505 -1.477973
eth_rxstatem/wire_StartIdle -0.133143 -0.976821 -0.613105 -0.336485 0.084047 0.873276 0.425137 0.373624 0.563754 -0.514230 -0.105773 -0.221355 -0.486855 0.221868 -0.711471 2.640319 0.085605 1.010041 2.743505 -1.477973
eth_rxstatem/assign_2_StartPreamble/expr_1/expr_1 -0.133143 -0.976821 -0.613105 -0.336485 0.084047 0.873276 0.425137 0.373624 0.563754 -0.514230 -0.105773 -0.221355 -0.486855 0.221868 -0.711471 2.640319 0.085605 1.010041 2.743505 -1.477973
eth_top/assign_3_RegCs -0.751200 -0.242155 0.204766 -0.619391 1.559549 2.636663 3.049744 1.145168 -0.291419 -0.504380 1.550286 0.638229 1.891400 -0.836258 -1.290973 0.987083 -0.756349 -0.216571 -0.393060 -1.189276
eth_wishbone/always_24 -0.133143 -0.976821 -0.613105 -0.336485 0.084047 0.873276 0.425137 0.373624 0.563754 -0.514230 -0.105773 -0.221355 -0.486855 0.221868 -0.711471 2.640319 0.085605 1.010041 2.743505 -1.477973
eth_wishbone/always_26 -0.133143 -0.976821 -0.613105 -0.336485 0.084047 0.873276 0.425137 0.373624 0.563754 -0.514230 -0.105773 -0.221355 -0.486855 0.221868 -0.711471 2.640319 0.085605 1.010041 2.743505 -1.477973
eth_wishbone/always_27 -0.133143 -0.976821 -0.613105 -0.336485 0.084047 0.873276 0.425137 0.373624 0.563754 -0.514230 -0.105773 -0.221355 -0.486855 0.221868 -0.711471 2.640319 0.085605 1.010041 2.743505 -1.477973
eth_register/always_1/block_1/if_1/if_1/if_1/stmt_1 0.669087 -1.611097 -1.191213 0.594533 -2.103243 2.867517 3.338927 -3.435071 -2.211608 -4.127602 2.299632 -3.688428 -1.441246 1.273941 0.038270 -0.126688 -1.561272 0.346602 0.717702 -0.433090
eth_clockgen/always_1/block_1/if_1/block_1/if_1/cond -0.134888 -3.329567 0.962790 -1.553897 1.074870 -0.748711 -3.978800 -1.372237 2.295893 -2.186300 -2.447506 1.952915 -0.546724 -0.567880 -2.486481 -1.686654 -1.323129 0.666720 -4.249511 1.781929
eth_clockgen/assign_4_MdcEn/expr_1/expr_1 0.533801 -3.143020 1.451520 0.503157 -0.659815 3.181672 -0.226331 -2.972927 1.433406 -3.539277 -0.304795 1.469584 -0.295438 -0.544846 -2.085653 -0.169961 -2.059681 1.135112 -1.833781 0.478830
eth_top/reg_temp_wb_err_o_reg 1.405685 -1.622472 -2.682081 -1.463100 1.043129 1.827901 1.051796 -1.336160 -1.153359 0.308306 1.388949 -0.047888 0.197522 -1.859845 2.147834 -0.169171 -0.893718 -2.896492 0.674467 -0.249169
eth_registers/assign_43_MIIADDRESS_Wr 1.185613 -3.079300 -0.892771 -1.447405 1.773584 1.806509 0.449263 1.423341 -0.208932 -1.139464 -0.909806 0.101600 0.043729 0.591084 -0.284357 0.829311 -1.004303 -0.292864 1.727757 -2.212766
eth_clockgen/always_1/block_1/if_1/stmt_1 4.153587 0.161001 -3.144499 -0.609344 1.245645 -2.570357 -3.426002 4.927179 -1.540927 0.641257 -6.574213 0.225826 3.568937 1.573158 -0.818259 1.298975 -1.448780 1.950705 -0.499863 -0.806917
eth_miim/assign_7_ByteSelect/expr_1/expr_1 0.655112 -3.320536 -0.272114 -1.820670 1.173976 1.422214 2.973872 2.973187 -0.929183 -0.147560 -1.197936 0.058114 0.126642 1.597827 -0.833571 -1.044199 -1.754286 -0.433633 1.709431 -3.753057
eth_top/assign_4_RegCs -3.216664 -2.920538 1.924193 -3.444982 2.689506 1.245087 3.122455 2.743706 1.433043 -0.811510 0.609455 1.392612 0.949788 -0.205620 -3.740410 -0.463076 -0.922768 0.180777 -1.347702 -2.320057
eth_miim/always_8/block_1/if_1/block_1 -0.970635 -4.924531 3.784044 -1.905548 3.179023 0.974250 -1.454551 -0.644814 1.747126 -3.389591 -1.586446 -1.167188 -3.521555 1.963336 2.174706 -2.657079 0.239383 -0.920006 1.832938 -0.792998
eth_miim/always_4/block_1/if_1/block_2/if_1/cond 2.583013 -0.090967 -1.904230 1.688788 -0.923920 3.649297 -0.126339 -2.954168 -0.477207 -2.560855 0.224028 1.067679 2.456853 -1.671989 -0.972117 2.516385 -1.850755 0.866272 -1.570784 1.588785
eth_outputcontrol/assign_1_SerialEn/expr_1/expr_2/expr_1 0.995095 -3.396930 -1.154753 -1.605187 2.627746 1.595009 -4.176764 -1.177781 1.712917 -3.159918 -0.886604 0.455756 -0.668654 -1.151718 0.011785 3.682961 0.699124 0.324630 1.374978 0.184432
eth_clockgen/always_2/block_1 0.487676 -2.140080 -0.701163 -2.163566 0.449366 0.060857 0.513768 -2.214810 -0.763464 -3.023851 -4.282291 -0.138592 2.697480 -0.711093 2.449650 -1.851023 -1.771697 -0.044696 -2.801835 2.074945
eth_maccontrol -0.133143 -0.976821 -0.613105 -0.336485 0.084047 0.873276 0.425137 0.373624 0.563754 -0.514230 -0.105773 -0.221355 -0.486855 0.221868 -0.711471 2.640319 0.085605 1.010041 2.743505 -1.477973
eth_registers/wire_r_RGAD 1.185613 -3.079300 -0.892771 -1.447405 1.773584 1.806509 0.449263 1.423341 -0.208932 -1.139464 -0.909806 0.101600 0.043729 0.591084 -0.284357 0.829311 -1.004303 -0.292864 1.727757 -2.212766
eth_top/assign_17_MRxDV_Lb -0.133143 -0.976821 -0.613105 -0.336485 0.084047 0.873276 0.425137 0.373624 0.563754 -0.514230 -0.105773 -0.221355 -0.486855 0.221868 -0.711471 2.640319 0.085605 1.010041 2.743505 -1.477973
eth_top/wire_r_RGAD 1.185613 -3.079300 -0.892771 -1.447405 1.773584 1.806509 0.449263 1.423341 -0.208932 -1.139464 -0.909806 0.101600 0.043729 0.591084 -0.284357 0.829311 -1.004303 -0.292864 1.727757 -2.212766
eth_rxstatem/assign_2_StartPreamble/expr_1/expr_2/expr_1 -0.133143 -0.976821 -0.613105 -0.336485 0.084047 0.873276 0.425137 0.373624 0.563754 -0.514230 -0.105773 -0.221355 -0.486855 0.221868 -0.711471 2.640319 0.085605 1.010041 2.743505 -1.477973
eth_clockgen/wire_MdcEn 0.533801 -3.143020 1.451520 0.503157 -0.659815 3.181672 -0.226331 -2.972927 1.433406 -3.539277 -0.304795 1.469584 -0.295438 -0.544846 -2.085653 -0.169961 -2.059681 1.135112 -1.833781 0.478830
eth_top/assign_12_temp_wb_err_o/expr_1 0.641249 -2.235721 -2.111019 -0.974608 0.432693 2.207439 0.127532 -1.736542 -0.712693 -1.201993 2.356493 1.416413 0.058740 -2.128381 1.314138 0.824399 0.351702 -2.457955 0.086683 -0.670631
eth_wishbone/always_3/block_1/if_1/block_2/case_1/cond -0.564160 -1.660042 -0.123875 -1.150742 1.838274 3.130696 2.762507 1.017882 0.046760 -1.245679 1.097378 0.932032 1.543190 -0.974385 -1.588222 1.730906 -0.980036 -0.072671 0.204738 -1.781098
eth_txethmac/always_13/block_1/if_1/stmt_2/expr_1/expr_1 -0.133143 -0.976821 -0.613105 -0.336485 0.084047 0.873276 0.425137 0.373624 0.563754 -0.514230 -0.105773 -0.221355 -0.486855 0.221868 -0.711471 2.640319 0.085605 1.010041 2.743505 -1.477973
eth_top/wire_MRxDV_Lb -0.133143 -0.976821 -0.613105 -0.336485 0.084047 0.873276 0.425137 0.373624 0.563754 -0.514230 -0.105773 -0.221355 -0.486855 0.221868 -0.711471 2.640319 0.085605 1.010041 2.743505 -1.477973
eth_top/assign_7_BDCs/expr_1/expr_1 -0.751200 -0.242155 0.204766 -0.619391 1.559549 2.636663 3.049744 1.145168 -0.291419 -0.504380 1.550286 0.638229 1.891400 -0.836258 -1.290973 0.987083 -0.756349 -0.216571 -0.393060 -1.189276
eth_top/assign_17_MRxDV_Lb/expr_1 -0.133143 -0.976821 -0.613105 -0.336485 0.084047 0.873276 0.425137 0.373624 0.563754 -0.514230 -0.105773 -0.221355 -0.486855 0.221868 -0.711471 2.640319 0.085605 1.010041 2.743505 -1.477973
eth_clockgen/always_2/block_1/if_1/block_1/if_1 -0.894151 -1.943295 -1.239635 -3.514747 1.554093 -1.202194 -0.691775 -1.747530 0.159826 -2.731274 -3.813615 -0.236215 2.053318 -1.432554 1.971574 -0.212776 -0.494004 -0.076991 -1.923813 2.042897
eth_registers/assign_47_MAC_ADDR0_Wr/expr_1 2.158807 -0.244813 -0.180559 1.757499 3.596769 1.956835 -2.071270 -0.424433 -0.873139 -1.778403 0.473720 -1.954576 -0.584178 0.113471 2.952214 0.958404 0.197072 -1.104486 0.731972 0.686697
eth_wishbone/always_3/block_1/if_1/block_2/case_1 -0.751200 -0.242155 0.204766 -0.619391 1.559549 2.636663 3.049744 1.145168 -0.291419 -0.504380 1.550286 0.638229 1.891400 -0.836258 -1.290973 0.987083 -0.756349 -0.216571 -0.393060 -1.189276
eth_rxethmac/input_MRxDV -0.133143 -0.976821 -0.613105 -0.336485 0.084047 0.873276 0.425137 0.373624 0.563754 -0.514230 -0.105773 -0.221355 -0.486855 0.221868 -0.711471 2.640319 0.085605 1.010041 2.743505 -1.477973
eth_miim/always_6/block_1/if_1/block_1/stmt_3 0.970527 -1.997075 -1.002427 -0.849247 1.733701 1.446961 -2.185454 -0.644170 0.704662 -1.961929 -0.434169 0.315319 0.023415 -0.827619 0.123078 2.332572 0.180599 0.039968 0.749834 0.039595
eth_clockgen/assign_1_TempDivider/expr_1 3.423720 -3.001796 0.224633 0.754161 0.790352 -0.048079 -4.806736 1.487509 1.423910 -0.770367 -3.342838 1.593620 -0.713066 1.914919 -2.861916 -1.463472 -2.525065 1.367424 -2.088498 -0.034244
eth_miim/always_6/block_1/if_1/block_1/stmt_7 2.583013 -0.090967 -1.904230 1.688788 -0.923920 3.649297 -0.126339 -2.954168 -0.477207 -2.560855 0.224028 1.067679 2.456853 -1.671989 -0.972117 2.516385 -1.850755 0.866272 -1.570784 1.588785
eth_wishbone/always_1/block_1/stmt_1/expr_1 -0.751200 -0.242155 0.204766 -0.619391 1.559549 2.636663 3.049744 1.145168 -0.291419 -0.504380 1.550286 0.638229 1.891400 -0.836258 -1.290973 0.987083 -0.756349 -0.216571 -0.393060 -1.189276
eth_miim/reg_RStat_q3 1.274758 -4.885806 -0.765480 -2.081020 2.262434 2.131560 -2.169226 -0.001576 1.318707 -3.136164 -1.848228 0.759194 -0.437945 -0.020503 -1.076225 2.054172 -0.955055 0.534872 1.181736 -1.330310
eth_miim/reg_RStat_q2 2.444530 -3.592981 -1.911767 -2.057837 3.189701 0.426802 -3.956691 0.734031 0.455061 -1.727186 -2.244114 -0.228032 -0.479573 0.388870 1.165863 1.148524 -0.136247 -0.756871 1.362522 -0.372158
eth_miim/reg_RStat_q1 2.444530 -3.592981 -1.911767 -2.057837 3.189701 0.426802 -3.956691 0.734031 0.455061 -1.727186 -2.244114 -0.228032 -0.479573 0.388870 1.165863 1.148524 -0.136247 -0.756871 1.362522 -0.372158
eth_wishbone/always_30/block_1/if_1/if_1 -0.133143 -0.976821 -0.613105 -0.336485 0.084047 0.873276 0.425137 0.373624 0.563754 -0.514230 -0.105773 -0.221355 -0.486855 0.221868 -0.711471 2.640319 0.085605 1.010041 2.743505 -1.477973
eth_registers/always_1/block_1/if_1/block_1/case_1/stmt_16 3.246899 -2.429312 -3.169011 0.290192 -1.651204 0.761735 -2.812141 -2.829137 -1.731185 -2.467998 -0.256602 -1.672186 -2.327610 0.112392 2.355335 1.938810 0.824878 -0.679962 2.842438 -0.579137
eth_registers/wire_MIICOMMANDOut 0.788982 -4.112766 -0.291264 -2.423874 2.069942 0.433907 -0.432868 2.030793 0.382658 -0.995537 -2.189139 0.312615 -0.497464 1.231913 -0.701291 -0.790150 -1.263408 -0.263645 0.783722 -2.153216
eth_outputcontrol/always_1/block_1/if_1/block_2/if_1/block_1 1.339008 -1.034865 0.107631 1.395205 0.324550 3.392739 -2.104739 -3.918152 1.473855 -3.367623 0.396937 1.042377 0.738754 -1.769754 -0.846039 2.054947 -1.210990 0.987916 -1.790761 2.546624
eth_registers/always_1/block_1/if_1/block_1/case_1/stmt_19 3.464829 -0.295400 -1.228172 1.160900 1.304117 3.411479 -0.666054 0.052559 -2.402033 -1.530792 2.568747 0.059993 1.007138 0.162206 0.689293 0.754508 0.620407 -2.236157 0.151562 -0.500225
eth_outputcontrol/assign_1_SerialEn/expr_1 0.744748 -0.507704 -1.108186 -1.737686 8.019627 0.191813 -4.709721 2.669755 1.935711 1.346245 0.937527 -1.062987 -0.554966 -0.348951 3.287094 0.546326 1.113559 -2.535543 0.762025 1.685890
eth_top/wire_WillTransmit -0.133143 -0.976821 -0.613105 -0.336485 0.084047 0.873276 0.425137 0.373624 0.563754 -0.514230 -0.105773 -0.221355 -0.486855 0.221868 -0.711471 2.640319 0.085605 1.010041 2.743505 -1.477973
eth_register/always_1/block_1/if_1/if_1/cond 2.044494 -4.850000 -4.908604 -4.690561 -3.479106 -2.864694 -2.158227 0.547610 -4.266221 -1.493152 -0.870399 0.683688 -0.047146 2.246070 -0.723667 -1.234708 2.514483 -2.863822 -0.662733 -2.745520
eth_rxstatem/always_1 -0.133143 -0.976821 -0.613105 -0.336485 0.084047 0.873276 0.425137 0.373624 0.563754 -0.514230 -0.105773 -0.221355 -0.486855 0.221868 -0.711471 2.640319 0.085605 1.010041 2.743505 -1.477973
eth_outputcontrol/input_InProgress 1.339008 -1.034865 0.107631 1.395205 0.324550 3.392739 -2.104739 -3.918152 1.473855 -3.367623 0.396937 1.042377 0.738754 -1.769754 -0.846039 2.054947 -1.210990 0.987916 -1.790761 2.546624
eth_miim/wire_StartOp 1.702555 -4.659681 -0.268283 -1.914477 1.427407 1.331075 -1.507794 -0.034443 0.754547 -2.597388 -2.239469 0.776458 -0.233235 0.866026 -1.360669 -1.173146 -2.062061 -0.000934 -0.926982 -0.649885
eth_top/assign_9_BDCs/expr_1/expr_1/expr_1/expr_1 -0.751200 -0.242155 0.204766 -0.619391 1.559549 2.636663 3.049744 1.145168 -0.291419 -0.504380 1.550286 0.638229 1.891400 -0.836258 -1.290973 0.987083 -0.756349 -0.216571 -0.393060 -1.189276
eth_top/assign_4_RegCs/expr_1/expr_1 -3.216664 -2.920538 1.924193 -3.444982 2.689506 1.245087 3.122455 2.743706 1.433043 -0.811510 0.609455 1.392612 0.949788 -0.205620 -3.740410 -0.463076 -0.922768 0.180777 -1.347702 -2.320057
eth_wishbone/always_3/block_1/if_1/block_2/case_1/block_7/stmt_6/expr_1 -0.751200 -0.242155 0.204766 -0.619391 1.559549 2.636663 3.049744 1.145168 -0.291419 -0.504380 1.550286 0.638229 1.891400 -0.836258 -1.290973 0.987083 -0.756349 -0.216571 -0.393060 -1.189276
eth_txstatem/reg_StateData -0.133143 -0.976821 -0.613105 -0.336485 0.084047 0.873276 0.425137 0.373624 0.563754 -0.514230 -0.105773 -0.221355 -0.486855 0.221868 -0.711471 2.640319 0.085605 1.010041 2.743505 -1.477973
eth_registers/assign_40_MIIMODER_Wr/expr_1 0.059592 -4.786112 0.526712 -2.202990 1.788496 2.322111 0.852898 1.029996 1.024058 -2.291585 -1.165271 0.966720 -0.305561 0.563627 -2.101259 0.096905 -1.769740 0.378378 0.511391 -2.435823
eth_registers/wire_Write -0.418919 -3.693089 -1.251340 -2.158845 -1.738925 -2.669993 -3.242098 -0.706303 1.681866 0.279501 -2.105339 0.985197 -2.076177 1.705859 -2.049008 -0.402121 -0.095029 0.545512 -0.111975 0.028825
eth_wishbone/always_27/block_1/if_1 -0.133143 -0.976821 -0.613105 -0.336485 0.084047 0.873276 0.425137 0.373624 0.563754 -0.514230 -0.105773 -0.221355 -0.486855 0.221868 -0.711471 2.640319 0.085605 1.010041 2.743505 -1.477973
eth_txethmac/always_13/block_1/if_1/stmt_2/expr_1/expr_1/expr_1/expr_1 -0.133143 -0.976821 -0.613105 -0.336485 0.084047 0.873276 0.425137 0.373624 0.563754 -0.514230 -0.105773 -0.221355 -0.486855 0.221868 -0.711471 2.640319 0.085605 1.010041 2.743505 -1.477973
eth_miim/always_8/block_1/if_1/block_1/if_1/cond -1.567438 -3.662475 4.112812 -0.051055 2.178346 3.146140 -0.083025 -1.965701 2.158147 -2.767209 1.219369 0.186257 -2.799161 -0.197702 0.585273 -0.863907 -0.008573 -0.454347 0.795542 -0.711206
eth_miim/always_6/block_1/if_1/block_2/if_1/cond 1.326994 -3.967704 -0.215060 -0.944526 0.218473 3.140366 0.767671 -0.773937 0.576185 -3.091829 -1.403457 1.711843 1.225627 -0.108263 -2.885429 -0.058519 -3.003053 0.928085 -1.854890 -0.768638
eth_miim/input_RStat 2.444530 -3.592981 -1.911767 -2.057837 3.189701 0.426802 -3.956691 0.734031 0.455061 -1.727186 -2.244114 -0.228032 -0.479573 0.388870 1.165863 1.148524 -0.136247 -0.756871 1.362522 -0.372158
eth_registers/assign_1_Write -0.418919 -3.693089 -1.251340 -2.158845 -1.738925 -2.669993 -3.242098 -0.706303 1.681866 0.279501 -2.105339 0.985197 -2.076177 1.705859 -2.049008 -0.402121 -0.095029 0.545512 -0.111975 0.028825
eth_rxstatem/reg_StateIdle -0.133143 -0.976821 -0.613105 -0.336485 0.084047 0.873276 0.425137 0.373624 0.563754 -0.514230 -0.105773 -0.221355 -0.486855 0.221868 -0.711471 2.640319 0.085605 1.010041 2.743505 -1.477973
eth_top/wire_mdc_pad_o 2.517101 2.144699 -4.746355 -0.539273 0.807791 -1.170751 -1.182545 1.879892 -2.307237 0.286320 -5.272689 0.067323 5.558102 -1.690353 2.113968 4.438157 -0.454962 1.548929 -0.200810 0.846439
eth_registers/assign_111_r_RStat 2.444530 -3.592981 -1.911767 -2.057837 3.189701 0.426802 -3.956691 0.734031 0.455061 -1.727186 -2.244114 -0.228032 -0.479573 0.388870 1.165863 1.148524 -0.136247 -0.756871 1.362522 -0.372158
eth_rxstatem/always_1/block_1/if_1/block_2 -0.133143 -0.976821 -0.613105 -0.336485 0.084047 0.873276 0.425137 0.373624 0.563754 -0.514230 -0.105773 -0.221355 -0.486855 0.221868 -0.711471 2.640319 0.085605 1.010041 2.743505 -1.477973
eth_wishbone/always_6/block_1/if_1/if_1/cond/expr_1 -0.133143 -0.976821 -0.613105 -0.336485 0.084047 0.873276 0.425137 0.373624 0.563754 -0.514230 -0.105773 -0.221355 -0.486855 0.221868 -0.711471 2.640319 0.085605 1.010041 2.743505 -1.477973
eth_outputcontrol/assign_1_SerialEn/expr_1/expr_2/expr_2/expr_1 0.995095 -3.396930 -1.154753 -1.605187 2.627746 1.595009 -4.176764 -1.177781 1.712917 -3.159918 -0.886604 0.455756 -0.668654 -1.151718 0.011785 3.682961 0.699124 0.324630 1.374978 0.184432
eth_txethmac/always_13/block_1/if_1/stmt_2/expr_1/expr_1/expr_1 -0.133143 -0.976821 -0.613105 -0.336485 0.084047 0.873276 0.425137 0.373624 0.563754 -0.514230 -0.105773 -0.221355 -0.486855 0.221868 -0.711471 2.640319 0.085605 1.010041 2.743505 -1.477973
eth_txstatem/assign_6_StartPAD/expr_1/expr_1/expr_1 -0.133143 -0.976821 -0.613105 -0.336485 0.084047 0.873276 0.425137 0.373624 0.563754 -0.514230 -0.105773 -0.221355 -0.486855 0.221868 -0.711471 2.640319 0.085605 1.010041 2.743505 -1.477973
eth_txethmac/always_13/block_1/if_1 -0.133143 -0.976821 -0.613105 -0.336485 0.084047 0.873276 0.425137 0.373624 0.563754 -0.514230 -0.105773 -0.221355 -0.486855 0.221868 -0.711471 2.640319 0.085605 1.010041 2.743505 -1.477973
eth_maccontrol/input_TxStartFrmIn -0.133143 -0.976821 -0.613105 -0.336485 0.084047 0.873276 0.425137 0.373624 0.563754 -0.514230 -0.105773 -0.221355 -0.486855 0.221868 -0.711471 2.640319 0.085605 1.010041 2.743505 -1.477973
eth_txstatem/assign_7_StartFCS -0.133143 -0.976821 -0.613105 -0.336485 0.084047 0.873276 0.425137 0.373624 0.563754 -0.514230 -0.105773 -0.221355 -0.486855 0.221868 -0.711471 2.640319 0.085605 1.010041 2.743505 -1.477973
eth_wishbone/always_1/block_1/stmt_1/expr_1/expr_1/expr_1 -0.751200 -0.242155 0.204766 -0.619391 1.559549 2.636663 3.049744 1.145168 -0.291419 -0.504380 1.550286 0.638229 1.891400 -0.836258 -1.290973 0.987083 -0.756349 -0.216571 -0.393060 -1.189276
eth_shiftreg/always_1 0.655112 -3.320536 -0.272114 -1.820670 1.173976 1.422214 2.973872 2.973187 -0.929183 -0.147560 -1.197936 0.058114 0.126642 1.597827 -0.833571 -1.044199 -1.754286 -0.433633 1.709431 -3.753057
eth_shiftreg/wire_ShiftedBit 0.655112 -3.320536 -0.272114 -1.820670 1.173976 1.422214 2.973872 2.973187 -0.929183 -0.147560 -1.197936 0.058114 0.126642 1.597827 -0.833571 -1.044199 -1.754286 -0.433633 1.709431 -3.753057
check_ethernet/input_wb_we_i 1.902969 1.418221 -0.405346 1.687019 1.292143 3.482836 1.698598 0.873847 -2.188285 -1.162761 1.906208 -0.755927 0.830280 -1.437636 2.495153 3.100512 1.391321 -0.742396 3.416722 -2.220519
eth_miim/always_4/block_1/if_1/block_2/if_1/block_2/if_1/stmt_1 2.583013 -0.090967 -1.904230 1.688788 -0.923920 3.649297 -0.126339 -2.954168 -0.477207 -2.560855 0.224028 1.067679 2.456853 -1.671989 -0.972117 2.516385 -1.850755 0.866272 -1.570784 1.588785
eth_top/wire_temp_wb_err_o 1.405685 -1.622472 -2.682081 -1.463100 1.043129 1.827901 1.051796 -1.336160 -1.153359 0.308306 1.388949 -0.047888 0.197522 -1.859845 2.147834 -0.169171 -0.893718 -2.896492 0.674467 -0.249169
eth_outputcontrol/always_1/block_1/if_1/block_2/if_1/block_1/stmt_1/expr_1/expr_1/expr_1 1.225139 1.121075 0.501766 3.443469 2.676783 4.229530 -1.307820 -3.232141 2.278442 -0.684054 -0.388576 -0.136101 1.309562 -1.733368 1.927032 3.043096 -2.460919 1.508518 -0.082157 3.715931
eth_miim/reg_WCtrlDataStart_q1 1.959525 -3.981854 -1.109972 -1.849058 0.878478 1.521680 0.203096 0.905358 -0.053744 -1.918975 -2.575943 1.332857 1.431858 0.748501 -2.279104 -1.335652 -3.074791 0.258607 -1.975639 -0.998693
eth_miim/reg_WCtrlDataStart_q2 2.256615 -3.962668 -1.358308 -0.993425 0.936767 3.037224 -1.628094 -1.395511 0.816294 -3.698317 -1.802614 1.493206 1.261544 -0.629757 -2.051040 1.661323 -2.278616 0.949325 -1.263804 0.127492
eth_registers/wire_MIIMODER_Sel 2.541302 1.779805 0.920564 2.928442 5.760149 2.423479 -2.525911 2.634014 0.591474 0.587062 -1.984882 -0.709397 1.709819 0.361896 2.835953 1.895352 -1.197612 0.391803 0.821268 1.329835
eth_miim/wire_WriteDataOp 1.959525 -3.981854 -1.109972 -1.849058 0.878478 1.521680 0.203096 0.905358 -0.053744 -1.918975 -2.575943 1.332857 1.431858 0.748501 -2.279104 -1.335652 -3.074791 0.258607 -1.975639 -0.998693
eth_top/reg_WillTransmit_q2 -0.133143 -0.976821 -0.613105 -0.336485 0.084047 0.873276 0.425137 0.373624 0.563754 -0.514230 -0.105773 -0.221355 -0.486855 0.221868 -0.711471 2.640319 0.085605 1.010041 2.743505 -1.477973
eth_miim/always_8/block_1/if_1/block_1/if_1/block_1/if_1/block_1/if_1/stmt_2 -1.567438 -3.662475 4.112812 -0.051055 2.178346 3.146140 -0.083025 -1.965701 2.158147 -2.767209 1.219369 0.186257 -2.799161 -0.197702 0.585273 -0.863907 -0.008573 -0.454347 0.795542 -0.711206
eth_miim/always_8/block_1/if_1/block_1/if_1/block_1/if_1/block_1/if_1/stmt_1 0.059592 -4.786112 0.526712 -2.202990 1.788496 2.322111 0.852898 1.029996 1.024058 -2.291585 -1.165271 0.966720 -0.305561 0.563627 -2.101259 0.096905 -1.769740 0.378378 0.511391 -2.435823
eth_top/wire_temp_wb_dat_o 2.312668 0.260597 -0.392452 2.126078 -0.305031 2.392696 -2.343892 -1.132331 -1.402021 -2.748620 1.675762 0.228778 -0.116351 -0.682725 0.998600 2.741235 2.224463 -0.281878 0.883687 -0.486280
eth_clockgen/wire_MdcEn_n 1.007519 -5.254155 2.866020 -1.716267 3.587780 1.838626 0.431363 0.812242 1.242583 -1.344647 -0.827359 -0.356056 -2.084711 2.081428 0.347593 -6.007623 -2.677583 -1.925524 -1.154844 -1.048898
eth_outputcontrol/reg_Mdo_d 0.017089 -1.769005 -0.989162 -3.088177 3.875422 -2.111142 -0.139908 4.972619 -1.104083 2.037293 -1.817039 -1.141096 -0.931606 1.157382 2.570752 -0.958719 1.077574 -2.153519 2.981041 -3.281600
eth_txstatem/assign_5_StartData/expr_1 -0.133143 -0.976821 -0.613105 -0.336485 0.084047 0.873276 0.425137 0.373624 0.563754 -0.514230 -0.105773 -0.221355 -0.486855 0.221868 -0.711471 2.640319 0.085605 1.010041 2.743505 -1.477973
check_ethernet/always_1/if_1 1.902969 1.418221 -0.405346 1.687019 1.292143 3.482836 1.698598 0.873847 -2.188285 -1.162761 1.906208 -0.755927 0.830280 -1.437636 2.495153 3.100512 1.391321 -0.742396 3.416722 -2.220519
eth_top/wire_r_ScanStat 0.788982 -4.112766 -0.291264 -2.423874 2.069942 0.433907 -0.432868 2.030793 0.382658 -0.995537 -2.189139 0.312615 -0.497464 1.231913 -0.701291 -0.790150 -1.263408 -0.263645 0.783722 -2.153216
eth_miim/input_Mdi 0.761268 -1.082220 -0.399313 -0.311353 -0.335137 0.585193 1.572322 1.018571 -1.281162 -0.365194 -0.906021 0.197772 0.340638 0.196809 -0.078141 -0.302330 -0.609873 -0.208662 0.533321 -1.988664
eth_rxstatem/assign_1_StartIdle/expr_1/expr_1 -0.133143 -0.976821 -0.613105 -0.336485 0.084047 0.873276 0.425137 0.373624 0.563754 -0.514230 -0.105773 -0.221355 -0.486855 0.221868 -0.711471 2.640319 0.085605 1.010041 2.743505 -1.477973
eth_rxstatem/always_1/block_1/if_1/block_2/if_1/cond -0.133143 -0.976821 -0.613105 -0.336485 0.084047 0.873276 0.425137 0.373624 0.563754 -0.514230 -0.105773 -0.221355 -0.486855 0.221868 -0.711471 2.640319 0.085605 1.010041 2.743505 -1.477973
eth_rxstatem/assign_1_StartIdle/expr_1/expr_2 -0.133143 -0.976821 -0.613105 -0.336485 0.084047 0.873276 0.425137 0.373624 0.563754 -0.514230 -0.105773 -0.221355 -0.486855 0.221868 -0.711471 2.640319 0.085605 1.010041 2.743505 -1.477973
eth_outputcontrol/always_2/block_1/if_1/block_2/if_1/block_1/stmt_1 0.017089 -1.769005 -0.989162 -3.088177 3.875422 -2.111142 -0.139908 4.972619 -1.104083 2.037293 -1.817039 -1.141096 -0.931606 1.157382 2.570752 -0.958719 1.077574 -2.153519 2.981041 -3.281600
eth_outputcontrol/always_2/block_1/if_1/block_2/if_1/block_1/stmt_3 0.017089 -1.769005 -0.989162 -3.088177 3.875422 -2.111142 -0.139908 4.972619 -1.104083 2.037293 -1.817039 -1.141096 -0.931606 1.157382 2.570752 -0.958719 1.077574 -2.153519 2.981041 -3.281600
eth_outputcontrol/always_2/block_1/if_1/block_2/if_1/block_1/stmt_2 0.017089 -1.769005 -0.989162 -3.088177 3.875422 -2.111142 -0.139908 4.972619 -1.104083 2.037293 -1.817039 -1.141096 -0.931606 1.157382 2.570752 -0.958719 1.077574 -2.153519 2.981041 -3.281600
eth_txstatem/always_1/block_1/if_1 -0.133143 -0.976821 -0.613105 -0.336485 0.084047 0.873276 0.425137 0.373624 0.563754 -0.514230 -0.105773 -0.221355 -0.486855 0.221868 -0.711471 2.640319 0.085605 1.010041 2.743505 -1.477973
eth_top/assign_11_temp_wb_dat_o/expr_1/expr_1/expr_2 2.312668 0.260597 -0.392452 2.126078 -0.305031 2.392696 -2.343892 -1.132331 -1.402021 -2.748620 1.675762 0.228778 -0.116351 -0.682725 0.998600 2.741235 2.224463 -0.281878 0.883687 -0.486280
eth_miim/reg_WCtrlData_q2 1.959525 -3.981854 -1.109972 -1.849058 0.878478 1.521680 0.203096 0.905358 -0.053744 -1.918975 -2.575943 1.332857 1.431858 0.748501 -2.279104 -1.335652 -3.074791 0.258607 -1.975639 -0.998693
eth_miim/reg_WCtrlData_q1 0.788982 -4.112766 -0.291264 -2.423874 2.069942 0.433907 -0.432868 2.030793 0.382658 -0.995537 -2.189139 0.312615 -0.497464 1.231913 -0.701291 -0.790150 -1.263408 -0.263645 0.783722 -2.153216
eth_top/assign_11_temp_wb_dat_o/expr_1/expr_1/expr_1 2.312668 0.260597 -0.392452 2.126078 -0.305031 2.392696 -2.343892 -1.132331 -1.402021 -2.748620 1.675762 0.228778 -0.116351 -0.682725 0.998600 2.741235 2.224463 -0.281878 0.883687 -0.486280
eth_top/assign_8_BDCs/expr_1/expr_1/expr_1/expr_1/expr_1 -0.564160 -1.660042 -0.123875 -1.150742 1.838274 3.130696 2.762507 1.017882 0.046760 -1.245679 1.097378 0.932032 1.543190 -0.974385 -1.588222 1.730906 -0.980036 -0.072671 0.204738 -1.781098
eth_wishbone/always_77/block_1/if_1/if_1/cond -0.564160 -1.660042 -0.123875 -1.150742 1.838274 3.130696 2.762507 1.017882 0.046760 -1.245679 1.097378 0.932032 1.543190 -0.974385 -1.588222 1.730906 -0.980036 -0.072671 0.204738 -1.781098
eth_shiftreg/always_1/block_1/if_1/block_2/if_1 0.655112 -3.320536 -0.272114 -1.820670 1.173976 1.422214 2.973872 2.973187 -0.929183 -0.147560 -1.197936 0.058114 0.126642 1.597827 -0.833571 -1.044199 -1.754286 -0.433633 1.709431 -3.753057
eth_registers/always_1/block_1/if_1 4.127464 -1.596920 -2.319236 1.046723 -0.487710 1.162176 -3.810732 -1.726903 -1.745316 -2.056921 0.243559 -1.362652 -2.254439 0.384682 2.455967 1.941545 1.372712 -1.144901 3.165814 -0.557638
eth_top/wire_RegCs -3.657869 -0.127367 4.719806 0.808473 -1.257442 -1.608421 -2.535082 -0.218553 3.348475 -1.604284 -0.155597 0.844988 -3.347903 0.688781 -2.471539 1.345391 2.564354 3.214303 0.546786 -0.521787
eth_clockgen/reg_Mdc 0.487676 -2.140080 -0.701163 -2.163566 0.449366 0.060857 0.513768 -2.214810 -0.763464 -3.023851 -4.282291 -0.138592 2.697480 -0.711093 2.449650 -1.851023 -1.771697 -0.044696 -2.801835 2.074945
eth_shiftreg/always_1/block_1/if_1/block_2/if_1/cond 0.655112 -3.320536 -0.272114 -1.820670 1.173976 1.422214 2.973872 2.973187 -0.929183 -0.147560 -1.197936 0.058114 0.126642 1.597827 -0.833571 -1.044199 -1.754286 -0.433633 1.709431 -3.753057
eth_shiftreg/always_1/block_1 0.655112 -3.320536 -0.272114 -1.820670 1.173976 1.422214 2.973872 2.973187 -0.929183 -0.147560 -1.197936 0.058114 0.126642 1.597827 -0.833571 -1.044199 -1.754286 -0.433633 1.709431 -3.753057
eth_top/assign_2_RegCs/expr_1 -0.751200 -0.242155 0.204766 -0.619391 1.559549 2.636663 3.049744 1.145168 -0.291419 -0.504380 1.550286 0.638229 1.891400 -0.836258 -1.290973 0.987083 -0.756349 -0.216571 -0.393060 -1.189276
eth_wishbone/always_2/block_1/if_1/if_1 -0.564160 -1.660042 -0.123875 -1.150742 1.838274 3.130696 2.762507 1.017882 0.046760 -1.245679 1.097378 0.932032 1.543190 -0.974385 -1.588222 1.730906 -0.980036 -0.072671 0.204738 -1.781098
eth_rxstatem/assign_2_StartPreamble -0.133143 -0.976821 -0.613105 -0.336485 0.084047 0.873276 0.425137 0.373624 0.563754 -0.514230 -0.105773 -0.221355 -0.486855 0.221868 -0.711471 2.640319 0.085605 1.010041 2.743505 -1.477973
eth_miim/inst_shftrg 0.655112 -3.320536 -0.272114 -1.820670 1.173976 1.422214 2.973872 2.973187 -0.929183 -0.147560 -1.197936 0.058114 0.126642 1.597827 -0.833571 -1.044199 -1.754286 -0.433633 1.709431 -3.753057
eth_top/always_1/block_1/if_1/block_2/stmt_1 -1.663760 1.175323 -0.076823 -0.795149 2.022228 2.486606 3.856906 1.624321 -0.278637 -0.241108 2.720580 0.878506 3.803042 -1.244666 -3.595925 1.686642 -0.693294 0.083012 -2.303406 -0.158177
eth_top/always_1/block_1/if_1/block_2/stmt_2 3.438732 1.153277 -1.046987 2.447182 -0.447301 1.663455 -1.704671 -0.101115 -2.581131 -1.862396 0.793109 -0.887322 0.625915 0.853015 1.101854 1.921175 1.670429 -0.231576 1.024948 -0.438007
eth_top/always_1/block_1/if_1/block_2/stmt_3 1.405685 -1.622472 -2.682081 -1.463100 1.043129 1.827901 1.051796 -1.336160 -1.153359 0.308306 1.388949 -0.047888 0.197522 -1.859845 2.147834 -0.169171 -0.893718 -2.896492 0.674467 -0.249169
eth_clockgen/always_2/block_1/if_1/block_1 -0.894151 -1.943295 -1.239635 -3.514747 1.554093 -1.202194 -0.691775 -1.747530 0.159826 -2.731274 -3.813615 -0.236215 2.053318 -1.432554 1.971574 -0.212776 -0.494004 -0.076991 -1.923813 2.042897
eth_rxstatem/assign_1_StartIdle/expr_1/expr_2/expr_2 -0.133143 -0.976821 -0.613105 -0.336485 0.084047 0.873276 0.425137 0.373624 0.563754 -0.514230 -0.105773 -0.221355 -0.486855 0.221868 -0.711471 2.640319 0.085605 1.010041 2.743505 -1.477973
check_ethernet/input_wb_stb_i 1.902969 1.418221 -0.405346 1.687019 1.292143 3.482836 1.698598 0.873847 -2.188285 -1.162761 1.906208 -0.755927 0.830280 -1.437636 2.495153 3.100512 1.391321 -0.742396 3.416722 -2.220519
eth_clockgen/assign_4_MdcEn/expr_1 0.533801 -3.143020 1.451520 0.503157 -0.659815 3.181672 -0.226331 -2.972927 1.433406 -3.539277 -0.304795 1.469584 -0.295438 -0.544846 -2.085653 -0.169961 -2.059681 1.135112 -1.833781 0.478830
eth_miim/assign_7_ByteSelect/expr_1/expr_1/expr_2 0.655112 -3.320536 -0.272114 -1.820670 1.173976 1.422214 2.973872 2.973187 -0.929183 -0.147560 -1.197936 0.058114 0.126642 1.597827 -0.833571 -1.044199 -1.754286 -0.433633 1.709431 -3.753057
eth_miim/assign_7_ByteSelect/expr_1/expr_1/expr_1 0.655112 -3.320536 -0.272114 -1.820670 1.173976 1.422214 2.973872 2.973187 -0.929183 -0.147560 -1.197936 0.058114 0.126642 1.597827 -0.833571 -1.044199 -1.754286 -0.433633 1.709431 -3.753057
eth_miim/always_7/block_1/if_1/block_2/if_1/block_1/if_1/block_2/if_1 0.456369 -4.981616 1.038957 -2.269875 2.626024 2.343624 1.128599 0.860731 0.952433 -1.925043 -0.884521 0.637706 -0.520902 1.203014 -1.489094 -2.796016 -2.728574 -0.826831 -0.902878 -1.530486
eth_txstatem/assign_4_StartData/expr_1/expr_2/expr_2 -0.133143 -0.976821 -0.613105 -0.336485 0.084047 0.873276 0.425137 0.373624 0.563754 -0.514230 -0.105773 -0.221355 -0.486855 0.221868 -0.711471 2.640319 0.085605 1.010041 2.743505 -1.477973
eth_miim/wire_ShiftedBit 0.655112 -3.320536 -0.272114 -1.820670 1.173976 1.422214 2.973872 2.973187 -0.929183 -0.147560 -1.197936 0.058114 0.126642 1.597827 -0.833571 -1.044199 -1.754286 -0.433633 1.709431 -3.753057
eth_miim/assign_10_ByteSelect 0.655112 -3.320536 -0.272114 -1.820670 1.173976 1.422214 2.973872 2.973187 -0.929183 -0.147560 -1.197936 0.058114 0.126642 1.597827 -0.833571 -1.044199 -1.754286 -0.433633 1.709431 -3.753057
eth_miim/reg_SyncStatMdcEn 0.788982 -4.112766 -0.291264 -2.423874 2.069942 0.433907 -0.432868 2.030793 0.382658 -0.995537 -2.189139 0.312615 -0.497464 1.231913 -0.701291 -0.790150 -1.263408 -0.263645 0.783722 -2.153216
eth_top/assign_4_RegCs/expr_1/expr_1/expr_1 -2.003763 -3.909211 1.445995 -3.030743 2.593157 1.898601 2.428545 2.116544 1.436809 -1.458717 -0.203997 1.344665 0.479327 0.028520 -3.098850 -0.232119 -1.496429 0.272970 -0.624716 -2.447165
eth_wishbone/always_2/block_1 -0.564160 -1.660042 -0.123875 -1.150742 1.838274 3.130696 2.762507 1.017882 0.046760 -1.245679 1.097378 0.932032 1.543190 -0.974385 -1.588222 1.730906 -0.980036 -0.072671 0.204738 -1.781098
eth_top/assign_4_RegCs/expr_1/expr_1/expr_2 1.185613 -3.079300 -0.892771 -1.447405 1.773584 1.806509 0.449263 1.423341 -0.208932 -1.139464 -0.909806 0.101600 0.043729 0.591084 -0.284357 0.829311 -1.004303 -0.292864 1.727757 -2.212766
eth_top/assign_7_BDCs -0.751200 -0.242155 0.204766 -0.619391 1.559549 2.636663 3.049744 1.145168 -0.291419 -0.504380 1.550286 0.638229 1.891400 -0.836258 -1.290973 0.987083 -0.756349 -0.216571 -0.393060 -1.189276
eth_clockgen/wire_CounterPreset 3.423720 -3.001796 0.224633 0.754161 0.790352 -0.048079 -4.806736 1.487509 1.423910 -0.770367 -3.342838 1.593620 -0.713066 1.914919 -2.861916 -1.463472 -2.525065 1.367424 -2.088498 -0.034244
check_ethernet/always_1/if_1/if_1 1.902969 1.418221 -0.405346 1.687019 1.292143 3.482836 1.698598 0.873847 -2.188285 -1.162761 1.906208 -0.755927 0.830280 -1.437636 2.495153 3.100512 1.391321 -0.742396 3.416722 -2.220519
eth_shiftreg/input_MdcEn_n 0.655112 -3.320536 -0.272114 -1.820670 1.173976 1.422214 2.973872 2.973187 -0.929183 -0.147560 -1.197936 0.058114 0.126642 1.597827 -0.833571 -1.044199 -1.754286 -0.433633 1.709431 -3.753057
eth_miim/always_7/block_1/if_1/block_2/if_1/cond 0.533801 -3.143020 1.451520 0.503157 -0.659815 3.181672 -0.226331 -2.972927 1.433406 -3.539277 -0.304795 1.469584 -0.295438 -0.544846 -2.085653 -0.169961 -2.059681 1.135112 -1.833781 0.478830
eth_miim/always_7/block_1/if_1/block_2/if_1/block_1 0.633713 -4.037316 1.258660 -0.981056 1.369273 2.059582 -1.161810 -1.125582 1.579341 -2.755866 -0.901569 1.009523 -0.764024 0.335669 -1.551724 -1.389770 -1.894642 0.130801 -1.550468 0.067495
eth_rxethmac/wire_StateIdle -0.133143 -0.976821 -0.613105 -0.336485 0.084047 0.873276 0.425137 0.373624 0.563754 -0.514230 -0.105773 -0.221355 -0.486855 0.221868 -0.711471 2.640319 0.085605 1.010041 2.743505 -1.477973
eth_miim/always_1 2.583013 -0.090967 -1.904230 1.688788 -0.923920 3.649297 -0.126339 -2.954168 -0.477207 -2.560855 0.224028 1.067679 2.456853 -1.671989 -0.972117 2.516385 -1.850755 0.866272 -1.570784 1.588785
eth_miim/input_ScanStat 0.788982 -4.112766 -0.291264 -2.423874 2.069942 0.433907 -0.432868 2.030793 0.382658 -0.995537 -2.189139 0.312615 -0.497464 1.231913 -0.701291 -0.790150 -1.263408 -0.263645 0.783722 -2.153216
eth_miim/always_3 1.959525 -3.981854 -1.109972 -1.849058 0.878478 1.521680 0.203096 0.905358 -0.053744 -1.918975 -2.575943 1.332857 1.431858 0.748501 -2.279104 -1.335652 -3.074791 0.258607 -1.975639 -0.998693
eth_miim/always_4 1.959525 -3.981854 -1.109972 -1.849058 0.878478 1.521680 0.203096 0.905358 -0.053744 -1.918975 -2.575943 1.332857 1.431858 0.748501 -2.279104 -1.335652 -3.074791 0.258607 -1.975639 -0.998693
eth_miim/always_6 1.702555 -4.659681 -0.268283 -1.914477 1.427407 1.331075 -1.507794 -0.034443 0.754547 -2.597388 -2.239469 0.776458 -0.233235 0.866026 -1.360669 -1.173146 -2.062061 -0.000934 -0.926982 -0.649885
eth_miim/always_7 0.633713 -4.037316 1.258660 -0.981056 1.369273 2.059582 -1.161810 -1.125582 1.579341 -2.755866 -0.901569 1.009523 -0.764024 0.335669 -1.551724 -1.389770 -1.894642 0.130801 -1.550468 0.067495
eth_maccontrol/assign_4_TxStartFrmOut/expr_1/expr_1 -0.133143 -0.976821 -0.613105 -0.336485 0.084047 0.873276 0.425137 0.373624 0.563754 -0.514230 -0.105773 -0.221355 -0.486855 0.221868 -0.711471 2.640319 0.085605 1.010041 2.743505 -1.477973
eth_top/input_wb_dat_i 1.902969 1.418221 -0.405346 1.687019 1.292143 3.482836 1.698598 0.873847 -2.188285 -1.162761 1.906208 -0.755927 0.830280 -1.437636 2.495153 3.100512 1.391321 -0.742396 3.416722 -2.220519
eth_top/assign_12_temp_wb_err_o/expr_1/expr_2/expr_1 0.641249 -2.235721 -2.111019 -0.974608 0.432693 2.207439 0.127532 -1.736542 -0.712693 -1.201993 2.356493 1.416413 0.058740 -2.128381 1.314138 0.824399 0.351702 -2.457955 0.086683 -0.670631
eth_top/assign_4_RegCs/expr_1/expr_1/expr_1/expr_1 -2.003763 -3.909211 1.445995 -3.030743 2.593157 1.898601 2.428545 2.116544 1.436809 -1.458717 -0.203997 1.344665 0.479327 0.028520 -3.098850 -0.232119 -1.496429 0.272970 -0.624716 -2.447165
eth_register/input_SyncReset 2.044494 -4.850000 -4.908604 -4.690561 -3.479106 -2.864694 -2.158227 0.547610 -4.266221 -1.493152 -0.870399 0.683688 -0.047146 2.246070 -0.723667 -1.234708 2.514483 -2.863822 -0.662733 -2.745520
eth_wishbone/always_6/block_1/if_1/if_1/cond -0.133143 -0.976821 -0.613105 -0.336485 0.084047 0.873276 0.425137 0.373624 0.563754 -0.514230 -0.105773 -0.221355 -0.486855 0.221868 -0.711471 2.640319 0.085605 1.010041 2.743505 -1.477973
check_ethernet/input_wb_cyc_i 1.902969 1.418221 -0.405346 1.687019 1.292143 3.482836 1.698598 0.873847 -2.188285 -1.162761 1.906208 -0.755927 0.830280 -1.437636 2.495153 3.100512 1.391321 -0.742396 3.416722 -2.220519
eth_top/assign_2_RegCs/expr_1/expr_1 -0.751200 -0.242155 0.204766 -0.619391 1.559549 2.636663 3.049744 1.145168 -0.291419 -0.504380 1.550286 0.638229 1.891400 -0.836258 -1.290973 0.987083 -0.756349 -0.216571 -0.393060 -1.189276
eth_top/assign_6_BDCs/expr_1/expr_1/expr_1/expr_1 -0.751200 -0.242155 0.204766 -0.619391 1.559549 2.636663 3.049744 1.145168 -0.291419 -0.504380 1.550286 0.638229 1.891400 -0.836258 -1.290973 0.987083 -0.756349 -0.216571 -0.393060 -1.189276
eth_top/assign_22_Transmitting -0.133143 -0.976821 -0.613105 -0.336485 0.084047 0.873276 0.425137 0.373624 0.563754 -0.514230 -0.105773 -0.221355 -0.486855 0.221868 -0.711471 2.640319 0.085605 1.010041 2.743505 -1.477973
eth_txstatem/reg_StatePAD -0.133143 -0.976821 -0.613105 -0.336485 0.084047 0.873276 0.425137 0.373624 0.563754 -0.514230 -0.105773 -0.221355 -0.486855 0.221868 -0.711471 2.640319 0.085605 1.010041 2.743505 -1.477973
eth_txstatem/assign_5_StartData -0.133143 -0.976821 -0.613105 -0.336485 0.084047 0.873276 0.425137 0.373624 0.563754 -0.514230 -0.105773 -0.221355 -0.486855 0.221868 -0.711471 2.640319 0.085605 1.010041 2.743505 -1.477973
eth_rxethmac/inst_rxstatem1 -0.133143 -0.976821 -0.613105 -0.336485 0.084047 0.873276 0.425137 0.373624 0.563754 -0.514230 -0.105773 -0.221355 -0.486855 0.221868 -0.711471 2.640319 0.085605 1.010041 2.743505 -1.477973
eth_top/always_1 -0.094411 1.142479 -0.492642 0.588557 0.086881 1.632571 -0.595233 -1.172014 -1.271033 -0.850865 4.355046 0.630634 -0.065511 -2.364194 0.330842 2.033310 2.809771 -1.950683 -0.433345 -0.083878
eth_shiftreg/always_1/block_1/if_1/block_2/if_1/block_1/if_1/block_1/case_1/cond 1.185613 -3.079300 -0.892771 -1.447405 1.773584 1.806509 0.449263 1.423341 -0.208932 -1.139464 -0.909806 0.101600 0.043729 0.591084 -0.284357 0.829311 -1.004303 -0.292864 1.727757 -2.212766
eth_shiftreg/always_1/block_1/if_1/block_2/if_1/block_1/if_1/block_1 1.185613 -3.079300 -0.892771 -1.447405 1.773584 1.806509 0.449263 1.423341 -0.208932 -1.139464 -0.909806 0.101600 0.043729 0.591084 -0.284357 0.829311 -1.004303 -0.292864 1.727757 -2.212766
eth_wishbone/always_6/block_1/if_1 -0.133143 -0.976821 -0.613105 -0.336485 0.084047 0.873276 0.425137 0.373624 0.563754 -0.514230 -0.105773 -0.221355 -0.486855 0.221868 -0.711471 2.640319 0.085605 1.010041 2.743505 -1.477973
eth_txethmac/wire_StatePreamble -0.133143 -0.976821 -0.613105 -0.336485 0.084047 0.873276 0.425137 0.373624 0.563754 -0.514230 -0.105773 -0.221355 -0.486855 0.221868 -0.711471 2.640319 0.085605 1.010041 2.743505 -1.477973
eth_top/input_md_pad_i 0.761268 -1.082220 -0.399313 -0.311353 -0.335137 0.585193 1.572322 1.018571 -1.281162 -0.365194 -0.906021 0.197772 0.340638 0.196809 -0.078141 -0.302330 -0.609873 -0.208662 0.533321 -1.988664
eth_txstatem/assign_3_StartPreamble/expr_1 -0.133143 -0.976821 -0.613105 -0.336485 0.084047 0.873276 0.425137 0.373624 0.563754 -0.514230 -0.105773 -0.221355 -0.486855 0.221868 -0.711471 2.640319 0.085605 1.010041 2.743505 -1.477973
eth_txstatem/always_1/block_1/if_1/block_2 -0.133143 -0.976821 -0.613105 -0.336485 0.084047 0.873276 0.425137 0.373624 0.563754 -0.514230 -0.105773 -0.221355 -0.486855 0.221868 -0.711471 2.640319 0.085605 1.010041 2.743505 -1.477973
eth_top/always_1/block_1/if_1/block_2/stmt_1/expr_1 -0.881124 0.498175 -0.666271 -0.361731 0.811875 3.300833 4.439061 0.165165 -0.554718 -0.981653 2.987023 0.880689 3.244538 -1.389436 -3.168571 2.044643 -1.198279 0.085170 -1.552787 -0.164309
eth_wishbone/reg_TxStartFrm_wb -0.133143 -0.976821 -0.613105 -0.336485 0.084047 0.873276 0.425137 0.373624 0.563754 -0.514230 -0.105773 -0.221355 -0.486855 0.221868 -0.711471 2.640319 0.085605 1.010041 2.743505 -1.477973
eth_miim/reg_WCtrlData_q3 2.256615 -3.962668 -1.358308 -0.993425 0.936767 3.037224 -1.628094 -1.395511 0.816294 -3.698317 -1.802614 1.493206 1.261544 -0.629757 -2.051040 1.661323 -2.278616 0.949325 -1.263804 0.127492
eth_shiftreg/always_1/block_1/if_1/block_2/if_1/block_1/if_1/cond 0.655112 -3.320536 -0.272114 -1.820670 1.173976 1.422214 2.973872 2.973187 -0.929183 -0.147560 -1.197936 0.058114 0.126642 1.597827 -0.833571 -1.044199 -1.754286 -0.433633 1.709431 -3.753057
eth_miim/always_1/block_1/if_1 2.583013 -0.090967 -1.904230 1.688788 -0.923920 3.649297 -0.126339 -2.954168 -0.477207 -2.560855 0.224028 1.067679 2.456853 -1.671989 -0.972117 2.516385 -1.850755 0.866272 -1.570784 1.588785
eth_clockgen/always_1/block_1/if_1/block_1/if_1/block_1 3.423720 -3.001796 0.224633 0.754161 0.790352 -0.048079 -4.806736 1.487509 1.423910 -0.770367 -3.342838 1.593620 -0.713066 1.914919 -2.861916 -1.463472 -2.525065 1.367424 -2.088498 -0.034244
eth_shiftreg/always_1/block_1/if_1/block_2/if_1/block_1 0.655112 -3.320536 -0.272114 -1.820670 1.173976 1.422214 2.973872 2.973187 -0.929183 -0.147560 -1.197936 0.058114 0.126642 1.597827 -0.833571 -1.044199 -1.754286 -0.433633 1.709431 -3.753057
eth_top/wire_ByteSelected 1.515338 -1.076504 -0.951265 1.100675 -0.593219 2.426302 -1.800047 -2.741088 -0.741851 -2.159497 2.268424 0.898992 -1.326187 -2.117812 2.672730 1.856924 1.821546 -1.648118 1.394567 -0.559674
eth_miim/always_4/block_1 1.959525 -3.981854 -1.109972 -1.849058 0.878478 1.521680 0.203096 0.905358 -0.053744 -1.918975 -2.575943 1.332857 1.431858 0.748501 -2.279104 -1.335652 -3.074791 0.258607 -1.975639 -0.998693
eth_clockgen/always_1/block_1/if_1/block_1/if_1/stmt_1 -0.134888 -3.329567 0.962790 -1.553897 1.074870 -0.748711 -3.978800 -1.372237 2.295893 -2.186300 -2.447506 1.952915 -0.546724 -0.567880 -2.486481 -1.686654 -1.323129 0.666720 -4.249511 1.781929
eth_txstatem/assign_6_StartPAD/expr_1 -0.133143 -0.976821 -0.613105 -0.336485 0.084047 0.873276 0.425137 0.373624 0.563754 -0.514230 -0.105773 -0.221355 -0.486855 0.221868 -0.711471 2.640319 0.085605 1.010041 2.743505 -1.477973
eth_wishbone/reg_WB_ACK_O -0.751200 -0.242155 0.204766 -0.619391 1.559549 2.636663 3.049744 1.145168 -0.291419 -0.504380 1.550286 0.638229 1.891400 -0.836258 -1.290973 0.987083 -0.756349 -0.216571 -0.393060 -1.189276
eth_transmitcontrol/always_1/block_1/if_1/if_1 -0.133143 -0.976821 -0.613105 -0.336485 0.084047 0.873276 0.425137 0.373624 0.563754 -0.514230 -0.105773 -0.221355 -0.486855 0.221868 -0.711471 2.640319 0.085605 1.010041 2.743505 -1.477973
eth_top/assign_9_BDCs/expr_1/expr_1/expr_1/expr_1/expr_1 -0.564160 -1.660042 -0.123875 -1.150742 1.838274 3.130696 2.762507 1.017882 0.046760 -1.245679 1.097378 0.932032 1.543190 -0.974385 -1.588222 1.730906 -0.980036 -0.072671 0.204738 -1.781098
eth_top/wire_wb_ack_o -1.663760 1.175323 -0.076823 -0.795149 2.022228 2.486606 3.856906 1.624321 -0.278637 -0.241108 2.720580 0.878506 3.803042 -1.244666 -3.595925 1.686642 -0.693294 0.083012 -2.303406 -0.158177
eth_miim/always_7/block_1/if_1/block_2/if_1/block_1/if_1/cond 1.702555 -4.659681 -0.268283 -1.914477 1.427407 1.331075 -1.507794 -0.034443 0.754547 -2.597388 -2.239469 0.776458 -0.233235 0.866026 -1.360669 -1.173146 -2.062061 -0.000934 -0.926982 -0.649885
eth_outputcontrol/assign_1_SerialEn/expr_1/expr_2/expr_2 0.995095 -3.396930 -1.154753 -1.605187 2.627746 1.595009 -4.176764 -1.177781 1.712917 -3.159918 -0.886604 0.455756 -0.668654 -1.151718 0.011785 3.682961 0.699124 0.324630 1.374978 0.184432
eth_top/inst_miim1 1.285820 -1.912263 0.714735 -0.564628 0.903504 -0.756628 -1.002484 1.278859 -0.042589 -0.201347 -2.807518 0.067922 -0.043375 1.840436 0.206104 -3.330093 -1.658105 -0.102294 -1.584661 -0.016028
eth_top/assign_17_MRxDV_Lb/expr_1/expr_1 -0.133143 -0.976821 -0.613105 -0.336485 0.084047 0.873276 0.425137 0.373624 0.563754 -0.514230 -0.105773 -0.221355 -0.486855 0.221868 -0.711471 2.640319 0.085605 1.010041 2.743505 -1.477973
eth_txethmac/always_13/block_1/if_1/stmt_2/expr_1 -0.133143 -0.976821 -0.613105 -0.336485 0.084047 0.873276 0.425137 0.373624 0.563754 -0.514230 -0.105773 -0.221355 -0.486855 0.221868 -0.711471 2.640319 0.085605 1.010041 2.743505 -1.477973
eth_wishbone/always_30 -0.133143 -0.976821 -0.613105 -0.336485 0.084047 0.873276 0.425137 0.373624 0.563754 -0.514230 -0.105773 -0.221355 -0.486855 0.221868 -0.711471 2.640319 0.085605 1.010041 2.743505 -1.477973
eth_rxstatem/wire_StartSFD -0.133143 -0.976821 -0.613105 -0.336485 0.084047 0.873276 0.425137 0.373624 0.563754 -0.514230 -0.105773 -0.221355 -0.486855 0.221868 -0.711471 2.640319 0.085605 1.010041 2.743505 -1.477973
eth_txstatem/always_1/block_1/if_1/block_2/stmt_1 -0.133143 -0.976821 -0.613105 -0.336485 0.084047 0.873276 0.425137 0.373624 0.563754 -0.514230 -0.105773 -0.221355 -0.486855 0.221868 -0.711471 2.640319 0.085605 1.010041 2.743505 -1.477973
eth_miim/always_6/block_1/if_1/block_2/if_1/block_1 1.959525 -3.981854 -1.109972 -1.849058 0.878478 1.521680 0.203096 0.905358 -0.053744 -1.918975 -2.575943 1.332857 1.431858 0.748501 -2.279104 -1.335652 -3.074791 0.258607 -1.975639 -0.998693
eth_wishbone/always_6/block_1 -0.133143 -0.976821 -0.613105 -0.336485 0.084047 0.873276 0.425137 0.373624 0.563754 -0.514230 -0.105773 -0.221355 -0.486855 0.221868 -0.711471 2.640319 0.085605 1.010041 2.743505 -1.477973
eth_registers/assign_110_r_WCtrlData 0.788982 -4.112766 -0.291264 -2.423874 2.069942 0.433907 -0.432868 2.030793 0.382658 -0.995537 -2.189139 0.312615 -0.497464 1.231913 -0.701291 -0.790150 -1.263408 -0.263645 0.783722 -2.153216
eth_wishbone/always_1/block_1/stmt_1/expr_1/expr_1/expr_1/expr_1 -0.751200 -0.242155 0.204766 -0.619391 1.559549 2.636663 3.049744 1.145168 -0.291419 -0.504380 1.550286 0.638229 1.891400 -0.836258 -1.290973 0.987083 -0.756349 -0.216571 -0.393060 -1.189276
eth_top/assign_7_BDCs/expr_1/expr_1/expr_1/expr_1 -0.751200 -0.242155 0.204766 -0.619391 1.559549 2.636663 3.049744 1.145168 -0.291419 -0.504380 1.550286 0.638229 1.891400 -0.836258 -1.290973 0.987083 -0.756349 -0.216571 -0.393060 -1.189276
eth_top/assign_8_BDCs/expr_1 -0.751200 -0.242155 0.204766 -0.619391 1.559549 2.636663 3.049744 1.145168 -0.291419 -0.504380 1.550286 0.638229 1.891400 -0.836258 -1.290973 0.987083 -0.756349 -0.216571 -0.393060 -1.189276
eth_outputcontrol/always_2 1.091094 -1.299888 0.292670 -0.742701 2.588853 -0.693135 1.032377 4.996256 -1.579557 2.302672 -0.927302 -1.260541 -1.278563 2.844232 2.108636 -2.595724 0.053629 -1.731399 2.756855 -3.540965
eth_miim/always_8/block_1/if_1 -1.671889 -4.836257 3.324402 -2.733744 4.100083 0.397295 -0.859832 0.826462 2.591578 -1.060721 0.450862 -0.364032 -3.834625 1.547481 -0.014423 -4.008869 -0.497078 -1.826251 0.432835 -1.205886
eth_top/assign_15_wb_err_o 1.405685 -1.622472 -2.682081 -1.463100 1.043129 1.827901 1.051796 -1.336160 -1.153359 0.308306 1.388949 -0.047888 0.197522 -1.859845 2.147834 -0.169171 -0.893718 -2.896492 0.674467 -0.249169
eth_shiftreg/always_1/block_1/if_1/block_2/if_1/block_1/if_1/block_1/case_1 1.185613 -3.079300 -0.892771 -1.447405 1.773584 1.806509 0.449263 1.423341 -0.208932 -1.139464 -0.909806 0.101600 0.043729 0.591084 -0.284357 0.829311 -1.004303 -0.292864 1.727757 -2.212766
eth_txethmac/wire_StateJam -0.133143 -0.976821 -0.613105 -0.336485 0.084047 0.873276 0.425137 0.373624 0.563754 -0.514230 -0.105773 -0.221355 -0.486855 0.221868 -0.711471 2.640319 0.085605 1.010041 2.743505 -1.477973
eth_wishbone/always_4 -0.564160 -1.660042 -0.123875 -1.150742 1.838274 3.130696 2.762507 1.017882 0.046760 -1.245679 1.097378 0.932032 1.543190 -0.974385 -1.588222 1.730906 -0.980036 -0.072671 0.204738 -1.781098
eth_rxstatem/wire_StateData -0.133143 -0.976821 -0.613105 -0.336485 0.084047 0.873276 0.425137 0.373624 0.563754 -0.514230 -0.105773 -0.221355 -0.486855 0.221868 -0.711471 2.640319 0.085605 1.010041 2.743505 -1.477973
eth_wishbone/always_1 -0.751200 -0.242155 0.204766 -0.619391 1.559549 2.636663 3.049744 1.145168 -0.291419 -0.504380 1.550286 0.638229 1.891400 -0.836258 -1.290973 0.987083 -0.756349 -0.216571 -0.393060 -1.189276
eth_txstatem/always_1 -0.133143 -0.976821 -0.613105 -0.336485 0.084047 0.873276 0.425137 0.373624 0.563754 -0.514230 -0.105773 -0.221355 -0.486855 0.221868 -0.711471 2.640319 0.085605 1.010041 2.743505 -1.477973
eth_wishbone/always_3 -0.751200 -0.242155 0.204766 -0.619391 1.559549 2.636663 3.049744 1.145168 -0.291419 -0.504380 1.550286 0.638229 1.891400 -0.836258 -1.290973 0.987083 -0.756349 -0.216571 -0.393060 -1.189276
eth_wishbone/always_2 -0.564160 -1.660042 -0.123875 -1.150742 1.838274 3.130696 2.762507 1.017882 0.046760 -1.245679 1.097378 0.932032 1.543190 -0.974385 -1.588222 1.730906 -0.980036 -0.072671 0.204738 -1.781098
eth_registers/assign_41_MIICOMMAND_Wr/expr_1 0.788982 -4.112766 -0.291264 -2.423874 2.069942 0.433907 -0.432868 2.030793 0.382658 -0.995537 -2.189139 0.312615 -0.497464 1.231913 -0.701291 -0.790150 -1.263408 -0.263645 0.783722 -2.153216
eth_top/assign_3_RegCs/expr_1/expr_1 -0.751200 -0.242155 0.204766 -0.619391 1.559549 2.636663 3.049744 1.145168 -0.291419 -0.504380 1.550286 0.638229 1.891400 -0.836258 -1.290973 0.987083 -0.756349 -0.216571 -0.393060 -1.189276
eth_registers/wire_MIIMODEROut 2.706537 -4.641599 -0.902730 -1.068282 0.406825 -0.092830 -3.997534 -0.402684 1.268832 -1.648897 -4.465474 1.876990 -0.155465 0.489477 -1.260331 -1.647402 -2.985995 0.767849 -2.695212 0.564573
eth_miim/wire_MdoEn 1.339008 -1.034865 0.107631 1.395205 0.324550 3.392739 -2.104739 -3.918152 1.473855 -3.367623 0.396937 1.042377 0.738754 -1.769754 -0.846039 2.054947 -1.210990 0.987916 -1.790761 2.546624
eth_outputcontrol/always_1/block_1/if_1/block_2/if_1/cond 1.339008 -1.034865 0.107631 1.395205 0.324550 3.392739 -2.104739 -3.918152 1.473855 -3.367623 0.396937 1.042377 0.738754 -1.769754 -0.846039 2.054947 -1.210990 0.987916 -1.790761 2.546624
eth_top/assign_12_temp_wb_err_o/expr_1/expr_2 0.641249 -2.235721 -2.111019 -0.974608 0.432693 2.207439 0.127532 -1.736542 -0.712693 -1.201993 2.356493 1.416413 0.058740 -2.128381 1.314138 0.824399 0.351702 -2.457955 0.086683 -0.670631
eth_shiftreg/input_ByteSelect 0.655112 -3.320536 -0.272114 -1.820670 1.173976 1.422214 2.973872 2.973187 -0.929183 -0.147560 -1.197936 0.058114 0.126642 1.597827 -0.833571 -1.044199 -1.754286 -0.433633 1.709431 -3.753057
eth_outputcontrol/wire_SerialEn 0.744748 -0.507704 -1.108186 -1.737686 8.019627 0.191813 -4.709721 2.669755 1.935711 1.346245 0.937527 -1.062987 -0.554966 -0.348951 3.287094 0.546326 1.113559 -2.535543 0.762025 1.685890
eth_register/always_1/block_1/if_1 0.530312 -1.922881 -0.589015 -0.311530 -2.730213 -3.570731 -3.957016 -0.952061 1.012708 -0.640190 -4.177334 -1.101647 -3.770198 1.305826 1.225963 1.100053 1.032610 2.225763 3.539417 -0.797580
eth_shiftreg/always_1/block_1/if_1/block_2/if_1/block_1/if_1/block_2 0.655112 -3.320536 -0.272114 -1.820670 1.173976 1.422214 2.973872 2.973187 -0.929183 -0.147560 -1.197936 0.058114 0.126642 1.597827 -0.833571 -1.044199 -1.754286 -0.433633 1.709431 -3.753057
eth_top/assign_3_RegCs/expr_1 -0.751200 -0.242155 0.204766 -0.619391 1.559549 2.636663 3.049744 1.145168 -0.291419 -0.504380 1.550286 0.638229 1.891400 -0.836258 -1.290973 0.987083 -0.756349 -0.216571 -0.393060 -1.189276
eth_top/assign_11_temp_wb_dat_o 2.312668 0.260597 -0.392452 2.126078 -0.305031 2.392696 -2.343892 -1.132331 -1.402021 -2.748620 1.675762 0.228778 -0.116351 -0.682725 0.998600 2.741235 2.224463 -0.281878 0.883687 -0.486280
eth_miim/assign_3_ScanStatusOp/expr_1 0.788982 -4.112766 -0.291264 -2.423874 2.069942 0.433907 -0.432868 2.030793 0.382658 -0.995537 -2.189139 0.312615 -0.497464 1.231913 -0.701291 -0.790150 -1.263408 -0.263645 0.783722 -2.153216
eth_wishbone/always_1/block_1/stmt_1/expr_1/expr_2 -0.751200 -0.242155 0.204766 -0.619391 1.559549 2.636663 3.049744 1.145168 -0.291419 -0.504380 1.550286 0.638229 1.891400 -0.836258 -1.290973 0.987083 -0.756349 -0.216571 -0.393060 -1.189276
eth_wishbone/always_1/block_1/stmt_1/expr_1/expr_1 -0.751200 -0.242155 0.204766 -0.619391 1.559549 2.636663 3.049744 1.145168 -0.291419 -0.504380 1.550286 0.638229 1.891400 -0.836258 -1.290973 0.987083 -0.756349 -0.216571 -0.393060 -1.189276
eth_wishbone/always_26/block_1/if_1 -0.133143 -0.976821 -0.613105 -0.336485 0.084047 0.873276 0.425137 0.373624 0.563754 -0.514230 -0.105773 -0.221355 -0.486855 0.221868 -0.711471 2.640319 0.085605 1.010041 2.743505 -1.477973
eth_top/wire_md_pad_o 1.091094 -1.299888 0.292670 -0.742701 2.588853 -0.693135 1.032377 4.996256 -1.579557 2.302672 -0.927302 -1.260541 -1.278563 2.844232 2.108636 -2.595724 0.053629 -1.731399 2.756855 -3.540965
eth_outputcontrol/always_2/block_1/if_1/block_2/if_1/block_1 0.017089 -1.769005 -0.989162 -3.088177 3.875422 -2.111142 -0.139908 4.972619 -1.104083 2.037293 -1.817039 -1.141096 -0.931606 1.157382 2.570752 -0.958719 1.077574 -2.153519 2.981041 -3.281600
eth_txstatem/assign_6_StartPAD -0.133143 -0.976821 -0.613105 -0.336485 0.084047 0.873276 0.425137 0.373624 0.563754 -0.514230 -0.105773 -0.221355 -0.486855 0.221868 -0.711471 2.640319 0.085605 1.010041 2.743505 -1.477973
check_ethernet/always_1/if_1/cond 2.091509 0.362809 -1.283677 1.338115 -0.605379 3.483388 1.986834 -1.085297 -2.121540 -1.828347 1.688834 -0.233798 1.488799 -0.880577 0.790154 1.757499 -0.142969 -0.519109 0.946236 -0.831769
eth_miim/always_7/block_1/if_1/block_2/if_1 0.633713 -4.037316 1.258660 -0.981056 1.369273 2.059582 -1.161810 -1.125582 1.579341 -2.755866 -0.901569 1.009523 -0.764024 0.335669 -1.551724 -1.389770 -1.894642 0.130801 -1.550468 0.067495
eth_rxstatem/assign_2_StartPreamble/expr_1/expr_2 -0.133143 -0.976821 -0.613105 -0.336485 0.084047 0.873276 0.425137 0.373624 0.563754 -0.514230 -0.105773 -0.221355 -0.486855 0.221868 -0.711471 2.640319 0.085605 1.010041 2.743505 -1.477973
eth_top/assign_1_ByteSelected 1.515338 -1.076504 -0.951265 1.100675 -0.593219 2.426302 -1.800047 -2.741088 -0.741851 -2.159497 2.268424 0.898992 -1.326187 -2.117812 2.672730 1.856924 1.821546 -1.648118 1.394567 -0.559674
eth_registers/assign_13_MIICOMMAND_Sel 3.908049 -1.219730 -3.728898 -1.246755 2.929871 0.062380 -2.756919 1.791797 -1.614150 0.067773 -1.876915 -0.895205 1.205888 0.577027 2.300986 0.772057 -0.346479 -1.720166 1.266791 -0.145870
eth_transmitcontrol -0.133143 -0.976821 -0.613105 -0.336485 0.084047 0.873276 0.425137 0.373624 0.563754 -0.514230 -0.105773 -0.221355 -0.486855 0.221868 -0.711471 2.640319 0.085605 1.010041 2.743505 -1.477973
eth_wishbone/always_2/block_1/if_1/if_1/cond/expr_1 -0.564160 -1.660042 -0.123875 -1.150742 1.838274 3.130696 2.762507 1.017882 0.046760 -1.245679 1.097378 0.932032 1.543190 -0.974385 -1.588222 1.730906 -0.980036 -0.072671 0.204738 -1.781098
eth_miim/always_1/block_1/if_1/block_1/stmt_1 2.583013 -0.090967 -1.904230 1.688788 -0.923920 3.649297 -0.126339 -2.954168 -0.477207 -2.560855 0.224028 1.067679 2.456853 -1.671989 -0.972117 2.516385 -1.850755 0.866272 -1.570784 1.588785
eth_outputcontrol/always_2/block_1/if_1/block_2/if_1/block_1/stmt_1/expr_1 0.017089 -1.769005 -0.989162 -3.088177 3.875422 -2.111142 -0.139908 4.972619 -1.104083 2.037293 -1.817039 -1.141096 -0.931606 1.157382 2.570752 -0.958719 1.077574 -2.153519 2.981041 -3.281600
eth_clockgen/always_1/block_1/if_1/block_1/if_1 -0.134888 -3.329567 0.962790 -1.553897 1.074870 -0.748711 -3.978800 -1.372237 2.295893 -2.186300 -2.447506 1.952915 -0.546724 -0.567880 -2.486481 -1.686654 -1.323129 0.666720 -4.249511 1.781929
eth_miim/wire_MdcEn 0.533801 -3.143020 1.451520 0.503157 -0.659815 3.181672 -0.226331 -2.972927 1.433406 -3.539277 -0.304795 1.469584 -0.295438 -0.544846 -2.085653 -0.169961 -2.059681 1.135112 -1.833781 0.478830
eth_top/assign_22_Transmitting/expr_1 -0.133143 -0.976821 -0.613105 -0.336485 0.084047 0.873276 0.425137 0.373624 0.563754 -0.514230 -0.105773 -0.221355 -0.486855 0.221868 -0.711471 2.640319 0.085605 1.010041 2.743505 -1.477973
eth_clockgen/reg_Counter 0.019124 -2.144135 -0.096459 -2.058435 1.397878 -1.440109 -3.586430 -0.801466 1.604621 -2.018353 -3.768952 1.417919 1.175322 -0.911812 -1.096918 -0.756939 -1.156163 0.825800 -3.869880 2.250681
eth_rxstatem/always_1/block_1 -0.133143 -0.976821 -0.613105 -0.336485 0.084047 0.873276 0.425137 0.373624 0.563754 -0.514230 -0.105773 -0.221355 -0.486855 0.221868 -0.711471 2.640319 0.085605 1.010041 2.743505 -1.477973
eth_txstatem/assign_5_StartData/expr_1/expr_1 -0.133143 -0.976821 -0.613105 -0.336485 0.084047 0.873276 0.425137 0.373624 0.563754 -0.514230 -0.105773 -0.221355 -0.486855 0.221868 -0.711471 2.640319 0.085605 1.010041 2.743505 -1.477973
