wb_dma_ch_pri_enc/wire_pri27_out 1.879021 0.596024 -1.008238 -0.389808 1.628268 -0.168708 -1.465058 -1.246487 2.151772 -0.228622 0.788502 2.467719 -0.814236 -2.507886 0.723246 -1.171744 -0.940868 0.457753 1.525495 -0.114738
wb_dma_de/always_23/block_1/case_1/block_7/if_1/block_1/stmt_2 3.673766 2.237194 0.353691 -0.788576 1.368673 1.855434 0.179551 -2.876882 0.773536 -1.099174 -1.232782 -0.578024 3.047737 -3.431549 -0.088608 1.661806 1.024559 -1.275345 2.225290 2.335176
wb_dma_ch_arb/always_2/block_1/case_1/if_2/block_1/if_1/if_1/if_1/if_1/if_1/if_1/if_1/if_1/if_1/if_1/if_1/if_1/if_1/if_1/if_1/if_1/if_1/if_1/if_1/if_1/if_1 -1.440237 -0.748288 -1.140057 0.813394 1.294017 -1.166661 -0.940582 0.020107 0.915051 -0.090445 1.161013 0.837060 -0.659002 -1.715190 1.165144 -1.702932 -2.187870 0.720108 -0.192029 0.226463
wb_dma_ch_sel/always_5/stmt_1/expr_1 0.497209 1.499441 -0.285933 -2.206161 -0.174786 -1.269359 -3.835629 0.280060 1.462252 0.050658 -0.815259 -1.639848 1.852615 -3.311882 1.987121 2.736198 -3.092015 -1.536076 2.681684 1.565801
wb_dma_ch_rf/always_8/stmt_1/expr_1/expr_1/expr_1 -1.885930 1.838481 -1.102002 -0.840650 2.527339 -2.623694 0.728869 0.149161 1.999751 1.568872 -2.014789 -1.455787 -0.298810 -0.037324 -1.862703 -1.246379 -2.517402 -1.133700 -2.483967 -1.203075
wb_dma_ch_arb/always_2/block_1/case_1/if_2/block_1/if_1 0.372667 -0.024879 -0.663771 0.439501 1.747054 -0.205675 -0.480335 -2.244697 3.052565 1.636840 1.594302 1.764143 -0.388897 -3.225147 0.378256 -2.070046 1.302314 0.203861 1.271388 -2.157117
wb_dma_ch_arb/always_2/block_1/case_1/if_4/block_1/if_1/if_1/if_1/if_1/if_1/if_1/if_1/if_1/if_1/if_1/if_1/if_1/if_1/if_1/if_1/if_1/if_1/if_1/if_1 3.478180 1.411292 0.227366 -1.173335 0.379169 1.199333 -0.486137 -1.346176 1.305703 -0.222004 -0.389092 1.624058 -0.190755 -0.840872 -0.495246 0.710620 1.309257 -0.269847 1.790740 -0.441171
wb_dma_ch_rf/assign_1_ch_adr0 -2.923125 0.077808 -0.056535 -4.244822 -3.193029 -1.919598 -0.094298 -0.364147 -1.214826 1.757267 -1.828682 0.762358 -2.021880 3.664178 -1.368907 -0.805405 0.208880 -0.384468 -2.039840 1.234543
wb_dma_ch_rf/reg_ch_busy -3.153517 1.592146 -0.316335 -0.476917 2.854887 -2.700299 -0.069055 0.343148 1.627095 2.743100 -3.485408 -2.884265 -0.692926 -0.459606 -1.577999 -0.813972 -4.142474 -2.905952 -3.973040 -0.641225
wb_dma_wb_slv/always_5 2.786649 0.876748 0.413833 0.312601 -0.553551 -1.873661 -1.057754 3.269042 -0.483742 -3.266544 2.787944 -1.437258 2.089558 6.366040 -1.124699 -0.973738 0.190303 -1.059531 2.965205 1.698188
wb_dma_wb_slv/always_4 -2.115017 -0.107084 1.804719 0.102382 -2.684744 -3.740268 0.243113 -2.482528 -3.440453 0.612590 -0.310622 -1.212599 2.975415 2.940990 -1.027593 -4.847742 0.933209 -4.432019 1.603014 9.270635
wb_dma_wb_slv/always_3 -2.433401 -1.087791 -2.403834 -2.184372 0.329477 -3.908710 1.911018 -3.845589 -1.549507 -1.628611 -3.074499 -1.993814 1.570510 0.071265 -0.018726 -4.361764 1.922871 -0.380242 -5.225860 1.773181
wb_dma_wb_slv/always_1 -4.131547 -0.772266 0.553890 -1.123359 -0.028769 -5.380320 0.472987 0.293448 0.387628 1.421756 -2.114105 -0.587901 1.566708 0.500441 1.733320 -5.095433 -2.331638 -1.655587 -1.349097 7.443453
wb_dma_ch_sel/always_44/case_1/cond -2.380326 2.494203 0.768611 -4.040415 -3.591810 -3.549425 1.107475 -2.745751 1.615416 0.588630 -0.340784 -0.850219 -0.811619 3.080889 -3.013793 -0.715221 2.532448 -1.363091 -0.820037 1.557510
wb_dma_rf/wire_ch0_csr -2.757091 -0.414550 -1.075402 -1.637695 0.090353 -4.133999 1.806477 2.811579 -0.537749 2.299512 -4.264454 -0.280182 1.632942 0.434824 0.159920 -0.750852 -4.473658 0.243986 -1.911446 4.104696
wb_dma_de/wire_done 2.038050 0.231122 -1.266479 0.783111 2.919669 2.043616 -1.186561 1.748054 -1.776661 0.372227 -2.657964 0.043209 0.856805 -4.094790 0.911480 -0.945887 -1.832996 -1.288674 -0.013606 0.731389
wb_dma_ch_pri_enc/wire_pri11_out 1.950500 0.656205 -0.906017 -0.395845 1.610968 -0.011666 -1.414936 -1.356221 2.191026 -0.270615 0.796182 2.458059 -0.825047 -2.473842 0.639942 -1.027288 -0.872485 0.409461 1.583907 -0.196224
wb_dma_de/always_6/if_1/if_1/stmt_1/expr_1 -0.284590 -1.186224 -0.883373 2.689756 3.478573 2.816533 0.323825 2.565425 -1.528814 2.010465 -1.433291 -1.788774 0.837246 -4.317140 0.740435 -1.319785 0.189746 -0.862997 -0.931818 -3.204773
wb_dma_ch_rf/assign_27_ptr_inv/expr_1 0.968869 -0.018009 0.213656 0.763974 1.109428 1.863445 1.013750 -0.533684 1.500303 1.696542 0.608583 -0.106395 -0.104974 -1.680547 -0.628700 0.098336 3.364598 0.196372 0.639756 -4.576950
wb_dma_de/always_13/stmt_1 2.565809 1.384502 -1.165042 -4.006198 -0.162383 -0.641105 -2.026189 -0.064816 1.674006 -0.565768 -3.678312 -0.276086 0.441392 -2.280623 1.152170 2.326294 -1.442132 -0.182486 -0.495755 0.356679
wb_dma_de/always_4/if_1 2.178456 -0.110393 -1.180191 -0.413161 2.428334 0.433985 -2.825875 3.089697 -0.355495 1.059751 -2.178147 0.306993 -0.865038 -1.879104 1.112733 -1.928463 -1.916967 -1.803723 0.257153 -0.983379
wb_dma_ch_arb/input_req -1.760002 3.049410 -2.930775 1.626989 2.133162 -2.176527 3.968612 -0.319134 0.183431 0.246397 0.147944 2.006588 1.415091 -2.735560 -3.420065 -3.224897 1.780095 2.045618 -1.003616 -1.470126
wb_dma_ch_pri_enc/wire_pri20_out 1.966414 0.685066 -0.949441 -0.392522 1.539814 -0.005697 -1.374292 -1.287487 2.075040 -0.203678 0.695643 2.402975 -0.774737 -2.489690 0.647562 -1.035949 -0.810103 0.378839 1.512254 -0.133927
wb_dma_ch_arb/always_2/block_1/case_1/if_1/block_1/if_1/if_1/if_1/if_1/if_1/if_1/if_1/if_1/if_1/if_1/if_1/if_1/if_1/if_1/if_1/if_1/if_1/if_1/if_1/if_1/if_1/if_1/if_1/if_1/if_1/if_1/if_1/if_1/if_1/if_1/cond 2.267613 0.865348 -1.425026 -2.813149 -1.444502 -0.570508 -0.629838 3.071731 -1.413772 -1.044917 -0.650379 -0.187650 0.215807 3.727113 -1.411525 -0.415781 1.270160 0.105395 1.023107 -0.963309
wb_dma_ch_rf/always_26/if_1/if_1 0.565385 1.707977 -1.264031 -0.934482 0.115587 -3.731677 -1.972618 -0.690739 1.528953 -2.237016 -2.339542 -1.297282 1.546562 -2.839335 2.401305 1.698067 -0.999624 -0.475339 -2.327144 1.219806
wb_dma_ch_rf/always_4/if_1/block_1/if_1/stmt_1 -2.963236 0.722860 1.081457 1.611937 -1.209402 0.306560 0.217080 -2.198302 -1.245518 2.844791 -1.557628 0.914632 -1.791467 -3.715385 0.201982 0.737180 0.518751 -1.497110 -1.979646 1.042191
wb_dma_ch_sel/assign_145_req_p0/expr_1 2.865738 1.987244 0.169462 -0.605052 -0.543115 -0.971109 -2.200874 1.795951 -0.731678 -0.552919 -0.699225 -1.211165 0.666391 2.687579 -1.109641 0.450713 0.798519 -2.799897 0.825538 -0.218230
wb_dma_ch_arb/always_2/block_1/case_1/if_4/block_1/if_1/if_1/if_1/if_1/if_1/if_1/if_1/if_1/if_1/if_1/if_1/if_1/if_1/if_1/if_1/if_1/if_1/if_1/if_1/if_1/if_1/if_1/if_1/if_1/if_1/if_1/if_1/if_1/cond 2.267034 0.595306 0.016977 0.050144 0.881940 1.886482 0.146095 0.377599 0.426861 -0.062424 -0.237053 0.369726 -0.429550 -0.846625 -0.353179 1.025091 1.232901 0.228641 0.866859 -2.436213
wb_dma_de/always_23/block_1/case_1/block_2/stmt_1 -1.759066 1.149297 0.738633 1.151845 -0.268923 -1.410304 -1.375493 -0.353880 -0.310425 1.482851 0.682463 0.884522 -0.135117 -1.309014 0.173123 0.469001 -1.721514 -1.110797 1.674986 1.544440
wb_dma_ch_sel/wire_ch_sel -3.051922 0.057069 -1.547778 -3.680087 0.386425 -3.372913 0.963830 1.047270 2.017228 3.056731 -3.778099 -1.688220 1.018483 0.641390 -1.114868 -2.127060 -1.556950 -0.363994 -3.600111 -0.351772
wb_dma_rf/inst_u19 3.963597 1.455345 -2.348192 -3.039859 0.271614 -0.731819 -1.988542 1.743015 0.754233 -1.299511 0.197179 2.204670 -0.589980 1.146770 -0.699873 -1.587903 0.189554 0.571846 2.507802 -0.996886
wb_dma_rf/inst_u18 4.129422 1.427715 -2.342902 -3.074783 0.282295 -0.523414 -1.990815 1.848289 0.779034 -1.254085 0.161146 2.210567 -0.655475 1.149052 -0.696017 -1.478029 0.372170 0.590930 2.566525 -1.240918
wb_dma_rf/inst_u17 4.087054 1.444229 -2.285964 -3.120949 0.177877 -0.574232 -1.958837 1.866420 0.613891 -1.242479 -0.012101 2.079588 -0.521684 1.249277 -0.755548 -1.496182 0.367627 0.455973 2.497742 -1.019003
wb_dma_rf/inst_u16 4.016196 1.506043 -2.426146 -3.246106 0.072904 -0.755116 -2.003591 1.852050 0.579521 -1.153269 -0.078669 2.119915 -0.481061 1.229831 -0.763625 -1.601940 0.334502 0.419001 2.463090 -0.916364
wb_dma_rf/inst_u15 4.004798 1.480700 -2.419643 -3.072964 0.254927 -0.631443 -1.993787 1.681340 0.755807 -1.199424 0.031725 2.237757 -0.583333 0.939946 -0.643234 -1.496067 0.337954 0.552263 2.459248 -1.120232
wb_dma_rf/inst_u14 4.011658 1.542034 -2.368137 -3.158831 0.113394 -0.642143 -1.972071 1.649080 0.721550 -1.241903 0.081306 2.211255 -0.646490 1.135247 -0.714994 -1.402870 0.377452 0.557655 2.475135 -1.119309
wb_dma_rf/inst_u13 4.290584 1.518319 -2.325173 -3.257988 0.087058 -0.574856 -2.005892 1.932898 0.678656 -1.334840 0.108114 2.127660 -0.572221 1.443018 -0.807360 -1.422138 0.504697 0.512780 2.616794 -1.211467
wb_dma_rf/inst_u12 3.846593 1.422165 -2.372988 -3.046311 0.146497 -0.683177 -1.890991 1.734019 0.572421 -1.113265 -0.051663 2.082866 -0.488703 1.060932 -0.737678 -1.541148 0.429089 0.467486 2.316650 -1.044312
wb_dma_rf/inst_u11 4.155333 1.471846 -2.298742 -3.144425 0.140146 -0.596321 -1.987365 1.858078 0.663284 -1.282685 0.123458 2.163331 -0.570741 1.356421 -0.761506 -1.464388 0.350211 0.498577 2.586766 -1.068490
wb_dma_rf/inst_u10 4.023261 1.420748 -2.310175 -3.078079 0.174565 -0.579368 -1.960175 1.802546 0.759157 -1.230226 0.137876 2.148628 -0.585971 1.183332 -0.673859 -1.483751 0.358363 0.542334 2.512270 -1.162924
wb_dma_de/always_23/block_1/case_1/block_1/if_1/if_1/block_1/if_1/stmt_2 1.693440 -4.601150 0.023120 0.055556 1.042104 1.249214 -1.570889 5.848441 -2.960912 3.674460 -2.365057 1.601822 0.493834 1.953281 2.164891 -5.875312 1.721195 -1.202131 0.191241 -0.334992
wb_dma_de/always_23/block_1/case_1/block_1/if_1/if_1/block_1/if_1/stmt_1 2.683534 4.406128 -0.848241 -0.767557 -3.022826 0.011657 -0.872456 -5.897651 -1.834117 -0.120801 0.263503 3.678963 -1.763595 0.861732 -3.511078 3.016171 2.776782 -1.139137 0.598730 0.003235
wb_dma/input_wb1_ack_i -2.697969 2.499077 -3.554338 1.165557 2.457064 -3.880570 -0.886752 -0.627999 -1.431155 0.003394 -0.820150 1.467543 0.359061 -3.453179 0.920749 -2.177272 -0.946009 -0.720964 -2.772968 1.014003
wb_dma/wire_slv0_we -2.468082 -1.326127 -2.080992 -2.100021 0.376129 -3.419451 1.458534 -3.429779 -1.408839 -1.136628 -3.547911 -3.081422 1.901372 0.176692 -0.022310 -3.533308 1.013739 -1.057690 -5.726388 1.723941
wb_dma_ch_rf/reg_ch_sz_inf -1.647126 -0.542450 1.535112 1.038010 0.532435 0.269508 -1.058666 0.446386 -0.302204 1.293202 -1.233256 -1.576153 -1.285708 -0.298694 0.688127 0.921294 -2.315499 -2.032171 -1.682280 0.423866
wb_dma_ch_rf -5.368818 0.554254 -1.365075 0.359623 -1.160245 -3.971937 0.853458 -2.201455 -2.598837 2.813901 -3.372696 -1.783948 1.350786 -2.499811 -0.669486 -1.953374 -0.335973 -2.465611 -4.579794 2.870147
wb_dma_ch_sel/wire_gnt_p1_d -1.515785 -0.758684 -1.189061 0.760241 1.225976 -1.234047 -0.953578 0.087922 0.809398 -0.056898 1.114174 0.819249 -0.634735 -1.654360 1.167961 -1.769380 -2.157932 0.693626 -0.240155 0.269516
wb_dma_ch_arb/always_2/block_1/case_1/if_2/block_1/if_1/if_1/cond -1.512061 -0.740596 -1.136214 0.826444 1.241065 -1.251898 -0.938097 0.046908 0.892052 -0.043842 1.147959 0.851794 -0.638625 -1.677922 1.169319 -1.741152 -2.181553 0.704651 -0.215311 0.269254
wb_dma_ch_rf/assign_13_ch_txsz_we/expr_1 2.010222 0.773665 0.376833 0.042508 2.230021 1.949180 -0.201612 0.311336 -0.433899 2.014129 -2.885332 -3.133897 3.100840 -3.341915 0.032759 -0.231374 2.088474 -3.324864 0.615839 -0.641552
wb_dma_ch_sel/input_ch1_txsz -0.523789 0.376622 -0.822409 0.872480 1.151381 -0.174752 0.194096 -3.158395 0.170415 -0.876999 0.454645 1.735215 1.399871 -3.790915 0.825060 -0.898649 -2.069141 0.652923 0.378361 4.139127
wb_dma/wire_ch3_txsz 3.436184 1.381903 0.211139 -1.187016 0.339687 1.245077 -0.467877 -1.313083 1.322543 -0.190254 -0.335415 1.614234 -0.217253 -0.766665 -0.504312 0.740048 1.320139 -0.241632 1.814787 -0.483510
wb_dma_ch_sel/assign_7_pri2 2.389466 0.652713 0.012166 0.063102 0.941017 2.000386 0.121823 0.384135 0.450721 -0.095585 -0.213519 0.408366 -0.468388 -0.888189 -0.348166 1.040728 1.302968 0.214029 0.896495 -2.559067
wb_dma_ch_pri_enc/inst_u30 1.831976 0.611625 -0.886571 -0.311524 1.593686 -0.028824 -1.333218 -1.333778 2.163551 -0.199900 0.767665 2.407330 -0.854158 -2.508364 0.690624 -1.026648 -0.864751 0.446413 1.488365 -0.225792
wb_dma/assign_3_dma_nd 4.684203 0.421902 -1.887204 -1.234805 1.330745 2.230954 -0.398741 4.807796 -1.740378 -0.140899 -1.971263 -0.175102 0.789168 0.266152 -0.627985 -0.912143 2.592440 0.000941 1.518098 -3.908386
wb_dma_ch_rf/assign_6_pointer -1.369225 1.776978 1.437498 1.204486 -0.792955 0.646015 1.337922 -4.542727 0.926730 4.872799 -2.394970 3.816463 -3.122391 -4.910542 -0.960483 0.580206 3.017443 -1.079554 -2.007841 -1.117378
wb_dma_ch_rf/wire_ch_adr0_dewe 0.032602 1.017885 0.490651 -1.611228 -1.845202 -0.858386 -0.111927 -1.187395 0.798278 -1.056026 1.211884 0.358353 -1.028939 2.859490 -1.146359 1.423915 -0.153421 0.335542 0.564196 0.535224
wb_dma_ch_pri_enc/always_2/if_1/cond 1.955794 0.625493 -0.944978 -0.349737 1.644371 -0.064807 -1.455635 -1.332300 2.193140 -0.246423 0.796369 2.466409 -0.830057 -2.534774 0.700071 -1.101098 -0.905833 0.418121 1.569598 -0.158081
wb_dma_ch_rf/always_2/if_1/if_1/block_1/if_1/cond 2.765272 1.983322 0.370058 -1.259187 0.074430 0.335578 0.504941 -2.455140 1.507838 0.810012 -1.941373 3.920739 -2.079877 -1.052901 -1.018762 0.671927 1.199531 0.396684 -0.055065 -0.226466
wb_dma_ch_sel/input_ch0_txsz 3.733613 1.442096 0.007108 -0.860425 2.165435 2.198063 -1.170067 1.511262 -1.610624 0.117133 -3.968689 -2.618871 2.892919 -2.732119 0.385522 0.732037 -0.044646 -3.246974 0.908221 1.478688
wb_dma_ch_sel/always_2 4.530608 0.435790 -1.907515 -1.190098 1.298463 2.218355 -0.363283 4.713727 -1.828073 -0.028127 -2.056133 -0.186937 0.816994 0.105088 -0.606073 -0.855571 2.672624 0.023123 1.353480 -3.932983
wb_dma_ch_sel/always_3 3.490944 0.765146 -1.236113 -0.201319 1.333220 2.833477 1.669164 0.450940 -1.350711 0.856006 -1.667483 0.067499 3.024705 -2.661210 -1.106741 -1.026254 4.523364 -0.121903 1.548302 -1.837842
wb_dma_rf/input_de_txsz_we 3.641038 -0.086471 1.726590 2.123396 2.865820 4.401190 0.112586 3.803428 -2.322485 -1.099053 -1.646212 -2.205032 1.120008 0.060386 0.098831 1.456258 -1.390384 -1.863495 1.295353 0.462601
wb_dma_ch_arb/always_2/block_1/case_1/if_4/block_1/if_1/if_1/if_1/if_1/if_1/if_1/if_1/if_1/if_1/if_1/if_1/if_1 3.544667 1.409405 0.237604 -1.210996 0.376943 1.238937 -0.479906 -1.381298 1.341452 -0.211498 -0.374537 1.639901 -0.224342 -0.817016 -0.498809 0.728385 1.323016 -0.262431 1.866119 -0.496491
wb_dma_ch_sel/assign_145_req_p0 3.031992 1.997120 0.185174 -0.679292 -0.555580 -1.062856 -2.225542 1.923914 -0.710587 -0.690302 -0.545784 -1.207535 0.672031 2.979105 -1.178577 0.367692 0.781099 -2.784180 1.014160 -0.119975
wb_dma_de/always_3/if_1/if_1/cond -0.563774 0.284071 -0.155737 2.029040 0.031381 -1.740060 -0.245362 0.136331 -0.325320 -0.792864 1.548790 -1.099933 1.921444 0.607132 -0.009910 -0.811819 0.626230 -0.764156 0.053668 0.682972
wb_dma_ch_arb/always_2/block_1/case_1/if_4/block_1/if_1/if_1/if_1/if_1/if_1/if_1/if_1/if_1/if_1/if_1/if_1/if_1/if_1/if_1 3.449446 1.451228 0.204247 -1.191593 0.329352 1.175144 -0.490627 -1.421742 1.314906 -0.174105 -0.401117 1.643365 -0.170152 -0.876513 -0.539167 0.722254 1.303035 -0.256478 1.775132 -0.361327
wb_dma_rf/always_1/case_1 -7.597363 0.489710 1.464707 -0.912011 1.133914 -7.641682 0.324024 0.369932 -1.019548 3.611419 -4.418300 -2.764937 -1.637465 -2.534404 3.049535 -3.694215 -1.510824 -4.239261 -1.879547 3.833613
wb_dma_rf/always_2/if_1/if_1/stmt_1 -1.010584 1.989894 1.238647 0.081787 0.880524 -3.936818 -1.537722 -0.593511 1.164714 -0.206321 -0.644632 -0.196770 -1.454385 -0.262242 0.430064 -0.768471 -2.062134 -2.543231 0.656279 2.090679
wb_dma_ch_sel/assign_99_valid/expr_1 -1.446978 -0.350915 -1.817429 -3.380385 -4.025218 -1.261957 -1.932272 0.150262 -3.150790 2.552706 -1.505784 -3.312272 3.207771 2.018640 -1.052272 -0.423698 3.778969 -2.623069 -0.741894 -1.024865
wb_dma_ch_arb/always_2/block_1/case_1/if_1/block_1/if_1/if_1/if_1/if_1/if_1/if_1/if_1/if_1/if_1/if_1/if_1/if_1/if_1/if_1/if_1/if_1/if_1/if_1/if_1/if_1/if_1/if_1/if_1/if_1/cond 2.476804 0.893701 -1.354900 -2.763665 -1.350633 -0.478413 -0.645004 3.062915 -1.354881 -1.123523 -0.626209 -0.168792 0.287609 3.735863 -1.405621 -0.423325 1.200045 0.070638 1.160027 -0.855062
wb_dma_wb_slv/reg_slv_adr -3.966400 -0.839723 0.397369 -1.369313 -0.216486 -5.562538 0.435008 0.208323 0.488420 1.378216 -2.014570 -0.687627 1.953015 0.745784 1.655020 -5.341622 -2.150461 -1.627245 -1.224498 7.594434
wb_dma_ch_sel/assign_8_pri2 2.362937 0.640571 -0.003463 0.027421 0.932695 1.943840 0.145065 0.356089 0.444939 -0.082081 -0.209760 0.389439 -0.426605 -0.956511 -0.326881 1.056004 1.281462 0.209477 0.907343 -2.479799
wb_dma_ch_rf/always_17/if_1/block_1/if_1/if_1/if_1/cond -1.858770 -0.531494 1.528162 1.070555 0.500123 0.139114 -1.004831 0.279476 -0.293320 1.304774 -1.240931 -1.589036 -1.238139 -0.364347 0.685997 0.850614 -2.386954 -2.026397 -1.779282 0.566711
wb_dma_wb_mast/wire_wb_cyc_o -1.554414 -0.763813 -1.179370 0.793591 1.254810 -1.279514 -0.964248 0.070555 0.867648 -0.068844 1.142514 0.831271 -0.620610 -1.701666 1.168642 -1.800925 -2.193015 0.681986 -0.262246 0.288615
wb_dma_ch_rf/always_5/if_1/block_1/if_1/stmt_1 -2.105524 -0.034226 -0.463568 0.496669 -0.763973 -0.701518 0.492271 -2.014711 -1.367181 -0.260072 -0.740413 -0.856160 -0.028077 -1.083997 -0.208323 -0.369122 0.913298 -0.734510 -2.783483 0.535793
wb_dma_ch_pri_enc/assign_1_pri_out_tmp/expr_1/expr_1/expr_1/expr_1/expr_1/expr_1/expr_1/expr_1/expr_1/expr_1/expr_1/expr_1/expr_1/expr_1/expr_1/expr_1/expr_1/expr_1 1.763889 0.638120 -0.899690 -0.296140 1.554922 -0.099503 -1.347264 -1.397327 2.091621 -0.229207 0.733991 2.390521 -0.805181 -2.517424 0.688907 -1.049492 -0.927997 0.366521 1.447820 -0.081010
wb_dma/wire_paused -1.760417 1.225556 0.715441 1.054946 -0.179957 -1.443682 -1.364434 -0.393613 -0.208584 1.552844 0.600473 0.867023 -0.160852 -1.354078 0.141236 0.485510 -1.717763 -1.151124 1.664215 1.462269
wb_dma_ch_rf/always_8/stmt_1/expr_1 -2.974641 1.632943 -0.307226 -0.513910 2.919937 -2.618418 -0.096472 0.495964 1.635628 2.767537 -3.420379 -2.805845 -0.849105 -0.316207 -1.614765 -0.771336 -4.160542 -2.921697 -3.786298 -0.764838
wb_dma_pri_enc_sub/always_3/if_1/if_1/if_1 -1.475666 -0.739662 -1.192406 0.753270 1.265318 -1.248843 -0.959738 0.060305 0.839278 -0.083511 1.132780 0.830153 -0.619969 -1.687888 1.159076 -1.775824 -2.147062 0.684744 -0.225160 0.246909
wb_dma/wire_ch1_adr1 -1.377327 -0.642125 0.214325 0.739865 0.190801 -0.093831 0.878887 -0.905796 1.032072 1.745343 0.846388 -0.552310 0.367025 -0.816346 -0.270040 -0.941585 2.075193 -0.082767 -0.229524 -2.047048
wb_dma_ch_rf/always_6/if_1/if_1/block_1 -3.602043 0.649691 -2.092412 -0.780080 -1.568997 -0.524675 -0.550673 -0.993736 -2.440027 5.023850 -0.911904 1.352170 2.996385 -0.890195 -2.138014 -0.074576 -1.033856 -0.094465 -0.225519 0.824070
wb_dma_ch_arb/always_2/block_1/case_1/if_3 1.882251 0.690279 0.435981 -0.341802 0.581192 1.111334 0.451955 -2.184026 2.346545 1.645210 0.518181 0.956608 0.195027 -1.578038 -0.794789 -0.333227 3.470603 -0.347712 1.507826 -2.639962
wb_dma_ch_arb/always_2/block_1/case_1/if_1/block_1/if_1/if_1/if_1/if_1/if_1/if_1/if_1 1.356496 0.227352 -2.345378 -0.585177 -1.208187 -1.489727 1.305105 4.591106 -1.993286 -2.148422 0.671785 -1.266549 3.630964 3.776184 -1.727202 -2.162425 1.323276 1.298268 1.102792 0.736185
wb_dma_ch_arb/always_2/block_1/case_1/if_1 2.878605 0.924416 -1.891664 -1.055302 -0.907838 -0.674314 1.782415 2.053749 0.419787 -0.457675 1.206379 -0.195041 3.687140 2.154755 -2.464854 -2.401677 4.664443 1.025113 2.443883 -1.712701
wb_dma_ch_arb/always_2/block_1/case_1/if_4 3.563746 1.405640 0.221756 -1.256603 0.375187 1.220153 -0.501585 -1.406490 1.389053 -0.217486 -0.357783 1.732838 -0.203822 -0.863618 -0.521381 0.680499 1.315863 -0.242730 1.890859 -0.379825
wb_dma_ch_sel/always_39/case_1/stmt_4 2.328309 0.624772 -0.012234 0.036159 0.925879 1.965356 0.173686 0.365595 0.430758 -0.073940 -0.224301 0.375086 -0.449013 -0.922739 -0.351451 1.040622 1.281872 0.222111 0.844929 -2.492931
wb_dma_ch_pri_enc/assign_1_pri_out_tmp/expr_1/expr_1/expr_1/expr_1/expr_1/expr_1/expr_1/expr_1/expr_1/expr_1/expr_1/expr_1/expr_1/expr_1/expr_1/expr_1/expr_1/expr_1/expr_1/expr_1 1.930085 0.651444 -0.986288 -0.367439 1.612372 -0.011271 -1.402632 -1.307500 2.126539 -0.223842 0.730783 2.412727 -0.831895 -2.553694 0.629744 -1.050403 -0.869523 0.395770 1.514106 -0.177664
wb_dma_ch_arb/always_2/block_1/case_1/if_1/block_1/if_1/if_1/if_1/if_1/if_1/if_1 1.379266 0.197981 -2.411065 -0.729854 -1.295554 -1.504672 1.247500 4.617678 -2.030233 -2.115631 0.591466 -1.241611 3.595858 3.775582 -1.693837 -2.147223 1.442841 1.327562 1.084946 0.581223
wb_dma_ch_pri_enc/wire_pri14_out 1.806290 0.657132 -0.978429 -0.340539 1.617619 -0.139424 -1.399068 -1.341820 2.147335 -0.187204 0.729386 2.425745 -0.818625 -2.547838 0.658063 -1.094812 -0.924390 0.389136 1.487839 -0.150595
wb_dma_ch_sel/always_39/case_1/stmt_1 4.631104 0.426520 -1.875583 -1.191377 1.313601 2.231725 -0.398823 4.755548 -1.737267 -0.124378 -2.001374 -0.212220 0.794594 0.182656 -0.588365 -0.863866 2.612780 -0.010674 1.474262 -3.912105
wb_dma_rf/wire_ch6_csr -2.951042 0.132034 -1.729503 0.102912 -3.062656 -1.524578 -0.108244 -1.303151 -3.257292 1.869370 -2.552395 -0.323710 1.484370 -1.797480 -0.278275 -0.056457 0.904156 -0.925770 -4.035045 2.343071
wb_dma_ch_rf/always_11/if_1/if_1/stmt_1 3.604870 -0.485938 0.178871 -0.267983 1.122922 0.785637 -0.729968 4.681030 -0.968475 -1.660576 0.282793 -0.707048 1.115361 3.550211 -0.080860 -1.575780 -0.264892 -0.565967 2.609537 0.444224
wb_dma_wb_if/input_wb_we_i 3.082131 -2.463734 -0.177421 1.836049 1.069770 0.658456 -1.371986 3.633639 -2.374673 -3.349190 3.737365 3.946531 1.434091 6.549356 0.045859 -4.237637 -3.201040 1.771111 3.055982 4.902471
wb_dma_ch_sel/assign_141_req_p0 2.694122 2.031399 0.086214 -0.742388 -0.675447 -1.180006 -2.121798 1.556508 -0.757688 -0.467893 -0.847877 -1.170930 0.660152 2.625384 -1.209109 0.374117 0.771467 -2.848083 0.708963 0.037902
wb_dma_ch_arb/always_2/block_1/case_1/if_1/block_1/if_1/if_1/if_1/if_1/if_1/if_1/cond 2.195308 -0.260213 -2.292235 -2.632486 -1.286618 0.341994 1.496397 4.990752 -1.709881 -1.574075 -0.640989 -0.350055 1.876126 3.513088 -1.738459 -1.430862 0.928569 2.178051 1.290676 -0.268548
wb_dma_ch_sel_checker 1.249599 0.803877 0.230396 -1.204138 -0.476941 -0.618043 -0.641854 -1.769306 0.945392 -0.162980 -0.145047 1.299857 0.188194 -0.023560 -0.130661 -0.232372 0.047892 -0.474884 0.983537 1.967719
wb_dma_ch_rf/reg_ch_dis 1.942303 1.532846 -1.282746 -1.968831 -0.062926 -2.273619 -2.202077 -0.126104 1.361305 -1.002606 -2.315928 -0.974133 2.071615 -1.870738 1.202005 1.389861 -0.798540 -0.859343 -0.623921 0.917135
wb_dma_ch_rf/always_2/if_1/if_1/block_1/if_1/if_1 1.360696 1.358807 0.550255 -0.417421 0.307146 0.236978 1.348747 -3.311725 2.539973 2.577954 -1.070572 3.249997 -1.653896 -1.835192 -1.304789 -0.292681 3.346996 0.255536 -0.258663 -2.358668
wb_dma_ch_arb/always_2/block_1/case_1/if_1/block_1/if_1/if_1/if_1/if_1/if_1/if_1/if_1/if_1/if_1/if_1/if_1/if_1/if_1/if_1/if_1/if_1/if_1/if_1/if_1/if_1/if_1 1.513701 0.304777 -2.467180 -0.772207 -1.285481 -1.527005 1.125644 4.631064 -2.050206 -2.112944 0.547078 -1.242784 3.580305 3.776249 -1.690606 -2.178677 1.469303 1.235031 1.122793 0.533191
wb_dma_ch_rf/wire_pointer_we -2.357986 -0.002637 -0.443587 0.706913 -0.699905 -0.735788 0.508958 -1.947643 -1.590287 -0.028540 -0.868804 -0.797626 -0.152043 -1.215703 -0.224805 -0.441631 0.708353 -0.884484 -2.926237 0.687649
wb_dma_ch_sel/always_46/case_1/stmt_1 0.093902 -1.909021 -0.168682 0.281545 -0.295755 2.218154 -0.451277 0.806927 -2.395350 0.742253 0.050334 2.432871 -0.579639 2.030484 -0.389963 -0.605177 -1.499402 1.070051 -0.432374 0.634573
wb_dma_wb_slv/always_3/stmt_1 -2.444267 -1.205821 -2.622093 -2.051914 0.209508 -3.777592 1.913388 -3.685225 -1.690211 -1.593405 -2.990741 -2.227976 1.919851 -0.126708 0.119406 -4.117524 1.970752 -0.242544 -5.254206 1.691805
wb_dma_ch_rf/always_2/if_1/if_1 1.297268 1.370230 0.555168 -0.393683 0.333637 0.114583 1.329320 -3.276895 2.508577 2.604047 -1.104894 3.245622 -1.662747 -1.890294 -1.246836 -0.365119 3.201776 0.188250 -0.352092 -2.226555
wb_dma_pri_enc_sub/assign_1_pri_out 1.755162 0.560285 -0.988651 -0.310460 1.672929 -0.104035 -1.388386 -1.243055 2.182466 -0.206860 0.802785 2.423422 -0.854254 -2.514658 0.736190 -1.129132 -1.006168 0.469011 1.467542 -0.178499
wb_dma_ch_sel/input_ch0_adr0 0.767464 0.521990 1.259318 -4.824462 -5.108285 -2.116502 0.042979 -2.125782 1.389885 -0.387484 0.171018 -0.551856 0.132758 5.135497 -1.575198 -0.154122 3.078716 -0.956460 0.776186 3.055589
wb_dma_ch_sel/input_ch0_adr1 -0.647259 0.364480 -0.239434 2.084175 0.013766 -1.905340 -0.213213 0.024250 -0.389675 -0.759357 1.517967 -1.131866 2.065642 0.479712 -0.018347 -0.888406 0.674792 -0.795935 -0.027582 0.738858
wb_dma_wb_slv/assign_4 -6.373243 1.351444 -2.464020 1.988408 3.184766 -3.390746 3.429591 1.218318 -3.316442 2.260931 -0.639711 -1.024859 1.931887 -0.686570 -1.010027 -1.377427 -2.012217 -0.264947 -1.878272 0.740142
wb_dma_wb_mast/input_wb_data_i -3.176699 2.574636 -0.037265 1.275005 -0.722409 -2.611953 0.926877 -1.474969 -2.481845 0.501785 -3.285235 1.301011 -0.107864 -1.772803 -0.326744 -0.355541 0.616769 -0.899451 -4.418169 3.611523
wb_dma_ch_arb/always_2/block_1/case_1/if_2/block_1/if_1/stmt_1 2.004449 0.682514 0.457874 -0.351534 0.542208 1.179934 0.453494 -2.289495 2.428169 1.611322 0.580460 1.080066 0.156331 -1.633146 -0.760298 -0.295060 3.456858 -0.292753 1.584635 -2.645145
wb_dma_de/wire_adr1_cnt_next1 -0.769163 -2.302794 -1.470253 -1.807877 -1.142077 0.280252 1.844316 1.250179 2.292745 0.801523 0.078182 -1.598326 2.854168 -1.691590 0.741469 -0.241296 2.399384 3.030852 -0.047011 -2.978814
wb_dma_ch_sel/inst_u2 -1.550257 -0.793971 -1.216590 0.807833 1.288605 -1.287573 -0.975603 0.073140 0.909854 -0.076190 1.212715 0.858665 -0.677776 -1.736171 1.212582 -1.881246 -2.279323 0.764021 -0.202605 0.257636
wb_dma_ch_sel/inst_u1 1.440896 2.219742 -2.516349 -2.358472 -2.216202 -1.413656 4.339237 -0.146511 1.343334 0.238118 -1.446448 0.649874 4.826327 -0.602025 -3.573599 -0.920613 5.985437 2.847390 -0.307406 -1.546588
wb_dma_ch_sel/inst_u0 1.874330 0.699465 -0.917018 -0.407573 1.537836 -0.071153 -1.389780 -1.368453 2.094742 -0.219954 0.721664 2.393822 -0.794352 -2.490896 0.639048 -1.022813 -0.828528 0.347952 1.529160 -0.079059
wb_dma_ch_pri_enc/assign_1_pri_out_tmp/expr_1/expr_1/expr_1/expr_1/expr_1/expr_1/expr_1/expr_1/expr_1/expr_1/expr_1 1.843237 0.645202 -0.955908 -0.370936 1.537803 -0.076267 -1.397822 -1.301215 2.076581 -0.225690 0.690282 2.388376 -0.757696 -2.487107 0.626242 -1.072020 -0.847454 0.376880 1.481047 -0.114684
wb_dma/wire_adr0 -2.434451 2.659264 0.766295 -4.110421 -3.483497 -3.559952 1.055135 -2.791990 1.560290 0.602667 -0.452940 -0.787150 -0.904948 3.021552 -3.060755 -0.693888 2.408674 -1.432388 -0.869490 1.541956
wb_dma/wire_adr1 -1.914560 -0.306328 0.032458 2.753504 0.244748 -1.815111 0.605063 -0.804486 0.751300 1.113858 2.322172 -1.599001 2.290226 -0.239515 -0.272001 -1.806552 2.818530 -0.870623 -0.151456 -1.471996
wb_dma_ch_sel/assign_131_req_p0/expr_1 1.150186 0.430578 -0.376938 0.145672 -0.396905 -0.429925 0.765607 2.371357 -0.003793 0.792879 0.030339 -1.691060 2.445138 1.847155 -1.779224 -1.516948 2.341899 -0.975097 0.687465 -1.153966
wb_dma_ch_arb/always_2/block_1/case_1/if_4/block_1/if_1/if_1/if_1/if_1/if_1/if_1/if_1/if_1/if_1 3.471633 1.436716 0.202086 -1.185080 0.385026 1.213446 -0.472877 -1.373150 1.314973 -0.179131 -0.381900 1.652320 -0.198288 -0.846805 -0.523884 0.715392 1.321079 -0.253541 1.814959 -0.481293
wb_dma_ch_rf/assign_18_pointer_we -1.863654 0.022728 -0.487602 0.398947 -0.603810 -0.650027 0.387179 -1.745751 -1.325923 -0.192895 -0.816480 -0.720332 -0.082778 -1.015973 -0.211303 -0.445299 0.794374 -0.749356 -2.604670 0.507339
wb_dma_ch_rf/assign_15_ch_am0_we/expr_1 0.121389 -1.766535 -0.215057 0.258150 -0.255673 2.083550 -0.414604 0.812935 -2.338615 0.714139 -0.007018 2.335811 -0.482487 1.965385 -0.459144 -0.619259 -1.399132 0.990651 -0.407931 0.603263
wb_dma_ch_sel/wire_req_p0 -0.334840 3.561860 -1.861240 0.887669 1.016530 -0.930442 5.014329 -0.190896 -0.498197 0.154727 -0.757854 1.337216 2.175799 -1.110879 -4.417630 -1.686057 3.712325 1.696835 -0.634519 -1.604370
wb_dma_ch_sel/wire_req_p1 -1.481600 -0.735891 -1.149812 0.795294 1.247466 -1.240271 -0.945989 0.071563 0.801801 -0.054208 1.099868 0.816419 -0.644097 -1.638716 1.152905 -1.734473 -2.155343 0.674006 -0.231818 0.287260
wb_dma/wire_ndnr 3.542961 0.709982 -1.141717 -0.178668 1.388865 2.777637 1.602285 0.514619 -1.184617 0.915504 -1.544789 0.113990 2.903980 -2.463847 -1.101723 -1.145112 4.518264 -0.127841 1.652996 -1.950893
wb_dma_de/reg_mast0_drdy_r 3.373075 2.655837 0.738620 -1.319102 -0.806525 2.126214 1.078083 -3.690937 0.524662 -1.976578 0.310777 1.573006 0.648072 -0.323312 -1.709768 3.203278 1.132715 0.547987 2.062279 1.772748
wb_dma_ch_pri_enc/assign_1_pri_out_tmp/expr_1/expr_1/expr_1/expr_1/expr_1/expr_1/expr_1/expr_1/expr_1/expr_1/expr_1/expr_1/expr_1/expr_1/expr_1/expr_1/expr_1/expr_1/expr_1/expr_1/expr_1/expr_1/expr_1/expr_1/expr_1 1.841029 0.699468 -0.908605 -0.377757 1.529624 -0.064163 -1.322592 -1.417512 2.083492 -0.194122 0.693932 2.394755 -0.787819 -2.470443 0.638689 -0.976055 -0.841894 0.388074 1.470689 -0.081700
wb_dma_ch_rf/always_20/if_1/block_1/if_1/if_1/if_1 -3.197455 0.113496 -0.236625 -4.181534 -3.100066 -2.097934 -0.116592 -0.239487 -1.448863 1.839515 -2.070721 0.631409 -1.878158 3.470865 -1.305655 -0.895182 0.089233 -0.426473 -2.318051 1.276592
wb_dma_ch_sel/assign_137_req_p0 3.081007 1.942905 0.225834 -0.664708 -0.524279 -0.910699 -2.221081 1.937569 -0.679377 -0.603118 -0.569540 -1.238278 0.657525 2.903595 -1.137594 0.372202 0.827787 -2.809822 1.017023 -0.230820
wb_dma_rf/wire_pointer2 1.171580 0.799127 0.274273 -1.229245 -0.571816 -0.713529 -0.611060 -1.782164 0.907502 -0.144840 -0.127555 1.300409 0.220060 0.096756 -0.159724 -0.294176 0.054556 -0.465076 0.969394 2.026520
wb_dma_rf/wire_pointer3 2.695002 1.958346 0.354059 -1.267905 0.025506 0.296670 0.556249 -2.555833 1.499670 0.882822 -2.083820 4.081235 -2.185169 -1.095104 -1.045105 0.698164 1.211179 0.433971 -0.192702 -0.193373
wb_dma_rf/wire_pointer0 -0.880461 1.273652 1.482696 1.327106 -0.676632 1.627902 0.554187 -3.767116 0.771300 4.100449 -0.794394 1.786629 -1.564923 -4.722488 -0.604455 0.712103 3.426009 -1.679245 -0.260916 -1.458797
wb_dma_rf/wire_pointer1 3.444141 1.391378 0.222047 -1.184726 0.320078 1.169863 -0.489681 -1.415670 1.341100 -0.197373 -0.370096 1.654082 -0.174103 -0.789532 -0.505983 0.729021 1.291536 -0.285316 1.782999 -0.357271
wb_dma_rf/wire_sw_pointer0 -1.296360 0.625291 -0.504074 0.362247 0.162673 -2.078146 0.025781 -0.473641 0.157646 -1.027930 -1.077036 -0.370397 -0.354690 -1.594141 1.183058 0.171830 -0.114582 0.207819 -2.256135 0.271030
wb_dma_de/always_21/stmt_1 3.237630 2.660396 0.771792 -1.357474 -0.895116 2.096318 1.137895 -3.770200 0.492868 -1.969815 0.265749 1.562937 0.614597 -0.270808 -1.746663 3.206890 1.196129 0.508096 1.976254 1.867401
wb_dma_ch_rf/assign_13_ch_txsz_we/expr_1/expr_1 3.834353 1.323599 -1.008793 -1.058782 1.851035 1.862435 0.709925 -0.051521 -0.120946 0.697515 -1.848186 -1.640968 4.363313 -3.169289 -0.527686 -0.994239 4.232460 -1.474875 2.299407 -0.973667
wb_dma_ch_rf/assign_13_ch_txsz_we/expr_1/expr_2 2.431283 -0.170455 1.870752 -0.325936 0.981188 0.092201 -2.264489 2.846191 -0.402245 -0.292129 -1.164049 -1.010131 0.033614 2.893918 0.502025 -0.916582 -2.609652 -3.029853 1.452943 3.096819
wb_dma_ch_arb/input_advance 4.674694 0.440195 -1.953417 -1.255808 1.303905 2.268746 -0.418975 4.673604 -1.730212 -0.108876 -2.045040 -0.132155 0.829462 0.108051 -0.603614 -0.852884 2.665915 0.003198 1.483356 -3.905546
wb_dma_de/always_7/stmt_1 2.384939 0.242677 -0.349052 1.088126 2.161452 3.894961 0.334816 3.452670 -3.573242 0.577266 -3.744382 -2.015998 1.271000 -2.458932 -0.114441 1.051270 0.322402 -1.531497 -0.759913 -1.475348
wb_dma_ch_rf/assign_22_ch_err_we/expr_1 4.037722 1.489659 -2.326822 -3.087183 0.171202 -0.629328 -1.981996 1.744624 0.700970 -1.247896 0.085129 2.105564 -0.591007 1.163067 -0.700855 -1.413662 0.343092 0.486116 2.517310 -1.144569
wb_dma_ch_arb/always_2/block_1/case_1/if_4/block_1/if_1 3.473041 1.420450 0.219781 -1.243653 0.306448 1.184597 -0.490137 -1.422438 1.278232 -0.175461 -0.395267 1.658884 -0.141473 -0.808670 -0.546456 0.675409 1.342811 -0.291267 1.792489 -0.363390
wb_dma_de/always_3/if_1/cond -0.639747 0.321325 -0.172877 2.091616 0.024397 -1.834944 -0.285688 0.033609 -0.355518 -0.737537 1.512359 -1.119799 1.917265 0.597812 0.012712 -0.818767 0.604125 -0.794323 -0.011031 0.748919
wb_dma_ch_arb/always_2/block_1/case_1/if_1/block_1/if_1/if_1/if_1/if_1/if_1/cond 2.149533 -0.170579 -2.273036 -2.738201 -1.360210 0.231324 1.499249 4.875731 -1.720640 -1.501858 -0.716429 -0.295326 1.838739 3.593866 -1.790109 -1.439582 0.887942 2.149892 1.259920 -0.117826
wb_dma_ch_sel/assign_101_valid -1.566915 -0.148167 -1.915748 -3.381196 -4.188404 -1.535916 -1.846082 0.109231 -3.212012 2.474202 -1.343791 -3.661582 3.397842 2.147693 -1.261176 -0.425677 4.046084 -2.675368 -0.710110 -1.167812
wb_dma_ch_sel/assign_98_valid -1.305210 -0.209139 -1.814766 -3.380099 -4.033871 -1.388296 -1.844912 0.094873 -3.064146 2.470132 -1.410843 -3.454759 3.464941 1.947841 -1.135834 -0.545104 3.949132 -2.713773 -0.496828 -0.916977
wb_dma_ch_arb/always_2/block_1/case_1/if_1/block_1/if_1/if_1/if_1/if_1/if_1/if_1/if_1/if_1/if_1/if_1/if_1/if_1/if_1/if_1/if_1/if_1/if_1/if_1/if_1/if_1/if_1/if_1/cond 2.445140 0.878708 -1.361907 -2.781279 -1.385315 -0.514516 -0.677800 3.148024 -1.356329 -1.094911 -0.600580 -0.223132 0.256860 3.793394 -1.386022 -0.402364 1.212240 0.040468 1.141226 -0.885582
wb_dma_ch_arb/always_2/block_1/case_1/if_1/block_1/if_1/if_1/if_1/if_1/if_1/if_1/if_1/if_1/if_1/if_1/if_1/if_1/if_1/if_1/if_1 1.345163 0.141374 -2.412268 -0.691718 -1.362234 -1.512728 1.282096 4.693494 -2.066321 -2.166581 0.721772 -1.322847 3.667815 3.884763 -1.734011 -2.160212 1.464813 1.374520 1.138960 0.630296
wb_dma_ch_pri_enc/always_2/if_1/if_1/cond 1.948623 0.701127 -0.937224 -0.423153 1.533908 0.013158 -1.328953 -1.307477 2.012103 -0.173761 0.606358 2.356995 -0.737036 -2.456652 0.595588 -1.011424 -0.714623 0.386708 1.458792 -0.184163
wb_dma_rf/wire_ch7_csr -2.740078 0.087577 -1.647323 0.231579 -3.037296 -1.320509 -0.265771 -1.308182 -3.340893 1.856809 -2.427949 -0.358712 1.615662 -1.660488 -0.329987 -0.059171 0.962790 -1.061411 -3.884969 2.305556
wb_dma_ch_sel/reg_csr -0.933363 -0.693838 0.028308 -0.232936 -1.673202 -0.204699 1.313504 1.962390 -2.566831 1.342378 -4.571455 2.931227 -2.186717 -0.113314 0.237622 -0.641053 -2.773477 0.643343 -3.915149 4.873564
wb_dma_de/reg_next_state -2.309780 1.154361 -1.117531 -1.013434 0.526188 -2.186710 -0.253643 0.026514 -1.464573 4.000383 -2.333664 1.257720 1.333312 -0.154616 -1.802435 -1.602042 -1.355640 -1.213662 -0.173587 0.576269
wb_dma_de/always_23/block_1/case_1/block_1/if_1/if_1/block_1/if_1/cond 5.071620 -2.649869 0.534420 -4.201335 -0.973136 2.136872 0.659854 3.081414 -2.145081 4.104722 -5.287268 6.185314 -1.273627 2.945461 0.323788 -4.634720 4.552616 0.573684 1.017312 0.735389
wb_dma_de/always_11/stmt_1/expr_1 -0.599505 0.320956 -0.179884 2.040298 -0.004019 -1.766989 -0.226907 0.120859 -0.360404 -0.772806 1.504557 -1.121020 1.976283 0.580866 -0.002777 -0.805334 0.642893 -0.725376 0.025284 0.683171
wb_dma_ch_rf/input_ptr_set 3.550076 1.426942 0.213300 -1.186477 0.375828 1.240025 -0.504999 -1.351588 1.348034 -0.182894 -0.414948 1.646172 -0.194814 -0.841406 -0.540291 0.729499 1.314555 -0.258694 1.830930 -0.470823
wb_dma_ch_rf/always_23/if_1/block_1/if_1/if_1/if_1 -1.937047 -0.349284 0.062067 2.782666 0.238936 -1.777184 0.667539 -0.812667 0.739009 1.047941 2.433404 -1.665281 2.325082 -0.223412 -0.274429 -1.808979 2.899898 -0.840660 -0.130925 -1.551939
wb_dma_ch_sel/assign_12_pri3 3.531874 1.431724 0.248366 -1.214176 0.373367 1.217921 -0.479136 -1.455104 1.370165 -0.175237 -0.366833 1.709584 -0.211197 -0.894438 -0.524061 0.766541 1.297024 -0.238312 1.807863 -0.435693
wb_dma_de/assign_65_done/expr_1/expr_1 2.048376 -0.149094 -1.195717 -0.412345 2.388593 0.374254 -2.783626 3.144702 -0.435395 1.117692 -2.301701 0.200311 -0.850057 -1.897624 1.124183 -1.968340 -1.947613 -1.861635 0.098993 -0.878162
wb_dma_ch_pri_enc/always_2/if_1/if_1/if_1/stmt_2 3.612509 1.455331 0.243620 -1.193044 0.399488 1.300676 -0.481469 -1.376215 1.378181 -0.206867 -0.371167 1.691956 -0.186630 -0.841824 -0.506342 0.745711 1.338266 -0.241657 1.917851 -0.482422
wb_dma_ch_pri_enc/always_2/if_1/if_1/if_1/stmt_1 -1.478308 -0.695337 -1.104195 0.777701 1.216460 -1.210134 -0.904386 0.071775 0.850145 -0.037693 1.118766 0.764420 -0.593442 -1.619095 1.116062 -1.693080 -2.129921 0.681236 -0.241430 0.259893
wb_dma_ch_arb/always_2/block_1/case_1/if_1/block_1/if_1/if_1/if_1/if_1/if_1/if_1/if_1/cond 2.154411 -0.122552 -2.193086 -2.886232 -1.516111 0.251740 1.426740 4.762423 -1.675843 -1.580971 -0.658745 -0.232666 1.740584 3.710339 -1.815101 -1.280650 0.938050 2.156933 1.334738 -0.111503
assert_wb_dma_ch_sel/input_valid 2.497904 0.660462 -0.013977 0.005783 0.940138 2.017919 0.115318 0.394751 0.506351 -0.107769 -0.210833 0.438466 -0.479007 -0.896184 -0.334820 1.059363 1.291095 0.226439 0.980226 -2.537827
wb_dma/input_wb0_stb_i 2.856615 1.009351 0.422576 0.247372 -0.620691 -1.904824 -1.050183 3.195083 -0.458041 -3.301837 2.799620 -1.365342 2.079246 6.345927 -1.163761 -0.878521 0.229845 -1.055826 2.969052 1.702381
wb_dma/wire_ch1_csr -1.090907 -0.727367 -1.805143 -0.110790 -4.120883 -1.007881 -1.191847 -1.018331 -3.925829 0.085477 -2.726782 -0.485223 2.179607 -1.223913 1.298547 1.393014 -0.245130 -0.573501 -3.730069 4.549769
wb_dma_rf/assign_5_pause_req -1.698387 3.586384 -1.282040 -1.094175 2.160251 -4.140874 -1.390487 0.117732 1.720830 3.067129 -2.835054 2.104989 -2.825901 -0.753908 -2.197902 -1.392719 -4.665962 -1.816420 -1.534264 0.008106
wb_dma_de/always_12/stmt_1 2.099836 -0.068550 -1.234808 -0.451682 2.429431 0.315879 -2.832080 3.065594 -0.304511 1.060749 -2.172741 0.379434 -0.881404 -1.929303 1.117906 -2.054867 -1.914398 -1.751268 0.196711 -0.866940
wb_dma_wb_if/wire_wb_ack_o -2.205300 2.642639 -1.297822 1.669589 1.891651 -2.209297 0.348446 -1.037731 -1.406703 -0.235344 -0.777511 0.048222 0.540120 -1.635065 0.019710 0.220755 -0.385048 -1.228716 -2.457713 0.993822
wb_dma_ch_rf/always_5/if_1/block_1 -1.894683 -0.039172 -0.526259 0.384238 -0.701491 -0.735381 0.464143 -1.848914 -1.285624 -0.309804 -0.723186 -0.835863 -0.055413 -0.990653 -0.208193 -0.429701 0.964374 -0.683969 -2.680515 0.427543
wb_dma_de/always_23/block_1/case_1/block_1/if_1/if_1/cond/expr_1 4.118322 1.404045 -2.234928 -3.016254 0.222485 -0.586650 -1.959094 1.910272 0.647525 -1.236452 0.075072 2.079955 -0.468759 1.335532 -0.700667 -1.535501 0.340714 0.431317 2.543785 -0.992379
wb_dma_ch_arb/assign_1_gnt 0.261772 1.530487 -3.646596 -1.984116 -1.425436 -2.406509 3.440344 -0.026787 2.096881 0.174539 -0.393347 1.354803 4.224633 -1.816736 -2.690585 -2.358730 4.221496 3.515551 -0.401256 -1.515111
wb_dma_rf/input_dma_err 3.810225 1.381989 -2.369845 -2.990269 0.205059 -0.635783 -1.913359 1.695119 0.699206 -1.154579 0.130945 2.144277 -0.661656 1.011099 -0.657821 -1.512102 0.279232 0.556399 2.348003 -1.186314
wb_dma/wire_wb0_addr_o -0.618266 0.394167 -0.180815 1.995817 0.043725 -1.782092 -0.256344 -0.017731 -0.291795 -0.715910 1.411086 -1.058574 1.934770 0.420875 0.022861 -0.785692 0.601462 -0.794827 -0.019223 0.679967
wb_dma_de/assign_73_dma_busy/expr_1 -1.091505 1.910483 -0.043282 -0.246539 3.581254 -0.728509 0.246758 0.715391 2.050510 2.580882 -3.308040 -2.674117 -1.144814 -0.831492 -1.916608 0.227928 -3.021599 -2.545809 -2.986307 -2.902536
wb_dma/input_dma_nd_i 4.731410 0.444631 -1.919834 -1.249545 1.345770 2.219778 -0.410079 4.840571 -1.765169 -0.119940 -2.037526 -0.163149 0.883498 0.207290 -0.627300 -0.894370 2.600664 -0.048157 1.517748 -3.871248
wb_dma_ch_rf/always_1/stmt_1/expr_1/expr_2/expr_2 -1.745757 0.449357 2.030739 -0.462133 -1.258147 -0.647748 -1.133968 -0.714458 0.440606 0.275055 -0.107334 -1.274099 -2.295949 2.391407 -0.416963 2.310249 -2.557215 -1.689755 -1.210387 0.985523
wb_dma_ch_rf/always_1/stmt_1/expr_1/expr_2/expr_1 -1.661183 0.524270 1.997955 -0.510736 -1.335946 -0.631731 -1.121843 -0.750051 0.505289 0.194804 -0.001274 -1.228470 -2.237769 2.503506 -0.480166 2.289729 -2.451137 -1.651920 -1.082924 0.963192
wb_dma_pri_enc_sub/always_3/if_1/if_1/if_1/cond -1.589165 -0.750696 -1.158305 0.823278 1.207311 -1.310502 -0.879897 0.053780 0.802373 -0.003964 1.125428 0.817900 -0.638453 -1.683255 1.183013 -1.794895 -2.207349 0.671127 -0.289066 0.304693
wb_dma_de/always_14/stmt_1/expr_1/expr_1 3.969953 1.423938 -2.223986 -3.053899 0.144041 -0.681271 -1.979476 1.629182 0.777100 -1.268085 0.240837 2.216015 -0.663830 1.297889 -0.689423 -1.483601 0.284347 0.538886 2.525541 -0.976675
wb_dma_ch_sel/assign_3_pri0 4.511196 0.408234 -1.885450 -1.187542 1.284968 2.164220 -0.367890 4.623063 -1.774027 -0.080376 -2.018702 -0.151315 0.783041 0.161432 -0.621794 -0.850335 2.621408 0.005906 1.363353 -3.882559
wb_dma_de/always_23/block_1/stmt_8 -0.556070 0.326490 -0.189530 1.976357 0.034267 -1.752667 -0.275393 0.085744 -0.339653 -0.745778 1.415406 -1.059719 1.910762 0.500315 -0.001948 -0.816085 0.627881 -0.775291 0.035496 0.671232
wb_dma_ch_arb/always_2/block_1/stmt_1 0.234793 1.615451 -3.532998 -1.905358 -1.256081 -2.509940 3.271296 0.173131 2.071933 0.111484 -0.326848 1.175450 4.111060 -1.667155 -2.672885 -2.373449 4.067564 3.350132 -0.341650 -1.645476
wb_dma_de/always_23/block_1/stmt_1 -2.086064 1.247352 -1.327791 -1.083939 0.463152 -2.155244 -0.366079 -0.097912 -1.468945 3.988397 -2.298556 1.318456 1.575668 -0.235088 -1.867889 -1.632652 -1.301033 -1.249007 0.045477 0.681215
wb_dma_de/always_23/block_1/stmt_2 3.270880 0.901265 -0.028766 0.058974 1.638862 3.204655 -0.240090 1.706002 -2.710889 0.500547 -3.820139 -0.869587 1.420726 -2.406366 -0.193289 0.846058 0.190169 -2.020470 0.035198 0.542220
wb_dma_de/always_23/block_1/stmt_4 3.048280 2.877746 0.662631 -2.219157 0.182149 0.679812 -0.237418 -0.776315 -0.637379 0.116204 -4.183387 -0.049661 0.086467 -0.427773 -1.179397 2.137772 -0.101757 -2.162126 -0.387531 1.943249
wb_dma_de/always_23/block_1/stmt_5 7.227773 0.012486 -0.770779 -1.540370 1.508519 3.257867 0.025403 2.678725 -1.491629 -1.022416 -2.158983 3.323686 1.532618 0.224469 -0.159233 -2.231035 2.561983 0.715328 3.031470 0.717731
wb_dma_de/always_23/block_1/stmt_6 3.463208 -0.465152 0.165245 -0.271698 1.053014 0.727172 -0.706193 4.558423 -0.933815 -1.620120 0.269970 -0.676936 1.133583 3.463373 -0.080725 -1.551518 -0.288821 -0.572474 2.543147 0.481526
wb_dma_rf/inst_u25 4.175234 1.583600 -2.219524 -3.188773 0.084700 -0.605468 -1.957848 1.576856 0.809571 -1.341372 0.174454 2.228018 -0.605601 1.266418 -0.817082 -1.263908 0.398718 0.537562 2.604000 -1.015505
wb_dma_wb_mast/input_mast_go -1.668090 -0.746248 -1.157066 0.786446 1.194893 -1.296576 -0.899959 0.032327 0.788099 -0.021848 1.091366 0.751411 -0.600025 -1.690321 1.152263 -1.757841 -2.170761 0.685585 -0.363797 0.315210
wb_dma_ch_rf/assign_20_ch_done_we/expr_1/expr_2/expr_1 -0.278959 -0.751630 1.673141 1.072965 1.189423 0.350536 -1.230373 2.950238 -0.732287 0.370151 -1.085939 -2.135686 -0.863337 1.501563 0.755127 0.089957 -2.666807 -2.296788 -0.624807 0.646802
wb_dma_ch_sel/assign_125_de_start/expr_1 0.238351 1.843381 -0.455169 -0.462625 0.073228 -2.727344 -4.177767 0.388537 1.156608 -0.425693 0.273791 -2.381586 3.410812 -2.908933 1.906296 1.949697 -2.532305 -2.299904 2.713261 1.979644
wb_dma_de/always_23/block_1/case_1/block_2/if_1 -3.243132 2.891029 -0.908667 -0.054535 2.193810 -3.874779 -0.370272 -0.213179 1.494671 2.792465 -1.527177 -0.653314 0.108936 -1.440151 -1.747867 -0.964963 -3.535238 -1.909338 -0.918729 0.147954
wb_dma_ch_sel/assign_151_req_p0 2.840918 2.043452 0.001542 -0.891306 -0.708311 -1.180475 -2.160589 1.767767 -0.814087 -0.499706 -0.859927 -1.187214 0.763031 2.825912 -1.240812 0.297447 0.858362 -2.837137 0.762661 -0.000065
wb_dma_ch_rf/always_6/if_1/if_1/block_1/if_1/block_1/if_1/cond 4.000037 1.685481 -2.178248 -1.820235 0.655073 1.107567 -0.360866 0.516340 -0.757703 -1.957292 -0.358608 1.771923 1.095847 -0.781671 -0.862574 -0.313147 0.391805 0.939085 2.285569 0.617883
wb_dma_wb_mast/reg_mast_dout -3.186672 2.530411 -0.107344 1.203859 -0.756045 -2.633679 0.799018 -1.471732 -2.534213 0.536518 -3.146889 1.136044 0.085996 -1.684701 -0.325155 -0.402726 0.568736 -1.026047 -4.290155 3.569908
wb_dma_ch_rf/always_20/if_1/block_1/if_1/if_1 -3.235669 -0.073004 -0.136477 -4.144574 -3.183489 -1.992799 -0.048390 -0.341399 -1.446115 1.950676 -2.025103 0.719800 -1.860790 3.521469 -1.274396 -0.966942 0.038270 -0.383792 -2.304327 1.514440
wb_dma_ch_arb/always_2/block_1/case_1/if_2/block_1/if_1/if_1/if_1/if_1/if_1/if_1 -1.358966 -0.728181 -1.155047 0.766388 1.220581 -1.168645 -0.923413 0.050725 0.845666 -0.095521 1.141266 0.828851 -0.648957 -1.650578 1.133558 -1.674221 -2.132278 0.687151 -0.167039 0.223057
wb_dma_ch_sel/assign_100_valid -1.441839 -0.163071 -1.884984 -3.482466 -4.151395 -1.534965 -1.854280 0.071879 -2.960207 2.423110 -1.400169 -3.653141 3.466690 1.944213 -1.135361 -0.405411 3.914946 -2.674728 -0.607515 -1.034315
wb_dma_ch_sel/assign_131_req_p0 1.262552 0.374233 -0.360911 0.072120 -0.450383 -0.426959 0.704424 2.394559 0.047139 0.751619 0.091015 -1.706844 2.419559 1.978638 -1.805469 -1.505409 2.529008 -0.993533 0.760012 -1.311916
wb_dma_ch_sel/assign_135_req_p0/expr_1 2.949944 1.939167 0.149232 -0.770273 -0.585342 -0.996303 -2.204863 1.885677 -0.750520 -0.503825 -0.785005 -1.173298 0.690864 2.818953 -1.191237 0.308092 0.791257 -2.845217 0.866409 -0.063834
wb_dma_ch_arb/always_2/block_1/case_1/if_1/block_1/if_1/if_1/if_1/if_1/if_1/if_1/if_1/if_1/if_1/if_1/if_1/if_1/if_1/if_1/if_1/if_1/if_1/if_1/if_1/if_1/if_1/if_1/if_1/if_1/if_1/cond 2.537554 0.957898 -1.420370 -2.921173 -1.410753 -0.515092 -0.673991 3.068200 -1.298701 -1.182076 -0.557640 -0.112758 0.255886 3.826656 -1.434284 -0.372313 1.224206 0.153266 1.220323 -0.911385
wb_dma_ch_rf/input_dma_done_all 3.397339 0.984964 0.002021 0.023492 1.580279 3.234044 -0.183678 1.625184 -2.683409 0.414931 -3.782570 -0.828631 1.539271 -2.337842 -0.223568 0.854338 0.245102 -2.003844 0.155724 0.691799
wb_dma_ch_rf/assign_23_ch_csr_dewe/expr_1 5.810145 0.828493 -0.500809 -0.221214 1.521668 3.658196 2.657717 0.308303 -2.809221 -0.662464 -4.076906 5.010320 1.310817 -1.797652 -0.794277 -1.272464 2.310532 1.726944 0.598610 2.735939
wb_dma_pri_enc_sub/wire_pri_out 1.673371 0.590942 -0.934599 -0.353729 1.539409 -0.195069 -1.380141 -1.304733 2.043977 -0.179817 0.698798 2.364796 -0.796379 -2.429069 0.671040 -1.133608 -0.949082 0.385809 1.398059 -0.018857
wb_dma_ch_rf/input_wb_rf_din -1.848393 -1.323942 1.879396 0.534038 -3.294845 -0.863750 0.220526 -2.393156 -4.673389 1.110674 -0.371564 -2.542477 3.981138 3.271960 -1.115303 -3.601104 1.227140 -4.586583 0.505791 9.006638
wb_dma_de/always_23/block_1/case_1/block_3/if_1/if_1/cond 1.925119 0.243955 -1.214632 0.891509 2.864669 2.077900 -1.085012 1.631343 -1.879961 0.337107 -2.598363 0.019649 0.892390 -4.062033 0.927386 -0.878331 -1.859071 -1.245084 -0.057076 0.844142
wb_dma_ch_sel/assign_157_req_p0/expr_1 3.065774 2.052189 0.042017 -0.798561 -0.604879 -0.986145 -2.210220 1.866683 -0.798293 -0.530317 -0.803472 -1.201599 0.752279 2.782702 -1.230958 0.321550 0.933851 -2.863285 0.893619 -0.164203
wb_dma_ch_sel/assign_139_req_p0 2.973197 1.993209 0.140570 -0.741027 -0.631177 -1.079751 -2.183473 1.790900 -0.712822 -0.564159 -0.692489 -1.198571 0.732943 2.881711 -1.219516 0.378915 0.861966 -2.846120 0.894198 -0.101191
wb_dma_ch_arb/always_2/block_1/case_1/if_2/block_1/if_1/if_1/if_1/if_1/if_1/if_1/if_1/if_1/if_1/if_1/if_1/if_1/if_1/if_1/if_1/if_1/if_1/if_1/if_1/if_1/if_1/if_1/if_1/if_1/if_1/if_1/if_1/if_1 -1.459152 -0.732609 -1.113786 0.839399 1.278880 -1.224923 -0.908863 0.006795 0.854721 -0.075440 1.124206 0.794456 -0.655790 -1.689157 1.162487 -1.713918 -2.195907 0.693775 -0.203456 0.249856
wb_dma_ch_sel/always_38/case_1 0.120857 1.889345 -0.502791 -0.492815 -0.055451 -2.886338 -4.018597 0.405718 1.188996 -0.368735 0.309006 -2.352643 3.387995 -2.762439 1.794632 1.860818 -2.318554 -2.227026 2.560086 1.797356
wb_dma_ch_rf/assign_10_ch_enable/expr_1/expr_1 -4.213393 1.631879 -3.632089 -1.558158 -2.003911 -2.215785 -0.807621 -0.898870 -2.000314 5.109221 -0.019690 0.710147 3.065204 -1.120796 -2.538735 -0.226080 -0.271947 0.079614 0.473820 -0.960373
wb_dma/constraint_wb0_cyc_o -1.490654 -0.717744 -1.144889 0.821695 1.258946 -1.201047 -0.917217 0.022458 0.847541 -0.082689 1.136905 0.843589 -0.647457 -1.693147 1.202216 -1.726977 -2.168076 0.692608 -0.212651 0.275281
wb_dma/input_wb0_addr_i -4.243876 0.764914 -0.524185 -0.160608 1.039032 -5.358302 0.548195 -0.223765 -0.501027 0.887076 -1.991509 -0.267500 1.932160 0.147851 1.680159 -3.778491 -1.391707 -1.792459 -2.863750 6.327548
wb_dma_de/input_mast1_drdy 0.150884 0.070986 -2.855789 -1.452909 0.772183 -2.098345 -1.603728 0.780055 0.111645 0.488493 -0.928657 1.764748 0.113267 -2.197224 0.903700 -3.146075 -0.732877 0.352336 -0.071806 0.373836
wb_dma_ch_rf/always_19/if_1/block_1/if_1 -1.938735 -0.534508 1.507921 1.056677 0.453444 0.069508 -0.959716 0.275516 -0.385369 1.349209 -1.288625 -1.595056 -1.225674 -0.359150 0.641743 0.851397 -2.341674 -2.005105 -1.847410 0.625751
wb_dma_wb_if/input_wb_ack_i -3.462585 4.537499 -2.654117 2.803618 1.484776 -3.743399 -0.241305 -2.861204 -5.175232 -0.286068 -2.457678 1.326701 0.824825 -2.797748 -0.188338 -0.788708 0.867966 -2.521995 -4.805498 3.468383
wb_dma_ch_sel/wire_pri_out 1.959067 0.644840 -0.905519 -0.351895 1.616930 -0.014028 -1.376185 -1.323052 2.190671 -0.272334 0.797518 2.441513 -0.842187 -2.487450 0.671622 -1.026541 -0.877616 0.428188 1.605251 -0.201586
wb_dma_ch_rf/assign_3_ch_am0 0.147825 -1.794902 -0.232760 0.334776 -0.259367 2.134958 -0.416655 0.798853 -2.405538 0.689607 0.049464 2.345296 -0.472833 2.007618 -0.440078 -0.606005 -1.485261 1.044722 -0.395852 0.610008
wb_dma_rf/input_ch_sel -0.603631 3.936889 0.908866 -1.278700 1.850972 -0.845379 2.285641 -3.609433 2.225609 1.479872 -3.771663 0.829815 -2.190898 -0.165269 -3.462997 2.418783 -3.173587 -1.127764 -3.290423 0.813037
wb_dma_ch_rf/always_20/if_1/block_1/if_1/if_1/stmt_1 -4.644953 0.556311 -0.015500 -3.196897 -1.118496 -2.053540 -0.730129 -0.252150 -1.942345 1.627219 -1.996809 0.447832 -3.929818 2.248834 -0.574098 -0.097491 -1.953718 -0.835464 -2.736288 0.034395
wb_dma_de/always_23/block_1/case_1 -2.118688 1.175380 -1.214889 -1.133966 0.388582 -2.080098 -0.511863 -0.125626 -1.381402 4.115104 -2.287372 1.448883 1.416086 -0.208405 -1.836014 -1.552978 -1.328111 -1.212053 -0.041708 0.576253
wb_dma/wire_pause_req -1.520015 3.514994 -1.220607 -1.001819 2.248380 -4.137637 -1.451092 0.189088 1.919686 2.830809 -2.689728 2.105501 -2.914633 -0.768570 -2.078366 -1.421232 -4.638037 -1.731893 -1.464920 -0.114683
wb_dma_wb_if/input_mast_go -1.493844 -0.785257 -1.160479 0.837982 1.295343 -1.224486 -0.941304 0.029786 0.927116 -0.083067 1.170341 0.856993 -0.672060 -1.731476 1.221687 -1.811048 -2.253589 0.703844 -0.218567 0.226201
wb_dma_ch_rf/input_de_csr 2.527246 2.238077 0.453084 0.133930 0.597758 2.103002 2.209656 -3.708033 -0.023302 0.101686 -2.412839 3.479013 -0.330559 -3.222913 -1.142740 1.832835 1.152313 0.858618 -0.388378 1.444575
wb_dma_ch_pri_enc/assign_1_pri_out_tmp/expr_1/expr_1/expr_1/expr_1/expr_1/expr_1/expr_1/expr_1/expr_1/expr_1/expr_1/expr_1/expr_1/expr_1/expr_1/expr_1/expr_1/expr_1/expr_1/expr_1/expr_1 1.930077 0.668074 -0.952444 -0.400352 1.572935 -0.054837 -1.406891 -1.307426 2.131120 -0.223427 0.724390 2.427877 -0.772831 -2.483338 0.660683 -1.075056 -0.885279 0.391535 1.523305 -0.142017
wb_dma_de/input_mast0_din 4.031142 2.019418 1.637956 -0.749159 -0.537804 2.742312 2.837818 -4.796836 0.087904 -1.681362 -1.355442 5.976681 -0.856216 -0.163824 -1.655836 1.909324 0.845006 2.225760 0.794230 4.429245
wb_dma_pri_enc_sub/always_3 1.922403 0.636745 -0.943615 -0.385841 1.567630 -0.055537 -1.402217 -1.292568 2.134481 -0.214248 0.708222 2.418682 -0.819395 -2.514854 0.682597 -1.044081 -0.871898 0.422059 1.534083 -0.139950
wb_dma_pri_enc_sub/always_1 1.716521 0.695102 -0.918938 -0.446420 1.408848 -0.194723 -1.304944 -1.354404 1.934725 -0.152302 0.589435 2.280204 -0.694274 -2.384593 0.585031 -1.039989 -0.808906 0.278516 1.363384 0.061889
wb_dma_ch_sel/reg_adr0 -2.140818 2.477360 0.752995 -4.159951 -3.558162 -3.411638 1.053460 -2.651590 1.624287 0.586786 -0.351409 -0.731055 -0.780048 3.154172 -3.016958 -0.734421 2.547425 -1.358445 -0.717791 1.519417
wb_dma_ch_sel/reg_adr1 -1.742371 -0.303895 0.034514 2.745118 0.273228 -1.780274 0.610978 -0.768366 0.724317 0.996219 2.359189 -1.615104 2.362161 -0.204662 -0.290465 -1.800574 2.859959 -0.892299 -0.059350 -1.492845
wb_dma_ch_sel/assign_1_pri0 4.533127 0.413533 -1.928406 -1.227285 1.290168 2.143252 -0.352808 4.658369 -1.748737 -0.049790 -2.029410 -0.118933 0.793127 0.096437 -0.611609 -0.936201 2.602812 -0.016860 1.376216 -3.847688
wb_dma_ch_pri_enc/wire_pri26_out 1.878617 0.639514 -0.990982 -0.426627 1.576917 -0.106675 -1.395562 -1.266538 2.064301 -0.200593 0.648491 2.387504 -0.747077 -2.499902 0.643432 -1.098190 -0.848492 0.352796 1.486680 -0.152846
wb_dma_ch_arb/always_2/block_1/case_1/if_1/block_1/if_1/if_1/if_1/if_1/if_1/if_1/if_1/if_1/if_1/if_1/if_1/cond 2.427847 0.869048 -1.482691 -2.731587 -1.293723 -0.388618 -0.661139 3.115779 -1.407611 -1.037477 -0.703396 -0.162863 0.246713 3.520057 -1.353779 -0.446224 1.317310 0.110781 1.074757 -1.049995
wb_dma_de/assign_63_chunk_cnt_is_0_d/expr_1 2.112875 -0.037971 -1.284660 -0.492125 2.403182 0.299836 -2.863453 3.100871 -0.387573 1.117200 -2.273247 0.306902 -0.804170 -1.952912 1.108363 -2.016205 -1.878061 -1.837500 0.167841 -0.899522
wb_dma_ch_rf/always_6/if_1/if_1/block_1/if_1/stmt_1 5.175756 -2.239205 2.656272 -1.980768 -1.965265 0.910384 0.241473 4.104033 -2.282350 -1.270039 -0.553642 2.814244 3.207632 9.113688 -1.472339 -4.586181 -0.881049 -0.790789 3.804548 9.332871
wb_dma/wire_ptr_set 3.495335 1.423916 0.190373 -1.195466 0.339261 1.181614 -0.457161 -1.376567 1.277726 -0.168031 -0.380759 1.640256 -0.184079 -0.798094 -0.550280 0.694135 1.335188 -0.275230 1.801955 -0.413402
wb_dma_ch_pri_enc/assign_1_pri_out_tmp/expr_1 1.912099 0.664496 -0.921526 -0.416526 1.521902 -0.059205 -1.378026 -1.347364 2.047708 -0.221882 0.664720 2.406934 -0.743568 -2.459945 0.628782 -1.068485 -0.821296 0.359077 1.469550 -0.063294
wb_dma_de/always_23/block_1/case_1/block_4/if_1/if_1/block_1/if_1/cond 2.069968 0.288771 -1.183414 0.740654 2.821895 2.053541 -1.089035 1.684424 -1.847538 0.300402 -2.672048 -0.002195 0.986524 -3.899337 0.837192 -0.861538 -1.734365 -1.270251 0.008650 0.861128
wb_dma_ch_arb/always_2/block_1/case_1/if_1/block_1/if_1/if_1/if_1/if_1/if_1/if_1/if_1/if_1/if_1/if_1/if_1/if_1/if_1/if_1/if_1/if_1/if_1/if_1/if_1/if_1/if_1/if_1/if_1/if_1/if_1/if_1/cond 2.249723 0.842182 -1.472746 -2.792458 -1.321500 -0.495989 -0.585266 3.126668 -1.460901 -0.973244 -0.750367 -0.213629 0.287267 3.529608 -1.363116 -0.475756 1.266524 0.121303 0.965896 -1.018252
wb_dma_ch_arb/inst_check_wb_dma_ch_arb 2.176999 -0.156232 -1.942028 -1.253691 0.374925 0.297580 -0.495118 4.201570 -2.231336 0.040442 -1.835085 -0.506502 1.215096 0.891788 -0.257543 -1.851932 1.409124 -0.187396 0.446256 -1.451851
wb_dma_de/reg_ptr_set 2.549011 1.629581 1.502988 -3.682313 -1.227057 1.016584 -1.725270 -2.930270 2.874459 -1.384515 -1.606471 -2.792316 1.750106 -1.534911 0.881597 5.570055 -0.695872 -1.361062 1.107664 1.232520
wb_dma/wire_dma_nd 4.394302 0.417389 -1.882672 -1.155438 1.267674 2.142900 -0.331828 4.583514 -1.802845 -0.048981 -2.043612 -0.177113 0.795072 0.049820 -0.562994 -0.880758 2.528805 -0.026891 1.284321 -3.749265
wb_dma_rf/assign_3_csr -1.660757 1.218953 0.757369 1.170117 -0.200082 -1.373892 -1.461401 -0.362329 -0.215568 1.475550 0.710466 0.855482 -0.149929 -1.281463 0.185019 0.537826 -1.778939 -1.160140 1.780505 1.548692
wb_dma_rf/assign_4_dma_abort 4.128167 1.520943 -2.372968 -3.153080 0.214271 -0.605610 -2.029254 1.677655 0.763175 -1.218103 0.111180 2.258053 -0.601937 1.074930 -0.680863 -1.477676 0.358580 0.545539 2.560681 -1.107097
wb_dma_ch_sel/assign_123_valid 3.647097 1.672214 0.385927 -2.835046 -0.623583 0.676014 -2.003793 1.978143 -0.454208 0.000271 -2.115474 -0.185587 -1.255768 2.635348 -1.163485 1.140453 0.093985 -2.114998 1.024115 -0.679934
wb_dma_ch_arb/always_2/block_1/case_1/if_1/block_1/if_1/if_1/if_1/cond 2.023347 -1.167275 -2.743123 -1.169072 0.384487 1.055091 1.626026 5.944386 -2.506329 -0.493101 -1.809516 -0.544925 2.766293 0.879773 -0.628406 -2.826266 0.959412 1.853533 0.728484 -0.579616
wb_dma_ch_rf/always_1/stmt_1/expr_1/expr_2/expr_2/expr_1 -1.807207 -0.517892 1.466166 1.064496 0.460454 0.158126 -0.971885 0.271139 -0.323819 1.314124 -1.231652 -1.588662 -1.174528 -0.388893 0.671745 0.840518 -2.245737 -1.962293 -1.758157 0.517244
wb_dma_rf/wire_ch4_csr -2.882072 0.181158 -1.572287 0.213940 -2.855023 -1.478648 -0.328819 -1.180375 -3.178217 1.809005 -2.545377 -0.543164 1.474419 -1.877678 -0.202478 0.051595 0.713416 -1.190885 -3.888964 2.267357
wb_dma_ch_rf/always_1/stmt_1/expr_1 -1.582420 0.539079 1.951887 -0.507702 -1.316317 -0.626796 -1.119069 -0.841811 0.499650 0.158143 0.011211 -1.164457 -2.215147 2.428640 -0.460291 2.294170 -2.408127 -1.608918 -1.058284 0.983667
wb_dma_ch_rf/assign_14_ch_adr0_we/expr_1/expr_1 -3.077003 0.000756 -0.223965 -4.219231 -3.274628 -1.940410 0.025898 -0.346822 -1.399236 1.839319 -1.908114 0.796231 -1.801178 3.635159 -1.399915 -0.899023 0.233102 -0.228518 -2.233425 1.306110
wb_dma_ch_pri_enc/wire_pri0_out 1.815029 0.616569 -0.951338 -0.331184 1.629804 -0.099614 -1.387060 -1.320404 2.118404 -0.214902 0.723045 2.400154 -0.833616 -2.547469 0.666325 -1.063853 -0.931221 0.379697 1.471405 -0.140931
wb_dma_ch_rf/assign_10_ch_enable -4.066132 1.681761 -3.630349 -1.363385 -1.826822 -2.043330 -0.724264 -0.914048 -1.930957 5.009470 -0.055889 0.640762 3.107836 -1.410303 -2.496768 -0.111219 -0.103514 0.115419 0.368810 -1.115622
wb_dma_wb_slv/reg_slv_we -2.424055 -1.387803 -2.497286 -2.251783 -0.088626 -3.675709 1.862038 -3.851218 -1.637838 -1.761754 -2.961160 -2.312243 1.959941 -0.058021 0.258653 -3.966136 2.014179 -0.196940 -5.188296 1.952978
wb_dma_de/input_txsz 1.129589 0.072536 -0.699010 0.595159 3.353412 1.018724 -1.231974 0.563434 0.290441 1.727773 -1.829318 -2.305422 2.544617 -4.704363 1.185841 -1.742929 0.019096 -2.653777 0.673179 -0.297656
wb_dma_wb_if/wire_mast_dout -3.173362 2.514386 -0.070123 1.275739 -0.621974 -2.716182 0.877573 -1.371796 -2.390787 0.486754 -3.206586 1.195753 0.009150 -1.693792 -0.278432 -0.551766 0.534584 -0.971150 -4.354927 3.614756
wb_dma_ch_rf/wire_ch_enable -4.057242 1.646414 -3.603999 -1.454868 -2.013132 -2.032791 -0.765570 -0.931538 -2.104138 5.048996 -0.040760 0.934081 3.224813 -1.302454 -2.464707 -0.230944 -0.227303 0.204532 0.576944 -0.684978
wb_dma_rf/wire_csr_we 1.986068 2.051993 0.069861 -2.556643 1.310407 -3.530288 -1.783686 0.552803 2.015897 -0.860166 -3.424117 1.616752 -4.946013 1.698341 -0.227753 -1.619801 -2.098812 -1.940434 -2.153748 0.070661
wb_dma_de/assign_78_mast0_go/expr_1/expr_1/expr_1 -1.528648 -0.738806 -1.149964 0.800959 1.245367 -1.240049 -0.926241 0.013558 0.851086 -0.063782 1.139082 0.820365 -0.636570 -1.672568 1.186675 -1.763327 -2.179790 0.695021 -0.279581 0.278717
wb_dma_ch_sel_checker/input_dma_busy 1.215038 0.777697 0.250982 -1.210811 -0.494649 -0.667832 -0.602043 -1.797958 0.945855 -0.142308 -0.097604 1.270974 0.192503 0.044880 -0.137804 -0.269973 0.037192 -0.448682 0.966425 1.980184
wb_dma_ch_arb/always_2/block_1/case_1/if_2/block_1/if_1/if_1/if_1/if_1/if_1/if_1/if_1/if_1/if_1/if_1/if_1/if_1/if_1 -1.451133 -0.727358 -1.169134 0.801150 1.295965 -1.202115 -0.960099 0.078757 0.868361 -0.077465 1.125792 0.858394 -0.655864 -1.719400 1.192296 -1.746194 -2.179116 0.697653 -0.192574 0.216110
wb_dma_ch_rf/assign_9_ch_txsz 0.315426 0.208235 0.114933 1.744120 3.703870 -0.059583 -2.052580 -1.717855 1.731526 0.416872 -1.112387 -4.281583 2.956021 -5.795294 2.199077 -2.340803 0.562730 -3.743633 -0.790437 0.365583
wb_dma_ch_arb/always_2/block_1/case_1/if_4/block_1/if_1/if_1/if_1/if_1/if_1/if_1/if_1/if_1/if_1/if_1/if_1/if_1/if_1/if_1/if_1/if_1/if_1/if_1/if_1/if_1/if_1/if_1 3.473388 1.444399 0.228853 -1.204666 0.364721 1.227372 -0.455947 -1.376490 1.291507 -0.218874 -0.374882 1.613320 -0.180251 -0.801243 -0.514992 0.730873 1.359224 -0.266300 1.806694 -0.462870
wb_dma_de/assign_65_done 2.158458 0.212159 -1.144477 0.777850 2.967597 2.066437 -1.229779 1.957780 -1.816454 0.248556 -2.610243 -0.066344 0.793203 -3.846601 0.952512 -0.867820 -1.926203 -1.322078 0.074558 0.762757
wb_dma_ch_rf/assign_10_ch_enable/expr_1/expr_1/expr_1/expr_1 3.183310 2.103916 -2.634283 -2.863859 -0.439170 -2.814791 -1.356667 -0.501159 1.709885 -2.216829 -1.177108 0.187104 3.263890 -1.582622 0.674410 0.509134 1.138752 0.785330 0.840418 0.655571
wb_dma_de/always_2/if_1/if_1 -3.041226 -2.083043 -2.307283 -3.213517 -3.075881 -0.618553 -0.541683 0.503840 -0.786472 1.356857 -1.826515 -0.542796 0.972279 0.020403 0.770035 0.621448 0.165190 2.198308 -3.752323 -1.430117
wb_dma_wb_mast/assign_2_mast_pt_out -2.180683 2.976811 -1.558691 1.923579 2.004926 -2.082179 0.421616 -1.044683 -1.816941 -0.283735 -0.830188 0.094711 0.625789 -1.889423 -0.102284 0.549722 -0.007789 -1.211062 -2.742988 0.634786
wb_dma_ch_sel/assign_156_req_p0/expr_1 3.090782 2.017623 0.187486 -0.720073 -0.574734 -1.028238 -2.184192 1.841469 -0.624433 -0.675604 -0.606360 -1.146580 0.723382 2.925146 -1.226434 0.371055 0.856116 -2.802116 0.991424 -0.097806
wb_dma_ch_pri_enc/assign_1_pri_out_tmp/expr_1/expr_1/expr_1/expr_1/expr_1/expr_1/expr_1/expr_1/expr_1/expr_1/expr_1/expr_1/expr_1/expr_1/expr_1/expr_1 1.829268 0.635264 -0.941935 -0.350569 1.530813 -0.072859 -1.332516 -1.263908 2.045094 -0.214862 0.724021 2.350740 -0.792005 -2.409241 0.660971 -1.062479 -0.871230 0.395300 1.440717 -0.132454
wb_dma_ch_rf/always_9/stmt_1/expr_1 3.925784 1.513076 -2.385444 -3.125680 0.049260 -0.674737 -1.912640 1.667256 0.608757 -1.197004 0.039696 2.156171 -0.512203 1.153537 -0.758861 -1.415019 0.445786 0.546726 2.373089 -1.091980
wb_dma_ch_sel/assign_112_valid 3.672889 1.716972 0.325798 -2.829098 -0.699670 0.729330 -1.977215 1.874596 -0.446901 0.064527 -2.204634 -0.106428 -1.136504 2.514018 -1.247115 1.150609 0.217601 -2.066660 0.948876 -0.719293
wb_dma_de/always_23/block_1/case_1/block_8 3.673959 3.148222 0.824301 -2.288832 -0.345235 1.047592 0.082269 -3.953117 1.586823 -2.139601 -0.025962 -0.304850 2.038315 -0.700752 -1.132737 3.130423 0.853609 -0.888583 2.777349 2.717136
wb_dma_de/always_23/block_1/case_1/block_9 3.462325 3.071214 0.734908 -2.142816 -0.276501 1.028060 0.124155 -3.820176 1.416330 -2.062608 -0.136003 -0.226837 2.057261 -0.827254 -1.109176 2.869258 0.787705 -0.852804 2.601872 2.783731
wb_dma_ch_rf/assign_28_this_ptr_set 2.764872 2.039316 0.409383 -1.242962 0.044528 0.317985 0.535881 -2.582551 1.551101 0.863101 -2.010702 4.052485 -2.197448 -1.087105 -1.057141 0.713454 1.193531 0.429942 -0.176055 -0.194943
wb_dma_ch_rf/always_22 0.100687 -1.972498 -0.220140 0.269544 -0.333610 2.285534 -0.450969 0.888684 -2.480933 0.734307 0.117401 2.484047 -0.561061 2.210824 -0.420254 -0.620873 -1.555710 1.105911 -0.403476 0.628214
wb_dma_de/always_23/block_1/case_1/block_1 -1.629105 0.091457 -0.831769 -0.545349 -1.868430 -0.907402 -1.048102 -0.048762 -3.566018 3.672892 -1.414787 2.386640 2.242761 -0.937292 -0.576615 -1.120895 0.782769 -0.725254 1.506819 1.894291
wb_dma_de/always_23/block_1/case_1/block_2 -2.976608 2.876083 -0.882933 -0.040245 2.006979 -3.780599 -0.413342 -0.326886 1.398847 2.555233 -1.473492 -0.566683 0.205344 -1.429498 -1.638083 -1.004025 -3.285061 -1.899330 -0.843092 0.352192
wb_dma_de/always_23/block_1/case_1/block_3 -0.313713 -3.204233 -0.973541 -1.777548 0.642729 0.789253 1.058218 4.012068 -1.509841 2.385279 -2.988014 1.125478 2.430586 -0.967367 1.222589 -4.193376 0.948207 1.361241 -0.256294 0.607216
wb_dma_de/always_23/block_1/case_1/block_4 0.087910 -3.468201 -0.842984 -3.160012 0.697702 2.309832 1.416703 3.979049 -1.276619 2.814743 -4.153399 1.725798 1.195244 -1.716826 1.268639 -3.446168 0.337562 2.001926 -0.241224 0.322601
wb_dma_ch_rf/always_27 2.127645 1.535111 -1.248525 -1.916827 -0.050362 -2.148035 -2.254418 -0.031736 1.552290 -1.254301 -2.008679 -1.164398 2.124852 -1.756290 1.251010 1.594610 -0.730187 -0.765806 -0.358612 0.666040
wb_dma_de/always_23/block_1/case_1/block_7 2.607920 4.853182 -0.688634 -0.641393 -2.026814 0.342833 -0.221914 -6.722284 -2.171163 -0.953642 -0.622736 1.283907 1.351813 -1.120994 -2.942049 3.633108 2.277425 -1.955060 0.952774 2.547358
wb_dma/assign_4_dma_rest -0.619502 0.651363 0.155899 -0.069574 -0.242323 -0.863228 0.974855 -1.163026 0.234947 1.036221 -1.634738 2.371407 -1.949401 -0.298585 -0.533468 0.016954 -0.099195 0.660567 -1.900835 0.125716
wb_dma_ch_rf/always_23/if_1 -1.934747 -0.289718 0.015337 2.763323 0.295637 -1.805497 0.658745 -0.869252 0.753720 1.192072 2.278802 -1.606727 2.325728 -0.406207 -0.288681 -1.863255 2.922129 -0.885029 -0.185043 -1.564430
wb_dma_ch_sel/reg_ndr_r 4.597368 0.421304 -2.000030 -1.227597 1.307642 2.190033 -0.386350 4.790296 -1.811263 -0.066138 -2.099842 -0.162728 0.818611 0.108945 -0.618819 -0.906756 2.708759 -0.009543 1.384027 -3.987320
wb_dma_de/assign_66_dma_done/expr_1 2.245108 1.263594 -1.235092 -4.122154 -0.295624 -0.825289 -1.987911 -0.280497 1.860697 -0.421318 -3.628055 -0.248156 0.375476 -2.402850 1.251935 2.314043 -1.391717 -0.060711 -0.669483 0.218799
wb_dma_ch_sel/reg_req_r 2.785880 3.651546 0.944821 -2.404011 -0.718714 -0.021774 0.925649 -4.767467 1.806467 -1.092352 -1.481385 1.896280 0.075116 -0.618589 -1.632695 2.890030 0.631319 -0.243619 0.861231 2.844712
wb_dma_ch_rf/reg_pointer_r -4.306405 0.680781 0.291767 1.476411 -1.891490 -0.579390 0.597916 -3.555900 -2.535680 2.346018 -2.513396 -0.057736 -1.146841 -4.245926 -0.126228 0.008188 1.499138 -2.187569 -4.325338 1.742194
wb_dma_ch_sel/assign_105_valid 3.712446 1.713842 0.399630 -2.778326 -0.574101 0.705863 -2.024736 1.820952 -0.296936 0.030527 -2.065764 -0.084625 -1.268788 2.486655 -1.171346 1.196422 0.125196 -2.073193 1.053671 -0.667539
wb_dma_ch_pri_enc/wire_pri5_out 1.779708 0.623832 -0.896477 -0.352372 1.547486 -0.104899 -1.368788 -1.280989 2.056411 -0.171913 0.661360 2.342475 -0.759716 -2.440730 0.631014 -1.069186 -0.907246 0.328992 1.470743 -0.069135
wb_dma_ch_sel/always_39/case_1 4.688617 0.421797 -1.970522 -1.286064 1.267573 2.178932 -0.385992 4.853523 -1.842802 -0.082147 -2.107470 -0.192251 0.869226 0.211979 -0.661705 -0.892990 2.651161 -0.021765 1.412802 -3.902662
wb_dma_ch_sel/always_6 3.747376 3.268889 0.780280 -2.336432 -0.370939 1.021361 0.042888 -4.010460 1.614781 -2.216009 0.019709 -0.250971 2.006636 -0.686927 -1.186381 3.140507 0.881573 -0.897774 2.835035 2.761457
wb_dma_ch_sel/always_7 3.201920 1.662673 0.271372 0.142144 0.828721 2.894583 1.229837 -2.591113 -0.291897 -0.898562 -0.881288 1.202165 1.612954 -2.942691 -0.630660 1.814672 1.316211 0.167464 1.446237 1.330966
wb_dma_ch_sel/always_4 2.469126 1.130422 -1.467563 -2.106246 0.129949 -1.611719 -3.115385 0.654147 1.417999 -2.140418 -0.684709 -3.264635 3.960742 -1.748218 1.745165 1.559071 -0.759455 -1.403566 1.200273 0.799116
wb_dma_ch_sel/always_5 0.805431 1.541538 -0.338208 -2.282444 -0.000367 -1.004175 -3.739796 0.367141 1.433687 0.003965 -0.877336 -1.614676 1.891611 -3.375157 1.875023 2.762562 -2.871341 -1.423527 2.772542 1.257454
wb_dma_ch_sel/assign_126_ch_sel/expr_1 -2.757942 0.255062 -1.516965 -3.559281 0.555127 -3.292072 0.807404 1.037147 2.243294 2.973423 -3.608221 -1.720656 1.115190 0.581680 -1.270302 -2.126546 -1.636152 -0.509414 -3.409110 -0.312759
wb_dma_ch_arb/always_2/block_1/case_1/if_1/block_1/if_1/if_1 1.200386 0.138557 -2.324953 -0.636859 -1.335176 -1.586474 1.330718 4.653659 -2.056898 -2.149608 0.687396 -1.294444 3.639649 3.890419 -1.708023 -2.199717 1.328987 1.289052 1.023900 0.789601
wb_dma_ch_sel/always_1 2.655034 3.579301 0.845879 -2.228491 -0.633659 0.090811 1.063663 -4.764933 1.618295 -1.019207 -1.589482 1.851963 0.188533 -0.868018 -1.639333 2.891137 0.727079 -0.218024 0.744510 2.775449
wb_dma_ch_arb/always_2/block_1/case_1/cond 3.434124 1.398655 0.235364 -1.163346 0.384364 1.206684 -0.485779 -1.369794 1.296411 -0.180844 -0.357941 1.618591 -0.194309 -0.877530 -0.522589 0.713992 1.297594 -0.249767 1.801503 -0.422503
wb_dma_ch_sel/always_8 2.800806 1.958901 0.282090 -1.173925 0.125659 0.378377 0.527241 -2.363038 1.412718 0.810978 -2.011300 3.872095 -2.052690 -1.137427 -1.002937 0.679342 1.240083 0.419085 -0.121510 -0.325620
wb_dma_ch_sel/always_9 3.490869 1.453206 0.238550 -1.264291 0.347255 1.177279 -0.489373 -1.449868 1.333401 -0.206117 -0.367461 1.699242 -0.195763 -0.782516 -0.522740 0.686813 1.307105 -0.285381 1.834794 -0.355769
wb_dma_pri_enc_sub/always_1/case_1/stmt_2 1.765889 0.571000 -0.971727 -0.336001 1.582449 -0.121704 -1.382735 -1.173548 2.028956 -0.218420 0.760657 2.339483 -0.810058 -2.464520 0.668231 -1.133547 -0.938549 0.434030 1.479582 -0.159518
wb_dma_de/assign_67_dma_done_all 3.566620 1.022634 -0.044377 -0.039744 1.632912 3.214679 -0.236853 1.604414 -2.666641 0.381636 -3.770389 -0.741127 1.549806 -2.310923 -0.277517 0.848079 0.323730 -1.975411 0.242260 0.642154
wb_dma_ch_rf/wire_ch_txsz 0.246626 0.209769 0.111097 1.855464 3.663969 -0.012814 -2.086863 -1.688991 1.635423 0.428178 -1.081001 -4.229146 2.967963 -5.793327 2.233883 -2.332731 0.513334 -3.777465 -0.773608 0.453300
wb_dma_ch_sel/assign_99_valid -1.447657 -0.171405 -1.894646 -3.407267 -4.096066 -1.494136 -1.965232 0.008703 -3.114661 2.546683 -1.457926 -3.605596 3.529747 1.888604 -1.091557 -0.412402 3.980773 -2.805102 -0.616856 -1.002444
wb_dma_ch_rf/always_23/if_1/block_1/if_1/cond -1.879907 -0.301518 0.041000 2.746191 0.255700 -1.794818 0.632053 -0.838194 0.747810 1.037805 2.349088 -1.566633 2.233234 -0.264134 -0.265483 -1.730998 2.726583 -0.820598 -0.169395 -1.432321
wb_dma_ch_rf/assign_11_ch_csr_we/expr_1/expr_1 -2.474254 -1.404459 -3.219192 -3.117792 -0.790488 -1.144344 2.232350 -0.993344 -2.991930 2.508533 -2.972600 -1.284320 3.817046 0.750451 -1.842770 -2.226158 0.478250 0.351504 -2.117574 1.226466
wb_dma_ch_rf/assign_11_ch_csr_we/expr_1/expr_2 0.795846 0.457586 0.984028 0.937902 0.491174 -3.523957 -3.466531 1.906224 0.913134 -2.277201 2.722739 -0.811519 0.450391 4.563570 0.446636 -2.039450 -4.085590 -2.709790 2.056402 4.391272
wb_dma_ch_arb/always_2/block_1/case_1/if_3/block_1/if_1/stmt_1 1.910506 0.684743 0.459445 -0.356456 0.518393 1.055959 0.492608 -2.280049 2.325439 1.682342 0.503680 1.021765 0.208908 -1.593827 -0.809414 -0.352892 3.456068 -0.360107 1.512154 -2.504952
wb_dma/wire_ch2_txsz 3.264421 1.725410 0.274519 0.104175 0.852458 2.901038 1.218466 -2.733158 -0.218078 -0.882548 -0.880202 1.284747 1.543446 -3.010349 -0.655216 1.827161 1.324843 0.171762 1.487987 1.348120
wb_dma_de/always_23/block_1/case_1/block_4/if_1/if_1/block_1 -0.094269 -3.562796 -1.035816 -3.163325 0.800484 2.355190 1.465961 4.099770 -1.285987 2.961123 -4.135084 1.765304 1.194444 -1.844733 1.258043 -3.589446 0.296481 2.184066 -0.392447 0.043276
wb_dma_de/always_23/block_1 -2.180294 1.210315 -1.066965 -0.960447 0.678390 -2.057652 -0.508996 -0.044924 -1.448784 4.125820 -2.188594 1.390344 1.260113 0.052377 -1.885711 -1.582422 -1.648546 -1.368067 0.061596 0.598933
wb_dma_ch_rf/always_22/if_1 0.168553 -1.772487 -0.252486 0.344132 -0.249516 2.163221 -0.463701 0.770868 -2.443438 0.654832 0.036359 2.406040 -0.493057 2.079063 -0.460273 -0.622934 -1.525510 1.017103 -0.430849 0.700067
wb_dma_de/wire_mast1_dout 1.726468 -0.810826 0.882181 1.872224 1.212617 3.489857 2.645939 -1.550806 -2.137510 -1.558834 -0.684537 2.014432 2.329756 -2.018281 0.406972 -0.052166 0.012579 1.626811 0.544988 4.365332
wb_dma_ch_rf/always_4/if_1/block_1/if_1/if_1 -2.000172 0.005461 -0.500886 0.505446 -0.619217 -0.669755 0.419450 -1.847368 -1.364206 -0.223818 -0.765019 -0.790531 -0.149817 -1.062257 -0.227856 -0.441362 0.799793 -0.778404 -2.677985 0.502243
wb_dma_de/always_8/stmt_1 2.140790 -0.135958 -1.163369 -0.249911 2.580660 0.495653 -2.782849 3.221940 -0.331408 1.057849 -2.090597 0.304997 -0.989536 -1.956987 1.166809 -1.966316 -1.963576 -1.725596 0.255593 -1.140918
wb_dma_ch_rf/assign_18_pointer_we/expr_1 -2.150929 -0.005237 -0.522893 0.476283 -0.802966 -0.808319 0.522044 -1.951039 -1.504126 -0.201769 -0.874835 -0.883522 0.038637 -1.092193 -0.238375 -0.458959 0.957946 -0.755557 -2.918331 0.595050
wb_dma_ch_rf/wire_ch_done_we 2.154495 1.189529 -0.709163 -0.800240 1.076266 1.350969 -1.253605 0.829048 -1.126302 -0.643021 -1.612174 0.228577 -0.158362 -1.176507 -0.245257 0.619095 -1.856111 -0.993224 0.488250 1.062512
wb_dma_ch_arb/always_2/block_1/case_1/if_1/block_1/if_1/if_1/if_1/if_1/if_1/if_1/if_1/if_1/if_1/if_1/if_1/if_1/if_1/if_1/if_1/if_1/if_1/if_1/if_1/if_1/cond 2.398957 0.867575 -1.399342 -2.858202 -1.428199 -0.522372 -0.633720 3.192704 -1.386542 -1.080425 -0.588487 -0.200266 0.277389 3.825014 -1.428492 -0.435035 1.236704 0.104212 1.172033 -0.935680
wb_dma_wb_slv/wire_wb_ack_o -2.173443 2.743536 -1.336946 1.821125 1.925210 -2.037675 0.357848 -0.947142 -1.599420 -0.272179 -0.699297 -0.022706 0.510884 -1.611013 -0.039080 0.452941 -0.238644 -1.234626 -2.519022 0.696496
wb_dma_ch_arb/always_2/block_1/case_1/if_3/block_1/if_1 1.947078 0.727608 0.425142 -0.374005 0.573134 1.108063 0.472761 -2.279930 2.443633 1.662401 0.572860 1.073618 0.146695 -1.605287 -0.804567 -0.297177 3.467760 -0.280316 1.569425 -2.635023
wb_dma_de/reg_ld_desc_sel -2.033914 0.024411 0.461195 -2.610287 1.559054 0.465767 -1.209147 4.777424 -2.570812 4.767509 -4.184314 -0.388813 -4.700883 2.041444 -1.012302 -1.308827 0.038517 -2.740938 -1.624699 -5.529492
wb_dma_ch_sel/assign_154_req_p0/expr_1 2.859167 1.929342 0.226683 -0.662482 -0.595141 -0.969515 -2.159644 1.805408 -0.735975 -0.544508 -0.694157 -1.259908 0.701440 2.853448 -1.193602 0.403356 0.838554 -2.839561 0.874034 -0.108774
wb_dma_de/assign_83_wr_ack 1.851267 0.223980 -1.223170 0.720741 2.737684 1.911543 -1.123097 1.828703 -1.993806 0.381787 -2.724621 -0.095715 0.933151 -3.876189 0.889336 -0.937726 -1.814276 -1.337668 -0.143551 0.871716
wb_dma/wire_dma_done_all 3.426199 0.950115 -0.034821 -0.043498 1.643301 3.125974 -0.272864 1.662952 -2.521503 0.428554 -3.707463 -0.759979 1.365056 -2.310065 -0.207383 0.786630 0.229051 -1.975514 0.183636 0.474721
assert_wb_dma_rf/input_ch0_am1 -1.569830 0.599020 -0.509487 0.597461 0.164641 -2.155868 0.127611 -0.466918 -0.095348 -0.930113 -1.087106 -0.326174 -0.287382 -1.556917 1.153103 -0.076844 -0.202376 0.089984 -2.402694 0.602068
wb_dma_ch_arb/reg_state 0.674394 1.540357 -3.638846 -2.041737 -1.294676 -2.232456 3.344841 -0.028282 2.469225 0.053271 -0.241972 1.513443 4.167129 -1.968657 -2.645291 -2.265302 4.398987 3.694465 -0.152276 -1.882462
wb_dma_ch_sel/input_ch0_csr -1.093277 -0.366400 0.151828 -0.405229 -2.333298 -2.322845 -1.222668 2.425452 -1.048628 1.540789 -3.374942 1.439974 1.120775 -1.639623 2.202682 0.855744 -2.730069 0.074791 -1.195755 4.952826
wb_dma_de/always_23/block_1/case_1/block_10/if_2/block_1 3.570567 3.193559 0.806622 -2.283440 -0.313766 0.973838 0.054301 -3.938045 1.566806 -2.129964 -0.037659 -0.293976 2.023399 -0.707663 -1.111397 3.042502 0.766627 -0.918515 2.764633 2.768943
wb_dma_de/always_23/block_1/case_1/block_3/if_1/if_1 -0.285714 -3.165519 -0.987486 -1.541972 0.725804 0.854982 1.104129 4.091921 -1.732640 2.260148 -2.973451 1.184009 2.567952 -1.035287 1.226855 -4.257080 0.940295 1.380053 -0.265708 0.773959
wb_dma_ch_sel/assign_153_req_p0/expr_1 3.070856 1.941616 0.168282 -0.646045 -0.541161 -0.994616 -2.240593 2.018250 -0.726739 -0.606106 -0.682748 -1.312850 0.785551 2.924387 -1.178563 0.311950 0.812528 -2.921909 0.954930 -0.166842
wb_dma_wb_mast -3.208602 4.286598 -2.864238 3.697995 1.072269 -3.970809 0.492247 -1.525568 -5.094452 -0.550915 -2.155309 0.657678 2.297015 -2.146139 -0.518942 -1.007933 1.495833 -2.022988 -4.951181 3.303257
wb_dma_ch_sel/assign_124_valid 3.734272 1.708771 0.304430 -2.860909 -0.670798 0.696385 -2.009939 1.950557 -0.362259 -0.007405 -2.090326 -0.114724 -1.195969 2.601426 -1.269147 1.130821 0.236878 -2.018251 1.046650 -0.868398
wb_dma_de/always_18/stmt_1 -0.259681 2.117018 -1.908094 3.628803 -1.576834 -1.159993 -1.536802 -2.672347 -4.529197 -0.675078 2.367648 -1.340348 3.262040 -0.131902 -1.650069 0.337787 2.639280 -2.663566 0.301021 0.589771
wb_dma_ch_rf/wire_ch_csr_dewe 5.892166 0.923952 -0.454289 -0.207909 1.666716 3.620746 2.507514 0.304250 -2.563648 -0.687735 -4.030328 5.002175 1.121090 -1.842969 -0.792120 -1.120700 2.207330 1.635939 0.702314 2.561427
wb_dma_ch_pri_enc/input_pri2 3.438068 1.421339 0.240885 -1.147711 0.351451 1.191917 -0.448703 -1.424439 1.349087 -0.172085 -0.378170 1.647112 -0.234556 -0.852440 -0.511733 0.730333 1.291993 -0.256580 1.806616 -0.448430
wb_dma_ch_pri_enc/input_pri3 3.527957 1.402582 0.229189 -1.181556 0.382641 1.218372 -0.512083 -1.415346 1.343709 -0.208982 -0.324925 1.704157 -0.201387 -0.836883 -0.519790 0.710005 1.309083 -0.243641 1.863675 -0.431550
wb_dma_ch_pri_enc/input_pri0 2.401154 0.630000 0.033645 0.035684 0.959227 1.959211 0.125301 0.382927 0.495975 -0.080551 -0.192842 0.392180 -0.480660 -0.884471 -0.367049 1.040519 1.301561 0.259402 0.936258 -2.526449
wb_dma_ch_pri_enc/input_pri1 1.933747 0.649226 -0.926821 -0.344977 1.635211 -0.030373 -1.415978 -1.367018 2.207653 -0.216413 0.740573 2.433621 -0.855554 -2.568283 0.678633 -1.037293 -0.873966 0.413164 1.566208 -0.185963
wb_dma_wb_if/input_slv_pt_in -2.396022 2.638383 -1.319079 1.876426 1.998255 -2.192696 0.402572 -0.984541 -1.481825 -0.217001 -0.649550 -0.002496 0.479311 -1.648060 0.012772 0.341889 -0.427461 -1.186842 -2.569234 0.814269
wb_dma_de/always_23/block_1/case_1/block_9/stmt_3 0.263218 1.131497 0.487401 -1.674763 -1.827640 -0.813925 -0.192559 -1.206657 0.900879 -1.163886 1.229578 0.410341 -1.014793 2.919701 -1.174552 1.508934 -0.110639 0.326290 0.706148 0.502549
wb_dma_ch_rf/always_10/if_1/if_1/block_1/if_1 4.167460 1.538395 -2.348346 -3.117560 0.205551 -0.485495 -1.978343 1.758170 0.639758 -1.224378 0.000741 2.124539 -0.544471 1.086298 -0.739954 -1.375660 0.478250 0.498614 2.486866 -1.190721
wb_dma/wire_de_adr1_we -0.548273 0.302514 -0.166997 2.057680 0.036583 -1.804731 -0.286271 0.156129 -0.337397 -0.811853 1.550591 -1.135198 1.959924 0.669558 0.014767 -0.849803 0.599698 -0.752779 0.075101 0.693081
wb_dma_ch_sel/assign_6_pri1 1.851695 0.630771 -0.974726 -0.344979 1.595264 -0.059876 -1.377262 -1.302557 2.101448 -0.228462 0.717251 2.411477 -0.812627 -2.534904 0.662356 -1.092489 -0.910440 0.436035 1.496897 -0.140809
wb_dma_ch_sel/always_8/stmt_1/expr_1/expr_1 2.318451 0.607724 -0.001897 0.033735 0.907108 1.931733 0.127533 0.400645 0.445298 -0.066202 -0.239653 0.362211 -0.413062 -0.886485 -0.354548 1.004093 1.254254 0.202010 0.902834 -2.428660
wb_dma_ch_sel/assign_129_req_p0/expr_1 1.529464 -0.817304 -1.372958 1.991096 1.661304 1.127894 0.644286 6.614399 -2.739180 0.048928 -1.723441 -2.899089 3.017206 0.216299 -0.335052 -1.811375 0.399617 -0.663746 -0.358183 -1.622656
wb_dma_rf/wire_csr -1.821371 1.122600 0.704333 1.176604 -0.259659 -1.401181 -1.345969 -0.416259 -0.318446 1.475468 0.676805 0.832632 -0.102647 -1.310289 0.193932 0.465450 -1.706445 -1.115746 1.622508 1.590013
wb_dma_ch_rf/always_20/if_1/block_1/if_1/if_1/if_1/cond 0.262136 1.113176 0.513840 -1.658539 -1.832584 -0.802184 -0.173952 -1.184914 0.869064 -1.145848 1.244659 0.413730 -1.021068 2.918137 -1.187201 1.485109 -0.094281 0.372770 0.718943 0.513458
wb_dma_ch_sel/assign_95_valid/expr_1/expr_2 2.220429 2.536249 -0.333963 -1.668007 0.665172 -0.188081 -0.830982 -3.894660 2.277117 -2.204419 0.991107 0.495146 1.453790 -2.140014 -0.132004 1.427973 -1.152831 -0.260338 2.543540 3.023236
wb_dma_ch_sel/always_37/if_1 -2.788907 -0.076923 -1.633140 -4.923410 0.381120 -1.986293 1.347545 0.836024 2.297614 3.247344 -4.507431 -1.413938 0.138718 0.072670 -1.244649 -1.435269 -2.105222 0.283991 -3.590460 -0.582038
wb_dma_de/always_6/if_1/cond 4.932527 1.355719 1.940092 -0.018131 2.781669 2.525236 -1.472765 1.584087 -0.474559 -1.350831 -2.190024 -2.800153 2.865749 -0.538473 0.536327 1.078882 -1.645984 -3.772044 2.798817 3.468395
wb_dma_de/always_23/block_1/case_1/block_3/if_1/if_1/block_1/stmt_2 -0.310940 -3.405764 -0.948352 -1.503041 0.699585 0.957829 1.138894 3.996333 -1.831306 2.410074 -3.118064 1.366011 2.749226 -1.137879 1.303955 -4.320573 0.782240 1.446414 -0.357050 1.209333
wb_dma_ch_rf/always_8/stmt_1 -3.029003 1.638831 -0.253919 -0.505526 2.799042 -2.664500 -0.048764 0.394624 1.653372 2.752892 -3.323723 -2.715468 -0.859056 -0.189858 -1.677814 -0.780212 -4.148697 -2.871213 -3.775026 -0.726251
wb_dma_ch_sel/assign_108_valid 3.697279 1.716075 0.408392 -2.824700 -0.569106 0.687330 -2.051599 1.930703 -0.434868 0.163694 -2.302099 -0.130646 -1.207763 2.466989 -1.155462 1.118347 0.049712 -2.213312 0.969109 -0.571844
wb_dma_ch_pri_enc/wire_pri9_out 1.774211 0.641114 -0.873578 -0.380371 1.489698 -0.131882 -1.386365 -1.371014 2.072910 -0.189602 0.737359 2.365040 -0.786635 -2.424595 0.657293 -1.030598 -0.877880 0.381833 1.432328 -0.029024
wb_dma_ch_arb/always_2/block_1/case_1/if_4/block_1/if_1/if_1/if_1/if_1/if_1/if_1/if_1 3.584020 1.430997 0.225027 -1.264433 0.342693 1.237774 -0.508223 -1.400122 1.349445 -0.216226 -0.383202 1.669018 -0.216180 -0.779620 -0.534262 0.718404 1.341571 -0.262482 1.901889 -0.419176
wb_dma_ch_sel/wire_pri2 3.452468 1.389651 0.221905 -1.152379 0.372445 1.219303 -0.465894 -1.339661 1.267092 -0.190315 -0.374183 1.593237 -0.186965 -0.856980 -0.518492 0.738790 1.332660 -0.275594 1.749326 -0.472487
wb_dma_ch_sel/wire_pri3 3.566941 1.466760 0.248846 -1.213327 0.401305 1.256189 -0.490305 -1.394560 1.348744 -0.203204 -0.363347 1.662515 -0.196026 -0.843974 -0.512076 0.780727 1.345638 -0.262691 1.862002 -0.513753
wb_dma_ch_sel/wire_pri0 4.577733 0.418967 -1.871114 -1.210982 1.314292 2.137511 -0.371004 4.706989 -1.742255 -0.102932 -1.968874 -0.177888 0.802955 0.203758 -0.617046 -0.906478 2.564484 -0.001384 1.418532 -3.842401
wb_dma_ch_sel/wire_pri1 1.916745 0.616788 -1.081242 -0.435241 1.591492 -0.078587 -1.401411 -1.259662 2.098860 -0.189509 0.694058 2.447258 -0.740228 -2.587018 0.683540 -1.117681 -0.876404 0.469648 1.496488 -0.152495
wb_dma_de/always_4/if_1/if_1/cond/expr_1 3.678950 0.674862 -0.110342 -1.267237 1.204509 1.551125 -1.948047 3.047269 -1.160446 1.111898 -3.303725 -0.451637 -0.242698 -0.255458 -0.050571 -0.333240 0.233037 -2.431800 0.483281 -1.161257
wb_dma_rf/input_ptr_set 3.540520 1.401674 0.215521 -1.149206 0.430736 1.275296 -0.489281 -1.289189 1.342857 -0.222794 -0.369186 1.607659 -0.207931 -0.820628 -0.495897 0.718675 1.297291 -0.266023 1.848137 -0.543530
wb_dma_rf/always_2/if_1/if_1 0.363597 2.816453 0.786122 -1.096858 0.975290 -4.323574 -2.550101 -0.047381 1.508057 0.365995 -2.446237 2.421683 -4.588876 0.205075 -0.062014 -1.099371 -3.268781 -2.563221 -0.465763 1.579421
wb_dma_de/assign_77_read_hold -1.640270 -0.770940 -1.210213 0.823170 1.216425 -1.332154 -0.948317 0.075075 0.805137 -0.011871 1.119454 0.786555 -0.631339 -1.715343 1.219643 -1.795464 -2.244976 0.678783 -0.305537 0.329105
wb_dma_pri_enc_sub/input_valid -1.538255 -0.766657 -1.124652 0.852547 1.258656 -1.249769 -0.920158 0.040172 0.838959 -0.027232 1.121381 0.773281 -0.642840 -1.698748 1.203856 -1.767843 -2.213785 0.658370 -0.274185 0.294886
wb_dma_ch_pri_enc/assign_1_pri_out_tmp/expr_1/expr_1/expr_1/expr_1 2.110599 0.699979 -0.922487 -0.430941 1.605946 0.080092 -1.416058 -1.248065 2.142949 -0.268936 0.736373 2.442820 -0.803276 -2.462219 0.633500 -0.982192 -0.776931 0.429356 1.640032 -0.252768
wb_dma_ch_arb/always_2/block_1/case_1/if_1/block_1/if_1/cond 4.294936 -0.602681 -2.741868 -1.165374 1.269251 2.906439 1.804279 6.376846 -2.088402 -0.560524 -2.126159 -0.197217 2.388981 -0.002251 -1.009436 -1.902328 2.224834 2.026518 1.558224 -2.938454
wb_dma_ch_rf/always_27/stmt_1 1.890828 1.429293 -1.325485 -2.107885 -0.237771 -2.312447 -2.227980 0.041385 1.510886 -1.191957 -1.984076 -1.254809 2.226135 -1.578743 1.234722 1.521708 -0.632232 -0.670440 -0.454472 0.628497
wb_dma_wb_slv/assign_2_pt_sel/expr_1 -8.068000 1.212933 -3.958563 2.876520 0.707435 -3.255715 4.317724 0.816748 -5.278474 1.620254 -2.795797 -0.938638 2.602257 -5.263292 -1.876985 -3.764232 -2.859639 0.823337 -4.417065 4.139849
wb_dma_de/always_23/block_1/case_1/block_9/if_2/block_1 3.539824 3.173891 0.816322 -2.308585 -0.410008 0.891882 -0.029630 -3.913901 1.565566 -2.113408 -0.051334 -0.206100 1.918987 -0.618008 -1.102158 2.986169 0.762083 -0.954418 2.726770 2.773322
wb_dma_ch_sel/wire_valid -3.967756 1.675112 -3.720140 -1.537301 -1.925353 -2.005434 -0.865565 -0.975990 -2.082080 4.954572 0.041688 0.999990 3.151445 -0.982190 -2.647892 -0.174859 -0.442191 0.210849 0.511527 -0.826388
wb_dma_ch_sel/assign_162_req_p1/expr_1 -1.499035 -0.761593 -1.194991 0.806287 1.267378 -1.276723 -0.933229 0.122371 0.849050 -0.047259 1.153532 0.858280 -0.633082 -1.680680 1.207527 -1.832857 -2.170132 0.747928 -0.247667 0.263852
wb_dma_ch_sel/always_9/stmt_1/expr_1/expr_1/expr_1 2.413370 0.621252 -0.018022 0.012811 0.890658 1.934487 0.118772 0.421332 0.445238 -0.065033 -0.262435 0.375157 -0.399849 -0.896512 -0.371680 1.012386 1.335173 0.205402 0.881306 -2.495960
wb_dma_de/wire_chunk_cnt_is_0_d 2.258848 -0.102634 -1.312962 -0.481987 2.432574 0.398673 -2.819773 3.207174 -0.361436 1.057473 -2.195235 0.307882 -0.821723 -1.880100 1.079349 -2.059350 -1.840269 -1.727728 0.278674 -1.003289
wb_dma_ch_arb/always_2/block_1/case_1/if_4/block_1/if_1/if_1 3.481843 1.410014 0.212212 -1.199385 0.375767 1.175453 -0.484093 -1.370773 1.326151 -0.186033 -0.363717 1.630605 -0.170842 -0.806969 -0.495032 0.725942 1.320396 -0.258896 1.801566 -0.399837
wb_dma_ch_sel/assign_109_valid 3.512641 1.658302 0.340624 -2.707677 -0.555956 0.727194 -2.004262 1.812186 -0.414517 0.250674 -2.256570 -0.200310 -1.225358 2.225572 -1.114005 1.112839 0.099810 -2.187904 0.851542 -0.687353
wb_dma_pri_enc_sub/always_3/if_1/if_1/cond 1.921806 0.642370 -0.970676 -0.450434 1.565677 -0.104561 -1.418646 -1.312691 2.105626 -0.203410 0.720456 2.447444 -0.802030 -2.437781 0.649145 -1.102211 -0.870580 0.426606 1.555466 -0.095547
wb_dma_wb_slv/always_3/stmt_1/expr_1/expr_1/expr_1/expr_1 3.169060 1.632093 1.217586 -0.327170 0.515002 -4.208997 -1.142188 2.942743 0.955121 -4.887536 1.596667 -2.423523 0.331300 7.147651 -0.676194 -1.870338 -0.287348 -2.424731 1.766539 2.106326
wb_dma_ch_arb/always_2/block_1/case_1/if_1/block_1/if_1/if_1/if_1/if_1/if_1/if_1/if_1/if_1/if_1/if_1/if_1/if_1/if_1/if_1/if_1/if_1/if_1/if_1/if_1/if_1/if_1/if_1/if_1/if_1/if_1/if_1/if_1/if_1/if_1/if_1 1.425634 0.191058 -2.441429 -0.732013 -1.274267 -1.455784 1.262234 4.740615 -2.023078 -2.128882 0.592864 -1.225250 3.651451 3.773365 -1.706374 -2.230143 1.420147 1.376794 1.134184 0.628912
wb_dma_de/assign_75_mast1_dout 1.708699 -0.817522 0.886997 1.892738 1.191392 3.475994 2.579263 -1.542209 -2.149097 -1.531229 -0.617360 2.137610 2.293476 -1.978727 0.384386 -0.147798 0.024849 1.649201 0.555929 4.458711
wb_dma/constraint_csr -1.856019 -0.509590 1.484779 1.059879 0.436198 0.104046 -0.989292 0.298967 -0.371823 1.293600 -1.215278 -1.574779 -1.178675 -0.313135 0.668056 0.827173 -2.326768 -2.009833 -1.770270 0.591364
wb_dma_ch_rf/always_5/if_1 -2.085827 -0.054038 -0.409661 0.484228 -0.715357 -0.737621 0.498731 -1.856667 -1.351991 -0.201208 -0.775822 -0.828846 -0.011386 -1.010951 -0.200271 -0.398424 0.810145 -0.729863 -2.694447 0.606594
wb_dma_ch_pri_enc/wire_pri21_out 1.825864 0.592653 -0.971097 -0.267297 1.712150 -0.030803 -1.400689 -1.245214 2.115844 -0.207321 0.784094 2.427417 -0.849249 -2.608945 0.698751 -1.093849 -0.952256 0.420386 1.506121 -0.235664
wb_dma_ch_sel/assign_157_req_p0 2.797155 1.985163 0.134987 -0.579007 -0.528688 -1.038104 -2.108785 1.775614 -0.723821 -0.498203 -0.679208 -1.224148 0.654340 2.626909 -1.138010 0.392190 0.848011 -2.763165 0.813456 -0.193495
wb_dma_wb_mast/assign_1/expr_1 -0.389786 -2.036347 -1.306559 4.395619 2.372473 1.166906 3.344146 0.406612 -1.862552 -2.760211 1.785439 1.728450 4.923309 -2.993638 1.077220 -3.515398 -1.781512 3.415130 0.559652 5.903833
wb_dma_ch_arb/always_2/block_1/case_1/if_1/block_1/if_1/if_1/if_1/if_1/if_1/if_1/if_1/if_1/if_1/if_1/if_1/if_1/if_1/cond 2.408444 0.856863 -1.378558 -2.739370 -1.325018 -0.475921 -0.621019 3.118392 -1.375169 -1.112632 -0.642306 -0.197258 0.291313 3.769626 -1.395679 -0.444584 1.198957 0.070123 1.170464 -0.876752
wb_dma_de/reg_mast1_adr -2.154223 1.461987 -1.773239 -3.386712 -1.356508 -1.850649 1.764706 0.620685 2.240614 -1.148579 -0.060890 -0.889766 0.475536 0.006882 -1.671891 1.515665 -0.338000 3.020849 -0.639562 -2.250367
wb_dma_ch_pri_enc/wire_pri17_out 1.901912 0.621598 -0.959343 -0.368102 1.599244 -0.059692 -1.436163 -1.268440 2.111492 -0.241410 0.754368 2.402412 -0.802227 -2.474380 0.691583 -1.056310 -0.913972 0.418647 1.545310 -0.172633
wb_dma_ch_sel/assign_141_req_p0/expr_1 2.782159 2.022906 0.107763 -0.697836 -0.539649 -1.068511 -2.106486 1.617032 -0.784498 -0.443767 -0.850305 -1.124821 0.695129 2.538999 -1.167035 0.327365 0.782443 -2.812804 0.752636 -0.003477
wb_dma_ch_sel/input_ch2_csr -0.859903 -0.908911 -1.513396 -0.098015 -4.134272 -0.758345 -1.021822 -0.699787 -3.825881 0.083008 -2.678321 -0.251444 1.993341 -0.907048 1.255227 1.355973 -0.304345 -0.385176 -3.585444 4.576392
wb_dma_ch_rf/assign_13_ch_txsz_we 2.333737 0.819845 0.406188 -0.175548 2.199857 1.955042 -0.406560 0.529379 -0.479897 1.893764 -2.985419 -3.183716 3.134146 -3.052158 0.076111 -0.209377 1.952156 -3.468660 0.786433 -0.423224
wb_dma_ch_sel/assign_130_req_p0 1.351478 -0.826204 -1.386311 1.972567 1.579056 1.180854 0.715759 6.429789 -2.810722 0.176841 -1.825982 -2.840264 2.902750 0.030095 -0.300839 -1.761281 0.477436 -0.633838 -0.512688 -1.693185
wb_dma_ch_arb/always_1/if_1/stmt_2 0.610402 1.424610 -3.617352 -1.947044 -1.239704 -2.307822 3.228906 0.129307 2.125551 0.148820 -0.296541 1.496985 4.141134 -1.729260 -2.552905 -2.494008 4.294687 3.529531 -0.221200 -1.661791
wb_dma_ch_sel/assign_106_valid 3.677392 1.625442 0.317423 -2.823178 -0.666494 0.697300 -2.008345 1.934759 -0.427211 0.072680 -2.143693 -0.182717 -1.076767 2.525807 -1.232211 1.109265 0.217249 -2.048605 0.985551 -0.695683
wb_dma_ch_pri_enc/wire_pri28_out 1.655010 0.604238 -0.952102 -0.345201 1.506155 -0.198498 -1.362423 -1.307304 2.015591 -0.143203 0.687953 2.338283 -0.772563 -2.454261 0.666044 -1.154806 -0.902387 0.389487 1.393688 -0.047674
wb_dma_ch_arb/always_2/block_1/case_1/if_3/block_1/if_1/cond 2.350110 0.648261 -0.028878 0.034539 0.923119 1.958397 0.155866 0.364359 0.403925 -0.028096 -0.279354 0.351619 -0.415148 -0.919334 -0.403776 1.047164 1.298718 0.228223 0.871061 -2.543801
wb_dma_ch_rf/always_10/if_1/if_1/block_1 3.974740 1.515069 -2.300095 -3.151509 0.072120 -0.676896 -1.971377 1.733355 0.645860 -1.219222 0.071325 2.108104 -0.545269 1.272302 -0.763938 -1.455472 0.306129 0.463847 2.468714 -0.976952
wb_dma_ch_rf/always_11/if_1/if_1 2.865797 -0.336429 -2.993721 -0.322568 2.540669 0.953669 -1.249516 4.592312 -0.908207 -0.056123 -0.917192 0.600400 0.127713 -1.647584 0.568780 -2.538451 0.436863 0.686496 1.055878 -3.582653
wb_dma_wb_if/wire_slv_adr -4.145933 -0.686311 0.459431 -1.398270 -0.019007 -5.611400 0.380634 0.245696 0.545691 1.539048 -2.171575 -0.769345 1.686494 0.489944 1.716852 -5.158177 -2.352846 -1.766031 -1.235671 7.452492
wb_dma_ch_rf/assign_15_ch_am0_we/expr_1/expr_1 0.102809 -1.748029 -0.224401 0.321649 -0.255566 2.091691 -0.457180 0.762412 -2.339826 0.681551 0.044629 2.320977 -0.495352 1.968210 -0.405358 -0.621242 -1.475271 0.967624 -0.376352 0.676674
wb_dma_ch_sel/input_ch1_csr -0.903607 -0.990487 -1.561645 -0.067292 -3.971693 -0.724087 -1.105858 -0.631854 -3.734429 0.126649 -2.573731 -0.411246 1.959468 -0.944657 1.310922 1.382423 -0.392555 -0.406826 -3.517033 4.235164
wb_dma_ch_arb/always_2/block_1/case_1/if_2/block_1/if_1/if_1/if_1 -1.481738 -0.710014 -1.087240 0.771878 1.154143 -1.186895 -0.878585 0.024698 0.773536 -0.049425 1.081782 0.786298 -0.578758 -1.641564 1.102813 -1.655751 -2.088426 0.654276 -0.259402 0.279037
wb_dma/wire_pt1_sel_i 1.594030 -1.722425 -0.003073 1.797199 1.164942 4.213327 4.642681 0.223015 -2.380214 -2.055612 -0.698876 2.004413 3.787122 -2.100376 -0.023741 -0.983249 -0.299825 3.620872 0.773066 5.086461
wb_dma_ch_sel/always_47/case_1/stmt_1 0.890650 -0.823785 -0.816571 -2.676818 -1.408712 -0.252984 -0.978904 0.532724 1.820043 -0.502152 -0.562403 -1.034740 1.001997 -0.646790 1.386766 1.808814 0.840357 1.384115 0.071574 -2.098799
wb_dma/wire_pt1_sel_o -4.005963 0.711573 -2.556853 1.124863 -2.352903 -2.620406 -1.140439 -0.221583 -1.558849 0.952392 -1.683208 -0.957485 -0.356805 -5.156652 -0.670750 -2.423769 -1.566107 -0.425066 -3.400275 1.100859
wb_dma_ch_sel/assign_127_req_p0/expr_1 4.622109 0.415221 -1.908982 -1.239538 1.291260 2.164322 -0.390766 4.731460 -1.786074 -0.102442 -2.014771 -0.186179 0.844762 0.195459 -0.601016 -0.907661 2.633209 -0.029632 1.439840 -3.821468
wb_dma_ch_pri_enc/inst_u16 1.638428 0.597138 -1.004344 -0.352236 1.544062 -0.235910 -1.412117 -1.317471 2.049840 -0.156269 0.708187 2.378885 -0.769908 -2.526939 0.700145 -1.134935 -0.985181 0.384723 1.405615 -0.051727
wb_dma_ch_rf/assign_16_ch_adr1_we/expr_1/expr_2 -0.683350 0.361410 -0.221509 2.168656 0.035628 -1.903557 -0.258655 -0.002372 -0.346148 -0.759924 1.526518 -1.115283 2.066166 0.479801 -0.011438 -0.850285 0.679874 -0.813023 0.003297 0.697589
wb_dma_ch_rf/assign_16_ch_adr1_we/expr_1/expr_1 -1.864924 -0.243651 0.035317 2.751780 0.260209 -1.806690 0.511264 -0.891627 0.610914 1.058737 2.227767 -1.539948 2.209352 -0.299225 -0.258690 -1.758918 2.650649 -0.996963 -0.187077 -1.254400
wb_dma_ch_sel/always_48/case_1 0.319592 1.495596 -3.624439 -1.979874 -1.338850 -2.360285 3.418699 0.047205 2.147487 0.090241 -0.335151 1.499025 4.111152 -1.780160 -2.656805 -2.375821 4.200096 3.701001 -0.370772 -1.591629
wb_dma_ch_sel/input_ch7_csr -2.843594 0.096315 -1.778594 0.192678 -2.818467 -1.277902 -0.267057 -1.145641 -3.493279 1.901752 -2.588156 -0.242198 1.424355 -1.865956 -0.336403 -0.131663 0.624702 -0.998163 -3.969454 2.257335
assert_wb_dma_rf/input_ch0_txsz -0.391260 0.554726 0.487550 1.046022 0.726742 -1.034112 -1.143642 -2.234292 1.137819 -1.069004 -0.216656 -2.220719 0.895426 -2.019733 1.111724 -0.779888 0.624870 -1.688228 -1.700661 0.887385
assert_wb_dma_rf -1.822058 1.011481 -0.060914 1.321494 0.781474 -2.907155 -0.919211 -2.250469 0.860449 -1.567755 -1.370711 -2.318207 0.645891 -3.043576 1.904645 -0.906418 0.371385 -1.453277 -3.768932 1.305295
wb_dma_ch_rf/reg_ch_am0_r 0.089042 -1.883312 -0.169483 0.275007 -0.293656 2.137778 -0.388378 0.824283 -2.370197 0.740536 0.049848 2.387675 -0.610658 2.085177 -0.427583 -0.605228 -1.512443 1.085119 -0.411664 0.606458
wb_dma_ch_rf/always_4/if_1 -4.436068 0.675626 0.446456 1.593851 -1.889162 -0.576259 0.562632 -3.556771 -2.517657 2.434340 -2.430776 -0.032543 -1.289780 -4.222096 -0.028099 0.065520 1.320350 -2.228672 -4.289608 1.818767
wb_dma_de/always_4/if_1/if_1/stmt_1 3.447723 0.672424 -0.210346 -1.274375 1.162295 1.429479 -1.897925 3.029064 -1.225989 1.227277 -3.425967 -0.509932 -0.248070 -0.332226 -0.044911 -0.372213 0.229128 -2.488748 0.344094 -1.190843
wb_dma_de/always_14/stmt_1/expr_1 4.113357 1.462077 -2.261721 -3.094508 0.197090 -0.568090 -2.022096 1.697203 0.804613 -1.303467 0.213161 2.169891 -0.652491 1.227426 -0.685998 -1.374336 0.283766 0.533929 2.594949 -1.098610
wb_dma_de/wire_use_ed 6.358338 -2.284528 0.243945 -4.792336 -1.167548 2.410192 -0.104350 3.964421 -2.954980 2.371048 -5.947345 6.689305 -1.551967 3.545255 0.720432 -3.530473 2.459763 1.031627 1.108184 2.471814
wb_dma_de/always_23/block_1/case_1/block_2/if_1/cond -3.067527 3.031722 -0.999874 -0.298883 2.212673 -3.948384 -0.482961 -0.117688 1.632451 2.800273 -1.762239 -0.687399 0.117612 -1.419226 -1.848966 -1.002572 -3.585417 -1.978996 -0.949864 0.040077
wb_dma_ch_pri_enc/assign_1_pri_out_tmp/expr_1/expr_1/expr_1/expr_1/expr_1/expr_1 1.825747 0.669392 -0.907881 -0.337368 1.587721 -0.022729 -1.336872 -1.268115 2.044513 -0.219065 0.704936 2.319997 -0.815608 -2.487011 0.642669 -0.992149 -0.804858 0.362359 1.458866 -0.197582
wb_dma_ch_arb/always_2/block_1/case_1/if_1/block_1/if_1/if_1/if_1/if_1/if_1/if_1/if_1/if_1/if_1/if_1/if_1/if_1/if_1/if_1/if_1/cond 2.259002 0.845685 -1.449941 -2.736772 -1.354317 -0.500291 -0.610225 2.996331 -1.395798 -0.967469 -0.729226 -0.178069 0.304505 3.465609 -1.367916 -0.421343 1.297807 0.093502 0.985733 -0.946821
wb_dma_ch_sel/always_7/stmt_1/expr_1 3.067443 1.632455 0.278567 0.191401 0.827509 2.821232 1.230477 -2.717285 -0.328133 -0.913664 -0.881188 1.236766 1.592542 -2.947657 -0.651953 1.725230 1.233888 0.162698 1.412338 1.490463
wb_dma_ch_sel/input_nd_i 4.613390 0.416596 -1.814536 -1.164832 1.321129 2.237443 -0.391549 4.599965 -1.650334 -0.132929 -1.878080 -0.095032 0.722227 0.173562 -0.562160 -0.829252 2.559592 0.056911 1.470078 -3.817203
assert_wb_dma_ch_sel/input_req_i 2.397693 0.615342 -0.014753 0.022010 0.898969 1.988323 0.174138 0.397910 0.457363 -0.045627 -0.221137 0.394049 -0.467499 -0.900789 -0.388411 1.078409 1.303054 0.232748 0.905046 -2.539239
wb_dma_ch_rf/reg_ch_rl -1.559154 0.505500 1.943515 -0.491357 -1.245021 -0.583813 -1.092891 -0.811044 0.447457 0.228928 -0.074304 -1.181416 -2.188989 2.282658 -0.472762 2.260180 -2.405266 -1.660404 -1.131125 0.962822
wb_dma_de/reg_paused -1.900635 1.069133 0.818379 1.340334 -0.184055 -1.365374 -1.287612 -0.495667 -0.236861 1.451144 0.806949 0.823490 -0.221933 -1.349051 0.247240 0.475899 -1.781885 -1.088930 1.641057 1.560226
wb_dma_de/always_23/block_1/case_1/block_4/if_1/if_1/cond 2.097825 0.240829 -1.110750 0.745213 2.824744 2.122872 -1.119047 1.729646 -1.875730 0.301827 -2.615910 -0.017393 0.901805 -3.883936 0.886810 -0.816461 -1.798033 -1.303936 0.032430 0.809938
wb_dma_wb_if/wire_mast_drdy 3.110265 3.096743 -3.493278 0.256810 -0.874103 1.359411 -1.282961 -2.334592 -4.601983 -1.879890 0.964153 1.172623 2.128459 -1.421731 -2.243834 0.783081 1.992380 -0.789551 2.115577 0.557884
wb_dma_de/always_23/block_1/case_1/block_11/stmt_2 2.602817 1.630728 0.497427 -1.522820 -0.815169 1.178334 -0.044629 -0.677565 1.274542 -1.197635 1.016161 0.752930 -1.434777 1.931970 -1.478246 2.459229 1.162801 0.558950 1.550424 -2.030479
wb_dma_de/always_23/block_1/case_1/block_11/stmt_3 3.181175 1.718628 0.315717 0.160960 0.818498 2.872466 1.282689 -2.804872 -0.243046 -0.888749 -0.897008 1.280495 1.553516 -3.053888 -0.674195 1.842850 1.323961 0.200937 1.446340 1.443273
wb_dma_ch_sel/assign_100_valid/expr_1 -1.266417 -0.179251 -1.930894 -3.582749 -4.032720 -1.315228 -1.967375 0.140530 -2.908180 2.495885 -1.409508 -3.651824 3.438737 1.762278 -1.055781 -0.325816 4.184747 -2.678629 -0.481324 -1.534788
wb_dma_wb_if/inst_u1 -5.635678 1.312858 -2.114660 1.042689 -1.232509 -3.912048 1.010026 -2.183549 -2.792572 1.423767 -2.037182 -0.655705 0.675780 -3.657425 -1.125053 -3.270609 0.190013 -1.073291 -3.743855 2.309833
wb_dma_wb_if/inst_u0 -3.223449 4.375434 -3.017287 3.683060 1.117993 -4.039832 0.273597 -1.678312 -5.027859 -0.526639 -1.912367 0.834192 2.199705 -2.272985 -0.461929 -1.041449 1.300208 -1.986967 -4.761036 3.263305
wb_dma_ch_sel -4.006276 1.813022 -1.748114 -0.004020 -1.259469 -3.041097 -0.319219 -0.773845 -1.746569 3.693660 -2.718031 -0.189518 1.256083 -1.276083 -1.900217 -0.096293 -2.001635 -1.668947 -3.246167 1.662444
