eth_miim/assign_7_ByteSelect -0.274603 0.073542 -1.075052 2.275749 -1.494906 4.604100 0.527501 0.944889 1.961979 -1.337267 -0.170415 -1.281091 0.550594 -1.116086 2.357264 -2.580609 -2.790603 -0.032941 -1.185533 0.884544
eth_top/input_wb_adr_i -0.234555 -3.984663 2.858323 0.363508 4.160261 -1.634735 -0.310791 -1.020132 -6.746429 -4.838421 0.241892 0.317107 -3.093021 1.197161 -0.881753 -3.236094 -1.757501 2.435221 0.456440 0.337428
eth_outputcontrol/always_2/block_1/if_1/block_2 0.203588 2.581076 -1.703285 2.266422 0.849946 2.871135 -1.423429 2.160695 0.775440 -1.118108 -1.544105 -2.683440 2.303042 -0.082324 3.220172 -0.914098 -3.971028 -3.304363 1.002038 2.047071
eth_outputcontrol/always_2/block_1/if_1/block_1 1.305900 -2.239175 1.523878 2.275074 -2.552527 3.458932 0.747443 0.557628 -0.148010 -1.591393 1.203211 -4.266762 1.314775 -1.592845 -0.246712 0.714797 -1.074316 0.909259 -1.496932 0.014665
eth_miim/assign_4_StartOp -0.840499 -0.865498 -3.216964 1.354437 0.791783 2.366071 -0.236508 0.871335 -0.579643 -2.151241 1.531556 2.372707 0.825565 -2.922045 -0.304135 -3.036667 -0.543949 1.364085 -0.999878 -0.700382
eth_top/assign_14_wb_dat_o 1.994099 -0.359288 2.238125 1.722550 -0.379822 0.834831 -0.095024 -0.202308 -2.540742 -1.940862 0.555833 -1.195967 1.038677 1.437211 -3.319678 1.470144 -1.442165 0.797722 2.749026 0.206130
eth_outputcontrol/reg_MdoEn_2d -0.687715 -3.964480 0.641872 -0.372650 0.461925 -0.131699 0.498806 -1.568784 -1.765019 0.313442 2.620244 3.002676 -0.096396 -1.881612 -3.605511 -0.135257 2.000115 3.026704 0.628279 -2.064811
eth_top/assign_8_BDCs/expr_1/expr_1 -0.497211 -2.763847 0.852736 -0.237693 -0.139961 3.351513 2.039701 -0.184530 1.320335 1.999722 -0.592176 -0.605124 -0.438300 0.384750 0.176136 -1.208845 -0.582766 0.267899 -0.269095 0.275391
eth_miim/always_4/block_1/if_1/block_2/if_1 -0.468195 -0.941343 -3.284816 1.234058 -0.035918 3.776801 1.854780 1.436899 -0.518466 -1.520633 1.322502 0.614037 0.680444 -3.075364 -0.506508 -3.306747 0.145680 1.096218 -2.074635 -0.372657
eth_register/always_1/block_1/if_1/if_1/if_1/cond 0.554070 4.559865 -0.890365 1.790714 2.270227 -0.691792 -0.585122 0.027528 -0.496104 -2.196388 2.348591 2.196506 -1.647454 -1.656872 -0.787635 -0.261526 -0.315653 -1.717906 2.657962 0.794956
eth_miim/assign_3_ScanStatusOp/expr_1/expr_1 -0.607072 0.664483 -2.787313 1.817284 0.690274 3.156954 -0.551144 1.154961 0.996136 -1.713457 0.636333 1.482595 0.792161 -1.875308 1.264346 -2.713642 -2.084977 -0.004078 -0.251189 0.415407
eth_miim/assign_3_ScanStatusOp/expr_1/expr_2 -1.020215 -1.223398 -1.880903 1.680195 0.052869 4.071862 0.201725 0.076432 1.799758 -1.079393 1.085101 2.460045 -0.305512 -1.856123 1.274314 -3.367183 -1.866120 1.746635 -1.032404 0.030232
eth_top/inst_check_eth_top 0.780684 -0.990022 3.705595 1.661124 -2.071274 3.203463 0.971705 -0.960406 -0.189369 -0.252604 0.085204 -2.880695 0.969470 1.092465 -0.830174 0.759082 -3.307711 -0.448220 3.507536 1.028778
eth_miim/wire_MdcEn_n -1.892897 -2.589085 -2.335581 2.029015 2.069349 1.859663 -3.058378 0.809038 -1.342744 -2.491649 0.162937 -0.183068 1.664739 -3.839955 4.434204 -4.253158 -2.056122 -0.025908 -3.714429 -0.500920
eth_wishbone/reg_TxEn_needed -0.750467 -2.899204 0.245872 0.259297 -0.474301 4.163357 1.837849 -0.359839 2.002714 1.552735 -0.176992 0.567356 -0.427796 -0.163710 0.064478 -1.674758 -1.316587 0.893541 0.186089 0.153644
eth_top/always_4/block_1 -0.080947 0.318326 0.445497 0.866117 -1.108363 1.537949 0.011618 -0.409907 2.615190 -0.576023 0.922594 1.375023 -0.552581 0.666126 -0.269973 0.123996 -1.492103 1.317498 1.373856 0.672444
eth_register/reg_DataOut 0.709978 6.398726 -1.775298 1.798209 -1.302137 -2.565264 -2.342482 -0.428236 0.541347 -3.286898 2.537805 3.392916 0.642786 -0.119508 0.070577 0.685800 -0.385513 1.318891 1.168068 0.672037
eth_registers/wire_r_MiiNoPre -1.020215 -1.223398 -1.880903 1.680195 0.052869 4.071862 0.201725 0.076432 1.799758 -1.079393 1.085101 2.460045 -0.305512 -1.856123 1.274314 -3.367183 -1.866120 1.746635 -1.032404 0.030232
eth_rxstatem/assign_3_StartSFD -0.080947 0.318326 0.445497 0.866117 -1.108363 1.537949 0.011618 -0.409907 2.615190 -0.576023 0.922594 1.375023 -0.552581 0.666126 -0.269973 0.123996 -1.492103 1.317498 1.373856 0.672444
eth_txstatem/reg_StateFCS -0.080947 0.318326 0.445497 0.866117 -1.108363 1.537949 0.011618 -0.409907 2.615190 -0.576023 0.922594 1.375023 -0.552581 0.666126 -0.269973 0.123996 -1.492103 1.317498 1.373856 0.672444
eth_outputcontrol/reg_MdoEn_d -0.687715 -3.964480 0.641872 -0.372650 0.461925 -0.131699 0.498806 -1.568784 -1.765019 0.313442 2.620244 3.002676 -0.096396 -1.881612 -3.605511 -0.135257 2.000115 3.026704 0.628279 -2.064811
eth_txethmac/always_13/block_1/if_1/stmt_2 -0.080947 0.318326 0.445497 0.866117 -1.108363 1.537949 0.011618 -0.409907 2.615190 -0.576023 0.922594 1.375023 -0.552581 0.666126 -0.269973 0.123996 -1.492103 1.317498 1.373856 0.672444
eth_miim/always_6/block_1/if_1 -0.840499 -0.865498 -3.216964 1.354437 0.791783 2.366071 -0.236508 0.871335 -0.579643 -2.151241 1.531556 2.372707 0.825565 -2.922045 -0.304135 -3.036667 -0.543949 1.364085 -0.999878 -0.700382
eth_miim/always_4/block_1/if_1/block_2/if_1/block_2/if_2/cond -0.547644 0.493203 -3.138715 1.438660 1.948153 1.946755 -1.633684 1.308633 -0.181990 -1.892398 1.324966 3.051855 2.211104 -1.928913 -1.729886 -1.229816 -2.125040 -0.361773 3.131103 -0.129973
eth_registers/input_Rw 0.736423 0.060822 -2.738556 0.435491 -1.179781 0.228076 -1.695142 1.613463 0.889216 -1.603541 -0.501669 2.533774 1.655783 -0.286577 -4.874504 1.797018 -1.470806 0.594682 3.717436 -1.610592
eth_wishbone/reg_TxBDReady -0.080947 0.318326 0.445497 0.866117 -1.108363 1.537949 0.011618 -0.409907 2.615190 -0.576023 0.922594 1.375023 -0.552581 0.666126 -0.269973 0.123996 -1.492103 1.317498 1.373856 0.672444
eth_rxstatem/assign_1_StartIdle/expr_1/expr_2/expr_1/expr_1 -0.080947 0.318326 0.445497 0.866117 -1.108363 1.537949 0.011618 -0.409907 2.615190 -0.576023 0.922594 1.375023 -0.552581 0.666126 -0.269973 0.123996 -1.492103 1.317498 1.373856 0.672444
eth_outputcontrol/reg_MdoEn -0.687715 -3.964480 0.641872 -0.372650 0.461925 -0.131699 0.498806 -1.568784 -1.765019 0.313442 2.620244 3.002676 -0.096396 -1.881612 -3.605511 -0.135257 2.000115 3.026704 0.628279 -2.064811
eth_register/always_1/block_1 0.709978 6.398726 -1.775298 1.798209 -1.302137 -2.565264 -2.342482 -0.428236 0.541347 -3.286898 2.537805 3.392916 0.642786 -0.119508 0.070577 0.685800 -0.385513 1.318891 1.168068 0.672037
eth_top/assign_16_temp_wb_ack_o/expr_1/expr_1 -0.497211 -2.763847 0.852736 -0.237693 -0.139961 3.351513 2.039701 -0.184530 1.320335 1.999722 -0.592176 -0.605124 -0.438300 0.384750 0.176136 -1.208845 -0.582766 0.267899 -0.269095 0.275391
eth_top/reg_temp_wb_dat_o_reg 1.994099 -0.359288 2.238125 1.722550 -0.379822 0.834831 -0.095024 -0.202308 -2.540742 -1.940862 0.555833 -1.195967 1.038677 1.437211 -3.319678 1.470144 -1.442165 0.797722 2.749026 0.206130
eth_miim/reg_RStatStart_q1 -1.406682 -0.311999 -2.207708 1.339942 3.115952 0.825975 -3.535451 -0.199617 -0.267308 -1.096757 1.457223 4.931299 2.137113 -1.921250 -0.689935 -1.454563 -2.321343 -0.253644 3.823860 -0.732447
eth_miim/reg_RStatStart_q2 -1.273981 -0.670239 -0.083049 1.521985 1.721700 0.957818 -3.198419 -2.197834 0.230545 -0.008799 1.065196 5.104782 0.364505 -1.159379 1.117961 -1.923548 -2.352351 0.989579 2.213928 -0.971288
eth_clockgen/input_Divider 0.047955 1.336396 -4.628430 1.372525 1.641067 1.314145 0.402579 1.146139 -1.998194 -2.200364 3.148348 2.877752 0.595733 -4.664161 -1.216727 -2.245084 1.420566 1.307443 -1.888294 -0.978812
eth_wishbone/always_1/block_1/stmt_1 -0.497211 -2.763847 0.852736 -0.237693 -0.139961 3.351513 2.039701 -0.184530 1.320335 1.999722 -0.592176 -0.605124 -0.438300 0.384750 0.176136 -1.208845 -0.582766 0.267899 -0.269095 0.275391
eth_top/inst_rxethmac1 -0.080947 0.318326 0.445497 0.866117 -1.108363 1.537949 0.011618 -0.409907 2.615190 -0.576023 0.922594 1.375023 -0.552581 0.666126 -0.269973 0.123996 -1.492103 1.317498 1.373856 0.672444
check_ethernet/reg_wb_wr_dat 0.780684 -0.990022 3.705595 1.661124 -2.071274 3.203463 0.971705 -0.960406 -0.189369 -0.252604 0.085204 -2.880695 0.969470 1.092465 -0.830174 0.759082 -3.307711 -0.448220 3.507536 1.028778
eth_miim/reg_RStatStart -0.547644 0.493203 -3.138715 1.438660 1.948153 1.946755 -1.633684 1.308633 -0.181990 -1.892398 1.324966 3.051855 2.211104 -1.928913 -1.729886 -1.229816 -2.125040 -0.361773 3.131103 -0.129973
eth_outputcontrol/always_1/block_1/if_1/block_2/if_1 -0.687715 -3.964480 0.641872 -0.372650 0.461925 -0.131699 0.498806 -1.568784 -1.765019 0.313442 2.620244 3.002676 -0.096396 -1.881612 -3.605511 -0.135257 2.000115 3.026704 0.628279 -2.064811
eth_registers/wire_r_ScanStat -0.607072 0.664483 -2.787313 1.817284 0.690274 3.156954 -0.551144 1.154961 0.996136 -1.713457 0.636333 1.482595 0.792161 -1.875308 1.264346 -2.713642 -2.084977 -0.004078 -0.251189 0.415407
eth_txstatem/assign_3_StartPreamble/expr_1/expr_1 -0.080947 0.318326 0.445497 0.866117 -1.108363 1.537949 0.011618 -0.409907 2.615190 -0.576023 0.922594 1.375023 -0.552581 0.666126 -0.269973 0.123996 -1.492103 1.317498 1.373856 0.672444
eth_top/assign_7_BDCs/expr_1/expr_1/expr_1/expr_1/expr_1 -0.750467 -2.899204 0.245872 0.259297 -0.474301 4.163357 1.837849 -0.359839 2.002714 1.552735 -0.176992 0.567356 -0.427796 -0.163710 0.064478 -1.674758 -1.316587 0.893541 0.186089 0.153644
eth_miim/always_8/block_1/if_1/block_1/if_1/block_1/if_1/cond -0.607072 0.664483 -2.787313 1.817284 0.690274 3.156954 -0.551144 1.154961 0.996136 -1.713457 0.636333 1.482595 0.792161 -1.875308 1.264346 -2.713642 -2.084977 -0.004078 -0.251189 0.415407
eth_top/assign_2_RegCs/expr_1/expr_1/expr_1/expr_1/expr_1 -0.750467 -2.899204 0.245872 0.259297 -0.474301 4.163357 1.837849 -0.359839 2.002714 1.552735 -0.176992 0.567356 -0.427796 -0.163710 0.064478 -1.674758 -1.316587 0.893541 0.186089 0.153644
eth_top/assign_5_RegCs 0.395467 0.256855 -1.846792 -0.139505 5.222367 0.918415 1.143167 -1.215252 -2.403938 1.363331 1.053590 4.863229 -3.874987 -1.351949 2.281993 -3.777487 1.259952 1.594077 -4.012208 0.208806
eth_outputcontrol/always_2/block_1 0.677811 2.188473 -0.785149 2.615578 0.598725 2.826841 -1.807505 1.913530 0.866674 -1.630301 -1.052132 -3.190621 1.740827 -0.541609 3.902261 -0.611005 -4.014362 -2.982846 -0.126805 1.928890
eth_wishbone/always_27/block_1/if_1/stmt_2 -0.080947 0.318326 0.445497 0.866117 -1.108363 1.537949 0.011618 -0.409907 2.615190 -0.576023 0.922594 1.375023 -0.552581 0.666126 -0.269973 0.123996 -1.492103 1.317498 1.373856 0.672444
eth_miim/assign_1_WriteDataOp -0.468195 -0.941343 -3.284816 1.234058 -0.035918 3.776801 1.854780 1.436899 -0.518466 -1.520633 1.322502 0.614037 0.680444 -3.075364 -0.506508 -3.306747 0.145680 1.096218 -2.074635 -0.372657
eth_rxstatem/always_1/block_1/if_1/block_2/if_1/cond/expr_1 -0.080947 0.318326 0.445497 0.866117 -1.108363 1.537949 0.011618 -0.409907 2.615190 -0.576023 0.922594 1.375023 -0.552581 0.666126 -0.269973 0.123996 -1.492103 1.317498 1.373856 0.672444
eth_miim/inst_outctrl -0.580346 -2.528920 -0.829252 2.148175 0.748154 0.842032 -3.150632 0.404709 -0.835678 -3.412329 0.231421 -1.277020 -0.034019 -3.060636 4.810616 -2.541051 -2.097012 1.053988 -4.929718 -0.499315
eth_wishbone/always_1/block_1 -0.497211 -2.763847 0.852736 -0.237693 -0.139961 3.351513 2.039701 -0.184530 1.320335 1.999722 -0.592176 -0.605124 -0.438300 0.384750 0.176136 -1.208845 -0.582766 0.267899 -0.269095 0.275391
eth_top/assign_9_BDCs -0.497211 -2.763847 0.852736 -0.237693 -0.139961 3.351513 2.039701 -0.184530 1.320335 1.999722 -0.592176 -0.605124 -0.438300 0.384750 0.176136 -1.208845 -0.582766 0.267899 -0.269095 0.275391
eth_outputcontrol/always_1/block_1 -0.687715 -3.964480 0.641872 -0.372650 0.461925 -0.131699 0.498806 -1.568784 -1.765019 0.313442 2.620244 3.002676 -0.096396 -1.881612 -3.605511 -0.135257 2.000115 3.026704 0.628279 -2.064811
eth_txethmac -0.080947 0.318326 0.445497 0.866117 -1.108363 1.537949 0.011618 -0.409907 2.615190 -0.576023 0.922594 1.375023 -0.552581 0.666126 -0.269973 0.123996 -1.492103 1.317498 1.373856 0.672444
eth_miim/reg_InProgress -1.141039 -2.345756 -1.848414 0.838424 1.181990 1.352112 -0.673478 -0.182314 -0.764094 -1.311618 1.510255 2.679229 -0.097314 -2.802798 0.432752 -2.795805 0.035971 1.960393 -1.888047 -1.169156
eth_miim/always_7/block_1/if_1/block_2/if_1/block_1/if_1/block_2/if_1/cond -1.766069 -3.989116 -0.552044 1.281388 -0.081594 2.739405 -0.948574 -0.610819 0.622009 -0.834166 0.927365 1.767983 0.152616 -2.625438 1.659576 -3.164453 -1.247728 2.009712 -1.944875 -1.198284
eth_wishbone/reg_WbEn -0.190075 -1.554361 0.158565 0.165735 -0.334501 1.987838 0.792263 0.054758 0.349832 0.739077 -0.284342 -0.262067 0.476711 -0.135212 -0.684309 -0.392783 -0.799294 0.023439 0.816984 -0.109805
eth_txethmac/wire_StatePAD -0.080947 0.318326 0.445497 0.866117 -1.108363 1.537949 0.011618 -0.409907 2.615190 -0.576023 0.922594 1.375023 -0.552581 0.666126 -0.269973 0.123996 -1.492103 1.317498 1.373856 0.672444
eth_clockgen/always_1/block_1/if_1/block_1/if_1/stmt_1/expr_1 -0.760277 -0.104829 -4.204636 -0.564456 3.257684 -0.865680 0.167290 0.454860 -2.265483 -0.500860 1.569544 4.245597 -0.775487 -3.196563 -0.405401 -2.355252 2.190935 1.119465 -2.025990 -1.339733
eth_registers/assign_112_r_ScanStat -0.607072 0.664483 -2.787313 1.817284 0.690274 3.156954 -0.551144 1.154961 0.996136 -1.713457 0.636333 1.482595 0.792161 -1.875308 1.264346 -2.713642 -2.084977 -0.004078 -0.251189 0.415407
eth_miim/always_6/block_1/if_1/block_2/if_1/block_1/stmt_10 -1.020215 -1.223398 -1.880903 1.680195 0.052869 4.071862 0.201725 0.076432 1.799758 -1.079393 1.085101 2.460045 -0.305512 -1.856123 1.274314 -3.367183 -1.866120 1.746635 -1.032404 0.030232
eth_miim/always_6/block_1/if_1/block_2/if_1/block_1/stmt_11 0.105070 -3.548538 0.876786 -0.053426 -1.801180 1.509904 2.416402 -0.805058 -1.464689 0.267703 2.043650 0.401645 0.408047 -1.482519 -4.530687 0.316486 1.732321 2.676961 0.674757 -1.673159
eth_top/assign_7_BDCs/expr_1 -0.497211 -2.763847 0.852736 -0.237693 -0.139961 3.351513 2.039701 -0.184530 1.320335 1.999722 -0.592176 -0.605124 -0.438300 0.384750 0.176136 -1.208845 -0.582766 0.267899 -0.269095 0.275391
eth_miim/always_8/block_1/if_1/block_1/if_1/block_1/if_1/block_1/if_1 -1.779120 -3.373134 1.574278 1.430486 1.054255 0.448446 -3.497260 -2.575676 0.028244 -0.135521 0.663142 3.300848 -0.489008 -1.595229 2.924048 -2.318079 -1.780639 1.721784 -0.715695 -1.567017
eth_txethmac/always_13 -0.080947 0.318326 0.445497 0.866117 -1.108363 1.537949 0.011618 -0.409907 2.615190 -0.576023 0.922594 1.375023 -0.552581 0.666126 -0.269973 0.123996 -1.492103 1.317498 1.373856 0.672444
eth_register/always_1 0.709978 6.398726 -1.775298 1.798209 -1.302137 -2.565264 -2.342482 -0.428236 0.541347 -3.286898 2.537805 3.392916 0.642786 -0.119508 0.070577 0.685800 -0.385513 1.318891 1.168068 0.672037
eth_shiftreg/input_Rgad -0.403808 -0.595530 -1.084959 1.771150 -0.474938 3.582152 -0.070124 0.524542 1.380288 -1.140785 0.676991 0.725149 0.867501 -1.149585 0.154490 -1.643027 -2.422873 0.485535 0.913726 0.280406
eth_top/assign_5_RegCs/expr_1 0.395467 0.256855 -1.846792 -0.139505 5.222367 0.918415 1.143167 -1.215252 -2.403938 1.363331 1.053590 4.863229 -3.874987 -1.351949 2.281993 -3.777487 1.259952 1.594077 -4.012208 0.208806
eth_maccontrol/wire_TxStartFrmOut -0.080947 0.318326 0.445497 0.866117 -1.108363 1.537949 0.011618 -0.409907 2.615190 -0.576023 0.922594 1.375023 -0.552581 0.666126 -0.269973 0.123996 -1.492103 1.317498 1.373856 0.672444
eth_registers/wire_MIIADDRESSOut -0.403808 -0.595530 -1.084959 1.771150 -0.474938 3.582152 -0.070124 0.524542 1.380288 -1.140785 0.676991 0.725149 0.867501 -1.149585 0.154490 -1.643027 -2.422873 0.485535 0.913726 0.280406
eth_miim/assign_9_ByteSelect -0.274603 0.073542 -1.075052 2.275749 -1.494906 4.604100 0.527501 0.944889 1.961979 -1.337267 -0.170415 -1.281091 0.550594 -1.116086 2.357264 -2.580609 -2.790603 -0.032941 -1.185533 0.884544
eth_clockgen/always_1/block_1 -1.070779 0.944656 -4.008749 -0.656545 2.668565 -0.423500 0.963259 0.700065 -2.567543 0.167746 1.408931 3.597465 0.656845 -2.777945 -1.497800 -2.652222 2.747405 -0.269394 -0.492257 -1.161850
eth_miim/wire_Mdc 0.828619 4.243838 -1.350855 0.378457 -1.191571 3.018799 4.589587 1.087327 -1.041103 2.061275 1.726439 -0.542691 3.148091 -0.370498 -5.217785 0.502053 2.119547 -2.579555 4.786232 0.781879
eth_top/wire_TxStartFrmOut -0.080947 0.318326 0.445497 0.866117 -1.108363 1.537949 0.011618 -0.409907 2.615190 -0.576023 0.922594 1.375023 -0.552581 0.666126 -0.269973 0.123996 -1.492103 1.317498 1.373856 0.672444
eth_rxstatem/always_1/block_1/if_1 -0.080947 0.318326 0.445497 0.866117 -1.108363 1.537949 0.011618 -0.409907 2.615190 -0.576023 0.922594 1.375023 -0.552581 0.666126 -0.269973 0.123996 -1.492103 1.317498 1.373856 0.672444
eth_clockgen/assign_4_MdcEn -0.849439 -3.148979 -0.131103 0.520542 -0.634469 0.860410 0.446687 -1.570190 -0.953622 -0.698963 2.136348 2.711382 -0.973232 -2.462066 -0.776736 -2.067222 1.292228 3.577350 -2.220817 -1.859683
eth_miim/wire_Mdo 0.677811 2.188473 -0.785149 2.615578 0.598725 2.826841 -1.807505 1.913530 0.866674 -1.630301 -1.052132 -3.190621 1.740827 -0.541609 3.902261 -0.611005 -4.014362 -2.982846 -0.126805 1.928890
eth_top/inst_maccontrol1 -0.080947 0.318326 0.445497 0.866117 -1.108363 1.537949 0.011618 -0.409907 2.615190 -0.576023 0.922594 1.375023 -0.552581 0.666126 -0.269973 0.123996 -1.492103 1.317498 1.373856 0.672444
eth_txstatem/assign_5_StartData/expr_1/expr_1/expr_1 -0.080947 0.318326 0.445497 0.866117 -1.108363 1.537949 0.011618 -0.409907 2.615190 -0.576023 0.922594 1.375023 -0.552581 0.666126 -0.269973 0.123996 -1.492103 1.317498 1.373856 0.672444
eth_txstatem/reg_StateData -0.080947 0.318326 0.445497 0.866117 -1.108363 1.537949 0.011618 -0.409907 2.615190 -0.576023 0.922594 1.375023 -0.552581 0.666126 -0.269973 0.123996 -1.492103 1.317498 1.373856 0.672444
eth_miim/always_3/block_1/if_1/block_2/if_1 -0.607072 0.664483 -2.787313 1.817284 0.690274 3.156954 -0.551144 1.154961 0.996136 -1.713457 0.636333 1.482595 0.792161 -1.875308 1.264346 -2.713642 -2.084977 -0.004078 -0.251189 0.415407
eth_register/always_1/block_1/if_1/stmt_1 1.158156 3.929861 -0.833631 2.499555 2.301859 -0.085151 -1.117566 -0.114104 -2.952240 -2.846655 1.861238 1.646295 -0.681100 -2.308568 -1.168958 -0.599387 -1.688047 -1.829593 3.141390 0.223069
eth_miim/always_1/block_1/if_1/block_2/stmt_1 0.105070 -3.548538 0.876786 -0.053426 -1.801180 1.509904 2.416402 -0.805058 -1.464689 0.267703 2.043650 0.401645 0.408047 -1.482519 -4.530687 0.316486 1.732321 2.676961 0.674757 -1.673159
eth_txstatem/always_1/block_1/if_1/block_2/if_6/if_1 -0.080947 0.318326 0.445497 0.866117 -1.108363 1.537949 0.011618 -0.409907 2.615190 -0.576023 0.922594 1.375023 -0.552581 0.666126 -0.269973 0.123996 -1.492103 1.317498 1.373856 0.672444
eth_wishbone/always_6/block_1/if_1/if_1/if_1 -0.080947 0.318326 0.445497 0.866117 -1.108363 1.537949 0.011618 -0.409907 2.615190 -0.576023 0.922594 1.375023 -0.552581 0.666126 -0.269973 0.123996 -1.492103 1.317498 1.373856 0.672444
eth_registers/assign_39_MIIMODER_Wr 0.047955 1.336396 -4.628430 1.372525 1.641067 1.314145 0.402579 1.146139 -1.998194 -2.200364 3.148348 2.877752 0.595733 -4.664161 -1.216727 -2.245084 1.420566 1.307443 -1.888294 -0.978812
eth_top/assign_9_BDCs/expr_1/expr_1 -0.497211 -2.763847 0.852736 -0.237693 -0.139961 3.351513 2.039701 -0.184530 1.320335 1.999722 -0.592176 -0.605124 -0.438300 0.384750 0.176136 -1.208845 -0.582766 0.267899 -0.269095 0.275391
eth_miim/input_Rgad -0.403808 -0.595530 -1.084959 1.771150 -0.474938 3.582152 -0.070124 0.524542 1.380288 -1.140785 0.676991 0.725149 0.867501 -1.149585 0.154490 -1.643027 -2.422873 0.485535 0.913726 0.280406
eth_wishbone/always_6 -0.080947 0.318326 0.445497 0.866117 -1.108363 1.537949 0.011618 -0.409907 2.615190 -0.576023 0.922594 1.375023 -0.552581 0.666126 -0.269973 0.123996 -1.492103 1.317498 1.373856 0.672444
eth_miim/wire_EndOp -1.766069 -3.989116 -0.552044 1.281388 -0.081594 2.739405 -0.948574 -0.610819 0.622009 -0.834166 0.927365 1.767983 0.152616 -2.625438 1.659576 -3.164453 -1.247728 2.009712 -1.944875 -1.198284
eth_wishbone/always_24/block_1 -0.080947 0.318326 0.445497 0.866117 -1.108363 1.537949 0.011618 -0.409907 2.615190 -0.576023 0.922594 1.375023 -0.552581 0.666126 -0.269973 0.123996 -1.492103 1.317498 1.373856 0.672444
eth_top/wire_r_WCtrlData -0.607072 0.664483 -2.787313 1.817284 0.690274 3.156954 -0.551144 1.154961 0.996136 -1.713457 0.636333 1.482595 0.792161 -1.875308 1.264346 -2.713642 -2.084977 -0.004078 -0.251189 0.415407
eth_top/assign_3_RegCs/expr_1 -0.497211 -2.763847 0.852736 -0.237693 -0.139961 3.351513 2.039701 -0.184530 1.320335 1.999722 -0.592176 -0.605124 -0.438300 0.384750 0.176136 -1.208845 -0.582766 0.267899 -0.269095 0.275391
eth_txstatem/assign_7_StartFCS/expr_1/expr_1/expr_1 -0.080947 0.318326 0.445497 0.866117 -1.108363 1.537949 0.011618 -0.409907 2.615190 -0.576023 0.922594 1.375023 -0.552581 0.666126 -0.269973 0.123996 -1.492103 1.317498 1.373856 0.672444
eth_top/assign_6_BDCs/expr_1/expr_1 -0.497211 -2.763847 0.852736 -0.237693 -0.139961 3.351513 2.039701 -0.184530 1.320335 1.999722 -0.592176 -0.605124 -0.438300 0.384750 0.176136 -1.208845 -0.582766 0.267899 -0.269095 0.275391
eth_top/always_1/block_1 0.772996 -3.278228 1.946885 -1.109672 1.016975 -0.302085 -0.588840 -0.919551 -1.340734 1.611157 -2.122671 0.703126 -0.816124 2.168721 -2.182621 1.578512 -1.910652 0.604436 2.619943 -0.844837
eth_rxethmac -0.080947 0.318326 0.445497 0.866117 -1.108363 1.537949 0.011618 -0.409907 2.615190 -0.576023 0.922594 1.375023 -0.552581 0.666126 -0.269973 0.123996 -1.492103 1.317498 1.373856 0.672444
eth_registers/wire_r_WCtrlData -0.607072 0.664483 -2.787313 1.817284 0.690274 3.156954 -0.551144 1.154961 0.996136 -1.713457 0.636333 1.482595 0.792161 -1.875308 1.264346 -2.713642 -2.084977 -0.004078 -0.251189 0.415407
eth_miim/reg_EndBusy 0.105070 -3.548538 0.876786 -0.053426 -1.801180 1.509904 2.416402 -0.805058 -1.464689 0.267703 2.043650 0.401645 0.408047 -1.482519 -4.530687 0.316486 1.732321 2.676961 0.674757 -1.673159
eth_wishbone/always_26/block_1/if_1/stmt_2 -0.080947 0.318326 0.445497 0.866117 -1.108363 1.537949 0.011618 -0.409907 2.615190 -0.576023 0.922594 1.375023 -0.552581 0.666126 -0.269973 0.123996 -1.492103 1.317498 1.373856 0.672444
eth_miim/always_8/block_1/if_1/stmt_1 -0.070814 -1.329406 -0.219531 1.069377 -0.130028 3.881147 0.118629 1.702220 1.111985 0.084285 -1.314517 -2.905581 2.279693 -0.200824 0.446191 -0.075491 -3.280461 -2.236073 1.977052 0.939848
eth_outputcontrol -0.580346 -2.528920 -0.829252 2.148175 0.748154 0.842032 -3.150632 0.404709 -0.835678 -3.412329 0.231421 -1.277020 -0.034019 -3.060636 4.810616 -2.541051 -2.097012 1.053988 -4.929718 -0.499315
eth_outputcontrol/reg_Mdo_2d -0.291842 3.442323 -2.219428 1.842501 1.246237 2.518794 -1.752684 2.168886 1.454291 -0.815296 -1.735134 -0.963908 2.145390 0.060154 2.948722 -1.325784 -4.373841 -3.955359 2.439423 1.840348
eth_top/wire_BDCs -0.497211 -2.763847 0.852736 -0.237693 -0.139961 3.351513 2.039701 -0.184530 1.320335 1.999722 -0.592176 -0.605124 -0.438300 0.384750 0.176136 -1.208845 -0.582766 0.267899 -0.269095 0.275391
eth_registers/always_1/block_1 1.245870 0.064460 0.435085 2.182406 -1.006176 -0.236574 -2.853074 -0.131114 -1.942399 -3.538825 1.241817 1.109671 2.075450 -0.006280 -3.429764 1.696459 -2.924450 1.738144 3.942077 -0.782741
eth_clockgen/assign_2_CounterPreset/expr_1 1.122726 1.354662 -3.373795 1.708757 3.883054 1.181683 0.575761 1.667278 -2.215158 -3.322450 3.696859 1.451072 -1.243233 -3.255530 -1.071238 -1.353075 0.835942 1.567150 -1.581180 0.509997
eth_transmitcontrol/reg_WillSendControlFrame -0.080947 0.318326 0.445497 0.866117 -1.108363 1.537949 0.011618 -0.409907 2.615190 -0.576023 0.922594 1.375023 -0.552581 0.666126 -0.269973 0.123996 -1.492103 1.317498 1.373856 0.672444
eth_miim/assign_3_ScanStatusOp/expr_1/expr_1/expr_2 -1.020215 -1.223398 -1.880903 1.680195 0.052869 4.071862 0.201725 0.076432 1.799758 -1.079393 1.085101 2.460045 -0.305512 -1.856123 1.274314 -3.367183 -1.866120 1.746635 -1.032404 0.030232
eth_miim/assign_3_ScanStatusOp/expr_1/expr_1/expr_1 -0.607072 0.664483 -2.787313 1.817284 0.690274 3.156954 -0.551144 1.154961 0.996136 -1.713457 0.636333 1.482595 0.792161 -1.875308 1.264346 -2.713642 -2.084977 -0.004078 -0.251189 0.415407
eth_miim/always_7/block_1/if_1/block_2/if_1/block_1/if_1/block_1/stmt_1 -0.849439 -3.148979 -0.131103 0.520542 -0.634469 0.860410 0.446687 -1.570190 -0.953622 -0.698963 2.136348 2.711382 -0.973232 -2.462066 -0.776736 -2.067222 1.292228 3.577350 -2.220817 -1.859683
eth_rxstatem/assign_7_StateData -0.080947 0.318326 0.445497 0.866117 -1.108363 1.537949 0.011618 -0.409907 2.615190 -0.576023 0.922594 1.375023 -0.552581 0.666126 -0.269973 0.123996 -1.492103 1.317498 1.373856 0.672444
eth_rxstatem/reg_StateDrop -0.080947 0.318326 0.445497 0.866117 -1.108363 1.537949 0.011618 -0.409907 2.615190 -0.576023 0.922594 1.375023 -0.552581 0.666126 -0.269973 0.123996 -1.492103 1.317498 1.373856 0.672444
eth_registers/wire_MAC_ADDR0Out 0.916824 0.682975 -0.276730 2.032104 -2.358116 -0.328393 -2.718369 -0.658474 -1.453781 -2.412234 1.132115 2.070777 3.285655 0.299124 -3.122179 1.384328 -2.435967 2.482261 3.461682 -1.095801
eth_wishbone/always_2/block_1/if_1/if_1/if_1 -0.750467 -2.899204 0.245872 0.259297 -0.474301 4.163357 1.837849 -0.359839 2.002714 1.552735 -0.176992 0.567356 -0.427796 -0.163710 0.064478 -1.674758 -1.316587 0.893541 0.186089 0.153644
eth_miim/assign_1_WriteDataOp/expr_1/expr_1 -0.678506 -2.305859 -2.262538 0.922430 0.033188 3.193622 1.474649 0.032477 -0.462003 -1.062435 2.597383 3.326297 0.434315 -2.830708 -2.982205 -2.361611 0.406449 2.797608 0.199529 -1.207612
eth_registers/assign_2_Read 0.736423 0.060822 -2.738556 0.435491 -1.179781 0.228076 -1.695142 1.613463 0.889216 -1.603541 -0.501669 2.533774 1.655783 -0.286577 -4.874504 1.797018 -1.470806 0.594682 3.717436 -1.610592
eth_clockgen/always_1 -1.070779 0.944656 -4.008749 -0.656545 2.668565 -0.423500 0.963259 0.700065 -2.567543 0.167746 1.408931 3.597465 0.656845 -2.777945 -1.497800 -2.652222 2.747405 -0.269394 -0.492257 -1.161850
eth_clockgen/always_2 -1.665429 0.050365 -2.293067 0.186738 -2.138440 0.653063 0.723566 -0.253330 -3.145902 0.656621 0.109198 1.381227 4.008957 -3.235113 -1.080602 -3.204480 2.395059 -1.036252 -0.901590 -2.274209
eth_rxstatem/assign_1_StartIdle -0.080947 0.318326 0.445497 0.866117 -1.108363 1.537949 0.011618 -0.409907 2.615190 -0.576023 0.922594 1.375023 -0.552581 0.666126 -0.269973 0.123996 -1.492103 1.317498 1.373856 0.672444
eth_miim/always_1/block_1/if_1/block_2/stmt_2 0.105070 -3.548538 0.876786 -0.053426 -1.801180 1.509904 2.416402 -0.805058 -1.464689 0.267703 2.043650 0.401645 0.408047 -1.482519 -4.530687 0.316486 1.732321 2.676961 0.674757 -1.673159
eth_registers/assign_113_r_RGAD -0.403808 -0.595530 -1.084959 1.771150 -0.474938 3.582152 -0.070124 0.524542 1.380288 -1.140785 0.676991 0.725149 0.867501 -1.149585 0.154490 -1.643027 -2.422873 0.485535 0.913726 0.280406
eth_top/wire_RegDataOut 1.245870 0.064460 0.435085 2.182406 -1.006176 -0.236574 -2.853074 -0.131114 -1.942399 -3.538825 1.241817 1.109671 2.075450 -0.006280 -3.429764 1.696459 -2.924450 1.738144 3.942077 -0.782741
eth_txstatem/assign_3_StartPreamble -0.080947 0.318326 0.445497 0.866117 -1.108363 1.537949 0.011618 -0.409907 2.615190 -0.576023 0.922594 1.375023 -0.552581 0.666126 -0.269973 0.123996 -1.492103 1.317498 1.373856 0.672444
eth_miim/always_8/block_1 -2.334829 -1.823227 -2.220948 1.006284 3.224025 0.233236 -4.404538 0.459974 0.785094 -1.762436 -0.659153 2.525800 0.245560 -2.021176 5.146960 -3.429424 -2.966874 -0.357767 -1.922343 -0.261408
check_ethernet/input_wb_adr_i 0.780684 -0.990022 3.705595 1.661124 -2.071274 3.203463 0.971705 -0.960406 -0.189369 -0.252604 0.085204 -2.880695 0.969470 1.092465 -0.830174 0.759082 -3.307711 -0.448220 3.507536 1.028778
eth_miim/always_6/block_1/if_1/block_2/if_1 -0.840499 -0.865498 -3.216964 1.354437 0.791783 2.366071 -0.236508 0.871335 -0.579643 -2.151241 1.531556 2.372707 0.825565 -2.922045 -0.304135 -3.036667 -0.543949 1.364085 -0.999878 -0.700382
eth_clockgen/always_2/block_1/if_1/stmt_1 2.182349 5.382972 0.411872 3.455645 -3.794369 4.622198 3.512891 -1.346352 -2.103199 1.012149 2.090197 -1.555100 2.294675 -1.965894 -1.285033 -1.188882 1.161837 -1.028837 0.118639 0.659133
eth_txethmac/inst_txstatem1 -0.080947 0.318326 0.445497 0.866117 -1.108363 1.537949 0.011618 -0.409907 2.615190 -0.576023 0.922594 1.375023 -0.552581 0.666126 -0.269973 0.123996 -1.492103 1.317498 1.373856 0.672444
eth_top/always_1/block_1/if_1 0.772996 -3.278228 1.946885 -1.109672 1.016975 -0.302085 -0.588840 -0.919551 -1.340734 1.611157 -2.122671 0.703126 -0.816124 2.168721 -2.182621 1.578512 -1.910652 0.604436 2.619943 -0.844837
eth_txstatem/always_1/block_1/if_1/block_2/if_5/if_1/cond -0.080947 0.318326 0.445497 0.866117 -1.108363 1.537949 0.011618 -0.409907 2.615190 -0.576023 0.922594 1.375023 -0.552581 0.666126 -0.269973 0.123996 -1.492103 1.317498 1.373856 0.672444
eth_transmitcontrol/always_1/block_1/if_1/if_1/if_1 -0.080947 0.318326 0.445497 0.866117 -1.108363 1.537949 0.011618 -0.409907 2.615190 -0.576023 0.922594 1.375023 -0.552581 0.666126 -0.269973 0.123996 -1.492103 1.317498 1.373856 0.672444
eth_top/input_wb_stb_i 1.116435 3.266799 0.764792 -0.164641 -4.508767 -0.855245 0.328426 -5.316956 -0.735153 2.829484 -2.294186 5.232723 -3.711712 -2.391550 2.519197 -0.442122 -1.716385 -0.140148 -1.211724 -3.032089
eth_miim/always_8/block_1/if_1/block_1/if_1/block_1/if_1/stmt_1 -2.093190 -0.573646 -0.418635 2.656146 0.998219 -0.055677 -5.222430 -1.021218 -0.784034 -2.883196 0.527792 3.534025 1.482630 -2.357365 3.817260 -3.933563 -2.703135 -0.167628 -0.285526 -1.198629
eth_registers/inst_MIICOMMAND0 -0.607072 0.664483 -2.787313 1.817284 0.690274 3.156954 -0.551144 1.154961 0.996136 -1.713457 0.636333 1.482595 0.792161 -1.875308 1.264346 -2.713642 -2.084977 -0.004078 -0.251189 0.415407
eth_registers/inst_MIICOMMAND1 -0.547644 0.493203 -3.138715 1.438660 1.948153 1.946755 -1.633684 1.308633 -0.181990 -1.892398 1.324966 3.051855 2.211104 -1.928913 -1.729886 -1.229816 -2.125040 -0.361773 3.131103 -0.129973
eth_registers/inst_MIICOMMAND2 -0.607072 0.664483 -2.787313 1.817284 0.690274 3.156954 -0.551144 1.154961 0.996136 -1.713457 0.636333 1.482595 0.792161 -1.875308 1.264346 -2.713642 -2.084977 -0.004078 -0.251189 0.415407
eth_miim/always_6/block_1/if_1/block_2/if_1/block_1/stmt_2 -0.678506 -2.305859 -2.262538 0.922430 0.033188 3.193622 1.474649 0.032477 -0.462003 -1.062435 2.597383 3.326297 0.434315 -2.830708 -2.982205 -2.361611 0.406449 2.797608 0.199529 -1.207612
eth_miim/always_6/block_1/if_1/block_2/if_1/block_1/stmt_3 -0.547644 0.493203 -3.138715 1.438660 1.948153 1.946755 -1.633684 1.308633 -0.181990 -1.892398 1.324966 3.051855 2.211104 -1.928913 -1.729886 -1.229816 -2.125040 -0.361773 3.131103 -0.129973
eth_shiftreg/always_1/block_1/if_1/block_2/if_1/block_1/if_1/block_2/stmt_1 -0.274603 0.073542 -1.075052 2.275749 -1.494906 4.604100 0.527501 0.944889 1.961979 -1.337267 -0.170415 -1.281091 0.550594 -1.116086 2.357264 -2.580609 -2.790603 -0.032941 -1.185533 0.884544
eth_miim/always_6/block_1/if_1/block_2/if_1/block_1/stmt_1 -0.468195 -0.941343 -3.284816 1.234058 -0.035918 3.776801 1.854780 1.436899 -0.518466 -1.520633 1.322502 0.614037 0.680444 -3.075364 -0.506508 -3.306747 0.145680 1.096218 -2.074635 -0.372657
eth_miim/always_6/block_1/if_1/block_2/if_1/block_1/stmt_4 -0.902877 -0.738183 -2.459749 1.648200 0.798381 3.326932 -0.493415 0.055169 1.200462 -1.497496 2.062156 4.401459 0.496726 -2.023120 -1.155665 -2.446115 -1.845530 1.935853 1.547741 -0.348704
eth_rxethmac/input_Transmitting -0.080947 0.318326 0.445497 0.866117 -1.108363 1.537949 0.011618 -0.409907 2.615190 -0.576023 0.922594 1.375023 -0.552581 0.666126 -0.269973 0.123996 -1.492103 1.317498 1.373856 0.672444
eth_registers/input_Address 2.680971 -0.473656 -0.378418 2.351932 4.711774 1.506425 -1.893192 2.332448 -4.286805 -3.104685 -0.969891 -0.112730 -0.877043 -1.012200 -4.108737 0.938360 -4.114085 -3.109145 5.318412 -0.386580
eth_miim/always_6/block_1/if_1/block_2/if_1/block_1/stmt_9 -1.020215 -1.223398 -1.880903 1.680195 0.052869 4.071862 0.201725 0.076432 1.799758 -1.079393 1.085101 2.460045 -0.305512 -1.856123 1.274314 -3.367183 -1.866120 1.746635 -1.032404 0.030232
eth_registers/wire_MIIMODER_Wr 0.047955 1.336396 -4.628430 1.372525 1.641067 1.314145 0.402579 1.146139 -1.998194 -2.200364 3.148348 2.877752 0.595733 -4.664161 -1.216727 -2.245084 1.420566 1.307443 -1.888294 -0.978812
eth_wishbone/always_24/block_1/if_1/if_1/cond/expr_1 -0.080947 0.318326 0.445497 0.866117 -1.108363 1.537949 0.011618 -0.409907 2.615190 -0.576023 0.922594 1.375023 -0.552581 0.666126 -0.269973 0.123996 -1.492103 1.317498 1.373856 0.672444
eth_miim/always_6/block_1 -0.840499 -0.865498 -3.216964 1.354437 0.791783 2.366071 -0.236508 0.871335 -0.579643 -2.151241 1.531556 2.372707 0.825565 -2.922045 -0.304135 -3.036667 -0.543949 1.364085 -0.999878 -0.700382
eth_outputcontrol/always_1/block_1/if_1 -0.687715 -3.964480 0.641872 -0.372650 0.461925 -0.131699 0.498806 -1.568784 -1.765019 0.313442 2.620244 3.002676 -0.096396 -1.881612 -3.605511 -0.135257 2.000115 3.026704 0.628279 -2.064811
eth_top/input_wb_we_i 1.204506 -1.099078 2.416230 1.080444 -0.605777 0.516338 -0.296135 -1.398977 -2.671242 -1.202028 0.713384 0.845072 0.060319 0.462286 -2.901459 1.005097 -1.916785 1.389529 3.083402 -0.540418
eth_wishbone/always_6/block_1/if_1/if_1 -0.080947 0.318326 0.445497 0.866117 -1.108363 1.537949 0.011618 -0.409907 2.615190 -0.576023 0.922594 1.375023 -0.552581 0.666126 -0.269973 0.123996 -1.492103 1.317498 1.373856 0.672444
eth_miim/always_7/block_1 -1.141039 -2.345756 -1.848414 0.838424 1.181990 1.352112 -0.673478 -0.182314 -0.764094 -1.311618 1.510255 2.679229 -0.097314 -2.802798 0.432752 -2.795805 0.035971 1.960393 -1.888047 -1.169156
eth_wishbone -0.402754 -0.867751 0.888326 -0.313627 -0.329949 2.154291 1.632354 -0.513212 3.143385 1.590339 0.086287 0.726220 -1.611806 1.351529 0.759404 -0.526968 -0.288960 1.014149 -0.321664 1.014095
eth_txstatem/always_1/block_1/if_1/block_2/if_4/if_1/cond -0.080947 0.318326 0.445497 0.866117 -1.108363 1.537949 0.011618 -0.409907 2.615190 -0.576023 0.922594 1.375023 -0.552581 0.666126 -0.269973 0.123996 -1.492103 1.317498 1.373856 0.672444
eth_wishbone/always_77/block_1/if_1 -0.750467 -2.899204 0.245872 0.259297 -0.474301 4.163357 1.837849 -0.359839 2.002714 1.552735 -0.176992 0.567356 -0.427796 -0.163710 0.064478 -1.674758 -1.316587 0.893541 0.186089 0.153644
eth_top/assign_7_BDCs/expr_1/expr_1/expr_1 -0.497211 -2.763847 0.852736 -0.237693 -0.139961 3.351513 2.039701 -0.184530 1.320335 1.999722 -0.592176 -0.605124 -0.438300 0.384750 0.176136 -1.208845 -0.582766 0.267899 -0.269095 0.275391
eth_rxstatem/reg_StatePreamble -0.080947 0.318326 0.445497 0.866117 -1.108363 1.537949 0.011618 -0.409907 2.615190 -0.576023 0.922594 1.375023 -0.552581 0.666126 -0.269973 0.123996 -1.492103 1.317498 1.373856 0.672444
eth_rxstatem/always_1/block_1/if_1/block_2/if_3 -0.080947 0.318326 0.445497 0.866117 -1.108363 1.537949 0.011618 -0.409907 2.615190 -0.576023 0.922594 1.375023 -0.552581 0.666126 -0.269973 0.123996 -1.492103 1.317498 1.373856 0.672444
eth_rxstatem/always_1/block_1/if_1/block_2/if_2 -0.080947 0.318326 0.445497 0.866117 -1.108363 1.537949 0.011618 -0.409907 2.615190 -0.576023 0.922594 1.375023 -0.552581 0.666126 -0.269973 0.123996 -1.492103 1.317498 1.373856 0.672444
eth_rxstatem/always_1/block_1/if_1/block_2/if_5 -0.080947 0.318326 0.445497 0.866117 -1.108363 1.537949 0.011618 -0.409907 2.615190 -0.576023 0.922594 1.375023 -0.552581 0.666126 -0.269973 0.123996 -1.492103 1.317498 1.373856 0.672444
eth_rxstatem -0.080947 0.318326 0.445497 0.866117 -1.108363 1.537949 0.011618 -0.409907 2.615190 -0.576023 0.922594 1.375023 -0.552581 0.666126 -0.269973 0.123996 -1.492103 1.317498 1.373856 0.672444
eth_wishbone/always_30/block_1/if_1/if_1/if_1 -0.080947 0.318326 0.445497 0.866117 -1.108363 1.537949 0.011618 -0.409907 2.615190 -0.576023 0.922594 1.375023 -0.552581 0.666126 -0.269973 0.123996 -1.492103 1.317498 1.373856 0.672444
eth_rxstatem/always_1/block_1/if_1/block_2/if_6 -0.080947 0.318326 0.445497 0.866117 -1.108363 1.537949 0.011618 -0.409907 2.615190 -0.576023 0.922594 1.375023 -0.552581 0.666126 -0.269973 0.123996 -1.492103 1.317498 1.373856 0.672444
eth_miim/input_WCtrlData -0.607072 0.664483 -2.787313 1.817284 0.690274 3.156954 -0.551144 1.154961 0.996136 -1.713457 0.636333 1.482595 0.792161 -1.875308 1.264346 -2.713642 -2.084977 -0.004078 -0.251189 0.415407
eth_miim/always_7/block_1/if_1/block_2 -1.141039 -2.345756 -1.848414 0.838424 1.181990 1.352112 -0.673478 -0.182314 -0.764094 -1.311618 1.510255 2.679229 -0.097314 -2.802798 0.432752 -2.795805 0.035971 1.960393 -1.888047 -1.169156
eth_miim/always_7/block_1/if_1/block_1 -0.815676 -0.832428 -1.806589 0.598015 1.810120 1.476747 -1.155248 -0.356810 0.670051 -0.580791 1.900377 5.532218 0.626539 -0.995422 -2.804490 -0.849313 -1.412011 1.612660 3.707533 -0.643675
eth_top/assign_2_RegCs/expr_1/expr_1/expr_1/expr_1 -0.750467 -2.899204 0.245872 0.259297 -0.474301 4.163357 1.837849 -0.359839 2.002714 1.552735 -0.176992 0.567356 -0.427796 -0.163710 0.064478 -1.674758 -1.316587 0.893541 0.186089 0.153644
eth_wishbone/always_77/block_1/if_1/if_1 -0.750467 -2.899204 0.245872 0.259297 -0.474301 4.163357 1.837849 -0.359839 2.002714 1.552735 -0.176992 0.567356 -0.427796 -0.163710 0.064478 -1.674758 -1.316587 0.893541 0.186089 0.153644
eth_registers/always_1/block_1/if_1/cond 0.736423 0.060822 -2.738556 0.435491 -1.179781 0.228076 -1.695142 1.613463 0.889216 -1.603541 -0.501669 2.533774 1.655783 -0.286577 -4.874504 1.797018 -1.470806 0.594682 3.717436 -1.610592
eth_top/wire_WillTransmit -0.080947 0.318326 0.445497 0.866117 -1.108363 1.537949 0.011618 -0.409907 2.615190 -0.576023 0.922594 1.375023 -0.552581 0.666126 -0.269973 0.123996 -1.492103 1.317498 1.373856 0.672444
eth_top/always_4/block_1/stmt_2 -0.080947 0.318326 0.445497 0.866117 -1.108363 1.537949 0.011618 -0.409907 2.615190 -0.576023 0.922594 1.375023 -0.552581 0.666126 -0.269973 0.123996 -1.492103 1.317498 1.373856 0.672444
eth_top/always_4/block_1/stmt_1 -0.080947 0.318326 0.445497 0.866117 -1.108363 1.537949 0.011618 -0.409907 2.615190 -0.576023 0.922594 1.375023 -0.552581 0.666126 -0.269973 0.123996 -1.492103 1.317498 1.373856 0.672444
eth_outputcontrol/always_1/block_1/if_1/block_2 -0.687715 -3.964480 0.641872 -0.372650 0.461925 -0.131699 0.498806 -1.568784 -1.765019 0.313442 2.620244 3.002676 -0.096396 -1.881612 -3.605511 -0.135257 2.000115 3.026704 0.628279 -2.064811
eth_txstatem/assign_6_StartPAD/expr_1 -0.080947 0.318326 0.445497 0.866117 -1.108363 1.537949 0.011618 -0.409907 2.615190 -0.576023 0.922594 1.375023 -0.552581 0.666126 -0.269973 0.123996 -1.492103 1.317498 1.373856 0.672444
eth_top/assign_6_BDCs -0.497211 -2.763847 0.852736 -0.237693 -0.139961 3.351513 2.039701 -0.184530 1.320335 1.999722 -0.592176 -0.605124 -0.438300 0.384750 0.176136 -1.208845 -0.582766 0.267899 -0.269095 0.275391
eth_wishbone/input_BDCs -0.497211 -2.763847 0.852736 -0.237693 -0.139961 3.351513 2.039701 -0.184530 1.320335 1.999722 -0.592176 -0.605124 -0.438300 0.384750 0.176136 -1.208845 -0.582766 0.267899 -0.269095 0.275391
eth_registers/assign_2_Read/expr_1 0.736423 0.060822 -2.738556 0.435491 -1.179781 0.228076 -1.695142 1.613463 0.889216 -1.603541 -0.501669 2.533774 1.655783 -0.286577 -4.874504 1.797018 -1.470806 0.594682 3.717436 -1.610592
eth_wishbone/always_30/block_1 -0.080947 0.318326 0.445497 0.866117 -1.108363 1.537949 0.011618 -0.409907 2.615190 -0.576023 0.922594 1.375023 -0.552581 0.666126 -0.269973 0.123996 -1.492103 1.317498 1.373856 0.672444
eth_miim/always_4/block_1/if_1/block_2/if_1/block_2/if_1/cond/expr_1 -0.678506 -2.305859 -2.262538 0.922430 0.033188 3.193622 1.474649 0.032477 -0.462003 -1.062435 2.597383 3.326297 0.434315 -2.830708 -2.982205 -2.361611 0.406449 2.797608 0.199529 -1.207612
eth_registers/assign_2_Read/expr_2 0.736423 0.060822 -2.738556 0.435491 -1.179781 0.228076 -1.695142 1.613463 0.889216 -1.603541 -0.501669 2.533774 1.655783 -0.286577 -4.874504 1.797018 -1.470806 0.594682 3.717436 -1.610592
eth_miim/always_3/block_1/if_1/block_2/stmt_8 -0.607072 0.664483 -2.787313 1.817284 0.690274 3.156954 -0.551144 1.154961 0.996136 -1.713457 0.636333 1.482595 0.792161 -1.875308 1.264346 -2.713642 -2.084977 -0.004078 -0.251189 0.415407
eth_miim/always_4/block_1/if_1/block_2/if_1/block_2 -0.468195 -0.941343 -3.284816 1.234058 -0.035918 3.776801 1.854780 1.436899 -0.518466 -1.520633 1.322502 0.614037 0.680444 -3.075364 -0.506508 -3.306747 0.145680 1.096218 -2.074635 -0.372657
eth_registers/assign_43_MIIADDRESS_Wr/expr_1 -0.403808 -0.595530 -1.084959 1.771150 -0.474938 3.582152 -0.070124 0.524542 1.380288 -1.140785 0.676991 0.725149 0.867501 -1.149585 0.154490 -1.643027 -2.422873 0.485535 0.913726 0.280406
eth_miim/always_3/block_1/if_1/block_2/stmt_4 -0.547644 0.493203 -3.138715 1.438660 1.948153 1.946755 -1.633684 1.308633 -0.181990 -1.892398 1.324966 3.051855 2.211104 -1.928913 -1.729886 -1.229816 -2.125040 -0.361773 3.131103 -0.129973
eth_top/assign_17_MRxDV_Lb -0.080947 0.318326 0.445497 0.866117 -1.108363 1.537949 0.011618 -0.409907 2.615190 -0.576023 0.922594 1.375023 -0.552581 0.666126 -0.269973 0.123996 -1.492103 1.317498 1.373856 0.672444
eth_miim/always_3/block_1/if_1/block_2/stmt_6 -0.902877 -0.738183 -2.459749 1.648200 0.798381 3.326932 -0.493415 0.055169 1.200462 -1.497496 2.062156 4.401459 0.496726 -2.023120 -1.155665 -2.446115 -1.845530 1.935853 1.547741 -0.348704
eth_miim/always_3/block_1/if_1/block_2/stmt_7 -0.607072 0.664483 -2.787313 1.817284 0.690274 3.156954 -0.551144 1.154961 0.996136 -1.713457 0.636333 1.482595 0.792161 -1.875308 1.264346 -2.713642 -2.084977 -0.004078 -0.251189 0.415407
eth_miim/always_3/block_1/if_1/block_2/stmt_1 -0.607072 0.664483 -2.787313 1.817284 0.690274 3.156954 -0.551144 1.154961 0.996136 -1.713457 0.636333 1.482595 0.792161 -1.875308 1.264346 -2.713642 -2.084977 -0.004078 -0.251189 0.415407
eth_miim/always_3/block_1/if_1/block_2/stmt_2 -0.468195 -0.941343 -3.284816 1.234058 -0.035918 3.776801 1.854780 1.436899 -0.518466 -1.520633 1.322502 0.614037 0.680444 -3.075364 -0.506508 -3.306747 0.145680 1.096218 -2.074635 -0.372657
eth_miim/always_3/block_1/if_1/block_2/stmt_3 -0.678506 -2.305859 -2.262538 0.922430 0.033188 3.193622 1.474649 0.032477 -0.462003 -1.062435 2.597383 3.326297 0.434315 -2.830708 -2.982205 -2.361611 0.406449 2.797608 0.199529 -1.207612
eth_miim/always_4/block_1/if_1/block_2/if_1/block_2/if_1 -0.468195 -0.941343 -3.284816 1.234058 -0.035918 3.776801 1.854780 1.436899 -0.518466 -1.520633 1.322502 0.614037 0.680444 -3.075364 -0.506508 -3.306747 0.145680 1.096218 -2.074635 -0.372657
eth_miim/always_4/block_1/if_1/block_2/if_1/block_2/if_2 -0.547644 0.493203 -3.138715 1.438660 1.948153 1.946755 -1.633684 1.308633 -0.181990 -1.892398 1.324966 3.051855 2.211104 -1.928913 -1.729886 -1.229816 -2.125040 -0.361773 3.131103 -0.129973
eth_miim/always_4/block_1/if_1/block_2/if_1/block_2/if_2/cond/expr_1 -0.902877 -0.738183 -2.459749 1.648200 0.798381 3.326932 -0.493415 0.055169 1.200462 -1.497496 2.062156 4.401459 0.496726 -2.023120 -1.155665 -2.446115 -1.845530 1.935853 1.547741 -0.348704
eth_txstatem/wire_StartData -0.080947 0.318326 0.445497 0.866117 -1.108363 1.537949 0.011618 -0.409907 2.615190 -0.576023 0.922594 1.375023 -0.552581 0.666126 -0.269973 0.123996 -1.492103 1.317498 1.373856 0.672444
eth_top/reg_WillTransmit_q -0.080947 0.318326 0.445497 0.866117 -1.108363 1.537949 0.011618 -0.409907 2.615190 -0.576023 0.922594 1.375023 -0.552581 0.666126 -0.269973 0.123996 -1.492103 1.317498 1.373856 0.672444
eth_txethmac/wire_StatePreamble -0.080947 0.318326 0.445497 0.866117 -1.108363 1.537949 0.011618 -0.409907 2.615190 -0.576023 0.922594 1.375023 -0.552581 0.666126 -0.269973 0.123996 -1.492103 1.317498 1.373856 0.672444
eth_rxstatem/wire_StartIdle -0.080947 0.318326 0.445497 0.866117 -1.108363 1.537949 0.011618 -0.409907 2.615190 -0.576023 0.922594 1.375023 -0.552581 0.666126 -0.269973 0.123996 -1.492103 1.317498 1.373856 0.672444
eth_rxstatem/assign_2_StartPreamble/expr_1/expr_1 -0.080947 0.318326 0.445497 0.866117 -1.108363 1.537949 0.011618 -0.409907 2.615190 -0.576023 0.922594 1.375023 -0.552581 0.666126 -0.269973 0.123996 -1.492103 1.317498 1.373856 0.672444
eth_top/assign_3_RegCs -0.497211 -2.763847 0.852736 -0.237693 -0.139961 3.351513 2.039701 -0.184530 1.320335 1.999722 -0.592176 -0.605124 -0.438300 0.384750 0.176136 -1.208845 -0.582766 0.267899 -0.269095 0.275391
eth_wishbone/always_24 -0.080947 0.318326 0.445497 0.866117 -1.108363 1.537949 0.011618 -0.409907 2.615190 -0.576023 0.922594 1.375023 -0.552581 0.666126 -0.269973 0.123996 -1.492103 1.317498 1.373856 0.672444
eth_wishbone/always_26 -0.080947 0.318326 0.445497 0.866117 -1.108363 1.537949 0.011618 -0.409907 2.615190 -0.576023 0.922594 1.375023 -0.552581 0.666126 -0.269973 0.123996 -1.492103 1.317498 1.373856 0.672444
eth_wishbone/always_27 -0.080947 0.318326 0.445497 0.866117 -1.108363 1.537949 0.011618 -0.409907 2.615190 -0.576023 0.922594 1.375023 -0.552581 0.666126 -0.269973 0.123996 -1.492103 1.317498 1.373856 0.672444
eth_rxstatem/always_1/block_1/if_1/block_2/if_1/if_1 -0.080947 0.318326 0.445497 0.866117 -1.108363 1.537949 0.011618 -0.409907 2.615190 -0.576023 0.922594 1.375023 -0.552581 0.666126 -0.269973 0.123996 -1.492103 1.317498 1.373856 0.672444
eth_clockgen/always_1/block_1/if_1/block_1/if_1/cond -0.760277 -0.104829 -4.204636 -0.564456 3.257684 -0.865680 0.167290 0.454860 -2.265483 -0.500860 1.569544 4.245597 -0.775487 -3.196563 -0.405401 -2.355252 2.190935 1.119465 -2.025990 -1.339733
eth_clockgen/assign_4_MdcEn/expr_1/expr_1 -0.849439 -3.148979 -0.131103 0.520542 -0.634469 0.860410 0.446687 -1.570190 -0.953622 -0.698963 2.136348 2.711382 -0.973232 -2.462066 -0.776736 -2.067222 1.292228 3.577350 -2.220817 -1.859683
eth_top/reg_temp_wb_err_o_reg -1.319083 -2.760776 -1.011047 -0.354976 -2.317523 0.804518 -1.317901 0.536158 1.469912 0.492237 -1.545361 -0.655003 2.276559 -1.307359 -1.079496 0.364728 -1.747559 -0.623524 1.858274 -1.920489
eth_clockgen/always_1/block_1/if_1/stmt_1 1.764264 5.940948 -4.041316 1.834136 1.863415 3.371403 3.726385 3.192979 -1.866914 -1.990680 2.535193 -1.235239 1.540956 -1.223081 -3.470543 -1.212940 1.219255 -1.993069 2.379130 2.078245
eth_miim/assign_7_ByteSelect/expr_1/expr_1 -0.274603 0.073542 -1.075052 2.275749 -1.494906 4.604100 0.527501 0.944889 1.961979 -1.337267 -0.170415 -1.281091 0.550594 -1.116086 2.357264 -2.580609 -2.790603 -0.032941 -1.185533 0.884544
eth_miim/always_8/block_1/if_1/block_1 -2.093190 -0.573646 -0.418635 2.656146 0.998219 -0.055677 -5.222430 -1.021218 -0.784034 -2.883196 0.527792 3.534025 1.482630 -2.357365 3.817260 -3.933563 -2.703135 -0.167628 -0.285526 -1.198629
eth_miim/always_4/block_1/if_1/block_2/if_1/cond 0.105070 -3.548538 0.876786 -0.053426 -1.801180 1.509904 2.416402 -0.805058 -1.464689 0.267703 2.043650 0.401645 0.408047 -1.482519 -4.530687 0.316486 1.732321 2.676961 0.674757 -1.673159
eth_top/assign_17_MRxDV_Lb/expr_1/expr_1 -0.080947 0.318326 0.445497 0.866117 -1.108363 1.537949 0.011618 -0.409907 2.615190 -0.576023 0.922594 1.375023 -0.552581 0.666126 -0.269973 0.123996 -1.492103 1.317498 1.373856 0.672444
eth_clockgen/always_2/block_1 -1.665429 0.050365 -2.293067 0.186738 -2.138440 0.653063 0.723566 -0.253330 -3.145902 0.656621 0.109198 1.381227 4.008957 -3.235113 -1.080602 -3.204480 2.395059 -1.036252 -0.901590 -2.274209
eth_maccontrol -0.080947 0.318326 0.445497 0.866117 -1.108363 1.537949 0.011618 -0.409907 2.615190 -0.576023 0.922594 1.375023 -0.552581 0.666126 -0.269973 0.123996 -1.492103 1.317498 1.373856 0.672444
eth_registers/wire_r_RGAD -0.403808 -0.595530 -1.084959 1.771150 -0.474938 3.582152 -0.070124 0.524542 1.380288 -1.140785 0.676991 0.725149 0.867501 -1.149585 0.154490 -1.643027 -2.422873 0.485535 0.913726 0.280406
eth_top/wire_r_RGAD -0.403808 -0.595530 -1.084959 1.771150 -0.474938 3.582152 -0.070124 0.524542 1.380288 -1.140785 0.676991 0.725149 0.867501 -1.149585 0.154490 -1.643027 -2.422873 0.485535 0.913726 0.280406
eth_rxstatem/assign_2_StartPreamble/expr_1/expr_2/expr_1 -0.080947 0.318326 0.445497 0.866117 -1.108363 1.537949 0.011618 -0.409907 2.615190 -0.576023 0.922594 1.375023 -0.552581 0.666126 -0.269973 0.123996 -1.492103 1.317498 1.373856 0.672444
eth_clockgen/wire_MdcEn -0.849439 -3.148979 -0.131103 0.520542 -0.634469 0.860410 0.446687 -1.570190 -0.953622 -0.698963 2.136348 2.711382 -0.973232 -2.462066 -0.776736 -2.067222 1.292228 3.577350 -2.220817 -1.859683
eth_top/assign_12_temp_wb_err_o/expr_1 -0.609674 -3.214679 -0.383281 -0.550795 -2.567694 0.809601 -0.444575 -1.035251 0.709126 1.269878 -1.186310 2.085860 0.864278 -0.871035 -1.708152 0.811646 -1.999739 1.199846 2.066914 -2.004341
eth_wishbone/always_3/block_1/if_1/block_2/case_1/cond -0.750467 -2.899204 0.245872 0.259297 -0.474301 4.163357 1.837849 -0.359839 2.002714 1.552735 -0.176992 0.567356 -0.427796 -0.163710 0.064478 -1.674758 -1.316587 0.893541 0.186089 0.153644
eth_txethmac/always_13/block_1/if_1/stmt_2/expr_1/expr_1 -0.080947 0.318326 0.445497 0.866117 -1.108363 1.537949 0.011618 -0.409907 2.615190 -0.576023 0.922594 1.375023 -0.552581 0.666126 -0.269973 0.123996 -1.492103 1.317498 1.373856 0.672444
eth_top/wire_MRxDV_Lb -0.080947 0.318326 0.445497 0.866117 -1.108363 1.537949 0.011618 -0.409907 2.615190 -0.576023 0.922594 1.375023 -0.552581 0.666126 -0.269973 0.123996 -1.492103 1.317498 1.373856 0.672444
eth_top/assign_7_BDCs/expr_1/expr_1 -0.497211 -2.763847 0.852736 -0.237693 -0.139961 3.351513 2.039701 -0.184530 1.320335 1.999722 -0.592176 -0.605124 -0.438300 0.384750 0.176136 -1.208845 -0.582766 0.267899 -0.269095 0.275391
eth_top/assign_17_MRxDV_Lb/expr_1 -0.080947 0.318326 0.445497 0.866117 -1.108363 1.537949 0.011618 -0.409907 2.615190 -0.576023 0.922594 1.375023 -0.552581 0.666126 -0.269973 0.123996 -1.492103 1.317498 1.373856 0.672444
eth_clockgen/always_2/block_1/if_1/block_1/if_1 -2.170039 1.000131 -3.047800 -0.628056 -0.879205 0.131384 0.526217 0.036718 -1.723838 1.217383 -0.243045 3.198864 3.546974 -1.948004 -1.131678 -2.981990 1.849098 -1.450536 0.871794 -1.646968
eth_registers/assign_47_MAC_ADDR0_Wr/expr_1 0.031912 -1.130260 1.299047 2.381819 2.386180 1.042405 -1.507601 -0.993761 -3.104242 1.093521 1.489605 0.285793 3.405394 0.469195 -1.037515 0.243991 -1.856082 0.225203 3.252793 0.244381
eth_wishbone/always_3/block_1/if_1/block_2/case_1 -0.497211 -2.763847 0.852736 -0.237693 -0.139961 3.351513 2.039701 -0.184530 1.320335 1.999722 -0.592176 -0.605124 -0.438300 0.384750 0.176136 -1.208845 -0.582766 0.267899 -0.269095 0.275391
eth_rxethmac/input_MRxDV -0.080947 0.318326 0.445497 0.866117 -1.108363 1.537949 0.011618 -0.409907 2.615190 -0.576023 0.922594 1.375023 -0.552581 0.666126 -0.269973 0.123996 -1.492103 1.317498 1.373856 0.672444
eth_miim/always_6/block_1/if_1/block_1/stmt_3 -0.451707 -0.883943 -0.946027 0.480736 0.791419 1.404227 -0.374702 -0.146205 0.249430 -0.249640 1.160596 2.906033 0.689541 -0.747146 -2.048806 -0.509778 -0.930996 0.926179 2.418021 -0.465746
eth_clockgen/assign_1_TempDivider/expr_1 1.122726 1.354662 -3.373795 1.708757 3.883054 1.181683 0.575761 1.667278 -2.215158 -3.322450 3.696859 1.451072 -1.243233 -3.255530 -1.071238 -1.353075 0.835942 1.567150 -1.581180 0.509997
eth_miim/always_6/block_1/if_1/block_1/stmt_7 0.105070 -3.548538 0.876786 -0.053426 -1.801180 1.509904 2.416402 -0.805058 -1.464689 0.267703 2.043650 0.401645 0.408047 -1.482519 -4.530687 0.316486 1.732321 2.676961 0.674757 -1.673159
eth_wishbone/always_1/block_1/stmt_1/expr_1 -0.497211 -2.763847 0.852736 -0.237693 -0.139961 3.351513 2.039701 -0.184530 1.320335 1.999722 -0.592176 -0.605124 -0.438300 0.384750 0.176136 -1.208845 -0.582766 0.267899 -0.269095 0.275391
eth_miim/reg_RStat_q3 -0.902877 -0.738183 -2.459749 1.648200 0.798381 3.326932 -0.493415 0.055169 1.200462 -1.497496 2.062156 4.401459 0.496726 -2.023120 -1.155665 -2.446115 -1.845530 1.935853 1.547741 -0.348704
eth_miim/reg_RStat_q2 -0.547644 0.493203 -3.138715 1.438660 1.948153 1.946755 -1.633684 1.308633 -0.181990 -1.892398 1.324966 3.051855 2.211104 -1.928913 -1.729886 -1.229816 -2.125040 -0.361773 3.131103 -0.129973
eth_miim/reg_RStat_q1 -0.547644 0.493203 -3.138715 1.438660 1.948153 1.946755 -1.633684 1.308633 -0.181990 -1.892398 1.324966 3.051855 2.211104 -1.928913 -1.729886 -1.229816 -2.125040 -0.361773 3.131103 -0.129973
eth_wishbone/always_30/block_1/if_1/if_1 -0.080947 0.318326 0.445497 0.866117 -1.108363 1.537949 0.011618 -0.409907 2.615190 -0.576023 0.922594 1.375023 -0.552581 0.666126 -0.269973 0.123996 -1.492103 1.317498 1.373856 0.672444
eth_registers/always_1/block_1/if_1/block_1/case_1/stmt_16 0.916824 0.682975 -0.276730 2.032104 -2.358116 -0.328393 -2.718369 -0.658474 -1.453781 -2.412234 1.132115 2.070777 3.285655 0.299124 -3.122179 1.384328 -2.435967 2.482261 3.461682 -1.095801
eth_registers/wire_MIICOMMANDOut -0.607072 0.664483 -2.787313 1.817284 0.690274 3.156954 -0.551144 1.154961 0.996136 -1.713457 0.636333 1.482595 0.792161 -1.875308 1.264346 -2.713642 -2.084977 -0.004078 -0.251189 0.415407
eth_outputcontrol/always_1/block_1/if_1/block_2/if_1/block_1 -0.687715 -3.964480 0.641872 -0.372650 0.461925 -0.131699 0.498806 -1.568784 -1.765019 0.313442 2.620244 3.002676 -0.096396 -1.881612 -3.605511 -0.135257 2.000115 3.026704 0.628279 -2.064811
eth_registers/always_1/block_1/if_1/block_1/case_1/stmt_19 0.766696 -4.070057 1.302247 0.792932 0.124772 2.083906 -0.362807 0.529023 -2.177954 -1.218646 -0.866168 -1.447817 0.781968 -0.237415 -2.914404 0.461127 -2.154362 0.236301 1.989581 -1.035640
eth_outputcontrol/assign_1_SerialEn/expr_1 -0.873334 -1.382831 -1.481312 -0.332135 7.079569 0.918697 -3.230983 1.772801 -0.255936 1.338455 0.250390 2.014990 3.123391 -0.701854 0.146229 0.936625 -2.802488 -3.799107 4.645076 1.423670
eth_shiftreg/reg_ShiftReg -0.274603 0.073542 -1.075052 2.275749 -1.494906 4.604100 0.527501 0.944889 1.961979 -1.337267 -0.170415 -1.281091 0.550594 -1.116086 2.357264 -2.580609 -2.790603 -0.032941 -1.185533 0.884544
eth_register/always_1/block_1/if_1/if_1/cond 2.497434 2.763965 -6.594586 0.233883 -3.181058 1.262562 -1.066643 3.396822 -0.642683 -3.710524 -5.206697 2.170673 0.871531 0.534438 -3.312364 -0.863217 -2.735083 0.358815 -0.460125 -2.198693
eth_rxstatem/always_1 -0.080947 0.318326 0.445497 0.866117 -1.108363 1.537949 0.011618 -0.409907 2.615190 -0.576023 0.922594 1.375023 -0.552581 0.666126 -0.269973 0.123996 -1.492103 1.317498 1.373856 0.672444
eth_outputcontrol/input_InProgress -0.687715 -3.964480 0.641872 -0.372650 0.461925 -0.131699 0.498806 -1.568784 -1.765019 0.313442 2.620244 3.002676 -0.096396 -1.881612 -3.605511 -0.135257 2.000115 3.026704 0.628279 -2.064811
eth_miim/wire_StartOp -0.840499 -0.865498 -3.216964 1.354437 0.791783 2.366071 -0.236508 0.871335 -0.579643 -2.151241 1.531556 2.372707 0.825565 -2.922045 -0.304135 -3.036667 -0.543949 1.364085 -0.999878 -0.700382
eth_top/assign_9_BDCs/expr_1/expr_1/expr_1/expr_1 -0.497211 -2.763847 0.852736 -0.237693 -0.139961 3.351513 2.039701 -0.184530 1.320335 1.999722 -0.592176 -0.605124 -0.438300 0.384750 0.176136 -1.208845 -0.582766 0.267899 -0.269095 0.275391
eth_wishbone/always_3 -0.497211 -2.763847 0.852736 -0.237693 -0.139961 3.351513 2.039701 -0.184530 1.320335 1.999722 -0.592176 -0.605124 -0.438300 0.384750 0.176136 -1.208845 -0.582766 0.267899 -0.269095 0.275391
eth_top/assign_4_RegCs/expr_1/expr_1 -1.366829 -1.938861 -1.657658 -0.412332 2.321182 4.310775 1.770618 0.297100 2.753505 2.249564 -1.072542 1.877926 -1.796964 0.198610 3.066794 -3.921134 -0.977543 0.334594 -2.258420 1.064893
eth_wishbone/always_3/block_1/if_1/block_2/case_1/block_7/stmt_6/expr_1 -0.497211 -2.763847 0.852736 -0.237693 -0.139961 3.351513 2.039701 -0.184530 1.320335 1.999722 -0.592176 -0.605124 -0.438300 0.384750 0.176136 -1.208845 -0.582766 0.267899 -0.269095 0.275391
eth_registers/assign_109_r_ClkDiv 0.047955 1.336396 -4.628430 1.372525 1.641067 1.314145 0.402579 1.146139 -1.998194 -2.200364 3.148348 2.877752 0.595733 -4.664161 -1.216727 -2.245084 1.420566 1.307443 -1.888294 -0.978812
eth_registers/assign_40_MIIMODER_Wr/expr_1 -1.020215 -1.223398 -1.880903 1.680195 0.052869 4.071862 0.201725 0.076432 1.799758 -1.079393 1.085101 2.460045 -0.305512 -1.856123 1.274314 -3.367183 -1.866120 1.746635 -1.032404 0.030232
eth_registers/wire_Write -0.025219 2.112494 -4.072958 0.032887 0.626903 -1.704574 -2.269517 1.255778 1.771966 -2.155542 0.168351 4.082158 -1.080909 -1.263779 -0.204976 -0.341880 0.383235 0.966230 -1.228898 -0.929118
eth_wishbone/always_27/block_1/if_1 -0.080947 0.318326 0.445497 0.866117 -1.108363 1.537949 0.011618 -0.409907 2.615190 -0.576023 0.922594 1.375023 -0.552581 0.666126 -0.269973 0.123996 -1.492103 1.317498 1.373856 0.672444
eth_txethmac/always_13/block_1/if_1/stmt_2/expr_1/expr_1/expr_1/expr_1 -0.080947 0.318326 0.445497 0.866117 -1.108363 1.537949 0.011618 -0.409907 2.615190 -0.576023 0.922594 1.375023 -0.552581 0.666126 -0.269973 0.123996 -1.492103 1.317498 1.373856 0.672444
eth_txstatem/always_1/block_1 -0.080947 0.318326 0.445497 0.866117 -1.108363 1.537949 0.011618 -0.409907 2.615190 -0.576023 0.922594 1.375023 -0.552581 0.666126 -0.269973 0.123996 -1.492103 1.317498 1.373856 0.672444
eth_miim/always_8/block_1/if_1/block_1/if_1/cond -1.779120 -3.373134 1.574278 1.430486 1.054255 0.448446 -3.497260 -2.575676 0.028244 -0.135521 0.663142 3.300848 -0.489008 -1.595229 2.924048 -2.318079 -1.780639 1.721784 -0.715695 -1.567017
eth_miim/always_6/block_1/if_1/block_2/if_1/cond -0.713671 -2.559201 -1.722342 1.019231 -0.793849 3.615662 2.008111 -0.056115 -0.081108 -0.868458 1.879804 1.712313 -0.316384 -2.776362 -0.944272 -3.092369 0.508928 2.788631 -2.121231 -0.991542
eth_miim/input_RStat -0.547644 0.493203 -3.138715 1.438660 1.948153 1.946755 -1.633684 1.308633 -0.181990 -1.892398 1.324966 3.051855 2.211104 -1.928913 -1.729886 -1.229816 -2.125040 -0.361773 3.131103 -0.129973
eth_registers/assign_1_Write -0.025219 2.112494 -4.072958 0.032887 0.626903 -1.704574 -2.269517 1.255778 1.771966 -2.155542 0.168351 4.082158 -1.080909 -1.263779 -0.204976 -0.341880 0.383235 0.966230 -1.228898 -0.929118
eth_rxstatem/reg_StateIdle -0.080947 0.318326 0.445497 0.866117 -1.108363 1.537949 0.011618 -0.409907 2.615190 -0.576023 0.922594 1.375023 -0.552581 0.666126 -0.269973 0.123996 -1.492103 1.317498 1.373856 0.672444
eth_top/wire_mdc_pad_o 0.828619 4.243838 -1.350855 0.378457 -1.191571 3.018799 4.589587 1.087327 -1.041103 2.061275 1.726439 -0.542691 3.148091 -0.370498 -5.217785 0.502053 2.119547 -2.579555 4.786232 0.781879
eth_registers/assign_111_r_RStat -0.547644 0.493203 -3.138715 1.438660 1.948153 1.946755 -1.633684 1.308633 -0.181990 -1.892398 1.324966 3.051855 2.211104 -1.928913 -1.729886 -1.229816 -2.125040 -0.361773 3.131103 -0.129973
eth_wishbone/always_6/block_1/if_1/if_1/cond/expr_1 -0.080947 0.318326 0.445497 0.866117 -1.108363 1.537949 0.011618 -0.409907 2.615190 -0.576023 0.922594 1.375023 -0.552581 0.666126 -0.269973 0.123996 -1.492103 1.317498 1.373856 0.672444
eth_txethmac/always_13/block_1/if_1/stmt_2/expr_1/expr_1/expr_1 -0.080947 0.318326 0.445497 0.866117 -1.108363 1.537949 0.011618 -0.409907 2.615190 -0.576023 0.922594 1.375023 -0.552581 0.666126 -0.269973 0.123996 -1.492103 1.317498 1.373856 0.672444
eth_txstatem/assign_6_StartPAD/expr_1/expr_1/expr_1 -0.080947 0.318326 0.445497 0.866117 -1.108363 1.537949 0.011618 -0.409907 2.615190 -0.576023 0.922594 1.375023 -0.552581 0.666126 -0.269973 0.123996 -1.492103 1.317498 1.373856 0.672444
eth_txethmac/always_13/block_1/if_1 -0.080947 0.318326 0.445497 0.866117 -1.108363 1.537949 0.011618 -0.409907 2.615190 -0.576023 0.922594 1.375023 -0.552581 0.666126 -0.269973 0.123996 -1.492103 1.317498 1.373856 0.672444
eth_maccontrol/input_TxStartFrmIn -0.080947 0.318326 0.445497 0.866117 -1.108363 1.537949 0.011618 -0.409907 2.615190 -0.576023 0.922594 1.375023 -0.552581 0.666126 -0.269973 0.123996 -1.492103 1.317498 1.373856 0.672444
eth_txstatem/assign_7_StartFCS -0.080947 0.318326 0.445497 0.866117 -1.108363 1.537949 0.011618 -0.409907 2.615190 -0.576023 0.922594 1.375023 -0.552581 0.666126 -0.269973 0.123996 -1.492103 1.317498 1.373856 0.672444
eth_wishbone/always_1/block_1/stmt_1/expr_1/expr_1/expr_1 -0.497211 -2.763847 0.852736 -0.237693 -0.139961 3.351513 2.039701 -0.184530 1.320335 1.999722 -0.592176 -0.605124 -0.438300 0.384750 0.176136 -1.208845 -0.582766 0.267899 -0.269095 0.275391
eth_shiftreg/always_1 -0.274603 0.073542 -1.075052 2.275749 -1.494906 4.604100 0.527501 0.944889 1.961979 -1.337267 -0.170415 -1.281091 0.550594 -1.116086 2.357264 -2.580609 -2.790603 -0.032941 -1.185533 0.884544
eth_shiftreg/wire_ShiftedBit -0.274603 0.073542 -1.075052 2.275749 -1.494906 4.604100 0.527501 0.944889 1.961979 -1.337267 -0.170415 -1.281091 0.550594 -1.116086 2.357264 -2.580609 -2.790603 -0.032941 -1.185533 0.884544
check_ethernet/input_wb_we_i 0.780684 -0.990022 3.705595 1.661124 -2.071274 3.203463 0.971705 -0.960406 -0.189369 -0.252604 0.085204 -2.880695 0.969470 1.092465 -0.830174 0.759082 -3.307711 -0.448220 3.507536 1.028778
eth_miim/always_4/block_1/if_1/block_2/if_1/block_2/if_1/stmt_1 0.105070 -3.548538 0.876786 -0.053426 -1.801180 1.509904 2.416402 -0.805058 -1.464689 0.267703 2.043650 0.401645 0.408047 -1.482519 -4.530687 0.316486 1.732321 2.676961 0.674757 -1.673159
eth_top/wire_temp_wb_err_o -1.319083 -2.760776 -1.011047 -0.354976 -2.317523 0.804518 -1.317901 0.536158 1.469912 0.492237 -1.545361 -0.655003 2.276559 -1.307359 -1.079496 0.364728 -1.747559 -0.623524 1.858274 -1.920489
eth_rxstatem/always_1/block_1/if_1/block_2/if_4 -0.080947 0.318326 0.445497 0.866117 -1.108363 1.537949 0.011618 -0.409907 2.615190 -0.576023 0.922594 1.375023 -0.552581 0.666126 -0.269973 0.123996 -1.492103 1.317498 1.373856 0.672444
eth_txstatem/assign_8_StartJam/expr_1 -0.080947 0.318326 0.445497 0.866117 -1.108363 1.537949 0.011618 -0.409907 2.615190 -0.576023 0.922594 1.375023 -0.552581 0.666126 -0.269973 0.123996 -1.492103 1.317498 1.373856 0.672444
eth_outputcontrol/always_1/block_1/if_1/block_2/if_1/block_1/stmt_1/expr_1/expr_1/expr_1 -0.981923 -3.444442 3.381349 0.831972 1.221573 0.203443 -0.201139 -2.300718 -0.942199 2.370363 4.773273 0.988674 1.461155 -2.843265 -2.460641 1.829679 2.419319 0.718834 2.337694 -1.195248
eth_miim/reg_WCtrlDataStart_q1 -0.468195 -0.941343 -3.284816 1.234058 -0.035918 3.776801 1.854780 1.436899 -0.518466 -1.520633 1.322502 0.614037 0.680444 -3.075364 -0.506508 -3.306747 0.145680 1.096218 -2.074635 -0.372657
eth_miim/reg_WCtrlDataStart_q2 -0.678506 -2.305859 -2.262538 0.922430 0.033188 3.193622 1.474649 0.032477 -0.462003 -1.062435 2.597383 3.326297 0.434315 -2.830708 -2.982205 -2.361611 0.406449 2.797608 0.199529 -1.207612
eth_registers/wire_MIIMODER_Sel 0.190375 -0.651616 2.595689 2.478715 4.466647 2.502931 -0.350585 0.167016 -2.121145 1.088718 3.750087 -1.287463 2.070377 -2.170564 -0.937964 0.605929 -0.306259 -2.826950 3.886248 1.061478
eth_miim/wire_WriteDataOp -0.468195 -0.941343 -3.284816 1.234058 -0.035918 3.776801 1.854780 1.436899 -0.518466 -1.520633 1.322502 0.614037 0.680444 -3.075364 -0.506508 -3.306747 0.145680 1.096218 -2.074635 -0.372657
eth_top/reg_WillTransmit_q2 -0.080947 0.318326 0.445497 0.866117 -1.108363 1.537949 0.011618 -0.409907 2.615190 -0.576023 0.922594 1.375023 -0.552581 0.666126 -0.269973 0.123996 -1.492103 1.317498 1.373856 0.672444
eth_miim/always_8/block_1/if_1/block_1/if_1/block_1/if_1/block_1/if_1/stmt_2 -1.779120 -3.373134 1.574278 1.430486 1.054255 0.448446 -3.497260 -2.575676 0.028244 -0.135521 0.663142 3.300848 -0.489008 -1.595229 2.924048 -2.318079 -1.780639 1.721784 -0.715695 -1.567017
eth_miim/always_8/block_1/if_1/block_1/if_1/block_1/if_1/block_1/if_1/stmt_1 -1.020215 -1.223398 -1.880903 1.680195 0.052869 4.071862 0.201725 0.076432 1.799758 -1.079393 1.085101 2.460045 -0.305512 -1.856123 1.274314 -3.367183 -1.866120 1.746635 -1.032404 0.030232
eth_txethmac/wire_StateJam -0.080947 0.318326 0.445497 0.866117 -1.108363 1.537949 0.011618 -0.409907 2.615190 -0.576023 0.922594 1.375023 -0.552581 0.666126 -0.269973 0.123996 -1.492103 1.317498 1.373856 0.672444
eth_clockgen/wire_MdcEn_n -1.892897 -2.589085 -2.335581 2.029015 2.069349 1.859663 -3.058378 0.809038 -1.342744 -2.491649 0.162937 -0.183068 1.664739 -3.839955 4.434204 -4.253158 -2.056122 -0.025908 -3.714429 -0.500920
eth_outputcontrol/reg_Mdo_d -0.291842 3.442323 -2.219428 1.842501 1.246237 2.518794 -1.752684 2.168886 1.454291 -0.815296 -1.735134 -0.963908 2.145390 0.060154 2.948722 -1.325784 -4.373841 -3.955359 2.439423 1.840348
eth_txstatem/assign_5_StartData/expr_1 -0.080947 0.318326 0.445497 0.866117 -1.108363 1.537949 0.011618 -0.409907 2.615190 -0.576023 0.922594 1.375023 -0.552581 0.666126 -0.269973 0.123996 -1.492103 1.317498 1.373856 0.672444
check_ethernet/always_1/if_1 0.780684 -0.990022 3.705595 1.661124 -2.071274 3.203463 0.971705 -0.960406 -0.189369 -0.252604 0.085204 -2.880695 0.969470 1.092465 -0.830174 0.759082 -3.307711 -0.448220 3.507536 1.028778
eth_top/wire_r_ScanStat -0.607072 0.664483 -2.787313 1.817284 0.690274 3.156954 -0.551144 1.154961 0.996136 -1.713457 0.636333 1.482595 0.792161 -1.875308 1.264346 -2.713642 -2.084977 -0.004078 -0.251189 0.415407
eth_miim/input_Mdi 0.076458 0.485107 -0.012533 1.203603 -1.591002 1.992680 0.941955 0.135178 -0.055056 -0.597829 -0.180060 -0.926303 0.129474 -0.432244 0.475374 -1.292888 -1.125241 0.069310 -0.220293 0.106845
eth_rxstatem/assign_1_StartIdle/expr_1/expr_1 -0.080947 0.318326 0.445497 0.866117 -1.108363 1.537949 0.011618 -0.409907 2.615190 -0.576023 0.922594 1.375023 -0.552581 0.666126 -0.269973 0.123996 -1.492103 1.317498 1.373856 0.672444
eth_rxstatem/always_1/block_1/if_1/block_2/if_1/cond -0.080947 0.318326 0.445497 0.866117 -1.108363 1.537949 0.011618 -0.409907 2.615190 -0.576023 0.922594 1.375023 -0.552581 0.666126 -0.269973 0.123996 -1.492103 1.317498 1.373856 0.672444
eth_rxstatem/assign_1_StartIdle/expr_1/expr_2 -0.080947 0.318326 0.445497 0.866117 -1.108363 1.537949 0.011618 -0.409907 2.615190 -0.576023 0.922594 1.375023 -0.552581 0.666126 -0.269973 0.123996 -1.492103 1.317498 1.373856 0.672444
eth_outputcontrol/always_2/block_1/if_1/block_2/if_1/block_1/stmt_1 -0.291842 3.442323 -2.219428 1.842501 1.246237 2.518794 -1.752684 2.168886 1.454291 -0.815296 -1.735134 -0.963908 2.145390 0.060154 2.948722 -1.325784 -4.373841 -3.955359 2.439423 1.840348
eth_outputcontrol/always_2/block_1/if_1/block_2/if_1/block_1/stmt_3 -0.291842 3.442323 -2.219428 1.842501 1.246237 2.518794 -1.752684 2.168886 1.454291 -0.815296 -1.735134 -0.963908 2.145390 0.060154 2.948722 -1.325784 -4.373841 -3.955359 2.439423 1.840348
eth_outputcontrol/always_2/block_1/if_1/block_2/if_1/block_1/stmt_2 -0.291842 3.442323 -2.219428 1.842501 1.246237 2.518794 -1.752684 2.168886 1.454291 -0.815296 -1.735134 -0.963908 2.145390 0.060154 2.948722 -1.325784 -4.373841 -3.955359 2.439423 1.840348
eth_txstatem/always_1/block_1/if_1 -0.080947 0.318326 0.445497 0.866117 -1.108363 1.537949 0.011618 -0.409907 2.615190 -0.576023 0.922594 1.375023 -0.552581 0.666126 -0.269973 0.123996 -1.492103 1.317498 1.373856 0.672444
eth_top/assign_11_temp_wb_dat_o/expr_1/expr_1/expr_2 1.204506 -1.099078 2.416230 1.080444 -0.605777 0.516338 -0.296135 -1.398977 -2.671242 -1.202028 0.713384 0.845072 0.060319 0.462286 -2.901459 1.005097 -1.916785 1.389529 3.083402 -0.540418
eth_miim/reg_WCtrlData_q2 -0.468195 -0.941343 -3.284816 1.234058 -0.035918 3.776801 1.854780 1.436899 -0.518466 -1.520633 1.322502 0.614037 0.680444 -3.075364 -0.506508 -3.306747 0.145680 1.096218 -2.074635 -0.372657
eth_miim/reg_WCtrlData_q1 -0.607072 0.664483 -2.787313 1.817284 0.690274 3.156954 -0.551144 1.154961 0.996136 -1.713457 0.636333 1.482595 0.792161 -1.875308 1.264346 -2.713642 -2.084977 -0.004078 -0.251189 0.415407
eth_top/assign_11_temp_wb_dat_o/expr_1/expr_1/expr_1 1.204506 -1.099078 2.416230 1.080444 -0.605777 0.516338 -0.296135 -1.398977 -2.671242 -1.202028 0.713384 0.845072 0.060319 0.462286 -2.901459 1.005097 -1.916785 1.389529 3.083402 -0.540418
eth_top/assign_8_BDCs/expr_1/expr_1/expr_1/expr_1/expr_1 -0.750467 -2.899204 0.245872 0.259297 -0.474301 4.163357 1.837849 -0.359839 2.002714 1.552735 -0.176992 0.567356 -0.427796 -0.163710 0.064478 -1.674758 -1.316587 0.893541 0.186089 0.153644
eth_wishbone/always_77/block_1/if_1/if_1/cond -0.750467 -2.899204 0.245872 0.259297 -0.474301 4.163357 1.837849 -0.359839 2.002714 1.552735 -0.176992 0.567356 -0.427796 -0.163710 0.064478 -1.674758 -1.316587 0.893541 0.186089 0.153644
eth_txethmac/always_13/block_1 -0.080947 0.318326 0.445497 0.866117 -1.108363 1.537949 0.011618 -0.409907 2.615190 -0.576023 0.922594 1.375023 -0.552581 0.666126 -0.269973 0.123996 -1.492103 1.317498 1.373856 0.672444
eth_shiftreg/always_1/block_1/if_1/block_2/if_1 -0.274603 0.073542 -1.075052 2.275749 -1.494906 4.604100 0.527501 0.944889 1.961979 -1.337267 -0.170415 -1.281091 0.550594 -1.116086 2.357264 -2.580609 -2.790603 -0.032941 -1.185533 0.884544
eth_registers/always_1/block_1/if_1 1.245870 0.064460 0.435085 2.182406 -1.006176 -0.236574 -2.853074 -0.131114 -1.942399 -3.538825 1.241817 1.109671 2.075450 -0.006280 -3.429764 1.696459 -2.924450 1.738144 3.942077 -0.782741
eth_top/wire_RegCs 0.542002 3.966720 1.826831 0.266763 2.318726 -2.198069 -0.431100 -2.588701 0.492384 -0.670312 1.899596 4.917910 -4.511490 2.055696 2.516759 -1.169405 0.645812 1.950199 -1.327408 1.634757
eth_clockgen/reg_Mdc -1.665429 0.050365 -2.293067 0.186738 -2.138440 0.653063 0.723566 -0.253330 -3.145902 0.656621 0.109198 1.381227 4.008957 -3.235113 -1.080602 -3.204480 2.395059 -1.036252 -0.901590 -2.274209
eth_shiftreg/always_1/block_1/if_1/block_2/if_1/cond -0.274603 0.073542 -1.075052 2.275749 -1.494906 4.604100 0.527501 0.944889 1.961979 -1.337267 -0.170415 -1.281091 0.550594 -1.116086 2.357264 -2.580609 -2.790603 -0.032941 -1.185533 0.884544
eth_shiftreg/always_1/block_1 -0.274603 0.073542 -1.075052 2.275749 -1.494906 4.604100 0.527501 0.944889 1.961979 -1.337267 -0.170415 -1.281091 0.550594 -1.116086 2.357264 -2.580609 -2.790603 -0.032941 -1.185533 0.884544
eth_top/assign_2_RegCs/expr_1 -0.497211 -2.763847 0.852736 -0.237693 -0.139961 3.351513 2.039701 -0.184530 1.320335 1.999722 -0.592176 -0.605124 -0.438300 0.384750 0.176136 -1.208845 -0.582766 0.267899 -0.269095 0.275391
eth_wishbone/always_2/block_1/if_1/if_1 -0.750467 -2.899204 0.245872 0.259297 -0.474301 4.163357 1.837849 -0.359839 2.002714 1.552735 -0.176992 0.567356 -0.427796 -0.163710 0.064478 -1.674758 -1.316587 0.893541 0.186089 0.153644
eth_rxstatem/assign_2_StartPreamble -0.080947 0.318326 0.445497 0.866117 -1.108363 1.537949 0.011618 -0.409907 2.615190 -0.576023 0.922594 1.375023 -0.552581 0.666126 -0.269973 0.123996 -1.492103 1.317498 1.373856 0.672444
eth_miim/inst_shftrg -0.274603 0.073542 -1.075052 2.275749 -1.494906 4.604100 0.527501 0.944889 1.961979 -1.337267 -0.170415 -1.281091 0.550594 -1.116086 2.357264 -2.580609 -2.790603 -0.032941 -1.185533 0.884544
eth_miim/always_3/block_1/if_1/block_1/stmt_9 -0.451707 -0.883943 -0.946027 0.480736 0.791419 1.404227 -0.374702 -0.146205 0.249430 -0.249640 1.160596 2.906033 0.689541 -0.747146 -2.048806 -0.509778 -0.930996 0.926179 2.418021 -0.465746
eth_top/always_1/block_1/if_1/block_2/stmt_1 -0.369740 -3.701355 0.752540 -1.494923 1.918530 3.765587 3.968468 0.235210 1.033367 3.927688 -0.924674 -0.762399 -1.367840 1.626871 -0.171711 -0.992974 0.588978 0.250685 -0.496459 1.333262
eth_top/always_1/block_1/if_1/block_2/stmt_2 1.994099 -0.359288 2.238125 1.722550 -0.379822 0.834831 -0.095024 -0.202308 -2.540742 -1.940862 0.555833 -1.195967 1.038677 1.437211 -3.319678 1.470144 -1.442165 0.797722 2.749026 0.206130
eth_top/always_1/block_1/if_1/block_2/stmt_3 -1.319083 -2.760776 -1.011047 -0.354976 -2.317523 0.804518 -1.317901 0.536158 1.469912 0.492237 -1.545361 -0.655003 2.276559 -1.307359 -1.079496 0.364728 -1.747559 -0.623524 1.858274 -1.920489
eth_clockgen/always_2/block_1/if_1/block_1 -2.170039 1.000131 -3.047800 -0.628056 -0.879205 0.131384 0.526217 0.036718 -1.723838 1.217383 -0.243045 3.198864 3.546974 -1.948004 -1.131678 -2.981990 1.849098 -1.450536 0.871794 -1.646968
eth_rxstatem/assign_1_StartIdle/expr_1/expr_2/expr_2 -0.080947 0.318326 0.445497 0.866117 -1.108363 1.537949 0.011618 -0.409907 2.615190 -0.576023 0.922594 1.375023 -0.552581 0.666126 -0.269973 0.123996 -1.492103 1.317498 1.373856 0.672444
check_ethernet/input_wb_stb_i 0.780684 -0.990022 3.705595 1.661124 -2.071274 3.203463 0.971705 -0.960406 -0.189369 -0.252604 0.085204 -2.880695 0.969470 1.092465 -0.830174 0.759082 -3.307711 -0.448220 3.507536 1.028778
eth_txstatem/always_1/block_1/if_1/block_2/if_6 -0.080947 0.318326 0.445497 0.866117 -1.108363 1.537949 0.011618 -0.409907 2.615190 -0.576023 0.922594 1.375023 -0.552581 0.666126 -0.269973 0.123996 -1.492103 1.317498 1.373856 0.672444
eth_miim/assign_7_ByteSelect/expr_1/expr_1/expr_2 -0.274603 0.073542 -1.075052 2.275749 -1.494906 4.604100 0.527501 0.944889 1.961979 -1.337267 -0.170415 -1.281091 0.550594 -1.116086 2.357264 -2.580609 -2.790603 -0.032941 -1.185533 0.884544
eth_miim/assign_7_ByteSelect/expr_1/expr_1/expr_1 -0.274603 0.073542 -1.075052 2.275749 -1.494906 4.604100 0.527501 0.944889 1.961979 -1.337267 -0.170415 -1.281091 0.550594 -1.116086 2.357264 -2.580609 -2.790603 -0.032941 -1.185533 0.884544
eth_txethmac/wire_StateData -0.080947 0.318326 0.445497 0.866117 -1.108363 1.537949 0.011618 -0.409907 2.615190 -0.576023 0.922594 1.375023 -0.552581 0.666126 -0.269973 0.123996 -1.492103 1.317498 1.373856 0.672444
eth_txstatem/assign_4_StartData/expr_1/expr_2/expr_2 -0.080947 0.318326 0.445497 0.866117 -1.108363 1.537949 0.011618 -0.409907 2.615190 -0.576023 0.922594 1.375023 -0.552581 0.666126 -0.269973 0.123996 -1.492103 1.317498 1.373856 0.672444
eth_miim/wire_ShiftedBit -0.274603 0.073542 -1.075052 2.275749 -1.494906 4.604100 0.527501 0.944889 1.961979 -1.337267 -0.170415 -1.281091 0.550594 -1.116086 2.357264 -2.580609 -2.790603 -0.032941 -1.185533 0.884544
eth_miim/assign_10_ByteSelect -0.274603 0.073542 -1.075052 2.275749 -1.494906 4.604100 0.527501 0.944889 1.961979 -1.337267 -0.170415 -1.281091 0.550594 -1.116086 2.357264 -2.580609 -2.790603 -0.032941 -1.185533 0.884544
eth_miim/reg_SyncStatMdcEn -0.607072 0.664483 -2.787313 1.817284 0.690274 3.156954 -0.551144 1.154961 0.996136 -1.713457 0.636333 1.482595 0.792161 -1.875308 1.264346 -2.713642 -2.084977 -0.004078 -0.251189 0.415407
eth_top/assign_4_RegCs/expr_1/expr_1/expr_1 -1.395611 -1.809713 -1.841949 0.457871 1.315097 4.441400 1.210327 0.129329 2.648461 1.014000 -0.155988 2.245990 -1.248830 -0.853599 2.568063 -3.870434 -1.367710 0.910512 -1.901381 0.626370
eth_wishbone/always_2/block_1 -0.750467 -2.899204 0.245872 0.259297 -0.474301 4.163357 1.837849 -0.359839 2.002714 1.552735 -0.176992 0.567356 -0.427796 -0.163710 0.064478 -1.674758 -1.316587 0.893541 0.186089 0.153644
eth_top/assign_4_RegCs/expr_1/expr_1/expr_2 -0.403808 -0.595530 -1.084959 1.771150 -0.474938 3.582152 -0.070124 0.524542 1.380288 -1.140785 0.676991 0.725149 0.867501 -1.149585 0.154490 -1.643027 -2.422873 0.485535 0.913726 0.280406
eth_top/assign_7_BDCs -0.497211 -2.763847 0.852736 -0.237693 -0.139961 3.351513 2.039701 -0.184530 1.320335 1.999722 -0.592176 -0.605124 -0.438300 0.384750 0.176136 -1.208845 -0.582766 0.267899 -0.269095 0.275391
eth_clockgen/wire_CounterPreset 1.122726 1.354662 -3.373795 1.708757 3.883054 1.181683 0.575761 1.667278 -2.215158 -3.322450 3.696859 1.451072 -1.243233 -3.255530 -1.071238 -1.353075 0.835942 1.567150 -1.581180 0.509997
eth_miim/always_8 -2.334829 -1.823227 -2.220948 1.006284 3.224025 0.233236 -4.404538 0.459974 0.785094 -1.762436 -0.659153 2.525800 0.245560 -2.021176 5.146960 -3.429424 -2.966874 -0.357767 -1.922343 -0.261408
eth_miim/wire_MdoEn -0.687715 -3.964480 0.641872 -0.372650 0.461925 -0.131699 0.498806 -1.568784 -1.765019 0.313442 2.620244 3.002676 -0.096396 -1.881612 -3.605511 -0.135257 2.000115 3.026704 0.628279 -2.064811
eth_rxstatem/always_1/block_1/if_1/block_2/if_3/if_1/cond -0.080947 0.318326 0.445497 0.866117 -1.108363 1.537949 0.011618 -0.409907 2.615190 -0.576023 0.922594 1.375023 -0.552581 0.666126 -0.269973 0.123996 -1.492103 1.317498 1.373856 0.672444
check_ethernet/always_1/if_1/if_1 0.780684 -0.990022 3.705595 1.661124 -2.071274 3.203463 0.971705 -0.960406 -0.189369 -0.252604 0.085204 -2.880695 0.969470 1.092465 -0.830174 0.759082 -3.307711 -0.448220 3.507536 1.028778
eth_shiftreg/input_MdcEn_n -0.274603 0.073542 -1.075052 2.275749 -1.494906 4.604100 0.527501 0.944889 1.961979 -1.337267 -0.170415 -1.281091 0.550594 -1.116086 2.357264 -2.580609 -2.790603 -0.032941 -1.185533 0.884544
eth_miim/always_7/block_1/if_1/block_2/if_1/cond -0.849439 -3.148979 -0.131103 0.520542 -0.634469 0.860410 0.446687 -1.570190 -0.953622 -0.698963 2.136348 2.711382 -0.973232 -2.462066 -0.776736 -2.067222 1.292228 3.577350 -2.220817 -1.859683
eth_rxstatem/reg_StateData0 -0.080947 0.318326 0.445497 0.866117 -1.108363 1.537949 0.011618 -0.409907 2.615190 -0.576023 0.922594 1.375023 -0.552581 0.666126 -0.269973 0.123996 -1.492103 1.317498 1.373856 0.672444
eth_miim/always_1 0.105070 -3.548538 0.876786 -0.053426 -1.801180 1.509904 2.416402 -0.805058 -1.464689 0.267703 2.043650 0.401645 0.408047 -1.482519 -4.530687 0.316486 1.732321 2.676961 0.674757 -1.673159
eth_miim/input_ScanStat -0.607072 0.664483 -2.787313 1.817284 0.690274 3.156954 -0.551144 1.154961 0.996136 -1.713457 0.636333 1.482595 0.792161 -1.875308 1.264346 -2.713642 -2.084977 -0.004078 -0.251189 0.415407
eth_miim/always_3 -0.468195 -0.941343 -3.284816 1.234058 -0.035918 3.776801 1.854780 1.436899 -0.518466 -1.520633 1.322502 0.614037 0.680444 -3.075364 -0.506508 -3.306747 0.145680 1.096218 -2.074635 -0.372657
eth_miim/always_4 -0.468195 -0.941343 -3.284816 1.234058 -0.035918 3.776801 1.854780 1.436899 -0.518466 -1.520633 1.322502 0.614037 0.680444 -3.075364 -0.506508 -3.306747 0.145680 1.096218 -2.074635 -0.372657
eth_miim/always_6 -0.840499 -0.865498 -3.216964 1.354437 0.791783 2.366071 -0.236508 0.871335 -0.579643 -2.151241 1.531556 2.372707 0.825565 -2.922045 -0.304135 -3.036667 -0.543949 1.364085 -0.999878 -0.700382
eth_miim/always_7 -1.141039 -2.345756 -1.848414 0.838424 1.181990 1.352112 -0.673478 -0.182314 -0.764094 -1.311618 1.510255 2.679229 -0.097314 -2.802798 0.432752 -2.795805 0.035971 1.960393 -1.888047 -1.169156
eth_maccontrol/assign_4_TxStartFrmOut/expr_1/expr_1 -0.080947 0.318326 0.445497 0.866117 -1.108363 1.537949 0.011618 -0.409907 2.615190 -0.576023 0.922594 1.375023 -0.552581 0.666126 -0.269973 0.123996 -1.492103 1.317498 1.373856 0.672444
eth_top/input_wb_dat_i 0.780684 -0.990022 3.705595 1.661124 -2.071274 3.203463 0.971705 -0.960406 -0.189369 -0.252604 0.085204 -2.880695 0.969470 1.092465 -0.830174 0.759082 -3.307711 -0.448220 3.507536 1.028778
eth_top/assign_12_temp_wb_err_o/expr_1/expr_2/expr_1 -0.609674 -3.214679 -0.383281 -0.550795 -2.567694 0.809601 -0.444575 -1.035251 0.709126 1.269878 -1.186310 2.085860 0.864278 -0.871035 -1.708152 0.811646 -1.999739 1.199846 2.066914 -2.004341
eth_top/assign_4_RegCs/expr_1/expr_1/expr_1/expr_1 -1.395611 -1.809713 -1.841949 0.457871 1.315097 4.441400 1.210327 0.129329 2.648461 1.014000 -0.155988 2.245990 -1.248830 -0.853599 2.568063 -3.870434 -1.367710 0.910512 -1.901381 0.626370
eth_shiftreg/input_ByteSelect -0.274603 0.073542 -1.075052 2.275749 -1.494906 4.604100 0.527501 0.944889 1.961979 -1.337267 -0.170415 -1.281091 0.550594 -1.116086 2.357264 -2.580609 -2.790603 -0.032941 -1.185533 0.884544
eth_wishbone/always_6/block_1/if_1/if_1/cond -0.080947 0.318326 0.445497 0.866117 -1.108363 1.537949 0.011618 -0.409907 2.615190 -0.576023 0.922594 1.375023 -0.552581 0.666126 -0.269973 0.123996 -1.492103 1.317498 1.373856 0.672444
check_ethernet/input_wb_cyc_i 0.780684 -0.990022 3.705595 1.661124 -2.071274 3.203463 0.971705 -0.960406 -0.189369 -0.252604 0.085204 -2.880695 0.969470 1.092465 -0.830174 0.759082 -3.307711 -0.448220 3.507536 1.028778
eth_top/assign_2_RegCs/expr_1/expr_1 -0.497211 -2.763847 0.852736 -0.237693 -0.139961 3.351513 2.039701 -0.184530 1.320335 1.999722 -0.592176 -0.605124 -0.438300 0.384750 0.176136 -1.208845 -0.582766 0.267899 -0.269095 0.275391
eth_top/assign_6_BDCs/expr_1/expr_1/expr_1/expr_1 -0.497211 -2.763847 0.852736 -0.237693 -0.139961 3.351513 2.039701 -0.184530 1.320335 1.999722 -0.592176 -0.605124 -0.438300 0.384750 0.176136 -1.208845 -0.582766 0.267899 -0.269095 0.275391
eth_top/assign_12_temp_wb_err_o/expr_1/expr_1 -0.609674 -3.214679 -0.383281 -0.550795 -2.567694 0.809601 -0.444575 -1.035251 0.709126 1.269878 -1.186310 2.085860 0.864278 -0.871035 -1.708152 0.811646 -1.999739 1.199846 2.066914 -2.004341
eth_top/assign_22_Transmitting -0.080947 0.318326 0.445497 0.866117 -1.108363 1.537949 0.011618 -0.409907 2.615190 -0.576023 0.922594 1.375023 -0.552581 0.666126 -0.269973 0.123996 -1.492103 1.317498 1.373856 0.672444
eth_txstatem/assign_4_StartData/expr_1/expr_2/expr_1 -0.080947 0.318326 0.445497 0.866117 -1.108363 1.537949 0.011618 -0.409907 2.615190 -0.576023 0.922594 1.375023 -0.552581 0.666126 -0.269973 0.123996 -1.492103 1.317498 1.373856 0.672444
eth_txstatem/reg_StatePAD -0.080947 0.318326 0.445497 0.866117 -1.108363 1.537949 0.011618 -0.409907 2.615190 -0.576023 0.922594 1.375023 -0.552581 0.666126 -0.269973 0.123996 -1.492103 1.317498 1.373856 0.672444
eth_txstatem/assign_5_StartData -0.080947 0.318326 0.445497 0.866117 -1.108363 1.537949 0.011618 -0.409907 2.615190 -0.576023 0.922594 1.375023 -0.552581 0.666126 -0.269973 0.123996 -1.492103 1.317498 1.373856 0.672444
eth_top/assign_6_BDCs/expr_1 -0.497211 -2.763847 0.852736 -0.237693 -0.139961 3.351513 2.039701 -0.184530 1.320335 1.999722 -0.592176 -0.605124 -0.438300 0.384750 0.176136 -1.208845 -0.582766 0.267899 -0.269095 0.275391
eth_shiftreg/always_1/block_1/if_1/block_2/if_1/block_1/if_1/block_1/case_1/cond -0.403808 -0.595530 -1.084959 1.771150 -0.474938 3.582152 -0.070124 0.524542 1.380288 -1.140785 0.676991 0.725149 0.867501 -1.149585 0.154490 -1.643027 -2.422873 0.485535 0.913726 0.280406
eth_wishbone/always_6/block_1/if_1 -0.080947 0.318326 0.445497 0.866117 -1.108363 1.537949 0.011618 -0.409907 2.615190 -0.576023 0.922594 1.375023 -0.552581 0.666126 -0.269973 0.123996 -1.492103 1.317498 1.373856 0.672444
eth_miim/always_3/block_1/if_1/block_2/stmt_5 -0.547644 0.493203 -3.138715 1.438660 1.948153 1.946755 -1.633684 1.308633 -0.181990 -1.892398 1.324966 3.051855 2.211104 -1.928913 -1.729886 -1.229816 -2.125040 -0.361773 3.131103 -0.129973
eth_top/input_md_pad_i 0.076458 0.485107 -0.012533 1.203603 -1.591002 1.992680 0.941955 0.135178 -0.055056 -0.597829 -0.180060 -0.926303 0.129474 -0.432244 0.475374 -1.292888 -1.125241 0.069310 -0.220293 0.106845
eth_txstatem/assign_3_StartPreamble/expr_1 -0.080947 0.318326 0.445497 0.866117 -1.108363 1.537949 0.011618 -0.409907 2.615190 -0.576023 0.922594 1.375023 -0.552581 0.666126 -0.269973 0.123996 -1.492103 1.317498 1.373856 0.672444
eth_wishbone/always_4/block_1 -0.750467 -2.899204 0.245872 0.259297 -0.474301 4.163357 1.837849 -0.359839 2.002714 1.552735 -0.176992 0.567356 -0.427796 -0.163710 0.064478 -1.674758 -1.316587 0.893541 0.186089 0.153644
eth_top/always_1/block_1/if_1/block_2/stmt_1/expr_1 -0.175630 -4.953590 1.273625 -1.347316 0.488528 3.533491 3.467940 -0.551534 1.329530 3.165001 -1.149418 -0.683352 -1.104875 1.391241 -0.845218 -0.789331 0.216272 1.428543 -0.482468 0.507007
eth_wishbone/reg_TxStartFrm_wb -0.080947 0.318326 0.445497 0.866117 -1.108363 1.537949 0.011618 -0.409907 2.615190 -0.576023 0.922594 1.375023 -0.552581 0.666126 -0.269973 0.123996 -1.492103 1.317498 1.373856 0.672444
eth_shiftreg/always_1/block_1/if_1/block_2/if_1/block_1/if_1/cond -0.274603 0.073542 -1.075052 2.275749 -1.494906 4.604100 0.527501 0.944889 1.961979 -1.337267 -0.170415 -1.281091 0.550594 -1.116086 2.357264 -2.580609 -2.790603 -0.032941 -1.185533 0.884544
eth_miim/always_1/block_1/if_1 0.105070 -3.548538 0.876786 -0.053426 -1.801180 1.509904 2.416402 -0.805058 -1.464689 0.267703 2.043650 0.401645 0.408047 -1.482519 -4.530687 0.316486 1.732321 2.676961 0.674757 -1.673159
eth_clockgen/always_1/block_1/if_1/block_1/if_1/block_1 1.122726 1.354662 -3.373795 1.708757 3.883054 1.181683 0.575761 1.667278 -2.215158 -3.322450 3.696859 1.451072 -1.243233 -3.255530 -1.071238 -1.353075 0.835942 1.567150 -1.581180 0.509997
eth_shiftreg/always_1/block_1/if_1/block_2/if_1/block_1 -0.274603 0.073542 -1.075052 2.275749 -1.494906 4.604100 0.527501 0.944889 1.961979 -1.337267 -0.170415 -1.281091 0.550594 -1.116086 2.357264 -2.580609 -2.790603 -0.032941 -1.185533 0.884544
eth_miim/always_4/block_1 -0.468195 -0.941343 -3.284816 1.234058 -0.035918 3.776801 1.854780 1.436899 -0.518466 -1.520633 1.322502 0.614037 0.680444 -3.075364 -0.506508 -3.306747 0.145680 1.096218 -2.074635 -0.372657
eth_clockgen/always_1/block_1/if_1/block_1/if_1/stmt_1 -0.760277 -0.104829 -4.204636 -0.564456 3.257684 -0.865680 0.167290 0.454860 -2.265483 -0.500860 1.569544 4.245597 -0.775487 -3.196563 -0.405401 -2.355252 2.190935 1.119465 -2.025990 -1.339733
eth_top/always_1/block_1/if_1/block_2/stmt_3/expr_1 -1.319083 -2.760776 -1.011047 -0.354976 -2.317523 0.804518 -1.317901 0.536158 1.469912 0.492237 -1.545361 -0.655003 2.276559 -1.307359 -1.079496 0.364728 -1.747559 -0.623524 1.858274 -1.920489
eth_wishbone/reg_WB_ACK_O -0.497211 -2.763847 0.852736 -0.237693 -0.139961 3.351513 2.039701 -0.184530 1.320335 1.999722 -0.592176 -0.605124 -0.438300 0.384750 0.176136 -1.208845 -0.582766 0.267899 -0.269095 0.275391
eth_transmitcontrol/always_1/block_1/if_1/if_1 -0.080947 0.318326 0.445497 0.866117 -1.108363 1.537949 0.011618 -0.409907 2.615190 -0.576023 0.922594 1.375023 -0.552581 0.666126 -0.269973 0.123996 -1.492103 1.317498 1.373856 0.672444
eth_top/assign_9_BDCs/expr_1/expr_1/expr_1/expr_1/expr_1 -0.750467 -2.899204 0.245872 0.259297 -0.474301 4.163357 1.837849 -0.359839 2.002714 1.552735 -0.176992 0.567356 -0.427796 -0.163710 0.064478 -1.674758 -1.316587 0.893541 0.186089 0.153644
eth_top/wire_wb_ack_o -0.369740 -3.701355 0.752540 -1.494923 1.918530 3.765587 3.968468 0.235210 1.033367 3.927688 -0.924674 -0.762399 -1.367840 1.626871 -0.171711 -0.992974 0.588978 0.250685 -0.496459 1.333262
eth_miim/always_3/block_1/if_1/block_2 -0.468195 -0.941343 -3.284816 1.234058 -0.035918 3.776801 1.854780 1.436899 -0.518466 -1.520633 1.322502 0.614037 0.680444 -3.075364 -0.506508 -3.306747 0.145680 1.096218 -2.074635 -0.372657
eth_outputcontrol/assign_1_SerialEn/expr_1/expr_2/expr_2 -0.815676 -0.832428 -1.806589 0.598015 1.810120 1.476747 -1.155248 -0.356810 0.670051 -0.580791 1.900377 5.532218 0.626539 -0.995422 -2.804490 -0.849313 -1.412011 1.612660 3.707533 -0.643675
eth_top/inst_miim1 0.001695 1.119824 -2.053625 1.252710 1.001064 0.603542 -0.466670 1.072044 -2.087291 -1.721583 0.680181 -0.656021 1.198360 -2.477977 1.350001 -1.941492 0.400213 -0.915638 -2.136464 -0.141525
eth_outputcontrol/assign_1_SerialEn/expr_1/expr_2/expr_1 -0.815676 -0.832428 -1.806589 0.598015 1.810120 1.476747 -1.155248 -0.356810 0.670051 -0.580791 1.900377 5.532218 0.626539 -0.995422 -2.804490 -0.849313 -1.412011 1.612660 3.707533 -0.643675
eth_txethmac/always_13/block_1/if_1/stmt_2/expr_1 -0.080947 0.318326 0.445497 0.866117 -1.108363 1.537949 0.011618 -0.409907 2.615190 -0.576023 0.922594 1.375023 -0.552581 0.666126 -0.269973 0.123996 -1.492103 1.317498 1.373856 0.672444
eth_wishbone/always_30 -0.080947 0.318326 0.445497 0.866117 -1.108363 1.537949 0.011618 -0.409907 2.615190 -0.576023 0.922594 1.375023 -0.552581 0.666126 -0.269973 0.123996 -1.492103 1.317498 1.373856 0.672444
eth_rxstatem/wire_StartSFD -0.080947 0.318326 0.445497 0.866117 -1.108363 1.537949 0.011618 -0.409907 2.615190 -0.576023 0.922594 1.375023 -0.552581 0.666126 -0.269973 0.123996 -1.492103 1.317498 1.373856 0.672444
eth_txstatem/always_1/block_1/if_1/block_2/stmt_1 -0.080947 0.318326 0.445497 0.866117 -1.108363 1.537949 0.011618 -0.409907 2.615190 -0.576023 0.922594 1.375023 -0.552581 0.666126 -0.269973 0.123996 -1.492103 1.317498 1.373856 0.672444
eth_miim/always_6/block_1/if_1/block_2/if_1/block_1 -0.468195 -0.941343 -3.284816 1.234058 -0.035918 3.776801 1.854780 1.436899 -0.518466 -1.520633 1.322502 0.614037 0.680444 -3.075364 -0.506508 -3.306747 0.145680 1.096218 -2.074635 -0.372657
eth_wishbone/always_6/block_1 -0.080947 0.318326 0.445497 0.866117 -1.108363 1.537949 0.011618 -0.409907 2.615190 -0.576023 0.922594 1.375023 -0.552581 0.666126 -0.269973 0.123996 -1.492103 1.317498 1.373856 0.672444
eth_registers/assign_110_r_WCtrlData -0.607072 0.664483 -2.787313 1.817284 0.690274 3.156954 -0.551144 1.154961 0.996136 -1.713457 0.636333 1.482595 0.792161 -1.875308 1.264346 -2.713642 -2.084977 -0.004078 -0.251189 0.415407
eth_wishbone/always_1/block_1/stmt_1/expr_1/expr_1/expr_1/expr_1 -0.497211 -2.763847 0.852736 -0.237693 -0.139961 3.351513 2.039701 -0.184530 1.320335 1.999722 -0.592176 -0.605124 -0.438300 0.384750 0.176136 -1.208845 -0.582766 0.267899 -0.269095 0.275391
eth_top/assign_7_BDCs/expr_1/expr_1/expr_1/expr_1 -0.497211 -2.763847 0.852736 -0.237693 -0.139961 3.351513 2.039701 -0.184530 1.320335 1.999722 -0.592176 -0.605124 -0.438300 0.384750 0.176136 -1.208845 -0.582766 0.267899 -0.269095 0.275391
eth_top/assign_8_BDCs/expr_1 -0.497211 -2.763847 0.852736 -0.237693 -0.139961 3.351513 2.039701 -0.184530 1.320335 1.999722 -0.592176 -0.605124 -0.438300 0.384750 0.176136 -1.208845 -0.582766 0.267899 -0.269095 0.275391
eth_miim/always_8/block_1/if_1 -2.334829 -1.823227 -2.220948 1.006284 3.224025 0.233236 -4.404538 0.459974 0.785094 -1.762436 -0.659153 2.525800 0.245560 -2.021176 5.146960 -3.429424 -2.966874 -0.357767 -1.922343 -0.261408
eth_top/assign_15_wb_err_o -1.319083 -2.760776 -1.011047 -0.354976 -2.317523 0.804518 -1.317901 0.536158 1.469912 0.492237 -1.545361 -0.655003 2.276559 -1.307359 -1.079496 0.364728 -1.747559 -0.623524 1.858274 -1.920489
eth_shiftreg/always_1/block_1/if_1/block_2/if_1/block_1/if_1/block_1/case_1 -0.403808 -0.595530 -1.084959 1.771150 -0.474938 3.582152 -0.070124 0.524542 1.380288 -1.140785 0.676991 0.725149 0.867501 -1.149585 0.154490 -1.643027 -2.422873 0.485535 0.913726 0.280406
eth_top/wire_temp_wb_dat_o 1.204506 -1.099078 2.416230 1.080444 -0.605777 0.516338 -0.296135 -1.398977 -2.671242 -1.202028 0.713384 0.845072 0.060319 0.462286 -2.901459 1.005097 -1.916785 1.389529 3.083402 -0.540418
eth_wishbone/always_4 -0.750467 -2.899204 0.245872 0.259297 -0.474301 4.163357 1.837849 -0.359839 2.002714 1.552735 -0.176992 0.567356 -0.427796 -0.163710 0.064478 -1.674758 -1.316587 0.893541 0.186089 0.153644
eth_rxstatem/wire_StateData -0.080947 0.318326 0.445497 0.866117 -1.108363 1.537949 0.011618 -0.409907 2.615190 -0.576023 0.922594 1.375023 -0.552581 0.666126 -0.269973 0.123996 -1.492103 1.317498 1.373856 0.672444
eth_wishbone/always_1 -0.497211 -2.763847 0.852736 -0.237693 -0.139961 3.351513 2.039701 -0.184530 1.320335 1.999722 -0.592176 -0.605124 -0.438300 0.384750 0.176136 -1.208845 -0.582766 0.267899 -0.269095 0.275391
eth_txstatem/always_1 -0.080947 0.318326 0.445497 0.866117 -1.108363 1.537949 0.011618 -0.409907 2.615190 -0.576023 0.922594 1.375023 -0.552581 0.666126 -0.269973 0.123996 -1.492103 1.317498 1.373856 0.672444
eth_top/wire_ByteSelected 0.194970 -1.948622 1.794540 0.490432 -2.870615 -0.570794 -1.521562 -2.057245 -1.761824 -0.671195 -0.082836 1.616412 0.869136 -0.913682 -2.473898 1.491551 -2.518256 1.279541 3.359959 -2.159331
eth_wishbone/always_2 -0.750467 -2.899204 0.245872 0.259297 -0.474301 4.163357 1.837849 -0.359839 2.002714 1.552735 -0.176992 0.567356 -0.427796 -0.163710 0.064478 -1.674758 -1.316587 0.893541 0.186089 0.153644
eth_registers/assign_41_MIICOMMAND_Wr/expr_1 -0.607072 0.664483 -2.787313 1.817284 0.690274 3.156954 -0.551144 1.154961 0.996136 -1.713457 0.636333 1.482595 0.792161 -1.875308 1.264346 -2.713642 -2.084977 -0.004078 -0.251189 0.415407
eth_top/assign_3_RegCs/expr_1/expr_1 -0.497211 -2.763847 0.852736 -0.237693 -0.139961 3.351513 2.039701 -0.184530 1.320335 1.999722 -0.592176 -0.605124 -0.438300 0.384750 0.176136 -1.208845 -0.582766 0.267899 -0.269095 0.275391
eth_registers/wire_MIIMODEROut 0.047955 1.336396 -4.628430 1.372525 1.641067 1.314145 0.402579 1.146139 -1.998194 -2.200364 3.148348 2.877752 0.595733 -4.664161 -1.216727 -2.245084 1.420566 1.307443 -1.888294 -0.978812
eth_miim/reg_WCtrlData_q3 -0.678506 -2.305859 -2.262538 0.922430 0.033188 3.193622 1.474649 0.032477 -0.462003 -1.062435 2.597383 3.326297 0.434315 -2.830708 -2.982205 -2.361611 0.406449 2.797608 0.199529 -1.207612
eth_outputcontrol/always_1/block_1/if_1/block_2/if_1/cond -0.687715 -3.964480 0.641872 -0.372650 0.461925 -0.131699 0.498806 -1.568784 -1.765019 0.313442 2.620244 3.002676 -0.096396 -1.881612 -3.605511 -0.135257 2.000115 3.026704 0.628279 -2.064811
eth_top/assign_12_temp_wb_err_o/expr_1/expr_2 -0.609674 -3.214679 -0.383281 -0.550795 -2.567694 0.809601 -0.444575 -1.035251 0.709126 1.269878 -1.186310 2.085860 0.864278 -0.871035 -1.708152 0.811646 -1.999739 1.199846 2.066914 -2.004341
eth_register/input_SyncReset 2.497434 2.763965 -6.594586 0.233883 -3.181058 1.262562 -1.066643 3.396822 -0.642683 -3.710524 -5.206697 2.170673 0.871531 0.534438 -3.312364 -0.863217 -2.735083 0.358815 -0.460125 -2.198693
eth_outputcontrol/wire_SerialEn -0.873334 -1.382831 -1.481312 -0.332135 7.079569 0.918697 -3.230983 1.772801 -0.255936 1.338455 0.250390 2.014990 3.123391 -0.701854 0.146229 0.936625 -2.802488 -3.799107 4.645076 1.423670
eth_register/always_1/block_1/if_1 0.709978 6.398726 -1.775298 1.798209 -1.302137 -2.565264 -2.342482 -0.428236 0.541347 -3.286898 2.537805 3.392916 0.642786 -0.119508 0.070577 0.685800 -0.385513 1.318891 1.168068 0.672037
eth_shiftreg/always_1/block_1/if_1/block_2/if_1/block_1/if_1/block_2 -0.274603 0.073542 -1.075052 2.275749 -1.494906 4.604100 0.527501 0.944889 1.961979 -1.337267 -0.170415 -1.281091 0.550594 -1.116086 2.357264 -2.580609 -2.790603 -0.032941 -1.185533 0.884544
eth_shiftreg/always_1/block_1/if_1/block_2/if_1/block_1/if_1/block_1 -0.403808 -0.595530 -1.084959 1.771150 -0.474938 3.582152 -0.070124 0.524542 1.380288 -1.140785 0.676991 0.725149 0.867501 -1.149585 0.154490 -1.643027 -2.422873 0.485535 0.913726 0.280406
eth_miim/assign_3_ScanStatusOp/expr_1 -0.607072 0.664483 -2.787313 1.817284 0.690274 3.156954 -0.551144 1.154961 0.996136 -1.713457 0.636333 1.482595 0.792161 -1.875308 1.264346 -2.713642 -2.084977 -0.004078 -0.251189 0.415407
eth_wishbone/always_1/block_1/stmt_1/expr_1/expr_2 -0.497211 -2.763847 0.852736 -0.237693 -0.139961 3.351513 2.039701 -0.184530 1.320335 1.999722 -0.592176 -0.605124 -0.438300 0.384750 0.176136 -1.208845 -0.582766 0.267899 -0.269095 0.275391
eth_wishbone/always_1/block_1/stmt_1/expr_1/expr_1 -0.497211 -2.763847 0.852736 -0.237693 -0.139961 3.351513 2.039701 -0.184530 1.320335 1.999722 -0.592176 -0.605124 -0.438300 0.384750 0.176136 -1.208845 -0.582766 0.267899 -0.269095 0.275391
eth_wishbone/always_26/block_1/if_1 -0.080947 0.318326 0.445497 0.866117 -1.108363 1.537949 0.011618 -0.409907 2.615190 -0.576023 0.922594 1.375023 -0.552581 0.666126 -0.269973 0.123996 -1.492103 1.317498 1.373856 0.672444
eth_top/wire_md_pad_o 0.677811 2.188473 -0.785149 2.615578 0.598725 2.826841 -1.807505 1.913530 0.866674 -1.630301 -1.052132 -3.190621 1.740827 -0.541609 3.902261 -0.611005 -4.014362 -2.982846 -0.126805 1.928890
eth_outputcontrol/always_2/block_1/if_1/block_2/if_1/block_1 -0.291842 3.442323 -2.219428 1.842501 1.246237 2.518794 -1.752684 2.168886 1.454291 -0.815296 -1.735134 -0.963908 2.145390 0.060154 2.948722 -1.325784 -4.373841 -3.955359 2.439423 1.840348
eth_txstatem/assign_6_StartPAD -0.080947 0.318326 0.445497 0.866117 -1.108363 1.537949 0.011618 -0.409907 2.615190 -0.576023 0.922594 1.375023 -0.552581 0.666126 -0.269973 0.123996 -1.492103 1.317498 1.373856 0.672444
check_ethernet/always_1/if_1/cond 0.451162 -2.705384 2.133299 0.621878 -2.691532 2.235094 1.155509 -0.692352 -0.729137 -0.214099 -0.216437 -1.638875 1.056372 0.342632 -2.114258 0.278528 -1.121189 1.092680 1.320945 -0.631127
eth_miim/always_7/block_1/if_1/block_2/if_1 -1.141039 -2.345756 -1.848414 0.838424 1.181990 1.352112 -0.673478 -0.182314 -0.764094 -1.311618 1.510255 2.679229 -0.097314 -2.802798 0.432752 -2.795805 0.035971 1.960393 -1.888047 -1.169156
eth_rxstatem/assign_2_StartPreamble/expr_1/expr_2 -0.080947 0.318326 0.445497 0.866117 -1.108363 1.537949 0.011618 -0.409907 2.615190 -0.576023 0.922594 1.375023 -0.552581 0.666126 -0.269973 0.123996 -1.492103 1.317498 1.373856 0.672444
eth_top/assign_1_ByteSelected 0.194970 -1.948622 1.794540 0.490432 -2.870615 -0.570794 -1.521562 -2.057245 -1.761824 -0.671195 -0.082836 1.616412 0.869136 -0.913682 -2.473898 1.491551 -2.518256 1.279541 3.359959 -2.159331
eth_registers/assign_13_MIICOMMAND_Sel 0.276519 0.656254 -2.603434 1.286703 0.911824 2.223711 -0.536413 2.550657 -0.963286 -1.688647 0.361848 -0.574507 3.465982 -1.389620 -2.894486 0.219727 -2.053554 -2.015164 3.856986 0.222442
eth_transmitcontrol -0.080947 0.318326 0.445497 0.866117 -1.108363 1.537949 0.011618 -0.409907 2.615190 -0.576023 0.922594 1.375023 -0.552581 0.666126 -0.269973 0.123996 -1.492103 1.317498 1.373856 0.672444
eth_wishbone/always_2/block_1/if_1/if_1/cond/expr_1 -0.750467 -2.899204 0.245872 0.259297 -0.474301 4.163357 1.837849 -0.359839 2.002714 1.552735 -0.176992 0.567356 -0.427796 -0.163710 0.064478 -1.674758 -1.316587 0.893541 0.186089 0.153644
eth_miim/always_1/block_1/if_1/block_1/stmt_1 0.105070 -3.548538 0.876786 -0.053426 -1.801180 1.509904 2.416402 -0.805058 -1.464689 0.267703 2.043650 0.401645 0.408047 -1.482519 -4.530687 0.316486 1.732321 2.676961 0.674757 -1.673159
eth_outputcontrol/always_2/block_1/if_1/block_2/if_1/block_1/stmt_1/expr_1 -0.291842 3.442323 -2.219428 1.842501 1.246237 2.518794 -1.752684 2.168886 1.454291 -0.815296 -1.735134 -0.963908 2.145390 0.060154 2.948722 -1.325784 -4.373841 -3.955359 2.439423 1.840348
eth_clockgen/always_1/block_1/if_1/block_1/if_1 -0.760277 -0.104829 -4.204636 -0.564456 3.257684 -0.865680 0.167290 0.454860 -2.265483 -0.500860 1.569544 4.245597 -0.775487 -3.196563 -0.405401 -2.355252 2.190935 1.119465 -2.025990 -1.339733
eth_miim/wire_MdcEn -0.849439 -3.148979 -0.131103 0.520542 -0.634469 0.860410 0.446687 -1.570190 -0.953622 -0.698963 2.136348 2.711382 -0.973232 -2.462066 -0.776736 -2.067222 1.292228 3.577350 -2.220817 -1.859683
eth_top/assign_22_Transmitting/expr_1 -0.080947 0.318326 0.445497 0.866117 -1.108363 1.537949 0.011618 -0.409907 2.615190 -0.576023 0.922594 1.375023 -0.552581 0.666126 -0.269973 0.123996 -1.492103 1.317498 1.373856 0.672444
eth_clockgen/reg_Counter -1.070779 0.944656 -4.008749 -0.656545 2.668565 -0.423500 0.963259 0.700065 -2.567543 0.167746 1.408931 3.597465 0.656845 -2.777945 -1.497800 -2.652222 2.747405 -0.269394 -0.492257 -1.161850
eth_rxstatem/always_1/block_1 -0.080947 0.318326 0.445497 0.866117 -1.108363 1.537949 0.011618 -0.409907 2.615190 -0.576023 0.922594 1.375023 -0.552581 0.666126 -0.269973 0.123996 -1.492103 1.317498 1.373856 0.672444
eth_txstatem/assign_5_StartData/expr_1/expr_1 -0.080947 0.318326 0.445497 0.866117 -1.108363 1.537949 0.011618 -0.409907 2.615190 -0.576023 0.922594 1.375023 -0.552581 0.666126 -0.269973 0.123996 -1.492103 1.317498 1.373856 0.672444
eth_miim/assign_8_ByteSelect/expr_1/expr_1 -0.274603 0.073542 -1.075052 2.275749 -1.494906 4.604100 0.527501 0.944889 1.961979 -1.337267 -0.170415 -1.281091 0.550594 -1.116086 2.357264 -2.580609 -2.790603 -0.032941 -1.185533 0.884544
