eth_miim/assign_7_ByteSelect -0.574301 0.967371 -0.050098 1.648588 -1.331658 2.987782 0.258532 2.128032 0.001981 1.640020 -2.992166 -0.063281 -0.057132 -1.071678 2.990120 -4.130303 -0.029775 0.676129 -2.640798 1.127951
eth_top/input_wb_adr_i -1.963324 0.589933 3.244302 2.064219 5.963821 -3.598482 0.263502 -2.899823 -2.661303 -1.505012 3.372634 -1.895374 -3.317876 1.107417 0.875030 0.578164 0.432424 0.751095 -2.840899 0.328140
eth_outputcontrol/always_2/block_1/if_1/block_2 0.519791 2.224775 1.601438 0.661607 1.442574 -2.831834 -0.019035 0.935331 -3.161029 1.427313 -2.072497 -1.779906 1.023824 0.689351 2.051111 0.145138 1.929239 -2.820843 -1.677340 0.181523
eth_outputcontrol/always_2/block_1/if_1/block_1 -0.234144 0.241437 3.973318 0.539632 -0.084056 -2.937209 0.178722 0.273630 -3.170444 2.567021 -1.843293 -3.549698 1.643009 0.497575 2.182370 0.861519 2.367145 -2.025464 -1.786663 -0.833744
eth_miim/assign_4_StartOp 0.597489 -0.500684 -1.228958 -0.963317 0.336522 -0.879729 0.633645 -0.647515 -1.748434 -1.599009 0.469828 1.201939 0.730684 -0.937210 -1.468434 -2.550345 2.182573 0.767683 -1.624629 0.523419
eth_top/assign_14_wb_dat_o 1.119363 1.995853 2.364515 -0.255690 0.998727 -5.891049 -0.067395 -0.588658 -2.661910 0.520199 -1.692811 -3.627290 1.866490 3.438404 1.185768 3.408638 1.403576 -3.161567 -0.738764 -1.098800
eth_outputcontrol/reg_MdoEn_2d -0.638539 -2.487316 0.256972 -3.797010 0.847248 -4.608544 1.372788 -4.891921 -0.666466 -1.488633 3.605206 0.936270 -1.170297 -0.055100 -2.413495 0.480097 3.421997 1.418503 -2.212302 -1.331728
eth_top/assign_8_BDCs/expr_1/expr_1 -1.281180 0.064979 1.252365 -1.184105 2.012963 -1.133415 1.898592 0.129255 -0.014298 3.502801 -0.834316 -1.709964 -1.171151 1.431973 0.574976 0.928680 0.841659 -1.577494 -0.798149 -0.141676
eth_miim/always_4/block_1/if_1/block_2/if_1 0.744528 -0.945493 -0.827475 -0.783039 0.674370 0.563897 2.512622 0.625912 -2.423176 -0.191074 -0.223415 0.404847 0.466111 -1.123352 -2.693766 -2.992604 2.445979 0.731837 -1.811353 0.751680
eth_register/always_1/block_1/if_1/if_1/if_1/cond 1.782035 7.645484 0.142479 1.653082 -0.527459 -5.008379 -2.510751 -1.456022 -0.126721 -4.656426 2.083934 2.377587 -0.170359 -0.012700 2.083652 1.592001 1.657940 -1.756171 1.087415 1.386628
eth_miim/assign_3_ScanStatusOp/expr_1/expr_1 0.241143 1.594539 -2.524724 0.284574 0.772813 0.962154 -1.183850 1.488124 -0.362465 -1.097089 -1.282531 2.149175 0.706650 -0.742903 0.899240 -3.361655 0.547977 -0.290930 -0.813272 1.757419
eth_miim/assign_3_ScanStatusOp/expr_1/expr_2 -0.821083 0.191898 -1.925272 -0.292214 -0.203179 2.141424 0.090944 0.264064 0.877668 0.222789 -0.891072 2.323249 -0.984607 -1.290683 1.305700 -4.386570 0.893709 1.420153 -2.618495 1.209532
eth_top/inst_check_eth_top -0.353707 2.714348 3.623909 1.742132 0.017151 -1.375060 0.970375 -0.671870 -0.153130 0.830726 0.291407 -3.242270 -1.464084 1.501714 2.374962 3.154222 -1.806855 -1.894696 1.152648 -0.701281
eth_miim/wire_MdcEn_n -0.333312 0.203712 1.810913 0.691473 0.950924 -1.520115 -1.478862 0.060997 -3.795904 1.945178 -1.267994 -0.908487 2.191363 -0.605518 1.497532 -0.763220 2.256006 -1.858680 -0.901423 -0.168976
eth_wishbone/reg_TxEn_needed -1.476222 -1.248979 0.124734 -0.868384 0.491416 2.057546 2.037800 -0.005930 1.694929 3.314638 -0.639229 -0.240423 -2.228951 0.277985 0.321430 -0.574359 -0.347512 0.229976 -0.952987 -0.256679
eth_top/always_4/block_1 -0.170729 1.293624 0.694737 -0.406654 -0.672569 -0.920262 0.249272 0.366828 1.815626 -0.037534 -0.101837 -0.303945 -0.940721 0.347675 0.909391 1.046896 0.438521 0.076333 -0.398040 0.606149
eth_register/reg_DataOut 1.413725 5.077224 1.003748 0.404402 -2.519350 -3.747174 -1.306643 -1.470049 -0.981353 -3.544141 1.620477 0.539797 0.915444 0.085354 2.378621 1.850994 1.060311 1.276794 -0.601645 0.927841
eth_registers/wire_r_MiiNoPre -0.833896 0.216139 -1.980852 -0.291830 -0.178206 2.133936 0.036705 0.289532 0.859722 0.243872 -0.950152 2.346421 -0.960262 -1.300424 1.366329 -4.441123 0.921103 1.393367 -2.653512 1.235993
eth_rxstatem/assign_3_StartSFD -0.166095 1.211744 0.640019 -0.420112 -0.670782 -0.842303 0.271253 0.399746 1.791729 -0.030113 -0.090952 -0.295361 -0.924927 0.294976 0.910792 0.962303 0.408790 0.099153 -0.388629 0.620670
eth_txstatem/reg_StateFCS -0.183016 1.275446 0.701054 -0.400883 -0.691875 -0.936338 0.242824 0.377554 1.836511 -0.036182 -0.119529 -0.318860 -0.972629 0.382189 0.941977 1.059366 0.398972 0.096665 -0.396963 0.609963
eth_outputcontrol/reg_MdoEn_d -0.692803 -2.537696 0.314927 -3.823184 0.817117 -4.682902 1.335615 -4.914578 -0.738296 -1.453732 3.592933 0.907234 -1.145183 -0.041685 -2.332573 0.417495 3.458123 1.392427 -2.265795 -1.397802
eth_txethmac/always_13/block_1/if_1/stmt_2 -0.163037 1.271147 0.659119 -0.433952 -0.699170 -0.872785 0.244174 0.400017 1.854975 -0.090332 -0.106403 -0.266787 -0.960664 0.356701 0.929207 0.994521 0.402155 0.139051 -0.441845 0.637752
eth_miim/always_6/block_1/if_1 0.538651 -0.423502 -1.107184 -0.986211 0.450626 -1.054855 0.648273 -0.612336 -1.883715 -1.447329 0.295855 1.016563 0.820500 -0.831291 -1.358475 -2.448488 2.222894 0.532901 -1.583245 0.506511
eth_miim/always_4/block_1/if_1/block_2/if_1/block_2/if_2/cond 1.112619 0.728379 -4.304442 -0.234398 0.741102 1.441123 -1.832549 0.591100 0.181744 -3.544069 0.682281 4.128836 0.826088 -1.423567 -1.571147 -3.036042 0.334007 0.882057 0.512573 1.797589
eth_registers/input_Rw 3.210572 1.712889 -2.844637 -0.991274 -1.598906 -3.009102 -1.195000 0.117763 2.215168 -5.206794 -0.384428 1.194872 0.031621 0.806461 -1.526282 1.107611 -0.632879 -0.217024 -0.068909 0.278091
eth_wishbone/reg_TxBDReady -0.188912 1.263944 0.665734 -0.411544 -0.710301 -0.888197 0.250584 0.382745 1.847872 -0.012246 -0.122288 -0.312974 -0.953500 0.366210 0.944909 1.007680 0.414688 0.108819 -0.423629 0.616447
eth_rxstatem/assign_1_StartIdle/expr_1/expr_2/expr_1/expr_1 -0.147149 1.232766 0.666887 -0.413005 -0.674419 -0.829033 0.273948 0.392751 1.794035 -0.016636 -0.111442 -0.277566 -0.926543 0.351786 0.900948 0.992095 0.415745 0.138640 -0.374895 0.608447
eth_outputcontrol/reg_MdoEn -0.660227 -2.667972 0.235798 -3.837164 0.801507 -4.525813 1.324528 -4.960855 -0.737025 -1.487820 3.640207 1.022060 -1.108978 -0.146077 -2.414602 0.304272 3.484515 1.526110 -2.265496 -1.392132
eth_register/always_1/block_1 1.335240 4.780741 1.059073 0.283789 -2.763276 -3.722988 -1.415040 -1.395291 -0.920509 -3.396539 1.366000 0.423917 1.153486 0.115964 2.516737 1.861441 1.073034 1.244918 -0.627698 0.818461
eth_top/assign_16_temp_wb_ack_o/expr_1/expr_1 -1.249751 0.113886 1.266482 -1.177188 2.066232 -1.218516 1.867108 0.102601 -0.058831 3.458071 -0.854376 -1.759493 -1.130736 1.480811 0.580915 0.971460 0.905078 -1.575711 -0.800677 -0.145667
eth_top/reg_temp_wb_dat_o_reg 1.190760 2.075727 2.360349 -0.275507 0.928165 -5.930986 -0.102747 -0.573271 -2.715153 0.513615 -1.736668 -3.597713 1.928034 3.403898 1.218223 3.385794 1.489669 -3.112809 -0.795760 -1.125890
eth_miim/reg_RStatStart_q1 0.999541 1.284587 -4.512274 -0.588395 0.356116 -0.507532 -3.593708 -0.979328 0.878761 -5.101704 1.519726 4.762125 1.009569 -1.072488 -0.309556 -2.337742 0.165661 0.819277 0.674188 1.419683
eth_miim/reg_RStatStart_q2 0.030238 0.135948 -3.871130 -1.057166 -0.488108 0.478525 -2.503382 -2.061050 1.969937 -3.756298 1.787137 4.850300 -0.500858 -1.525176 0.190771 -3.181635 0.484471 2.244195 -0.993868 0.929891
eth_clockgen/input_Divider 2.352940 4.214984 -1.062587 -1.599999 1.655925 -4.078044 2.028899 -0.761976 -3.545030 -0.950151 1.056112 3.283664 0.635944 -2.140763 -3.176871 -1.892209 6.489694 -2.078381 -0.970034 1.289383
eth_wishbone/always_1/block_1/stmt_1 -1.267982 0.037679 1.304593 -1.186269 2.017664 -1.141567 1.870780 0.118086 -0.002164 3.457556 -0.833594 -1.768268 -1.159250 1.470885 0.575435 0.983917 0.803228 -1.556178 -0.765318 -0.191807
eth_top/inst_rxethmac1 -0.195154 1.322019 0.710518 -0.429808 -0.717889 -0.916448 0.251445 0.407912 1.876662 -0.028195 -0.101377 -0.333060 -0.965691 0.371665 0.963694 1.043172 0.457688 0.125430 -0.416604 0.651084
check_ethernet/reg_wb_wr_dat -0.321680 2.638480 3.607151 1.912964 0.195667 -1.340004 0.850092 -0.782635 -0.316709 0.640034 0.386946 -3.249703 -1.470447 1.500230 2.327496 3.151114 -2.001269 -1.863187 1.191946 -0.766344
eth_miim/reg_RStatStart 1.121896 0.797933 -4.313873 -0.140721 0.808103 1.492632 -1.934888 0.698168 0.117965 -3.530155 0.594195 4.171393 0.942405 -1.427863 -1.473303 -3.051672 0.272535 0.750462 0.631138 1.793979
eth_outputcontrol/always_1/block_1/if_1/block_2/if_1 -0.652214 -2.527656 0.424836 -3.821962 0.800789 -4.645133 1.498375 -4.859135 -0.718684 -1.291082 3.527104 0.775920 -1.199204 0.007374 -2.380297 0.537319 3.452837 1.410294 -2.280910 -1.416091
eth_registers/wire_r_ScanStat 0.149283 1.504271 -2.623578 0.202993 0.806900 1.062753 -1.139550 1.446786 -0.310294 -1.094652 -1.253786 2.250704 0.602429 -0.767103 0.831550 -3.422621 0.573694 -0.193862 -0.825575 1.753397
eth_txstatem/assign_3_StartPreamble/expr_1/expr_1 -0.169657 1.271329 0.692036 -0.438470 -0.683667 -0.950409 0.259241 0.371865 1.757574 -0.030270 -0.076017 -0.343898 -0.929327 0.380443 0.938438 1.025597 0.411829 0.096048 -0.376844 0.615725
eth_top/assign_7_BDCs/expr_1/expr_1/expr_1/expr_1/expr_1 -1.531565 -1.317309 0.045307 -0.836202 0.475019 2.257555 2.017654 0.024423 1.770891 3.307580 -0.610263 -0.195454 -2.286359 0.204800 0.268945 -0.691738 -0.472520 0.355206 -0.984769 -0.248489
eth_miim/always_8/block_1/if_1/block_1/if_1/block_1/if_1/cond 0.181218 1.502915 -2.586279 0.248957 0.768944 1.044773 -1.229215 1.502387 -0.354632 -1.062004 -1.276936 2.179069 0.684879 -0.743385 0.889370 -3.366556 0.501585 -0.246175 -0.807446 1.766470
eth_top/assign_2_RegCs/expr_1/expr_1/expr_1/expr_1/expr_1 -1.573390 -1.379019 0.100659 -0.843500 0.463290 2.317912 2.045038 0.042308 1.789096 3.416633 -0.664533 -0.247357 -2.293154 0.238704 0.314393 -0.630312 -0.499838 0.335408 -0.974710 -0.273886
eth_top/assign_5_RegCs -0.174192 3.129455 -2.112519 -1.884979 2.711013 -2.104493 1.074327 -1.491775 -1.464822 2.174757 -0.714928 3.197356 -1.173426 0.346333 0.583249 -2.805547 3.340388 -3.428574 -1.371214 0.317466
eth_outputcontrol/always_2/block_1 0.528947 1.317507 2.181290 0.146224 1.195414 -3.418180 -0.206480 0.249755 -2.817711 1.233755 -1.279019 -1.785401 0.709672 0.083689 1.497726 0.747412 2.376884 -2.104135 -1.962472 -0.176856
eth_wishbone/always_27/block_1/if_1/stmt_2 -0.194253 1.198292 0.702230 -0.406080 -0.711908 -0.801137 0.258981 0.402096 1.892866 0.015900 -0.116135 -0.338569 -0.971222 0.372014 0.915113 1.042393 0.335822 0.164648 -0.361146 0.590572
eth_miim/assign_1_WriteDataOp 0.772959 -0.945024 -0.772969 -0.754175 0.652437 0.513015 2.483310 0.646451 -2.398037 -0.186981 -0.231766 0.368007 0.516866 -1.121236 -2.734959 -2.872302 2.416837 0.712839 -1.760710 0.697193
eth_rxstatem/always_1/block_1/if_1/block_2/if_1/cond/expr_1 -0.208819 1.182353 0.681051 -0.398912 -0.679561 -0.744139 0.276868 0.399943 1.879139 0.034179 -0.114873 -0.307415 -0.957744 0.344051 0.896042 1.001945 0.370567 0.179136 -0.410984 0.583664
eth_miim/inst_outctrl 0.323198 0.543565 1.631653 0.041450 0.650875 -2.567005 -1.176612 -0.174769 -1.829138 1.222063 -0.715062 -0.903397 0.690776 -0.399139 1.466280 1.117212 1.895896 -1.354546 -1.330288 -0.345154
eth_wishbone/always_1/block_1 -1.193428 0.180085 1.227520 -1.185474 2.053309 -1.278961 1.787383 0.085186 -0.069462 3.279670 -0.813382 -1.686088 -1.109277 1.464178 0.568363 0.981673 0.922638 -1.578200 -0.804812 -0.140474
eth_top/assign_9_BDCs -1.212128 0.024722 1.188668 -1.101926 1.971541 -0.952820 1.839037 0.155690 0.009720 3.424274 -0.808839 -1.646895 -1.154984 1.373821 0.569542 0.861814 0.797033 -1.480247 -0.793846 -0.136808
eth_outputcontrol/always_1/block_1 -0.541669 -2.321621 0.249330 -3.757013 0.762233 -4.792094 1.201485 -4.992912 -0.653303 -1.711976 3.711681 1.053421 -1.163333 -0.094217 -2.359158 0.526900 3.437358 1.406334 -2.170397 -1.320215
eth_txethmac -0.197963 1.266379 0.692049 -0.419284 -0.683949 -0.855419 0.303394 0.378293 1.854871 -0.030834 -0.088323 -0.317391 -1.015216 0.360250 0.946819 1.039744 0.409628 0.133525 -0.439438 0.617984
eth_miim/reg_InProgress -0.069667 -0.627602 -0.101599 -1.294388 0.291011 -2.345731 0.399546 -1.574170 -1.569171 -1.116679 0.632192 0.337190 0.348092 -0.404081 -0.321994 -1.672349 2.303459 0.597065 -2.184737 -0.024150
eth_miim/always_7/block_1/if_1/block_2/if_1/block_1/if_1/block_2/if_1/cond -1.892953 -3.685088 -0.828264 -1.470616 -0.480358 2.068872 1.187767 -1.510061 -0.837537 0.942115 0.016421 1.792249 -0.790953 -2.179637 0.238674 -6.067943 2.456486 3.073566 -4.611361 0.025999
eth_wishbone/reg_WbEn -0.815818 -0.941860 -0.026829 -0.314778 0.195687 1.549729 1.044773 0.065984 0.977788 1.808277 -0.345810 -0.122215 -1.170736 0.030801 0.050333 -0.357333 -0.463440 0.310492 -0.404174 -0.176682
eth_txethmac/wire_StatePAD -0.214320 1.208552 0.684289 -0.376863 -0.721382 -0.752568 0.274236 0.437139 1.882642 -0.006955 -0.106182 -0.312635 -0.993252 0.334211 0.936143 1.046475 0.334318 0.199895 -0.408852 0.592859
eth_clockgen/always_1/block_1/if_1/block_1/if_1/stmt_1/expr_1 0.009437 1.094004 -0.261886 -2.329187 1.029988 -4.278117 0.559273 -1.055012 -2.697335 0.308583 -0.358592 0.550822 2.164352 1.034361 -0.152765 -0.794535 3.556797 -3.300140 0.498776 -0.351165
eth_registers/assign_112_r_ScanStat 0.172430 1.448376 -2.665079 0.354421 0.707632 1.291594 -1.245015 1.539508 -0.290277 -1.128207 -1.250165 2.329510 0.684267 -0.859712 0.852132 -3.528628 0.418186 -0.106193 -0.777023 1.802344
eth_miim/always_6/block_1/if_1/block_2/if_1/block_1/stmt_10 -0.808310 0.203875 -1.976987 -0.277456 -0.148247 2.238683 0.012324 0.341673 0.873605 0.220175 -0.962678 2.396401 -0.919471 -1.323314 1.371018 -4.466173 0.890692 1.376139 -2.609523 1.240797
eth_miim/always_6/block_1/if_1/block_2/if_1/block_1/stmt_11 0.618746 -2.646269 1.753396 -1.325472 -0.314160 -0.770051 3.941964 -1.237407 -2.240504 0.563298 1.262133 -1.559741 -0.269043 -0.600219 -3.785026 -0.077702 2.509199 1.375931 -1.645537 -1.042974
eth_top/assign_7_BDCs/expr_1 -1.191343 0.149346 1.312514 -1.192638 2.069599 -1.373490 1.799980 0.091815 -0.125585 3.378066 -0.806435 -1.790728 -1.051398 1.532305 0.557387 1.087765 0.909972 -1.666398 -0.733686 -0.190607
eth_miim/always_8/block_1/if_1/block_1/if_1/block_1/if_1/block_1/if_1 -2.722552 -2.990254 0.364278 -2.183980 -0.742900 -1.627663 -0.764411 -3.918076 0.013284 0.137974 0.876841 1.247585 -1.055095 -1.115386 2.789102 -4.082849 2.425186 2.498290 -4.953126 -0.911405
eth_txethmac/always_13 -0.193764 1.194743 0.679295 -0.373201 -0.710577 -0.805888 0.273954 0.408463 1.845495 0.011388 -0.101941 -0.373494 -0.994114 0.345206 0.924665 1.053385 0.286155 0.127330 -0.348835 0.603853
eth_register/always_1 1.347128 4.980412 1.119427 0.375810 -2.820245 -3.692770 -1.282089 -1.472606 -0.826102 -3.510134 1.506887 0.388224 1.000300 0.119119 2.492791 1.992477 0.994267 1.265930 -0.505417 0.816843
eth_shiftreg/input_Rgad -0.129574 -0.626178 -1.173255 0.854675 -0.968226 2.894677 -0.540519 0.939785 0.864554 -0.505740 -0.654735 1.036605 -0.096968 -1.125778 0.520000 -2.322768 -0.864394 1.565345 -0.690058 0.666896
eth_top/assign_5_RegCs/expr_1 -0.298801 2.969160 -1.846365 -2.093562 2.598096 -2.335811 1.194614 -1.560010 -1.646690 2.409578 -0.765508 2.975364 -1.020459 0.434981 0.626242 -2.695798 3.554103 -3.534696 -1.399031 0.154297
eth_maccontrol/wire_TxStartFrmOut -0.183675 1.205226 0.670245 -0.401370 -0.700584 -0.827561 0.294422 0.389319 1.895371 -0.022781 -0.090733 -0.330107 -0.995295 0.348941 0.908088 1.020496 0.386315 0.150826 -0.392363 0.620493
eth_registers/wire_MIIADDRESSOut -0.120141 -0.693117 -1.185282 0.860865 -0.961183 2.950426 -0.547816 0.948513 0.870675 -0.521942 -0.617344 1.106962 -0.105331 -1.139985 0.465452 -2.406676 -0.897865 1.600763 -0.686649 0.689534
eth_miim/assign_9_ByteSelect -0.605895 0.969542 -0.110863 1.672975 -1.344436 3.074582 0.197267 2.201428 0.056829 1.605907 -3.025395 -0.036415 -0.025578 -1.079507 3.039203 -4.212483 -0.088826 0.654813 -2.595829 1.139766
eth_clockgen/always_1/block_1 0.048860 1.294379 0.979650 -0.608974 0.609621 -2.677002 0.554630 -0.498849 -2.034148 0.360206 -0.496260 -0.510318 1.375668 1.280047 0.307372 -0.267187 2.122990 -2.588888 0.295663 -0.416226
eth_miim/wire_Mdc 1.560297 2.048069 2.446744 -3.627420 0.841021 -6.662909 6.286718 -0.039717 -3.028745 2.184287 -1.259905 -4.560019 1.542889 3.722611 -3.005996 3.553348 4.376505 -4.094121 -0.050441 -0.612687
eth_top/wire_TxStartFrmOut -0.181560 1.283110 0.677391 -0.417646 -0.701863 -0.858662 0.246723 0.428126 1.909673 -0.038663 -0.094247 -0.346087 -0.994784 0.368820 0.966653 1.105013 0.367508 0.128009 -0.414759 0.602985
eth_rxstatem/always_1/block_1/if_1 -0.162691 1.282507 0.706694 -0.422045 -0.697226 -0.887644 0.264704 0.411403 1.911114 -0.044078 -0.088445 -0.331421 -0.982988 0.380209 0.937370 1.118003 0.361863 0.133017 -0.375437 0.621007
eth_clockgen/assign_4_MdcEn -0.940570 -1.301029 0.639129 -1.954814 -0.498682 -2.164435 1.341543 -2.951970 -0.550488 -0.065692 1.008845 0.434400 -1.129938 -0.718804 0.425908 -2.276271 2.901657 1.698771 -3.863953 -0.540737
eth_miim/wire_Mdo 0.448322 1.169597 1.849032 0.006846 0.954949 -2.985562 -0.099457 0.412594 -2.608655 1.288555 -1.459258 -1.597371 0.811415 0.103798 1.488601 0.408347 2.244773 -1.998985 -1.900802 -0.087582
eth_top/inst_maccontrol1 -0.171280 1.283193 0.689888 -0.433157 -0.707986 -0.861429 0.258853 0.412766 1.930564 -0.038393 -0.091431 -0.380127 -1.001182 0.377985 0.950027 1.122635 0.350796 0.156455 -0.397245 0.628016
eth_txstatem/assign_5_StartData/expr_1/expr_1/expr_1 -0.179791 1.346163 0.683028 -0.437210 -0.722938 -0.967780 0.260386 0.364613 1.907993 -0.041047 -0.090020 -0.361555 -0.998475 0.407432 0.971546 1.096879 0.417517 0.103414 -0.437161 0.633828
eth_txstatem/reg_StateData -0.181747 1.285151 0.698064 -0.411447 -0.739193 -0.870786 0.280590 0.429224 1.968889 -0.045927 -0.101834 -0.330823 -1.023413 0.360488 0.996305 1.049254 0.381920 0.152841 -0.423932 0.646398
eth_miim/always_3/block_1/if_1/block_2/if_1 0.195950 1.504531 -2.597232 0.226230 0.805861 0.965498 -1.184544 1.436649 -0.363044 -1.089703 -1.239805 2.226119 0.710917 -0.727404 0.860404 -3.342529 0.531507 -0.225271 -0.769500 1.716114
eth_register/always_1/block_1/if_1/stmt_1 1.966673 7.378874 -0.167266 1.609636 -0.546986 -4.957239 -2.595891 -1.738669 -0.631589 -4.486205 1.882669 2.253556 0.203270 0.003247 1.977872 1.503944 1.328907 -2.069304 1.261928 0.934540
eth_miim/always_1/block_1/if_1/block_2/stmt_1 0.673125 -2.523564 1.647414 -1.243256 -0.405097 -0.745979 3.820049 -1.189749 -2.192700 0.413830 1.292721 -1.446592 -0.282444 -0.718323 -3.713135 -0.139627 2.486197 1.413002 -1.680249 -0.941576
eth_txstatem/always_1/block_1/if_1/block_2/if_6/if_1 -0.169065 1.277791 0.692647 -0.424507 -0.664238 -0.926015 0.275921 0.364486 1.766637 -0.057663 -0.075090 -0.307770 -0.958775 0.381912 0.923995 1.050123 0.414754 0.115131 -0.393116 0.616743
eth_wishbone/always_6/block_1/if_1/if_1/if_1 -0.196101 1.212002 0.649603 -0.407245 -0.699690 -0.798815 0.237618 0.393999 1.839051 -0.039191 -0.095864 -0.323753 -0.982335 0.346079 0.928231 1.056175 0.350276 0.151980 -0.393920 0.604931
eth_registers/assign_39_MIIMODER_Wr 2.343717 3.997106 -1.108603 -1.500564 1.793588 -3.941167 1.962226 -0.795836 -3.753389 -0.974714 1.225875 3.398170 0.687029 -2.296757 -3.371993 -1.956265 6.455740 -1.995741 -0.885363 1.253112
eth_top/assign_9_BDCs/expr_1/expr_1 -1.196427 0.176516 1.318921 -1.176135 2.027158 -1.350218 1.827851 0.079514 -0.060321 3.383178 -0.815107 -1.739561 -1.081519 1.529454 0.567396 1.103084 0.900967 -1.638028 -0.737363 -0.162682
eth_miim/input_Rgad -0.100829 -0.607245 -1.104930 0.838554 -0.917295 2.749321 -0.501199 0.935274 0.875247 -0.473274 -0.643066 0.977533 -0.074627 -1.050263 0.472680 -2.254662 -0.839339 1.520582 -0.700608 0.621812
eth_wishbone/always_6 -0.170065 1.260345 0.697558 -0.383139 -0.685143 -0.858924 0.266631 0.419610 1.920807 -0.034987 -0.089809 -0.322054 -0.982045 0.392618 0.981696 1.068550 0.311514 0.150019 -0.388140 0.597684
eth_miim/wire_EndOp -1.873805 -3.590992 -0.789829 -1.496588 -0.512454 2.083180 1.357986 -1.500088 -0.798846 1.027887 -0.010936 1.755225 -0.898348 -2.157287 0.164360 -6.018844 2.493827 3.073369 -4.708834 0.007820
eth_wishbone/always_24/block_1 -0.188720 1.227560 0.683161 -0.383618 -0.733597 -0.826825 0.264474 0.391268 1.862780 -0.009754 -0.102897 -0.332823 -0.974025 0.355185 0.950560 1.045926 0.355166 0.168234 -0.380037 0.607244
eth_top/wire_r_WCtrlData 0.218301 1.506839 -2.586320 0.150662 0.762879 0.911201 -1.118986 1.382404 -0.351267 -1.141520 -1.206114 2.187464 0.649709 -0.719866 0.793465 -3.370400 0.591704 -0.176961 -0.878394 1.730462
eth_top/assign_3_RegCs/expr_1 -1.181669 0.146887 1.287890 -1.147328 2.009649 -1.270667 1.784250 0.119394 -0.112098 3.332113 -0.813443 -1.720467 -1.067762 1.488855 0.578831 1.041777 0.843191 -1.615409 -0.737174 -0.160186
eth_txstatem/assign_7_StartFCS/expr_1/expr_1/expr_1 -0.180902 1.211870 0.697379 -0.388906 -0.665254 -0.870030 0.267267 0.360124 1.794263 -0.024341 -0.088765 -0.330800 -0.964352 0.365784 0.907731 1.021595 0.374371 0.105238 -0.399221 0.613119
eth_top/assign_6_BDCs/expr_1/expr_1 -1.173847 0.104341 1.257923 -1.158936 1.998816 -1.187207 1.830003 0.111643 -0.050802 3.350957 -0.827622 -1.686655 -1.081163 1.466962 0.558726 0.991920 0.856509 -1.559433 -0.740039 -0.162132
eth_top/always_1/block_1 -0.059236 0.534744 0.289821 -2.114017 1.520410 -5.115611 0.202725 -0.394060 -0.259721 1.448141 -1.485757 -3.276344 0.867529 3.075565 0.995325 3.256604 -0.121322 -2.386797 -0.159231 -0.781645
eth_rxethmac -0.172359 1.218866 0.671181 -0.405666 -0.673481 -0.794483 0.302432 0.396948 1.836764 -0.001253 -0.093725 -0.308557 -0.979715 0.310023 0.928384 1.013068 0.361355 0.125674 -0.389705 0.605769
eth_registers/wire_r_WCtrlData 0.213393 1.499078 -2.590174 0.236573 0.777004 0.997563 -1.114411 1.421471 -0.361927 -1.128258 -1.275875 2.219079 0.647129 -0.797205 0.839932 -3.447000 0.607131 -0.190791 -0.910610 1.745300
eth_miim/reg_EndBusy 0.676142 -2.621815 1.786565 -1.308453 -0.397463 -0.885127 4.008644 -1.275826 -2.312748 0.528775 1.305738 -1.578127 -0.238397 -0.640594 -3.837337 0.018950 2.576190 1.354877 -1.641181 -1.042880
eth_wishbone/always_26/block_1/if_1/stmt_2 -0.165900 1.233561 0.663584 -0.387352 -0.698450 -0.870868 0.285337 0.405884 1.847447 -0.033152 -0.083648 -0.347104 -0.983905 0.359344 0.927308 1.036023 0.377642 0.103108 -0.397802 0.608759
eth_miim/always_8/block_1/if_1/stmt_1 -0.799731 -0.628191 3.741792 -1.511327 0.886888 -2.819978 3.375332 -0.216590 0.669077 4.166961 -0.471248 -5.374577 -1.139487 3.366325 -0.477809 6.142129 -0.833028 -2.332907 1.284182 -1.709203
eth_outputcontrol 0.458489 0.536134 1.572191 0.132575 0.675587 -2.519919 -1.071747 -0.071833 -1.972870 1.046077 -0.741095 -0.977334 0.812033 -0.432275 1.270568 0.986074 1.925523 -1.337692 -1.384915 -0.284757
eth_outputcontrol/reg_Mdo_2d -1.327039 3.878493 -0.855097 0.081339 2.762038 -1.890702 -2.111065 2.663636 -2.411455 2.421005 -3.536701 0.325404 1.968132 0.771001 4.165890 -2.153395 1.258703 -4.659865 0.240942 1.909760
eth_top/wire_BDCs -1.266697 0.144320 1.312564 -1.250277 2.111524 -1.290469 1.892086 0.086168 -0.096948 3.509621 -0.856148 -1.797725 -1.165346 1.513868 0.621614 1.003983 0.977787 -1.683506 -0.845666 -0.180479
eth_registers/always_1/block_1 0.921070 0.956836 2.010002 -0.215883 0.058041 -5.747945 -0.289019 -2.502741 -1.786995 -2.634771 0.412772 -3.420931 0.265648 2.624596 1.122659 3.057522 -0.841790 -0.962685 -1.183149 -1.618532
eth_clockgen/assign_2_CounterPreset/expr_1 1.820207 4.892562 0.111387 1.314103 3.255102 -3.179686 0.561244 0.068377 -1.945306 -1.627435 0.836343 1.022650 -1.590945 -1.178023 -0.558785 -0.322599 2.920295 -0.966112 -1.860783 1.784855
eth_transmitcontrol/reg_WillSendControlFrame -0.197961 1.284701 0.663661 -0.448696 -0.706085 -0.877581 0.300917 0.404201 1.895149 -0.039746 -0.103271 -0.302454 -1.029514 0.356211 0.951967 1.045447 0.409674 0.123170 -0.442238 0.643560
eth_miim/assign_3_ScanStatusOp/expr_1/expr_1/expr_2 -0.781466 0.352014 -1.849366 -0.348931 -0.111317 1.847463 0.072614 0.256336 0.776428 0.256961 -0.938054 2.191484 -0.892606 -1.205539 1.363249 -4.184414 0.997109 1.189464 -2.562750 1.170249
eth_miim/assign_3_ScanStatusOp/expr_1/expr_1/expr_1 0.183618 1.515775 -2.539859 0.261649 0.719995 1.023629 -1.143559 1.438582 -0.360004 -1.066717 -1.282082 2.194287 0.651459 -0.754444 0.891080 -3.424130 0.586025 -0.207637 -0.879795 1.746521
eth_miim/always_7/block_1/if_1/block_2/if_1/block_1/if_1/block_1/stmt_1 -0.866630 -1.377330 0.700550 -2.030585 -0.529146 -2.174590 1.608159 -2.986184 -0.509367 -0.109816 1.118781 0.355425 -1.259144 -0.731580 0.127788 -2.115446 2.919456 1.790158 -3.879187 -0.602360
eth_rxstatem/assign_7_StateData -0.163756 1.193866 0.664118 -0.383867 -0.682531 -0.858376 0.258032 0.391471 1.766644 -0.011156 -0.101814 -0.292816 -0.942616 0.359133 0.919486 0.990423 0.359524 0.130677 -0.382113 0.598695
eth_rxstatem/reg_StateDrop -0.200591 1.259494 0.704542 -0.422990 -0.710748 -0.832936 0.292205 0.416538 1.873268 -0.022149 -0.092291 -0.324906 -0.991558 0.358659 0.935952 1.056936 0.382911 0.164205 -0.412228 0.594161
eth_registers/wire_MAC_ADDR0Out 1.383312 2.526406 1.653067 -0.529310 -1.937683 -6.056097 -0.834609 -2.414589 -0.828074 -3.566131 0.809347 -2.403969 0.837072 2.108376 1.794655 3.584114 -0.262273 0.387812 -1.245556 -0.994310
eth_wishbone/always_2/block_1/if_1/if_1/if_1 -1.550569 -1.334352 0.029944 -0.803846 0.430521 2.329200 2.004855 0.051681 1.833203 3.339121 -0.653429 -0.193481 -2.293163 0.213418 0.305274 -0.700845 -0.471087 0.379152 -0.958974 -0.243612
eth_miim/assign_1_WriteDataOp/expr_1/expr_1 0.808779 -2.776023 -1.449259 -1.796312 -0.292128 1.527171 3.274582 -1.330254 -0.999907 -1.171197 1.919614 1.988138 -0.890909 -2.082715 -4.661206 -3.131152 2.779610 3.078808 -2.294717 0.120231
eth_registers/assign_2_Read 3.240807 1.640058 -2.893524 -0.946227 -1.577890 -2.912859 -1.227673 0.121179 2.238827 -5.291931 -0.368090 1.213280 0.018535 0.786371 -1.631574 1.120580 -0.709372 -0.184847 -0.003810 0.262463
eth_clockgen/always_1 0.043004 1.177785 0.940690 -0.791328 0.573133 -2.793119 0.511493 -0.604826 -1.986014 0.364588 -0.428812 -0.407995 1.526219 1.265716 0.182506 -0.189398 2.243280 -2.718285 0.484463 -0.448697
eth_clockgen/always_2 0.052393 0.179251 1.994108 -0.944418 -0.694210 -2.765092 0.255087 -0.585489 -3.709809 1.492725 -1.073949 -0.560674 3.409658 0.459210 -0.175413 -0.949750 3.896091 -3.358799 0.577529 -1.095760
eth_rxstatem/assign_1_StartIdle -0.212863 1.256370 0.692426 -0.456425 -0.705154 -0.912844 0.293750 0.392329 1.910252 0.028472 -0.114907 -0.340935 -1.000670 0.389300 0.961297 1.051323 0.436620 0.123614 -0.416309 0.613353
eth_miim/always_1/block_1/if_1/block_2/stmt_2 0.737788 -2.491105 1.615034 -1.266729 -0.384457 -0.743562 3.888842 -1.150137 -2.291053 0.401122 1.261599 -1.453201 -0.241140 -0.698044 -3.833882 -0.105861 2.544826 1.412995 -1.633730 -0.949213
eth_registers/assign_113_r_RGAD -0.118385 -0.637524 -1.189960 0.894736 -0.944874 2.909184 -0.552282 0.948875 0.899812 -0.545938 -0.653013 1.049387 -0.052748 -1.148300 0.492637 -2.376552 -0.909006 1.599311 -0.658282 0.658018
eth_top/wire_RegDataOut 0.937871 0.821812 1.858423 -0.360375 0.032010 -5.725712 -0.258919 -2.551699 -1.842138 -2.627616 0.434832 -3.267118 0.327362 2.552535 0.973971 2.954448 -0.698801 -0.973434 -1.216953 -1.676604
eth_txstatem/assign_3_StartPreamble -0.176207 1.347148 0.682448 -0.457884 -0.687239 -0.962666 0.264459 0.407221 1.885159 -0.060439 -0.119659 -0.319204 -0.996027 0.405084 0.967364 1.105761 0.433245 0.089551 -0.432571 0.639569
eth_miim/always_8/block_1 -2.272462 -0.704678 -0.826785 -1.767058 2.012555 -2.570669 -3.012368 -0.537591 -1.072661 1.348059 -1.010501 0.604820 1.471225 0.455391 2.979936 -1.171273 1.011104 -1.937909 -0.467322 0.143857
check_ethernet/input_wb_adr_i -0.337707 2.686452 3.701029 1.890942 0.090059 -1.475457 0.867231 -0.761005 -0.225420 0.682819 0.400501 -3.381020 -1.432092 1.593065 2.372452 3.351091 -2.029732 -1.902758 1.254280 -0.796381
eth_miim/always_6/block_1/if_1/block_2/if_1 0.559234 -0.721514 -1.164654 -1.072934 0.369964 -0.785060 0.814027 -0.696566 -1.731647 -1.437510 0.481721 1.058163 0.696931 -0.868416 -1.598357 -2.428015 2.149908 0.774006 -1.558422 0.413130
eth_clockgen/always_2/block_1/if_1/stmt_1 1.635200 2.632984 4.200984 1.253159 -1.061113 -0.838966 5.153334 0.843407 -6.005289 4.029662 -2.591295 -3.940578 2.542876 0.906139 -1.123459 -0.438467 4.000905 -2.885139 -1.041188 -0.483335
eth_txethmac/inst_txstatem1 -0.181840 1.296641 0.682896 -0.439450 -0.703826 -0.881649 0.267965 0.380945 1.888722 -0.041495 -0.082265 -0.332484 -0.981643 0.349130 0.995464 1.081163 0.387876 0.114315 -0.393522 0.636601
eth_top/always_1/block_1/if_1 -0.062561 0.617355 0.340716 -2.186548 1.712916 -5.173925 0.309260 -0.350604 -0.251115 1.652789 -1.601797 -3.254474 0.843788 3.163950 1.023511 3.209975 0.108893 -2.530245 -0.297522 -0.699912
eth_txstatem/always_1/block_1/if_1/block_2/if_5/if_1/cond -0.172488 1.234370 0.680224 -0.410560 -0.657798 -0.859277 0.249703 0.367475 1.809905 -0.043466 -0.108015 -0.311987 -0.931118 0.333590 0.890580 1.044084 0.403163 0.091851 -0.405288 0.607799
eth_transmitcontrol/always_1/block_1/if_1/if_1/if_1 -0.155256 1.221798 0.667953 -0.408123 -0.642000 -0.922065 0.244728 0.345299 1.706616 -0.059904 -0.067441 -0.361424 -0.868977 0.381766 0.893375 1.047930 0.391539 0.074262 -0.337657 0.552994
eth_top/input_wb_stb_i 0.425575 0.257066 -2.130277 -2.642642 -4.476906 -0.962954 2.391845 -5.083116 0.447924 1.474613 -0.395620 2.366596 -1.597793 0.050141 0.184005 -1.412197 -0.086266 -1.883336 -0.922553 -3.940539
eth_miim/always_8/block_1/if_1/block_1/if_1/block_1/if_1/stmt_1 -3.058526 0.063843 -0.936996 -0.240655 0.599922 -2.486741 -7.241517 -0.722321 -1.281830 -0.928359 -1.110692 2.609391 2.841285 -0.834312 6.737291 -4.055506 1.100413 -1.377723 -1.156522 0.708897
eth_registers/inst_MIICOMMAND0 0.230773 1.582257 -2.682838 0.308492 0.805898 1.110643 -1.239063 1.563202 -0.357980 -1.154112 -1.297686 2.255793 0.725079 -0.757276 0.877239 -3.376780 0.469030 -0.252472 -0.716565 1.798045
eth_registers/inst_MIICOMMAND1 1.110666 0.795160 -4.265557 -0.211123 0.755120 1.301085 -1.836189 0.587316 0.096545 -3.544434 0.644716 4.107810 0.925114 -1.411013 -1.531506 -3.005054 0.408311 0.758802 0.575819 1.781406
eth_registers/inst_MIICOMMAND2 0.191556 1.425089 -2.616727 0.252175 0.732185 1.174579 -1.124809 1.453386 -0.339302 -1.117697 -1.252244 2.245293 0.658685 -0.832564 0.829464 -3.535178 0.545298 -0.091947 -0.854262 1.766568
eth_miim/always_6/block_1/if_1/block_2/if_1/block_1/stmt_2 0.809761 -2.540718 -1.352290 -1.880145 -0.125097 1.173105 3.425411 -1.322897 -1.068519 -1.069984 1.865425 1.863677 -0.898220 -1.929147 -4.677261 -2.924984 2.944822 2.841517 -2.289912 0.118977
eth_miim/always_6/block_1/if_1/block_2/if_1/block_1/stmt_3 1.138280 0.797506 -4.410928 -0.199500 0.804484 1.423363 -2.021821 0.608920 0.128879 -3.689231 0.697496 4.223333 0.976144 -1.372030 -1.581661 -2.973011 0.237047 0.769770 0.710077 1.795998
eth_shiftreg/always_1/block_1/if_1/block_2/if_1/block_1/if_1/block_2/stmt_1 -0.552058 0.856175 -0.135859 1.602352 -1.351128 3.006372 0.248556 2.009835 0.043831 1.475341 -2.880343 0.028264 -0.039766 -1.108638 2.846892 -4.118639 -0.078920 0.723852 -2.569109 1.082583
eth_miim/always_6/block_1/if_1/block_2/if_1/block_1/stmt_1 0.826142 -0.870864 -0.694003 -0.685738 0.628459 0.678248 2.639752 0.847443 -2.474505 -0.077000 -0.346294 0.224158 0.485900 -1.079045 -2.797465 -2.853689 2.384578 0.696405 -1.786213 0.752656
eth_miim/always_6/block_1/if_1/block_2/if_1/block_1/stmt_4 0.154721 -0.565807 -3.648740 -0.766040 -0.148269 2.436977 -0.653412 -0.626323 1.293072 -2.281697 1.061837 4.241004 -0.677986 -1.941202 -1.177090 -3.916100 0.704933 2.366721 -1.192218 1.227797
eth_rxethmac/input_Transmitting -0.160399 1.241610 0.668652 -0.372910 -0.703442 -0.859730 0.238449 0.371799 1.834586 -0.039976 -0.094473 -0.294971 -0.981397 0.345882 0.915882 1.054532 0.351774 0.161074 -0.364721 0.590724
eth_registers/input_Address -0.576308 2.573564 -0.460318 5.614425 10.544041 -2.150338 -5.698102 1.042802 -3.924182 -4.181321 1.499504 -0.102749 -0.893640 0.856932 1.326803 -0.633196 -2.954612 -3.764470 1.730110 1.905752
eth_miim/always_6/block_1/if_1/block_2/if_1/block_1/stmt_9 -0.750931 0.159465 -1.985795 -0.350672 -0.216645 2.166201 0.064837 0.260423 0.836654 0.113191 -0.856972 2.395879 -0.954016 -1.384884 1.214673 -4.449559 0.951390 1.472872 -2.653700 1.204495
eth_registers/wire_MIIMODER_Wr 2.419818 4.019045 -1.070199 -1.435419 1.780046 -3.960309 2.008953 -0.751964 -3.711455 -0.980016 1.143096 3.201567 0.669025 -2.104571 -3.364886 -1.780996 6.354897 -2.033267 -0.830187 1.238663
eth_wishbone/always_24/block_1/if_1/if_1/cond/expr_1 -0.168642 1.214141 0.667720 -0.411342 -0.699295 -0.850586 0.254711 0.406503 1.835014 -0.043734 -0.082437 -0.318992 -0.963154 0.366352 0.913060 1.022534 0.341546 0.133591 -0.383099 0.620894
eth_miim/always_6/block_1 0.653541 -0.418726 -1.210479 -1.022137 0.480915 -1.038701 0.660140 -0.596418 -1.887258 -1.565088 0.431896 1.065264 0.830287 -0.806567 -1.557008 -2.370695 2.214847 0.507047 -1.464766 0.473075
eth_outputcontrol/always_1/block_1/if_1 -0.706261 -2.495882 0.303913 -3.772778 0.797356 -4.643843 1.217862 -4.935745 -0.626516 -1.468835 3.616148 0.938247 -1.162194 -0.023791 -2.228427 0.519527 3.343813 1.393476 -2.200995 -1.360998
eth_top/input_wb_we_i 0.722729 1.215776 1.698525 -1.018744 0.795171 -6.175256 1.052301 -2.637567 -1.285978 -0.356938 -0.571240 -3.358187 -0.487833 3.899336 0.658780 3.622602 -0.230336 -2.655000 -1.403259 -2.303320
eth_wishbone/always_6/block_1/if_1/if_1 -0.136106 1.232378 0.666194 -0.380256 -0.651575 -0.847279 0.256235 0.345135 1.758918 -0.057547 -0.076171 -0.319570 -0.948794 0.346709 0.931658 1.028016 0.364648 0.091483 -0.368095 0.609150
eth_miim/always_7/block_1 -0.167599 -0.582890 0.092697 -1.431165 0.362936 -2.719824 0.421881 -1.708559 -1.701008 -0.978158 0.604810 0.148047 0.403974 -0.302030 -0.168186 -1.488821 2.432377 0.376007 -2.233438 -0.138930
eth_wishbone -1.352607 1.331217 1.849851 -1.552138 1.419683 -1.944477 2.049789 0.572635 1.816104 3.290578 -0.924216 -1.943447 -2.049672 1.773054 1.473290 1.956489 1.224377 -1.359188 -1.171811 0.545318
eth_txstatem/always_1/block_1/if_1/block_2/if_4/if_1/cond -0.196468 1.252207 0.641951 -0.450197 -0.704384 -0.870249 0.274620 0.392866 1.876836 -0.036848 -0.100644 -0.251722 -0.987736 0.320459 0.923833 0.964807 0.442440 0.152505 -0.434897 0.635217
eth_wishbone/always_77/block_1/if_1 -1.488815 -1.254457 0.076143 -0.826872 0.466502 2.167644 1.979880 -0.019574 1.677897 3.236388 -0.604725 -0.227206 -2.185137 0.212214 0.284640 -0.617468 -0.411706 0.294246 -0.956402 -0.247995
eth_top/assign_7_BDCs/expr_1/expr_1/expr_1 -1.241105 0.139472 1.251839 -1.173337 2.052844 -1.182281 1.823695 0.116321 -0.019145 3.396515 -0.820100 -1.684448 -1.150648 1.463797 0.601883 0.968268 0.845313 -1.559677 -0.802773 -0.165016
eth_rxstatem/reg_StatePreamble -0.137856 1.335940 0.681978 -0.460816 -0.659242 -0.997307 0.250954 0.391983 1.841840 -0.070102 -0.115643 -0.305954 -0.949892 0.374807 0.966652 1.057429 0.464666 0.078777 -0.429810 0.641915
eth_rxstatem/always_1/block_1/if_1/block_2/if_3 -0.188009 1.310416 0.653940 -0.418143 -0.704316 -0.919618 0.281621 0.375470 1.872993 -0.020757 -0.131570 -0.294783 -0.965441 0.350354 0.928084 1.032024 0.436876 0.105052 -0.433895 0.621592
eth_rxstatem/always_1/block_1/if_1/block_2/if_2 -0.188824 1.290478 0.678934 -0.395785 -0.700916 -0.880975 0.263702 0.396029 1.874510 -0.058080 -0.113747 -0.326693 -0.992635 0.357632 0.971330 1.032719 0.407591 0.131956 -0.412809 0.609100
eth_rxstatem/always_1/block_1/if_1/block_2/if_5 -0.192743 1.251754 0.693747 -0.433400 -0.716267 -0.815627 0.311169 0.424057 1.907467 -0.006692 -0.128780 -0.347119 -0.985234 0.373518 0.973764 1.008017 0.393714 0.153727 -0.410290 0.622886
eth_rxstatem -0.193345 1.307053 0.729425 -0.439008 -0.694050 -0.909777 0.267907 0.391362 1.887911 0.001642 -0.099660 -0.369571 -1.006885 0.400696 0.982450 1.090138 0.388334 0.098249 -0.425921 0.634113
eth_wishbone/always_30/block_1/if_1/if_1/if_1 -0.164690 1.330464 0.703729 -0.418632 -0.694218 -0.869792 0.294114 0.411315 1.924223 -0.011100 -0.135535 -0.324022 -0.993560 0.369623 0.974729 1.050763 0.384771 0.148752 -0.418277 0.620963
eth_rxstatem/always_1/block_1/if_1/block_2/if_6 -0.169939 1.290776 0.678261 -0.430177 -0.706781 -0.884236 0.271724 0.411846 1.912789 -0.036596 -0.098190 -0.326215 -1.029653 0.372196 1.004438 1.031625 0.402077 0.162323 -0.423965 0.616666
eth_miim/input_WCtrlData 0.193092 1.619755 -2.506366 0.242368 0.766602 0.930961 -1.157614 1.487638 -0.379308 -1.001331 -1.332392 2.099937 0.654499 -0.719084 0.972840 -3.352096 0.598731 -0.299728 -0.864185 1.782538
eth_miim/always_7/block_1/if_1/block_2 -0.054423 -0.645332 0.004897 -1.411138 0.348602 -2.563310 0.498180 -1.705176 -1.671224 -1.055248 0.692915 0.242874 0.366378 -0.403375 -0.441652 -1.570902 2.478935 0.481645 -2.231414 -0.131476
eth_miim/always_7/block_1/if_1/block_1 -0.214210 -0.711860 -2.116979 -1.760675 1.059963 -0.499624 -0.328264 -1.656304 0.889648 -1.482741 1.896387 2.608917 -0.849198 -0.422433 -1.538555 -0.649478 0.837645 0.826401 -0.044880 0.289162
eth_top/assign_2_RegCs/expr_1/expr_1/expr_1/expr_1 -1.496749 -1.329358 0.077848 -0.787324 0.439270 2.293310 1.989101 0.018881 1.762179 3.279441 -0.636573 -0.232020 -2.244978 0.210762 0.282903 -0.643976 -0.474969 0.344282 -0.919584 -0.266317
eth_wishbone/always_77/block_1/if_1/if_1 -1.491788 -1.309499 0.010358 -0.830400 0.441321 2.224093 1.978707 -0.000957 1.703945 3.237068 -0.614792 -0.176586 -2.244724 0.192130 0.287727 -0.736194 -0.378640 0.354162 -1.010074 -0.214927
eth_registers/always_1/block_1/if_1/cond 3.211740 1.666103 -2.858463 -0.958669 -1.636813 -2.924581 -1.137357 0.149748 2.289678 -5.171754 -0.458704 1.107200 -0.027710 0.828252 -1.534414 1.149014 -0.687759 -0.197985 -0.092484 0.235004
eth_top/wire_WillTransmit -0.164881 1.288396 0.666219 -0.448071 -0.710511 -0.919826 0.247146 0.385005 1.847798 -0.052037 -0.122681 -0.326543 -0.984082 0.371682 0.945111 1.034796 0.407649 0.114807 -0.390189 0.637720
eth_top/always_4/block_1/stmt_2 -0.177283 1.232802 0.647937 -0.394599 -0.646452 -0.922812 0.245053 0.379327 1.756081 -0.066200 -0.106165 -0.318904 -0.928402 0.346351 0.926289 1.012940 0.407804 0.072523 -0.414852 0.617720
eth_top/always_4/block_1/stmt_1 -0.183791 1.297808 0.645308 -0.434493 -0.665889 -0.892250 0.268052 0.398816 1.829489 -0.026463 -0.106463 -0.320695 -0.973121 0.326782 0.931281 0.984356 0.429058 0.121790 -0.420438 0.614486
eth_outputcontrol/always_1/block_1/if_1/block_2 -0.671863 -2.600241 0.266857 -3.744857 0.725816 -4.562997 1.265863 -4.945102 -0.631240 -1.530604 3.652339 0.996455 -1.193770 -0.098119 -2.303212 0.370918 3.355426 1.554216 -2.296296 -1.396269
eth_txstatem/assign_6_StartPAD/expr_1 -0.214812 1.289254 0.678731 -0.446039 -0.729136 -0.833944 0.312673 0.388269 1.944709 -0.000570 -0.125718 -0.348716 -1.021614 0.358156 0.981515 1.045754 0.373827 0.134510 -0.438765 0.610596
eth_top/assign_6_BDCs -1.175098 0.196119 1.273195 -1.154281 2.028774 -1.359621 1.800161 0.064856 -0.111582 3.314511 -0.785960 -1.742908 -1.096673 1.523535 0.601002 1.053135 0.884367 -1.634135 -0.755016 -0.181447
eth_wishbone/input_BDCs -1.242675 0.134307 1.285987 -1.136207 2.035875 -1.169097 1.812441 0.121219 -0.024665 3.388834 -0.817451 -1.714191 -1.130302 1.497391 0.620111 1.029966 0.834453 -1.590486 -0.777982 -0.139512
eth_registers/assign_2_Read/expr_1 3.286138 1.673765 -2.958348 -0.944415 -1.629975 -2.872087 -1.293082 0.120606 2.224022 -5.349936 -0.354910 1.315046 0.060267 0.744758 -1.612658 1.072400 -0.672663 -0.134192 -0.001755 0.282065
eth_wishbone/always_30/block_1 -0.171941 1.294577 0.687900 -0.432118 -0.677864 -0.907593 0.279439 0.392299 1.873705 0.011419 -0.090469 -0.348636 -0.963242 0.383278 0.951464 1.035442 0.422986 0.119089 -0.417325 0.617216
eth_miim/always_4/block_1/if_1/block_2/if_1/block_2/if_1/cond/expr_1 0.867604 -2.664424 -1.429766 -1.937819 -0.213666 1.235670 3.379586 -1.510449 -0.995735 -1.213547 2.037627 1.960005 -0.909266 -1.978282 -4.754775 -2.871263 2.888540 2.957300 -2.218174 0.088602
eth_registers/assign_2_Read/expr_2 3.218780 1.686456 -2.801288 -0.954403 -1.578842 -3.034861 -1.148160 0.076683 2.201412 -5.191206 -0.365461 1.136512 0.021273 0.825683 -1.529302 1.146634 -0.657912 -0.196881 -0.066542 0.242492
eth_miim/always_3/block_1/if_1/block_2/stmt_8 0.150749 1.502148 -2.592255 0.241550 0.782249 1.056902 -1.191704 1.472824 -0.288923 -1.042423 -1.289403 2.234415 0.666684 -0.736506 0.956369 -3.402017 0.499242 -0.196782 -0.840439 1.774810
eth_miim/always_4/block_1/if_1/block_2/if_1/block_2 0.739205 -0.920660 -0.650182 -0.671502 0.575388 0.556379 2.521652 0.714557 -2.391806 -0.056591 -0.335094 0.208846 0.480990 -1.084301 -2.622465 -2.791655 2.342028 0.673648 -1.804813 0.683724
eth_registers/assign_43_MIIADDRESS_Wr/expr_1 -0.104961 -0.648477 -1.195689 0.880710 -0.967764 2.939249 -0.558820 0.981073 0.913309 -0.510317 -0.664553 1.030678 -0.094699 -1.120006 0.532765 -2.387924 -0.861001 1.613634 -0.688028 0.675937
eth_miim/always_3/block_1/if_1/block_2/stmt_4 1.152982 0.721670 -4.281609 -0.148697 0.766218 1.454979 -1.925110 0.640704 0.142556 -3.557047 0.683117 4.129428 0.910681 -1.379973 -1.588556 -2.916263 0.242493 0.796292 0.672985 1.742503
eth_top/assign_17_MRxDV_Lb -0.185617 1.260419 0.668029 -0.388851 -0.696902 -0.804680 0.264648 0.412654 1.900337 -0.040398 -0.112994 -0.311009 -0.997516 0.340926 0.947569 1.028223 0.331248 0.137541 -0.403470 0.608179
eth_miim/always_3/block_1/if_1/block_2/stmt_6 0.169786 -0.491106 -3.524016 -0.690945 -0.204305 2.414308 -0.628459 -0.528936 1.236195 -2.276038 0.991157 4.115412 -0.648630 -1.879240 -1.117595 -3.778464 0.649345 2.300066 -1.100984 1.183625
eth_miim/always_3/block_1/if_1/block_2/stmt_7 0.177191 1.577442 -2.556510 0.252057 0.820074 1.001641 -1.196254 1.498825 -0.346682 -1.016767 -1.287979 2.151816 0.689407 -0.720911 0.952823 -3.355543 0.497539 -0.275974 -0.797437 1.777948
eth_miim/always_3/block_1/if_1/block_2/stmt_1 0.194403 1.464598 -2.605417 0.234605 0.689660 1.108267 -1.177496 1.447464 -0.280089 -1.143984 -1.226805 2.243072 0.639083 -0.828066 0.861003 -3.496004 0.550181 -0.083876 -0.867697 1.744809
eth_miim/always_3/block_1/if_1/block_2/stmt_2 0.797229 -0.863102 -0.596338 -0.790351 0.723333 0.270995 2.533114 0.650805 -2.513658 -0.087715 -0.252148 0.166404 0.507791 -0.951135 -2.723977 -2.565989 2.431026 0.520604 -1.684654 0.666270
eth_miim/always_3/block_1/if_1/block_2/stmt_3 0.825994 -2.773826 -1.434917 -1.831307 -0.238884 1.490421 3.410714 -1.325750 -0.999242 -1.121485 1.875758 1.973629 -0.883289 -2.032197 -4.715536 -3.048623 2.785358 3.030844 -2.270327 0.149366
eth_miim/always_4/block_1/if_1/block_2/if_1/block_2/if_1 0.683926 -0.850006 -0.469864 -0.867806 0.693540 0.139717 2.666914 0.614103 -2.535454 0.076202 -0.327760 0.030615 0.443696 -0.868707 -2.562086 -2.600146 2.526714 0.441429 -1.876591 0.615446
eth_miim/always_4/block_1/if_1/block_2/if_1/block_2/if_2 1.108366 0.657663 -4.260057 -0.207274 0.728341 1.430908 -1.856301 0.581958 0.222055 -3.541084 0.712730 4.128325 0.816870 -1.398392 -1.621980 -2.922389 0.267483 0.908045 0.604034 1.748373
eth_miim/always_4/block_1/if_1/block_2/if_1/block_2/if_2/cond/expr_1 0.173566 -0.599893 -3.606199 -0.700834 -0.225840 2.537760 -0.661332 -0.567911 1.331199 -2.280195 1.036871 4.241168 -0.693839 -1.970436 -1.121047 -3.959545 0.653100 2.410846 -1.184179 1.193700
eth_txstatem/wire_StartData -0.182310 1.332987 0.661596 -0.437610 -0.705122 -0.963165 0.257718 0.401003 1.833135 -0.076338 -0.086481 -0.351349 -0.979325 0.377545 0.944885 1.075625 0.398731 0.078161 -0.393232 0.610885
eth_top/reg_WillTransmit_q -0.189264 1.226457 0.710978 -0.412878 -0.707107 -0.803990 0.285073 0.428786 1.918563 -0.003635 -0.093725 -0.369108 -1.019274 0.375896 0.932297 1.037976 0.337868 0.163765 -0.371485 0.600063
eth_txethmac/wire_StatePreamble -0.190053 1.241128 0.654783 -0.406168 -0.691644 -0.798906 0.298462 0.391106 1.849127 -0.032453 -0.108125 -0.291323 -0.974815 0.335122 0.942700 1.012455 0.401915 0.156743 -0.400692 0.639679
eth_rxstatem/wire_StartIdle -0.181980 1.261258 0.685590 -0.424719 -0.735238 -0.808070 0.287199 0.426093 1.954977 -0.014090 -0.084663 -0.346881 -1.023479 0.372633 0.971570 1.038422 0.355693 0.147094 -0.391441 0.627945
eth_rxstatem/assign_2_StartPreamble/expr_1/expr_1 -0.182806 1.233084 0.684830 -0.394528 -0.701918 -0.809051 0.261850 0.400571 1.878472 -0.034774 -0.066714 -0.342113 -0.995008 0.350740 0.933668 1.067180 0.343690 0.134358 -0.349563 0.595717
eth_top/assign_3_RegCs -1.232739 0.122573 1.231392 -1.164572 2.026576 -1.152550 1.866726 0.088173 -0.054016 3.394742 -0.804759 -1.613336 -1.135178 1.401675 0.563139 0.886630 0.902664 -1.528823 -0.833897 -0.111306
eth_wishbone/always_24 -0.193702 1.227462 0.669894 -0.413372 -0.658920 -0.831487 0.286786 0.397228 1.807513 0.000362 -0.116475 -0.336965 -0.946748 0.379346 0.910773 1.040779 0.373519 0.107558 -0.371160 0.621203
eth_wishbone/always_26 -0.162682 1.284011 0.702460 -0.410009 -0.740243 -0.852195 0.261438 0.409903 1.959940 0.004762 -0.120864 -0.353017 -1.013350 0.368099 0.970385 1.068158 0.349966 0.140658 -0.424061 0.635787
eth_wishbone/always_27 -0.191703 1.212242 0.642454 -0.391393 -0.689513 -0.850283 0.249455 0.390831 1.809574 -0.053905 -0.094952 -0.295444 -0.923342 0.334953 0.892999 0.979861 0.400854 0.127805 -0.400348 0.604008
eth_rxstatem/always_1/block_1/if_1/block_2/if_1/if_1 -0.202792 1.289447 0.676114 -0.419905 -0.708865 -0.877988 0.296775 0.400165 1.931930 -0.033958 -0.081921 -0.332957 -1.011225 0.396440 1.001919 1.065827 0.393006 0.150606 -0.407765 0.613641
eth_clockgen/always_1/block_1/if_1/block_1/if_1/cond -0.200336 0.963703 -0.300197 -2.616173 1.179548 -4.538709 0.660064 -1.185147 -2.744080 0.396923 -0.367585 0.609717 2.118630 1.085845 -0.111752 -1.002122 3.776948 -3.424044 0.334630 -0.409066
eth_clockgen/assign_4_MdcEn/expr_1/expr_1 -0.977199 -1.344493 0.579098 -1.875743 -0.461509 -1.868354 1.384431 -2.783585 -0.434416 0.034245 0.971765 0.442003 -1.162255 -0.752945 0.329358 -2.225844 2.734329 1.730830 -3.760046 -0.495638
eth_top/reg_temp_wb_err_o_reg -0.881578 -0.732549 1.187668 -2.371935 -0.399403 -4.305624 -1.059285 0.488729 -0.238010 1.452596 -1.773047 -2.989804 2.198043 0.905270 1.457028 1.216415 1.279241 -2.565180 0.564360 -0.538785
eth_clockgen/always_1/block_1/if_1/stmt_1 1.404516 4.600579 0.915288 1.225165 2.679322 -2.239583 2.147800 1.789322 -1.556743 -1.141812 -0.226730 -1.611418 -0.576384 1.316924 -0.708974 1.148759 0.967127 -1.931318 0.206179 1.813693
eth_miim/assign_7_ByteSelect/expr_1/expr_1 -0.559194 0.934359 0.010463 1.522815 -1.330503 2.794655 0.304887 1.999225 0.021095 1.574510 -2.900630 -0.129160 -0.068934 -0.987625 2.885309 -3.940759 0.018264 0.649468 -2.607028 1.025559
eth_miim/always_8/block_1/if_1/block_1 -3.056337 0.032740 -1.103887 -0.246347 0.616469 -2.379506 -7.334981 -0.695744 -1.157609 -1.022828 -1.127579 2.715444 2.758066 -0.869254 6.743220 -4.193155 1.054698 -1.328866 -1.177523 0.766069
eth_miim/always_4/block_1/if_1/block_2/if_1/cond 0.654827 -2.646607 1.720048 -1.275034 -0.362571 -0.649903 3.984412 -1.176080 -2.241641 0.529880 1.279205 -1.539321 -0.252737 -0.691369 -3.888626 -0.094232 2.507043 1.433051 -1.656168 -1.006247
eth_top/assign_17_MRxDV_Lb/expr_1/expr_1 -0.183875 1.336386 0.653472 -0.429674 -0.677107 -0.974835 0.266626 0.360760 1.859128 -0.046306 -0.086282 -0.321404 -0.979903 0.385040 0.994564 1.033723 0.447447 0.115241 -0.437733 0.630412
eth_clockgen/always_2/block_1 0.020004 -0.036831 1.869440 -0.887914 -0.815519 -2.403674 0.068769 -0.694640 -3.579602 1.428767 -0.943239 -0.269369 3.325466 0.196918 -0.163100 -1.127845 3.792551 -3.140459 0.576511 -1.186849
eth_maccontrol -0.134809 1.338923 0.649282 -0.436136 -0.662257 -0.948210 0.240510 0.398419 1.811224 -0.081223 -0.111606 -0.252805 -0.973541 0.363572 0.945968 1.012528 0.508335 0.110252 -0.438649 0.654580
eth_registers/wire_r_RGAD -0.139358 -0.649812 -1.118245 0.816909 -0.899575 2.742702 -0.502522 0.879579 0.829254 -0.501427 -0.605482 0.960714 -0.076429 -1.038083 0.488012 -2.223870 -0.818596 1.491980 -0.679027 0.639963
eth_top/wire_r_RGAD -0.147277 -0.635182 -1.195759 0.889163 -0.938270 2.892232 -0.573795 0.972466 0.873265 -0.487363 -0.672486 1.070432 -0.078262 -1.118052 0.510363 -2.397427 -0.897841 1.590044 -0.669161 0.690067
eth_rxstatem/assign_2_StartPreamble/expr_1/expr_2/expr_1 -0.165351 1.281552 0.666135 -0.384081 -0.694902 -0.895070 0.232928 0.373369 1.811472 -0.048571 -0.085944 -0.310502 -0.944037 0.378259 0.929150 1.077676 0.410773 0.127577 -0.393710 0.577592
eth_clockgen/wire_MdcEn -0.920888 -1.236515 0.709004 -1.935637 -0.498749 -2.208493 1.462758 -2.869412 -0.581297 0.001901 0.940248 0.345854 -1.149101 -0.708470 0.363936 -2.178813 2.904042 1.632047 -3.912905 -0.509244
eth_top/assign_12_temp_wb_err_o/expr_1 -0.828878 -1.221466 -0.125755 -1.665859 -2.039204 -1.911458 -0.660678 -1.112588 1.376059 0.405547 -0.653647 -0.392919 0.042485 0.054319 1.569527 0.598206 -0.371065 -0.697106 -0.456474 -1.426691
eth_wishbone/always_3/block_1/if_1/block_2/case_1/cond -1.569906 -1.379489 0.062771 -0.829516 0.503524 2.357316 2.075678 0.001889 1.763429 3.422126 -0.623466 -0.220448 -2.316833 0.211687 0.273712 -0.717805 -0.460207 0.373459 -0.969777 -0.256126
eth_txethmac/always_13/block_1/if_1/stmt_2/expr_1/expr_1 -0.168770 1.295675 0.678796 -0.433127 -0.675634 -0.942318 0.252266 0.411469 1.823637 -0.033053 -0.113310 -0.322952 -0.983577 0.393259 0.949158 1.035425 0.436515 0.117437 -0.425552 0.598083
eth_top/wire_MRxDV_Lb -0.198412 1.266018 0.693650 -0.425855 -0.719476 -0.836687 0.267937 0.445801 1.987164 -0.033088 -0.109833 -0.355080 -1.034502 0.387669 0.984043 1.074290 0.358838 0.180251 -0.433459 0.630289
eth_top/assign_7_BDCs/expr_1/expr_1 -1.275743 0.047250 1.298207 -1.165772 2.046291 -1.081074 1.920323 0.105419 0.011012 3.551500 -0.859378 -1.724118 -1.197020 1.476766 0.582072 0.974371 0.822003 -1.572100 -0.800143 -0.170176
eth_top/assign_17_MRxDV_Lb/expr_1 -0.168214 1.352065 0.685949 -0.418638 -0.743035 -0.979459 0.269235 0.384676 1.897818 -0.100196 -0.095222 -0.293756 -0.993922 0.377371 0.992742 1.102822 0.452261 0.091050 -0.440291 0.638676
eth_clockgen/always_2/block_1/if_1/block_1/if_1 -0.101635 0.456843 0.901894 -2.110130 -0.720846 -3.101701 0.711818 -0.748749 -2.609337 1.162970 -0.649543 0.239827 3.071195 1.068768 -0.607377 -0.491314 3.467862 -3.725786 1.701399 -1.084427
eth_registers/assign_47_MAC_ADDR0_Wr/expr_1 -0.116467 2.988014 0.264593 3.308229 3.048940 -0.875077 -2.859932 -1.086830 -2.524328 -1.865082 2.390235 1.294692 0.483394 -0.498233 0.751443 0.554492 -0.706397 -1.425581 2.332102 0.259710
eth_wishbone/always_3/block_1/if_1/block_2/case_1 -1.148821 0.246468 1.356504 -1.229867 2.092365 -1.563625 1.797062 0.054527 -0.217373 3.315101 -0.803916 -1.820530 -1.011085 1.571685 0.592457 1.117409 0.983784 -1.755386 -0.766255 -0.152800
eth_rxethmac/input_MRxDV -0.150029 1.309881 0.659775 -0.444759 -0.663109 -0.982121 0.259684 0.387009 1.823833 -0.040412 -0.114434 -0.291645 -0.946082 0.381161 0.961527 1.030639 0.471532 0.057267 -0.454997 0.641209
eth_miim/always_6/block_1/if_1/block_1/stmt_3 -0.022182 -0.841542 -1.361706 -0.829833 0.492417 0.285441 -0.222530 -0.870363 0.527775 -1.110837 1.318233 1.657972 -0.446613 -0.446781 -1.319512 -0.431275 0.165335 0.885419 0.182178 0.096227
eth_clockgen/assign_1_TempDivider/expr_1 1.876459 5.018950 0.113593 1.314453 3.341234 -3.278981 0.634331 0.026738 -1.989492 -1.756081 0.894112 1.061789 -1.699031 -1.214955 -0.608226 -0.410387 2.962298 -0.843835 -2.054373 1.883167
eth_miim/always_6/block_1/if_1/block_1/stmt_7 0.736224 -2.390006 1.674860 -1.245679 -0.397407 -0.768731 3.860066 -1.139844 -2.233734 0.398835 1.215657 -1.467359 -0.265824 -0.681682 -3.741947 -0.059715 2.503409 1.347207 -1.594431 -0.939174
eth_wishbone/always_1/block_1/stmt_1/expr_1 -1.241141 0.065699 1.267113 -1.200423 2.032588 -1.100211 1.893818 0.084285 -0.039048 3.501170 -0.873002 -1.686032 -1.125350 1.466553 0.594141 0.888377 0.876828 -1.589789 -0.818441 -0.146817
eth_miim/reg_RStat_q3 0.186838 -0.515604 -3.575318 -0.729204 -0.186825 2.377619 -0.568736 -0.593189 1.233299 -2.249376 1.017109 4.216185 -0.701256 -1.949034 -1.119006 -3.952584 0.761393 2.387497 -1.256226 1.191248
eth_miim/reg_RStat_q2 1.122658 0.729066 -4.330375 -0.172368 0.755874 1.531968 -1.907065 0.666124 0.107349 -3.570251 0.686195 4.231253 0.911388 -1.436789 -1.583818 -3.101588 0.278804 0.850343 0.613028 1.814613
eth_miim/reg_RStat_q1 1.125676 0.826662 -4.085815 -0.237519 0.781963 1.129058 -1.817357 0.582458 0.068214 -3.522836 0.657969 3.930725 0.928501 -1.270298 -1.500960 -2.735008 0.357108 0.648769 0.621814 1.709994
eth_wishbone/always_30/block_1/if_1/if_1 -0.193875 1.307605 0.668325 -0.425093 -0.709872 -0.872873 0.271678 0.421858 1.905694 -0.052692 -0.100227 -0.268380 -0.970499 0.329273 0.940968 1.006803 0.395703 0.164981 -0.432982 0.640929
eth_registers/always_1/block_1/if_1/block_1/case_1/stmt_16 1.248202 2.458067 1.772375 -0.432153 -1.995277 -5.982957 -0.826913 -2.530345 -0.852285 -3.446109 0.960314 -2.421704 0.786446 1.995015 1.938133 3.594682 -0.246957 0.554643 -1.298457 -1.002364
eth_registers/wire_MIICOMMANDOut 0.236240 1.551163 -2.692847 0.262659 0.782406 1.042498 -1.219258 1.455273 -0.403696 -1.210323 -1.189364 2.307405 0.694026 -0.794675 0.775108 -3.437314 0.601979 -0.171367 -0.779881 1.781627
eth_outputcontrol/always_1/block_1/if_1/block_2/if_1/block_1 -0.528176 -2.360978 0.297612 -3.712784 0.688055 -4.667964 1.300864 -4.922711 -0.694491 -1.647376 3.650838 0.963584 -1.194830 -0.127600 -2.349717 0.462324 3.460830 1.515779 -2.216338 -1.357514
eth_registers/always_1/block_1/if_1/block_1/case_1/stmt_19 -0.408270 -1.678497 1.094127 1.162593 1.989712 0.287406 0.074537 -0.650363 -1.588245 0.238879 0.274185 -1.679772 -0.486105 0.600689 -0.419799 0.262917 -1.677735 -1.158197 0.623161 -1.145437
eth_outputcontrol/assign_1_SerialEn/expr_1 -1.464565 2.346904 -2.473259 -2.602139 3.563720 -3.721850 -3.064869 0.413673 -0.815222 0.968921 -1.017086 1.853168 1.641771 1.613195 2.173171 0.400622 1.243455 -4.442122 1.892286 1.271362
eth_shiftreg/reg_ShiftReg -0.560016 0.919630 -0.154638 1.688258 -1.335426 3.108874 0.162447 2.185850 0.051211 1.544415 -2.981371 0.009470 -0.040024 -1.134550 2.933389 -4.176125 -0.134373 0.705532 -2.516009 1.135150
eth_register/always_1/block_1/if_1/if_1/cond 7.624434 6.206647 -7.054553 -2.739866 -4.434012 -2.984526 1.828383 3.561175 2.958981 -4.911668 -5.272351 2.469677 1.516390 1.205793 -3.375957 -0.311344 1.203072 -2.395453 -1.056023 1.567041
eth_rxstatem/always_1 -0.167087 1.264424 0.653550 -0.433056 -0.693160 -0.903226 0.259238 0.381754 1.851258 -0.027031 -0.122781 -0.300812 -0.998013 0.346295 0.968438 1.011822 0.408164 0.116871 -0.399161 0.597842
eth_outputcontrol/input_InProgress -0.692820 -2.426877 0.241782 -3.715033 0.762621 -4.450345 1.195534 -4.773646 -0.641511 -1.398882 3.457436 0.979904 -1.131783 -0.066265 -2.142288 0.281239 3.353517 1.395543 -2.250671 -1.288006
eth_miim/wire_StartOp 0.629039 -0.535752 -1.238075 -1.041738 0.430327 -0.966136 0.723944 -0.698941 -1.832410 -1.535336 0.451614 1.157769 0.746404 -0.893530 -1.606177 -2.539675 2.286839 0.690494 -1.610298 0.496606
eth_top/assign_9_BDCs/expr_1/expr_1/expr_1/expr_1 -1.139459 0.227360 1.307857 -1.186403 2.095087 -1.474110 1.738832 0.076988 -0.246005 3.256720 -0.821692 -1.762457 -0.992715 1.493747 0.556982 1.039788 0.969458 -1.723556 -0.756090 -0.170079
eth_wishbone/always_3 -1.278641 0.016420 1.301800 -1.233589 2.061828 -1.162608 1.929650 0.113005 -0.052101 3.517612 -0.853137 -1.756622 -1.176204 1.462656 0.580977 0.959443 0.897476 -1.601665 -0.804691 -0.186047
eth_top/assign_4_RegCs/expr_1/expr_1 -1.610259 0.527233 -0.636728 -1.029766 1.633015 0.649540 1.086831 0.624429 0.621516 2.747315 -1.645745 0.450020 -1.371298 0.268788 1.857113 -2.746895 1.288098 -0.341248 -2.585514 1.076672
eth_wishbone/always_3/block_1/if_1/block_2/case_1/block_7/stmt_6/expr_1 -1.259011 0.133558 1.340800 -1.246352 2.125129 -1.352900 1.934137 0.046977 -0.138916 3.561076 -0.867683 -1.798905 -1.141314 1.537910 0.575461 0.990320 0.984299 -1.689141 -0.833163 -0.173956
eth_registers/assign_109_r_ClkDiv 2.484310 4.012307 -1.211022 -1.667384 1.619079 -3.868350 2.171561 -0.797356 -3.550541 -1.043921 1.265356 3.419000 0.576899 -2.264838 -3.600880 -1.834025 6.505013 -1.864041 -0.847300 1.235633
eth_registers/assign_40_MIIMODER_Wr/expr_1 -0.811781 0.335280 -1.977868 -0.227318 -0.123131 2.164840 -0.030450 0.402587 0.828735 0.206105 -1.023230 2.344541 -0.887127 -1.312486 1.399044 -4.394501 0.858906 1.297572 -2.560658 1.271917
eth_registers/wire_Write 1.139844 3.427976 -0.381963 -1.565526 -0.841252 -4.847136 -1.205002 -0.457348 1.411945 -2.787470 0.140327 1.392264 -0.243212 0.769723 0.915624 1.052109 2.322951 -1.604454 -0.344434 1.007725
eth_wishbone/always_27/block_1/if_1 -0.157068 1.311732 0.662014 -0.446745 -0.704308 -0.952146 0.255987 0.383709 1.839979 -0.014112 -0.098618 -0.321902 -0.984679 0.346697 0.956167 1.046740 0.450228 0.080709 -0.447056 0.611982
eth_txethmac/always_13/block_1/if_1/stmt_2/expr_1/expr_1/expr_1/expr_1 -0.189980 1.243963 0.668590 -0.435417 -0.696125 -0.900386 0.266324 0.421717 1.888362 -0.019051 -0.080640 -0.325832 -1.001444 0.331302 0.955941 1.034105 0.393918 0.155615 -0.407817 0.648056
eth_txstatem/always_1/block_1 -0.186541 1.355219 0.710299 -0.432069 -0.725990 -0.975719 0.301609 0.377455 1.911396 -0.020576 -0.130546 -0.332200 -1.013693 0.369646 0.981268 1.086337 0.439197 0.107503 -0.430918 0.628078
eth_miim/always_8/block_1/if_1/block_1/if_1/cond -2.874770 -3.254366 0.271237 -2.200500 -0.729566 -1.438464 -0.858600 -3.991095 0.012643 0.255447 0.894964 1.298945 -1.015929 -1.089520 2.861035 -4.201968 2.316282 2.595350 -4.977091 -0.986289
eth_miim/always_6/block_1/if_1/block_2/if_1/cond -0.038284 -1.844508 0.086965 -1.241931 -0.285423 1.222444 3.828379 -0.425752 -1.402561 1.137723 -0.011950 0.214474 -1.052391 -1.463055 -2.237434 -3.514718 2.892031 1.961695 -3.484812 0.223114
eth_miim/input_RStat 1.125676 0.754470 -4.158145 -0.286432 0.753617 1.222350 -1.729420 0.507211 0.047831 -3.484330 0.715655 4.038120 0.854770 -1.357221 -1.582316 -2.944432 0.440451 0.817985 0.487321 1.716173
eth_registers/assign_1_Write 1.014562 3.615235 -0.405526 -1.585888 -0.775484 -5.021903 -1.422100 -0.480728 1.480026 -2.730156 0.117431 1.478707 -0.219763 0.829261 1.141368 1.045614 2.373655 -1.776077 -0.221881 1.042212
eth_rxstatem/reg_StateIdle -0.174742 1.293990 0.695937 -0.453726 -0.668044 -0.945361 0.276168 0.377971 1.872074 -0.031022 -0.090201 -0.331618 -0.960397 0.366629 0.955028 1.060359 0.451368 0.103968 -0.437521 0.631117
eth_top/wire_mdc_pad_o 1.518400 1.880566 2.412467 -3.743989 0.762903 -6.527753 6.292337 -0.049218 -2.862329 2.169920 -1.132208 -4.443831 1.444301 3.638492 -3.045473 3.551871 4.370724 -3.859254 -0.081621 -0.599330
eth_registers/assign_111_r_RStat 1.082258 0.826341 -4.250816 -0.113697 0.790877 1.409898 -1.984883 0.680473 0.149049 -3.530373 0.603070 4.110326 0.927098 -1.337497 -1.445507 -2.947023 0.217297 0.712941 0.676488 1.786559
eth_wishbone/always_6/block_1/if_1/if_1/cond/expr_1 -0.175562 1.234185 0.670735 -0.399254 -0.701598 -0.802983 0.255083 0.414485 1.936168 -0.028589 -0.087077 -0.289023 -0.992147 0.327232 0.944866 1.013514 0.401624 0.153848 -0.437343 0.645999
eth_txethmac/always_13/block_1/if_1/stmt_2/expr_1/expr_1/expr_1 -0.181397 1.190241 0.684133 -0.357605 -0.693167 -0.832531 0.255034 0.393306 1.788141 -0.020061 -0.092495 -0.342667 -0.913948 0.367214 0.892593 1.046012 0.336714 0.153339 -0.363227 0.585005
eth_txstatem/assign_6_StartPAD/expr_1/expr_1/expr_1 -0.171453 1.256161 0.679258 -0.391875 -0.706718 -0.890263 0.244176 0.409397 1.871900 -0.025767 -0.122822 -0.337952 -0.963617 0.370283 0.913037 1.048247 0.364420 0.128348 -0.401305 0.608934
eth_txethmac/always_13/block_1/if_1 -0.176802 1.232384 0.679535 -0.413533 -0.672895 -0.860780 0.269924 0.355525 1.784072 -0.056837 -0.070811 -0.301746 -0.942759 0.351348 0.913652 1.031525 0.389043 0.135839 -0.389224 0.600875
eth_maccontrol/input_TxStartFrmIn -0.173521 1.309218 0.706842 -0.464829 -0.711091 -0.946752 0.289082 0.386076 1.903374 0.002485 -0.103279 -0.297550 -0.996906 0.371660 0.958788 1.073096 0.413425 0.132420 -0.460036 0.637446
eth_txstatem/assign_7_StartFCS -0.163296 1.327076 0.692799 -0.456299 -0.723617 -0.919388 0.297227 0.396714 1.970584 -0.051184 -0.128661 -0.322955 -1.013700 0.351319 1.012793 1.115981 0.403903 0.121216 -0.449695 0.664468
eth_wishbone/always_1/block_1/stmt_1/expr_1/expr_1/expr_1 -1.208987 0.239779 1.283070 -1.194263 2.102878 -1.368858 1.854697 0.067945 -0.116687 3.402945 -0.842744 -1.717392 -1.085267 1.495022 0.612652 1.014833 0.953906 -1.666740 -0.792644 -0.155557
eth_shiftreg/always_1 -0.552173 0.907720 -0.097766 1.620970 -1.333470 3.028085 0.275244 2.088404 0.071873 1.534430 -2.891547 -0.014176 -0.041538 -1.112830 2.822418 -4.125412 -0.062183 0.760641 -2.608918 1.109851
eth_shiftreg/wire_ShiftedBit -0.558996 0.863787 -0.017035 1.646067 -1.374314 3.045489 0.312218 2.116443 0.072160 1.617871 -2.991222 -0.121862 -0.119070 -1.089091 2.937868 -4.117531 -0.069317 0.705230 -2.622474 1.073347
check_ethernet/input_wb_we_i -0.269751 2.698664 3.601013 1.994071 0.143265 -1.355078 0.735289 -0.789354 -0.297575 0.460579 0.506974 -3.244138 -1.414536 1.509212 2.256679 3.254236 -2.124221 -1.866797 1.324596 -0.754694
eth_miim/always_4/block_1/if_1/block_2/if_1/block_2/if_1/stmt_1 0.667740 -2.637080 1.596423 -1.291151 -0.426859 -0.557310 3.926614 -1.165668 -2.270653 0.391708 1.295588 -1.373054 -0.256708 -0.809426 -3.889015 -0.280546 2.588061 1.550883 -1.698904 -0.931216
eth_top/wire_temp_wb_err_o -0.905212 -0.709930 1.207190 -2.471322 -0.589502 -4.455804 -1.083956 0.296398 -0.300271 1.486354 -1.848410 -2.950170 2.230185 0.990026 1.614399 1.229368 1.249585 -2.709790 0.521740 -0.723355
eth_rxstatem/always_1/block_1/if_1/block_2/if_4 -0.175499 1.234469 0.691916 -0.399956 -0.686613 -0.860382 0.286417 0.396294 1.862928 -0.009118 -0.115014 -0.335580 -0.982414 0.355759 0.970626 1.075536 0.362114 0.137739 -0.391820 0.638624
eth_txstatem/assign_8_StartJam/expr_1 -0.198366 1.240654 0.690912 -0.436485 -0.676969 -0.882519 0.247272 0.395803 1.827163 0.004643 -0.081162 -0.312832 -0.967046 0.375692 0.910106 1.008795 0.398606 0.132549 -0.385809 0.577321
eth_outputcontrol/always_1/block_1/if_1/block_2/if_1/block_1/stmt_1/expr_1/expr_1/expr_1 -0.387913 -2.285439 2.174436 -2.166735 -0.483788 -4.079486 1.623233 -3.798344 -1.588485 -0.536109 2.240935 -1.210958 -0.343726 -0.024504 -1.237577 0.756638 2.798009 1.157434 -2.366710 -1.728677
eth_miim/reg_WCtrlDataStart_q1 0.764912 -0.911918 -0.640714 -0.734670 0.643483 0.447647 2.628541 0.710902 -2.565548 -0.095247 -0.348688 0.187198 0.501619 -1.055094 -2.700349 -2.853046 2.462192 0.639998 -1.860002 0.691998
eth_miim/reg_WCtrlDataStart_q2 0.770896 -2.915584 -1.451447 -1.840832 -0.291718 1.611262 3.407782 -1.358796 -0.958742 -1.073169 1.895898 1.982138 -0.905444 -2.070597 -4.678854 -3.193910 2.772074 3.130395 -2.342040 0.103638
eth_registers/wire_MIIMODER_Sel -0.397882 -0.313654 -1.488791 2.947843 4.835743 1.787405 -3.911610 0.364297 -3.279411 -2.820613 2.754544 3.537591 1.149107 -2.416766 -1.358206 -2.714091 0.014425 0.391441 1.970949 1.536082
eth_miim/wire_WriteDataOp 0.666938 -0.916265 -0.810927 -0.615433 0.662791 0.834934 2.440558 0.891287 -2.415705 0.042162 -0.468020 0.340278 0.524479 -1.134056 -2.521152 -3.072083 2.333534 0.662364 -1.748614 0.812217
eth_top/reg_WillTransmit_q2 -0.164761 1.279471 0.687161 -0.390092 -0.684875 -0.849160 0.267453 0.391558 1.889543 -0.046331 -0.089597 -0.318033 -0.996925 0.353215 0.964756 1.099263 0.362664 0.124478 -0.400783 0.621544
eth_miim/always_8/block_1/if_1/block_1/if_1/block_1/if_1/block_1/if_1/stmt_2 -2.823959 -3.153464 0.237020 -2.173296 -0.730333 -1.448038 -0.798842 -3.926227 0.063666 0.238451 0.880126 1.326990 -1.056581 -1.102944 2.788316 -4.145542 2.313273 2.575497 -4.954527 -0.934929
eth_miim/always_8/block_1/if_1/block_1/if_1/block_1/if_1/block_1/if_1/stmt_1 -0.783136 0.314076 -1.843477 -0.342592 -0.145681 1.923757 0.111944 0.293114 0.753459 0.304563 -1.009710 2.230925 -0.917502 -1.242851 1.400946 -4.340251 0.981090 1.280621 -2.695710 1.223389
eth_txethmac/wire_StateJam -0.167899 1.258983 0.682831 -0.442651 -0.663907 -0.880687 0.256194 0.374917 1.840961 -0.017268 -0.113944 -0.315196 -0.958638 0.351475 0.943832 1.042200 0.436360 0.127578 -0.415156 0.639143
eth_clockgen/wire_MdcEn_n -0.341471 0.255004 1.583749 0.684510 0.900484 -1.461710 -1.568911 -0.171658 -3.910310 1.860686 -1.290022 -0.514680 2.142383 -0.804636 1.631813 -1.315005 2.497037 -1.744434 -1.289691 -0.152004
eth_outputcontrol/reg_Mdo_d -1.287633 3.783191 -0.964559 0.136680 2.569962 -1.572852 -2.043378 2.669512 -2.272096 2.429618 -3.584201 0.419679 1.978710 0.630378 4.102623 -2.350274 1.228816 -4.460829 0.176418 1.931104
eth_txstatem/assign_5_StartData/expr_1 -0.164063 1.330688 0.705360 -0.421938 -0.703674 -0.998905 0.269432 0.364661 1.906392 -0.041585 -0.103984 -0.315820 -0.960066 0.379669 0.988475 1.060903 0.454346 0.087964 -0.435188 0.658478
check_ethernet/always_1/if_1 -0.507921 2.419198 3.668257 1.741109 0.242227 -1.316979 1.033199 -0.743512 -0.217312 0.940004 0.301526 -3.383109 -1.571031 1.594649 2.304764 3.181525 -1.948352 -1.957700 1.135625 -0.844067
eth_top/wire_r_ScanStat 0.196621 1.513179 -2.484113 0.252249 0.760086 0.984309 -1.080665 1.462283 -0.329155 -1.036274 -1.302518 2.105525 0.624686 -0.731299 0.934546 -3.382869 0.571988 -0.204155 -0.905527 1.740062
eth_miim/input_Mdi -0.408847 1.594390 1.012458 0.875666 -0.473164 0.406334 0.745837 1.260143 -0.798130 2.066493 -2.402595 -0.991249 0.037495 -0.070690 2.467821 -1.960413 0.738172 -0.799284 -1.874503 0.521034
eth_rxstatem/assign_1_StartIdle/expr_1/expr_1 -0.177148 1.242296 0.671045 -0.438739 -0.737917 -0.803594 0.306853 0.403214 1.935216 -0.003240 -0.087604 -0.356132 -1.033082 0.377581 0.941975 1.062604 0.340763 0.144507 -0.401851 0.594148
eth_rxstatem/always_1/block_1/if_1/block_2/if_1/cond -0.208052 1.327459 0.702581 -0.453748 -0.709940 -0.927401 0.280192 0.377982 1.911705 -0.025153 -0.135024 -0.309406 -0.985910 0.354750 0.992378 1.070985 0.402660 0.125784 -0.449073 0.630666
eth_rxstatem/assign_1_StartIdle/expr_1/expr_2 -0.201665 1.325407 0.693929 -0.441849 -0.680895 -0.898897 0.296294 0.367568 1.864325 -0.027814 -0.123003 -0.345218 -1.009718 0.389694 0.962417 1.059628 0.406342 0.134012 -0.422197 0.614746
eth_top/wire_wb_ack_o -1.010187 1.516270 1.603997 -2.146086 3.078475 -5.219296 1.341465 0.185940 -2.691618 3.652621 -1.525061 -2.296743 0.930866 2.127113 0.887930 1.514613 3.044643 -4.371418 -0.449045 -0.334507
eth_outputcontrol/always_2/block_1/if_1/block_2/if_1/block_1/stmt_3 -1.403109 3.816853 -0.662127 0.097221 2.714947 -1.863784 -1.968955 2.700303 -2.204453 2.599761 -3.556981 -0.000511 1.850750 0.850549 4.211303 -1.862241 1.134736 -4.509466 0.181078 1.863760
eth_outputcontrol/always_2/block_1/if_1/block_2/if_1/block_1/stmt_2 -1.235697 3.712134 -0.886334 -0.013481 2.688697 -1.703870 -1.735369 2.677322 -2.486184 2.571321 -3.544829 0.289774 1.945766 0.696280 3.845069 -2.222132 1.355376 -4.484163 0.145138 1.888524
eth_txstatem/always_1/block_1/if_1 -0.196129 1.302592 0.685441 -0.388933 -0.731551 -0.833585 0.272114 0.401290 1.925287 -0.044147 -0.093257 -0.326281 -0.983588 0.356024 0.958682 1.050593 0.376913 0.138328 -0.390429 0.603085
eth_top/assign_11_temp_wb_dat_o/expr_1/expr_1/expr_2 0.750795 1.364223 1.647025 -0.961041 0.822001 -6.274970 1.001765 -2.726672 -1.395526 -0.495832 -0.451521 -3.182234 -0.482348 3.775425 0.708395 3.467158 -0.093278 -2.684200 -1.450659 -2.271715
eth_miim/reg_WCtrlData_q2 0.797725 -0.917697 -0.719147 -0.763867 0.665698 0.488497 2.613027 0.725499 -2.468565 -0.057495 -0.287649 0.271048 0.493108 -1.022737 -2.735049 -2.792666 2.407208 0.615686 -1.750348 0.712556
eth_miim/reg_WCtrlData_q1 0.226003 1.520906 -2.501950 0.175730 0.802766 0.789242 -1.082927 1.382029 -0.405595 -1.083800 -1.213519 2.106435 0.653348 -0.666223 0.771638 -3.242884 0.658648 -0.296536 -0.836937 1.684508
eth_top/assign_11_temp_wb_dat_o/expr_1/expr_1/expr_1 0.625804 1.290230 1.952104 -1.059493 0.648986 -6.292213 1.164015 -2.727942 -1.337442 -0.353309 -0.494323 -3.478607 -0.526914 3.840811 0.900950 3.638057 -0.168082 -2.544736 -1.557248 -2.327214
eth_top/assign_8_BDCs/expr_1/expr_1/expr_1/expr_1/expr_1 -1.476020 -1.232623 0.083381 -0.798928 0.454031 2.168863 1.957703 -0.017711 1.690401 3.226862 -0.607711 -0.215962 -2.217354 0.213214 0.293025 -0.666615 -0.423037 0.292517 -0.986474 -0.264594
eth_wishbone/always_77/block_1/if_1/if_1/cond -1.543496 -1.284438 0.063500 -0.819977 0.471962 2.221475 2.032207 0.014479 1.746438 3.313030 -0.623536 -0.205626 -2.286374 0.196093 0.321437 -0.700055 -0.409474 0.325058 -0.979414 -0.225832
eth_txethmac/always_13/block_1 -0.192374 1.284713 0.687267 -0.402912 -0.699452 -0.883552 0.283554 0.378246 1.878573 0.000192 -0.117081 -0.322995 -0.993776 0.350100 0.961325 1.064929 0.383312 0.105140 -0.413791 0.630544
eth_shiftreg/always_1/block_1/if_1/block_2/if_1 -0.590107 0.863552 -0.083611 1.658946 -1.319607 3.063741 0.200396 2.095043 0.051761 1.563558 -2.989721 -0.040907 -0.056214 -1.078149 2.950365 -4.155555 -0.104693 0.708271 -2.623660 1.116593
eth_registers/always_1/block_1/if_1 0.961930 0.926145 1.822856 -0.209239 0.141749 -5.666593 -0.417710 -2.509564 -1.711270 -2.726570 0.440782 -3.231737 0.262981 2.598904 0.973196 3.061858 -0.885999 -1.022324 -1.085467 -1.665228
eth_top/wire_RegCs 0.250029 1.185573 0.066970 -0.209125 0.164822 -1.393821 0.413365 -1.373905 -0.832927 0.179391 -0.163967 0.099482 -0.540859 1.267029 0.661378 0.334362 0.067342 -0.749779 -1.102895 -0.801153
eth_clockgen/reg_Mdc 0.034080 0.129106 1.732598 -1.099462 -0.729348 -2.740125 0.176984 -0.817460 -3.578408 1.467182 -0.920774 -0.267977 3.279397 0.381949 -0.215208 -0.981943 3.831116 -3.314182 0.662905 -1.157852
eth_shiftreg/always_1/block_1/if_1/block_2/if_1/cond -0.544083 0.966515 0.032515 1.542102 -1.302867 2.776778 0.370133 2.049971 -0.041812 1.625234 -2.945998 -0.164666 -0.060965 -1.019365 2.923517 -4.036177 0.043408 0.617313 -2.662620 1.076556
eth_shiftreg/always_1/block_1 -0.585598 0.852235 -0.037011 1.653833 -1.352020 3.044786 0.254465 2.129239 0.063119 1.586973 -2.972764 -0.083953 -0.078307 -1.072527 2.936161 -4.158646 -0.053610 0.715211 -2.606913 1.085364
eth_top/assign_2_RegCs/expr_1 -1.173354 0.150630 1.254010 -1.163141 1.965784 -1.232254 1.798742 0.070706 -0.060890 3.327419 -0.813466 -1.667459 -1.068100 1.412945 0.554911 0.948296 0.880978 -1.576866 -0.784378 -0.174361
eth_wishbone/always_2/block_1/if_1/if_1 -1.516887 -1.280217 0.095861 -0.825336 0.485654 2.179625 2.016207 -0.008416 1.691066 3.319865 -0.612609 -0.238636 -2.214876 0.251364 0.256828 -0.602785 -0.385260 0.288265 -0.971216 -0.255738
eth_rxstatem/assign_2_StartPreamble -0.163716 1.316454 0.642852 -0.444100 -0.686499 -0.945444 0.274773 0.376751 1.860567 -0.068503 -0.133372 -0.302412 -0.931208 0.348955 0.947009 1.020776 0.452696 0.095763 -0.453575 0.644593
eth_miim/inst_shftrg -0.586440 0.952251 -0.001537 1.635755 -1.354903 2.994502 0.275744 2.127226 0.007828 1.670851 -3.060174 -0.152741 -0.053793 -1.052819 3.040170 -4.122209 -0.048393 0.668875 -2.659058 1.091494
eth_miim/always_3/block_1/if_1/block_1/stmt_9 -0.016942 -0.838554 -1.455767 -0.802279 0.542165 0.334551 -0.265271 -0.874528 0.535420 -1.171645 1.324502 1.660053 -0.422474 -0.451306 -1.367052 -0.445949 0.129369 0.860847 0.245859 0.105735
eth_top/always_1/block_1/if_1/block_2/stmt_1 -0.982152 1.365730 1.530503 -2.220398 3.036667 -5.103994 1.371994 0.159210 -2.547403 3.544221 -1.443531 -2.304241 0.900414 2.090259 0.795630 1.579082 2.963794 -4.175558 -0.436272 -0.253012
eth_top/always_1/block_1/if_1/block_2/stmt_2 1.038593 2.004421 2.358903 -0.226547 0.994471 -5.707020 -0.065481 -0.552683 -2.713232 0.688691 -1.682795 -3.537742 1.885263 3.326067 1.285710 3.279052 1.492909 -3.038453 -0.747177 -1.059389
eth_top/always_1/block_1/if_1/block_2/stmt_3 -0.892737 -0.729721 1.135099 -2.396604 -0.538200 -4.301730 -1.127469 0.385897 -0.287276 1.388710 -1.762027 -2.835365 2.270609 0.909560 1.467528 1.103092 1.220024 -2.597474 0.594629 -0.647304
eth_clockgen/always_2/block_1/if_1/block_1 -0.045077 0.686646 0.736017 -2.002267 -0.679436 -2.941184 0.717976 -0.677465 -2.366296 0.920062 -0.584288 0.305967 2.926728 1.118031 -0.602678 -0.447296 3.256454 -3.600817 1.717008 -0.949837
eth_rxstatem/assign_1_StartIdle/expr_1/expr_2/expr_2 -0.161872 1.240688 0.689054 -0.398481 -0.714930 -0.880185 0.298555 0.383124 1.870159 -0.011676 -0.090153 -0.336935 -0.981360 0.349285 0.942054 1.056264 0.396987 0.144208 -0.406167 0.629854
check_ethernet/input_wb_stb_i -0.257981 2.651480 3.597194 1.825309 0.063970 -1.479528 0.857070 -0.783987 -0.281544 0.553734 0.414664 -3.221310 -1.419974 1.505706 2.261242 3.204676 -1.903661 -1.898724 1.205152 -0.768323
eth_txstatem/always_1/block_1/if_1/block_2/if_6 -0.193237 1.254622 0.700915 -0.435172 -0.706933 -0.920472 0.318598 0.405337 1.882560 -0.000829 -0.113217 -0.389720 -0.997668 0.418799 0.943079 1.130716 0.363884 0.086719 -0.375796 0.621220
eth_miim/assign_7_ByteSelect/expr_1/expr_1/expr_2 -0.572102 0.899377 -0.020853 1.579996 -1.315642 2.899096 0.246669 2.076563 0.026298 1.580834 -2.920505 -0.111958 -0.070269 -1.041068 2.885617 -4.021422 -0.035671 0.618189 -2.566200 1.061960
eth_miim/assign_7_ByteSelect/expr_1/expr_1/expr_1 -0.591670 0.946965 -0.017912 1.626320 -1.368761 2.917183 0.337306 2.072222 0.013595 1.624579 -3.010391 -0.142414 -0.081425 -1.029886 2.981395 -4.074831 -0.041025 0.699445 -2.658856 1.054850
eth_txethmac/wire_StateData -0.160393 1.290273 0.734567 -0.415378 -0.703557 -0.922094 0.285648 0.395948 1.867646 -0.033233 -0.093691 -0.383722 -0.984886 0.368471 0.965817 1.106733 0.375339 0.105952 -0.405235 0.606096
eth_txstatem/assign_4_StartData/expr_1/expr_2/expr_2 -0.161898 1.202074 0.684960 -0.398400 -0.655947 -0.869632 0.283450 0.356340 1.807517 -0.013383 -0.110770 -0.371265 -0.948141 0.368246 0.945705 1.079068 0.330030 0.089042 -0.375148 0.593006
eth_miim/wire_ShiftedBit -0.553779 0.937117 0.030153 1.591345 -1.296677 2.852664 0.302481 2.041617 -0.021458 1.631699 -2.969315 -0.159764 -0.060595 -1.005583 2.916104 -3.977704 -0.020109 0.638070 -2.593582 1.065995
eth_miim/assign_10_ByteSelect -0.557334 0.872412 -0.034346 1.542131 -1.308991 2.883946 0.307996 2.015717 0.032070 1.559432 -2.882090 -0.126971 -0.109278 -1.025587 2.857084 -3.987324 -0.030215 0.689611 -2.615376 1.050507
eth_miim/reg_SyncStatMdcEn 0.230651 1.414500 -2.730838 0.235407 0.737470 1.163185 -1.188708 1.428674 -0.277752 -1.259158 -1.174855 2.359748 0.624850 -0.848882 0.762127 -3.512352 0.506352 -0.055952 -0.797351 1.807568
eth_top/assign_4_RegCs/expr_1/expr_1/expr_1 -2.115010 -0.910389 -1.880393 -1.144020 0.405105 3.944405 1.778994 0.249584 2.501520 3.139531 -1.366380 2.106587 -2.970468 -0.969593 1.484700 -4.631091 0.419016 1.501699 -3.213741 0.970700
eth_wishbone/always_2/block_1 -1.487984 -1.321814 0.034543 -0.778688 0.446124 2.235780 1.963608 -0.002501 1.735541 3.297082 -0.639440 -0.202304 -2.256959 0.182608 0.278793 -0.652585 -0.452036 0.331538 -0.948749 -0.258293
eth_top/assign_4_RegCs/expr_1/expr_1/expr_2 -0.114686 -0.631101 -1.150858 0.840320 -0.920257 2.822020 -0.537321 0.976866 0.871210 -0.486631 -0.625455 1.047149 -0.056410 -1.083387 0.503601 -2.339766 -0.877765 1.539903 -0.670897 0.658264
eth_top/assign_7_BDCs -1.209843 0.130141 1.315271 -1.166802 2.048069 -1.281333 1.828862 0.106558 -0.106148 3.424663 -0.812213 -1.789014 -1.095066 1.498259 0.576503 1.042849 0.892899 -1.652480 -0.739628 -0.172178
eth_clockgen/wire_CounterPreset 1.999493 5.081043 -0.045623 1.273165 3.187201 -3.395385 0.498685 0.031956 -2.112010 -1.798259 0.682129 1.077346 -1.472482 -1.158030 -0.473076 -0.485030 2.983134 -1.032405 -2.071162 1.836097
eth_miim/always_8 -2.189295 -0.740310 -0.665699 -1.697091 1.922585 -2.434671 -2.829968 -0.400592 -0.976126 1.454779 -1.066588 0.394434 1.447536 0.438316 2.905626 -1.086709 0.891246 -1.857096 -0.502360 0.166504
eth_miim/wire_MdoEn -0.580872 -2.479213 0.236857 -3.694810 0.729361 -4.560287 1.289260 -4.905287 -0.632538 -1.585671 3.658094 1.031580 -1.163992 -0.128335 -2.407266 0.453245 3.358788 1.504302 -2.179494 -1.354155
eth_rxstatem/always_1/block_1/if_1/block_2/if_3/if_1/cond -0.188249 1.269028 0.625858 -0.422541 -0.686126 -0.859146 0.273726 0.395493 1.829476 -0.047937 -0.110151 -0.291813 -0.973781 0.353384 0.908516 1.009286 0.400172 0.130627 -0.420375 0.626678
check_ethernet/always_1/if_1/if_1 -0.285765 2.626516 3.554092 1.832057 0.044576 -1.420091 0.812603 -0.775975 -0.316687 0.583414 0.408957 -3.224153 -1.398723 1.495635 2.258096 3.113044 -1.914155 -1.851830 1.202137 -0.744398
eth_shiftreg/input_MdcEn_n -0.516798 0.887213 -0.176720 1.718368 -1.378398 3.189532 0.228230 2.184431 0.096493 1.519268 -2.969234 0.019056 -0.027311 -1.172959 2.898103 -4.230361 -0.150510 0.781442 -2.572130 1.127400
eth_miim/always_7/block_1/if_1/block_2/if_1/cond -0.899922 -1.442183 0.702932 -2.011444 -0.538143 -2.098461 1.590587 -2.979268 -0.492115 -0.015156 1.098710 0.311313 -1.248183 -0.732854 0.161076 -2.121761 2.896351 1.819093 -3.910801 -0.617717
eth_rxstatem/reg_StateData0 -0.200072 1.266591 0.677103 -0.425862 -0.729580 -0.792706 0.305111 0.428270 1.948940 -0.010819 -0.122333 -0.297063 -1.004326 0.322934 0.963170 1.013755 0.351690 0.173342 -0.443563 0.631966
eth_miim/always_1 0.694736 -2.550680 1.597041 -1.236563 -0.465529 -0.690751 3.727583 -1.252750 -2.210273 0.266226 1.306031 -1.329171 -0.221582 -0.751256 -3.716032 -0.187415 2.507543 1.484528 -1.673295 -0.961155
eth_miim/input_ScanStat 0.192365 1.463784 -2.573897 0.199824 0.764526 1.000075 -1.118145 1.412220 -0.336697 -1.091248 -1.208680 2.231409 0.616475 -0.799500 0.784250 -3.443240 0.629793 -0.172020 -0.891148 1.731709
eth_miim/always_3 0.838872 -0.811223 -0.809122 -0.652300 0.693096 0.679872 2.477008 0.868512 -2.455575 -0.153111 -0.355565 0.319421 0.582249 -1.116245 -2.741903 -2.866499 2.361448 0.599457 -1.681279 0.815789
eth_miim/always_4 0.865827 -0.894960 -0.790513 -0.771472 0.696604 0.500103 2.568515 0.716710 -2.515749 -0.205394 -0.237933 0.349057 0.562674 -1.092690 -2.821366 -2.842360 2.442402 0.672780 -1.726914 0.741413
eth_miim/always_6 0.608513 -0.500212 -1.095541 -1.007379 0.284158 -0.881005 0.829090 -0.632551 -1.719925 -1.496239 0.437220 1.048494 0.663016 -0.885450 -1.530964 -2.460038 2.167334 0.740080 -1.632566 0.465887
eth_miim/always_7 -0.119353 -1.064793 -0.013923 -1.521534 0.202128 -2.455241 0.535897 -1.935294 -1.714272 -1.194051 0.913051 0.337545 0.326839 -0.506792 -0.599331 -1.706030 2.471493 0.827843 -2.348440 -0.246384
eth_maccontrol/assign_4_TxStartFrmOut/expr_1/expr_1 -0.190562 1.322107 0.709053 -0.437579 -0.685866 -0.926989 0.319788 0.408632 1.900845 0.009636 -0.116017 -0.347168 -1.006797 0.382186 0.958659 1.055898 0.455907 0.118083 -0.433007 0.650288
eth_top/input_wb_dat_i -0.276877 2.663059 3.621653 1.916131 -0.010679 -1.393897 0.780340 -0.755154 -0.176509 0.488778 0.447566 -3.290064 -1.461362 1.546933 2.291229 3.297562 -2.051786 -1.801776 1.272987 -0.751342
eth_top/assign_12_temp_wb_err_o/expr_1/expr_2/expr_1 -0.887557 -1.409745 -0.147445 -1.837795 -2.214876 -2.073495 -0.658722 -1.209897 1.243896 0.465903 -0.701689 -0.468344 0.229489 0.131194 1.568445 0.619415 -0.351472 -0.816514 -0.408591 -1.613701
eth_top/assign_4_RegCs/expr_1/expr_1/expr_1/expr_1 -2.108081 -0.844792 -1.722143 -1.050915 0.327359 3.809019 1.833597 0.228748 2.467834 3.193091 -1.365805 1.924615 -2.954694 -0.839571 1.513830 -4.378438 0.324092 1.429344 -3.128853 0.875320
eth_shiftreg/input_ByteSelect -0.604509 0.915426 0.021530 1.628318 -1.326836 3.029683 0.324719 2.119235 0.052324 1.658735 -2.999026 -0.147142 -0.074925 -1.048528 2.980119 -4.097442 -0.106461 0.694411 -2.622559 1.091080
eth_wishbone/always_6/block_1/if_1/if_1/cond -0.164160 1.198229 0.659512 -0.377120 -0.679163 -0.810785 0.249758 0.375376 1.774744 -0.018621 -0.086023 -0.276727 -0.963407 0.322254 0.888910 1.007818 0.378110 0.124917 -0.377695 0.570390
check_ethernet/input_wb_cyc_i -0.303504 2.710335 3.552781 1.846393 0.067218 -1.328892 0.834165 -0.681652 -0.129822 0.624910 0.394396 -3.133237 -1.506802 1.491272 2.316155 3.162715 -1.937380 -1.794197 1.172806 -0.691300
eth_top/assign_2_RegCs/expr_1/expr_1 -1.190476 0.085607 1.282098 -1.118982 2.052552 -1.190192 1.826443 0.118783 -0.130449 3.398508 -0.838534 -1.748419 -1.074439 1.463071 0.572359 0.994482 0.865458 -1.591724 -0.754606 -0.180962
eth_top/assign_6_BDCs/expr_1/expr_1/expr_1/expr_1 -1.195316 0.192743 1.276132 -1.193949 2.059614 -1.337893 1.830414 0.051992 -0.139787 3.399465 -0.807631 -1.711554 -1.109777 1.514031 0.594751 1.001037 0.956711 -1.650517 -0.807156 -0.144614
eth_top/assign_12_temp_wb_err_o/expr_1/expr_1 -0.832143 -1.298584 0.034923 -1.767931 -2.028556 -2.269488 -0.602162 -1.172739 1.271212 0.519742 -0.697895 -0.655665 0.100441 0.189236 1.530078 0.889209 -0.339395 -0.899368 -0.398504 -1.543290
eth_top/assign_22_Transmitting -0.184045 1.313192 0.670265 -0.420618 -0.671829 -0.927580 0.258569 0.379397 1.848844 -0.073894 -0.077401 -0.314679 -0.983400 0.344435 0.956924 1.042752 0.428779 0.093583 -0.396897 0.621551
eth_txstatem/assign_4_StartData/expr_1/expr_2/expr_1 -0.209981 1.286131 0.692530 -0.432306 -0.759144 -0.831058 0.312946 0.459137 1.988331 -0.020112 -0.132178 -0.340146 -1.078175 0.346959 1.015221 1.075648 0.357574 0.170455 -0.411571 0.624005
eth_txstatem/reg_StatePAD -0.172895 1.287628 0.728585 -0.393984 -0.715363 -0.873371 0.263162 0.396665 1.980917 -0.016806 -0.078593 -0.377947 -1.020214 0.384052 0.989024 1.122549 0.368487 0.120468 -0.383704 0.617846
eth_txstatem/assign_5_StartData -0.199954 1.331321 0.718774 -0.447434 -0.740269 -0.905753 0.279248 0.427717 1.939898 -0.045569 -0.101255 -0.332545 -1.024098 0.370272 0.984674 1.059661 0.395754 0.142710 -0.430332 0.625848
eth_top/assign_6_BDCs/expr_1 -1.241960 0.099353 1.220182 -1.147966 2.050386 -1.095510 1.820668 0.117355 -0.063377 3.420588 -0.813272 -1.684641 -1.113393 1.406520 0.577379 0.911848 0.849694 -1.538626 -0.787990 -0.157233
eth_shiftreg/always_1/block_1/if_1/block_2/if_1/block_1/if_1/block_1/case_1/cond -0.117754 -0.664974 -1.157563 0.824978 -0.932432 2.850335 -0.524324 0.938044 0.886554 -0.517194 -0.643318 1.018795 -0.106767 -1.124241 0.527430 -2.340663 -0.867665 1.550554 -0.723624 0.646891
eth_wishbone/always_6/block_1/if_1 -0.182045 1.222069 0.707637 -0.376814 -0.729711 -0.776183 0.289056 0.422165 1.963176 0.021429 -0.075663 -0.336432 -1.045447 0.365656 0.958012 1.049537 0.334729 0.173033 -0.417653 0.593078
eth_miim/always_3/block_1/if_1/block_2/stmt_5 1.160402 0.736980 -4.253858 -0.201156 0.713946 1.363480 -1.863016 0.569714 0.112866 -3.566159 0.689294 4.105882 0.909152 -1.405625 -1.575557 -2.961944 0.305915 0.822157 0.600936 1.737058
eth_top/input_md_pad_i -0.440214 1.517019 0.958322 0.865608 -0.421022 0.342832 0.765935 1.199610 -0.813553 2.032519 -2.356848 -0.956947 0.055625 -0.064047 2.408682 -1.945207 0.750349 -0.769876 -1.897187 0.491783
eth_txstatem/assign_3_StartPreamble/expr_1 -0.184985 1.204034 0.680251 -0.423861 -0.695593 -0.828530 0.304611 0.395275 1.902277 0.016211 -0.119376 -0.311947 -0.965281 0.349597 0.954579 1.066043 0.359786 0.152713 -0.419183 0.630099
eth_wishbone/always_4/block_1 -1.518825 -1.261216 0.104622 -0.822861 0.506266 2.175708 2.010929 0.005041 1.739753 3.323383 -0.634679 -0.246326 -2.266160 0.216649 0.294679 -0.641863 -0.387486 0.294913 -0.964248 -0.242267
eth_top/always_1/block_1/if_1/block_2/stmt_1/expr_1 -0.711506 0.642383 1.643298 -2.820967 3.302217 -5.494855 2.520415 -0.770515 -1.957807 3.469311 -0.951392 -2.942886 0.517232 2.520452 0.248140 2.578820 2.751673 -3.466416 -0.754898 -0.149553
eth_wishbone/reg_TxStartFrm_wb -0.187759 1.243149 0.700775 -0.394933 -0.702678 -0.829935 0.306271 0.415250 1.919428 -0.021087 -0.107541 -0.346220 -0.994692 0.353445 0.973871 1.058807 0.356035 0.140299 -0.395643 0.617401
eth_shiftreg/always_1/block_1/if_1/block_2/if_1/block_1/if_1/cond -0.570687 0.904623 -0.012942 1.645035 -1.396047 3.055393 0.341715 2.146607 0.069823 1.660075 -3.046156 -0.116322 -0.075681 -1.078193 2.999155 -4.180046 -0.069869 0.734247 -2.699511 1.094537
eth_miim/always_1/block_1/if_1 0.725564 -2.514231 1.696331 -1.294260 -0.363627 -0.798078 3.921806 -1.196154 -2.269276 0.462336 1.291088 -1.522187 -0.278247 -0.660905 -3.793792 0.000199 2.516718 1.387451 -1.620178 -1.002418
eth_clockgen/always_1/block_1/if_1/block_1/if_1/block_1 1.959162 4.991765 0.039105 1.276587 3.222971 -3.279859 0.555082 0.058301 -2.012393 -1.714568 0.738615 1.045184 -1.550120 -1.144418 -0.586025 -0.406381 2.928752 -0.977256 -1.990178 1.819554
eth_shiftreg/always_1/block_1/if_1/block_2/if_1/block_1 -0.573140 0.843519 -0.136845 1.641456 -1.353794 3.117188 0.218935 2.076684 0.046415 1.558601 -2.947298 0.028756 -0.043507 -1.153873 2.864626 -4.209605 -0.085659 0.772491 -2.570491 1.121396
eth_miim/always_4/block_1 0.786112 -0.845780 -0.687491 -0.674796 0.661877 0.474628 2.489085 0.760321 -2.572491 -0.127011 -0.327050 0.250493 0.638027 -1.076706 -2.650861 -2.836616 2.419811 0.570358 -1.728646 0.701581
eth_clockgen/always_1/block_1/if_1/block_1/if_1/stmt_1 -0.166212 0.770708 -0.419241 -2.607738 0.891155 -4.208822 0.534290 -1.165801 -2.468496 0.248070 -0.244778 0.765814 2.148519 0.909875 -0.186874 -1.007441 3.629996 -3.119718 0.401486 -0.391873
eth_top/always_1/block_1/if_1/block_2/stmt_3/expr_1 -0.874305 -0.636188 1.166393 -2.320619 -0.530887 -4.267622 -1.027197 0.395388 -0.226988 1.390056 -1.775492 -2.873211 2.149285 0.914898 1.496961 1.168537 1.204724 -2.586870 0.584027 -0.645080
eth_wishbone/reg_WB_ACK_O -1.219712 0.183232 1.330766 -1.192843 2.089702 -1.311893 1.887514 0.097948 -0.119044 3.429142 -0.821987 -1.763522 -1.103330 1.530008 0.612169 1.006670 0.939363 -1.667527 -0.811491 -0.169753
eth_transmitcontrol/always_1/block_1/if_1/if_1 -0.175153 1.267572 0.681925 -0.406468 -0.719690 -0.869342 0.282643 0.436109 1.911555 -0.042517 -0.084305 -0.309328 -1.016499 0.370140 0.964380 1.076050 0.358463 0.154260 -0.407480 0.624258
eth_top/assign_9_BDCs/expr_1/expr_1/expr_1/expr_1/expr_1 -1.542277 -1.356249 0.074883 -0.836805 0.442462 2.293892 2.061267 0.025986 1.792138 3.397462 -0.660336 -0.210486 -2.312357 0.208956 0.310062 -0.681520 -0.443018 0.357545 -0.981020 -0.250912
eth_outputcontrol/always_2/block_1/if_1/block_2/if_1/block_1/stmt_1 -1.397247 3.837628 -0.855540 0.109353 2.645797 -1.725016 -2.102601 2.740359 -2.270266 2.456260 -3.504957 0.322379 1.954481 0.669599 4.202260 -2.211938 1.226072 -4.532065 0.224919 1.995526
eth_miim/always_3/block_1/if_1/block_2 0.824341 -0.699250 -0.631711 -0.741429 0.668043 0.353848 2.602213 0.758584 -2.515566 -0.123536 -0.348183 0.202357 0.503035 -0.997209 -2.679878 -2.688659 2.477033 0.489697 -1.722336 0.745571
eth_outputcontrol/assign_1_SerialEn/expr_1/expr_2/expr_2 -0.219034 -0.675785 -2.173821 -1.824857 1.100382 -0.472105 -0.349410 -1.648561 0.888480 -1.511666 1.953956 2.673556 -0.851285 -0.426088 -1.540872 -0.656583 0.873140 0.828997 -0.081294 0.289263
eth_top/inst_miim1 0.407056 1.288667 1.674149 -0.443184 1.145774 -3.199225 0.691331 0.743535 -2.804305 1.172570 -1.382052 -2.033709 1.715066 0.540365 0.812798 0.570374 2.708852 -2.067345 -1.088045 0.421750
eth_outputcontrol/assign_1_SerialEn/expr_1/expr_2/expr_1 -0.263073 -0.723875 -2.179699 -1.827511 1.091697 -0.467407 -0.394524 -1.637454 0.896331 -1.495254 1.925324 2.738338 -0.830573 -0.439887 -1.561202 -0.703268 0.888088 0.852023 -0.076184 0.302335
eth_txethmac/always_13/block_1/if_1/stmt_2/expr_1 -0.163038 1.283677 0.657404 -0.446101 -0.688976 -0.917807 0.263656 0.385630 1.876369 -0.051493 -0.122758 -0.291888 -0.966714 0.343973 0.971809 1.035643 0.428815 0.099337 -0.426185 0.612251
eth_wishbone/always_30 -0.180495 1.285744 0.691964 -0.420301 -0.733096 -0.880932 0.262015 0.408250 1.910061 -0.053680 -0.074523 -0.334847 -1.035572 0.364967 0.956855 1.117640 0.358787 0.143237 -0.412019 0.608592
eth_rxstatem/wire_StartSFD -0.156937 1.236713 0.626013 -0.398681 -0.681749 -0.825498 0.277618 0.385290 1.839719 -0.028431 -0.120815 -0.306394 -0.922816 0.341671 0.929259 0.985441 0.403582 0.151551 -0.381046 0.634367
eth_txstatem/always_1/block_1/if_1/block_2/stmt_1 -0.154809 1.304314 0.704452 -0.447242 -0.711843 -0.904995 0.295187 0.409483 1.846969 -0.030969 -0.131341 -0.322872 -0.976758 0.359325 0.964465 1.055838 0.421361 0.104217 -0.416537 0.623370
eth_miim/always_6/block_1/if_1/block_2/if_1/block_1 0.690840 -0.823829 -0.574043 -0.793109 0.669389 0.262790 2.503413 0.612477 -2.544925 -0.020971 -0.330221 0.128244 0.558951 -0.951577 -2.506535 -2.740796 2.476653 0.504997 -1.815597 0.657187
eth_wishbone/always_6/block_1 -0.165685 1.294577 0.673079 -0.429054 -0.712430 -0.860713 0.254109 0.414573 1.853800 -0.026269 -0.091673 -0.324362 -0.985508 0.373110 0.949676 1.053459 0.374349 0.138387 -0.398035 0.626486
eth_registers/assign_110_r_WCtrlData 0.210403 1.538555 -2.702183 0.334334 0.758634 1.226040 -1.215396 1.577323 -0.338483 -1.087581 -1.310139 2.327468 0.704084 -0.839383 0.888817 -3.552635 0.492577 -0.181370 -0.806283 1.854434
eth_wishbone/always_1/block_1/stmt_1/expr_1/expr_1/expr_1/expr_1 -1.317677 0.072510 1.293707 -1.251497 2.074763 -1.173809 1.971240 0.104267 -0.025852 3.568943 -0.879819 -1.745828 -1.178053 1.488007 0.603264 0.964589 0.935692 -1.613153 -0.869237 -0.138068
eth_top/assign_7_BDCs/expr_1/expr_1/expr_1/expr_1 -1.144470 0.182981 1.289145 -1.104741 2.018274 -1.346092 1.745910 0.102157 -0.195462 3.245447 -0.791477 -1.737480 -1.006158 1.446702 0.581918 1.033383 0.902450 -1.654041 -0.700392 -0.170926
eth_top/assign_8_BDCs/expr_1 -1.240658 0.119367 1.270804 -1.231746 2.101070 -1.273579 1.921575 0.040699 -0.131973 3.491209 -0.838117 -1.727722 -1.152792 1.492791 0.592824 0.924962 0.966332 -1.687731 -0.866157 -0.158489
eth_miim/always_8/block_1/if_1 -2.250928 -0.642028 -0.672157 -1.749250 2.002775 -2.617794 -2.823594 -0.488653 -1.040458 1.381157 -0.987657 0.483699 1.423185 0.388049 2.864414 -1.104098 1.089287 -1.899135 -0.521282 0.154844
eth_top/assign_15_wb_err_o -0.902534 -0.715918 1.230315 -2.441536 -0.428434 -4.509664 -1.120246 0.356487 -0.424083 1.530636 -1.805180 -2.960333 2.298594 0.989470 1.570868 1.247140 1.278337 -2.775738 0.578253 -0.722783
eth_shiftreg/always_1/block_1/if_1/block_2/if_1/block_1/if_1/block_1/case_1 -0.145779 -0.648384 -1.155061 0.892357 -0.933705 2.919921 -0.566936 0.999919 0.920765 -0.489757 -0.640749 1.053646 -0.058875 -1.118836 0.548353 -2.383938 -0.865389 1.555557 -0.703409 0.667072
eth_top/wire_temp_wb_dat_o 0.597167 1.228281 1.866989 -1.072734 0.857949 -6.375798 1.062413 -2.752465 -1.363019 -0.299165 -0.439179 -3.397819 -0.522715 3.835322 0.831857 3.611140 -0.140704 -2.668878 -1.473629 -2.322208
eth_wishbone/always_4 -1.597240 -1.394614 0.074601 -0.820287 0.427974 2.412439 2.064523 0.046360 1.867591 3.440777 -0.637817 -0.271287 -2.354172 0.204619 0.294136 -0.674213 -0.531790 0.406929 -0.971156 -0.270474
eth_rxstatem/wire_StateData -0.184175 1.327193 0.721444 -0.422565 -0.725167 -0.874871 0.284716 0.439299 1.957023 -0.032678 -0.110513 -0.363766 -1.023188 0.386573 1.009253 1.125531 0.385279 0.145143 -0.414112 0.635327
eth_wishbone/always_1 -1.178088 0.182904 1.282573 -1.143602 2.034478 -1.304878 1.809167 0.074718 -0.136110 3.361255 -0.821290 -1.729299 -1.056033 1.517930 0.583256 1.056166 0.854799 -1.659232 -0.744871 -0.148057
eth_txstatem/always_1 -0.179680 1.305603 0.689986 -0.453762 -0.730717 -0.914196 0.266329 0.382672 1.891060 -0.021029 -0.117118 -0.285785 -0.980732 0.374320 0.989538 1.020690 0.437054 0.117854 -0.452861 0.651443
eth_top/wire_ByteSelected -0.245856 -0.162484 0.910128 -2.123132 -0.682082 -6.831180 -0.200671 -3.114694 -0.447424 -0.085275 -1.200975 -3.070379 0.237691 3.214648 2.043338 2.981811 -0.784720 -3.575167 -0.927026 -3.242181
eth_wishbone/always_2 -1.582780 -1.360431 0.046197 -0.794263 0.457725 2.402196 2.083081 0.063338 1.816892 3.395802 -0.651852 -0.187157 -2.304764 0.173380 0.270253 -0.725840 -0.502674 0.385738 -0.972149 -0.252343
eth_registers/assign_41_MIICOMMAND_Wr/expr_1 0.229983 1.551142 -2.530078 0.278163 0.750356 0.999741 -1.136945 1.475417 -0.392249 -1.125945 -1.286023 2.165632 0.700543 -0.729317 0.886894 -3.424059 0.591146 -0.231531 -0.875315 1.765613
eth_top/assign_3_RegCs/expr_1/expr_1 -1.176464 0.217308 1.285710 -1.223778 2.085872 -1.427570 1.832236 0.051036 -0.179429 3.359298 -0.841679 -1.723238 -1.080841 1.486869 0.589013 1.059701 0.985217 -1.708743 -0.801589 -0.182285
eth_registers/wire_MIIMODEROut 2.444047 4.256580 -1.275367 -1.492764 1.648917 -3.953656 1.752033 -0.736667 -3.491148 -1.238202 1.158781 3.534483 0.710759 -2.277507 -3.229597 -1.927290 6.387631 -1.996992 -0.795890 1.375031
eth_miim/reg_WCtrlData_q3 0.823736 -2.612745 -1.358724 -1.931045 -0.201473 1.130781 3.385255 -1.459726 -1.100493 -1.198862 1.918281 1.895516 -0.874219 -1.943869 -4.664177 -2.908370 2.929177 2.873348 -2.269720 0.094516
eth_outputcontrol/always_1/block_1/if_1/block_2/if_1/cond -0.537147 -2.501669 0.321687 -3.780410 0.786600 -4.625198 1.505426 -4.878096 -0.684597 -1.476555 3.649064 0.889793 -1.210192 -0.084202 -2.518395 0.542441 3.450521 1.453883 -2.239317 -1.351825
eth_top/assign_12_temp_wb_err_o/expr_1/expr_2 -0.822335 -1.335718 -0.074866 -1.676498 -2.148453 -2.081293 -0.645446 -1.360730 1.236170 0.388063 -0.645285 -0.536756 0.124402 0.216314 1.532507 0.777312 -0.448022 -0.792856 -0.429605 -1.691144
eth_register/input_SyncReset 7.762013 6.397745 -7.164029 -2.635767 -4.422810 -2.973990 1.678823 3.745228 2.894611 -4.999572 -5.354690 2.534670 1.598379 1.211789 -3.352822 -0.344850 1.175822 -2.492820 -0.949006 1.658994
eth_outputcontrol/wire_SerialEn -1.495376 2.391349 -2.241062 -2.501028 3.886128 -3.730710 -2.841364 0.538560 -0.781525 1.214050 -0.948438 1.515874 1.377378 1.744482 2.039574 0.779204 1.084711 -4.451167 1.923088 1.272240
eth_register/always_1/block_1/if_1 1.530331 5.175226 1.062180 0.427865 -2.707060 -3.731569 -1.186932 -1.412014 -0.975022 -3.515063 1.540600 0.487450 1.024256 0.065913 2.286658 1.998703 1.109279 1.188523 -0.475082 0.899493
eth_shiftreg/always_1/block_1/if_1/block_2/if_1/block_1/if_1/block_2 -0.531424 0.984994 0.049465 1.557365 -1.349108 2.774023 0.328247 2.049438 -0.034255 1.598113 -2.956571 -0.193248 -0.063859 -0.969228 2.966374 -3.957657 -0.011481 0.585575 -2.613697 1.042402
eth_shiftreg/always_1/block_1/if_1/block_2/if_1/block_1/if_1/block_1 -0.108321 -0.622340 -1.111083 0.872596 -0.935127 2.797655 -0.505797 0.934824 0.871448 -0.484315 -0.669632 0.964325 -0.078859 -1.078023 0.519866 -2.298469 -0.886912 1.550883 -0.679882 0.653073
eth_miim/assign_3_ScanStatusOp/expr_1 0.195645 1.611171 -2.531751 0.281925 0.787564 0.918525 -1.191791 1.477536 -0.387941 -1.037631 -1.302687 2.137015 0.711384 -0.703642 0.932902 -3.370014 0.588947 -0.300239 -0.836653 1.767465
eth_wishbone/always_1/block_1/stmt_1/expr_1/expr_2 -1.192535 0.209580 1.292292 -1.218181 2.081409 -1.433140 1.828432 0.050083 -0.196767 3.335262 -0.830974 -1.714257 -1.048485 1.502779 0.593310 1.060912 0.965695 -1.731472 -0.764024 -0.189514
eth_wishbone/always_1/block_1/stmt_1/expr_1/expr_1 -1.192136 0.090525 1.264083 -1.133488 2.028205 -1.138238 1.825274 0.118498 -0.097287 3.383469 -0.823365 -1.730105 -1.079139 1.424290 0.567253 0.995338 0.847189 -1.557729 -0.745833 -0.191327
eth_wishbone/always_26/block_1/if_1 -0.172803 1.306985 0.669870 -0.443210 -0.734791 -0.841632 0.279251 0.399359 1.952966 -0.008608 -0.108523 -0.335373 -1.038298 0.369337 0.951450 1.049960 0.385416 0.135365 -0.428978 0.640001
eth_top/wire_md_pad_o 0.685809 1.405023 2.039362 0.143246 1.159866 -3.341564 -0.097572 0.430202 -2.957621 1.205065 -1.457102 -1.792416 0.883417 0.098204 1.382717 0.607731 2.411716 -2.181784 -1.936860 -0.109368
eth_outputcontrol/always_2/block_1/if_1/block_2/if_1/block_1 -1.253942 3.939179 -1.044634 0.102233 2.588663 -1.809403 -2.154371 2.632590 -2.467955 2.314443 -3.555025 0.559416 2.085736 0.615815 4.155110 -2.476559 1.416533 -4.543791 0.119579 1.956679
eth_txstatem/assign_6_StartPAD -0.185714 1.170673 0.689649 -0.354400 -0.673935 -0.762908 0.249543 0.388186 1.871127 -0.006372 -0.076699 -0.366595 -0.967557 0.363358 0.927970 1.037701 0.331113 0.164870 -0.351501 0.557889
check_ethernet/always_1/if_1/cond -0.738296 0.300043 3.553854 0.896259 -0.049242 -0.750154 1.650873 -0.880136 -0.498332 1.270827 -0.036957 -3.548243 -1.465993 1.212746 1.474514 1.863554 -1.505776 -1.563866 0.369496 -1.227170
eth_miim/always_7/block_1/if_1/block_2/if_1 -0.079968 -0.505306 -0.101346 -1.460967 0.375962 -2.717064 0.311083 -1.759364 -1.658651 -1.205915 0.670331 0.382586 0.388443 -0.333854 -0.242783 -1.592455 2.449648 0.463578 -2.238733 -0.032335
eth_rxstatem/assign_2_StartPreamble/expr_1/expr_2 -0.197255 1.193026 0.637362 -0.391341 -0.688092 -0.830066 0.293361 0.401615 1.795538 -0.007412 -0.110088 -0.341016 -0.974867 0.347344 0.898137 0.993834 0.345308 0.116347 -0.392557 0.573393
eth_top/assign_1_ByteSelected -0.372577 -0.243739 0.964935 -2.256627 -0.578564 -6.971945 -0.114203 -3.179887 -0.507281 0.048390 -1.134314 -3.122958 0.205556 3.257767 2.046734 2.994012 -0.617516 -3.557912 -0.975068 -3.277983
eth_registers/assign_13_MIICOMMAND_Sel 0.958451 1.346354 -0.992679 0.702622 1.043429 -0.743446 -1.564621 1.349786 -1.167540 -1.431070 -0.386444 0.222953 1.719067 0.401815 -0.335365 0.673811 -0.524696 -1.584718 1.957950 0.696744
eth_transmitcontrol -0.165654 1.249357 0.650185 -0.410385 -0.737513 -0.848524 0.231637 0.436031 1.879588 -0.035156 -0.124279 -0.308164 -0.990095 0.332219 0.932820 1.065999 0.373500 0.175529 -0.393107 0.618085
eth_wishbone/always_2/block_1/if_1/if_1/cond/expr_1 -1.557242 -1.322769 0.039583 -0.835721 0.470107 2.277814 2.064702 0.007560 1.795151 3.355371 -0.661271 -0.197316 -2.294851 0.185131 0.309680 -0.707903 -0.441168 0.371510 -1.002110 -0.234581
eth_miim/always_1/block_1/if_1/block_1/stmt_1 0.669442 -2.442598 1.725049 -1.216547 -0.317114 -0.741934 3.919497 -1.088941 -2.241856 0.541773 1.191605 -1.554206 -0.253754 -0.634388 -3.715062 -0.056922 2.436600 1.295005 -1.595555 -0.940961
eth_outputcontrol/always_2/block_1/if_1/block_2/if_1/block_1/stmt_1/expr_1 -1.336044 3.647171 -0.937443 0.164652 2.685361 -1.476826 -1.999869 2.647261 -2.246993 2.492176 -3.464487 0.388324 1.805658 0.591744 3.984822 -2.305696 1.191321 -4.357027 0.132467 1.913409
eth_clockgen/always_1/block_1/if_1/block_1/if_1 -0.114051 0.741853 -0.285664 -2.392450 1.161980 -4.227184 0.535873 -1.079610 -2.825768 0.408983 -0.409839 0.470965 2.162305 1.019606 -0.158355 -0.947300 3.569555 -3.302318 0.366048 -0.457808
eth_miim/wire_MdcEn -0.829374 -1.427170 0.671729 -1.936885 -0.490216 -1.888801 1.608683 -2.792941 -0.484360 -0.026899 1.032698 0.332146 -1.186009 -0.756291 0.046344 -2.128105 2.763655 1.773490 -3.714783 -0.567734
eth_top/assign_22_Transmitting/expr_1 -0.199172 1.220598 0.701738 -0.401978 -0.710673 -0.802104 0.263073 0.417297 1.939309 -0.030080 -0.073309 -0.342465 -1.013851 0.388018 0.965306 1.080024 0.318734 0.150035 -0.408851 0.583907
eth_clockgen/reg_Counter -0.074618 1.261454 0.883055 -0.814216 0.618496 -2.805623 0.508674 -0.660090 -1.933795 0.237256 -0.353782 -0.281736 1.299787 1.200772 0.247478 -0.372951 2.231430 -2.631818 0.394331 -0.413433
eth_rxstatem/always_1/block_1 -0.214889 1.257171 0.694983 -0.403027 -0.687485 -0.807823 0.266653 0.393102 1.937466 -0.013275 -0.117703 -0.342356 -1.021879 0.360326 0.946728 1.020470 0.345428 0.160104 -0.403985 0.620703
eth_txstatem/assign_5_StartData/expr_1/expr_1 -0.177260 1.300952 0.677333 -0.436484 -0.710246 -0.890297 0.280774 0.430369 1.919518 -0.018254 -0.128052 -0.331496 -1.028702 0.389442 0.964988 1.052656 0.384046 0.135505 -0.428687 0.623752
