eth_miim/assign_7_ByteSelect 0.137713 -1.818539 0.759631 0.689512 -1.225875 2.449232 3.671964 0.199953 0.145154 0.928841 0.909339 -4.334397 -0.046174 -0.549274 -0.148608 0.218803 0.795334 3.348239 -0.241073 -2.557855
eth_top/input_wb_adr_i 2.441087 2.384912 -1.931801 0.883860 4.021911 -0.858858 -0.491551 -1.422589 -2.768270 -4.098228 0.530805 1.365904 -3.862582 -0.228011 -4.108127 0.608221 2.695535 -1.960446 -3.963934 -2.055630
eth_outputcontrol/always_2/block_1/if_1/block_2 -0.573539 3.881820 0.780900 -1.185364 0.533714 -1.582679 1.556921 0.799357 -0.259015 -0.391701 -2.972309 -2.268207 -0.863535 0.956537 -0.384226 1.354689 1.448912 0.184682 -4.057684 -1.706111
eth_outputcontrol/always_2/block_1/if_1/block_1 0.005684 3.083264 1.411862 -1.377952 -0.141755 -1.682653 1.642918 -0.292567 -1.175524 -0.056438 -5.470433 -2.795526 -0.711814 0.485557 -1.575064 2.060061 1.570285 -1.784527 -3.039095 -1.275498
eth_miim/assign_4_StartOp -0.296412 -0.893742 0.136762 -0.592669 -0.398224 -0.472520 0.105134 -1.053072 0.133460 -0.204554 0.583288 0.598556 1.116085 -0.644286 -0.968469 -3.059572 1.267725 1.413162 -3.383949 0.314165
eth_top/assign_14_wb_dat_o 0.258537 5.328095 -0.240099 -1.895830 0.614019 -4.484438 -0.733544 -0.281166 -0.028368 -1.835989 -5.024207 -0.386634 -1.596272 2.649530 -0.152093 2.455907 0.805023 -1.739312 -2.593206 -1.086814
eth_outputcontrol/reg_MdoEn_2d 1.084173 -1.220487 -0.846366 -0.591892 0.105981 -2.828246 -1.200647 -4.477293 0.087883 0.215147 0.948337 5.301141 0.234163 -0.336813 -3.056886 -2.622040 1.668650 -3.173883 -3.129244 -0.087626
eth_top/assign_8_BDCs/expr_1/expr_1 0.583157 0.629896 -0.288743 -1.367719 2.114431 -1.370055 1.854748 0.578677 1.282263 0.586970 -1.441051 -0.934651 -1.143602 1.553967 -1.516360 1.759405 0.517493 -2.614824 -0.549540 -2.064105
eth_miim/always_4/block_1/if_1/block_2/if_1 0.245446 -2.289055 0.235617 -1.028907 0.026328 -0.416522 1.462759 0.217299 0.158663 0.157545 -0.616906 -1.105161 1.464556 -0.419859 -2.077540 -3.598396 0.454718 1.262473 -2.850453 0.826156
eth_register/always_1/block_1/if_1/if_1/if_1/cond -0.840935 8.571706 1.269768 0.437845 -1.502443 -2.646412 -0.160056 -0.964757 -0.370303 -2.629431 4.202933 3.721789 -1.875615 1.068979 3.185641 0.094219 2.192262 2.487453 -1.621459 1.956475
eth_miim/assign_3_ScanStatusOp/expr_1/expr_1 -1.261474 -0.333087 0.534906 0.092464 -0.590512 1.835423 0.631264 0.815553 0.732977 -0.177995 1.834933 -1.787943 0.848301 -0.654895 1.238508 -1.146168 0.915610 3.940094 -1.912283 -0.685629
eth_miim/assign_3_ScanStatusOp/expr_1/expr_2 -0.082890 -2.389254 0.193695 0.812605 -0.872626 2.220244 2.291652 -0.527332 0.634220 1.018970 2.815912 -1.752438 0.531645 -0.747404 -0.278482 -1.012969 0.931560 3.038719 -0.933377 -1.919574
eth_top/inst_check_eth_top 1.026903 4.189210 0.226160 0.277237 1.236440 -1.604346 0.428173 0.909832 -1.667672 -1.139125 -1.362418 -0.003903 -3.304703 0.554914 1.165148 2.567136 -0.685598 -3.099908 2.351809 -0.945527
eth_miim/wire_MdcEn_n -1.358127 2.237778 1.398841 -0.787809 0.349000 0.477625 0.717317 0.504348 -0.861763 1.169111 -3.052248 -2.062156 0.978159 -0.598121 -0.449975 1.024379 1.824455 -0.614284 -4.137063 -1.098835
eth_wishbone/reg_TxEn_needed 1.220504 -2.805005 -0.676800 0.260520 1.121596 0.812048 2.217851 0.293564 0.873312 1.797080 0.546109 -1.093027 -0.602033 0.570632 -1.469241 1.082552 -0.598364 -1.697440 1.746012 -2.275269
eth_top/always_4/block_1 0.558499 0.883981 0.912270 -0.438557 -0.874965 -0.947052 1.351850 -0.657917 0.872688 -0.535631 0.548380 0.293750 -0.918970 0.567470 -0.230213 1.445756 0.355049 0.075787 1.178431 0.278079
eth_register/reg_DataOut -0.026110 5.127862 0.501609 0.605312 -2.662352 -3.402260 0.546021 -2.741704 -1.821514 -2.468127 2.134928 1.822841 0.149079 0.539396 1.282606 0.535980 1.211206 1.305938 0.370766 0.696032
eth_registers/wire_r_MiiNoPre -0.037159 -2.380347 0.190240 0.780450 -0.893788 2.145317 2.346573 -0.533432 0.600514 1.020288 2.698551 -1.831935 0.503496 -0.725408 -0.309085 -0.976763 0.944194 3.019639 -0.922562 -1.932775
eth_rxstatem/assign_3_StartSFD 0.530340 0.807233 0.867908 -0.440246 -0.844252 -0.896328 1.310668 -0.600005 0.837435 -0.509902 0.544707 0.234231 -0.862461 0.516340 -0.185961 1.361787 0.322215 0.085485 1.112379 0.277585
eth_txstatem/reg_StateFCS 0.535141 0.852191 0.865140 -0.414245 -0.857715 -0.893248 1.329743 -0.637667 0.795129 -0.540756 0.526413 0.247903 -0.887715 0.547836 -0.195922 1.364972 0.342345 0.087899 1.134011 0.282061
eth_outputcontrol/reg_MdoEn_d 1.103296 -1.081235 -0.811361 -0.666390 0.113724 -2.934827 -1.153559 -4.389765 0.093513 0.169404 0.829485 5.218783 0.157395 -0.250084 -3.047537 -2.474105 1.649935 -3.256639 -3.040501 -0.164170
eth_txethmac/always_13/block_1/if_1/stmt_2 0.538914 0.778902 0.852393 -0.420649 -0.840117 -0.848793 1.258247 -0.585557 0.800824 -0.538335 0.524753 0.278736 -0.860429 0.546357 -0.197206 1.343639 0.287841 0.109688 1.132310 0.294879
eth_miim/always_6/block_1/if_1 -0.266405 -1.202519 0.117955 -0.482023 -0.546363 -0.254017 0.128829 -1.100099 0.045490 -0.190097 0.631493 0.513279 1.252785 -0.819394 -0.993483 -3.263683 1.228587 1.581103 -3.299791 0.412702
eth_miim/always_4/block_1/if_1/block_2/if_1/block_2/if_2/cond -1.625605 -0.921332 -0.090989 0.648140 -0.770245 1.957397 -1.978018 0.733090 0.305026 -0.618754 3.124006 0.784848 2.037072 -1.323947 1.783395 -3.064712 0.131038 4.106656 -1.583647 1.992839
eth_registers/input_Rw 0.458321 1.618920 -0.103226 -0.876231 -3.070983 -2.843951 -2.927350 -1.377746 1.815567 -2.096584 0.720861 2.978847 -1.247324 0.533300 2.639950 -1.574872 -1.093696 4.392570 -0.593124 2.224193
eth_wishbone/reg_TxBDReady 0.542243 0.722844 0.838646 -0.387322 -0.856646 -0.849476 1.272700 -0.600787 0.793539 -0.475064 0.521245 0.223771 -0.851439 0.536361 -0.197902 1.360618 0.293678 0.075287 1.203132 0.284603
eth_rxstatem/assign_1_StartIdle/expr_1/expr_2/expr_1/expr_1 0.562660 0.768216 0.864740 -0.422663 -0.843955 -0.837788 1.312180 -0.594434 0.811710 -0.481492 0.530619 0.263450 -0.859692 0.547603 -0.200382 1.368591 0.321596 0.121932 1.192975 0.290076
eth_outputcontrol/reg_MdoEn 1.093786 -1.253383 -0.820380 -0.590683 0.136572 -2.719358 -1.166821 -4.343833 0.088385 0.272587 0.919272 5.166770 0.237779 -0.353812 -2.997675 -2.549644 1.659113 -3.146230 -3.026086 -0.128182
eth_register/always_1/block_1 -0.137575 5.206644 0.552167 0.651227 -2.709162 -3.362655 0.613967 -2.724442 -1.921081 -2.471645 2.164068 1.825976 0.319025 0.464789 1.293421 0.388818 1.283487 1.385822 0.218869 0.802157
eth_top/assign_16_temp_wb_ack_o/expr_1/expr_1 0.579833 0.713925 -0.268315 -1.445961 2.203355 -1.430203 1.852104 0.591952 1.308984 0.550005 -1.593672 -0.990022 -1.147515 1.631545 -1.562976 1.836572 0.586745 -2.669177 -0.596424 -2.086051
eth_top/reg_temp_wb_dat_o_reg 0.218689 5.289401 -0.200592 -1.920600 0.665965 -4.419970 -0.742565 -0.221348 0.019102 -1.708496 -4.996583 -0.350835 -1.567610 2.640485 -0.105558 2.396679 0.785300 -1.735025 -2.580186 -1.106767
eth_miim/reg_RStatStart_q1 -2.048947 0.517408 -0.200550 1.097753 -1.336264 1.807381 -3.207993 -0.909624 0.263927 -1.007945 4.315516 2.575117 1.461563 -1.527243 2.890413 -2.445859 1.009437 4.088260 -1.944581 1.236063
eth_miim/reg_RStatStart_q2 -0.843769 -1.523479 -0.501248 1.839541 -1.644913 2.200044 -1.609687 -2.168732 0.094069 0.148244 5.197808 2.507673 1.209079 -1.667133 1.362946 -2.294274 1.015233 3.279927 -1.016798 0.107270
eth_clockgen/input_Divider -0.803396 3.452060 1.258245 -1.627634 0.882622 -3.215992 2.530931 0.395923 1.392258 0.333420 2.217599 2.730672 1.959028 0.987387 -1.774665 -4.865017 2.213388 0.971979 -7.493257 3.018901
eth_wishbone/always_1/block_1/stmt_1 0.596121 0.653762 -0.242852 -1.409808 2.119569 -1.424895 1.809427 0.563819 1.298104 0.505868 -1.467150 -0.930843 -1.165834 1.594025 -1.510370 1.820556 0.521702 -2.621884 -0.508315 -2.082056
eth_top/inst_rxethmac1 0.531740 0.789688 0.871960 -0.406424 -0.855225 -0.851040 1.301731 -0.611051 0.803553 -0.502823 0.562548 0.235748 -0.866486 0.552611 -0.209532 1.377879 0.327562 0.120692 1.192270 0.275982
check_ethernet/reg_wb_wr_dat 1.084047 4.299692 0.230927 0.210265 1.283617 -1.780564 0.456869 0.871048 -1.728380 -1.199641 -1.567036 -0.024643 -3.355136 0.606150 1.114477 2.650308 -0.713860 -3.261961 2.325459 -0.999399
eth_miim/reg_RStatStart -1.701128 -0.905011 -0.046147 0.633981 -0.734144 2.024973 -1.970125 0.790060 0.332446 -0.623724 3.109239 0.761217 2.068182 -1.351254 1.864688 -3.091304 0.166517 4.175352 -1.674124 1.943335
eth_outputcontrol/always_1/block_1/if_1/block_2/if_1 1.050940 -1.095234 -0.820187 -0.613514 0.064352 -2.827509 -1.233523 -4.495310 0.101375 0.222971 1.016815 5.345610 0.220530 -0.323015 -2.961733 -2.549339 1.762448 -3.101461 -3.177874 -0.201317
eth_registers/wire_r_ScanStat -1.261813 -0.370952 0.497380 0.111908 -0.586024 1.835806 0.684279 0.773703 0.688684 -0.130099 1.841546 -1.747773 0.790452 -0.627442 1.195534 -1.127244 0.915228 3.879726 -1.833558 -0.737505
eth_txstatem/assign_3_StartPreamble/expr_1/expr_1 0.488764 0.785812 0.835960 -0.431719 -0.826465 -0.863474 1.218148 -0.575036 0.746736 -0.479840 0.528426 0.253603 -0.823539 0.521387 -0.162572 1.255363 0.310306 0.122800 1.075323 0.315146
eth_top/assign_7_BDCs/expr_1/expr_1/expr_1/expr_1/expr_1 1.169286 -2.880127 -0.713460 0.296254 1.090450 0.888603 2.183776 0.252879 0.841861 1.821796 0.630499 -1.102373 -0.534831 0.484590 -1.466187 0.901566 -0.592361 -1.559233 1.644997 -2.281338
eth_miim/always_8/block_1/if_1/block_1/if_1/block_1/if_1/cond -1.239746 -0.425240 0.440071 0.082822 -0.586542 1.766861 0.479595 0.744485 0.670333 -0.128035 1.903671 -1.545051 0.892662 -0.650158 1.178746 -1.234462 0.878051 3.795039 -1.869927 -0.562259
eth_top/assign_2_RegCs/expr_1/expr_1/expr_1/expr_1/expr_1 1.094669 -2.626961 -0.653730 0.239098 1.034675 0.753012 2.058814 0.237914 0.804274 1.716889 0.576673 -0.983544 -0.504742 0.523279 -1.375425 0.910461 -0.568499 -1.540754 1.498337 -2.175378
eth_top/assign_5_RegCs -0.900979 2.424159 -0.447713 -0.758971 1.900162 -1.456231 3.011268 0.855398 2.493455 2.264683 2.920248 0.349328 0.017793 2.048023 0.248525 -1.856806 1.910750 0.406269 -5.396984 -2.979142
eth_outputcontrol/always_2/block_1 -0.040577 3.394433 0.944632 -1.051534 -0.036925 -1.898302 1.291095 -0.135220 -0.335452 -0.319888 -3.015195 -1.292327 -0.722366 0.600146 -1.121359 1.331807 1.398352 -0.148765 -3.872447 -0.873163
eth_wishbone/always_27/block_1/if_1/stmt_2 0.534295 0.797355 0.865356 -0.433549 -0.851677 -0.897999 1.255609 -0.620174 0.805973 -0.505609 0.529369 0.276719 -0.861443 0.558598 -0.196984 1.359362 0.306299 0.120116 1.183836 0.287544
eth_miim/assign_1_WriteDataOp 0.336873 -2.235929 0.283578 -1.098984 0.024606 -0.652705 1.556734 0.151719 0.156863 0.182477 -0.795054 -1.067152 1.463169 -0.384109 -2.259252 -3.648218 0.519049 1.136713 -3.014911 0.767223
eth_rxstatem/always_1/block_1/if_1/block_2/if_1/cond/expr_1 0.543216 0.856146 0.850367 -0.435806 -0.820010 -0.882360 1.293385 -0.603756 0.801118 -0.510410 0.515676 0.271459 -0.878589 0.522647 -0.173607 1.373134 0.335761 0.111491 1.116325 0.275582
eth_miim/inst_outctrl -0.130518 2.568888 0.651205 -0.505710 -0.054154 -1.014552 0.150471 -0.373004 -0.547654 0.163369 -2.395237 -0.404133 -0.182579 -0.005010 -0.876436 1.679911 0.912857 -0.432511 -2.994263 -0.265252
eth_wishbone/always_1/block_1 0.603826 0.669691 -0.272311 -1.403909 2.140668 -1.405797 1.776975 0.542660 1.281138 0.475289 -1.495802 -0.916942 -1.179059 1.603169 -1.517100 1.846192 0.532590 -2.627369 -0.497919 -2.037306
eth_top/assign_9_BDCs 0.656150 0.592596 -0.288543 -1.343305 2.122242 -1.310810 1.819158 0.581321 1.277650 0.538833 -1.429489 -0.944144 -1.163422 1.557228 -1.502966 1.849843 0.517709 -2.631141 -0.421734 -2.052356
eth_outputcontrol/always_1/block_1 1.094802 -1.294245 -0.845901 -0.587509 0.079619 -2.779797 -1.214705 -4.535048 0.104578 0.255256 0.938365 5.249138 0.183888 -0.351945 -3.035837 -2.507940 1.700278 -3.226798 -3.063862 -0.251654
eth_txethmac 0.526624 0.870890 0.890285 -0.464440 -0.857642 -0.926336 1.366414 -0.659835 0.821676 -0.551239 0.557473 0.300730 -0.904708 0.561398 -0.221200 1.360506 0.376071 0.121516 1.066480 0.288500
eth_miim/reg_InProgress 0.167138 -0.489984 0.055319 -0.706583 -0.415854 -1.270385 0.144475 -2.571550 0.079320 -0.162855 0.204105 1.453187 0.249325 -0.468629 -1.592471 -2.039529 1.914817 -0.022205 -3.494432 -0.858713
eth_miim/always_7/block_1/if_1/block_2/if_1/block_1/if_1/block_2/if_1/cond 0.836321 -6.026972 -0.133216 0.723959 -1.073990 2.147216 2.641373 -3.085824 -0.012111 2.190730 1.869268 -1.072865 1.286251 -1.746223 -3.274440 -2.842266 1.823244 1.008916 -2.414141 -2.988661
eth_wishbone/reg_WbEn 0.617453 -1.740370 -0.453158 0.271176 0.617684 0.684920 0.994323 0.248316 0.372992 0.995558 0.240737 -0.663728 -0.210777 0.157567 -0.742955 0.510982 -0.498385 -0.857956 1.081112 -1.102489
eth_txethmac/wire_StatePAD 0.549327 0.821222 0.859510 -0.399080 -0.859491 -0.886581 1.282796 -0.594481 0.797445 -0.543126 0.532366 0.280914 -0.898052 0.547198 -0.178321 1.439104 0.286536 0.104396 1.208212 0.272256
eth_clockgen/always_1/block_1/if_1/block_1/if_1/stmt_1/expr_1 -2.288630 2.502184 0.696576 -2.381944 1.020920 -2.483608 0.337799 -0.416327 1.910063 0.850461 -1.325399 0.929657 0.712589 1.457607 0.643552 -1.948816 2.448640 -2.072104 -4.495656 -1.197054
eth_registers/assign_112_r_ScanStat -1.267807 -0.186038 0.487219 0.033636 -0.523567 1.634828 0.580692 0.766488 0.713582 -0.166297 1.796586 -1.552048 0.790452 -0.559972 1.195430 -1.104093 0.902549 3.707941 -1.898720 -0.660568
eth_miim/always_6/block_1/if_1/block_2/if_1/block_1/stmt_10 -0.043639 -2.435969 0.210727 0.838201 -0.884511 2.289551 2.281484 -0.523926 0.607427 1.009119 2.825758 -1.746492 0.558629 -0.789228 -0.249487 -1.007049 0.938900 3.047842 -0.882394 -1.924794
eth_miim/always_6/block_1/if_1/block_2/if_1/block_1/stmt_11 1.820703 -2.634776 -0.187877 -0.994293 0.074122 -2.386474 1.238048 -1.437718 -0.624681 0.377380 -1.879182 0.990658 0.865196 -0.050838 -3.930206 -3.376671 -0.041617 -2.199819 -1.621528 1.478130
eth_top/assign_7_BDCs/expr_1 0.564339 0.661414 -0.273241 -1.385606 2.103637 -1.363791 1.783811 0.551715 1.292014 0.521490 -1.384365 -0.893431 -1.121697 1.563837 -1.496340 1.724963 0.588352 -2.490853 -0.618270 -2.035797
eth_miim/always_8/block_1/if_1/block_1/if_1/block_1/if_1/block_1/if_1 0.628476 -3.502137 -0.293667 0.892020 -1.396513 1.150462 1.154859 -5.731722 0.079009 1.644141 2.558251 1.556458 -0.252083 -1.601888 -2.423323 -0.740936 3.228089 -0.416884 -2.844600 -4.789663
eth_txethmac/always_13 0.527940 0.847694 0.851241 -0.430622 -0.877692 -0.919645 1.283307 -0.598119 0.799252 -0.513048 0.511607 0.272756 -0.898291 0.527919 -0.176200 1.351919 0.294344 0.085662 1.159801 0.336516
eth_register/always_1 -0.048280 5.238754 0.571587 0.510562 -2.722497 -3.690178 0.777709 -2.802106 -1.825055 -2.525185 2.150591 1.961897 0.339628 0.576284 1.133725 0.286613 1.274748 1.280831 0.213360 0.903911
eth_shiftreg/input_Rgad -0.008801 -2.361072 0.030456 1.021743 -1.024154 2.250798 0.487919 -0.045406 -0.260337 0.274968 1.419588 -1.360794 0.621348 -1.080052 0.205066 -0.702439 -0.193705 2.314587 0.791560 -0.148571
eth_top/assign_5_RegCs/expr_1 -0.981584 2.224256 -0.478143 -0.756984 1.925756 -1.396377 2.643265 0.848271 2.498272 2.238162 2.884287 0.596105 0.153182 1.949059 0.274451 -2.014526 1.837602 0.260364 -5.323323 -2.718955
eth_maccontrol/wire_TxStartFrmOut 0.540743 0.869629 0.868479 -0.448425 -0.845604 -0.957592 1.334733 -0.648157 0.849008 -0.553101 0.549913 0.285172 -0.891917 0.564328 -0.224120 1.352159 0.383589 0.104207 1.080491 0.284051
eth_registers/wire_MIIADDRESSOut 0.019083 -2.372632 0.045754 1.008789 -0.982288 2.178016 0.459462 -0.045422 -0.270425 0.293584 1.407582 -1.277476 0.614691 -1.034750 0.151676 -0.736547 -0.240139 2.212808 0.813816 -0.101470
eth_miim/assign_9_ByteSelect 0.162611 -1.785296 0.768166 0.651876 -1.241256 2.352043 3.708090 0.195007 0.149133 0.924576 0.883141 -4.307885 -0.087386 -0.516089 -0.198768 0.221955 0.788695 3.294694 -0.277393 -2.604782
eth_clockgen/always_1/block_1 -1.206876 2.752933 0.634554 -1.385841 0.477823 -1.817620 0.508722 0.148108 0.652364 0.046926 -1.512400 -0.041139 -0.177464 1.342549 0.542578 -0.894515 1.526814 -1.544009 -2.612964 -0.611356
eth_miim/wire_Mdc 0.755869 3.215173 0.138228 -5.169990 2.159492 -8.292933 2.189537 0.526822 2.077976 -0.803588 -5.902527 0.748897 -0.480745 3.843909 -2.329190 -2.387220 0.231670 -4.981965 -3.094937 1.015477
eth_top/wire_TxStartFrmOut 0.528905 0.781938 0.826207 -0.429211 -0.805140 -0.855139 1.266767 -0.577648 0.788785 -0.499524 0.532288 0.243991 -0.847643 0.532853 -0.196880 1.359482 0.320057 0.083347 1.107719 0.257820
eth_rxstatem/always_1/block_1/if_1 0.545464 0.750446 0.834740 -0.410827 -0.814201 -0.835055 1.269569 -0.579653 0.797292 -0.502335 0.557768 0.256698 -0.827271 0.522098 -0.204508 1.353489 0.296924 0.120733 1.170661 0.290767
eth_clockgen/assign_4_MdcEn 1.356791 -1.623087 -0.171648 -0.122885 -0.801481 -1.349041 1.796718 -3.945283 0.136107 0.711253 1.272637 1.715912 -0.325743 -0.357289 -2.778866 -1.720647 2.031612 -0.756626 -2.705628 -2.027402
eth_miim/wire_Mdo -0.080275 3.369448 0.986177 -1.071292 -0.042062 -1.824444 1.334711 -0.117194 -0.415531 -0.304556 -3.144556 -1.473945 -0.710497 0.583440 -1.094632 1.409427 1.465483 -0.238323 -3.809180 -0.919414
eth_top/inst_maccontrol1 0.540477 0.845408 0.839421 -0.461631 -0.843762 -0.892943 1.270829 -0.604904 0.827598 -0.537604 0.542937 0.259508 -0.854462 0.538658 -0.209681 1.357609 0.333940 0.140630 1.085536 0.306508
eth_txstatem/assign_5_StartData/expr_1/expr_1/expr_1 0.563424 0.801586 0.848989 -0.417384 -0.890233 -0.899591 1.306506 -0.642182 0.810575 -0.531654 0.579452 0.236656 -0.865001 0.559206 -0.221189 1.400267 0.321001 0.108745 1.197931 0.300870
eth_txstatem/reg_StateData 0.514039 0.841234 0.819131 -0.408015 -0.778414 -0.873153 1.249135 -0.578328 0.777850 -0.524828 0.476317 0.253978 -0.857171 0.524957 -0.211729 1.351196 0.301235 0.066634 1.098925 0.252654
eth_miim/always_3/block_1/if_1/block_2/if_1 -1.318094 -0.303276 0.454769 0.047545 -0.552265 1.737442 0.485079 0.829483 0.694028 -0.178930 1.828605 -1.572889 0.905674 -0.617870 1.298374 -1.238554 0.862777 3.915504 -1.899368 -0.540990
eth_register/always_1/block_1/if_1/stmt_1 -1.019631 8.547670 1.044071 0.347352 -1.313059 -2.826385 -0.317671 -0.950009 -0.525295 -2.026901 3.533257 3.597973 -1.477358 1.019281 3.194695 -0.303731 2.062225 2.019812 -2.349602 1.570220
eth_top/wire_RegDataOut 1.518614 3.997283 -1.373303 -0.788992 0.199328 -4.537671 -2.424412 -2.279798 -1.191827 -2.716652 -2.706023 2.305360 -2.810477 1.157182 0.061591 0.780238 0.056156 -1.681063 -1.274806 -1.472706
eth_txstatem/always_1/block_1/if_1/block_2/if_6/if_1 0.535905 0.771823 0.851743 -0.414865 -0.825853 -0.861481 1.285896 -0.592303 0.759834 -0.507802 0.543296 0.268396 -0.881463 0.541598 -0.185864 1.362378 0.304066 0.105777 1.188868 0.317700
eth_wishbone/always_6/block_1/if_1/if_1/if_1 0.518282 0.786953 0.811181 -0.430890 -0.810920 -0.855745 1.228599 -0.585392 0.768024 -0.517695 0.492649 0.255011 -0.884746 0.533397 -0.186456 1.384643 0.297204 0.066678 1.144417 0.281433
eth_registers/assign_39_MIIMODER_Wr -0.873422 3.144769 1.267723 -1.588978 0.833118 -2.963150 2.522886 0.473714 1.384673 0.468067 2.184820 2.546046 2.056850 0.815578 -1.797354 -4.827869 2.187849 1.138048 -7.516596 2.971446
eth_top/assign_9_BDCs/expr_1/expr_1 0.618202 0.594150 -0.257041 -1.360784 2.120570 -1.361807 1.826961 0.577136 1.301898 0.557452 -1.455489 -0.914800 -1.115222 1.586979 -1.550848 1.824727 0.547356 -2.608521 -0.478783 -2.044059
eth_miim/input_Rgad 0.042652 -2.394362 0.041599 1.034484 -0.992742 2.202390 0.530743 -0.031092 -0.224829 0.307258 1.391889 -1.368372 0.633351 -1.038339 0.118379 -0.725088 -0.221054 2.291122 0.796923 -0.176760
eth_wishbone/always_6 0.516821 0.825974 0.865795 -0.439974 -0.827504 -0.875925 1.247914 -0.627647 0.790788 -0.520711 0.546352 0.272479 -0.808250 0.520645 -0.183859 1.309816 0.369906 0.166781 1.032495 0.303616
eth_miim/wire_EndOp 0.753360 -5.971489 -0.155147 0.686905 -1.103977 2.161163 2.552995 -3.097826 0.013150 2.193136 1.902224 -0.956504 1.337346 -1.756904 -3.248164 -2.912380 1.845622 1.059667 -2.532207 -2.922762
eth_wishbone/always_24/block_1 0.534111 0.776624 0.841480 -0.389910 -0.861750 -0.860247 1.261983 -0.605435 0.770656 -0.502072 0.525411 0.260405 -0.870838 0.530503 -0.163367 1.365391 0.290252 0.118659 1.206722 0.300935
eth_top/wire_r_WCtrlData -1.278600 -0.397838 0.453011 0.106964 -0.564499 1.920984 0.568596 0.812143 0.696055 -0.115584 1.888426 -1.711276 0.859567 -0.645866 1.238410 -1.113236 0.882964 3.895583 -1.803916 -0.720502
eth_top/assign_3_RegCs/expr_1 0.611125 0.644418 -0.274826 -1.366053 2.100600 -1.366515 1.796315 0.525725 1.262304 0.487189 -1.379239 -0.869425 -1.120540 1.541359 -1.490003 1.784172 0.531143 -2.564570 -0.480148 -2.011211
eth_txstatem/assign_7_StartFCS/expr_1/expr_1/expr_1 0.502662 0.789632 0.856066 -0.403788 -0.811247 -0.867968 1.245538 -0.608214 0.781952 -0.502620 0.516440 0.269439 -0.871374 0.539231 -0.183160 1.307166 0.292847 0.093753 1.088497 0.316742
eth_top/assign_6_BDCs/expr_1/expr_1 0.621577 0.597225 -0.253444 -1.376068 2.092681 -1.343574 1.831814 0.549958 1.287210 0.529552 -1.431724 -0.909932 -1.116393 1.574375 -1.498789 1.781776 0.559240 -2.549248 -0.513359 -2.045103
eth_top/always_1/block_1 0.023199 2.739362 -0.719968 -2.849061 1.208987 -3.573901 -1.475089 -0.733752 2.351914 -0.693677 -3.621013 0.510178 -1.494428 2.224275 0.263907 2.674107 0.339907 -1.750724 -1.165727 -2.102148
eth_rxethmac 0.533472 0.786001 0.824623 -0.410397 -0.777927 -0.846858 1.251148 -0.581108 0.764917 -0.493641 0.510713 0.252937 -0.837499 0.493097 -0.190291 1.317410 0.293339 0.058371 1.083456 0.257624
eth_registers/wire_r_WCtrlData -1.256262 -0.364868 0.437773 0.067460 -0.499910 1.752743 0.504856 0.767943 0.748373 -0.166588 1.832748 -1.543385 0.817408 -0.627405 1.211051 -1.119311 0.861163 3.751625 -1.808969 -0.630681
eth_miim/reg_EndBusy 1.905870 -2.631915 -0.218809 -1.027376 0.089630 -2.541182 1.332029 -1.342897 -0.645387 0.405819 -1.998825 0.999376 0.867375 -0.005587 -4.004249 -3.401562 -0.139739 -2.330583 -1.540512 1.628902
eth_wishbone/always_26/block_1/if_1/stmt_2 0.569148 0.828260 0.875170 -0.404690 -0.914075 -0.913705 1.356973 -0.627123 0.847564 -0.567317 0.623272 0.272726 -0.915374 0.546095 -0.201017 1.392006 0.338231 0.143469 1.179872 0.317182
eth_miim/always_8/block_1/if_1/stmt_1 1.887853 2.021809 -0.555195 -2.547554 2.569647 -4.473694 0.516244 1.149349 0.740524 -0.260289 -5.415373 0.316353 -2.395786 2.780068 -1.549666 3.587112 -1.927234 -6.265385 2.851277 -0.295456
eth_outputcontrol -0.091581 2.643975 0.782321 -0.494062 -0.252919 -1.159353 0.225633 -0.535933 -0.553837 0.103355 -2.434173 -0.375695 -0.185074 -0.000840 -0.869078 1.714992 0.991516 -0.448422 -2.886566 -0.108548
eth_outputcontrol/reg_Mdo_2d -3.032848 3.946290 1.901722 -2.033772 1.313929 0.898159 2.150424 2.636916 1.915722 0.356368 -1.035376 -3.730767 -0.229070 0.781897 2.273652 2.591245 2.271686 2.139383 -4.011597 -3.661433
eth_top/wire_BDCs 0.659790 0.576706 -0.294300 -1.390683 2.157125 -1.370422 1.877636 0.543588 1.317904 0.550237 -1.386129 -0.933054 -1.203544 1.606261 -1.564795 1.846335 0.551154 -2.665099 -0.468636 -2.128658
eth_registers/always_1/block_1 1.497908 4.093212 -1.333199 -0.774179 0.095560 -4.663339 -2.422744 -2.443275 -1.254535 -2.787351 -2.648867 2.415154 -2.715360 1.203224 0.060176 0.701031 0.122561 -1.592088 -1.304120 -1.441172
eth_clockgen/assign_2_CounterPreset/expr_1 1.011175 4.438080 -0.018972 0.007934 1.451053 -1.854211 1.523873 0.482816 -0.041741 -2.267622 2.313029 0.884152 -1.184905 0.717379 -1.426506 -1.055791 1.725764 2.733061 -5.102856 1.225746
eth_transmitcontrol/reg_WillSendControlFrame 0.510912 0.790079 0.825475 -0.431500 -0.824120 -0.866114 1.272508 -0.600951 0.773479 -0.525818 0.525107 0.273109 -0.866191 0.530741 -0.212297 1.334776 0.301088 0.090023 1.089757 0.284559
eth_miim/assign_3_ScanStatusOp/expr_1/expr_1/expr_2 -0.026637 -2.160493 0.190922 0.672240 -0.821570 1.949987 2.291981 -0.555028 0.635524 0.969793 2.543665 -1.711963 0.431836 -0.662996 -0.317722 -0.870094 0.960388 2.785838 -0.933260 -1.942041
eth_miim/assign_3_ScanStatusOp/expr_1/expr_1/expr_1 -1.357248 -0.051216 0.536916 0.005883 -0.500659 1.777083 0.591144 0.945140 0.752914 -0.221410 1.663511 -1.831785 0.730486 -0.528119 1.351591 -0.883498 0.916727 3.843232 -1.861929 -0.748280
eth_miim/always_7/block_1/if_1/block_2/if_1/block_1/if_1/block_1/stmt_1 1.378609 -1.840755 -0.146768 -0.164601 -0.726478 -1.299607 1.883633 -3.786500 0.069491 0.784109 1.030496 1.495330 -0.249797 -0.385749 -2.924993 -1.731498 1.919749 -0.900176 -2.639933 -1.985848
eth_rxstatem/assign_7_StateData 0.513150 0.876676 0.899992 -0.452923 -0.883345 -0.962731 1.329041 -0.628223 0.842587 -0.505594 0.560769 0.307603 -0.878353 0.577319 -0.169563 1.321150 0.369817 0.164420 1.010848 0.290185
eth_rxstatem/reg_StateDrop 0.549242 0.738068 0.853666 -0.404095 -0.839066 -0.825379 1.307177 -0.583577 0.777971 -0.507511 0.549028 0.239819 -0.868481 0.529530 -0.218355 1.392130 0.281804 0.105432 1.223582 0.257900
eth_registers/wire_MAC_ADDR0Out 1.226021 5.131318 -0.829774 -0.441473 -1.814641 -5.276857 -1.508267 -3.529922 -1.616047 -3.256792 -1.232983 2.861202 -1.703436 1.354103 0.476906 1.328554 0.355796 -0.460392 0.055744 -0.637621
eth_wishbone/always_2/block_1/if_1/if_1/if_1 1.134172 -2.681336 -0.659092 0.277529 1.072391 0.802657 2.111123 0.245238 0.840886 1.775386 0.589078 -1.063750 -0.537192 0.558686 -1.440066 0.938283 -0.586337 -1.571942 1.551893 -2.217813
eth_miim/assign_1_WriteDataOp/expr_1/expr_1 1.460078 -4.946504 -0.556652 0.072589 -0.547287 -0.440070 0.999078 -1.318714 -0.397725 0.870824 1.297325 1.358186 2.310370 -1.081050 -3.566964 -5.663872 -0.195356 0.422807 -1.962805 2.268325
eth_clockgen/always_2/block_1/if_1/stmt_1 0.369860 3.112096 1.540002 -1.912436 0.593075 -3.229184 5.055689 2.660987 -2.258298 1.251975 -6.532402 -5.193791 1.106476 1.504024 -1.955547 -2.294477 0.355578 -2.684570 -3.065262 0.842515
eth_clockgen/always_1 -1.142539 2.857421 0.595852 -1.318267 0.678680 -1.858501 0.729850 0.197198 0.529928 0.114939 -1.463708 -0.161019 -0.191755 1.360360 0.408079 -0.977089 1.612064 -1.660697 -2.891172 -0.826110
eth_clockgen/always_2 -2.143321 2.317679 2.090945 -1.708613 -0.532124 -1.023234 1.253328 0.341515 -0.138898 1.844000 -3.826267 -1.154288 1.485336 0.532149 -0.027659 -1.471813 1.973851 -2.689920 -3.807627 -0.112588
eth_rxstatem/assign_1_StartIdle 0.509528 0.772193 0.826432 -0.426528 -0.846163 -0.889312 1.238606 -0.607066 0.799368 -0.499761 0.530546 0.262948 -0.830193 0.541980 -0.191731 1.321347 0.326554 0.119740 1.122870 0.276542
eth_miim/always_1/block_1/if_1/block_2/stmt_2 1.869463 -2.624361 -0.248714 -1.098628 0.214029 -2.470407 1.298896 -1.288632 -0.640817 0.456777 -2.218317 0.830538 0.799443 0.032078 -4.012247 -3.202772 -0.105070 -2.497058 -1.552259 1.403177
eth_registers/assign_113_r_RGAD -0.004576 -2.405158 0.029603 1.053512 -0.984245 2.237972 0.475754 -0.050106 -0.245203 0.266905 1.430594 -1.354321 0.683018 -1.101433 0.173712 -0.769924 -0.219149 2.323371 0.810629 -0.143170
eth_miim/always_1/block_1/if_1/block_2/stmt_1 1.819997 -2.688712 -0.216992 -1.020562 0.128867 -2.391246 1.234909 -1.408843 -0.645633 0.445582 -1.996135 0.962262 0.832597 -0.044263 -3.960500 -3.298290 -0.067024 -2.381513 -1.570369 1.414707
eth_txstatem/assign_3_StartPreamble 0.534320 0.751778 0.824010 -0.418592 -0.815122 -0.827420 1.287727 -0.572446 0.798155 -0.505606 0.520551 0.245106 -0.860308 0.546427 -0.223577 1.371519 0.298370 0.095170 1.144394 0.273159
eth_miim/always_8/block_1 -2.396194 0.917334 0.833568 -1.500366 0.640493 0.793893 -0.994152 -1.003046 1.731993 0.903667 -0.494544 0.249821 0.275400 -0.347282 1.103014 2.030216 2.326904 -0.294410 -3.147463 -3.279317
check_ethernet/input_wb_adr_i 1.017643 4.111722 0.161399 0.237273 1.370281 -1.594192 0.469387 0.939664 -1.591359 -1.102341 -1.464831 -0.072605 -3.273284 0.591715 1.029491 2.576484 -0.665694 -3.188602 2.215088 -1.066173
eth_miim/always_6/block_1/if_1/block_2/if_1 -0.116474 -1.123628 0.068841 -0.558047 -0.508170 -0.467146 0.226988 -1.371853 0.040571 -0.107201 0.517530 0.666678 1.041079 -0.692451 -1.147720 -3.066933 1.309585 1.183540 -3.253149 0.128226
eth_registers/assign_2_Read 0.416664 1.679574 -0.125103 -0.879923 -3.168713 -2.908477 -3.043545 -1.460447 1.822380 -2.149017 0.738781 3.053355 -1.223473 0.542201 2.682877 -1.629817 -1.107710 4.581129 -0.616563 2.337121
eth_txethmac/inst_txstatem1 0.531027 0.797139 0.844113 -0.439131 -0.831041 -0.869097 1.280731 -0.605396 0.781995 -0.506447 0.541147 0.239304 -0.821922 0.510665 -0.171234 1.355011 0.324744 0.081294 1.138302 0.292400
eth_top/always_1/block_1/if_1 0.067306 2.739124 -0.640293 -2.848858 1.308629 -3.529023 -1.268353 -0.752087 2.268616 -0.660347 -3.793376 0.344864 -1.427401 2.248351 0.093950 2.835305 0.428705 -2.004282 -1.182231 -2.231052
eth_txstatem/always_1/block_1/if_1/block_2/if_5/if_1/cond 0.504509 0.818843 0.821376 -0.420627 -0.784251 -0.860154 1.183733 -0.583434 0.776973 -0.523128 0.465596 0.290355 -0.829482 0.498749 -0.195239 1.314208 0.322863 0.058743 1.054927 0.302976
eth_transmitcontrol/always_1/block_1/if_1/if_1/if_1 0.533474 0.778417 0.806087 -0.419308 -0.830728 -0.850516 1.231888 -0.588126 0.792841 -0.528368 0.518569 0.255129 -0.858289 0.539616 -0.173211 1.360586 0.273340 0.088056 1.195376 0.283106
eth_top/input_wb_stb_i 0.422072 -0.362406 -1.420780 0.753601 -2.461425 -2.628083 1.813949 -1.844166 0.700052 5.694123 1.301290 3.343767 -0.084420 1.242935 1.901623 -2.622820 -2.264326 -1.735792 -0.326674 -4.089564
eth_miim/always_8/block_1/if_1/block_1/if_1/block_1/if_1/stmt_1 -4.464853 2.041224 2.084010 0.184024 -1.835737 3.881044 -1.848112 -3.012712 0.982317 0.665518 2.052579 -0.123059 0.352837 -2.056775 3.415316 2.884211 4.935826 2.326570 -4.134613 -5.005732
eth_registers/inst_MIICOMMAND0 -1.340807 -0.501578 0.449676 0.157118 -0.580492 2.020448 0.531810 0.867278 0.671191 -0.141258 1.974398 -1.718638 0.957371 -0.717901 1.304969 -1.219852 0.856960 4.031581 -1.825784 -0.596429
eth_registers/inst_MIICOMMAND1 -1.727497 -0.698153 -0.050873 0.558702 -0.713978 1.836683 -1.951828 0.771666 0.362060 -0.646533 2.985719 0.783360 1.995040 -1.265764 1.855209 -2.967884 0.236554 4.028851 -1.687588 1.926841
eth_registers/inst_MIICOMMAND2 -1.371673 -0.207716 0.515133 0.043583 -0.522782 1.840998 0.565816 0.884787 0.702388 -0.180616 1.817652 -1.762789 0.862428 -0.611862 1.358210 -1.123053 0.918742 3.952106 -1.900687 -0.661863
eth_miim/always_6/block_1/if_1/block_2/if_1/block_1/stmt_2 1.444916 -4.663912 -0.528290 0.012132 -0.506250 -0.610057 1.062272 -1.265720 -0.371792 0.761376 1.123995 1.334649 2.161023 -0.983799 -3.515320 -5.472423 -0.195005 0.366220 -1.885975 2.240914
eth_miim/always_6/block_1/if_1/block_2/if_1/block_1/stmt_3 -1.717064 -0.910458 -0.051784 0.640634 -0.762937 2.096542 -1.929327 0.773242 0.317477 -0.605070 3.141282 0.668589 2.078421 -1.320368 1.829176 -3.005620 0.173982 4.203101 -1.634437 1.886932
eth_shiftreg/always_1/block_1/if_1/block_2/if_1/block_1/if_1/block_2/stmt_1 0.180920 -1.698124 0.748430 0.631487 -1.198744 2.246068 3.623726 0.137120 0.127509 0.887278 0.822553 -4.151809 -0.083561 -0.501547 -0.205547 0.233694 0.761328 3.158059 -0.291826 -2.528574
eth_miim/always_6/block_1/if_1/block_2/if_1/block_1/stmt_1 0.347191 -2.218687 0.253714 -1.085626 -0.044010 -0.645428 1.410386 0.202019 0.087728 0.103946 -0.742446 -0.939078 1.478240 -0.365851 -2.205277 -3.763528 0.386547 1.188135 -2.913734 1.023509
eth_miim/always_6/block_1/if_1/block_2/if_1/block_1/stmt_4 -0.377716 -3.012180 -0.415361 1.381963 -1.070685 2.330481 -0.304565 -0.674564 0.183037 0.569692 4.021883 0.795168 1.738304 -1.473691 0.215096 -2.967732 0.168626 3.162124 -0.670111 0.779450
eth_rxethmac/input_Transmitting 0.560777 0.718649 0.857673 -0.382562 -0.865788 -0.850213 1.309033 -0.626943 0.804164 -0.482210 0.564878 0.251038 -0.865344 0.515130 -0.233608 1.365265 0.299615 0.147387 1.190247 0.266761
eth_registers/input_Address -1.280725 6.222719 -1.407549 1.256779 6.466890 4.050604 -5.898296 3.796583 -1.891856 -5.702317 0.977944 -0.402293 -4.392609 -1.281351 1.605275 1.830332 2.779705 2.533520 -5.970560 -0.985798
eth_miim/always_6/block_1/if_1/block_2/if_1/block_1/stmt_9 -0.093250 -2.312613 0.171226 0.801908 -0.879328 2.240972 2.123708 -0.461578 0.617082 0.953337 2.871012 -1.653758 0.576034 -0.801957 -0.187494 -1.031928 0.898785 3.071650 -0.905554 -1.812573
eth_registers/wire_MIIMODER_Wr -0.900805 3.543082 1.298748 -1.578109 0.708136 -3.122616 2.488574 0.408409 1.367944 0.343644 2.200447 2.591717 1.967517 0.939241 -1.563456 -4.798241 2.285670 1.225626 -7.580726 2.942307
eth_wishbone/always_24/block_1/if_1/if_1/cond/expr_1 0.525348 0.818913 0.875869 -0.470053 -0.846873 -0.935971 1.314432 -0.602099 0.818361 -0.512881 0.539558 0.254253 -0.857122 0.570013 -0.220138 1.333984 0.338932 0.102025 1.056731 0.285489
eth_miim/always_6/block_1 -0.205453 -1.166514 0.095521 -0.550420 -0.468050 -0.324828 0.138583 -1.035701 0.041819 -0.193711 0.489868 0.450553 1.140453 -0.719990 -1.065745 -3.121918 1.161691 1.395914 -3.211978 0.336567
eth_outputcontrol/always_1/block_1/if_1 1.104640 -1.145966 -0.865895 -0.656631 0.194482 -2.904704 -1.229151 -4.506107 0.075056 0.247783 0.802778 5.302283 0.140081 -0.263886 -3.081087 -2.389131 1.685676 -3.422032 -3.056915 -0.261590
eth_top/input_wb_we_i 1.249729 4.189925 -1.651141 -1.697840 0.697538 -5.298554 -1.008352 -1.421768 0.216981 -1.154942 -3.659858 1.912478 -2.954902 2.821436 -0.112407 1.197932 -0.096435 -2.576037 -1.919443 -2.804958
eth_wishbone/always_6/block_1/if_1/if_1 0.539240 0.833542 0.835284 -0.415450 -0.796754 -0.882981 1.222151 -0.613046 0.748318 -0.519230 0.480078 0.281800 -0.860158 0.529809 -0.156405 1.315241 0.290868 0.045005 1.100602 0.329638
eth_miim/always_7/block_1 0.252044 -0.719206 -0.002734 -0.642167 -0.445690 -1.180675 0.181090 -2.456474 0.042134 -0.150586 0.235795 1.384840 0.344743 -0.513243 -1.636052 -2.109893 1.692600 -0.022235 -3.220504 -0.715998
eth_wishbone 1.167122 1.279060 0.565563 -1.715659 1.269605 -2.078601 3.015986 -0.033610 2.044971 -0.021905 -0.793526 -0.656773 -1.939751 2.035321 -1.652221 3.140673 0.796642 -2.345296 0.762342 -1.661430
eth_txstatem/always_1/block_1/if_1/block_2/if_4/if_1/cond 0.537796 0.720084 0.842705 -0.413829 -0.860899 -0.842928 1.289676 -0.602273 0.811304 -0.506653 0.561467 0.274955 -0.887786 0.509217 -0.214214 1.363156 0.293507 0.120887 1.231225 0.301692
eth_wishbone/always_77/block_1/if_1 1.097870 -2.645327 -0.663396 0.231999 1.062505 0.797410 2.129952 0.210631 0.828663 1.733286 0.601051 -1.025276 -0.518543 0.500706 -1.421356 0.900505 -0.532006 -1.537725 1.471067 -2.180738
eth_top/assign_7_BDCs/expr_1/expr_1/expr_1 0.572755 0.635881 -0.237945 -1.362909 2.096824 -1.321697 1.805230 0.557148 1.259574 0.511139 -1.396074 -0.929904 -1.123563 1.547138 -1.471692 1.782241 0.560305 -2.496876 -0.525498 -2.047461
eth_rxstatem/reg_StatePreamble 0.563557 0.745316 0.842877 -0.404895 -0.819870 -0.850665 1.265828 -0.592288 0.799557 -0.513955 0.546673 0.247099 -0.827460 0.526268 -0.185002 1.346065 0.292197 0.115935 1.160543 0.296431
eth_rxstatem/always_1/block_1/if_1/block_2/if_3 0.520934 0.878778 0.834078 -0.424481 -0.829423 -0.948730 1.298056 -0.640063 0.813105 -0.504510 0.496055 0.286682 -0.877822 0.561136 -0.213630 1.381560 0.337035 0.063730 1.101025 0.255572
eth_rxstatem/always_1/block_1/if_1/block_2/if_2 0.505881 0.733523 0.830662 -0.378501 -0.813464 -0.815593 1.245646 -0.572045 0.792075 -0.497194 0.504839 0.222156 -0.845617 0.508727 -0.184263 1.304071 0.298539 0.103570 1.119390 0.267746
eth_rxstatem/always_1/block_1/if_1/block_2/if_5 0.579992 0.813019 0.868037 -0.440290 -0.858892 -0.894010 1.318054 -0.593699 0.828317 -0.542896 0.495034 0.249716 -0.893860 0.579284 -0.186673 1.409539 0.293806 0.056600 1.251171 0.300926
eth_rxstatem 0.522923 0.842033 0.882559 -0.444989 -0.852142 -0.899986 1.270349 -0.607748 0.815121 -0.503398 0.533270 0.248137 -0.851855 0.559482 -0.179400 1.345071 0.325759 0.097016 1.084725 0.307960
eth_wishbone/always_30/block_1/if_1/if_1/if_1 0.555369 0.788412 0.849587 -0.395620 -0.794335 -0.833596 1.284675 -0.585647 0.782964 -0.481314 0.493851 0.237381 -0.828671 0.531574 -0.210614 1.333412 0.277005 0.103552 1.144074 0.255107
eth_rxstatem/always_1/block_1/if_1/block_2/if_6 0.549496 0.881098 0.863897 -0.443208 -0.832985 -0.945038 1.262055 -0.600381 0.789404 -0.551764 0.510712 0.280405 -0.897340 0.568220 -0.154422 1.354690 0.328349 0.103218 1.121685 0.283051
eth_miim/input_WCtrlData -1.172175 -0.341094 0.424110 0.038080 -0.556580 1.615075 0.526434 0.663369 0.720087 -0.146598 1.848922 -1.466150 0.799044 -0.593182 1.127072 -1.216373 0.892320 3.686263 -1.861435 -0.570662
eth_miim/always_7/block_1/if_1/block_2 0.136271 -0.300478 0.044183 -0.746243 -0.310975 -1.284055 0.110325 -2.291577 0.134981 -0.203700 0.098215 1.354447 0.264210 -0.414323 -1.510117 -1.990384 1.768808 -0.062862 -3.376180 -0.743470
eth_miim/always_7/block_1/if_1/block_1 -0.230231 -0.977301 -0.591096 0.319890 0.222667 0.170324 -1.335535 -0.685775 0.434213 0.126534 2.075473 2.327681 0.737392 -0.416301 -0.065339 -1.355504 0.080758 0.010002 -0.521943 0.714415
eth_top/assign_2_RegCs/expr_1/expr_1/expr_1/expr_1 1.155886 -2.700580 -0.664690 0.269264 1.080195 0.808869 2.169400 0.221932 0.854283 1.738906 0.624728 -1.062066 -0.558082 0.530420 -1.447665 0.957657 -0.535355 -1.558070 1.577144 -2.252370
eth_wishbone/always_77/block_1/if_1/if_1 1.123091 -2.591961 -0.668168 0.208937 1.059595 0.689811 2.135971 0.208312 0.847752 1.698150 0.609421 -1.020084 -0.570766 0.572129 -1.420138 0.921647 -0.489316 -1.549151 1.431567 -2.199071
eth_registers/always_1/block_1/if_1/cond 0.574303 1.714561 -0.127530 -0.959339 -3.059163 -3.085853 -2.820253 -1.546901 1.816142 -2.150667 0.513422 3.011091 -1.417506 0.613750 2.460056 -1.431274 -1.022443 4.165751 -0.607034 2.066340
eth_top/wire_WillTransmit 0.541483 0.815231 0.847916 -0.450525 -0.861880 -0.898498 1.279961 -0.624358 0.808593 -0.526193 0.520963 0.261474 -0.904654 0.558090 -0.191960 1.362300 0.307993 0.109871 1.166151 0.303073
eth_top/always_4/block_1/stmt_2 0.530929 0.736668 0.854149 -0.387655 -0.849205 -0.865024 1.315686 -0.604276 0.822666 -0.524811 0.562088 0.230752 -0.885675 0.530133 -0.192148 1.381910 0.290879 0.108001 1.160087 0.303622
eth_top/always_4/block_1/stmt_1 0.549962 0.807356 0.827059 -0.410085 -0.819630 -0.871834 1.275554 -0.598244 0.776578 -0.525631 0.545840 0.239842 -0.884148 0.515641 -0.210395 1.371451 0.289017 0.096128 1.219466 0.279399
eth_outputcontrol/always_1/block_1/if_1/block_2 1.021934 -1.157932 -0.839237 -0.602225 0.148119 -2.748241 -1.214377 -4.421466 0.099990 0.272382 0.882113 5.185735 0.176315 -0.306771 -2.962686 -2.403902 1.728866 -3.216514 -3.134054 -0.348265
eth_txstatem/assign_6_StartPAD/expr_1 0.463917 0.920701 0.850461 -0.447610 -0.805955 -0.934815 1.235346 -0.582565 0.793007 -0.512793 0.472050 0.290327 -0.826939 0.545267 -0.153473 1.287183 0.329210 0.080226 0.967608 0.248980
eth_top/assign_6_BDCs 0.580682 0.705157 -0.268592 -1.353578 2.111760 -1.372176 1.738299 0.592071 1.236935 0.466634 -1.478290 -0.937676 -1.158371 1.593068 -1.430199 1.817991 0.511226 -2.567554 -0.486221 -2.002996
eth_wishbone/input_BDCs 0.587019 0.627915 -0.266766 -1.348168 2.123894 -1.344102 1.789813 0.556239 1.278222 0.520205 -1.407848 -0.901609 -1.119957 1.592193 -1.482294 1.804994 0.532519 -2.589092 -0.536819 -2.057877
eth_registers/assign_2_Read/expr_1 0.435625 1.543196 -0.068519 -0.854689 -3.127627 -2.736198 -2.921874 -1.433847 1.827132 -2.097597 0.889820 3.055058 -1.184050 0.457763 2.603731 -1.695160 -0.985637 4.540384 -0.713243 2.264592
eth_wishbone/always_30/block_1 0.547269 0.718692 0.798260 -0.385461 -0.787824 -0.812018 1.236906 -0.577691 0.764758 -0.462588 0.546264 0.216319 -0.807904 0.517359 -0.200176 1.299017 0.286683 0.099180 1.167970 0.275960
eth_miim/always_4/block_1/if_1/block_2/if_1/block_2/if_1/cond/expr_1 1.490177 -4.897429 -0.579146 -0.017474 -0.479141 -0.469624 1.079386 -1.306353 -0.388741 0.893170 1.032482 1.254138 2.272314 -1.027121 -3.595822 -5.524966 -0.202199 0.225142 -1.891280 2.214106
eth_registers/assign_2_Read/expr_2 0.445351 1.539609 -0.112322 -0.756522 -3.121679 -2.724938 -2.983138 -1.411622 1.780146 -2.123263 0.927876 3.072314 -1.148853 0.429681 2.658934 -1.708328 -1.096641 4.561655 -0.575336 2.358415
eth_miim/always_3/block_1/if_1/block_2/stmt_8 -1.260945 -0.195318 0.468614 -0.025216 -0.478544 1.688840 0.644392 0.824268 0.770758 -0.163099 1.669691 -1.690982 0.741012 -0.513309 1.241414 -0.978259 0.890738 3.747747 -1.877179 -0.747407
eth_miim/always_4/block_1/if_1/block_2/if_1/block_2 0.319627 -2.585654 0.211104 -0.973000 -0.035025 -0.415285 1.458696 0.167273 0.111162 0.229201 -0.584905 -1.040677 1.597780 -0.508871 -2.264258 -3.795306 0.413647 1.251583 -2.888819 0.904916
eth_registers/assign_43_MIIADDRESS_Wr/expr_1 0.021944 -2.402030 0.014727 1.036181 -1.012783 2.264790 0.472067 -0.026500 -0.224990 0.269097 1.436248 -1.385324 0.634361 -1.064952 0.195614 -0.732997 -0.186293 2.357442 0.823219 -0.152696
eth_miim/always_3/block_1/if_1/block_2/stmt_4 -1.616851 -1.078459 -0.070641 0.696154 -0.819087 2.051546 -1.912870 0.710531 0.294616 -0.564074 3.171529 0.749992 2.070044 -1.366465 1.755809 -3.164254 0.156420 4.204782 -1.630320 1.944905
eth_top/assign_17_MRxDV_Lb 0.505531 0.883376 0.862578 -0.439494 -0.835819 -0.908173 1.276778 -0.612740 0.806934 -0.532911 0.518541 0.293368 -0.843655 0.532207 -0.185132 1.299335 0.342636 0.112698 1.021380 0.276931
eth_miim/always_3/block_1/if_1/block_2/stmt_6 -0.356547 -3.176505 -0.383460 1.410739 -1.139421 2.415060 -0.165715 -0.672677 0.140460 0.576290 4.065818 0.714022 1.788009 -1.522913 0.125218 -3.056162 0.214485 3.254386 -0.686735 0.744033
eth_miim/always_3/block_1/if_1/block_2/stmt_7 -1.310337 -0.362630 0.477592 0.095926 -0.529535 1.923141 0.557303 0.865353 0.701927 -0.120951 1.889534 -1.751716 0.876029 -0.661421 1.297464 -1.102589 0.853581 3.925027 -1.816096 -0.673719
eth_miim/always_3/block_1/if_1/block_2/stmt_1 -1.312082 -0.054333 0.542657 -0.010424 -0.563949 1.655483 0.556827 0.869020 0.712324 -0.238273 1.712519 -1.722799 0.798216 -0.574065 1.309024 -1.089636 0.947019 3.880645 -1.948140 -0.664621
eth_miim/always_3/block_1/if_1/block_2/stmt_2 0.423668 -2.406847 0.231209 -1.058624 -0.002056 -0.641148 1.497744 0.207356 0.068254 0.144421 -0.732592 -0.962436 1.507330 -0.416473 -2.319938 -3.835271 0.389311 1.184127 -2.907824 1.046235
eth_miim/always_3/block_1/if_1/block_2/stmt_3 1.474062 -4.830646 -0.505732 -0.067718 -0.461591 -0.551389 1.182382 -1.351586 -0.340806 0.871378 0.941740 1.205898 2.178071 -0.956363 -3.610399 -5.333557 -0.141791 0.200384 -1.960149 2.009842
eth_miim/always_4/block_1/if_1/block_2/if_1/block_2/if_1 0.290529 -2.375168 0.225871 -1.101400 0.031887 -0.559224 1.482913 0.191806 0.081464 0.183324 -0.795946 -1.021176 1.498345 -0.399515 -2.274509 -3.727505 0.474212 1.069518 -3.025469 0.836372
eth_miim/always_4/block_1/if_1/block_2/if_1/block_2/if_2 -1.714552 -0.936164 -0.050001 0.658127 -0.764492 2.045897 -1.975305 0.805685 0.313359 -0.568647 3.099548 0.729463 2.064080 -1.366603 1.828186 -3.088943 0.195957 4.221606 -1.669679 1.962331
eth_miim/always_4/block_1/if_1/block_2/if_1/block_2/if_2/cond/expr_1 -0.348517 -3.163340 -0.346636 1.441109 -1.164414 2.444741 -0.182994 -0.659720 0.185928 0.590146 4.099192 0.670950 1.796448 -1.533774 0.200706 -3.067724 0.196937 3.316040 -0.705026 0.701329
eth_txstatem/wire_StartData 0.528053 0.848968 0.840671 -0.463299 -0.863245 -0.931774 1.329100 -0.601305 0.810289 -0.539742 0.532642 0.243754 -0.898114 0.555928 -0.230104 1.382973 0.326795 0.069277 1.139566 0.264934
eth_top/reg_WillTransmit_q 0.564014 0.807231 0.918390 -0.451773 -0.897138 -0.901446 1.386488 -0.640022 0.880444 -0.534717 0.612215 0.242231 -0.908908 0.572997 -0.236246 1.370798 0.335508 0.164954 1.176080 0.280563
eth_txethmac/wire_StatePreamble 0.570730 0.831081 0.834824 -0.436796 -0.875391 -0.907892 1.304605 -0.630110 0.794449 -0.539068 0.545507 0.245070 -0.900338 0.560278 -0.208271 1.420509 0.281532 0.087103 1.250530 0.308502
eth_rxstatem/wire_StartIdle 0.550522 0.814732 0.827606 -0.430598 -0.836269 -0.868219 1.248388 -0.582403 0.794141 -0.532461 0.532881 0.249142 -0.861670 0.545169 -0.173555 1.334258 0.300671 0.070284 1.164284 0.291912
eth_rxstatem/assign_2_StartPreamble/expr_1/expr_1 0.530325 0.760989 0.821443 -0.402739 -0.816067 -0.823964 1.249719 -0.580126 0.783341 -0.500827 0.550384 0.248061 -0.865087 0.507791 -0.184125 1.335554 0.302871 0.080561 1.181704 0.279828
eth_top/assign_3_RegCs 0.582244 0.761889 -0.242719 -1.411420 2.186121 -1.454364 1.826751 0.567705 1.299320 0.517834 -1.493636 -0.890296 -1.160559 1.615444 -1.522415 1.846666 0.554091 -2.643573 -0.589796 -2.043943
eth_wishbone/always_24 0.524553 0.751878 0.832328 -0.410093 -0.825147 -0.819896 1.310557 -0.599005 0.783516 -0.482729 0.543832 0.244123 -0.838271 0.544019 -0.210901 1.340130 0.306557 0.113177 1.163107 0.301188
eth_wishbone/always_26 0.560626 0.858431 0.875145 -0.439370 -0.858523 -0.928012 1.289848 -0.624797 0.836624 -0.500279 0.527538 0.256318 -0.878461 0.553750 -0.192332 1.359396 0.337304 0.097647 1.083552 0.287295
eth_wishbone/always_27 0.498171 0.805683 0.807056 -0.415311 -0.819021 -0.888880 1.230858 -0.583439 0.795926 -0.523164 0.481705 0.272209 -0.839430 0.536822 -0.200698 1.316402 0.312536 0.071642 1.090024 0.265589
eth_rxstatem/always_1/block_1/if_1/block_2/if_1/if_1 0.525488 0.793013 0.832440 -0.405658 -0.845675 -0.860813 1.291818 -0.601841 0.808333 -0.535839 0.569019 0.262172 -0.857841 0.555630 -0.162435 1.358335 0.310505 0.131795 1.173619 0.277803
eth_clockgen/always_1/block_1/if_1/block_1/if_1/cond -2.196496 2.562987 0.659534 -2.398011 0.955002 -2.603792 0.230257 -0.497497 1.921431 0.585904 -1.162053 1.136479 0.594634 1.432655 0.612895 -2.051066 2.460594 -1.758880 -4.636349 -1.089207
eth_clockgen/assign_4_MdcEn/expr_1/expr_1 1.400298 -1.764444 -0.186246 -0.187570 -0.731666 -1.468144 1.818472 -3.940170 0.085666 0.787624 1.027939 1.716754 -0.242930 -0.371581 -3.013479 -1.831006 1.995337 -1.017397 -2.786624 -1.964044
eth_top/reg_temp_wb_err_o_reg -1.141696 2.136082 1.722726 -2.585054 -0.621559 -1.869797 -0.777420 -1.325570 1.399873 0.218644 -4.497251 0.026560 -0.597995 0.274837 0.633155 2.218925 1.420666 -2.300360 -1.185453 -1.253268
eth_clockgen/always_1/block_1/if_1/stmt_1 0.609940 4.479067 0.188916 -1.196777 1.946882 -2.781232 1.325286 2.414090 -0.423000 -3.498233 -0.576836 -0.936389 -1.484947 1.521444 -0.491947 -0.805593 0.390704 1.021740 -1.897671 1.727933
eth_miim/assign_7_ByteSelect/expr_1/expr_1 0.111470 -1.714510 0.748526 0.628913 -1.211897 2.328663 3.543022 0.173290 0.134119 0.911890 0.916980 -4.113136 -0.025744 -0.529639 -0.168051 0.137927 0.803100 3.300793 -0.367394 -2.475909
eth_miim/always_8/block_1/if_1/block_1 -4.226814 2.056271 2.063730 0.213947 -1.630123 3.866521 -1.640171 -2.902507 0.959976 0.550869 1.894123 -0.352173 0.064018 -1.934742 3.206856 3.245616 4.857414 2.144143 -3.826967 -5.101824
eth_miim/always_4/block_1/if_1/block_2/if_1/cond 1.855802 -2.755018 -0.235798 -1.009571 0.140905 -2.371428 1.297457 -1.333994 -0.632436 0.434483 -1.974831 0.921345 0.917254 -0.076479 -4.031642 -3.459686 -0.110324 -2.296603 -1.593655 1.565449
eth_outputcontrol/assign_1_SerialEn/expr_1/expr_2/expr_1 -0.156270 -0.971689 -0.607172 0.267268 0.218843 0.112274 -1.292150 -0.718675 0.401678 0.119977 2.047621 2.368352 0.717604 -0.391779 -0.139166 -1.378208 0.089695 -0.074650 -0.549372 0.719078
eth_clockgen/always_2/block_1 -2.096889 2.330592 2.042713 -1.554666 -0.748914 -1.008518 1.180995 0.105776 -0.253983 1.902818 -3.766768 -1.048351 1.475111 0.498400 0.127786 -1.482126 1.952472 -2.654010 -3.686577 -0.177570
eth_maccontrol 0.578857 0.765322 0.874603 -0.398028 -0.852938 -0.845637 1.326102 -0.612985 0.806026 -0.518553 0.586554 0.266372 -0.888313 0.553326 -0.223462 1.394204 0.344117 0.152023 1.189736 0.294088
eth_registers/wire_r_RGAD -0.015645 -2.471116 0.025570 1.057763 -1.014668 2.309923 0.532470 -0.041121 -0.261828 0.282247 1.459346 -1.432825 0.663991 -1.073142 0.188675 -0.737199 -0.189811 2.353340 0.801520 -0.158663
eth_top/wire_r_RGAD -0.024015 -2.397138 0.018860 1.046911 -0.989702 2.226710 0.459842 -0.030660 -0.258684 0.295903 1.433560 -1.333061 0.644921 -1.070486 0.178681 -0.756796 -0.218094 2.333089 0.821175 -0.125510
eth_rxstatem/assign_2_StartPreamble/expr_1/expr_2/expr_1 0.534313 0.859499 0.856340 -0.415884 -0.870756 -0.901771 1.293139 -0.628233 0.834080 -0.521332 0.552972 0.292231 -0.894638 0.571189 -0.185334 1.408706 0.349520 0.135302 1.127816 0.263404
eth_clockgen/wire_MdcEn 1.293865 -1.782060 -0.106233 -0.105394 -0.781329 -1.176303 1.941700 -3.836122 0.093316 0.812480 1.168681 1.432179 -0.261803 -0.433989 -2.852265 -1.652322 2.055360 -0.733203 -2.809017 -2.173324
eth_top/assign_12_temp_wb_err_o/expr_1 -0.302870 0.183039 0.555745 -0.573322 -2.063533 -0.743629 -0.492420 -1.673095 0.173436 1.625145 -1.783555 1.474192 -0.546975 -0.499923 0.657716 1.087165 -0.583192 -1.000834 -0.112626 -1.680754
eth_wishbone/always_3/block_1/if_1/block_2/case_1/cond 1.137415 -2.622407 -0.659850 0.259962 1.110324 0.746663 2.113292 0.223088 0.838301 1.720199 0.606536 -1.012822 -0.590536 0.567083 -1.421726 0.979406 -0.590097 -1.582590 1.607728 -2.193655
eth_txethmac/always_13/block_1/if_1/stmt_2/expr_1/expr_1 0.506363 0.839075 0.820625 -0.446090 -0.782442 -0.901809 1.217281 -0.574658 0.800423 -0.533695 0.467545 0.268423 -0.853195 0.564625 -0.182902 1.299629 0.316077 0.088219 1.017455 0.265513
eth_top/wire_MRxDV_Lb 0.514790 0.807784 0.828001 -0.395775 -0.804474 -0.866950 1.201878 -0.589167 0.746599 -0.500794 0.493492 0.283026 -0.822371 0.526563 -0.179369 1.320339 0.299286 0.084848 1.100894 0.279928
eth_top/assign_7_BDCs/expr_1/expr_1 0.593645 0.802747 -0.231752 -1.448986 2.151438 -1.532612 1.815203 0.558888 1.273926 0.448114 -1.599604 -0.888206 -1.199057 1.652465 -1.514520 1.923647 0.586969 -2.756034 -0.562381 -2.054795
eth_top/assign_17_MRxDV_Lb/expr_1 0.545182 0.877951 0.889386 -0.427629 -0.872582 -0.943398 1.286060 -0.607392 0.812072 -0.555730 0.537185 0.306344 -0.882596 0.568768 -0.173003 1.348108 0.322032 0.134877 1.103996 0.292224
eth_clockgen/always_2/block_1/if_1/block_1/if_1 -2.585177 2.398165 1.690500 -2.361910 -0.103231 -1.992608 0.554927 0.258393 1.345236 1.550750 -2.575620 0.461014 1.242641 1.390350 0.972866 -1.753338 1.732983 -3.124820 -2.935161 -0.138373
eth_registers/assign_47_MAC_ADDR0_Wr/expr_1 -1.458237 4.635754 -0.717854 1.862669 2.323124 1.920434 -2.123926 1.416781 -2.235842 -1.325389 2.381182 1.314050 -0.469903 -0.290989 1.704179 0.534482 1.277845 0.043789 -1.532360 0.182284
eth_wishbone/always_3/block_1/if_1/block_2/case_1 0.613772 0.687579 -0.271914 -1.328864 2.072356 -1.386758 1.731786 0.548943 1.285315 0.456985 -1.359095 -0.844143 -1.127099 1.580800 -1.437371 1.789802 0.517410 -2.518934 -0.534769 -1.978567
eth_rxethmac/input_MRxDV 0.517087 0.804505 0.884648 -0.428232 -0.878421 -0.897017 1.314791 -0.625990 0.839516 -0.499289 0.554498 0.291171 -0.878475 0.548879 -0.184219 1.360092 0.316936 0.146658 1.110724 0.268697
eth_miim/always_6/block_1/if_1/block_1/stmt_3 -0.257182 -1.027740 -0.599970 0.326204 0.250233 0.203154 -1.362568 -0.685072 0.452043 0.137601 2.195406 2.428847 0.754892 -0.410310 -0.087389 -1.413477 0.073292 0.050805 -0.520675 0.723053
eth_clockgen/assign_1_TempDivider/expr_1 0.907374 4.501391 0.075924 -0.063728 1.358658 -1.843496 1.619528 0.539837 0.017491 -2.180743 2.241652 0.763424 -1.146815 0.737108 -1.295256 -0.946779 1.681368 2.770950 -4.993754 1.167170
eth_miim/always_6/block_1/if_1/block_1/stmt_7 1.829425 -2.466066 -0.176780 -1.089723 0.108534 -2.475280 1.294472 -1.376508 -0.572955 0.383703 -2.022404 0.975337 0.830033 0.043729 -3.900427 -3.328136 -0.049004 -2.294693 -1.688454 1.487233
eth_wishbone/always_1/block_1/stmt_1/expr_1 0.597227 0.623759 -0.269097 -1.357188 2.128084 -1.359503 1.790539 0.553487 1.282720 0.511404 -1.440714 -0.911956 -1.119077 1.538666 -1.482511 1.766411 0.542733 -2.554952 -0.534717 -2.013478
eth_miim/reg_RStat_q3 -0.375860 -3.144756 -0.358681 1.410931 -1.128861 2.396451 -0.238712 -0.660631 0.131789 0.600990 4.112831 0.788534 1.782728 -1.501849 0.177741 -3.088165 0.178924 3.263697 -0.705334 0.780361
eth_miim/reg_RStat_q2 -1.635833 -0.793788 -0.050785 0.571920 -0.720084 1.846363 -1.927223 0.786832 0.296508 -0.664922 2.917314 0.755671 1.958543 -1.258754 1.815278 -2.974435 0.153210 3.984258 -1.586347 1.943613
eth_miim/reg_RStat_q1 -1.659567 -0.927702 -0.038491 0.652026 -0.774664 1.980508 -1.879028 0.765660 0.301848 -0.599272 3.094459 0.723255 2.051697 -1.329650 1.768680 -3.089826 0.135783 4.169830 -1.609369 1.938505
eth_wishbone/always_30/block_1/if_1/if_1 0.582622 0.854182 0.832516 -0.425185 -0.832661 -0.952537 1.321168 -0.622969 0.807749 -0.506977 0.528800 0.277099 -0.884951 0.548504 -0.179732 1.400334 0.322948 0.085916 1.146901 0.274158
eth_registers/always_1/block_1/if_1/block_1/case_1/stmt_16 1.249598 5.074822 -0.829730 -0.541009 -1.790723 -5.420987 -1.390648 -3.685513 -1.503296 -3.177051 -1.373107 2.831983 -1.829346 1.443795 0.338546 1.486227 0.492483 -0.659643 -0.063100 -0.843383
eth_registers/wire_MIICOMMANDOut -1.342352 -0.129557 0.483994 0.047833 -0.517593 1.760414 0.409638 0.894030 0.681880 -0.215259 1.729670 -1.649013 0.817949 -0.607457 1.368440 -1.074684 0.886691 3.836291 -1.850578 -0.626938
eth_outputcontrol/always_1/block_1/if_1/block_2/if_1/block_1 1.108604 -1.188368 -0.884421 -0.577088 0.081965 -2.877560 -1.294350 -4.604435 0.051974 0.253763 1.000432 5.468151 0.189473 -0.337084 -3.035264 -2.552739 1.744660 -3.298129 -3.098477 -0.162955
eth_registers/always_1/block_1/if_1/block_1/case_1/stmt_19 0.526772 -0.259789 -0.857930 0.289335 2.318500 0.724886 -1.717875 1.150602 -0.890207 -0.146192 -1.628818 -0.214515 -1.524542 -0.467594 -0.104476 -0.037439 -0.585827 -1.914162 -0.447338 -0.896137
eth_outputcontrol/assign_1_SerialEn/expr_1 -3.364029 3.927970 1.032111 -2.351621 1.686939 -0.555538 -1.161120 1.418817 2.631631 0.240964 0.199983 0.836933 0.529479 0.812623 2.513332 1.983485 1.889098 0.115954 -3.752655 -1.986483
eth_shiftreg/reg_ShiftReg 0.124120 -1.822960 0.779836 0.671807 -1.210332 2.468961 3.666462 0.237707 0.095065 0.958596 0.878722 -4.387574 -0.091493 -0.570160 -0.183603 0.260634 0.740804 3.330163 -0.203876 -2.606147
eth_register/always_1/block_1/if_1/if_1/cond -0.319631 2.655677 0.800396 -3.157587 -6.009952 -5.867111 0.320583 1.252948 5.291039 -0.462344 0.196191 0.477530 0.951295 2.922778 5.303902 -4.660156 -3.182819 10.208954 -1.904727 4.057264
eth_rxstatem/always_1 0.531139 0.748272 0.827573 -0.430120 -0.832130 -0.812851 1.230926 -0.597340 0.762302 -0.483911 0.529629 0.262791 -0.805252 0.514834 -0.212479 1.277005 0.326610 0.108957 1.082788 0.276649
eth_outputcontrol/input_InProgress 1.120977 -1.096255 -0.865985 -0.639183 0.172264 -2.967273 -1.269079 -4.375852 0.096494 0.208984 0.855092 5.341813 0.219894 -0.237667 -3.026615 -2.634663 1.641015 -3.268826 -3.095579 0.017467
eth_miim/wire_StartOp -0.281457 -1.037132 0.131894 -0.592878 -0.458686 -0.408195 0.103170 -1.184594 0.094502 -0.170632 0.542168 0.588909 1.102258 -0.725600 -1.040948 -3.140813 1.291254 1.370239 -3.400145 0.209910
eth_top/assign_9_BDCs/expr_1/expr_1/expr_1/expr_1 0.609434 0.637231 -0.255658 -1.384287 2.116974 -1.382319 1.805161 0.557085 1.269183 0.576666 -1.501119 -0.960318 -1.136021 1.577455 -1.502819 1.792454 0.537558 -2.592256 -0.547715 -2.038410
eth_wishbone/always_3 0.587593 0.652606 -0.253006 -1.348885 2.072849 -1.331879 1.777537 0.536318 1.238929 0.503364 -1.431813 -0.894974 -1.105915 1.564146 -1.477545 1.775740 0.522341 -2.545507 -0.518827 -1.960944
eth_top/assign_4_RegCs/expr_1/expr_1 0.181020 -0.986647 0.046535 -0.590892 0.995783 0.599402 2.916738 0.097075 1.552190 0.949883 1.013226 -2.070406 -0.445951 0.655883 -1.137859 0.668179 1.313092 0.573978 -1.318385 -2.920764
eth_wishbone/always_3/block_1/if_1/block_2/case_1/block_7/stmt_6/expr_1 0.564243 0.769572 -0.207330 -1.403439 2.092198 -1.451384 1.777549 0.561312 1.293409 0.442637 -1.457878 -0.899684 -1.113496 1.577885 -1.463054 1.746387 0.608207 -2.543580 -0.669477 -1.989545
eth_registers/assign_109_r_ClkDiv -0.972463 3.334899 1.316836 -1.613909 0.718044 -2.980581 2.454089 0.501755 1.393020 0.445080 2.217641 2.594803 2.078210 0.862392 -1.539844 -4.847679 2.194022 1.190801 -7.428666 2.976121
eth_registers/assign_40_MIIMODER_Wr/expr_1 -0.001747 -2.503213 0.169069 0.783459 -0.856310 2.172752 2.282785 -0.577850 0.618941 1.004945 2.803193 -1.669660 0.523738 -0.773248 -0.345150 -1.032646 0.911382 2.969321 -0.920735 -1.849757
eth_registers/wire_Write -0.399006 3.977156 1.726068 -1.522081 -2.395247 -3.158449 -0.031880 -2.031832 2.160710 -1.321248 1.366852 2.753971 -1.547373 0.930915 1.588745 0.187601 1.802340 1.764973 -2.068624 0.999449
eth_wishbone/always_27/block_1/if_1 0.514813 0.774552 0.802319 -0.413093 -0.802904 -0.884580 1.192322 -0.553971 0.773718 -0.512650 0.520009 0.265254 -0.861325 0.498572 -0.160135 1.322727 0.272957 0.104321 1.142738 0.319871
eth_txethmac/always_13/block_1/if_1/stmt_2/expr_1/expr_1/expr_1/expr_1 0.536224 0.778932 0.850588 -0.422870 -0.828083 -0.847831 1.305781 -0.621413 0.797598 -0.494832 0.543548 0.252231 -0.840904 0.542498 -0.195967 1.307840 0.348076 0.141401 1.073458 0.277635
eth_txstatem/always_1/block_1 0.511046 0.780145 0.810388 -0.374334 -0.813879 -0.848241 1.223571 -0.589044 0.771709 -0.485549 0.476622 0.247917 -0.857955 0.509920 -0.177786 1.337303 0.258661 0.083843 1.141449 0.265647
eth_miim/always_8/block_1/if_1/block_1/if_1/cond 0.614224 -3.491254 -0.285429 0.872652 -1.394719 1.118320 1.208017 -5.700573 0.065716 1.713235 2.452167 1.436391 -0.280452 -1.533310 -2.425299 -0.665790 3.229122 -0.482144 -2.876682 -4.872775
eth_miim/always_6/block_1/if_1/block_2/if_1/cond 1.679170 -4.045364 -0.009987 -0.410106 -0.417133 -0.545960 3.298063 -1.100844 -0.006567 1.167592 0.290997 -0.920660 1.156593 -0.411625 -3.722380 -3.747831 0.401650 0.460123 -2.002390 0.020336
eth_miim/input_RStat -1.603627 -0.773416 -0.031617 0.610551 -0.751971 1.808161 -1.871392 0.695348 0.326147 -0.620020 3.002527 0.757477 1.938858 -1.226868 1.777149 -3.015764 0.215082 4.055470 -1.649881 1.894056
eth_registers/assign_1_Write -0.465158 4.194776 1.823616 -1.440752 -2.294199 -3.036754 0.000106 -1.909140 2.098495 -1.467887 1.558006 2.745292 -1.530591 0.914341 1.641053 0.277494 1.871828 1.899847 -2.054137 1.197606
eth_rxstatem/reg_StateIdle 0.563226 0.759083 0.854976 -0.423437 -0.847084 -0.859481 1.257918 -0.570062 0.783468 -0.493395 0.546702 0.269105 -0.881694 0.528427 -0.185330 1.375273 0.305610 0.088985 1.150460 0.297839
eth_top/wire_mdc_pad_o 0.711242 3.504018 0.223030 -5.140961 2.199021 -8.278428 2.185519 0.683820 2.028143 -0.826506 -6.076832 0.622197 -0.563564 3.952577 -2.194527 -2.206898 0.174942 -5.049432 -2.994915 0.995768
eth_registers/assign_111_r_RStat -1.751355 -0.825453 -0.031894 0.657290 -0.721964 2.060172 -2.017969 0.862201 0.348384 -0.616866 3.102700 0.729733 2.071447 -1.350505 1.955377 -2.983182 0.166292 4.201102 -1.595289 1.930435
eth_wishbone/always_6/block_1/if_1/if_1/cond/expr_1 0.520686 0.760555 0.825398 -0.432797 -0.830092 -0.833728 1.270636 -0.576820 0.771667 -0.504769 0.508591 0.267565 -0.859096 0.544619 -0.189907 1.340530 0.298432 0.112212 1.157587 0.270024
eth_outputcontrol/assign_1_SerialEn/expr_1/expr_2/expr_2/expr_1 -0.295003 -0.924104 -0.602182 0.282043 0.228973 0.195998 -1.424873 -0.648280 0.439930 0.128361 2.163144 2.460868 0.753183 -0.403208 0.008388 -1.387918 0.128537 0.043968 -0.591326 0.725624
eth_txethmac/always_13/block_1/if_1/stmt_2/expr_1/expr_1/expr_1 0.532373 0.776863 0.891055 -0.417341 -0.875367 -0.891884 1.359308 -0.607082 0.834559 -0.486870 0.556150 0.240282 -0.839937 0.553420 -0.228671 1.361269 0.355399 0.142974 1.117088 0.283103
eth_txstatem/assign_6_StartPAD/expr_1/expr_1/expr_1 0.532201 0.772327 0.808170 -0.377818 -0.814689 -0.865493 1.200080 -0.563142 0.783171 -0.490832 0.471271 0.242932 -0.861721 0.538228 -0.195870 1.347452 0.247308 0.074582 1.156951 0.278531
eth_txethmac/always_13/block_1/if_1 0.505364 0.922504 0.868420 -0.453265 -0.849517 -0.949567 1.244064 -0.641275 0.794378 -0.578071 0.544833 0.337927 -0.882986 0.552855 -0.148540 1.351253 0.347676 0.135059 1.062502 0.316103
eth_maccontrol/input_TxStartFrmIn 0.557207 0.805400 0.865762 -0.435531 -0.852886 -0.907365 1.292319 -0.623090 0.811834 -0.497260 0.547699 0.285718 -0.875842 0.546530 -0.208509 1.401680 0.287697 0.116947 1.136544 0.274497
eth_txstatem/assign_7_StartFCS 0.543820 0.760696 0.826858 -0.421011 -0.829647 -0.829798 1.289007 -0.607936 0.811281 -0.513150 0.520385 0.258466 -0.836532 0.497310 -0.173930 1.357511 0.291859 0.116821 1.104675 0.290768
eth_wishbone/always_1/block_1/stmt_1/expr_1/expr_1/expr_1 0.602958 0.710911 -0.257884 -1.402796 2.175398 -1.432620 1.899331 0.553600 1.317520 0.582767 -1.502612 -0.927819 -1.136539 1.619612 -1.539798 1.810058 0.576406 -2.656210 -0.607079 -2.144361
eth_shiftreg/always_1 0.094422 -1.699249 0.775718 0.679140 -1.174253 2.368395 3.555135 0.244564 0.146594 0.929159 0.922449 -4.202672 -0.023860 -0.548296 -0.149593 0.203240 0.745770 3.319630 -0.304807 -2.470964
eth_shiftreg/wire_ShiftedBit 0.159335 -1.695634 0.761288 0.650193 -1.174683 2.352111 3.613977 0.228640 0.153277 0.900032 0.823657 -4.242877 -0.130990 -0.525492 -0.156704 0.279057 0.791329 3.221345 -0.249353 -2.589879
check_ethernet/input_wb_we_i 1.066522 4.229774 0.266547 0.196468 1.095029 -1.739860 0.570497 0.799935 -1.559220 -1.148140 -1.363637 0.025473 -3.317173 0.661854 1.089123 2.698293 -0.704727 -3.117892 2.451380 -0.943544
eth_miim/always_4/block_1/if_1/block_2/if_1/block_2/if_1/stmt_1 1.905307 -2.559818 -0.223076 -1.132533 0.200091 -2.573092 1.311893 -1.233290 -0.643952 0.362938 -2.194459 0.910001 0.807437 0.061190 -4.050434 -3.286549 -0.166192 -2.463233 -1.488633 1.609830
eth_top/wire_temp_wb_err_o -1.216663 2.211931 1.748162 -2.603482 -0.733382 -1.848318 -0.920587 -1.362686 1.304294 0.320025 -4.701880 0.125143 -0.573452 0.244005 0.757022 2.212309 1.342909 -2.396109 -1.172955 -1.280005
eth_rxstatem/always_1/block_1/if_1/block_2/if_4 0.553171 0.869832 0.887734 -0.444882 -0.848017 -0.962663 1.338669 -0.650134 0.820164 -0.551257 0.537215 0.289993 -0.879984 0.561346 -0.188373 1.399344 0.346377 0.118526 1.090871 0.298087
eth_txstatem/assign_8_StartJam/expr_1 0.512461 0.859886 0.854610 -0.454148 -0.838532 -0.928812 1.237863 -0.600348 0.811979 -0.508076 0.539085 0.306424 -0.886406 0.564276 -0.199135 1.326338 0.334460 0.113871 1.106876 0.256776
eth_outputcontrol/always_1/block_1/if_1/block_2/if_1/block_1/stmt_1/expr_1/expr_1/expr_1 1.402622 -0.631074 -0.332278 -0.719761 -0.341922 -3.000018 -0.082189 -4.157170 -0.514394 0.094903 -0.795648 3.402413 -0.270345 -0.175436 -3.149907 -1.801064 1.623040 -3.145530 -2.695444 -0.483087
eth_miim/reg_WCtrlDataStart_q1 0.279553 -2.551687 0.208467 -1.000521 -0.027659 -0.420515 1.436186 0.152348 0.049695 0.193891 -0.661273 -1.032973 1.579995 -0.495107 -2.235957 -3.835108 0.423812 1.245400 -2.932719 0.903454
eth_miim/reg_WCtrlDataStart_q2 1.492245 -4.909065 -0.570987 0.023338 -0.501471 -0.526276 1.039467 -1.364789 -0.355929 0.863247 1.158726 1.383887 2.253633 -1.010266 -3.561873 -5.553400 -0.224331 0.276537 -1.905110 2.203986
eth_registers/wire_MIIMODER_Sel -2.252106 0.461202 -0.355562 2.009360 2.970038 4.898894 -3.406155 2.024061 -1.775590 -1.721043 3.250295 0.571362 1.507316 -2.325210 0.166758 -1.542548 1.925950 1.837706 -3.463820 2.028267
eth_miim/wire_WriteDataOp 0.293963 -2.391276 0.266889 -1.024537 -0.007888 -0.462028 1.549973 0.225277 0.092629 0.198433 -0.749759 -1.176590 1.507758 -0.446216 -2.226829 -3.699985 0.490903 1.250112 -2.918019 0.848288
eth_top/reg_WillTransmit_q2 0.571095 0.826255 0.844484 -0.387123 -0.837199 -0.859991 1.278560 -0.597997 0.806497 -0.544509 0.545900 0.286685 -0.883954 0.519025 -0.169936 1.409610 0.304460 0.089954 1.186478 0.305158
eth_miim/always_8/block_1/if_1/block_1/if_1/block_1/if_1/block_1/if_1/stmt_2 0.611969 -3.537422 -0.359522 0.930052 -1.421085 1.109438 1.111576 -5.807367 0.047479 1.693202 2.628888 1.692355 -0.179662 -1.591596 -2.444768 -0.844112 3.234711 -0.438366 -2.936941 -4.753950
eth_miim/always_8/block_1/if_1/block_1/if_1/block_1/if_1/block_1/if_1/stmt_1 -0.004998 -2.343220 0.184750 0.756819 -0.870289 2.114251 2.309608 -0.556188 0.606616 0.998232 2.697086 -1.746499 0.488252 -0.734547 -0.293055 -0.951498 0.913645 2.982698 -0.913619 -1.933004
eth_txethmac/wire_StateJam 0.555612 0.739182 0.843548 -0.397854 -0.811990 -0.850003 1.265366 -0.578196 0.781605 -0.482116 0.563129 0.233960 -0.875657 0.526758 -0.179724 1.392751 0.276017 0.089842 1.197852 0.257851
eth_clockgen/wire_MdcEn_n -1.179304 2.333913 1.335165 -0.715503 0.199159 0.258108 0.727415 0.215940 -0.910670 1.036161 -2.861336 -1.788274 0.868984 -0.622317 -0.550895 0.896580 1.834595 -0.495258 -4.179291 -0.971743
eth_outputcontrol/reg_Mdo_d -3.004147 3.977794 1.808335 -1.927550 1.458454 0.923358 1.892298 2.671814 1.840878 0.184037 -0.893312 -3.518572 -0.123774 0.708299 2.220918 2.400561 2.233017 2.162345 -4.042096 -3.274412
eth_txstatem/assign_5_StartData/expr_1 0.541058 0.762208 0.830320 -0.386881 -0.799738 -0.882585 1.273993 -0.613887 0.810674 -0.475132 0.503219 0.249791 -0.843287 0.539474 -0.186077 1.338988 0.307097 0.054419 1.131177 0.271047
check_ethernet/always_1/if_1 0.993127 4.280865 0.168931 0.288109 1.254333 -1.638076 0.410949 0.932594 -1.764909 -1.177462 -1.463988 0.013069 -3.252978 0.577877 1.144244 2.605871 -0.722331 -3.215663 2.377264 -0.934886
eth_top/wire_r_ScanStat -1.293727 -0.215582 0.492900 0.070814 -0.495135 1.773000 0.501612 0.896059 0.724406 -0.205364 1.753430 -1.674037 0.813634 -0.588767 1.323237 -1.074561 0.834099 3.828367 -1.817682 -0.586067
eth_miim/input_Mdi 0.123818 0.524529 0.763092 -0.304243 -0.275204 0.317754 3.171061 0.265473 0.352619 0.683347 -0.452746 -2.991987 -0.658210 0.446824 -0.294840 0.880489 0.979067 1.152915 -1.010627 -2.356351
eth_rxstatem/assign_1_StartIdle/expr_1/expr_1 0.545624 0.724868 0.775752 -0.408338 -0.809417 -0.792214 1.231392 -0.569664 0.752629 -0.489603 0.521805 0.218261 -0.843962 0.518047 -0.199199 1.309356 0.264573 0.067311 1.146196 0.243134
eth_rxstatem/always_1/block_1/if_1/block_2/if_1/cond 0.495556 0.816740 0.832409 -0.433384 -0.818341 -0.880523 1.228632 -0.602118 0.799920 -0.509568 0.461816 0.280978 -0.826457 0.509965 -0.171635 1.326219 0.279658 0.089047 1.073086 0.284417
eth_rxstatem/assign_1_StartIdle/expr_1/expr_2 0.524783 0.730291 0.803686 -0.382042 -0.779162 -0.785756 1.241066 -0.582563 0.732460 -0.491092 0.486272 0.207437 -0.851857 0.525043 -0.203223 1.343050 0.245511 0.083267 1.204189 0.262025
eth_top/wire_wb_ack_o -0.894275 3.536687 0.501268 -3.221759 2.547918 -3.320516 1.634877 1.029897 2.279414 0.447331 -3.350594 -0.724051 -0.961542 2.186878 -1.043369 1.526209 1.651301 -3.444175 -3.664453 -2.244107
eth_outputcontrol/always_2/block_1/if_1/block_2/if_1/block_1/stmt_3 -2.970605 4.109742 1.786333 -1.966633 1.454905 0.832415 1.944249 2.581217 1.910269 0.172155 -0.861550 -3.463554 -0.306905 0.781601 2.208886 2.647995 2.328399 2.061135 -4.001451 -3.573044
eth_outputcontrol/always_2/block_1/if_1/block_2/if_1/block_1/stmt_2 -2.943513 3.771517 1.850883 -1.934309 1.392951 0.964260 2.150921 2.631508 1.843260 0.350855 -0.838764 -3.604998 -0.188548 0.715729 2.128752 2.459810 2.236570 2.121730 -3.955327 -3.507255
eth_txstatem/always_1/block_1/if_1 0.532231 0.840898 0.870210 -0.401969 -0.863906 -0.875787 1.314080 -0.615422 0.823354 -0.519778 0.545433 0.254985 -0.867881 0.548092 -0.195813 1.380997 0.321396 0.086192 1.187204 0.262302
eth_miim/reg_WCtrlData_q3 1.531082 -4.884174 -0.536332 0.023332 -0.606395 -0.612528 1.106656 -1.487256 -0.370855 0.808057 1.220811 1.435455 2.215882 -1.033335 -3.648578 -5.621590 -0.136927 0.328077 -2.021196 2.234535
eth_miim/reg_WCtrlData_q2 0.221594 -2.576905 0.214726 -0.941428 -0.044470 -0.304532 1.366085 0.204557 0.102264 0.232425 -0.408828 -0.932401 1.686890 -0.558905 -2.156492 -3.938046 0.468735 1.411212 -3.037350 0.975855
eth_miim/reg_WCtrlData_q1 -1.420851 -0.397306 0.456491 0.162990 -0.564921 2.045151 0.376893 0.934681 0.719404 -0.179278 1.949966 -1.689603 0.938833 -0.719382 1.387668 -1.202874 0.890472 4.045641 -1.872433 -0.589881
eth_top/assign_11_temp_wb_dat_o/expr_1/expr_1/expr_1 1.302869 4.345062 -1.614977 -1.734406 0.736613 -5.418111 -1.014781 -1.502969 0.209247 -1.343031 -3.593348 2.031413 -3.069544 2.800332 -0.160900 1.227172 0.012059 -2.561879 -2.051429 -2.803993
eth_top/assign_8_BDCs/expr_1/expr_1/expr_1/expr_1/expr_1 1.143867 -2.738917 -0.660842 0.306060 1.069594 0.857981 2.111784 0.243543 0.814763 1.752356 0.623906 -1.066367 -0.524499 0.499199 -1.438434 0.903151 -0.602174 -1.567349 1.584712 -2.208227
eth_wishbone/always_77/block_1/if_1/if_1/cond 1.157329 -2.835350 -0.675401 0.318087 1.085340 0.863205 2.229939 0.249866 0.852293 1.808775 0.657765 -1.128819 -0.559270 0.505924 -1.468109 0.963504 -0.591106 -1.591085 1.657068 -2.286256
eth_txethmac/always_13/block_1 0.528523 0.811674 0.880183 -0.413683 -0.876476 -0.897663 1.303863 -0.596663 0.817908 -0.512925 0.575127 0.253788 -0.874605 0.545424 -0.219893 1.336468 0.342254 0.117824 1.129028 0.300879
eth_shiftreg/always_1/block_1/if_1/block_2/if_1 0.196768 -1.792037 0.787836 0.680630 -1.207562 2.332225 3.688268 0.145344 0.115081 0.909340 0.874669 -4.293653 -0.083214 -0.508438 -0.232181 0.236663 0.777150 3.292304 -0.288807 -2.573203
eth_registers/always_1/block_1/if_1 1.580114 4.236680 -1.310093 -0.796750 0.147849 -4.724349 -2.384522 -2.398432 -1.356543 -2.827646 -2.836034 2.378504 -2.881937 1.199655 0.065078 0.867318 0.023114 -1.879618 -1.080623 -1.507163
eth_top/wire_RegCs 0.245876 1.646293 -1.128519 0.002770 0.513964 -1.717336 0.458310 -0.230556 0.027213 0.196834 0.345326 0.517897 -0.781125 1.376767 0.236891 -0.002267 0.128743 -0.619776 -0.981571 -1.872869
eth_clockgen/reg_Mdc -2.321299 2.101827 1.987094 -1.640480 -0.586469 -0.960758 1.013682 0.062458 0.006921 1.948346 -3.464454 -0.864969 1.623984 0.472417 0.105236 -1.709558 2.111662 -2.603738 -3.944423 -0.221716
eth_shiftreg/always_1/block_1/if_1/block_2/if_1/cond 0.195004 -1.738958 0.766861 0.604630 -1.176996 2.301818 3.731467 0.192659 0.141904 0.926124 0.832355 -4.299800 -0.111667 -0.503703 -0.229209 0.278357 0.791822 3.235802 -0.280618 -2.616190
eth_shiftreg/always_1/block_1 0.175715 -1.495906 0.802737 0.553585 -1.129390 2.063622 3.602000 0.182528 0.174999 0.849504 0.724455 -4.121707 -0.174047 -0.388917 -0.216010 0.305455 0.841553 3.050164 -0.349314 -2.564652
eth_top/assign_2_RegCs/expr_1 0.589626 0.631268 -0.241764 -1.346848 2.065314 -1.338164 1.769996 0.557545 1.268864 0.526269 -1.400605 -0.924441 -1.071329 1.519045 -1.485342 1.730937 0.535716 -2.500663 -0.559909 -2.013814
eth_wishbone/always_2/block_1/if_1/if_1 1.113483 -2.679814 -0.655749 0.305757 1.040910 0.844554 2.123446 0.224685 0.817137 1.716611 0.669383 -1.039474 -0.503650 0.503644 -1.438899 0.925853 -0.516495 -1.472857 1.517790 -2.184418
eth_rxstatem/assign_2_StartPreamble 0.565165 0.728368 0.826805 -0.398260 -0.848873 -0.842175 1.325046 -0.625677 0.821014 -0.520976 0.540470 0.230869 -0.850263 0.525717 -0.215565 1.393745 0.274872 0.102540 1.214740 0.293781
eth_miim/inst_shftrg 0.128134 -1.783283 0.766224 0.676531 -1.206640 2.449157 3.618629 0.219535 0.102715 0.930401 0.894771 -4.314751 -0.045999 -0.571014 -0.125145 0.231663 0.792728 3.362545 -0.271499 -2.576808
eth_miim/always_3/block_1/if_1/block_1/stmt_9 -0.223702 -0.895188 -0.627218 0.274881 0.267513 0.052952 -1.373664 -0.735342 0.441903 0.107982 2.029906 2.440046 0.716284 -0.338157 -0.105050 -1.367872 0.093184 -0.117130 -0.553781 0.691340
eth_top/always_1/block_1/if_1/block_2/stmt_1 -0.934501 3.769263 0.554131 -3.305530 2.581302 -3.457752 1.631827 1.023552 2.256055 0.412828 -3.435404 -0.726323 -1.028363 2.254971 -1.012288 1.558787 1.734009 -3.526514 -3.832958 -2.242327
eth_top/always_1/block_1/if_1/block_2/stmt_2 0.258653 5.371827 -0.311292 -1.868620 0.647137 -4.506763 -0.869889 -0.322789 -0.097166 -1.839813 -4.977309 -0.265873 -1.545349 2.628453 -0.115486 2.401879 0.817381 -1.699502 -2.647092 -1.049784
eth_top/always_1/block_1/if_1/block_2/stmt_3 -1.212716 2.125848 1.800840 -2.641716 -0.725636 -1.816949 -0.893903 -1.332035 1.400734 0.254583 -4.689999 0.016633 -0.573866 0.232097 0.685961 2.331439 1.343945 -2.312348 -1.096566 -1.330806
eth_clockgen/always_2/block_1/if_1/block_1 -2.559193 2.123750 1.655784 -2.325850 -0.115907 -1.951650 0.627031 0.179022 1.328192 1.604167 -2.335739 0.596456 1.279288 1.322997 0.919554 -1.908364 1.669553 -3.143686 -2.797077 -0.171435
eth_rxstatem/assign_1_StartIdle/expr_1/expr_2/expr_2 0.518069 0.845363 0.830738 -0.445787 -0.810736 -0.913793 1.228735 -0.584355 0.774768 -0.507865 0.483790 0.258342 -0.822030 0.518158 -0.192803 1.321944 0.321582 0.103936 1.077559 0.282574
check_ethernet/input_wb_stb_i 1.101182 4.167240 0.184443 0.238835 1.203957 -1.729321 0.441935 0.863210 -1.643755 -1.193711 -1.467637 0.026402 -3.339986 0.607308 1.083150 2.607007 -0.703626 -3.163859 2.341794 -0.966096
eth_txstatem/always_1/block_1/if_1/block_2/if_6 0.556825 0.792449 0.854381 -0.391693 -0.857698 -0.893473 1.286245 -0.616432 0.807166 -0.524451 0.556779 0.258213 -0.875216 0.525656 -0.184296 1.378071 0.307874 0.125061 1.154113 0.312234
eth_miim/assign_7_ByteSelect/expr_1/expr_1/expr_2 0.144038 -1.625850 0.798531 0.593997 -1.206727 2.245006 3.636076 0.220553 0.171417 0.886339 0.821654 -4.255877 -0.134446 -0.474407 -0.183269 0.285661 0.798403 3.216140 -0.317666 -2.581154
eth_miim/assign_7_ByteSelect/expr_1/expr_1/expr_1 0.134992 -1.826643 0.726222 0.744014 -1.245160 2.433285 3.604312 0.212214 0.070367 0.930213 0.907731 -4.259766 -0.025611 -0.570805 -0.135134 0.182367 0.709348 3.363261 -0.195888 -2.504197
eth_txethmac/wire_StateData 0.559905 0.830805 0.878102 -0.438353 -0.855956 -0.916445 1.320092 -0.621274 0.819805 -0.540759 0.553964 0.253562 -0.871958 0.533094 -0.203514 1.368435 0.323869 0.110537 1.105157 0.276966
eth_txstatem/assign_4_StartData/expr_1/expr_2/expr_2 0.535277 0.792928 0.843010 -0.442476 -0.821885 -0.894522 1.313594 -0.632833 0.798949 -0.505915 0.526081 0.258529 -0.840353 0.522301 -0.173282 1.322096 0.342074 0.103827 1.065219 0.295398
eth_miim/wire_ShiftedBit 0.152072 -1.802777 0.766499 0.693501 -1.196786 2.443931 3.646456 0.204113 0.102934 0.949678 0.921655 -4.273989 -0.040659 -0.563529 -0.187655 0.221086 0.790254 3.364267 -0.266106 -2.545968
eth_miim/assign_10_ByteSelect 0.160063 -1.712131 0.745749 0.626606 -1.175612 2.284191 3.585724 0.173752 0.114663 0.915217 0.865090 -4.202175 -0.096358 -0.502617 -0.178650 0.238184 0.772571 3.216336 -0.292793 -2.516816
eth_miim/reg_SyncStatMdcEn -1.244215 -0.352882 0.431119 0.055888 -0.547541 1.708396 0.466746 0.752195 0.669169 -0.203538 1.800921 -1.519933 0.844242 -0.634003 1.220906 -1.234910 0.856870 3.779345 -1.819949 -0.502755
eth_top/assign_4_RegCs/expr_1/expr_1/expr_1 1.032662 -4.721268 -0.475084 0.993614 0.232118 2.771380 3.922463 -0.212452 1.374603 2.500443 3.243502 -2.455682 -0.009215 -0.222843 -1.502837 -0.039826 0.231769 1.326287 0.777464 -3.680617
eth_wishbone/always_2/block_1 1.161196 -2.855002 -0.691922 0.340135 1.067654 0.876081 2.135355 0.237628 0.819065 1.808470 0.643228 -1.100260 -0.531741 0.461766 -1.460796 0.938802 -0.579296 -1.529255 1.626772 -2.225682
eth_top/assign_4_RegCs/expr_1/expr_1/expr_2 -0.004927 -2.461711 0.048825 1.040801 -1.015239 2.287292 0.506361 -0.002656 -0.228426 0.305475 1.507435 -1.371485 0.681103 -1.080215 0.185092 -0.760832 -0.221656 2.380793 0.802540 -0.161086
eth_top/assign_7_BDCs 0.579439 0.632564 -0.249814 -1.366754 2.131632 -1.361841 1.787400 0.567413 1.261640 0.532639 -1.393226 -0.956614 -1.119956 1.555987 -1.501894 1.767103 0.578528 -2.548959 -0.559778 -2.020629
eth_clockgen/wire_CounterPreset 0.825942 4.413363 0.059836 -0.121077 1.581508 -1.800587 1.592829 0.647786 -0.028582 -2.091010 2.090630 0.790334 -0.990135 0.694871 -1.484419 -1.105417 1.734695 2.504953 -5.269600 1.282133
eth_miim/always_8 -2.257293 0.800703 0.765698 -1.424642 0.820084 1.012900 -0.970733 -0.973227 1.622296 0.853333 -0.585609 -0.002150 0.122288 -0.425492 0.952801 2.327008 2.317786 -0.353494 -3.088616 -3.565848
eth_rxstatem/always_1/block_1/if_1/block_2/if_3/if_1/cond 0.552212 0.800796 0.863283 -0.403778 -0.836122 -0.888805 1.304353 -0.619224 0.812979 -0.508394 0.566459 0.240512 -0.872097 0.538001 -0.189663 1.396731 0.339258 0.105978 1.145639 0.291150
check_ethernet/always_1/if_1/if_1 1.057968 4.004569 0.224810 0.254113 1.237105 -1.617860 0.528931 0.902169 -1.673797 -1.048765 -1.467699 -0.149615 -3.277588 0.589958 1.028264 2.564789 -0.719864 -3.211957 2.378301 -1.018591
eth_shiftreg/input_MdcEn_n 0.181492 -1.686504 0.740225 0.643960 -1.183179 2.231473 3.573775 0.178625 0.139261 0.878768 0.851158 -4.136996 -0.054466 -0.526614 -0.194522 0.168692 0.758543 3.222674 -0.336234 -2.479228
eth_miim/always_7/block_1/if_1/block_2/if_1/cond 1.387084 -2.057554 -0.214031 -0.116090 -0.645946 -1.154392 1.832671 -3.836027 0.069775 0.877123 1.077553 1.482659 -0.212051 -0.462455 -3.032138 -1.727634 1.958657 -0.933637 -2.668545 -2.111251
eth_rxstatem/reg_StateData0 0.566526 0.784856 0.859550 -0.390709 -0.856911 -0.881047 1.294407 -0.586175 0.787914 -0.504644 0.535516 0.282531 -0.874211 0.507045 -0.173221 1.366697 0.295984 0.111858 1.185175 0.302215
eth_miim/always_1 1.833621 -2.587061 -0.206277 -1.075268 0.153439 -2.408025 1.300624 -1.351257 -0.596657 0.405878 -2.084034 0.872325 0.820585 0.017428 -3.945462 -3.205390 -0.038210 -2.357987 -1.628933 1.361306
eth_miim/input_ScanStat -1.369647 -0.216867 0.505525 0.106165 -0.561058 1.865855 0.442623 0.971021 0.695487 -0.193212 1.815971 -1.734257 0.855370 -0.649115 1.393162 -1.135081 0.834167 3.961783 -1.790729 -0.552813
eth_miim/always_3 0.248868 -2.282571 0.260281 -1.088579 0.011619 -0.540390 1.396643 0.206345 0.134616 0.168229 -0.702583 -1.008082 1.558168 -0.430020 -2.149367 -3.741904 0.487858 1.186030 -3.026787 0.914877
eth_miim/always_4 0.349931 -2.252722 0.243883 -1.103671 0.068981 -0.587502 1.570057 0.207666 0.146664 0.171710 -0.718038 -1.041304 1.465864 -0.363235 -2.220338 -3.628573 0.470970 1.137549 -2.960645 0.815750
eth_miim/always_6 -0.178303 -1.063477 0.125814 -0.606695 -0.473823 -0.498677 0.210771 -1.221884 0.114617 -0.155431 0.508088 0.620035 1.061434 -0.663862 -1.130697 -3.120430 1.259370 1.243844 -3.313785 0.207382
eth_miim/always_7 0.206240 -0.343607 0.041555 -0.733853 -0.449880 -1.348323 0.186732 -2.687386 0.086001 -0.165196 0.202863 1.477311 0.128973 -0.421577 -1.572037 -1.867812 1.932432 -0.128859 -3.456264 -1.046958
eth_maccontrol/assign_4_TxStartFrmOut/expr_1/expr_1 0.516638 0.802997 0.818641 -0.401735 -0.771272 -0.860448 1.238525 -0.559474 0.784710 -0.485047 0.473939 0.249536 -0.857476 0.532616 -0.199035 1.310753 0.311961 0.065917 1.100930 0.298464
eth_top/input_wb_dat_i 1.077072 4.128870 0.244363 0.225044 1.253187 -1.660685 0.584499 0.937443 -1.635256 -1.083857 -1.512124 -0.116757 -3.376492 0.638736 1.031927 2.704302 -0.695113 -3.307657 2.471649 -1.063683
eth_top/assign_12_temp_wb_err_o/expr_1/expr_2/expr_1 -0.391898 0.338386 0.487840 -0.556564 -2.215440 -0.875446 -0.583138 -1.668415 0.105188 1.705768 -1.858653 1.552573 -0.645731 -0.435400 0.891674 1.089811 -0.748195 -1.002361 -0.095639 -1.871440
eth_top/assign_4_RegCs/expr_1/expr_1/expr_1/expr_1 0.960216 -4.393990 -0.463258 0.907894 0.226236 2.493033 3.908257 -0.307176 1.412408 2.476592 3.156977 -2.262547 -0.071458 -0.102979 -1.474876 -0.061397 0.322988 1.229061 0.500411 -3.715446
eth_shiftreg/input_ByteSelect 0.160413 -1.673585 0.764773 0.656909 -1.179251 2.263715 3.591043 0.190074 0.114234 0.918348 0.876244 -4.166849 -0.046984 -0.530994 -0.165190 0.198073 0.782194 3.242376 -0.379711 -2.502327
eth_wishbone/always_6/block_1/if_1/if_1/cond 0.530929 0.815042 0.888159 -0.424651 -0.855048 -0.886809 1.311341 -0.621453 0.816048 -0.494815 0.549993 0.282943 -0.883010 0.530643 -0.217524 1.359999 0.359798 0.112178 1.082635 0.247971
check_ethernet/input_wb_cyc_i 1.047841 4.217464 0.241518 0.297827 1.121438 -1.697078 0.437847 0.825582 -1.707383 -1.168038 -1.373873 0.040953 -3.261586 0.571446 1.150649 2.531721 -0.706114 -3.062889 2.356796 -0.946090
eth_top/assign_2_RegCs/expr_1/expr_1 0.662147 0.568912 -0.292433 -1.333212 2.153028 -1.339342 1.865773 0.553043 1.261226 0.555325 -1.416144 -0.933336 -1.168355 1.575967 -1.531860 1.825018 0.538924 -2.610209 -0.467738 -2.110535
eth_top/assign_6_BDCs/expr_1/expr_1/expr_1/expr_1 0.637846 0.469367 -0.297205 -1.320803 2.121549 -1.236768 1.857427 0.565600 1.254796 0.617049 -1.416378 -0.994391 -1.125653 1.565998 -1.541993 1.803882 0.511679 -2.614475 -0.431351 -2.107779
eth_top/assign_12_temp_wb_err_o/expr_1/expr_1 -0.307576 0.096487 0.486758 -0.580582 -2.095837 -0.781808 -0.540408 -1.683187 0.191595 1.631694 -1.824787 1.495924 -0.555124 -0.470422 0.654068 1.008569 -0.670123 -1.000917 -0.078088 -1.681933
eth_top/assign_22_Transmitting 0.501493 0.791553 0.847007 -0.425342 -0.814652 -0.872622 1.292318 -0.609055 0.813249 -0.514174 0.559448 0.254699 -0.857764 0.504483 -0.196313 1.302122 0.351160 0.102521 1.092827 0.291047
eth_txstatem/assign_4_StartData/expr_1/expr_2/expr_1 0.509210 0.788172 0.802358 -0.406300 -0.827548 -0.869119 1.215139 -0.597984 0.771396 -0.535282 0.531894 0.290012 -0.834489 0.527648 -0.162122 1.347270 0.305908 0.083791 1.085473 0.311628
eth_txstatem/reg_StatePAD 0.530062 0.854997 0.863820 -0.423409 -0.812031 -0.913209 1.250149 -0.622222 0.827055 -0.513827 0.525520 0.265651 -0.854949 0.547510 -0.184573 1.335407 0.349292 0.073765 1.071866 0.270766
eth_txstatem/assign_5_StartData 0.505791 0.811875 0.862873 -0.441769 -0.849557 -0.864519 1.300367 -0.583643 0.826291 -0.512939 0.553879 0.254002 -0.856986 0.529881 -0.202932 1.301289 0.331661 0.137044 1.060866 0.246017
eth_top/assign_6_BDCs/expr_1 0.572426 0.632325 -0.268791 -1.374619 2.115470 -1.353983 1.792593 0.528903 1.299109 0.530002 -1.366365 -0.923293 -1.106286 1.557609 -1.503571 1.764237 0.550704 -2.552292 -0.534829 -2.011725
eth_shiftreg/always_1/block_1/if_1/block_2/if_1/block_1/if_1/block_1/case_1/cond 0.013752 -2.401563 0.009951 0.997911 -0.955144 2.200003 0.451042 -0.045806 -0.247319 0.263876 1.435974 -1.287790 0.638349 -1.084390 0.172389 -0.761462 -0.218528 2.240594 0.770367 -0.124292
eth_wishbone/always_6/block_1/if_1 0.569330 0.863312 0.908893 -0.421386 -0.887278 -0.930477 1.334238 -0.628812 0.847295 -0.527100 0.590074 0.288748 -0.908422 0.568481 -0.191582 1.383280 0.355341 0.121489 1.135354 0.280014
eth_miim/always_3/block_1/if_1/block_2/stmt_5 -1.631880 -1.012242 -0.072347 0.668113 -0.805658 2.038306 -1.949916 0.752004 0.258324 -0.602802 3.143363 0.735755 2.079955 -1.384609 1.802245 -3.117064 0.138620 4.199986 -1.545275 1.993846
eth_top/input_md_pad_i 0.088969 0.502378 0.735897 -0.243287 -0.269521 0.385395 3.154541 0.272234 0.315566 0.654015 -0.405514 -2.994052 -0.608970 0.429421 -0.255314 0.862499 0.978801 1.213158 -1.037436 -2.340007
eth_txstatem/assign_3_StartPreamble/expr_1 0.526960 0.807596 0.833537 -0.400813 -0.841379 -0.910447 1.322317 -0.637473 0.814078 -0.509630 0.546318 0.295356 -0.867482 0.543543 -0.177637 1.374094 0.311941 0.129095 1.180419 0.302103
eth_wishbone/always_4/block_1 1.140172 -2.733195 -0.641089 0.304138 1.091162 0.839705 2.172015 0.250483 0.863792 1.764235 0.651520 -1.113572 -0.544125 0.496382 -1.453611 0.953183 -0.541986 -1.523234 1.587150 -2.240109
eth_top/always_1/block_1/if_1/block_2/stmt_1/expr_1 0.648353 2.122863 -0.080290 -4.069233 3.470763 -4.322244 1.731822 -0.223767 2.286644 0.083048 -4.331979 -0.212839 -1.274037 2.681710 -2.616027 1.632411 1.396019 -4.280478 -3.052208 -2.032474
eth_wishbone/reg_TxStartFrm_wb 0.534200 0.825791 0.881013 -0.443471 -0.818297 -0.899435 1.323780 -0.631392 0.821314 -0.494914 0.524362 0.286479 -0.837747 0.532565 -0.216397 1.365664 0.362818 0.091710 1.062226 0.286463
eth_shiftreg/always_1/block_1/if_1/block_2/if_1/block_1/if_1/cond 0.213258 -1.649191 0.787361 0.583762 -1.136829 2.181916 3.739153 0.156001 0.171863 0.903168 0.743109 -4.242010 -0.144423 -0.442899 -0.262569 0.297783 0.802114 3.109839 -0.342843 -2.631919
eth_miim/always_1/block_1/if_1 1.816880 -2.762496 -0.220855 -1.032647 0.106084 -2.335424 1.336268 -1.340494 -0.653276 0.426816 -1.974656 0.897296 0.903883 -0.041563 -3.986980 -3.459530 -0.111317 -2.243980 -1.597741 1.529163
eth_clockgen/always_1/block_1/if_1/block_1/if_1/block_1 0.984491 4.382008 0.017268 0.018886 1.516209 -1.767710 1.599911 0.654847 -0.101561 -2.300033 2.336721 0.800538 -1.080862 0.669500 -1.418830 -1.189157 1.649899 2.775243 -5.004813 1.429689
eth_shiftreg/always_1/block_1/if_1/block_2/if_1/block_1 0.166798 -1.560551 0.779246 0.543811 -1.147548 2.192147 3.699727 0.174920 0.148080 0.931090 0.795684 -4.239643 -0.153930 -0.455510 -0.178628 0.303978 0.854842 3.220292 -0.409563 -2.640739
eth_miim/always_4/block_1 0.326592 -2.408257 0.213871 -0.993831 -0.015854 -0.482992 1.454381 0.182248 0.078095 0.224418 -0.687708 -1.019584 1.511837 -0.447715 -2.191537 -3.678293 0.388718 1.185820 -2.753944 0.908704
eth_clockgen/always_1/block_1/if_1/block_1/if_1/stmt_1 -2.219843 2.545994 0.627163 -2.324388 1.008368 -2.506618 0.240832 -0.547165 1.920332 0.652574 -1.098749 1.108874 0.652664 1.398995 0.592066 -2.052006 2.490865 -1.805835 -4.797579 -1.202248
eth_top/always_1/block_1/if_1/block_2/stmt_3/expr_1 -1.274829 2.150606 1.812259 -2.644048 -0.699347 -1.861345 -0.824584 -1.425763 1.424541 0.300906 -4.577167 0.102033 -0.516402 0.255661 0.699003 2.174682 1.493750 -2.341816 -1.193606 -1.331458
eth_wishbone/reg_WB_ACK_O 0.615234 0.670617 -0.267195 -1.405161 2.132463 -1.378268 1.843528 0.547509 1.296705 0.552636 -1.507348 -0.938697 -1.124264 1.584941 -1.518418 1.814388 0.554614 -2.641242 -0.579394 -2.120842
eth_transmitcontrol/always_1/block_1/if_1/if_1 0.531024 0.758816 0.819020 -0.412867 -0.849412 -0.815139 1.287420 -0.608107 0.787646 -0.507423 0.522899 0.226564 -0.825192 0.509142 -0.196317 1.325970 0.281298 0.088677 1.158480 0.265065
eth_top/assign_9_BDCs/expr_1/expr_1/expr_1/expr_1/expr_1 1.170108 -2.734441 -0.660718 0.285751 1.088000 0.814574 2.206246 0.253566 0.829716 1.763863 0.647352 -1.065512 -0.519589 0.546745 -1.465451 0.914925 -0.553620 -1.584935 1.573516 -2.257532
eth_outputcontrol/always_2/block_1/if_1/block_2/if_1/block_1/stmt_1 -3.162934 3.909180 1.845862 -1.970146 1.348009 0.957624 1.953189 2.599164 1.909058 0.462631 -0.914962 -3.541278 -0.131385 0.756306 2.379828 2.526506 2.315506 1.984978 -4.037059 -3.674124
eth_miim/always_7/block_1/if_1/block_2/if_1/block_1/if_1/cond -0.220224 -1.218123 0.087813 -0.546869 -0.490438 -0.393558 0.058183 -1.208310 0.034699 -0.186669 0.500994 0.648823 1.149683 -0.767015 -1.113915 -3.216879 1.208516 1.279535 -3.280793 0.334981
eth_outputcontrol/assign_1_SerialEn/expr_1/expr_2/expr_2 -0.314586 -1.063970 -0.600503 0.347770 0.205877 0.293492 -1.383018 -0.654695 0.444729 0.152839 2.281792 2.364513 0.800570 -0.447189 0.010363 -1.412879 0.082223 0.118819 -0.543416 0.739347
eth_top/inst_miim1 -0.553424 2.967145 1.038405 -2.125554 0.695556 -2.462317 1.296607 0.164231 -0.033512 -0.673059 -3.692413 -1.527933 -0.063843 0.723119 -0.912212 0.480969 1.425140 -0.836221 -3.520996 -0.359584
eth_top/assign_17_MRxDV_Lb/expr_1/expr_1 0.518912 0.748750 0.845702 -0.423524 -0.836023 -0.872479 1.246532 -0.577323 0.778133 -0.488178 0.482448 0.258030 -0.845157 0.519425 -0.209526 1.362641 0.298188 0.069036 1.153889 0.300044
eth_txethmac/always_13/block_1/if_1/stmt_2/expr_1 0.551679 0.752862 0.855072 -0.394674 -0.813476 -0.846011 1.287184 -0.596729 0.764891 -0.492757 0.526027 0.266608 -0.861561 0.535548 -0.202057 1.353536 0.297228 0.072494 1.195046 0.296424
eth_wishbone/always_30 0.522935 0.791328 0.820839 -0.406293 -0.827062 -0.885989 1.294811 -0.629510 0.810915 -0.503636 0.559030 0.243489 -0.853230 0.552052 -0.186364 1.331349 0.319795 0.125927 1.111622 0.262555
eth_rxstatem/wire_StartSFD 0.550986 0.819013 0.869644 -0.445787 -0.869879 -0.911026 1.337163 -0.646994 0.843256 -0.539150 0.573018 0.291264 -0.867220 0.536578 -0.184465 1.374441 0.351775 0.132652 1.129845 0.266496
eth_txstatem/always_1/block_1/if_1/block_2/stmt_1 0.562715 0.771449 0.851272 -0.431666 -0.874481 -0.883858 1.321032 -0.610817 0.796221 -0.534969 0.586030 0.260784 -0.900198 0.526487 -0.226713 1.410308 0.317988 0.114053 1.187715 0.275546
eth_miim/always_6/block_1/if_1/block_2/if_1/block_1 0.316837 -2.251082 0.193615 -1.128908 0.073700 -0.672919 1.379487 0.190518 0.163957 0.112931 -0.770732 -0.869525 1.544160 -0.365448 -2.214278 -3.776167 0.458763 1.112537 -2.979733 1.023598
eth_wishbone/always_6/block_1 0.584874 0.795555 0.873925 -0.442348 -0.883542 -0.869732 1.353132 -0.602487 0.804066 -0.531591 0.535565 0.272712 -0.877650 0.524045 -0.209899 1.373369 0.330776 0.109984 1.185537 0.300641
eth_registers/assign_110_r_WCtrlData -1.326524 -0.124218 0.449823 -0.017787 -0.512175 1.659660 0.431545 0.829783 0.702641 -0.250437 1.718686 -1.583654 0.829568 -0.560392 1.289440 -1.119822 0.851986 3.747259 -1.855734 -0.562672
eth_wishbone/always_1/block_1/stmt_1/expr_1/expr_1/expr_1/expr_1 0.628388 0.541273 -0.271649 -1.340396 2.085515 -1.243425 1.750653 0.608165 1.237397 0.509382 -1.426995 -0.963400 -1.138297 1.535016 -1.491818 1.842542 0.468491 -2.560234 -0.347025 -1.973607
eth_top/assign_7_BDCs/expr_1/expr_1/expr_1/expr_1 0.643048 0.669964 -0.266523 -1.411345 2.168997 -1.412900 1.869497 0.578012 1.284771 0.554446 -1.549007 -0.937161 -1.161926 1.614003 -1.573781 1.896065 0.534128 -2.737885 -0.498554 -2.083745
eth_top/assign_8_BDCs/expr_1 0.571364 0.593458 -0.275553 -1.368943 2.112596 -1.306789 1.817067 0.577356 1.280499 0.523021 -1.435238 -0.940352 -1.094498 1.557041 -1.500620 1.807650 0.533109 -2.566200 -0.522507 -2.025129
eth_miim/always_8/block_1/if_1 -2.240225 0.880021 0.816571 -1.424626 0.817386 0.969559 -0.780715 -0.929927 1.599505 0.745023 -0.466906 -0.038006 0.163246 -0.447561 0.838125 2.161829 2.395477 -0.170189 -3.317129 -3.415781
eth_top/assign_15_wb_err_o -1.207712 2.095201 1.806027 -2.660037 -0.595443 -1.815197 -0.899096 -1.343606 1.428119 0.230213 -4.604390 0.049053 -0.510123 0.250453 0.661508 2.235328 1.437691 -2.335243 -1.156414 -1.285363
eth_shiftreg/always_1/block_1/if_1/block_2/if_1/block_1/if_1/block_1/case_1 -0.028336 -2.410280 0.032558 1.033370 -1.009506 2.267382 0.475788 -0.016084 -0.221969 0.305570 1.454700 -1.325937 0.672140 -1.092936 0.175014 -0.763256 -0.183939 2.322733 0.769479 -0.152521
eth_top/wire_temp_wb_dat_o 1.352820 4.280488 -1.721167 -1.632033 0.737256 -5.355562 -1.142936 -1.520153 0.111808 -1.290268 -3.557614 2.100270 -3.114049 2.734696 -0.115403 1.217381 -0.094083 -2.633437 -1.926287 -2.852849
eth_wishbone/always_4 1.121292 -2.748612 -0.651850 0.290032 1.116493 0.826748 2.127615 0.279003 0.869287 1.766900 0.630340 -1.064963 -0.498555 0.520254 -1.435135 0.924263 -0.548885 -1.585625 1.567331 -2.214731
eth_rxstatem/wire_StateData 0.565613 0.781990 0.836412 -0.405524 -0.829315 -0.855419 1.271155 -0.579650 0.768162 -0.534518 0.540915 0.255678 -0.843133 0.525534 -0.193624 1.366298 0.319164 0.097733 1.173520 0.287906
eth_wishbone/always_1 0.584938 0.619569 -0.259058 -1.362014 2.054076 -1.348659 1.808871 0.512067 1.243237 0.525091 -1.360796 -0.931255 -1.133170 1.525087 -1.490846 1.745294 0.575904 -2.506286 -0.536371 -2.037462
eth_txstatem/always_1 0.528361 0.862668 0.866129 -0.445364 -0.809562 -0.951009 1.298386 -0.604684 0.832787 -0.520922 0.522942 0.300075 -0.835561 0.573625 -0.174358 1.308023 0.336103 0.110271 1.028093 0.260713
eth_top/wire_ByteSelected 0.057281 4.122417 -0.734925 -2.134614 -0.999722 -4.734351 -1.952983 -2.115461 0.348360 0.570285 -5.076000 2.809707 -2.854008 1.702472 1.265248 1.572797 -0.490340 -3.067138 -2.113220 -3.737440
eth_wishbone/always_2 1.182629 -2.877209 -0.681397 0.312410 1.063085 0.907153 2.182634 0.241364 0.833258 1.809095 0.664730 -1.078969 -0.534888 0.516939 -1.465404 0.955734 -0.619261 -1.565411 1.704383 -2.237264
eth_registers/assign_41_MIICOMMAND_Wr/expr_1 -1.347017 -0.121348 0.518865 -0.006782 -0.480013 1.772884 0.634259 0.909713 0.730243 -0.186386 1.714408 -1.816157 0.740707 -0.574768 1.342652 -0.975014 0.960638 3.839230 -1.921011 -0.805517
eth_top/assign_3_RegCs/expr_1/expr_1 0.571235 0.740165 -0.254907 -1.424479 2.164499 -1.438451 1.851394 0.576976 1.299574 0.511256 -1.554364 -0.900422 -1.147606 1.596355 -1.552661 1.821173 0.565902 -2.685211 -0.600115 -2.098825
eth_registers/wire_MIIMODEROut -1.022957 3.304591 1.341790 -1.605085 0.769222 -2.922541 2.398161 0.474358 1.501766 0.510312 2.238285 2.668609 2.152788 0.896945 -1.553392 -4.803093 2.253062 1.151638 -7.567538 2.994762
eth_miim/wire_MdoEn 1.256516 -1.249423 -0.884245 -0.688402 0.128179 -3.046813 -1.091626 -4.564061 0.029714 0.239435 0.691580 5.303508 0.133301 -0.268175 -3.241690 -2.562239 1.698094 -3.475841 -3.089912 -0.209998
eth_outputcontrol/always_1/block_1/if_1/block_2/if_1/cond 1.116413 -1.357877 -0.849793 -0.575011 0.064564 -2.763370 -1.189169 -4.459180 0.082067 0.248698 1.013755 5.253066 0.301285 -0.373950 -3.055618 -2.720095 1.680229 -3.112210 -3.098043 -0.082330
eth_top/assign_12_temp_wb_err_o/expr_1/expr_2 -0.438422 0.253737 0.587484 -0.575272 -2.108526 -0.704250 -0.461180 -1.576917 0.210411 1.706141 -1.890160 1.332026 -0.562225 -0.474464 0.793217 1.185597 -0.612172 -0.976874 -0.069508 -1.801554
eth_register/input_SyncReset -0.067465 2.836885 0.787319 -3.363264 -5.856027 -6.290243 0.555225 1.334477 5.363054 -0.480359 -0.192700 0.391078 0.669299 3.228776 5.091941 -4.492525 -3.256231 9.831917 -1.822419 3.968794
eth_outputcontrol/wire_SerialEn -3.374192 3.803102 0.939841 -2.289613 1.760894 -0.455037 -1.088394 1.447713 2.669965 0.336288 0.348904 0.807409 0.603271 0.830133 2.488789 1.742973 1.935043 0.347136 -4.057205 -2.125503
eth_register/always_1/block_1/if_1 -0.087969 5.414940 0.521971 0.494165 -2.594998 -3.631197 0.709373 -2.697174 -1.840881 -2.459414 1.961020 1.806377 0.181726 0.652948 1.272549 0.443415 1.225597 1.259930 0.112336 0.638044
eth_shiftreg/always_1/block_1/if_1/block_2/if_1/block_1/if_1/block_2 0.117573 -1.662275 0.745464 0.642133 -1.166942 2.338096 3.532230 0.220482 0.114131 0.904274 0.880099 -4.196796 -0.083184 -0.519574 -0.133351 0.255982 0.790394 3.245215 -0.276607 -2.522879
eth_shiftreg/always_1/block_1/if_1/block_2/if_1/block_1/if_1/block_1 0.010226 -2.345931 0.042809 1.031844 -0.962937 2.186074 0.488528 -0.025115 -0.251241 0.267411 1.395268 -1.366117 0.635430 -1.050225 0.178886 -0.705894 -0.232887 2.297689 0.818351 -0.136642
eth_top/assign_11_temp_wb_dat_o/expr_1/expr_1/expr_2 1.267360 4.411534 -1.783300 -1.615596 0.751404 -5.366561 -1.246439 -1.483846 0.078082 -1.379201 -3.582141 2.102208 -3.061878 2.815354 -0.049906 1.269685 -0.082636 -2.498862 -1.918626 -2.752350
eth_miim/assign_3_ScanStatusOp/expr_1 -1.337013 -0.016673 0.486479 -0.011415 -0.488165 1.648441 0.471970 0.856225 0.726150 -0.207723 1.749690 -1.530337 0.748979 -0.517548 1.324622 -0.996353 0.900718 3.729214 -1.897271 -0.657186
eth_wishbone/always_1/block_1/stmt_1/expr_1/expr_2 0.611410 0.546306 -0.274995 -1.274825 2.065265 -1.261116 1.774197 0.574010 1.243953 0.523964 -1.372910 -0.981606 -1.088309 1.527598 -1.471547 1.773104 0.516096 -2.494845 -0.444306 -1.996333
eth_wishbone/always_1/block_1/stmt_1/expr_1/expr_1 0.605066 0.496677 -0.258691 -1.314119 2.068782 -1.256069 1.873008 0.534622 1.259984 0.545222 -1.336603 -0.925967 -1.113137 1.511241 -1.509623 1.768566 0.539607 -2.517390 -0.481166 -2.072109
eth_wishbone/always_26/block_1/if_1 0.574524 0.856097 0.833451 -0.437149 -0.853905 -0.893652 1.279701 -0.627056 0.810393 -0.527924 0.532867 0.266750 -0.909148 0.558394 -0.213666 1.383937 0.307761 0.069056 1.174314 0.293390
eth_top/wire_md_pad_o -0.142675 3.485601 1.000780 -1.077916 0.057690 -1.828922 1.384374 -0.038209 -0.340411 -0.220200 -3.050281 -1.412392 -0.648128 0.637923 -1.105700 1.335091 1.452562 -0.127929 -4.014112 -0.948556
eth_outputcontrol/always_2/block_1/if_1/block_2/if_1/block_1 -3.069782 4.043397 1.908313 -1.945479 1.226774 0.882929 2.017711 2.531671 1.929701 0.347376 -0.662873 -3.369163 -0.143189 0.739497 2.376678 2.430249 2.304739 2.157538 -3.996407 -3.402237
eth_txstatem/assign_6_StartPAD 0.514870 0.835528 0.805571 -0.404056 -0.797362 -0.906985 1.272936 -0.600876 0.768257 -0.487298 0.506806 0.271927 -0.862798 0.565640 -0.189951 1.337595 0.306202 0.068235 1.119312 0.262830
check_ethernet/always_1/if_1/cond 1.331503 2.034852 0.262800 -0.179378 1.278514 -1.537480 0.546380 0.576875 -1.324127 -0.428644 -2.569705 -0.460558 -3.002927 0.233131 0.107075 1.598436 -0.759399 -3.716611 1.651022 -1.301974
eth_miim/always_7/block_1/if_1/block_2/if_1 0.076878 -0.410723 0.074264 -0.649682 -0.471711 -1.106681 0.065961 -2.517680 0.100222 -0.204021 0.333623 1.406090 0.276256 -0.513603 -1.455652 -1.963621 1.900794 0.114963 -3.439599 -0.888859
eth_rxstatem/assign_2_StartPreamble/expr_1/expr_2 0.598251 0.683189 0.849886 -0.388522 -0.877748 -0.810078 1.340424 -0.614722 0.784492 -0.505818 0.569565 0.219049 -0.877490 0.538089 -0.208563 1.435107 0.255084 0.137263 1.298015 0.314314
eth_top/assign_1_ByteSelected -0.042142 3.984388 -0.684607 -2.122958 -1.172508 -4.765622 -1.877571 -2.327225 0.244729 0.668080 -5.045555 2.852866 -2.650381 1.572081 1.229548 1.394061 -0.446246 -3.156461 -2.190757 -3.774354
eth_registers/assign_13_MIICOMMAND_Sel -1.486776 1.914325 0.314007 -0.545776 0.307974 0.079302 -1.850340 1.566898 0.094578 -1.137431 -0.598228 -0.093643 0.523169 -0.028767 1.816814 -0.235235 -0.021505 1.313891 -0.953715 1.278894
eth_transmitcontrol 0.538356 0.778309 0.807874 -0.400151 -0.818497 -0.843563 1.293809 -0.591153 0.793541 -0.504651 0.552934 0.264203 -0.880391 0.516722 -0.181350 1.352495 0.311113 0.109853 1.133265 0.276159
eth_wishbone/always_2/block_1/if_1/if_1/cond/expr_1 1.109308 -2.669273 -0.664693 0.259937 1.026618 0.795016 2.070554 0.280805 0.795358 1.736014 0.569305 -1.050953 -0.517606 0.486810 -1.409993 0.944363 -0.549681 -1.481909 1.547215 -2.179280
eth_miim/always_1/block_1/if_1/block_1/stmt_1 1.848558 -2.752912 -0.256444 -1.045086 0.159793 -2.420030 1.303760 -1.425718 -0.619887 0.461879 -2.076664 0.922565 0.845989 -0.042812 -4.027794 -3.305166 -0.083295 -2.413921 -1.589164 1.399842
eth_outputcontrol/always_2/block_1/if_1/block_2/if_1/block_1/stmt_1/expr_1 -2.903361 3.923134 1.774971 -2.012213 1.604833 0.800469 2.089052 2.813176 1.875481 0.241155 -1.017715 -3.685962 -0.267323 0.829153 2.142334 2.546442 2.130031 1.950320 -3.864168 -3.460062
eth_clockgen/always_1/block_1/if_1/block_1/if_1 -2.242234 2.192337 0.611527 -2.358204 0.871339 -2.420130 0.191177 -0.597942 1.949412 0.799157 -1.252964 1.029844 0.685343 1.380594 0.634500 -2.059929 2.389225 -1.905521 -4.396396 -1.195479
eth_miim/wire_MdcEn 1.394701 -2.029413 -0.227579 -0.151560 -0.701371 -1.200832 1.854668 -3.881001 0.065847 0.867330 1.063355 1.515786 -0.231702 -0.449971 -3.002474 -1.747183 2.008157 -0.968565 -2.682563 -2.147459
eth_top/assign_22_Transmitting/expr_1 0.564899 0.700411 0.836050 -0.399966 -0.788127 -0.814201 1.268716 -0.582322 0.788903 -0.500479 0.537654 0.215477 -0.835440 0.501665 -0.218700 1.321213 0.266445 0.107897 1.184437 0.252941
eth_clockgen/reg_Counter -1.178924 2.979075 0.606328 -1.344358 0.669505 -1.943447 0.583821 0.122409 0.565334 -0.045285 -1.307674 0.097919 -0.241119 1.387688 0.432161 -1.077345 1.699590 -1.666884 -2.956080 -0.683100
eth_rxstatem/always_1/block_1 0.524775 0.811824 0.864746 -0.466425 -0.856851 -0.896669 1.308584 -0.610536 0.816275 -0.527559 0.522190 0.271013 -0.856685 0.556953 -0.223771 1.335093 0.331316 0.111567 1.129054 0.281634
eth_txstatem/assign_5_StartData/expr_1/expr_1 0.512060 0.863264 0.869124 -0.425041 -0.834455 -0.903586 1.266728 -0.634339 0.831128 -0.539232 0.528350 0.267001 -0.862826 0.547440 -0.197354 1.314573 0.323083 0.126405 1.094828 0.288334
