eth_miim/assign_7_ByteSelect -1.044408 -0.222284 -0.607706 1.685018 1.069538 3.250100 1.479632 -0.293485 1.838320 0.926842 -1.545924 -4.242203 -1.734603 0.106282 1.102682 -3.682167 0.294725 1.291295 -1.829920 0.731279
eth_top/input_wb_adr_i 1.494835 1.147263 2.700286 -2.482990 1.936324 -0.613966 -0.269791 1.204027 -4.347649 -1.167408 3.380124 0.921751 -2.834342 -3.329365 -0.797192 2.881739 3.836431 3.004354 -1.732931 3.349257
eth_outputcontrol/always_2/block_1/if_1/block_2 -0.812856 0.753268 3.008199 0.073302 0.680942 -0.466346 1.535535 1.140749 -2.981650 1.528264 -1.121682 -1.298172 1.363057 2.421075 1.375997 -0.126411 1.709458 1.479035 -1.485812 3.288308
eth_outputcontrol/always_2/block_1/if_1/block_1 -0.900123 1.442292 4.699533 -0.848701 -1.159767 1.079980 1.354873 1.299619 -3.227525 2.193095 -1.762896 -1.819850 1.325240 1.710084 0.518791 1.867122 1.434809 2.780822 -2.187917 2.320602
eth_miim/assign_4_StartOp -0.008199 -1.853122 0.077208 -0.629139 0.450827 0.651781 -0.562943 -0.221375 -1.374421 -3.152792 0.541291 0.649861 -0.066101 1.524981 -0.592935 -1.781349 0.526986 0.486596 -1.948712 -0.481054
eth_top/assign_14_wb_dat_o 0.920663 1.468798 3.593616 -0.670863 -1.157538 -3.652831 1.761002 2.740168 -5.095837 3.205160 -1.151347 0.835590 2.219459 2.449868 0.956384 3.024658 0.922530 2.612469 -0.601652 2.651000
eth_outputcontrol/reg_MdoEn_2d 1.013961 -1.417699 0.635351 -5.209941 -2.422262 -1.055397 -0.846291 -1.740504 -3.147309 -2.771720 2.443117 5.274183 -0.762535 -0.097221 -3.033613 0.865445 0.474513 0.374995 -3.852520 -0.412533
eth_top/assign_8_BDCs/expr_1/expr_1 -0.736791 1.204658 2.273925 -1.375998 -0.674688 -1.288585 2.505958 0.152638 -0.342987 2.765283 -0.643750 0.229207 0.541072 -1.469818 0.470645 0.939869 1.787787 0.212755 -2.381416 0.076132
eth_miim/always_4/block_1/if_1/block_2/if_1 -0.841703 -1.800993 1.639482 0.649847 0.472036 1.766063 0.526686 0.083451 -1.425379 -3.418343 -0.040802 -0.650247 0.475039 1.324386 -0.336815 -1.860136 1.158268 1.021364 -2.287296 -1.956769
eth_register/always_1/block_1/if_1/if_1/if_1/cond -0.131994 2.822394 -0.698068 -0.074126 1.059245 -5.105385 -0.768204 -0.979155 -1.624410 -1.646342 2.679266 2.168432 -1.266446 4.756819 1.267194 -1.416670 -0.317231 0.136896 3.741593 7.458368
eth_miim/assign_3_ScanStatusOp/expr_1/expr_1 -0.122628 -1.777283 -1.854259 0.830853 2.792035 0.151902 -0.487080 0.228637 0.976187 -1.623492 -0.632771 -1.721505 -0.017856 1.553502 1.045300 -3.484099 0.547272 -0.570778 -0.550668 1.737352
eth_miim/assign_3_ScanStatusOp/expr_1/expr_2 -0.370748 -1.463543 -2.068398 -0.322741 1.269562 1.781025 0.481935 -1.339864 1.708289 -0.814270 -0.127496 -1.535315 -1.862800 -0.039380 -0.063337 -4.240246 0.499940 -0.074673 -2.510180 0.787747
eth_top/inst_check_eth_top -0.159262 4.109313 2.738006 0.521107 -1.376944 -1.366082 1.265601 0.789052 -1.529579 2.589284 1.246259 -0.044573 -1.206025 -1.147216 1.782934 2.812677 -0.125833 1.532893 2.340958 1.572957
eth_miim/wire_MdcEn_n -0.555978 -0.339017 3.013098 -0.711795 0.806885 1.426215 -0.446539 0.461568 -2.213253 0.875761 -1.508516 -2.376795 1.758460 1.646048 -0.156941 -0.086170 1.654937 0.230605 -1.830635 2.806465
eth_wishbone/reg_TxEn_needed -0.558592 0.321962 0.037577 -0.560975 -0.733025 0.883438 1.955369 -1.075815 1.957534 2.343250 -0.332221 -0.390327 -1.062351 -2.762950 -0.020083 -0.623538 0.609440 -0.618650 -1.885135 -1.577551
eth_top/always_4/block_1 -0.066778 1.215971 -0.392994 -0.798110 -0.921646 -1.065137 1.084895 -0.321569 1.234944 0.376227 -0.008144 0.062700 -0.562654 0.415871 0.282843 0.419638 -0.149213 1.209802 0.190896 1.138637
eth_register/reg_DataOut 0.188727 2.663143 -0.990933 -0.356739 -1.937687 -3.777616 0.218293 -0.769425 -2.457208 -1.572933 2.035568 0.545964 -0.138307 2.647110 -1.525765 -0.952310 -1.795376 1.886323 2.218534 4.400917
eth_registers/wire_r_MiiNoPre -0.367324 -1.568033 -2.212441 -0.267517 1.420526 1.808838 0.369260 -1.341459 1.804300 -0.844417 -0.174312 -1.636000 -1.830619 -0.025101 -0.037366 -4.334048 0.519556 -0.170063 -2.454407 0.847792
eth_rxstatem/assign_3_StartSFD -0.066281 1.197826 -0.408183 -0.856119 -0.944838 -1.092490 1.147604 -0.324118 1.273608 0.362440 0.003586 0.019938 -0.578094 0.427686 0.316810 0.389730 -0.158248 1.231730 0.162270 1.188278
eth_txstatem/reg_StateFCS -0.072498 1.213796 -0.423378 -0.869675 -0.931050 -1.147635 1.158998 -0.354827 1.216350 0.354280 0.009390 0.069742 -0.560604 0.519364 0.322687 0.366635 -0.115890 1.271957 0.115658 1.250382
eth_outputcontrol/reg_MdoEn_d 1.023070 -1.502599 0.514008 -5.190135 -2.365816 -1.068672 -0.933227 -1.768037 -3.151401 -3.009871 2.527670 5.332040 -0.802511 0.039227 -3.057310 0.687064 0.460423 0.317070 -3.816551 -0.443867
eth_txethmac/always_13/block_1/if_1/stmt_2 -0.060320 1.196217 -0.365105 -0.857183 -0.931534 -1.117494 1.106399 -0.279462 1.168313 0.346613 -0.020364 0.087675 -0.527210 0.520224 0.307494 0.394977 -0.161652 1.254275 0.152058 1.227686
eth_miim/always_6/block_1/if_1 0.050617 -1.914114 0.098544 -0.860660 0.472826 0.461713 -0.651337 -0.200022 -1.534507 -3.236668 0.566665 0.872387 0.017031 1.528817 -0.648920 -1.678284 0.566241 0.397254 -1.975000 -0.419165
eth_miim/always_4/block_1/if_1/block_2/if_1/block_2/if_2/cond 0.547614 -2.769934 -3.502995 0.823806 3.012455 -0.400653 -2.319201 -0.260329 1.231684 -3.963861 0.575917 0.151707 0.222880 1.844083 0.066917 -3.240908 -0.153905 -1.797896 0.990697 0.467619
eth_registers/input_Rw 2.261103 -1.494444 -3.329595 -0.464405 -0.375454 -2.810581 -1.442717 1.210568 -0.729127 -2.057317 0.233161 3.302486 -0.638678 5.153547 1.705713 -0.153733 -2.796046 1.576099 2.277449 1.031520
eth_wishbone/reg_TxBDReady -0.080382 1.195162 -0.386888 -0.862774 -0.936929 -1.164170 1.109141 -0.320096 1.176909 0.367447 -0.030761 0.064426 -0.525872 0.550801 0.324162 0.355983 -0.116722 1.231538 0.119084 1.246115
eth_rxstatem/assign_1_StartIdle/expr_1/expr_2/expr_1/expr_1 -0.049259 1.183254 -0.347516 -0.865258 -0.911756 -1.109718 1.119871 -0.293663 1.145862 0.366900 -0.027374 0.099627 -0.513914 0.541284 0.310081 0.381774 -0.109586 1.244075 0.150790 1.214651
eth_outputcontrol/reg_MdoEn 1.029739 -1.419364 0.525512 -5.103593 -2.327634 -1.036219 -0.876205 -1.747164 -3.049778 -2.908966 2.465996 5.217612 -0.800912 0.001233 -2.978526 0.713098 0.489824 0.371154 -3.745309 -0.404733
eth_register/always_1/block_1 0.266685 2.550671 -1.296685 -0.163644 -1.601389 -3.543741 0.126135 -0.676845 -2.127255 -1.581671 1.925622 0.193581 -0.289506 2.420211 -1.430547 -1.037527 -1.768429 1.891147 2.343505 4.400245
eth_top/assign_16_temp_wb_ack_o/expr_1/expr_1 -0.708250 1.173034 2.225649 -1.363523 -0.630393 -1.282473 2.465117 0.141361 -0.328839 2.690742 -0.650613 0.198377 0.565067 -1.418553 0.440751 0.962389 1.816599 0.277709 -2.323598 0.074802
eth_top/reg_temp_wb_dat_o_reg 0.876517 1.538772 3.431607 -0.599256 -1.083551 -3.657099 1.667129 2.592103 -5.058765 3.056446 -1.004825 0.764933 2.215337 2.455698 0.734766 2.857319 0.907401 2.536051 -0.457658 2.731446
eth_miim/reg_RStatStart_q1 1.321526 -2.578593 -4.713273 -0.532413 2.844569 -1.755071 -3.158983 -0.468036 0.909291 -3.643867 1.110512 1.517651 -0.269506 2.425444 -0.018675 -3.128234 -0.763579 -2.070938 1.277628 2.220866
eth_miim/reg_RStatStart_q2 1.161688 -2.329889 -5.113498 -1.654754 1.569514 -0.299735 -2.391464 -1.943367 1.759152 -2.790709 1.569971 1.664505 -1.991052 0.829359 -1.061444 -3.882341 -0.806854 -1.757782 -0.538762 1.519302
eth_clockgen/input_Divider -1.687660 -0.752693 2.882564 0.186068 1.133211 -1.751199 0.175200 -1.271728 -4.198683 -5.042305 2.136362 3.088343 2.592863 5.811312 -0.822809 -3.450816 2.789053 -1.195193 -2.315027 1.496279
eth_wishbone/always_1/block_1/stmt_1 -0.722918 1.204998 2.362174 -1.451433 -0.691626 -1.411993 2.502841 0.177804 -0.406574 2.717888 -0.631977 0.258103 0.593962 -1.381917 0.482768 1.004240 1.813516 0.283299 -2.368961 0.130909
eth_top/inst_rxethmac1 -0.080958 1.195386 -0.433636 -0.843307 -0.931724 -1.074359 1.101782 -0.332666 1.231631 0.373399 0.005137 0.041621 -0.563349 0.467921 0.292457 0.346050 -0.142320 1.263973 0.166245 1.207381
check_ethernet/reg_wb_wr_dat -0.169106 4.086298 2.852406 0.463946 -1.414274 -1.376600 1.319914 0.809001 -1.620749 2.619398 1.161053 -0.072245 -1.124652 -1.120457 1.797666 2.830896 -0.121156 1.579307 2.202489 1.586400
eth_miim/reg_RStatStart 0.527069 -2.826796 -3.492525 0.812734 3.038457 -0.329393 -2.316589 -0.297830 1.200453 -4.000398 0.589608 0.197685 0.191089 1.865855 0.068722 -3.364398 -0.149077 -1.814845 0.910565 0.458631
eth_outputcontrol/always_1/block_1/if_1/block_2/if_1 1.015053 -1.446584 0.441077 -5.047008 -2.165118 -1.173314 -0.888920 -1.692963 -3.035759 -2.858564 2.394496 5.150673 -0.714257 0.126629 -2.876122 0.578655 0.526586 0.301584 -3.716920 -0.237342
eth_registers/wire_r_ScanStat -0.205244 -1.760292 -1.829127 0.847765 2.725799 0.351726 -0.362948 0.188354 1.055359 -1.512245 -0.707495 -1.864589 -0.133017 1.410137 1.005585 -3.470125 0.569568 -0.503544 -0.603559 1.580646
eth_txstatem/assign_3_StartPreamble/expr_1/expr_1 -0.088590 1.251269 -0.427036 -0.964300 -0.990416 -1.184879 1.224440 -0.354243 1.269712 0.425038 0.001189 0.039200 -0.609304 0.507665 0.333273 0.328533 -0.127914 1.326228 0.103162 1.319450
eth_top/assign_7_BDCs/expr_1/expr_1/expr_1/expr_1/expr_1 -0.618221 0.307779 -0.061209 -0.596300 -0.693740 0.974057 2.000772 -1.178638 2.091249 2.377654 -0.305132 -0.433851 -1.167391 -2.924389 -0.089795 -0.770141 0.601004 -0.660654 -2.035486 -1.682992
eth_miim/always_8/block_1/if_1/block_1/if_1/block_1/if_1/cond -0.158867 -1.829188 -1.937798 0.828228 2.756129 0.286222 -0.482402 0.143473 1.039277 -1.614123 -0.620322 -1.776527 -0.098474 1.500542 0.979388 -3.553660 0.555697 -0.591816 -0.589745 1.628924
eth_top/assign_2_RegCs/expr_1/expr_1/expr_1/expr_1/expr_1 -0.594641 0.268585 -0.049402 -0.565229 -0.682573 0.963671 1.888239 -1.139556 1.985180 2.262679 -0.323796 -0.419936 -1.087176 -2.783171 -0.053085 -0.733070 0.582624 -0.649634 -1.951871 -1.619153
eth_top/assign_5_RegCs -1.311231 -0.492513 1.579702 -0.737620 2.060725 -2.494848 1.958179 -1.544802 -2.169457 0.805922 0.871680 2.173294 0.160660 1.559933 0.996945 -4.475767 3.161965 -2.646039 -3.754626 2.510241
eth_outputcontrol/always_2/block_1 -0.539372 0.785775 3.288406 -0.678565 0.225928 -0.064604 1.275021 0.839473 -3.151866 1.361801 -0.715820 -0.398502 1.307567 2.320019 0.660053 0.718310 1.881116 1.926454 -1.663793 2.948054
eth_wishbone/always_27/block_1/if_1/stmt_2 -0.061295 1.237477 -0.425485 -0.907086 -0.962296 -1.182056 1.147828 -0.336020 1.262038 0.422028 -0.016389 0.068319 -0.574789 0.507258 0.303704 0.401898 -0.161168 1.303070 0.200226 1.247319
eth_miim/assign_1_WriteDataOp -0.797260 -1.886656 1.574595 0.610862 0.464060 1.758363 0.465841 0.043466 -1.359731 -3.395991 -0.005875 -0.527055 0.494145 1.112659 -0.439642 -1.842148 1.176002 0.886750 -2.335912 -2.149247
eth_rxstatem/always_1/block_1/if_1/block_2/if_1/cond/expr_1 -0.038391 1.229156 -0.463184 -0.820462 -0.910106 -1.061678 1.114098 -0.313906 1.246180 0.393545 -0.009197 0.040359 -0.586674 0.407060 0.319608 0.420400 -0.167354 1.254491 0.204634 1.134754
eth_miim/inst_outctrl -0.145945 0.589828 1.950672 -0.896877 -0.021017 0.346742 0.293908 0.090014 -2.051191 1.025221 -0.424446 -0.100819 1.361663 2.010536 -0.244576 1.147300 1.320613 1.187657 -0.841148 2.249715
eth_wishbone/always_1/block_1 -0.706835 1.212588 2.254234 -1.355394 -0.663787 -1.277886 2.464278 0.146668 -0.296687 2.736874 -0.660941 0.189056 0.534710 -1.442509 0.471090 1.040488 1.763778 0.248535 -2.291662 0.018231
eth_top/assign_9_BDCs -0.703077 1.236265 2.330956 -1.401693 -0.707766 -1.304216 2.542654 0.162831 -0.349597 2.797393 -0.648309 0.243349 0.584614 -1.490021 0.491964 1.013151 1.849662 0.245059 -2.415088 0.057337
eth_outputcontrol/always_1/block_1 1.091669 -1.512094 0.433922 -5.267079 -2.301647 -1.109744 -0.978289 -1.757532 -3.063770 -2.807701 2.429418 5.267318 -0.820605 -0.082222 -3.003898 0.715157 0.459796 0.254550 -3.852323 -0.280780
eth_outputcontrol/always_2/block_1/if_1 -0.594807 0.625090 3.135635 -0.697297 0.105795 0.044424 1.127411 0.731180 -3.009133 1.291247 -0.836674 -0.465667 1.311137 2.369174 0.598193 0.513737 1.643124 1.793208 -1.655149 2.887503
eth_txethmac -0.038410 1.243579 -0.439664 -0.895853 -0.951987 -1.173371 1.134810 -0.307378 1.226673 0.359182 -0.010076 0.056702 -0.569666 0.526862 0.322973 0.389606 -0.175007 1.302754 0.142126 1.296108
eth_miim/reg_InProgress 0.250857 -1.379371 0.533205 -2.089417 -0.248531 0.346439 -0.297939 -0.326664 -2.018058 -2.038667 0.460389 1.068983 -0.417688 1.187742 -0.838535 -0.996406 0.618333 1.031910 -2.835134 0.711541
eth_miim/always_7/block_1/if_1/block_2/if_1/block_1/if_1/block_2/if_1/cond -0.276048 -3.378353 -0.959950 -2.247658 0.060044 4.858749 -0.297662 -2.194222 0.466189 -2.298460 -0.039597 -1.052557 -2.560634 -1.509566 -2.198143 -4.149758 0.690567 0.335805 -5.749174 -1.261353
eth_wishbone/reg_WbEn -0.288329 0.090038 -0.036108 -0.113285 -0.343433 0.694357 0.917170 -0.590640 1.198568 1.249431 -0.204960 -0.373260 -0.560933 -1.699574 -0.043531 -0.308314 0.257085 -0.412243 -0.895817 -1.121388
eth_txethmac/wire_StatePAD -0.059384 1.213424 -0.462472 -0.847520 -0.947754 -1.094579 1.132185 -0.349183 1.272546 0.363315 -0.026705 0.060474 -0.589466 0.446277 0.318097 0.390599 -0.173224 1.287660 0.125830 1.221544
eth_clockgen/always_1/block_1/if_1/block_1/if_1/stmt_1/expr_1 -1.127212 -1.045141 2.912237 -1.797585 0.043479 -2.465498 -0.060355 0.513123 -3.216606 -0.318030 -1.441005 2.179584 2.262290 2.406307 1.120942 -0.900160 0.872375 -1.721009 -3.042850 1.779205
eth_registers/assign_112_r_ScanStat -0.149930 -1.704597 -1.704184 0.758193 2.641377 0.091361 -0.380530 0.220742 0.849521 -1.518447 -0.652509 -1.651488 0.020998 1.480540 0.999488 -3.307162 0.582959 -0.471963 -0.554806 1.617508
eth_miim/always_6/block_1/if_1/block_2/if_1/block_1/stmt_10 -0.373239 -1.556423 -2.174167 -0.218341 1.434037 1.857707 0.377159 -1.321164 1.804354 -0.866864 -0.167101 -1.639882 -1.832167 -0.070335 -0.048230 -4.346708 0.497339 -0.200520 -2.456177 0.833513
eth_miim/always_6/block_1/if_1/block_2/if_1/block_1/stmt_11 -0.570587 -0.458184 3.070279 -0.580891 -2.319251 1.728277 0.728197 -0.528480 -2.536236 -2.694495 0.971092 1.524672 0.120843 0.147158 -1.717566 0.874064 0.596044 1.651896 -2.257041 -3.501321
eth_top/assign_7_BDCs/expr_1 -0.723532 1.217818 2.438379 -1.415593 -0.643475 -1.359655 2.552399 0.179244 -0.408888 2.783154 -0.679313 0.210202 0.640581 -1.428636 0.482831 1.017725 1.892552 0.266120 -2.428160 0.089344
eth_miim/always_8/block_1/if_1/block_1/if_1/block_1/if_1/block_1/if_1 0.762808 -2.326201 -1.475176 -5.129958 -0.870877 2.602299 -0.697899 -2.231116 -0.495914 -0.257232 0.335272 0.755542 -3.140208 -1.349404 -2.305122 -2.694460 0.219522 0.648022 -6.034049 2.027763
eth_txethmac/always_13 -0.042511 1.170670 -0.375431 -0.881199 -0.884764 -1.116036 1.123474 -0.301613 1.175375 0.340713 -0.028573 0.062226 -0.555041 0.486049 0.299157 0.339728 -0.118114 1.240739 0.132716 1.253996
eth_register/always_1 0.225689 2.478310 -1.191210 -0.329973 -1.559225 -3.749534 0.011745 -0.662616 -2.380486 -1.453937 1.901373 0.348156 -0.160533 2.523241 -1.431684 -1.101929 -1.763127 1.617325 2.280322 4.791262
eth_shiftreg/input_Rgad -0.012932 -0.928327 -1.955286 0.990598 0.880381 2.072354 -0.461460 -0.463711 2.014241 -0.796747 -0.349431 -1.749704 -1.129919 -0.407869 -0.012067 -1.819865 -0.499096 -0.004885 0.084369 -0.694357
eth_top/assign_5_RegCs/expr_1 -1.353298 -0.444198 1.634497 -0.721086 1.800219 -2.529812 2.052937 -1.474063 -2.249995 0.920243 0.721461 2.187425 0.187032 1.552752 1.104591 -4.387619 2.945978 -2.619310 -3.750817 2.297972
eth_maccontrol/wire_TxStartFrmOut -0.035707 1.243572 -0.402085 -0.854141 -0.945145 -1.154140 1.133288 -0.299993 1.234551 0.392555 0.001490 0.054552 -0.586255 0.444212 0.332371 0.420521 -0.146214 1.260644 0.185334 1.193858
eth_registers/wire_MIIADDRESSOut -0.010462 -0.977914 -2.005049 1.061581 0.918477 2.151638 -0.450570 -0.481457 2.091749 -0.811361 -0.353775 -1.847284 -1.186661 -0.400680 -0.015731 -1.951731 -0.502779 0.009233 0.079229 -0.657987
eth_miim/assign_9_ByteSelect -1.048143 -0.158164 -0.484634 1.701616 1.042730 3.185840 1.518312 -0.244801 1.786708 1.051895 -1.589175 -4.250064 -1.692257 0.110060 1.135205 -3.563979 0.260765 1.236559 -1.733716 0.758684
eth_clockgen/always_1/block_1 -0.990367 0.355530 3.058111 -0.777721 -0.239737 -1.922246 0.019984 0.952809 -2.788806 0.149605 -0.808025 1.058044 1.192733 1.775708 1.058771 -0.337611 0.776730 -0.504207 -1.633775 1.743708
eth_miim/wire_Mdc -1.923321 2.038017 6.984701 -1.258269 -3.693844 -5.148511 4.168669 1.961004 -5.639646 -0.034195 -0.664059 3.540807 3.739773 3.031393 1.588462 2.159349 1.612899 1.870803 -3.290134 -1.970693
eth_top/wire_TxStartFrmOut -0.081999 1.188369 -0.412963 -0.872775 -0.952248 -1.153949 1.125737 -0.313423 1.183427 0.377746 -0.004914 0.063601 -0.545985 0.478843 0.326704 0.374389 -0.128279 1.243903 0.126558 1.233247
eth_rxstatem/always_1/block_1/if_1 -0.071328 1.196696 -0.429755 -0.858351 -0.903315 -1.086677 1.100259 -0.295975 1.198314 0.366886 -0.010050 0.048194 -0.549256 0.474151 0.308825 0.395436 -0.145493 1.226189 0.133169 1.168701
eth_clockgen/assign_4_MdcEn 0.166908 -0.930485 0.293532 -3.415069 -1.699835 1.278051 0.526780 -1.753440 -1.547783 -1.439682 1.140032 1.661449 -2.088046 0.026450 -1.837323 -1.635807 0.542677 1.514989 -4.549036 0.283488
eth_miim/wire_Mdo -0.533253 0.681389 2.970117 -0.648418 0.080909 0.014524 1.347978 0.714584 -2.907911 1.331697 -0.766338 -0.443334 1.187647 2.371405 0.660478 0.475006 1.649806 1.975422 -1.653826 2.707211
eth_top/inst_maccontrol1 -0.073082 1.208210 -0.401230 -0.883944 -0.949392 -1.139227 1.149757 -0.313800 1.207897 0.386386 -0.019595 0.049738 -0.543860 0.461420 0.327523 0.400320 -0.125790 1.240512 0.131054 1.215257
eth_txstatem/assign_5_StartData/expr_1/expr_1/expr_1 -0.050445 1.213543 -0.433906 -0.865831 -0.934180 -1.065870 1.118768 -0.307379 1.250855 0.382369 -0.007669 0.019463 -0.562964 0.419795 0.280581 0.415427 -0.157561 1.261778 0.155790 1.173979
eth_txstatem/reg_StateData -0.045986 1.203871 -0.460751 -0.822751 -0.947578 -1.078600 1.133590 -0.326459 1.326862 0.364977 -0.004115 0.008397 -0.603412 0.407161 0.310924 0.375091 -0.172664 1.240893 0.185783 1.158908
eth_miim/always_3/block_1/if_1/block_2/if_1 -0.185490 -1.702259 -1.781419 0.754228 2.650537 0.250661 -0.319906 0.199676 0.965542 -1.509127 -0.650097 -1.762252 -0.118318 1.501399 1.029482 -3.474848 0.579034 -0.432407 -0.665316 1.626472
eth_register/always_1/block_1/if_1/stmt_1 -0.152900 2.512145 -0.100752 0.157090 1.170948 -4.939173 -0.919777 -0.651127 -2.688292 -1.248309 2.538721 2.283467 -0.727996 4.754870 1.299948 -1.378774 -0.265671 -0.248172 3.434275 7.000935
eth_top/wire_RegDataOut 1.967136 1.169079 1.452782 -1.729542 -1.860791 -3.129248 0.077820 2.363718 -5.345577 1.067860 0.992785 2.744761 -0.268033 1.423124 0.447465 3.299976 -1.056133 3.263738 0.628988 2.019876
eth_txstatem/always_1/block_1/if_1/block_2/if_6/if_1 -0.050776 1.194507 -0.448522 -0.832811 -0.925119 -1.088244 1.108505 -0.315361 1.276832 0.363434 0.002738 0.022226 -0.592588 0.418855 0.307621 0.384418 -0.165639 1.226150 0.128231 1.184746
eth_wishbone/always_6/block_1/if_1/if_1/if_1 -0.065945 1.241889 -0.392167 -0.866244 -0.941196 -1.144278 1.147083 -0.310988 1.182955 0.381347 0.006700 0.086303 -0.578950 0.492591 0.315515 0.419307 -0.142737 1.270605 0.180496 1.220921
eth_registers/assign_39_MIIMODER_Wr -1.694462 -0.892655 2.870844 0.126634 1.184423 -1.578020 0.081479 -1.316739 -4.157965 -5.084618 2.147779 3.141108 2.626461 5.542867 -0.938198 -3.356375 2.943185 -1.344346 -2.454228 1.266362
eth_top/assign_9_BDCs/expr_1/expr_1 -0.725322 1.213313 2.352572 -1.458477 -0.643143 -1.460112 2.519547 0.203961 -0.435037 2.737517 -0.606746 0.310624 0.601973 -1.360481 0.468657 1.039612 1.827424 0.273047 -2.381200 0.179130
eth_miim/input_Rgad -0.000981 -0.974212 -2.024689 1.065229 0.910709 2.154795 -0.496914 -0.456080 2.119712 -0.789291 -0.362976 -1.808580 -1.158889 -0.400683 -0.026716 -1.900100 -0.523006 -0.005379 0.123265 -0.679038
eth_wishbone/always_6 -0.051873 1.149178 -0.410482 -0.884835 -0.881689 -1.104316 1.093401 -0.352067 1.173137 0.309743 -0.013796 0.064458 -0.530405 0.526907 0.296116 0.328506 -0.108023 1.249989 0.106808 1.260857
eth_miim/wire_EndOp -0.264736 -3.374970 -1.059503 -2.207307 0.166739 4.912942 -0.320580 -2.201962 0.592303 -2.240798 -0.096530 -1.169905 -2.608667 -1.496210 -2.187093 -4.250678 0.641539 0.286079 -5.721863 -1.150434
eth_wishbone/always_24/block_1 -0.062952 1.220059 -0.437602 -0.873045 -0.929869 -1.144594 1.106298 -0.318431 1.227543 0.386664 -0.027449 0.072819 -0.558477 0.504126 0.318428 0.381075 -0.154254 1.247663 0.142088 1.208898
eth_top/wire_r_WCtrlData -0.180257 -1.760942 -1.790618 0.823853 2.625925 0.268965 -0.399395 0.176649 0.925322 -1.569177 -0.632021 -1.702680 -0.077459 1.489061 1.000490 -3.429050 0.543356 -0.439003 -0.588774 1.556325
eth_top/assign_3_RegCs/expr_1 -0.736844 1.239237 2.380763 -1.474765 -0.683790 -1.362888 2.605028 0.131348 -0.392907 2.858674 -0.661118 0.260119 0.604520 -1.494615 0.492146 0.994146 1.874255 0.234877 -2.458000 0.141812
eth_txstatem/assign_7_StartFCS/expr_1/expr_1/expr_1 -0.081303 1.165072 -0.394193 -0.824595 -0.911887 -1.073123 1.122056 -0.340463 1.223456 0.378810 -0.013372 0.044002 -0.582615 0.469164 0.299103 0.364543 -0.164083 1.227726 0.137663 1.188976
eth_top/assign_6_BDCs/expr_1/expr_1 -0.707267 1.196903 2.324023 -1.378250 -0.617476 -1.407484 2.400762 0.169093 -0.499713 2.608736 -0.606737 0.336418 0.607006 -1.242105 0.510118 0.960372 1.797287 0.238395 -2.332365 0.196819
eth_top/always_1/block_1 0.968249 0.690930 1.811464 -1.753391 -0.925497 -4.093613 1.867321 2.362546 -2.722804 3.759754 -1.431148 1.455439 1.962701 0.611872 1.476356 2.859826 0.477404 1.349218 -1.195314 1.351794
eth_rxethmac -0.072760 1.224742 -0.456728 -0.841729 -0.917366 -1.100329 1.101683 -0.294134 1.229905 0.370808 -0.023745 0.018796 -0.595831 0.458667 0.286601 0.380724 -0.180566 1.221792 0.204357 1.142923
eth_registers/wire_r_WCtrlData -0.165474 -1.680519 -1.676434 0.755835 2.601353 0.196128 -0.302182 0.203128 0.830045 -1.541489 -0.625180 -1.683070 -0.080402 1.548268 1.023915 -3.388235 0.546706 -0.411220 -0.645026 1.666476
eth_miim/reg_EndBusy -0.561205 -0.503712 3.145292 -0.749937 -2.414637 1.761778 0.735720 -0.542346 -2.606201 -2.571254 0.922531 1.582636 0.080013 -0.024507 -1.807491 1.036098 0.593389 1.655881 -2.435444 -3.552105
eth_wishbone/always_26/block_1/if_1/stmt_2 -0.058101 1.203074 -0.416506 -0.850378 -0.959493 -1.173777 1.167531 -0.330954 1.193351 0.387455 -0.000233 0.079871 -0.536843 0.498159 0.314435 0.400141 -0.135378 1.261591 0.179748 1.256709
eth_miim/always_8/block_1/if_1/stmt_1 -0.147332 3.600126 4.423452 -1.325384 -3.918968 -3.210482 3.381560 1.756823 -1.706605 4.702436 -0.467341 1.919825 1.935828 -2.200219 0.716651 6.343009 0.360585 1.632808 0.242577 -2.111034
eth_outputcontrol -0.173548 0.616796 2.031212 -0.886702 -0.044002 0.464838 0.285540 0.109836 -1.999196 1.152771 -0.436242 -0.240671 1.351304 1.804498 -0.260398 1.359602 1.303577 1.181343 -0.775411 2.182083
eth_outputcontrol/reg_Mdo_2d -1.026836 -0.351687 1.852527 0.273565 3.429241 -1.774881 1.540034 1.884711 -0.985638 2.422828 -2.576168 -3.261435 2.678638 1.959835 2.915153 -2.039425 2.374997 -0.709248 -1.691493 5.141878
eth_top/wire_BDCs -0.723085 1.221314 2.290092 -1.431783 -0.680945 -1.326216 2.581061 0.111539 -0.316672 2.766493 -0.625986 0.266357 0.505020 -1.485923 0.478142 0.949476 1.818173 0.241738 -2.422214 0.080879
eth_registers/always_1/block_1 1.886946 1.354527 1.663679 -1.567974 -1.883186 -3.094766 0.088453 2.339311 -5.370885 1.174765 1.039323 2.606690 -0.244865 1.153908 0.379303 3.396672 -1.028035 3.181919 0.748820 1.978224
eth_outputcontrol/always_2/block_1/if_1/block_2/if_1/block_1/stmt_1/expr_1/expr_2 -1.184013 -0.241444 2.856244 -0.106973 3.391745 -2.765851 1.614256 2.051279 -2.324756 2.541791 -2.582552 -2.535064 3.411486 2.837999 3.005692 -1.909130 2.737877 -1.001275 -1.999889 6.070177
eth_transmitcontrol/reg_WillSendControlFrame -0.072684 1.243967 -0.372701 -0.877148 -0.934249 -1.151317 1.127370 -0.298951 1.179067 0.385903 -0.012777 0.084305 -0.556598 0.533132 0.331226 0.413165 -0.130827 1.296988 0.146155 1.235915
eth_miim/assign_3_ScanStatusOp/expr_1/expr_1/expr_2 -0.387396 -1.524567 -2.120032 -0.264737 1.372681 1.872443 0.470507 -1.310544 1.746238 -0.850009 -0.186307 -1.658223 -1.876138 -0.021358 -0.049037 -4.299116 0.494844 -0.110771 -2.500773 0.834224
eth_miim/assign_3_ScanStatusOp/expr_1/expr_1/expr_1 -0.226500 -1.837967 -1.864241 0.931968 2.801260 0.396458 -0.436467 0.197309 1.025117 -1.598345 -0.679808 -1.900936 -0.066179 1.514955 1.039947 -3.593528 0.572076 -0.511358 -0.570325 1.579408
eth_miim/always_7/block_1/if_1/block_2/if_1/block_1/if_1/block_1/stmt_1 0.088446 -0.845211 0.377288 -3.188133 -1.609275 1.154966 0.661526 -1.649276 -1.511841 -1.315512 1.041725 1.494275 -1.990063 0.142688 -1.636339 -1.667033 0.617128 1.509313 -4.437019 0.384464
eth_rxstatem/assign_7_StateData -0.072944 1.192418 -0.399666 -0.880442 -0.940969 -1.136054 1.142464 -0.338250 1.211079 0.384767 -0.024898 0.044099 -0.580560 0.479437 0.327449 0.375556 -0.151340 1.246598 0.144559 1.186638
eth_rxstatem/reg_StateDrop -0.072936 1.188547 -0.391556 -0.871925 -0.946583 -1.137935 1.154406 -0.316617 1.219704 0.400469 -0.029191 0.063954 -0.581465 0.504257 0.334108 0.351821 -0.145246 1.261279 0.108551 1.235080
eth_registers/wire_MAC_ADDR0Out 1.652369 2.224855 -0.172723 -1.644024 -2.919655 -4.485519 0.640566 1.345318 -4.520751 0.219101 1.689705 2.473609 -0.088262 2.099484 -0.909919 2.201977 -2.003898 3.581120 1.612834 3.040597
eth_wishbone/always_2/block_1/if_1/if_1/if_1 -0.618229 0.319426 -0.029655 -0.528412 -0.743752 1.072313 1.989726 -1.196626 2.143911 2.464386 -0.333932 -0.513474 -1.147667 -2.982374 -0.069713 -0.748140 0.599203 -0.646076 -2.039896 -1.731684
eth_miim/assign_1_WriteDataOp/expr_1/expr_1 -0.299364 -2.570435 -0.080160 -0.685216 -0.831929 2.565638 -0.476625 -1.913704 -0.714978 -5.290279 1.852890 1.879651 -0.950136 0.150294 -2.528924 -2.351568 0.494864 0.196819 -2.834708 -4.185394
eth_clockgen/always_2/block_1/if_1/stmt_1 -3.081142 2.535073 8.120550 2.511876 -2.525434 0.954755 3.021859 1.050118 -4.926771 0.573144 -1.231694 -2.502514 1.968672 2.497866 0.899775 -0.614641 1.771399 2.005988 -2.484659 -1.791207
eth_clockgen/always_1 -0.977418 0.425193 3.023384 -0.710823 -0.043348 -1.863243 0.110549 0.904858 -2.530982 0.394370 -0.831824 0.947202 1.157014 1.532141 1.043740 -0.269967 0.935690 -0.627013 -1.580639 1.761410
eth_clockgen/always_2 -1.819272 -0.356989 4.868011 -0.689236 -1.116976 0.314388 -0.859012 0.550059 -3.078930 0.577290 -2.255702 -0.114761 2.511788 2.572484 0.295532 -0.706425 0.399151 -1.732827 -2.542512 1.267803
eth_rxstatem/assign_1_StartIdle -0.071882 1.139444 -0.374184 -0.859287 -0.912600 -1.133643 1.083552 -0.306732 1.138687 0.359559 -0.008403 0.076170 -0.506487 0.521977 0.294507 0.380083 -0.112251 1.214369 0.151473 1.181197
eth_miim/always_1/block_1/if_1/block_2/stmt_2 -0.609145 -0.504433 3.137443 -0.589074 -2.508892 1.883459 0.708904 -0.628123 -2.584299 -2.996978 1.125564 1.652055 0.033456 0.098980 -1.898570 0.935368 0.566696 1.734637 -2.359407 -3.898811
eth_registers/assign_113_r_RGAD 0.003717 -0.932772 -1.991031 1.013328 0.867171 2.091704 -0.481755 -0.458212 2.005307 -0.792292 -0.345855 -1.779115 -1.167751 -0.397761 0.003963 -1.864470 -0.510321 0.021866 0.076029 -0.684169
eth_miim/always_1/block_1/if_1/block_2/stmt_1 -0.580145 -0.609570 3.053545 -0.671867 -2.381103 1.995326 0.677627 -0.618760 -2.499005 -2.790042 0.936669 1.484660 0.043550 -0.112321 -1.888548 0.881504 0.575890 1.664736 -2.484096 -3.783101
eth_txstatem/assign_3_StartPreamble -0.096918 1.172868 -0.362673 -0.859680 -0.918875 -1.109141 1.120443 -0.312421 1.165996 0.373911 -0.008276 0.061297 -0.527797 0.496257 0.319108 0.364695 -0.115323 1.234294 0.115365 1.193360
eth_miim/always_8/block_1 0.514579 -1.594086 0.034485 -2.840723 1.731692 -0.693100 -0.595569 0.951924 -0.439827 1.840811 -1.989545 -0.987024 1.758878 0.186534 0.481612 0.133793 1.050725 -0.914546 -2.421015 3.632544
check_ethernet/input_wb_adr_i -0.217779 4.163387 2.809839 0.524580 -1.403222 -1.340856 1.313929 0.821139 -1.543283 2.677047 1.220324 -0.073558 -1.213349 -1.137953 1.827555 2.850389 -0.078386 1.561910 2.299263 1.611864
eth_miim/always_6/block_1/if_1/block_2/if_1 -0.014735 -1.940859 0.044398 -0.587540 0.648148 0.704475 -0.596244 -0.167046 -1.347447 -3.121130 0.411033 0.491770 0.029294 1.482855 -0.533413 -1.886513 0.575344 0.370714 -1.987923 -0.412504
eth_registers/assign_2_Read 2.274338 -1.611363 -3.425720 -0.464242 -0.305674 -2.713911 -1.477649 1.170535 -0.709612 -2.143086 0.221330 3.306501 -0.623616 5.197897 1.710916 -0.270960 -2.747255 1.561559 2.272306 1.019740
eth_txethmac/inst_txstatem1 -0.095433 1.190039 -0.407740 -0.852926 -0.896672 -1.106616 1.101505 -0.341907 1.157726 0.356976 -0.017257 0.038227 -0.546799 0.523197 0.285934 0.363619 -0.136008 1.268513 0.096481 1.234581
eth_top/always_1/block_1/if_1 1.072585 0.600062 1.548667 -1.777869 -0.889099 -4.198089 1.886378 2.346220 -2.520775 3.825651 -1.471680 1.476817 1.958673 0.449735 1.529500 2.898122 0.417170 1.287943 -1.184909 1.154529
eth_txstatem/always_1/block_1/if_1/block_2/if_5/if_1/cond -0.043729 1.162206 -0.384030 -0.853081 -0.872335 -1.071845 1.077095 -0.315412 1.192919 0.325608 -0.029932 0.057077 -0.516894 0.509755 0.305071 0.348939 -0.147219 1.198316 0.143838 1.193957
eth_transmitcontrol/always_1/block_1/if_1/if_1/if_1 -0.063007 1.218402 -0.371357 -0.892554 -0.925028 -1.157666 1.124768 -0.307194 1.175602 0.368422 -0.023575 0.103896 -0.528016 0.500125 0.298990 0.408709 -0.113531 1.245288 0.123892 1.284616
eth_top/input_wb_stb_i -0.860868 -0.519285 -0.140596 -0.716731 -3.742818 0.076496 1.345433 -2.389033 -2.521966 3.380773 1.278289 4.158685 -1.683144 0.746853 0.101472 -4.300385 -3.319430 -3.302824 -1.864247 -1.050314
eth_miim/always_8/block_1/if_1/block_1/if_1/block_1/if_1/stmt_1 0.618566 -2.533700 -2.047501 -3.482919 3.359056 0.742397 -3.052992 0.254190 0.900218 1.863560 -3.189300 -3.172741 0.123534 0.949628 0.728082 -2.410232 0.008593 -1.720994 -2.339235 8.403799
eth_registers/inst_MIICOMMAND0 -0.175974 -1.632221 -1.628317 0.657661 2.553759 0.080748 -0.280624 0.237471 0.814252 -1.396152 -0.624062 -1.587497 -0.007228 1.468979 1.049743 -3.268933 0.593998 -0.431405 -0.666008 1.716126
eth_registers/inst_MIICOMMAND1 0.521437 -2.699695 -3.323468 0.727538 2.834466 -0.467047 -2.224410 -0.259837 0.972858 -3.958386 0.640438 0.362052 0.238804 1.938170 0.051006 -3.141628 -0.142206 -1.692404 0.889119 0.415738
eth_registers/inst_MIICOMMAND2 -0.174485 -1.724565 -1.759240 0.647990 2.559153 0.156260 -0.342104 0.145199 0.864739 -1.546876 -0.591816 -1.586833 -0.092958 1.439732 0.937214 -3.381714 0.582861 -0.470693 -0.681103 1.649623
eth_miim/always_6/block_1/if_1/block_2/if_1/block_1/stmt_2 -0.317439 -2.576455 -0.031877 -0.782100 -0.897467 2.576463 -0.391156 -1.940142 -0.788517 -5.171135 1.803785 1.835773 -0.996381 0.131652 -2.502752 -2.345580 0.525925 0.265636 -2.984509 -4.121422
eth_miim/always_6/block_1/if_1/block_2/if_1/block_1/stmt_3 0.517932 -2.805185 -3.482581 0.799922 3.053627 -0.447625 -2.361101 -0.256560 1.144441 -4.028283 0.627222 0.272104 0.229755 1.904322 0.025359 -3.315640 -0.105950 -1.815950 0.938485 0.461109
eth_shiftreg/always_1/block_1/if_1/block_2/if_1/block_1/if_1/block_2/stmt_1 -1.051201 -0.131113 -0.469555 1.589665 0.962757 3.148078 1.532551 -0.283738 1.723790 0.978357 -1.548714 -4.168485 -1.658420 0.143429 1.085910 -3.522128 0.281660 1.303074 -1.817370 0.735184
eth_miim/always_6/block_1/if_1/block_2/if_1/block_1/stmt_1 -0.803247 -1.682063 1.739229 0.509889 0.284151 1.547874 0.546638 0.103627 -1.584711 -3.278568 0.026968 -0.406066 0.524581 1.289493 -0.396630 -1.652701 1.146048 1.013341 -2.292215 -1.905498
eth_miim/always_6/block_1/if_1/block_2/if_1/block_1/stmt_4 0.349757 -2.763534 -4.062285 -0.156082 1.855910 1.426543 -1.682135 -1.863783 2.184619 -3.540460 1.110933 0.279211 -1.662946 0.292241 -1.090757 -4.365245 -0.229876 -1.604285 -0.876707 -0.568720
eth_rxethmac/input_Transmitting -0.063339 1.189049 -0.423103 -0.881952 -0.898932 -1.134774 1.127443 -0.334837 1.177755 0.369235 -0.006427 0.065608 -0.523350 0.535672 0.293435 0.362007 -0.139212 1.227643 0.120649 1.272683
eth_registers/input_Address 2.515057 -0.645241 1.347742 1.472854 9.332244 -0.949980 -4.309479 4.425832 -3.331881 -0.937201 1.514802 -1.477353 -0.988103 -1.126868 3.473726 3.514273 4.793438 0.336725 3.564586 6.755053
eth_miim/always_6/block_1/if_1/block_2/if_1/block_1/stmt_9 -0.329297 -1.560696 -2.257294 -0.203023 1.431726 1.906447 0.338326 -1.371056 1.868174 -0.944600 -0.150279 -1.649752 -1.917193 -0.056439 -0.101853 -4.360331 0.447960 -0.184548 -2.423251 0.737874
eth_registers/wire_MIIMODER_Wr -1.686244 -0.590644 3.059118 0.231811 1.077968 -1.832353 0.261665 -1.136813 -4.279243 -4.764179 2.054867 3.030108 2.702267 5.641656 -0.725632 -3.251185 2.867265 -1.212412 -2.273315 1.436082
eth_wishbone/always_24/block_1/if_1/if_1/cond/expr_1 -0.054487 1.203201 -0.452933 -0.877800 -0.971476 -1.153780 1.153399 -0.364200 1.265373 0.369029 -0.015360 0.053099 -0.586827 0.534648 0.318705 0.360944 -0.134371 1.290645 0.106335 1.247025
eth_miim/always_6/block_1 0.005468 -1.976803 -0.021049 -0.680588 0.540051 0.547763 -0.646905 -0.273295 -1.402069 -3.360124 0.606671 0.753522 -0.041823 1.655433 -0.632116 -1.963011 0.546250 0.343073 -1.957178 -0.431810
eth_outputcontrol/always_1/block_1/if_1 1.085009 -1.358475 0.554795 -5.287745 -2.365168 -1.299918 -0.841815 -1.664431 -3.169406 -2.633427 2.437611 5.280852 -0.726452 0.035953 -2.916264 0.832427 0.508506 0.311988 -3.768551 -0.113240
eth_top/input_wb_we_i 1.119630 1.384499 2.821458 -1.994938 -2.201581 -3.868027 1.755581 2.235957 -5.432152 3.613702 0.237045 3.439851 0.113892 1.084602 1.219404 2.822332 -0.212320 2.061496 -0.826746 1.695013
eth_wishbone/always_6/block_1/if_1/if_1 -0.073004 1.188251 -0.434207 -0.834461 -0.918276 -1.048778 1.088709 -0.346579 1.254571 0.344412 -0.019747 0.044963 -0.580144 0.473645 0.282490 0.353091 -0.150103 1.222255 0.154509 1.177000
eth_miim/always_7/block_1 0.368434 -1.269934 0.506795 -2.233455 -0.331245 0.021840 -0.360325 -0.317353 -2.152870 -2.032412 0.566387 1.301999 -0.395651 1.331016 -0.803683 -0.837111 0.530486 1.028894 -2.668297 0.956446
eth_wishbone -0.750486 2.281821 1.687188 -2.135462 -1.499432 -2.294682 3.543699 -0.198540 1.007857 2.945457 -0.629827 0.193940 -0.016262 -1.027331 0.744799 1.300027 1.621305 1.445953 -2.108369 1.150239
eth_txstatem/always_1/block_1/if_1/block_2/if_4/if_1/cond -0.038238 1.209194 -0.411647 -0.892074 -0.903189 -1.145924 1.144643 -0.327593 1.199492 0.356795 -0.025059 0.089556 -0.540995 0.545691 0.319614 0.380774 -0.144387 1.269045 0.147867 1.265295
eth_wishbone/always_77/block_1/if_1 -0.589388 0.326680 -0.051691 -0.540983 -0.732569 0.922914 1.929339 -1.120221 2.049714 2.342560 -0.295529 -0.406712 -1.119459 -2.841134 -0.073608 -0.660566 0.565062 -0.595724 -1.837745 -1.626233
eth_top/assign_7_BDCs/expr_1/expr_1/expr_1 -0.741725 1.189415 2.404109 -1.470493 -0.640078 -1.383415 2.551435 0.139029 -0.516617 2.720474 -0.631086 0.305083 0.633220 -1.346286 0.492358 0.944703 1.908584 0.228972 -2.509808 0.176851
eth_rxstatem/reg_StatePreamble -0.082900 1.199978 -0.392905 -0.904676 -0.888875 -1.175658 1.117605 -0.292449 1.125957 0.352482 -0.013385 0.107655 -0.526769 0.579703 0.328364 0.330519 -0.127108 1.264014 0.101683 1.270109
eth_rxstatem/always_1/block_1/if_1/block_2/if_3 -0.037146 1.209398 -0.382596 -0.863843 -0.895609 -1.154619 1.096115 -0.294370 1.157739 0.346528 -0.023227 0.079979 -0.520987 0.522333 0.329975 0.397875 -0.150002 1.232172 0.149082 1.234947
eth_rxstatem/always_1/block_1/if_1/block_2/if_2 -0.081523 1.257806 -0.452141 -0.886591 -0.963187 -1.171679 1.189196 -0.365745 1.273325 0.404225 -0.032973 0.065478 -0.583806 0.490015 0.288176 0.391823 -0.141055 1.272490 0.132376 1.234719
eth_rxstatem/always_1/block_1/if_1/block_2/if_5 -0.085362 1.170636 -0.354901 -0.851642 -0.915129 -1.136584 1.112470 -0.298147 1.135171 0.305138 -0.019077 0.075135 -0.531878 0.570401 0.322090 0.354163 -0.120052 1.243766 0.116287 1.232637
eth_rxstatem -0.062724 1.215159 -0.427548 -0.863106 -0.941812 -1.135133 1.121668 -0.318933 1.206968 0.348931 -0.007620 0.051636 -0.548498 0.508890 0.284994 0.360410 -0.148590 1.277043 0.116119 1.261102
eth_wishbone/always_30/block_1/if_1/if_1/if_1 -0.039473 1.186983 -0.403415 -0.812544 -0.926076 -1.119429 1.108785 -0.313708 1.173306 0.349362 -0.009588 0.070085 -0.533557 0.472414 0.324724 0.435795 -0.185551 1.256426 0.206555 1.205729
eth_rxstatem/always_1/block_1/if_1/block_2/if_6 -0.039061 1.254049 -0.395616 -0.875466 -0.927849 -1.128543 1.183502 -0.324869 1.229789 0.409936 -0.031254 0.057410 -0.558010 0.486614 0.302591 0.392119 -0.166272 1.287296 0.154547 1.220634
eth_miim/input_WCtrlData -0.161715 -1.694000 -1.670549 0.705990 2.614001 0.165506 -0.318358 0.202720 0.839883 -1.465159 -0.623725 -1.674179 -0.067636 1.477495 1.019119 -3.372536 0.606054 -0.433700 -0.674263 1.652784
eth_miim/always_7/block_1/if_1/block_2 0.320558 -1.383905 0.567459 -2.362635 -0.299367 0.183676 -0.381298 -0.323602 -2.182430 -2.016319 0.495654 1.203786 -0.436218 1.239740 -0.852364 -0.953270 0.650175 1.050265 -2.976092 0.983879
eth_miim/always_7/block_1/if_1/block_1 0.730797 -1.688467 -2.220182 -1.719352 0.712269 -0.953850 -1.389380 -1.207966 0.500066 -2.098325 1.391853 2.350279 -0.344105 -0.332862 -1.239619 -1.175697 0.126099 -1.699957 -0.586283 -0.087614
eth_top/assign_2_RegCs/expr_1/expr_1/expr_1/expr_1 -0.578747 0.277679 -0.100847 -0.499916 -0.701354 1.013616 1.964908 -1.203924 2.119057 2.320612 -0.328915 -0.482667 -1.156360 -2.942153 -0.105904 -0.758655 0.568867 -0.675798 -1.930978 -1.686467
eth_wishbone/always_77/block_1/if_1/if_1 -0.582562 0.339175 -0.049893 -0.573658 -0.768930 0.947139 1.978009 -1.166128 2.064294 2.399660 -0.319727 -0.465716 -1.156312 -2.907613 -0.049660 -0.660725 0.600739 -0.629708 -1.954280 -1.662840
eth_registers/always_1/block_1/if_1/cond 2.279124 -1.578358 -3.522918 -0.387649 -0.307991 -2.697100 -1.490403 1.122397 -0.572228 -2.183002 0.227405 3.280881 -0.706674 5.141301 1.704476 -0.270946 -2.837322 1.587460 2.336231 0.942568
eth_top/wire_WillTransmit -0.060919 1.182611 -0.436460 -0.885145 -0.926747 -1.131487 1.104342 -0.327311 1.197315 0.350185 -0.028983 0.053221 -0.578499 0.527016 0.309139 0.347031 -0.159546 1.249794 0.168652 1.248149
eth_top/always_4/block_1/stmt_2 -0.063017 1.189453 -0.443883 -0.851850 -0.932119 -1.103182 1.134789 -0.330453 1.252128 0.377519 -0.001513 0.038911 -0.601472 0.427241 0.294310 0.415210 -0.148187 1.264104 0.126653 1.175541
eth_top/always_4/block_1/stmt_1 -0.099825 1.168495 -0.397404 -0.869526 -0.924299 -1.132701 1.144326 -0.322102 1.210132 0.330324 -0.022715 0.049313 -0.571370 0.514539 0.324184 0.361669 -0.142652 1.247939 0.075663 1.254970
eth_outputcontrol/always_1/block_1/if_1/block_2 1.085627 -1.341985 0.447024 -5.212681 -2.272988 -1.278723 -0.921764 -1.673897 -3.088381 -2.666987 2.431039 5.231936 -0.725521 -0.030095 -2.929213 0.822835 0.467183 0.281006 -3.642909 -0.170667
eth_txstatem/assign_6_StartPAD/expr_1 -0.077359 1.162039 -0.392169 -0.800256 -0.910336 -1.046105 1.100592 -0.283986 1.190579 0.379848 0.001890 0.036862 -0.525012 0.433944 0.309498 0.386330 -0.181080 1.208166 0.182493 1.122098
eth_top/assign_6_BDCs -0.734722 1.187898 2.263693 -1.392204 -0.651408 -1.271176 2.517434 0.105493 -0.290254 2.742626 -0.653151 0.208308 0.542606 -1.472938 0.443060 0.935736 1.835288 0.239269 -2.382057 0.039110
eth_wishbone/input_BDCs -0.691338 1.160326 2.203815 -1.379836 -0.633988 -1.348495 2.440459 0.126052 -0.389504 2.615926 -0.592344 0.261829 0.534264 -1.314198 0.482001 0.885918 1.786765 0.260445 -2.354384 0.139966
eth_registers/assign_2_Read/expr_1 2.219541 -1.556785 -3.367941 -0.456931 -0.317375 -2.732195 -1.494472 1.141798 -0.724646 -2.188814 0.277376 3.321991 -0.636013 5.188562 1.668021 -0.241876 -2.732407 1.557885 2.232633 1.057666
eth_wishbone/always_30/block_1 -0.032776 1.220885 -0.418719 -0.869248 -0.973643 -1.091843 1.119717 -0.323988 1.273556 0.410638 -0.004066 0.066326 -0.604008 0.402872 0.317297 0.442508 -0.152169 1.271659 0.181976 1.174213
eth_miim/always_4/block_1/if_1/block_2/if_1/block_2/if_1/cond/expr_1 -0.320898 -2.434193 -0.009682 -0.690331 -0.834693 2.399411 -0.362679 -1.834742 -0.735805 -4.961736 1.747159 1.772136 -0.882405 0.177030 -2.370569 -2.271595 0.545121 0.234534 -2.861440 -3.992434
eth_registers/assign_2_Read/expr_2 2.225114 -1.457741 -3.326150 -0.470740 -0.383246 -2.689674 -1.403996 1.114605 -0.667091 -2.054683 0.250449 3.227728 -0.641119 5.059059 1.660363 -0.189631 -2.697472 1.560329 2.274505 1.002565
eth_miim/always_3/block_1/if_1/block_2/stmt_8 -0.148043 -1.708834 -1.751246 0.835770 2.686109 0.220966 -0.361961 0.216977 0.921231 -1.547768 -0.628747 -1.738524 -0.068117 1.517333 1.032979 -3.416899 0.533194 -0.448230 -0.582877 1.664883
eth_miim/always_4/block_1/if_1/block_2/if_1/block_2 -0.725615 -1.870471 1.497244 0.410991 0.416334 1.541963 0.367775 0.060300 -1.513378 -3.401945 0.066182 -0.257674 0.516066 1.302261 -0.424455 -1.739739 1.090126 0.895137 -2.279660 -1.848832
eth_registers/assign_43_MIIADDRESS_Wr/expr_1 -0.012672 -0.972011 -1.960655 0.994264 0.852424 2.079692 -0.471315 -0.467409 2.020146 -0.774966 -0.353248 -1.779459 -1.145704 -0.409002 -0.032502 -1.852416 -0.542008 0.002661 0.052566 -0.696376
eth_miim/always_3/block_1/if_1/block_2/stmt_4 0.555118 -2.707721 -3.350419 0.785387 2.950736 -0.489769 -2.285025 -0.196376 1.072746 -3.895594 0.570505 0.242916 0.287030 1.913080 0.105900 -3.125483 -0.097272 -1.742768 0.996399 0.499790
eth_top/assign_17_MRxDV_Lb -0.075463 1.214981 -0.427600 -0.832766 -0.943581 -1.120527 1.132092 -0.321693 1.183533 0.344331 -0.020535 0.048102 -0.540188 0.526916 0.327988 0.420847 -0.159322 1.251335 0.183688 1.223983
eth_miim/always_3/block_1/if_1/block_2/stmt_6 0.398061 -2.760732 -4.100429 -0.175855 1.868043 1.407134 -1.697673 -1.874344 2.221673 -3.454127 1.086619 0.229732 -1.616488 0.189403 -1.076841 -4.313090 -0.224639 -1.616725 -0.842091 -0.504091
eth_miim/always_3/block_1/if_1/block_2/stmt_7 -0.167962 -1.657405 -1.723642 0.745469 2.640322 0.059230 -0.374736 0.262558 0.843687 -1.560563 -0.615029 -1.594090 0.033214 1.547287 1.014027 -3.261691 0.574937 -0.520684 -0.488861 1.671285
eth_miim/always_3/block_1/if_1/block_2/stmt_1 -0.163372 -1.632372 -1.593316 0.612183 2.485231 0.110641 -0.273205 0.179052 0.742786 -1.456892 -0.568635 -1.538643 -0.040329 1.492241 0.976228 -3.271951 0.575988 -0.357588 -0.736039 1.649206
eth_miim/always_3/block_1/if_1/block_2/stmt_2 -0.777809 -1.885605 1.614719 0.549793 0.375876 1.726931 0.413161 0.066083 -1.492569 -3.512523 0.045266 -0.441925 0.496970 1.216661 -0.455766 -1.819573 1.165375 0.959473 -2.335987 -2.118393
eth_miim/always_3/block_1/if_1/block_2/stmt_3 -0.281038 -2.431763 -0.093150 -0.605475 -0.873143 2.328371 -0.469893 -1.858298 -0.784374 -5.228864 1.893487 1.974411 -0.954355 0.272341 -2.441710 -2.243795 0.456486 0.239822 -2.666541 -4.049438
eth_miim/always_4/block_1/if_1/block_2/if_1/block_2/if_1 -0.780325 -1.816538 1.479051 0.696492 0.536943 1.591034 0.450667 0.054241 -1.378007 -3.450777 0.020467 -0.521059 0.499842 1.372998 -0.301477 -1.884649 1.130159 0.944008 -2.105667 -1.843331
eth_miim/always_4/block_1/if_1/block_2/if_1/block_2/if_2 0.518457 -2.779250 -3.473414 0.855001 3.030018 -0.455606 -2.326079 -0.200693 1.145777 -3.960206 0.594933 0.216952 0.247195 1.925650 0.094851 -3.252714 -0.171751 -1.857641 1.038268 0.484773
eth_miim/always_4/block_1/if_1/block_2/if_1/block_2/if_2/cond/expr_1 0.380133 -2.677988 -3.924874 -0.303600 1.729020 1.202631 -1.642483 -1.838743 2.022831 -3.432162 1.130193 0.463060 -1.601689 0.324642 -1.097505 -4.191459 -0.189874 -1.521085 -0.929361 -0.405894
eth_txstatem/wire_StartData -0.035141 1.196350 -0.450200 -0.813139 -0.952876 -1.049474 1.112341 -0.345211 1.305599 0.394402 -0.001833 0.024764 -0.580265 0.389569 0.319919 0.367849 -0.179684 1.222997 0.186155 1.135741
eth_top/reg_WillTransmit_q -0.077260 1.204567 -0.400457 -0.900710 -0.938772 -1.174209 1.123938 -0.283057 1.102963 0.329936 0.012221 0.082047 -0.540714 0.533844 0.289684 0.367415 -0.134647 1.235261 0.128918 1.254874
eth_txethmac/wire_StatePreamble -0.059406 1.206784 -0.429964 -0.889593 -0.957865 -1.141140 1.142296 -0.339085 1.188457 0.365754 -0.004730 0.045239 -0.542456 0.504225 0.286676 0.363194 -0.158321 1.259132 0.163043 1.247741
eth_rxstatem/wire_StartIdle -0.049193 1.218581 -0.460256 -0.854000 -0.945284 -1.071848 1.137482 -0.326628 1.331025 0.379342 0.010450 0.008342 -0.633666 0.430998 0.286222 0.378099 -0.196525 1.279829 0.214577 1.157653
eth_rxstatem/assign_2_StartPreamble/expr_1/expr_1 -0.037330 1.238230 -0.423510 -0.883859 -0.958379 -1.152261 1.133823 -0.309789 1.216701 0.351257 0.019854 0.065640 -0.557261 0.523198 0.322200 0.379518 -0.153840 1.251675 0.191907 1.237028
eth_top/assign_3_RegCs -0.742076 1.176270 2.377170 -1.432674 -0.638083 -1.330574 2.507432 0.169664 -0.437227 2.718630 -0.648584 0.244570 0.610087 -1.363957 0.499318 0.932427 1.878382 0.216601 -2.430114 0.153009
eth_wishbone/always_24 -0.051005 1.221313 -0.430531 -0.813957 -0.898148 -1.116865 1.113510 -0.316476 1.209835 0.375498 0.024144 0.083830 -0.571170 0.468599 0.294598 0.417494 -0.185133 1.249615 0.209107 1.219131
eth_wishbone/always_26 -0.077134 1.218501 -0.391745 -0.872159 -0.919962 -1.141525 1.139418 -0.292043 1.142435 0.368452 -0.024177 0.089203 -0.517292 0.564573 0.311589 0.404398 -0.151265 1.252566 0.183649 1.271605
eth_wishbone/always_27 -0.032034 1.196844 -0.379481 -0.846519 -0.920361 -1.124172 1.100363 -0.309242 1.192306 0.406417 -0.023583 0.040397 -0.543699 0.467527 0.306262 0.378511 -0.138329 1.208766 0.127211 1.207242
eth_rxstatem/always_1/block_1/if_1/block_2/if_1/if_1 -0.088825 1.190563 -0.426618 -0.878664 -0.929313 -1.119391 1.170203 -0.332607 1.223267 0.345332 -0.001674 0.048242 -0.546266 0.544759 0.332769 0.335110 -0.126604 1.278063 0.119242 1.235436
eth_clockgen/always_1/block_1/if_1/block_1/if_1/cond -1.041119 -1.122359 2.798493 -1.909324 0.073238 -2.485561 -0.053353 0.516697 -3.209522 -0.351150 -1.423862 2.285673 2.251138 2.337597 1.102173 -0.864057 0.928482 -1.708098 -3.157455 1.764501
eth_clockgen/assign_4_MdcEn/expr_1/expr_1 0.192435 -0.967156 0.160458 -3.431241 -1.645821 1.206426 0.399967 -1.777218 -1.548450 -1.510967 1.204695 1.729825 -2.124659 0.133302 -1.836743 -1.744530 0.490280 1.415711 -4.497441 0.374164
eth_top/reg_temp_wb_err_o_reg 0.188658 -0.044181 2.406107 -2.775377 -1.526933 -0.794221 0.064238 2.222741 -1.754719 2.671299 -2.755676 -0.080626 2.564266 1.772701 1.378349 2.583197 -0.687358 0.932255 -1.569203 2.065709
eth_clockgen/always_1/block_1/if_1/stmt_1 -0.736624 2.286762 2.665885 1.738965 1.147739 -3.389392 1.844764 1.943535 -2.725996 -1.973963 1.459143 0.285958 0.943242 2.070808 1.751142 0.517331 2.156044 2.329472 1.258776 1.468531
eth_miim/assign_7_ByteSelect/expr_1/expr_1 -1.036182 -0.200286 -0.607775 1.677604 1.079851 3.197257 1.443998 -0.272606 1.833056 0.918289 -1.545345 -4.209158 -1.703026 0.109737 1.089949 -3.650264 0.243523 1.251818 -1.751695 0.698505
eth_miim/always_8/block_1/if_1/block_1 0.792914 -2.633701 -1.941911 -3.736455 3.296876 0.484745 -3.199110 0.385232 0.648939 1.772836 -3.060500 -2.757959 0.295790 0.873880 0.609364 -2.025269 0.042755 -1.802277 -2.332784 8.213352
eth_miim/always_4/block_1/if_1/block_2/if_1/cond -0.588437 -0.605145 3.006461 -0.672625 -2.440661 1.946870 0.607949 -0.615145 -2.540148 -2.916073 1.041799 1.603035 -0.015789 0.004945 -1.930305 0.860788 0.542510 1.658539 -2.410668 -3.761724
eth_top/assign_17_MRxDV_Lb/expr_1/expr_1 -0.045794 1.176205 -0.388980 -0.836083 -0.897555 -1.059616 1.105636 -0.291300 1.130051 0.344220 -0.004980 0.051005 -0.517760 0.449544 0.289565 0.381716 -0.135262 1.187251 0.115178 1.170405
eth_clockgen/always_2/block_1 -1.776485 -0.278915 4.700100 -0.718049 -0.997920 0.188416 -0.762631 0.603321 -2.959871 0.586935 -2.223659 -0.201399 2.417977 2.615983 0.353486 -0.696320 0.531096 -1.480351 -2.480043 1.487673
eth_maccontrol -0.059209 1.224366 -0.449951 -0.883986 -0.913826 -1.124203 1.142681 -0.320776 1.247371 0.335935 -0.010829 0.062691 -0.564778 0.539388 0.328929 0.360408 -0.149261 1.264670 0.147448 1.250042
eth_registers/wire_r_RGAD 0.019533 -0.920579 -1.897993 0.996867 0.876161 2.063773 -0.458901 -0.436885 1.948838 -0.774923 -0.332213 -1.712585 -1.144783 -0.363653 -0.029686 -1.791064 -0.483308 0.018638 0.089913 -0.653681
eth_top/wire_r_RGAD -0.009006 -0.945674 -1.967184 1.014325 0.896438 2.140770 -0.450943 -0.462493 2.042806 -0.793239 -0.363837 -1.792467 -1.164025 -0.420018 -0.020966 -1.897291 -0.529153 -0.012086 0.056578 -0.690126
eth_rxstatem/assign_2_StartPreamble/expr_1/expr_2/expr_1 -0.070774 1.237650 -0.477011 -0.832709 -0.941409 -1.132201 1.123997 -0.342652 1.259010 0.380644 -0.023070 0.055390 -0.600625 0.463106 0.295814 0.372571 -0.183924 1.290253 0.203820 1.206880
eth_clockgen/wire_MdcEn 0.084771 -0.968052 0.466252 -3.279716 -1.617215 1.316136 0.487309 -1.684962 -1.660544 -1.412819 1.060887 1.575162 -1.929111 0.093281 -1.766749 -1.617990 0.659841 1.447217 -4.579977 0.272208
eth_top/assign_12_temp_wb_err_o/expr_1 -0.034555 -0.471184 0.135095 -1.957283 -2.356212 -0.149058 0.149215 0.480847 -0.413917 2.252461 -1.108797 1.064813 0.207681 0.303137 0.385704 0.793061 -2.263196 -0.297896 -0.800605 1.038359
eth_wishbone/always_3/block_1/if_1/block_2/case_1/cond -0.558205 0.265350 -0.114959 -0.522566 -0.665357 1.021941 1.888810 -1.190638 2.082692 2.250631 -0.289154 -0.430755 -1.129637 -2.864194 -0.074253 -0.770762 0.567484 -0.637887 -1.939654 -1.679509
eth_txethmac/always_13/block_1/if_1/stmt_2/expr_1/expr_1 -0.060585 1.204067 -0.477155 -0.846366 -0.932345 -1.069724 1.124473 -0.323288 1.289666 0.387962 -0.017144 0.029162 -0.629209 0.430479 0.289119 0.356011 -0.153289 1.270931 0.152938 1.126176
eth_top/wire_MRxDV_Lb -0.067061 1.198795 -0.443789 -0.872076 -0.924346 -1.103963 1.124929 -0.308194 1.256037 0.358208 -0.012338 0.042807 -0.578385 0.494765 0.314368 0.361108 -0.166874 1.287863 0.129683 1.214265
eth_top/assign_7_BDCs/expr_1/expr_1 -0.715099 1.210737 2.400740 -1.413788 -0.673657 -1.364533 2.519303 0.183730 -0.412526 2.785994 -0.694159 0.237488 0.653003 -1.411224 0.477393 1.065768 1.849223 0.249116 -2.382443 0.105004
eth_top/assign_17_MRxDV_Lb/expr_1 -0.071839 1.197180 -0.370400 -0.834392 -0.964590 -1.129519 1.152092 -0.313395 1.164455 0.374678 -0.007563 0.080297 -0.539478 0.469351 0.304906 0.442932 -0.123543 1.223741 0.143545 1.172211
eth_clockgen/always_2/block_1/if_1/block_1/if_1 -1.764354 -0.227388 4.087230 -1.002345 -1.342632 -1.755471 -0.361853 0.778950 -2.599017 0.521926 -2.043128 1.415103 2.843898 2.496712 0.898186 -0.616201 -0.087170 -2.322636 -2.155658 0.870198
eth_registers/assign_47_MAC_ADDR0_Wr/expr_1 -0.160441 1.550379 0.775455 1.902344 3.688520 -1.469105 -1.832537 0.302494 -2.197253 -0.266837 2.452706 -0.087249 -0.184996 -0.634877 0.026093 0.254281 1.858082 -1.818898 3.210691 3.908862
eth_wishbone/always_3/block_1/if_1/block_2/case_1 -0.702435 1.280943 2.440711 -1.508008 -0.729836 -1.513711 2.566078 0.215274 -0.472253 2.808402 -0.654177 0.298879 0.646959 -1.365253 0.515524 1.109250 1.856189 0.303169 -2.416677 0.207670
eth_rxethmac/input_MRxDV -0.036989 1.189986 -0.442005 -0.847265 -0.924455 -1.129905 1.099677 -0.310925 1.237230 0.332643 -0.001960 0.077262 -0.558548 0.523001 0.316018 0.396562 -0.173241 1.235919 0.154360 1.234317
eth_miim/always_6/block_1/if_1/block_1/stmt_3 0.479482 -1.184069 -1.450757 -0.711656 0.395216 -0.161923 -1.075809 -0.721328 0.456903 -1.594971 0.905563 1.334987 -0.281891 -0.358512 -0.882858 -0.555117 -0.146073 -1.013244 -0.025974 -0.652671
eth_clockgen/assign_1_TempDivider/expr_1 -0.116587 1.069490 1.196716 0.706461 2.706089 -1.878829 0.705865 -0.026959 -3.116511 -3.147065 2.888117 1.188538 0.068235 3.533002 0.065479 -1.311030 3.453660 1.797009 -0.174885 3.546642
eth_miim/always_6/block_1/if_1/block_1/stmt_7 -0.552122 -0.650904 2.939343 -0.630021 -2.322774 1.970230 0.602037 -0.635422 -2.466138 -2.921722 1.000112 1.478166 -0.021521 0.029971 -1.889389 0.798506 0.548813 1.643805 -2.339461 -3.679421
eth_wishbone/always_1/block_1/stmt_1/expr_1 -0.684405 1.172526 2.367385 -1.403921 -0.661877 -1.327171 2.459809 0.180168 -0.433164 2.691986 -0.679149 0.267338 0.669286 -1.328753 0.493999 1.000076 1.819719 0.246706 -2.362902 0.126097
eth_miim/reg_RStat_q3 0.397341 -2.733429 -4.007020 -0.237117 1.796927 1.295395 -1.688454 -1.877141 2.074981 -3.541142 1.177435 0.433868 -1.611552 0.303968 -1.101378 -4.247883 -0.232767 -1.582661 -0.898063 -0.520836
eth_miim/reg_RStat_q2 0.532142 -2.935538 -3.583386 0.825535 3.105128 -0.305234 -2.430222 -0.317173 1.225378 -4.169884 0.659975 0.247738 0.198905 1.899393 -0.007308 -3.435574 -0.159363 -1.912050 0.954985 0.394006
eth_miim/reg_RStat_q1 0.513095 -2.881842 -3.622676 0.938065 3.162166 -0.327134 -2.398925 -0.255480 1.288534 -4.086576 0.569126 0.120680 0.221221 1.921293 0.112460 -3.454532 -0.160832 -1.903315 1.045879 0.495537
eth_wishbone/always_30/block_1/if_1/if_1 -0.093550 1.192896 -0.329535 -0.865732 -0.898336 -1.137525 1.124507 -0.284638 1.120086 0.354544 -0.005517 0.105962 -0.498169 0.514238 0.294452 0.369977 -0.136150 1.244350 0.101619 1.219535
eth_registers/always_1/block_1/if_1/block_1/case_1/stmt_16 1.650942 2.377906 0.066546 -1.728994 -3.056674 -4.539457 0.804981 1.387317 -4.606584 0.464615 1.635623 2.438199 -0.038224 1.910218 -0.876065 2.428764 -1.916060 3.671708 1.482947 3.021199
eth_registers/wire_MIICOMMANDOut -0.221418 -1.664819 -1.746242 0.836668 2.643619 0.249382 -0.344825 0.205371 0.943673 -1.461148 -0.672076 -1.806660 -0.094938 1.507695 1.070076 -3.398690 0.585490 -0.417198 -0.619766 1.638451
eth_outputcontrol/always_1/block_1/if_1/block_2/if_1/block_1 1.091347 -1.349253 0.470970 -5.236184 -2.358497 -1.266880 -0.894334 -1.724596 -3.093384 -2.729018 2.441899 5.275808 -0.789831 -0.002588 -2.916254 0.787482 0.489209 0.340520 -3.699327 -0.189167
eth_registers/always_1/block_1/if_1/block_1/case_1/stmt_19 0.505575 -0.082769 2.086447 0.335267 0.734965 1.554613 -0.875504 1.183982 -1.476416 0.996648 0.079443 0.102731 -0.690238 -1.747718 1.136546 2.143327 0.616544 0.051787 0.109925 -1.033603
eth_outputcontrol/assign_1_SerialEn/expr_1 0.140885 -1.134157 0.249473 -2.192405 2.723676 -4.704416 0.052315 1.396784 -0.872971 1.523754 -1.508204 0.456380 3.767084 1.624335 1.714862 -0.248136 1.716952 -2.521931 -0.695276 4.740931
eth_shiftreg/reg_ShiftReg -1.026398 -0.165549 -0.535116 1.694747 1.003592 3.138458 1.470115 -0.243660 1.755673 0.917888 -1.525553 -4.169700 -1.701829 0.133825 1.092784 -3.581596 0.255655 1.274185 -1.721812 0.703655
eth_register/always_1/block_1/if_1/if_1/cond 0.508034 -2.129989 -4.182002 3.253256 -0.721999 -4.493517 2.049461 1.501066 -0.181930 -2.353466 -1.690256 3.048722 1.596564 11.611335 4.430524 -5.352161 -3.574476 1.961643 2.017226 -1.208514
eth_rxstatem/always_1 -0.053343 1.231215 -0.396125 -0.899478 -0.969222 -1.187255 1.146006 -0.316708 1.172049 0.403112 -0.031258 0.102398 -0.566808 0.498377 0.343253 0.397837 -0.142898 1.276986 0.163382 1.227515
eth_outputcontrol/input_InProgress 1.041630 -1.506341 0.609963 -5.267640 -2.379784 -1.057892 -0.898973 -1.771400 -3.199245 -2.874181 2.462598 5.308298 -0.722466 -0.020122 -3.048601 0.702836 0.561516 0.300166 -3.923554 -0.396761
eth_miim/wire_StartOp 0.028586 -1.877731 0.207785 -0.878930 0.501101 0.395408 -0.556006 -0.178638 -1.560704 -3.067939 0.468209 0.775383 0.051216 1.580346 -0.552794 -1.734606 0.673786 0.448561 -2.137446 -0.216700
eth_top/assign_9_BDCs/expr_1/expr_1/expr_1/expr_1 -0.710007 1.193607 2.402018 -1.480575 -0.632550 -1.454995 2.479323 0.212014 -0.559186 2.680695 -0.653856 0.289512 0.633139 -1.260466 0.475607 0.983014 1.862005 0.285857 -2.405357 0.251027
eth_wishbone/always_3 -0.691301 1.218362 2.272966 -1.340464 -0.656095 -1.325776 2.465095 0.163006 -0.400544 2.725672 -0.649213 0.253490 0.596231 -1.349617 0.493082 1.003604 1.759326 0.226941 -2.292447 0.133220
eth_top/assign_4_RegCs/expr_1/expr_1 -0.766025 -0.386943 -0.136312 -1.204493 1.009062 0.186400 2.053051 -0.684691 1.266636 1.321392 -0.827867 -1.338308 -0.827377 -0.894113 0.524747 -2.688555 1.866804 0.022108 -3.568637 1.049985
eth_wishbone/always_3/block_1/if_1/block_2/case_1/block_7/stmt_6/expr_1 -0.725046 1.226709 2.439222 -1.473661 -0.683754 -1.436541 2.537023 0.173513 -0.501668 2.785151 -0.672815 0.263037 0.633702 -1.353546 0.471591 1.022786 1.881024 0.293697 -2.451971 0.182411
eth_registers/assign_109_r_ClkDiv -1.633531 -0.747742 2.903376 0.024204 1.065604 -1.684982 0.148301 -1.252256 -4.166331 -4.728610 2.010473 3.016321 2.641220 5.512928 -0.872865 -3.232627 2.860346 -1.275116 -2.470371 1.481210
eth_registers/assign_40_MIIMODER_Wr/expr_1 -0.323197 -1.660856 -2.364511 -0.250214 1.491764 1.876356 0.251261 -1.394167 1.885770 -1.115678 -0.094521 -1.537321 -1.867835 -0.043359 -0.152872 -4.403160 0.454330 -0.280714 -2.400694 0.728068
eth_registers/wire_Write 0.505797 0.257651 -0.422767 -2.177899 -0.651752 -3.658855 -0.205899 -0.187569 -0.478134 -1.239460 -0.064683 2.541604 -0.028750 4.834552 1.472620 -0.247176 -0.772054 0.904041 0.403282 4.169884
eth_wishbone/always_27/block_1/if_1 -0.044721 1.177418 -0.428056 -0.828110 -0.922160 -1.085304 1.067129 -0.313622 1.198368 0.368385 0.003197 0.047924 -0.570756 0.439320 0.301360 0.389302 -0.146430 1.190433 0.139040 1.139731
eth_txethmac/always_13/block_1/if_1/stmt_2/expr_1/expr_1/expr_1/expr_1 -0.078642 1.179892 -0.403589 -0.884570 -0.931902 -1.151285 1.124156 -0.293383 1.200144 0.379567 0.000391 0.061685 -0.556738 0.473063 0.323875 0.371538 -0.149031 1.274834 0.133205 1.244683
eth_txstatem/always_1/block_1 -0.065638 1.228031 -0.415843 -0.823387 -0.953166 -1.116708 1.146417 -0.337799 1.243065 0.411282 -0.028716 0.042856 -0.588012 0.442320 0.303262 0.421684 -0.179964 1.247040 0.186875 1.169535
eth_miim/always_8/block_1/if_1/block_1/if_1/cond 0.808044 -2.399706 -1.415900 -5.190180 -0.847510 2.592358 -0.773926 -2.225840 -0.659936 -0.311314 0.323726 0.834851 -3.056657 -1.310547 -2.301445 -2.675734 0.245857 0.585726 -6.125802 2.040133
eth_miim/always_6/block_1/if_1/block_2/if_1/cond -0.978802 -1.545542 1.238821 -0.333485 -0.901410 2.943003 1.203453 -1.464557 -0.830779 -3.141564 0.736069 -0.075665 -1.225922 0.162789 -1.410833 -2.729603 1.088972 1.350560 -3.878267 -2.742904
eth_miim/input_RStat 0.534400 -2.787352 -3.468309 0.839719 3.031582 -0.390870 -2.328233 -0.266490 1.154074 -4.026043 0.617074 0.209094 0.241548 1.907213 0.053996 -3.276043 -0.146892 -1.793716 0.995999 0.421823
eth_registers/assign_1_Write 0.458497 0.384929 -0.289444 -2.154361 -0.548510 -3.510056 -0.212014 -0.223855 -0.480614 -1.244699 0.010309 2.308776 -0.139709 4.576540 1.371037 -0.237554 -0.575750 0.999468 0.363234 4.341197
eth_rxstatem/reg_StateIdle -0.063009 1.222921 -0.404716 -0.915443 -0.924783 -1.180186 1.165833 -0.335705 1.226074 0.397700 0.004896 0.065969 -0.551692 0.502382 0.313359 0.398196 -0.120597 1.275404 0.124396 1.263260
eth_top/wire_mdc_pad_o -1.941237 2.006191 6.957226 -1.097638 -3.660021 -5.151618 4.205154 2.011748 -5.528993 0.012022 -0.714424 3.484745 3.718394 3.075850 1.669852 2.121001 1.610645 1.880577 -3.253673 -2.131064
eth_registers/assign_111_r_RStat 0.518457 -2.695854 -3.385554 0.893572 3.014642 -0.472105 -2.341970 -0.193869 1.155898 -3.893197 0.553378 0.207882 0.284183 1.900189 0.119242 -3.139363 -0.164969 -1.841082 1.095524 0.477242
eth_wishbone/always_6/block_1/if_1/if_1/cond/expr_1 -0.044697 1.195854 -0.439019 -0.841440 -0.918019 -1.113125 1.118599 -0.341543 1.269972 0.374786 0.017394 0.056460 -0.574926 0.463914 0.302627 0.389440 -0.152978 1.247492 0.159719 1.212559
eth_txethmac/always_13/block_1/if_1/stmt_2/expr_1/expr_1/expr_1 -0.073178 1.235256 -0.430677 -0.871700 -0.975623 -1.173041 1.154352 -0.318779 1.235451 0.378229 -0.014153 0.067131 -0.555943 0.526807 0.314297 0.370029 -0.147571 1.313698 0.142693 1.281337
eth_txstatem/assign_6_StartPAD/expr_1/expr_1/expr_1 -0.075399 1.160092 -0.347253 -0.877397 -0.911799 -1.177060 1.101276 -0.289192 1.115330 0.342349 -0.035690 0.089031 -0.510490 0.595903 0.295740 0.338734 -0.128503 1.246225 0.070498 1.277497
eth_txethmac/always_13/block_1/if_1 -0.073787 1.223238 -0.392051 -0.894504 -0.944592 -1.152116 1.152173 -0.338097 1.200347 0.351244 0.011239 0.091620 -0.562333 0.505373 0.322956 0.392197 -0.133180 1.284812 0.137399 1.253865
eth_maccontrol/input_TxStartFrmIn -0.052182 1.174143 -0.375260 -0.870641 -0.919825 -1.147844 1.110264 -0.317370 1.167672 0.355129 -0.001877 0.092076 -0.527269 0.539536 0.293353 0.385909 -0.163893 1.257590 0.124314 1.230791
eth_txstatem/assign_7_StartFCS -0.039870 1.228497 -0.432638 -0.924878 -0.963239 -1.147234 1.203209 -0.340566 1.252713 0.414478 -0.030007 0.077417 -0.576689 0.446111 0.329161 0.424858 -0.166581 1.286031 0.119554 1.278286
eth_wishbone/always_1/block_1/stmt_1/expr_1/expr_1/expr_1 -0.732982 1.254187 2.422329 -1.408483 -0.678803 -1.390716 2.544551 0.199550 -0.482787 2.810767 -0.684221 0.275012 0.661462 -1.361233 0.522123 1.025963 1.839521 0.266962 -2.383370 0.160553
eth_shiftreg/always_1 -1.043574 -0.186590 -0.525958 1.651915 1.063589 3.141443 1.455158 -0.245631 1.785772 0.948782 -1.511187 -4.155865 -1.640274 0.112468 1.060548 -3.564676 0.263247 1.245938 -1.775144 0.740179
eth_shiftreg/wire_ShiftedBit -1.053577 -0.093241 -0.339813 1.597825 0.987608 3.050778 1.619909 -0.174834 1.636385 1.115064 -1.621809 -4.186873 -1.632867 0.170473 1.181975 -3.541982 0.365799 1.333495 -1.853137 0.914332
check_ethernet/input_wb_we_i -0.219613 4.062392 2.845633 0.460753 -1.405308 -1.224935 1.296982 0.783310 -1.500139 2.599308 1.207277 -0.064973 -1.193334 -1.162233 1.814660 2.762827 -0.083602 1.550316 2.159613 1.546142
eth_miim/always_4/block_1/if_1/block_2/if_1/block_2/if_1/stmt_1 -0.586788 -0.566871 2.919329 -0.589216 -2.314973 1.847371 0.601371 -0.579860 -2.501331 -2.914532 1.039935 1.527621 0.038720 0.131719 -1.825378 0.816526 0.556181 1.667044 -2.228703 -3.573697
eth_top/wire_temp_wb_err_o 0.226719 -0.077380 2.306021 -2.901615 -1.577577 -0.756456 0.012652 2.038023 -1.837283 2.533873 -2.621496 0.102862 2.373371 1.763090 1.248350 2.405532 -0.673864 0.856945 -1.695682 2.058300
eth_rxstatem/always_1/block_1/if_1/block_2/if_4 -0.060857 1.181891 -0.411410 -0.841350 -0.929939 -1.035107 1.127359 -0.307418 1.253224 0.346374 -0.029020 0.011179 -0.554634 0.452959 0.312380 0.356132 -0.144981 1.228986 0.166157 1.139929
eth_txstatem/assign_8_StartJam/expr_1 -0.075169 1.255488 -0.420438 -0.891390 -0.974951 -1.140419 1.136471 -0.313368 1.286415 0.430420 0.013723 0.070061 -0.604220 0.455674 0.297935 0.399953 -0.154465 1.302147 0.194052 1.186724
eth_outputcontrol/always_1/block_1/if_1/block_2/if_1/block_1/stmt_1/expr_1/expr_1/expr_1 0.518681 -0.348288 1.990973 -3.686650 -2.890663 0.184339 -0.197163 -0.998089 -3.506800 -1.756073 1.536947 3.326965 -0.772343 0.398450 -2.278399 1.367142 0.204670 1.733276 -3.310197 -0.385367
eth_miim/reg_WCtrlDataStart_q1 -0.833093 -1.787762 1.550469 0.602221 0.436811 1.660009 0.502260 0.029978 -1.453903 -3.357422 0.007765 -0.503888 0.413695 1.284242 -0.374365 -1.879185 1.120776 0.927419 -2.275139 -1.953213
eth_miim/reg_WCtrlDataStart_q2 -0.311420 -2.548654 -0.146278 -0.569819 -0.773415 2.545794 -0.412379 -1.883945 -0.566433 -5.081035 1.757073 1.706290 -0.944215 0.126855 -2.373360 -2.361457 0.493030 0.191904 -2.787154 -4.132693
eth_registers/wire_MIIMODER_Sel 0.552373 -2.205867 -0.519481 1.627546 6.007425 1.449219 -4.591870 0.434223 -0.545189 -4.053767 1.388242 -1.149490 0.787483 -1.071667 -1.114311 -0.331174 2.719878 -2.926570 1.745076 2.063040
eth_miim/wire_WriteDataOp -0.819863 -1.950421 1.546663 0.604430 0.415209 1.895183 0.384439 -0.015343 -1.425292 -3.598765 0.046630 -0.518578 0.407343 1.212087 -0.499481 -1.926644 1.159671 0.976556 -2.350909 -2.104358
eth_top/reg_WillTransmit_q2 -0.048232 1.276072 -0.479509 -0.852626 -0.962335 -1.080283 1.174672 -0.344802 1.363209 0.386861 -0.014892 0.041798 -0.623856 0.396675 0.326096 0.416788 -0.163467 1.281862 0.166579 1.215190
eth_miim/always_8/block_1/if_1/block_1/if_1/block_1/if_1/block_1/if_1/stmt_2 0.841985 -2.215861 -1.485101 -5.154421 -0.987322 2.392160 -0.709369 -2.243500 -0.579705 -0.211790 0.400687 0.952521 -3.100884 -1.329695 -2.303156 -2.494365 0.140704 0.613319 -5.879982 2.046388
eth_miim/always_8/block_1/if_1/block_1/if_1/block_1/if_1/block_1/if_1/stmt_1 -0.341403 -1.562831 -2.259647 -0.268381 1.438977 1.847596 0.345794 -1.361447 1.864729 -0.889428 -0.177719 -1.607803 -1.853177 -0.079585 -0.050076 -4.372146 0.465136 -0.201161 -2.460965 0.791322
eth_txethmac/wire_StateJam -0.065546 1.184925 -0.417969 -0.840582 -0.912223 -1.101344 1.092891 -0.312676 1.226457 0.353243 0.016110 0.046914 -0.566169 0.483802 0.322211 0.381092 -0.166487 1.251002 0.159155 1.170728
eth_clockgen/wire_MdcEn_n -0.523533 -0.420279 3.082460 -0.756861 1.025055 1.390010 -0.684957 0.449053 -2.390464 0.897551 -1.465652 -2.255887 1.847265 1.557408 -0.247381 -0.002231 1.784387 -0.022129 -1.845874 2.991824
eth_outputcontrol/reg_Mdo_d -1.036998 -0.347709 1.845998 0.317856 3.487699 -1.742788 1.541510 1.928376 -1.018175 2.304548 -2.643131 -3.380395 2.634089 2.207112 2.979516 -2.164407 2.323702 -0.643362 -1.636042 5.346658
eth_txstatem/assign_5_StartData/expr_1 -0.074370 1.175856 -0.380088 -0.858154 -0.924130 -1.136525 1.144194 -0.352971 1.208868 0.374435 -0.016873 0.075662 -0.530032 0.503534 0.318612 0.328250 -0.114666 1.236233 0.081764 1.243786
check_ethernet/always_1/if_1 -0.249715 4.065957 2.863115 0.516149 -1.296696 -1.174506 1.310591 0.803445 -1.518446 2.599317 1.179837 -0.109014 -1.202474 -1.256259 1.819986 2.782195 -0.012513 1.438014 2.172026 1.483149
eth_top/wire_r_ScanStat -0.143907 -1.786556 -1.885345 0.845073 2.836907 0.259009 -0.396381 0.210288 1.098418 -1.495294 -0.706074 -1.865500 -0.088300 1.474429 1.073168 -3.496823 0.557031 -0.546507 -0.566533 1.747748
eth_miim/input_Mdi -1.039830 0.709584 1.270699 0.836134 0.299889 1.256698 1.889506 0.165580 -0.003477 1.732617 -1.265425 -2.640913 -0.586113 0.449914 1.158550 -1.902044 0.783167 1.161951 -1.709913 1.368813
eth_rxstatem/assign_1_StartIdle/expr_1/expr_1 -0.048440 1.205702 -0.425857 -0.914954 -0.956457 -1.130398 1.166523 -0.333864 1.190780 0.357719 0.005973 0.053840 -0.569158 0.534199 0.295462 0.347772 -0.143112 1.252937 0.118939 1.236791
eth_rxstatem/always_1/block_1/if_1/block_2/if_1/cond -0.073345 1.274714 -0.431057 -0.893063 -0.978219 -1.173553 1.148574 -0.340425 1.268118 0.372702 -0.021871 0.095211 -0.571416 0.480224 0.335361 0.430137 -0.194175 1.305406 0.173642 1.248828
eth_rxstatem/assign_1_StartIdle/expr_1/expr_2 -0.078277 1.279221 -0.432927 -0.893679 -0.957917 -1.121517 1.192975 -0.356310 1.257914 0.416467 -0.030657 0.031606 -0.606518 0.462961 0.306663 0.414441 -0.170594 1.303769 0.166796 1.212731
eth_top/wire_wb_ack_o -1.401854 0.997572 4.756218 -2.080342 -0.354258 -3.356078 2.543826 1.590365 -3.142153 2.894791 -1.445857 1.126281 2.928598 0.939632 1.371175 1.385595 2.591918 0.014686 -3.541493 1.906992
eth_outputcontrol/always_2/block_1/if_1/block_2/if_1/block_1/stmt_3 -1.087994 -0.335321 1.866701 0.250340 3.357529 -1.649633 1.537211 1.907164 -0.913052 2.440974 -2.713277 -3.375897 2.650057 1.985429 2.914896 -2.070843 2.240165 -0.713227 -1.699648 5.174987
eth_outputcontrol/always_2/block_1/if_1/block_2/if_1/block_1/stmt_2 -1.139321 -0.260560 1.864236 0.340293 3.379110 -1.724890 1.644263 1.890622 -0.742078 2.443505 -2.718523 -3.464189 2.659302 2.037811 3.009164 -2.067209 2.237790 -0.674627 -1.563725 5.213095
eth_txstatem/always_1/block_1/if_1 -0.089520 1.228399 -0.338508 -0.866576 -0.940129 -1.147071 1.151017 -0.296567 1.138050 0.381694 -0.013950 0.075712 -0.500043 0.538431 0.320673 0.376355 -0.111233 1.241137 0.130636 1.247863
eth_miim/reg_WCtrlData_q3 -0.273935 -2.602252 -0.125494 -0.737801 -0.822332 2.516898 -0.473160 -1.896783 -0.714629 -5.125610 1.791740 1.814745 -0.981519 0.141057 -2.466198 -2.340443 0.515567 0.175530 -2.940006 -4.015926
eth_miim/reg_WCtrlData_q2 -0.767256 -1.846401 1.521849 0.608134 0.399056 1.762813 0.443782 0.066892 -1.407560 -3.422973 0.025890 -0.515258 0.406147 1.235307 -0.402232 -1.843565 1.083640 0.972892 -2.262891 -2.005581
eth_miim/reg_WCtrlData_q1 -0.139134 -1.796407 -1.841396 0.776806 2.706267 0.174470 -0.465212 0.195369 0.915248 -1.615438 -0.623903 -1.639961 -0.052264 1.553080 0.969400 -3.460771 0.580489 -0.566786 -0.610107 1.664775
eth_top/assign_11_temp_wb_dat_o/expr_1/expr_1/expr_1 1.162852 1.430553 2.630412 -1.815277 -2.061243 -3.867797 1.676386 2.219909 -5.354359 3.449023 0.369206 3.324916 0.016697 1.103575 1.154757 2.687288 -0.235962 2.047456 -0.573700 1.775776
eth_top/assign_8_BDCs/expr_1/expr_1/expr_1/expr_1/expr_1 -0.578158 0.324204 0.019061 -0.543136 -0.706370 0.936420 1.909172 -1.126892 1.923509 2.298915 -0.307665 -0.403726 -1.074192 -2.776896 -0.059366 -0.715630 0.577938 -0.648297 -1.966281 -1.613433
eth_wishbone/always_77/block_1/if_1/if_1/cond -0.621054 0.329125 0.011843 -0.570103 -0.742930 0.928660 2.006707 -1.165329 2.010977 2.365068 -0.303960 -0.424182 -1.134180 -2.873688 -0.039406 -0.722331 0.614871 -0.651248 -1.991041 -1.633156
eth_txethmac/always_13/block_1 -0.070281 1.202233 -0.419389 -0.820715 -0.924663 -1.086948 1.106988 -0.332100 1.204160 0.375206 -0.022667 0.080232 -0.559570 0.439773 0.312543 0.383148 -0.158116 1.215464 0.147873 1.184986
eth_shiftreg/always_1/block_1/if_1/block_2/if_1 -1.021662 -0.159614 -0.455758 1.605287 1.026781 3.068526 1.484073 -0.266779 1.708735 0.995621 -1.560646 -4.133392 -1.636969 0.119533 1.096668 -3.483091 0.295680 1.238708 -1.806284 0.781830
eth_registers/always_1/block_1/if_1 1.828868 1.418509 1.646437 -1.518103 -1.901618 -2.905900 0.079100 2.270684 -5.251496 1.142814 1.066684 2.504773 -0.331756 1.011190 0.359294 3.342222 -1.055254 3.128056 0.770748 1.869547
eth_top/wire_RegCs 0.056614 0.427513 0.515477 -0.095254 -0.258194 -1.400803 0.681260 0.047893 -2.161923 1.479912 0.507181 1.083063 -0.496921 0.115678 0.119075 -0.875091 -0.026912 -0.336954 -0.420421 0.819154
eth_clockgen/reg_Mdc -1.725266 -0.401028 4.679531 -0.816835 -1.070974 0.188250 -0.878673 0.615359 -2.982714 0.556974 -2.270279 -0.071032 2.481367 2.646819 0.324425 -0.642118 0.426511 -1.575496 -2.516937 1.402176
eth_shiftreg/always_1/block_1/if_1/block_2/if_1/cond -1.030241 -0.068255 -0.398516 1.592031 0.932792 3.064045 1.611033 -0.192510 1.677727 1.095297 -1.561390 -4.163318 -1.641855 0.114886 1.140203 -3.457883 0.280791 1.373369 -1.792745 0.795234
eth_shiftreg/always_1/block_1 -1.057822 -0.203060 -0.509617 1.728092 1.075698 3.168522 1.483023 -0.234424 1.820110 0.964550 -1.578873 -4.273105 -1.674365 0.145633 1.139025 -3.648818 0.319646 1.243904 -1.746529 0.754324
eth_top/assign_2_RegCs/expr_1 -0.705340 1.189941 2.368198 -1.422484 -0.686747 -1.379206 2.467886 0.153783 -0.470168 2.713609 -0.641992 0.284893 0.626452 -1.333976 0.472068 0.943303 1.811815 0.235375 -2.401494 0.147860
eth_wishbone/always_2/block_1/if_1/if_1 -0.609578 0.309211 -0.057651 -0.546534 -0.705117 1.028350 1.956666 -1.189204 2.055570 2.342914 -0.306022 -0.437524 -1.131134 -2.888743 -0.093594 -0.762453 0.629589 -0.650230 -2.037211 -1.642858
eth_rxstatem/assign_2_StartPreamble -0.062656 1.171927 -0.436759 -0.845112 -0.903257 -1.091496 1.125590 -0.340383 1.221789 0.343794 -0.032097 0.043245 -0.530457 0.467338 0.290746 0.369004 -0.153227 1.222796 0.121292 1.186198
eth_miim/inst_shftrg -1.023551 -0.162325 -0.519744 1.624981 1.025230 3.105126 1.457957 -0.251743 1.744341 0.964012 -1.564205 -4.147739 -1.626175 0.112652 1.132614 -3.533771 0.298986 1.260886 -1.757000 0.738694
eth_miim/always_3/block_1/if_1/block_1/stmt_9 0.493892 -1.164459 -1.482671 -0.717410 0.404912 -0.186892 -1.088213 -0.730323 0.391807 -1.637538 0.909250 1.347610 -0.250232 -0.342768 -0.921716 -0.551338 -0.144386 -1.048040 -0.013533 -0.653875
eth_top/always_1/block_1/if_1/block_2/stmt_1 -1.412959 0.965294 4.748180 -2.090980 -0.304374 -3.426195 2.495269 1.574596 -3.150945 2.761329 -1.398248 1.122313 2.942658 1.058953 1.380112 1.364081 2.622137 0.036814 -3.508394 1.995037
eth_top/always_1/block_1/if_1/block_2/stmt_2 0.887200 1.467547 3.485342 -0.562983 -1.056013 -3.536948 1.709195 2.580186 -5.039060 2.958795 -1.009289 0.728762 2.196726 2.402063 0.744366 2.906275 1.017057 2.575756 -0.517865 2.568876
eth_top/always_1/block_1/if_1/block_2/stmt_3 0.209110 -0.193014 2.309541 -2.883325 -1.559594 -0.672489 -0.092034 2.034708 -1.804173 2.383874 -2.630145 0.091577 2.472779 1.816326 1.174114 2.361730 -0.712534 0.789170 -1.715226 1.929978
eth_clockgen/always_2/block_1/if_1/block_1 -1.736645 -0.288354 3.920213 -1.117649 -1.476216 -1.592302 -0.422997 0.665493 -2.456139 0.507052 -2.019067 1.421218 2.738264 2.379154 0.787308 -0.575514 -0.221413 -2.294720 -2.163960 0.727223
eth_rxstatem/assign_1_StartIdle/expr_1/expr_2/expr_2 -0.046208 1.174914 -0.367750 -0.843853 -0.932086 -1.165387 1.133032 -0.314194 1.154918 0.344303 0.007109 0.073205 -0.528922 0.536713 0.316270 0.393123 -0.132104 1.260709 0.140690 1.263924
check_ethernet/input_wb_stb_i -0.173721 4.012681 2.902686 0.472130 -1.368263 -1.370521 1.259930 0.873339 -1.731826 2.580782 1.164142 -0.018060 -1.076876 -1.071634 1.773353 2.782827 -0.049654 1.482663 2.142934 1.620797
eth_txstatem/always_1/block_1/if_1/block_2/if_6 -0.065851 1.174589 -0.460584 -0.869408 -0.934684 -1.109099 1.149848 -0.309700 1.224247 0.368629 -0.022596 0.036068 -0.570388 0.488884 0.287853 0.377864 -0.166497 1.226600 0.167012 1.231192
eth_miim/assign_7_ByteSelect/expr_1/expr_1/expr_2 -1.050792 -0.158513 -0.432555 1.580512 0.959202 3.126179 1.527933 -0.225206 1.738126 1.035319 -1.561518 -4.195193 -1.684448 0.099302 1.094910 -3.520317 0.302768 1.291062 -1.835586 0.776386
eth_miim/assign_7_ByteSelect/expr_1/expr_1/expr_1 -1.079806 -0.148056 -0.490513 1.655935 0.988619 3.154552 1.564290 -0.282829 1.714603 0.977033 -1.581038 -4.202555 -1.693726 0.170764 1.136442 -3.623350 0.298146 1.330934 -1.857767 0.745543
eth_txethmac/wire_StateData -0.037862 1.190613 -0.417997 -0.853342 -0.926499 -1.101012 1.125321 -0.323891 1.218114 0.356372 0.001682 0.036048 -0.570589 0.432224 0.301177 0.376343 -0.163956 1.235893 0.137116 1.184525
eth_txstatem/assign_4_StartData/expr_1/expr_2/expr_2 -0.037391 1.223830 -0.433741 -0.862292 -0.942705 -1.147785 1.155022 -0.331805 1.209160 0.405086 -0.023139 0.062405 -0.558319 0.446194 0.332187 0.423249 -0.172970 1.244502 0.186552 1.217750
eth_miim/wire_ShiftedBit -1.037383 -0.165754 -0.474245 1.636622 1.016653 3.136556 1.532586 -0.270179 1.704280 0.962054 -1.565040 -4.151939 -1.652868 0.160726 1.085272 -3.582328 0.317311 1.317495 -1.817412 0.764181
eth_miim/assign_10_ByteSelect -1.044194 -0.232145 -0.611994 1.680548 1.119673 3.216571 1.461532 -0.276462 1.832997 0.906046 -1.564269 -4.281708 -1.718683 0.156509 1.113888 -3.659734 0.281725 1.230082 -1.794094 0.725655
eth_miim/reg_SyncStatMdcEn -0.139188 -1.773136 -1.844392 0.749005 2.730467 0.168705 -0.435754 0.184143 0.941535 -1.567651 -0.641055 -1.671606 -0.052876 1.481931 1.005770 -3.414187 0.567648 -0.560003 -0.546657 1.688989
eth_top/assign_4_RegCs/expr_1/expr_1/expr_1 -0.795698 -1.093539 -2.053414 -0.811582 0.692687 2.312901 2.100409 -2.205429 3.514185 1.423161 -0.398020 -1.756321 -2.632201 -2.671757 -0.022861 -4.506259 0.986001 -0.822749 -3.891772 -0.658312
eth_wishbone/always_2/block_1 -0.590374 0.282859 -0.124918 -0.506019 -0.712798 1.062541 1.968112 -1.227850 2.182458 2.421533 -0.339668 -0.514765 -1.225341 -3.022147 -0.092580 -0.751264 0.593993 -0.673405 -1.990689 -1.746825
eth_top/assign_4_RegCs/expr_1/expr_1/expr_2 -0.002719 -0.966989 -1.987422 1.030253 0.889325 2.151678 -0.440938 -0.451534 2.085904 -0.786494 -0.342446 -1.821644 -1.181270 -0.397472 -0.014310 -1.918725 -0.557906 0.025072 0.074961 -0.710166
eth_top/assign_7_BDCs -0.699029 1.169295 2.372502 -1.443347 -0.613993 -1.490959 2.431818 0.198517 -0.588660 2.625209 -0.590326 0.329038 0.647396 -1.173052 0.489305 0.953902 1.850498 0.237092 -2.370088 0.273184
eth_clockgen/wire_CounterPreset -0.035747 1.160972 1.192650 0.641950 2.575110 -2.048178 0.711532 0.010013 -3.243461 -2.941105 2.870657 1.267766 -0.002615 3.541538 0.157117 -1.202619 3.360210 1.803980 -0.119046 3.691134
eth_miim/always_8 0.561826 -1.696256 0.098766 -2.914604 1.647938 -0.615968 -0.638541 0.899646 -0.560129 1.729771 -1.887350 -0.848009 1.759002 0.233381 0.406423 0.131930 1.002431 -0.884189 -2.511485 3.518879
eth_rxstatem/always_1/block_1/if_1/block_2/if_3/if_1/cond -0.091244 1.187159 -0.431024 -0.848377 -0.917908 -1.064928 1.127455 -0.312174 1.223464 0.342618 -0.026509 0.041776 -0.578887 0.494879 0.282101 0.370182 -0.152179 1.230012 0.127348 1.184615
check_ethernet/always_1/if_1/if_1 -0.186250 4.142954 2.842423 0.504439 -1.465533 -1.344694 1.273339 0.815461 -1.592001 2.685934 1.228201 -0.079502 -1.201859 -1.176480 1.780926 2.877571 -0.141583 1.550547 2.301605 1.553004
eth_shiftreg/input_MdcEn_n -1.062950 -0.144967 -0.422164 1.659346 0.959849 3.166391 1.608106 -0.260341 1.697918 0.977252 -1.546533 -4.211068 -1.686408 0.155807 1.113974 -3.643504 0.300312 1.369920 -1.903794 0.736833
eth_miim/always_7/block_1/if_1/block_2/if_1/cond 0.120949 -0.946697 0.349208 -3.270879 -1.529186 1.203667 0.498913 -1.687317 -1.594462 -1.319370 1.083175 1.538413 -1.971993 0.102043 -1.717298 -1.672518 0.610279 1.416121 -4.461538 0.435313
eth_rxstatem/reg_StateData0 -0.070612 1.220197 -0.433055 -0.847477 -0.932742 -1.064912 1.145722 -0.314820 1.279423 0.368455 -0.028899 0.046218 -0.563347 0.420975 0.309199 0.362596 -0.171422 1.246007 0.148362 1.173175
eth_miim/always_1 -0.560757 -0.631884 3.092975 -0.714116 -2.454525 2.018000 0.636288 -0.623735 -2.565083 -2.800981 0.958358 1.554415 0.057239 -0.081443 -1.915869 0.956862 0.598998 1.648412 -2.508224 -3.804657
eth_miim/input_ScanStat -0.181324 -1.721838 -1.733741 0.768907 2.643408 0.212816 -0.350127 0.203197 0.939096 -1.483531 -0.640000 -1.710026 -0.093056 1.463143 0.992446 -3.409633 0.591592 -0.457534 -0.647681 1.630550
eth_miim/always_3 -0.853154 -1.803778 1.652016 0.565241 0.383397 1.861870 0.503129 0.023331 -1.388491 -3.312092 -0.052279 -0.644106 0.425342 1.152965 -0.380097 -1.866362 1.188102 0.990138 -2.432290 -1.999503
eth_miim/always_4 -0.828522 -1.774073 1.698208 0.521498 0.287786 1.757395 0.583379 0.008807 -1.563683 -3.489304 0.060752 -0.441341 0.417947 1.339362 -0.417368 -1.899943 1.145772 1.136150 -2.468909 -2.019496
eth_miim/always_6 -0.016523 -1.888635 0.234009 -0.883165 0.405765 0.576378 -0.517658 -0.203279 -1.548218 -3.078496 0.481026 0.749588 -0.015407 1.539208 -0.592790 -1.830464 0.612826 0.434240 -2.209798 -0.342724
eth_miim/always_7 0.274690 -1.231445 0.670801 -2.218855 -0.367407 -0.032083 -0.273167 -0.274340 -2.223684 -1.971223 0.545442 1.281583 -0.311971 1.312490 -0.762481 -0.811046 0.630876 1.069165 -2.751360 0.858864
eth_maccontrol/assign_4_TxStartFrmOut/expr_1/expr_1 -0.078541 1.220733 -0.399852 -0.868426 -0.912749 -1.131089 1.165637 -0.313501 1.220692 0.363451 -0.017220 0.048511 -0.568816 0.531052 0.304881 0.339900 -0.113218 1.271021 0.115305 1.273784
eth_top/input_wb_dat_i -0.177909 4.091545 2.880516 0.549368 -1.322639 -1.297384 1.228653 0.895383 -1.585176 2.659333 1.198011 -0.064556 -1.177074 -1.202953 1.860739 2.906420 -0.023629 1.517396 2.324367 1.564878
eth_top/assign_12_temp_wb_err_o/expr_1/expr_2/expr_1 0.047164 -0.556742 -0.091802 -2.154868 -2.549381 -0.103193 0.060742 0.298415 -0.430246 1.973021 -0.797069 1.409202 -0.062495 0.217511 0.175728 0.736171 -2.403524 -0.225906 -0.839338 0.800586
eth_top/assign_4_RegCs/expr_1/expr_1/expr_1/expr_1 -0.835599 -1.062850 -2.066405 -0.739715 0.638931 2.390630 2.180633 -2.234507 3.581745 1.495526 -0.430585 -1.816888 -2.682462 -2.743037 -0.024789 -4.501724 0.971144 -0.809872 -3.938301 -0.789682
eth_shiftreg/input_ByteSelect -1.000960 -0.272079 -0.636294 1.739390 1.098349 3.234236 1.401423 -0.295597 1.828781 0.826623 -1.511835 -4.197336 -1.701051 0.114826 1.065323 -3.653040 0.236180 1.208912 -1.756709 0.659285
eth_wishbone/always_6/block_1/if_1/if_1/cond -0.063512 1.209132 -0.381887 -0.859060 -0.956517 -1.100497 1.150142 -0.333065 1.214142 0.413587 -0.005931 0.077491 -0.598435 0.430620 0.297191 0.402517 -0.125207 1.250613 0.128600 1.181517
check_ethernet/input_wb_cyc_i -0.234896 4.199280 2.981833 0.507348 -1.434680 -1.228788 1.379159 0.855995 -1.548480 2.757035 1.143952 -0.164111 -1.201605 -1.270542 1.837369 2.848463 -0.065475 1.568511 2.168266 1.541256
eth_top/assign_2_RegCs/expr_1/expr_1 -0.669439 1.208765 2.267393 -1.376576 -0.656818 -1.355548 2.469836 0.162991 -0.405402 2.688166 -0.633813 0.266886 0.571913 -1.377819 0.479214 1.002619 1.806262 0.289816 -2.319342 0.121819
eth_top/assign_6_BDCs/expr_1/expr_1/expr_1/expr_1 -0.738624 1.127700 2.248501 -1.371240 -0.660833 -1.157328 2.497920 0.061724 -0.299956 2.762897 -0.662933 0.196097 0.516970 -1.499031 0.459724 0.830107 1.839744 0.175530 -2.490423 -0.000039
eth_top/assign_12_temp_wb_err_o/expr_1/expr_1 0.015878 -0.427472 0.106173 -2.072990 -2.454622 -0.218196 0.191104 0.495515 -0.431348 2.330714 -1.062257 1.200747 0.145047 0.272253 0.394500 0.878808 -2.316569 -0.224821 -0.780848 1.064934
eth_top/assign_22_Transmitting -0.088089 1.248557 -0.442067 -0.927746 -0.925245 -1.193161 1.179724 -0.350055 1.246606 0.344331 0.011701 0.077158 -0.605761 0.519256 0.330270 0.334492 -0.109339 1.276968 0.110555 1.313011
eth_txstatem/assign_4_StartData/expr_1/expr_2/expr_1 -0.060773 1.235927 -0.436561 -0.890361 -0.957514 -1.168253 1.166939 -0.300541 1.212755 0.356096 -0.025079 0.057106 -0.593819 0.475215 0.334823 0.392628 -0.150284 1.263682 0.178042 1.214434
eth_txstatem/reg_StatePAD -0.054486 1.157964 -0.395103 -0.852826 -0.896403 -1.097784 1.113315 -0.335891 1.210598 0.357661 0.011209 0.041386 -0.547257 0.503845 0.303008 0.338989 -0.120622 1.222910 0.125835 1.225953
eth_txstatem/assign_5_StartData -0.069974 1.207321 -0.464061 -0.865561 -0.940422 -1.057718 1.129526 -0.323856 1.308357 0.373351 -0.002602 0.027076 -0.621988 0.398028 0.293512 0.333934 -0.169679 1.246280 0.146093 1.158396
eth_top/assign_6_BDCs/expr_1 -0.709886 1.220950 2.340629 -1.374096 -0.628486 -1.366221 2.442161 0.210050 -0.493001 2.740158 -0.635989 0.240083 0.653836 -1.335832 0.510888 1.017228 1.796712 0.267612 -2.301957 0.167624
eth_shiftreg/always_1/block_1/if_1/block_2/if_1/block_1/if_1/block_1/case_1/cond 0.000409 -0.970196 -1.998125 1.010694 0.937135 2.136619 -0.449010 -0.466793 2.058038 -0.795119 -0.369148 -1.837198 -1.192590 -0.410736 0.020428 -1.910629 -0.527695 -0.006950 0.059681 -0.654058
eth_wishbone/always_6/block_1/if_1 -0.057125 1.177710 -0.304740 -0.875838 -0.921355 -1.170820 1.135851 -0.282201 1.094896 0.370974 0.006450 0.105822 -0.507317 0.580768 0.319792 0.349069 -0.089835 1.241678 0.069057 1.260441
eth_miim/always_3/block_1/if_1/block_2/stmt_5 0.544462 -2.790443 -3.402519 0.773042 3.046521 -0.508580 -2.311745 -0.212520 1.156064 -3.888193 0.554664 0.235795 0.304209 1.874598 0.105056 -3.184855 -0.084273 -1.836703 0.950238 0.534070
eth_top/input_md_pad_i -1.031600 0.650728 1.217128 0.805255 0.275344 1.273044 1.835595 0.116599 -0.086311 1.547270 -1.186912 -2.502078 -0.591280 0.496646 1.091094 -1.904315 0.762434 1.155351 -1.761822 1.299418
eth_txstatem/assign_3_StartPreamble/expr_1 -0.083505 1.210535 -0.475128 -0.864548 -0.914533 -1.154559 1.167790 -0.351312 1.255441 0.382018 -0.025168 0.079201 -0.570548 0.497928 0.318609 0.357111 -0.157439 1.277573 0.158238 1.250135
eth_wishbone/always_4/block_1 -0.572859 0.284474 -0.114263 -0.490889 -0.657607 1.029445 1.875549 -1.185162 2.112213 2.241344 -0.288631 -0.479150 -1.180285 -2.874266 -0.098145 -0.764486 0.569558 -0.658917 -1.895660 -1.676126
eth_top/always_1/block_1/if_1/block_2/stmt_1/expr_1 -0.652646 0.849499 4.822326 -3.032718 -1.378919 -3.819751 3.434501 1.098276 -3.153962 2.662157 -1.374432 1.799592 2.643991 -0.355589 0.943091 2.703022 2.839175 1.066650 -4.360555 0.482881
eth_wishbone/reg_TxStartFrm_wb -0.046726 1.240247 -0.434582 -0.846006 -0.935044 -1.107716 1.138939 -0.335241 1.259293 0.416532 -0.016930 0.074080 -0.566391 0.416524 0.302086 0.437384 -0.165954 1.248962 0.186028 1.208367
eth_shiftreg/always_1/block_1/if_1/block_2/if_1/block_1/if_1/cond -1.049184 -0.204649 -0.524010 1.731551 1.086804 3.214385 1.519052 -0.246933 1.821279 0.953496 -1.574559 -4.276453 -1.668177 0.127974 1.147637 -3.627318 0.271080 1.254047 -1.752614 0.741600
eth_miim/always_1/block_1/if_1 -0.599783 -0.630571 2.993958 -0.671923 -2.378403 1.966396 0.653654 -0.642452 -2.518190 -2.859995 0.982887 1.541781 0.012130 0.002051 -1.882463 0.826090 0.565814 1.629265 -2.399872 -3.741406
eth_clockgen/always_1/block_1/if_1/block_1/if_1/block_1 -0.101036 1.144711 1.311386 0.720918 2.491670 -1.835601 0.762594 0.049027 -3.117859 -2.908287 2.748071 1.164276 0.034080 3.425551 0.164532 -1.141251 3.337386 1.870940 -0.172228 3.366505
eth_shiftreg/always_1/block_1/if_1/block_2/if_1/block_1 -1.021448 -0.159580 -0.480903 1.573676 1.012754 3.090655 1.511588 -0.250350 1.676848 1.014709 -1.525733 -4.125404 -1.671619 0.137234 1.128324 -3.514819 0.307883 1.311182 -1.809504 0.766274
eth_miim/always_4/block_1 -0.761766 -2.075463 1.441264 0.524054 0.513110 1.785554 0.257697 -0.016058 -1.430063 -3.600499 0.032840 -0.381045 0.525595 1.175467 -0.539998 -1.908349 1.149677 0.795841 -2.326871 -2.131131
eth_clockgen/always_1/block_1/if_1/block_1/if_1/stmt_1 -1.075226 -1.056834 2.816255 -1.967226 -0.060249 -2.406806 -0.022079 0.390302 -3.156122 -0.198723 -1.377185 2.259218 2.052059 2.187475 1.074291 -0.974089 0.796304 -1.782951 -3.199522 1.785638
eth_top/always_1/block_1/if_1/block_2/stmt_3/expr_1 0.207580 -0.244862 2.429427 -2.950593 -1.607976 -0.776129 -0.067105 2.117074 -1.934267 2.529996 -2.745873 0.163046 2.614761 1.867292 1.220735 2.474712 -0.730460 0.777884 -1.821214 1.943347
eth_wishbone/reg_WB_ACK_O -0.682224 1.197106 2.294102 -1.373920 -0.664441 -1.324173 2.454338 0.163318 -0.407356 2.701105 -0.628711 0.282532 0.620562 -1.371802 0.486096 0.982267 1.786299 0.241603 -2.334980 0.084322
eth_transmitcontrol/always_1/block_1/if_1/if_1 -0.072439 1.236864 -0.428839 -0.896289 -0.954477 -1.143690 1.154817 -0.336987 1.198296 0.345067 -0.027665 0.058322 -0.533361 0.528105 0.325457 0.361437 -0.155940 1.259624 0.143656 1.250948
eth_top/assign_9_BDCs/expr_1/expr_1/expr_1/expr_1/expr_1 -0.599123 0.392412 0.012816 -0.585206 -0.767421 0.945957 2.062045 -1.165972 2.054201 2.424437 -0.303078 -0.427313 -1.123579 -2.922572 -0.049820 -0.717537 0.636007 -0.633095 -2.024024 -1.678256
eth_outputcontrol/always_2/block_1/if_1/block_2/if_1/block_1/stmt_1 -1.123174 -0.387432 1.750050 0.340084 3.451600 -1.633143 1.566979 1.827985 -0.771284 2.404852 -2.663263 -3.401289 2.567924 2.039158 2.979196 -2.280304 2.231114 -0.824291 -1.690227 5.195713
eth_miim/always_7/block_1/if_1/block_2/if_1/block_1/if_1/cond -0.065201 -1.907678 0.141823 -0.628881 0.493639 0.731684 -0.563443 -0.213147 -1.403232 -3.233370 0.458272 0.586342 -0.054964 1.501996 -0.567791 -1.878631 0.586331 0.414295 -2.033706 -0.519407
eth_outputcontrol/assign_1_SerialEn/expr_1/expr_2/expr_2 0.694611 -1.624072 -2.135541 -1.782768 0.602370 -1.022381 -1.288102 -1.202605 0.438669 -2.083227 1.416522 2.362488 -0.364857 -0.302096 -1.210392 -1.103367 0.100897 -1.627862 -0.632602 -0.054727
eth_top/inst_miim1 -0.966110 0.799154 3.559834 -0.754287 -0.142559 -0.861373 1.324459 1.273315 -3.110414 0.370491 -1.182903 -0.688820 2.331095 2.448905 0.906963 0.865202 1.766274 1.733893 -1.956004 1.764123
eth_outputcontrol/assign_1_SerialEn/expr_1/expr_2/expr_1 0.727578 -1.615851 -2.135908 -1.845527 0.576715 -1.065426 -1.352473 -1.228094 0.383520 -2.154828 1.467449 2.532455 -0.338960 -0.312813 -1.270512 -1.083761 0.133652 -1.613684 -0.664626 -0.094032
eth_txethmac/always_13/block_1/if_1/stmt_2/expr_1 -0.049671 1.173077 -0.414621 -0.870490 -0.901075 -1.145185 1.147564 -0.336113 1.177513 0.351431 -0.006314 0.089651 -0.557100 0.545467 0.298338 0.322909 -0.135919 1.238984 0.153607 1.285595
eth_wishbone/always_30 -0.075297 1.200187 -0.462368 -0.839278 -0.920681 -1.109254 1.126231 -0.349921 1.243426 0.360017 0.009405 0.034841 -0.571409 0.487654 0.322983 0.356599 -0.158692 1.269566 0.154831 1.196842
eth_rxstatem/wire_StartSFD -0.049513 1.191508 -0.421369 -0.896626 -0.919521 -1.166757 1.134638 -0.320087 1.180617 0.361019 -0.022408 0.095951 -0.537124 0.511219 0.324868 0.373346 -0.140519 1.247005 0.144231 1.250642
eth_txstatem/always_1/block_1/if_1/block_2/stmt_1 -0.067731 1.249371 -0.451093 -0.900693 -0.988429 -1.138129 1.179874 -0.338205 1.280623 0.380026 0.004555 0.050825 -0.616855 0.444325 0.289661 0.416201 -0.148323 1.295543 0.139060 1.202381
eth_miim/always_6/block_1/if_1/block_2/if_1/block_1 -0.775270 -1.872168 1.408188 0.661527 0.454126 1.792081 0.436255 -0.029575 -1.303191 -3.508090 0.059783 -0.500496 0.423956 1.226243 -0.436881 -1.924679 1.119596 0.936674 -2.206153 -2.070781
eth_wishbone/always_6/block_1 -0.053179 1.237449 -0.406477 -0.939282 -0.972710 -1.162150 1.196128 -0.324717 1.202333 0.328994 -0.036497 0.097329 -0.560164 0.542459 0.317786 0.325195 -0.110791 1.297760 0.087584 1.302911
eth_registers/assign_110_r_WCtrlData -0.208606 -1.713589 -1.800735 0.731075 2.627912 0.289642 -0.352169 0.126072 0.959750 -1.479620 -0.627808 -1.749189 -0.108620 1.445238 0.995390 -3.495337 0.557165 -0.472419 -0.673064 1.651917
eth_wishbone/always_1/block_1/stmt_1/expr_1/expr_1/expr_1/expr_1 -0.731451 1.254604 2.455535 -1.531707 -0.720716 -1.426232 2.570381 0.203932 -0.509803 2.806967 -0.663684 0.307150 0.631541 -1.349644 0.506156 1.016005 1.887974 0.293718 -2.509393 0.220216
eth_top/assign_7_BDCs/expr_1/expr_1/expr_1/expr_1 -0.683035 1.151731 2.245218 -1.402725 -0.652393 -1.299561 2.503343 0.112776 -0.369181 2.679661 -0.599593 0.278238 0.557130 -1.405664 0.435929 0.917624 1.816869 0.230862 -2.401212 0.132552
eth_top/assign_8_BDCs/expr_1 -0.734829 1.205579 2.333092 -1.444239 -0.682978 -1.363265 2.521947 0.160633 -0.428850 2.707745 -0.649246 0.278002 0.613009 -1.348923 0.485156 1.001361 1.831968 0.266880 -2.404498 0.183439
eth_miim/always_8/block_1/if_1 0.441404 -1.802408 0.061981 -3.048016 1.689418 -0.731649 -0.653636 0.772436 -0.532642 1.965943 -2.126931 -0.901398 1.825488 0.318302 0.516126 -0.237674 0.963395 -1.253893 -2.746035 3.873782
eth_top/assign_15_wb_err_o 0.237956 -0.136455 2.403883 -2.873151 -1.523064 -0.728836 -0.056364 2.173785 -1.866369 2.659617 -2.764194 0.033266 2.558845 1.737945 1.294182 2.526098 -0.733367 0.802127 -1.676401 2.016968
eth_shiftreg/always_1/block_1/if_1/block_2/if_1/block_1/if_1/block_1/case_1 -0.020080 -0.951920 -1.977208 1.015449 0.877839 2.122192 -0.470080 -0.453698 2.059074 -0.781481 -0.349885 -1.764886 -1.149520 -0.408590 -0.013345 -1.872872 -0.505269 -0.000895 0.073835 -0.700635
eth_top/wire_temp_wb_dat_o 1.202629 1.389274 2.833414 -1.999594 -2.223493 -3.860880 1.720935 2.286476 -5.526069 3.553540 0.320855 3.486770 0.014553 1.103994 1.245843 2.801811 -0.238242 2.137037 -0.785474 1.688308
eth_wishbone/always_4 -0.619261 0.317542 -0.036960 -0.550895 -0.695723 1.009702 1.988562 -1.179718 2.132085 2.388385 -0.299407 -0.462537 -1.147806 -2.930149 -0.056693 -0.761022 0.637336 -0.674279 -2.026675 -1.687637
eth_rxstatem/wire_StateData -0.070014 1.236981 -0.451554 -0.899891 -0.921425 -1.168092 1.158757 -0.308934 1.204423 0.364742 -0.000625 0.080607 -0.578942 0.556390 0.340193 0.348989 -0.156822 1.276671 0.126645 1.262948
eth_wishbone/always_1 -0.733448 1.157934 2.302467 -1.408353 -0.641367 -1.308133 2.476521 0.136481 -0.409750 2.714961 -0.648326 0.202925 0.578396 -1.405246 0.464906 0.913615 1.852286 0.219220 -2.416477 0.080485
eth_txstatem/always_1 -0.063965 1.174404 -0.394169 -0.881580 -0.883122 -1.141966 1.139358 -0.317105 1.199462 0.323032 -0.007518 0.089890 -0.531826 0.548119 0.329126 0.301939 -0.133343 1.251480 0.071502 1.236411
eth_top/wire_ByteSelected 1.002245 0.475928 2.304853 -3.027819 -3.418817 -3.296957 0.885338 2.614969 -5.023671 4.863087 -0.869195 3.753670 0.421086 1.186746 1.669873 2.926137 -2.415160 0.861288 -0.835781 2.299920
eth_wishbone/always_2 -0.601395 0.293084 -0.006550 -0.570813 -0.735529 0.962071 1.952911 -1.165191 2.005419 2.373221 -0.324375 -0.404182 -1.088764 -2.825261 -0.044705 -0.750316 0.596389 -0.639989 -1.982349 -1.613216
eth_registers/assign_41_MIICOMMAND_Wr/expr_1 -0.151415 -1.848159 -1.972691 0.848506 2.774705 0.311601 -0.501301 0.140199 1.076604 -1.713761 -0.616161 -1.747148 -0.128062 1.442443 0.982928 -3.557570 0.538690 -0.590814 -0.535746 1.527697
eth_top/assign_3_RegCs/expr_1/expr_1 -0.719093 1.201288 2.363804 -1.380473 -0.658640 -1.371954 2.493181 0.220851 -0.498376 2.704534 -0.648420 0.308638 0.654634 -1.354570 0.472692 1.001343 1.804996 0.251645 -2.347456 0.150060
eth_registers/wire_MIIMODEROut -1.630567 -0.763546 2.902404 0.225570 1.208197 -1.592283 0.146630 -1.156276 -4.103957 -4.681376 1.945446 2.845884 2.599312 5.498146 -0.737850 -3.305358 2.835566 -1.275651 -2.327554 1.526239
eth_miim/wire_MdoEn 1.057651 -1.374384 0.590132 -5.224004 -2.399199 -1.163942 -0.860878 -1.674721 -3.157242 -2.682965 2.382062 5.259875 -0.728961 -0.102596 -2.958800 0.894805 0.498130 0.329920 -3.783346 -0.333608
eth_outputcontrol/always_1/block_1/if_1/block_2/if_1/cond 1.049342 -1.402618 0.679327 -5.294254 -2.466295 -1.200316 -0.859378 -1.744670 -3.285725 -2.960954 2.545564 5.453631 -0.734523 0.032513 -3.057569 0.843891 0.539835 0.392708 -3.884411 -0.416768
eth_top/assign_12_temp_wb_err_o/expr_1/expr_2 -0.003403 -0.483683 0.037668 -1.993055 -2.388978 -0.128810 0.119787 0.417248 -0.361687 2.244966 -1.020724 1.168131 0.132512 0.237410 0.325135 0.801637 -2.290503 -0.271378 -0.767722 0.971764
eth_register/input_SyncReset 0.553036 -2.202993 -4.325334 3.320815 -0.713464 -4.427657 2.011339 1.511359 -0.125465 -2.415243 -1.703502 3.015412 1.545421 11.752237 4.409008 -5.472708 -3.663400 1.994480 2.058780 -1.260499
eth_outputcontrol/wire_SerialEn 0.075881 -1.173783 0.429699 -2.090107 2.734339 -4.510692 0.049904 1.339444 -0.956960 1.541012 -1.467961 0.463355 3.733199 1.483802 1.628047 -0.261758 1.780177 -2.613138 -0.797335 4.484612
eth_register/always_1/block_1/if_1 0.246557 2.653311 -1.270361 -0.368405 -1.543485 -3.584008 0.031660 -0.675128 -2.082480 -1.558461 1.917472 0.055535 -0.255295 2.350460 -1.491725 -0.910713 -1.764484 1.915758 2.373441 4.790807
eth_shiftreg/always_1/block_1/if_1/block_2/if_1/block_1/if_1/block_2 -1.059232 -0.160543 -0.469091 1.599364 0.986099 3.160872 1.519660 -0.280402 1.681245 0.940813 -1.523314 -4.162063 -1.700692 0.165426 1.086205 -3.618426 0.333500 1.320708 -1.878893 0.745717
eth_shiftreg/always_1/block_1/if_1/block_2/if_1/block_1/if_1/block_1 0.017749 -0.951333 -1.938679 0.994311 0.887582 2.052286 -0.447204 -0.479865 1.991374 -0.793682 -0.346384 -1.757334 -1.139774 -0.396713 -0.033368 -1.840149 -0.532084 0.018273 0.080153 -0.659984
eth_top/assign_11_temp_wb_dat_o/expr_1/expr_1/expr_2 1.173303 1.467289 2.820040 -1.992655 -2.233235 -3.983754 1.786652 2.270129 -5.593261 3.598228 0.332569 3.492721 0.071115 1.073718 1.164280 2.866024 -0.181504 2.180141 -0.771744 1.771716
eth_miim/assign_3_ScanStatusOp/expr_1 -0.145208 -1.775284 -1.814878 0.823098 2.751778 0.157460 -0.459996 0.259268 0.930742 -1.566378 -0.644225 -1.678048 0.016901 1.522443 1.007688 -3.361683 0.547084 -0.566939 -0.473843 1.651948
eth_wishbone/always_1/block_1/stmt_1/expr_1/expr_2 -0.703419 1.177537 2.269377 -1.383204 -0.656895 -1.304582 2.449562 0.146165 -0.357716 2.685594 -0.651368 0.222007 0.585104 -1.385088 0.458313 0.932535 1.815992 0.230033 -2.416548 0.103492
eth_wishbone/always_1/block_1/stmt_1/expr_1/expr_1 -0.731283 1.239398 2.351290 -1.438571 -0.680913 -1.384362 2.551160 0.178648 -0.408028 2.768504 -0.674882 0.272964 0.584640 -1.415336 0.517421 1.033756 1.839224 0.249530 -2.385131 0.145222
eth_wishbone/always_26/block_1/if_1 -0.045800 1.216564 -0.451144 -0.886066 -0.930408 -1.093154 1.132066 -0.347287 1.243732 0.367641 -0.008183 0.038583 -0.591538 0.482469 0.278947 0.340040 -0.138469 1.232894 0.125477 1.224314
eth_top/wire_md_pad_o -0.594817 0.708101 3.292561 -0.651263 0.180328 0.050198 1.255145 0.887625 -3.022536 1.356915 -0.902598 -0.618951 1.411283 2.394185 0.673506 0.713621 1.782527 1.998970 -1.658245 2.856469
eth_outputcontrol/always_2/block_1/if_1/block_2/if_1/block_1 -1.144086 -0.376297 1.752660 0.453367 3.471100 -1.480203 1.613504 1.805045 -0.711084 2.251059 -2.627311 -3.519754 2.512842 1.918916 2.951642 -2.320064 2.286951 -0.744406 -1.681352 4.951353
eth_txstatem/assign_6_StartPAD -0.086317 1.237952 -0.430046 -0.840032 -0.932352 -1.132067 1.150318 -0.322402 1.199409 0.408197 -0.016610 0.061385 -0.556780 0.495138 0.318502 0.382831 -0.157080 1.252635 0.161027 1.201374
check_ethernet/always_1/if_1/cond -0.175583 2.848735 3.315130 -0.316953 -2.009655 0.251035 1.219716 0.765113 -1.449277 2.326001 0.447975 -0.058220 -1.246011 -1.385345 1.690957 2.710878 -0.164678 1.759959 0.437471 -0.029429
eth_miim/always_7/block_1/if_1/block_2/if_1 0.277143 -1.381638 0.643560 -2.264911 -0.305807 0.222076 -0.321408 -0.294046 -2.154468 -2.020874 0.438710 1.120726 -0.385435 1.259605 -0.862845 -0.958576 0.651327 1.046860 -2.921713 0.870734
eth_rxstatem/assign_2_StartPreamble/expr_1/expr_2 -0.053380 1.217415 -0.458170 -0.879682 -0.959297 -1.094698 1.169472 -0.363481 1.279986 0.388757 -0.032996 0.028700 -0.598696 0.447967 0.310879 0.388608 -0.164899 1.291379 0.131651 1.214385
eth_top/assign_1_ByteSelected 0.861744 0.425924 2.513954 -3.131752 -3.430486 -3.208158 0.864054 2.529217 -5.218761 4.818585 -0.798377 3.791186 0.394329 1.125933 1.618619 2.851145 -2.344495 0.702168 -1.073730 2.309590
eth_registers/assign_13_MIICOMMAND_Sel 0.168030 -0.402350 0.122488 1.262264 1.633707 -1.414016 -0.941951 1.512021 -0.615174 -0.776988 -0.549969 -0.397230 1.775496 1.529122 1.122336 0.589832 0.093435 -0.521048 1.936709 0.875975
eth_transmitcontrol -0.060592 1.207968 -0.473499 -0.832249 -0.920399 -1.078905 1.132298 -0.329498 1.260002 0.337080 0.003213 0.056296 -0.603680 0.459242 0.315573 0.367758 -0.158472 1.251707 0.168648 1.199091
eth_wishbone/always_2/block_1/if_1/if_1/cond/expr_1 -0.580491 0.308530 -0.076557 -0.547808 -0.739879 0.974238 1.934751 -1.144186 2.055502 2.370668 -0.330818 -0.447217 -1.143119 -2.917939 -0.089161 -0.693337 0.594812 -0.617576 -1.934311 -1.683326
eth_miim/always_1/block_1/if_1/block_1/stmt_1 -0.608873 -0.587951 3.051893 -0.626541 -2.352846 1.863305 0.709929 -0.593967 -2.530773 -2.818626 0.969101 1.517551 0.069185 0.018025 -1.827527 0.869848 0.594755 1.662839 -2.398979 -3.705297
eth_outputcontrol/always_2/block_1/if_1/block_2/if_1/block_1/stmt_1/expr_1 -1.168678 -0.301059 1.895639 0.433533 3.417119 -1.544778 1.661882 1.810494 -0.785570 2.309229 -2.584128 -3.477119 2.584903 1.868298 2.897772 -2.193635 2.322569 -0.699423 -1.701247 4.989357
eth_clockgen/always_1/block_1/if_1/block_1/if_1 -1.142954 -0.995329 2.833485 -1.793009 0.067464 -2.434056 0.029369 0.436360 -3.228791 -0.329911 -1.337024 2.131420 2.069104 2.344956 1.129587 -1.044128 0.921001 -1.621157 -3.092303 1.863137
eth_miim/wire_MdcEn 0.122742 -0.907417 0.231837 -3.218798 -1.492263 1.177890 0.513889 -1.662635 -1.498895 -1.365464 1.059931 1.477846 -2.007070 0.140519 -1.631708 -1.730612 0.607026 1.399843 -4.343453 0.454283
eth_top/assign_22_Transmitting/expr_1 -0.041075 1.249291 -0.377423 -0.873049 -0.947644 -1.136250 1.149324 -0.304217 1.245227 0.399530 -0.027175 0.042825 -0.556823 0.442527 0.310655 0.436348 -0.186290 1.285520 0.207834 1.189136
eth_clockgen/reg_Counter -0.914522 0.421524 2.839378 -0.686079 -0.017037 -1.929577 0.116682 0.879454 -2.422451 0.289539 -0.709216 1.013204 1.087921 1.592910 1.059498 -0.277222 0.919946 -0.523534 -1.497180 1.711454
eth_rxstatem/always_1/block_1 -0.066113 1.175989 -0.422986 -0.878049 -0.902259 -1.109022 1.096901 -0.303143 1.174477 0.335751 -0.026577 0.073365 -0.549967 0.510196 0.283784 0.356299 -0.149971 1.225017 0.169858 1.197194
