eth_miim/assign_7_ByteSelect -2.200557 0.036448 0.913247 0.325012 0.496310 3.750376 -0.367863 -0.691840 2.240108 1.649618 -1.899380 -4.160758 -1.810282 -0.737786 0.352705 -0.815339 1.915445 -2.641502 -0.305503 0.443757
eth_top/input_wb_adr_i 5.589654 0.967548 0.712313 0.605137 -0.665820 0.232919 0.271961 1.616548 -3.900445 -2.949855 1.507722 -1.602814 1.107027 -1.040375 -0.801467 1.217905 3.258570 3.971630 0.144347 4.675279
eth_outputcontrol/always_2/block_1/if_1/block_2 -1.088997 1.424702 3.280354 0.495371 -0.268079 -0.801899 0.818323 0.645614 -3.039315 0.872774 -1.859181 -1.878674 1.211956 3.003374 0.203932 0.786326 2.633297 0.277069 -1.519097 2.882017
eth_outputcontrol/always_2/block_1/if_1/block_1 -0.445904 2.013055 4.114490 -0.629387 -1.138690 -0.117575 0.257603 2.034656 -3.628555 1.673038 -2.983856 -2.141565 0.909609 2.347077 -0.799044 2.015188 1.867723 2.384222 -2.046467 1.493240
eth_miim/assign_4_StartOp -0.290540 -0.598417 0.785171 -1.583032 0.686335 0.498763 -0.461377 0.534125 0.137616 -2.532938 1.316769 -0.126003 -1.716940 1.675646 0.239607 -2.325964 1.263987 0.815295 -0.881712 0.270047
eth_top/assign_14_wb_dat_o 0.633677 2.487690 3.006897 0.354419 -2.419467 -4.614127 0.937920 2.110389 -6.041945 2.181744 -1.795952 0.493109 1.570384 3.027759 0.526796 2.002559 1.481330 1.159670 -1.234328 2.237365
eth_outputcontrol/reg_MdoEn_2d 3.697945 -0.435926 -0.725070 -4.855561 -2.073888 -0.776018 0.272166 0.267258 -2.215839 -2.590829 2.716570 2.998244 -1.757304 1.128889 -1.121112 -2.625617 0.008179 4.908491 -1.965293 1.543906
eth_top/assign_8_BDCs/expr_1/expr_1 0.708524 0.858693 1.229797 -1.024008 -1.968823 0.631171 2.973469 -0.094382 -1.564991 1.785722 -1.632120 0.625613 1.293609 -0.809307 0.359247 1.362291 2.286601 1.051699 -1.214180 0.613788
eth_miim/always_4/block_1/if_1/block_2/if_1 -1.465923 -0.547727 2.243485 -0.579866 1.203699 2.269959 0.439112 1.114277 0.480363 -3.012864 0.436535 -0.628317 -1.954790 1.315197 0.196191 -1.887217 2.098626 0.844111 -1.053161 -1.353151
eth_register/always_1/block_1/if_1/if_1/if_1/cond -0.971291 3.067762 -0.209212 3.747012 0.127377 -5.878975 -0.265982 -3.273249 -1.079907 -1.224022 2.558355 -0.907693 0.863688 2.868432 -0.373022 -1.855836 -1.481876 0.116237 0.887120 6.994933
eth_miim/assign_3_ScanStatusOp/expr_1/expr_1 -1.658979 -1.084439 -0.213373 -0.066570 1.729131 0.377310 -0.787581 -1.012678 2.045467 -1.191360 0.496044 -1.929428 -0.443663 1.343401 1.078585 -2.240128 1.879771 -3.084780 0.322915 1.505823
eth_miim/assign_3_ScanStatusOp/expr_1/expr_2 -0.789288 -1.091212 -0.890124 -1.420293 0.354671 3.033650 -0.184240 -1.692893 2.637246 -0.181964 0.167210 -2.177606 -1.985090 -0.386850 0.253951 -2.813263 1.861724 -2.075382 -0.379818 1.207450
eth_top/inst_check_eth_top 1.106055 3.009708 1.588200 3.476626 -1.711978 -1.472845 1.142830 0.205229 -2.635684 1.717538 -0.657704 -0.674807 1.449414 -1.827451 0.691032 2.963967 -1.506102 2.127016 0.412584 1.635139
eth_miim/wire_MdcEn_n -0.623959 -0.329367 2.862057 -0.948493 0.941180 0.377110 -0.533404 0.970396 -2.152784 0.350887 -1.948894 -2.405141 1.603862 2.904012 -1.223330 0.359074 1.978746 0.195042 -2.049434 1.368523
eth_wishbone/reg_TxEn_needed 0.631280 -0.379318 -0.362002 -0.854761 -1.402966 3.076745 2.072462 -0.989199 0.953516 1.931920 -1.164144 0.277428 -0.186033 -2.525791 0.129320 0.466301 0.883961 -0.165294 -0.562898 -0.825544
eth_top/always_4/block_1 -0.074200 1.582781 -0.273182 0.043612 -1.529582 -1.144690 0.527160 -0.779948 0.674895 0.790690 -0.347968 -0.378167 -0.404396 -0.490013 -0.045672 0.325740 0.150644 0.434901 0.739627 1.106594
eth_register/reg_DataOut -1.113821 2.302489 -1.661634 1.469813 -1.415717 -4.907272 0.089293 -1.374456 -1.848171 -0.779806 0.734862 -1.394910 -0.430101 0.981116 -1.478170 -2.676394 -2.380573 1.464513 0.161636 3.742293
eth_registers/wire_r_MiiNoPre -0.819147 -1.188308 -0.963810 -1.431040 0.456828 2.987945 -0.274784 -1.718255 2.697771 -0.230424 0.197862 -2.200744 -1.937396 -0.338847 0.259035 -2.859327 1.879332 -2.164805 -0.365763 1.226320
eth_top/always_4 -0.065347 1.617346 -0.281616 -0.019526 -1.564557 -1.169389 0.578639 -0.806408 0.652961 0.819123 -0.357829 -0.404670 -0.423250 -0.474617 -0.024217 0.300258 0.181124 0.450962 0.730501 1.157158
eth_wishbone/always_26/block_1/if_1/stmt_2 -0.085073 1.579015 -0.275222 -0.014163 -1.566865 -1.156937 0.573715 -0.798211 0.717954 0.784488 -0.333556 -0.443423 -0.432943 -0.488976 -0.015263 0.291711 0.176002 0.424505 0.747618 1.166799
eth_txstatem/reg_StateFCS -0.094780 1.609983 -0.272609 -0.021825 -1.585775 -1.207701 0.590444 -0.851364 0.657247 0.772826 -0.315204 -0.414576 -0.416957 -0.393992 -0.012265 0.259682 0.239752 0.459570 0.702308 1.226756
eth_outputcontrol/reg_MdoEn_d 3.620050 -0.534212 -0.762241 -4.900343 -1.928519 -0.587622 0.160057 0.292140 -2.036527 -2.907591 2.902739 3.018629 -1.993495 1.183859 -1.174652 -2.873585 0.010781 4.890448 -1.938025 1.362952
eth_txethmac/always_13/block_1/if_1/stmt_2 -0.084648 1.589660 -0.222832 -0.007847 -1.557266 -1.227704 0.553420 -0.758858 0.594589 0.750219 -0.346288 -0.376465 -0.381361 -0.360657 -0.028559 0.270086 0.169170 0.485080 0.678608 1.213405
eth_miim/always_6/block_1/if_1 -0.242825 -0.703041 0.751474 -1.708696 0.734431 0.573805 -0.479353 0.573352 0.156396 -2.556417 1.269213 -0.100934 -1.664870 1.605256 0.228359 -2.303183 1.264771 0.768057 -0.873272 0.136779
eth_miim/always_4/block_1/if_1/block_2/if_1/block_2/if_2/cond -1.158302 -1.913101 -1.869801 0.019472 2.675057 -0.960262 -1.726820 -1.089228 2.628424 -3.132693 2.450601 0.006552 -0.508902 1.697426 0.858058 -3.046458 0.313535 -2.798291 1.106687 0.606165
eth_registers/input_Rw -0.270203 1.418948 -0.847531 0.084502 -0.613681 -5.298092 -2.762099 -0.411771 0.228096 -0.464561 3.290013 2.117557 -3.187222 3.289062 2.041090 -1.362977 -1.929864 -1.210408 2.088346 1.326637
eth_wishbone/reg_TxBDReady -0.099895 1.587000 -0.276000 -0.008615 -1.575369 -1.192174 0.549370 -0.812424 0.679525 0.802931 -0.358467 -0.422227 -0.415420 -0.424264 -0.019849 0.262347 0.204411 0.433685 0.703953 1.167399
eth_rxstatem/assign_1_StartIdle/expr_1/expr_2/expr_1/expr_1 -0.062880 1.568822 -0.260233 -0.010376 -1.528895 -1.146284 0.561703 -0.771098 0.668426 0.796254 -0.352455 -0.377324 -0.408512 -0.424264 -0.028034 0.292069 0.182637 0.465125 0.735807 1.130406
eth_outputcontrol/reg_MdoEn 3.656519 -0.353340 -0.646873 -4.775781 -2.046204 -0.708131 0.316419 0.333659 -2.174050 -2.718925 2.771411 3.086135 -1.878711 1.099048 -1.131454 -2.639411 0.019097 5.020652 -1.942061 1.357157
eth_register/always_1/block_1 -1.128782 2.318294 -1.702231 1.675690 -1.244808 -4.874636 -0.007718 -1.292909 -1.685047 -0.808615 0.696270 -1.605224 -0.421809 0.848705 -1.423161 -2.501871 -2.305006 1.306271 0.337563 3.721924
eth_top/assign_16_temp_wb_ack_o/expr_1/expr_1 0.717453 0.845429 1.193600 -1.003965 -1.926859 0.600502 2.927381 -0.103673 -1.540683 1.716524 -1.619365 0.586071 1.301302 -0.765267 0.333215 1.351799 2.317238 1.096653 -1.153962 0.607203
eth_top/reg_temp_wb_dat_o_reg 0.528372 2.482062 2.794495 0.454583 -2.279509 -4.604845 0.882530 2.000655 -5.916863 2.049723 -1.710205 0.365232 1.537058 3.018763 0.314643 1.757072 1.361417 1.145561 -1.192307 2.249434
eth_miim/reg_RStatStart_q1 -0.217139 -1.855832 -3.226438 -0.857521 2.302879 -2.697693 -2.716024 -1.673417 2.399088 -2.786371 3.348541 0.328267 -0.519304 2.186777 0.929820 -3.658913 -0.545757 -2.947408 1.335512 2.176252
eth_miim/always_4/block_1/if_1/block_2/if_1/block_2 -1.299860 -0.535798 2.100384 -0.707821 1.062841 2.105994 0.393413 1.033012 0.390074 -3.039362 0.586952 -0.468523 -1.970655 1.345698 0.159520 -2.014575 2.059543 0.988670 -1.066555 -1.156137
eth_clockgen/input_Divider -2.982245 0.642498 2.823776 -0.028071 1.862667 -1.396899 1.956961 -1.148562 -1.597918 -4.607245 3.039475 1.951694 -0.301012 5.535570 -0.979655 -4.238552 2.978593 1.740550 -3.226724 2.263023
eth_wishbone/always_1/block_1/stmt_1 0.728007 0.882026 1.302572 -1.057546 -2.012644 0.484683 2.980232 -0.094060 -1.636129 1.723293 -1.612009 0.626725 1.338432 -0.718853 0.365952 1.376177 2.315455 1.143249 -1.215487 0.670636
eth_top/inst_rxethmac1 -0.101997 1.579274 -0.302974 0.009951 -1.558108 -1.150751 0.519430 -0.815022 0.681532 0.790796 -0.317073 -0.429291 -0.420547 -0.449432 -0.038705 0.238845 0.179972 0.452027 0.754144 1.185102
check_ethernet/reg_wb_wr_dat 1.100275 3.011097 1.687640 3.363531 -1.773431 -1.478791 1.198183 0.232570 -2.736828 1.731110 -0.752020 -0.680801 1.471923 -1.757924 0.712477 2.969407 -1.444156 2.188971 0.312030 1.651675
eth_miim/reg_RStatStart -1.226277 -2.056138 -1.907802 -0.013917 2.847517 -0.850723 -1.796825 -1.089174 2.790823 -3.346971 2.559813 0.032792 -0.608599 1.737589 0.887807 -3.244389 0.343121 -2.867429 1.117811 0.509454
eth_outputcontrol/always_1/block_1/if_1/block_2/if_1 3.678142 -0.462516 -0.810281 -4.873933 -1.962102 -0.758916 0.104685 0.282576 -2.098200 -2.827354 2.880259 3.023522 -1.945956 1.202829 -1.178556 -2.829899 -0.050909 4.942141 -1.919696 1.451231
eth_registers/wire_r_ScanStat -1.750375 -1.140801 -0.184309 -0.033981 1.788220 0.507862 -0.771855 -0.977275 2.071784 -1.140684 0.391618 -2.009481 -0.452685 1.300751 1.058134 -2.153219 1.902819 -3.143985 0.361306 1.369748
eth_txstatem/assign_3_StartPreamble/expr_1/expr_1 -0.095651 1.665927 -0.288088 -0.067047 -1.678697 -1.230433 0.622767 -0.866556 0.689479 0.866787 -0.348374 -0.467925 -0.454494 -0.456081 -0.012124 0.236574 0.234534 0.476972 0.757413 1.296923
eth_top/assign_7_BDCs/expr_1/expr_1/expr_1/expr_1/expr_1 0.617744 -0.420045 -0.457150 -0.937000 -1.395456 3.295390 2.125254 -1.073985 1.071402 1.965019 -1.163438 0.259535 -0.264800 -2.680695 0.084596 0.385218 0.904635 -0.200726 -0.610150 -0.888734
eth_miim/always_8/block_1/if_1/block_1/if_1/block_1/if_1/cond -1.727786 -1.134085 -0.202226 -0.038528 1.764904 0.385923 -0.800003 -1.009066 2.017447 -1.114965 0.440742 -1.975665 -0.369679 1.362398 1.077800 -2.152738 1.913161 -3.186828 0.339563 1.470869
eth_top/assign_2_RegCs/expr_1/expr_1/expr_1/expr_1/expr_1 0.579994 -0.423361 -0.417613 -0.897655 -1.351818 3.182220 2.002632 -1.036064 1.016755 1.872880 -1.143881 0.239580 -0.224590 -2.545591 0.112941 0.384580 0.879474 -0.220565 -0.578932 -0.858422
eth_top/assign_5_RegCs -0.757808 -0.691261 1.290639 -0.734502 0.056192 1.183308 3.491694 -3.175159 -1.718136 -0.484341 0.997307 1.484951 0.934386 2.449911 0.851331 -3.255413 3.952436 -1.242350 -3.130448 4.007806
eth_outputcontrol/always_2/block_1 -0.444803 1.595560 3.051199 -0.199193 -0.456588 -0.664621 0.525888 0.846560 -2.902408 0.753964 -1.342099 -1.198474 0.776528 2.838300 -0.480617 0.978839 2.333146 1.442428 -1.398085 2.498918
eth_wishbone/always_27/block_1/if_1/stmt_2 -0.080431 1.643469 -0.253817 -0.026410 -1.625946 -1.301396 0.574100 -0.833583 0.625386 0.841453 -0.357626 -0.407483 -0.394927 -0.389052 -0.036595 0.277977 0.195190 0.496361 0.749698 1.255431
eth_miim/assign_1_WriteDataOp -1.231188 -0.734412 2.149633 -0.795127 1.176768 2.325970 0.344967 1.194679 0.427441 -3.043693 0.479933 -0.490175 -1.905665 1.221362 0.133607 -1.931776 2.032588 0.937465 -1.109521 -1.452971
eth_miim/always_8 0.963512 -1.569056 0.604014 -3.650236 0.171463 -1.231678 -0.428010 0.076729 -0.977143 1.652741 -1.254724 -1.337281 2.620487 2.080081 0.331041 0.376734 2.174221 -1.470608 -1.072307 2.638961
eth_miim/inst_outctrl -0.137606 1.006757 1.345708 -0.599355 -0.208562 -0.741947 -0.155782 0.339172 -1.914446 0.957415 -0.976897 -0.585454 0.737463 2.424821 -1.246812 0.909998 0.986185 1.227448 -0.980474 1.551661
eth_wishbone/always_1/block_1 0.761248 0.864234 1.206779 -0.952717 -1.957137 0.604742 2.912124 -0.077050 -1.565363 1.787154 -1.610591 0.631277 1.323922 -0.822722 0.375025 1.416846 2.238030 1.054967 -1.163929 0.570328
eth_top/assign_9_BDCs 0.747974 0.883640 1.283451 -1.051959 -2.007572 0.589410 3.005355 -0.106195 -1.589581 1.777986 -1.688184 0.650460 1.328770 -0.819091 0.363759 1.429420 2.337283 1.096678 -1.234553 0.606307
eth_outputcontrol/always_1/block_1 3.723203 -0.389900 -0.706949 -4.856626 -2.102046 -0.781127 0.288291 0.282681 -2.200787 -2.595330 2.711738 2.976151 -1.752309 1.116352 -1.107785 -2.608315 0.049992 4.911026 -1.957021 1.550267
eth_outputcontrol/always_2/block_1/if_1 -0.597336 1.470249 2.874861 -0.291370 -0.436289 -0.546080 0.416360 0.728688 -2.676259 0.693777 -1.356510 -1.190399 0.691881 2.820168 -0.593606 0.766039 2.153945 1.370607 -1.388776 2.383006
eth_txethmac -0.090835 1.602761 -0.301889 -0.010111 -1.571437 -1.151415 0.597788 -0.841293 0.668724 0.785276 -0.333313 -0.405213 -0.456714 -0.472710 -0.043956 0.265263 0.202016 0.459937 0.716277 1.182479
eth_miim/reg_InProgress 0.963312 -0.280449 0.734532 -2.802177 -0.369482 0.114369 -0.551158 0.605674 -0.943057 -1.737848 1.079430 -0.222101 -1.672565 1.702327 -0.183912 -2.080140 1.249652 1.841530 -1.333728 1.388096
eth_miim/always_7/block_1/if_1/block_2/if_1/block_1/if_1/block_2/if_1/cond 0.878065 -2.431184 -0.053396 -4.561996 0.014612 5.924299 -0.816135 -0.225718 1.952264 -1.297304 0.025871 -2.273798 -3.550793 -0.589217 -0.796895 -3.713245 2.189774 0.344605 -1.976694 0.082722
eth_wishbone/reg_WbEn 0.327619 -0.341682 -0.291347 -0.372073 -0.610706 1.899789 0.985305 -0.462100 0.654266 1.025780 -0.684485 0.140605 -0.090897 -1.550911 0.047783 0.363697 0.332191 -0.150276 -0.266620 -0.745035
eth_txethmac/wire_StatePAD -0.091511 1.597931 -0.267179 -0.001679 -1.557350 -1.191867 0.542866 -0.785932 0.618284 0.753265 -0.329173 -0.390293 -0.408800 -0.409331 -0.004519 0.273538 0.193851 0.474780 0.686376 1.194402
eth_clockgen/always_1/block_1/if_1/block_1/if_1/stmt_1/expr_1 -0.892630 -0.286106 2.476192 -2.526608 -0.468230 -2.062692 1.237703 -0.196518 -2.791711 -0.872834 -0.474018 1.948183 1.702754 3.553311 1.601679 -1.699683 1.718128 0.430990 -2.865659 2.272558
eth_registers/assign_112_r_ScanStat -1.535364 -1.053898 -0.254268 -0.092076 1.596688 0.344416 -0.702463 -0.985775 1.904404 -1.075726 0.425316 -1.784507 -0.383433 1.189579 1.009125 -2.067073 1.789015 -2.894214 0.358261 1.359048
eth_miim/always_6/block_1/if_1/block_2/if_1/block_1/stmt_10 -0.745308 -1.128097 -0.925017 -1.473718 0.358007 2.982932 -0.189088 -1.691636 2.606863 -0.277930 0.253411 -2.056096 -1.978781 -0.387634 0.223410 -2.870304 1.830785 -2.027161 -0.422877 1.225886
eth_miim/always_6/block_1/if_1/block_2/if_1/block_1/stmt_11 0.452897 0.515912 2.343459 -1.146249 -0.710471 1.931852 1.045387 1.979746 -1.522373 -2.522220 0.563776 1.460268 -2.234967 0.295115 -1.006992 -0.634291 0.347668 4.423620 -1.664970 -2.430348
eth_top/assign_7_BDCs/expr_1 0.753714 0.874000 1.357500 -1.053086 -1.974793 0.568351 3.037336 -0.081063 -1.666768 1.761563 -1.679538 0.629229 1.400534 -0.731730 0.355825 1.430863 2.403822 1.133728 -1.251056 0.623085
eth_miim/always_8/block_1/if_1/block_1/if_1/block_1/if_1/block_1/if_1 3.007034 -1.745044 -1.306657 -6.307852 -1.653401 3.362101 -1.537491 -0.748307 0.334653 0.378086 0.372254 -1.944622 -2.926827 -0.140307 -1.038697 -3.433827 1.365835 1.156128 -2.137905 2.972004
eth_txethmac/always_13 -0.066755 1.511700 -0.249360 0.011843 -1.458340 -1.127894 0.523580 -0.734864 0.651876 0.723347 -0.346263 -0.394946 -0.411319 -0.442555 -0.040283 0.260683 0.148671 0.448039 0.716239 1.095097
eth_register/always_1 -1.249934 2.156190 -1.681114 1.570836 -1.233850 -4.887986 0.068547 -1.424972 -1.676487 -0.764511 0.695129 -1.519170 -0.305282 0.994965 -1.353774 -2.690170 -2.318985 1.115451 0.243358 3.853310
eth_shiftreg/input_Rgad -0.752800 -0.877176 -1.033211 0.067696 1.071159 2.046493 -1.241425 -0.393134 2.573305 -0.129121 -0.056517 -1.678826 -1.327136 -0.925596 0.049502 -0.823269 -0.039780 -1.775885 0.786544 -0.811473
eth_top/assign_5_RegCs/expr_1 -0.755695 -0.597923 1.384255 -0.627457 -0.021561 1.131770 3.467198 -3.162779 -1.918605 -0.344320 0.869186 1.365995 0.978754 2.439784 0.932513 -3.126344 3.922970 -1.312672 -3.156693 4.149626
eth_maccontrol/wire_TxStartFrmOut -0.062164 1.616060 -0.298407 -0.002450 -1.580795 -1.213795 0.560623 -0.822394 0.698149 0.789534 -0.333346 -0.435597 -0.459898 -0.481079 -0.016774 0.254975 0.197152 0.446651 0.729654 1.182224
eth_registers/wire_MIIADDRESSOut -0.691425 -0.876663 -1.018806 0.061962 1.011415 2.000449 -1.211870 -0.389283 2.512820 -0.138095 -0.010198 -1.601917 -1.338492 -0.928797 0.011902 -0.832502 -0.057737 -1.703732 0.777323 -0.786954
eth_miim/assign_9_ByteSelect -2.151928 0.139122 1.071249 0.295501 0.336878 3.721139 -0.250682 -0.653806 2.066863 1.764947 -2.006981 -4.172459 -1.807990 -0.716942 0.347246 -0.712957 1.925998 -2.546778 -0.338313 0.502604
eth_clockgen/always_1/block_1 -0.708416 0.552048 2.251860 -0.445792 -0.568233 -1.414100 0.828363 0.147200 -2.525919 -0.447916 -0.803615 0.742655 1.605308 2.080202 1.018954 -0.817479 1.135671 0.451292 -1.995717 2.012685
eth_rxstatem/wire_StateData -0.077892 1.557095 -0.293107 -0.032602 -1.520393 -1.151208 0.519278 -0.839435 0.688384 0.754324 -0.327014 -0.430361 -0.423906 -0.433977 -0.035339 0.247686 0.212342 0.437223 0.735172 1.203204
eth_miim/wire_Mdc -1.638424 3.736037 5.267170 -0.997537 -3.808213 -3.805998 5.458656 1.887434 -5.413969 -0.613798 -1.057831 4.100319 0.331364 2.717662 2.452672 0.386224 2.572355 4.898756 -3.322816 -0.457606
eth_top/wire_TxStartFrmOut -0.053164 1.610440 -0.279758 -0.000180 -1.564420 -1.169207 0.570653 -0.765257 0.633363 0.788738 -0.362317 -0.414354 -0.384256 -0.469283 -0.020278 0.320977 0.192874 0.460259 0.730177 1.152242
eth_rxstatem/always_1/block_1/if_1 -0.102283 1.575041 -0.283186 -0.018935 -1.575854 -1.229718 0.562385 -0.792674 0.629169 0.782041 -0.331602 -0.406921 -0.409592 -0.423329 -0.010190 0.252328 0.199888 0.462591 0.683277 1.202572
eth_clockgen/assign_4_MdcEn 1.760524 0.111480 0.173464 -3.890502 -1.863306 1.909788 0.129550 -0.193924 -0.678058 -0.677230 0.827868 -0.421817 -2.899432 0.315901 -0.813662 -2.559244 1.270342 2.745008 -2.003077 1.731858
eth_miim/wire_Mdo -0.519012 1.570924 2.825600 -0.297241 -0.473692 -0.515314 0.478409 0.694435 -2.627759 0.773829 -1.264025 -1.186707 0.517295 2.777078 -0.507762 0.777935 2.244005 1.347183 -1.321638 2.434229
eth_top/inst_maccontrol1 -0.054987 1.583932 -0.301266 -0.010410 -1.551553 -1.180581 0.563622 -0.806562 0.659049 0.792533 -0.343755 -0.409855 -0.430010 -0.411427 -0.016588 0.261563 0.176950 0.487230 0.735741 1.204551
eth_txstatem/assign_5_StartData/expr_1/expr_1/expr_1 -0.081545 1.576930 -0.288613 -0.011289 -1.570251 -1.176352 0.576549 -0.784430 0.663790 0.815089 -0.363601 -0.416137 -0.394617 -0.493598 -0.009303 0.316765 0.175241 0.436932 0.715863 1.140438
eth_txstatem/reg_StateData -0.060298 1.558053 -0.289630 0.025548 -1.546368 -1.162393 0.546223 -0.772645 0.696959 0.767915 -0.334056 -0.423769 -0.415590 -0.474410 -0.014695 0.284686 0.152805 0.431704 0.742455 1.137159
eth_miim/always_3/block_1/if_1/block_2/if_1 -1.633326 -1.124200 -0.263990 -0.112388 1.728955 0.309006 -0.787008 -1.013917 1.974190 -1.267912 0.559216 -1.830765 -0.395925 1.402855 1.031753 -2.230528 1.865892 -3.018214 0.329996 1.441799
eth_register/always_1/block_1/if_1/stmt_1 -0.901734 2.481643 0.048372 3.600992 0.685564 -5.375009 -0.364913 -2.819025 -1.666466 -1.224169 2.607356 -0.846264 1.071891 3.120529 -0.306927 -1.859715 -1.519805 0.022025 0.340353 6.524014
eth_top/wire_RegDataOut 2.529214 2.039867 1.097188 0.004008 -2.366557 -4.719498 -0.627357 2.000480 -5.390582 0.819013 0.822409 0.882319 -0.375322 1.656841 1.033565 1.045052 -1.233281 2.749795 -0.116193 2.716863
eth_txstatem/always_1/block_1/if_1/block_2/if_6/if_1 -0.092194 1.586715 -0.287196 -0.032722 -1.540145 -1.118813 0.576619 -0.797120 0.684338 0.804355 -0.345262 -0.436075 -0.400528 -0.434630 -0.042110 0.284322 0.220846 0.469597 0.703580 1.150199
eth_wishbone/always_6/block_1/if_1/if_1/if_1 -0.055775 1.604770 -0.312981 0.029469 -1.565223 -1.220551 0.532115 -0.771654 0.678288 0.789657 -0.321305 -0.412319 -0.432231 -0.473325 -0.019515 0.318251 0.126691 0.452248 0.730675 1.176822
eth_registers/assign_39_MIIMODER_Wr -2.890389 0.664258 2.788379 -0.087247 1.792627 -1.269557 1.976098 -1.085916 -1.602459 -4.472785 2.937563 1.907248 -0.343113 5.369106 -1.013988 -4.103041 3.007657 1.814774 -3.220784 2.193607
eth_top/assign_9_BDCs/expr_1/expr_1 0.723513 0.917362 1.277472 -1.038155 -2.007787 0.466087 2.967708 -0.093601 -1.693187 1.713046 -1.612844 0.646246 1.343153 -0.693960 0.372440 1.411108 2.357461 1.149919 -1.218839 0.725402
eth_miim/input_Rgad -0.754763 -0.897167 -1.005790 0.047175 1.060974 1.975662 -1.224607 -0.365727 2.523993 -0.098215 0.003211 -1.602485 -1.335713 -0.908879 0.023976 -0.828086 -0.088126 -1.763701 0.750937 -0.786631
eth_miim/wire_EndOp 0.879051 -2.560111 -0.258179 -4.566568 0.150995 6.216819 -0.933279 -0.232610 2.247469 -1.307407 0.013236 -2.355905 -3.655472 -0.752724 -0.896025 -3.744448 2.078349 0.201173 -1.898719 -0.116288
eth_wishbone/always_24/block_1 -0.074643 1.583227 -0.333698 0.008490 -1.537149 -1.171004 0.518538 -0.791447 0.708405 0.807906 -0.358152 -0.401235 -0.423273 -0.472299 -0.025002 0.291316 0.138217 0.434193 0.732205 1.110601
eth_top/wire_r_WCtrlData -1.746932 -1.122572 -0.198214 0.007040 1.767057 0.335883 -0.792293 -1.006620 2.001432 -1.124787 0.445183 -1.928251 -0.357679 1.373670 1.110030 -2.165984 1.877140 -3.126365 0.383083 1.457026
eth_top/assign_3_RegCs/expr_1 0.758820 0.886802 1.300335 -1.087634 -2.039781 0.617949 3.084347 -0.151658 -1.671105 1.827228 -1.679650 0.652884 1.390808 -0.800247 0.364981 1.416047 2.402598 1.102990 -1.254516 0.703979
eth_txstatem/assign_7_StartFCS/expr_1/expr_1/expr_1 -0.104579 1.548976 -0.244450 -0.000333 -1.527313 -1.165806 0.559401 -0.808825 0.647194 0.781507 -0.333123 -0.406396 -0.439189 -0.404251 -0.029144 0.249992 0.176586 0.445268 0.692625 1.186159
eth_top/assign_6_BDCs/expr_1/expr_1 0.685712 0.905343 1.297668 -0.992025 -1.914604 0.427958 2.879328 -0.122812 -1.668305 1.634287 -1.528521 0.671110 1.298445 -0.593577 0.391383 1.289074 2.300143 1.081662 -1.232230 0.725879
eth_top/always_1/block_1 1.259947 1.191617 1.533752 -1.262089 -2.275068 -3.919175 1.884388 1.297679 -3.977540 2.951669 -1.117395 1.358145 1.638611 1.311874 1.811283 2.343131 1.540393 0.508695 -0.678942 1.489305
eth_rxethmac -0.104814 1.649120 -0.304447 -0.010073 -1.582164 -1.228586 0.566483 -0.791680 0.659807 0.813091 -0.371842 -0.448217 -0.442062 -0.437739 -0.042197 0.275939 0.167310 0.440429 0.752773 1.176360
eth_registers/wire_r_WCtrlData -1.661734 -1.155148 -0.286700 -0.092322 1.761350 0.645130 -0.796762 -1.045705 2.175472 -1.125882 0.451144 -2.020015 -0.544530 1.166188 1.022059 -2.204863 1.838472 -3.153526 0.388857 1.366942
eth_miim/reg_EndBusy 0.613846 0.400362 2.266649 -1.358617 -0.775017 2.031083 1.008114 2.006721 -1.553084 -2.435948 0.497353 1.462274 -2.272091 0.187685 -1.055803 -0.583397 0.313696 4.483134 -1.736843 -2.435228
eth_rxstatem/assign_3_StartSFD -0.084666 1.608336 -0.259554 0.020603 -1.601750 -1.275926 0.592232 -0.813883 0.605491 0.806905 -0.328613 -0.393052 -0.387536 -0.412912 -0.026851 0.292733 0.201766 0.464990 0.741820 1.227938
eth_miim/always_8/block_1/if_1/stmt_1 1.869898 2.977565 2.178986 0.353501 -4.172970 -2.434227 4.037180 1.903782 -4.221346 3.458787 -2.249795 3.099957 2.370528 -1.873738 0.517584 5.119117 -0.387905 4.149230 -0.587754 -1.687285
eth_outputcontrol -0.103927 1.033160 1.603694 -0.503546 -0.117017 -0.699285 -0.102309 0.482658 -2.096196 0.816080 -0.976533 -0.765266 0.816106 2.479304 -1.281718 1.061367 1.209362 1.380019 -1.015759 1.643703
eth_outputcontrol/reg_Mdo_2d -2.398804 -0.252954 3.080187 0.201776 1.153154 -1.288337 1.382096 -0.685446 -1.074496 1.868776 -2.444771 -3.339329 3.658068 2.940650 1.532519 0.481634 4.289540 -3.711460 -1.154758 3.823706
eth_top/wire_BDCs 0.760817 0.874065 1.237092 -1.060728 -2.027597 0.652060 3.054431 -0.154472 -1.577715 1.768395 -1.627263 0.659780 1.283758 -0.821663 0.372470 1.375511 2.332737 1.099973 -1.205667 0.656901
eth_registers/always_1/block_1 2.542092 2.071855 1.142344 0.218240 -2.346103 -4.662958 -0.581204 2.077043 -5.481010 0.842661 0.741994 0.879121 -0.272897 1.536526 0.956987 1.172237 -1.369931 2.805959 -0.118142 2.587041
eth_outputcontrol/always_2/block_1/if_1/block_2/if_1/block_1/stmt_1/expr_1/expr_2 -2.297366 -0.307503 3.608612 -0.067582 1.063468 -2.005697 1.897374 -0.821717 -2.290775 1.574329 -2.266167 -2.625877 4.285029 3.951939 1.545563 0.163798 4.670086 -3.391075 -1.874978 4.678627
eth_transmitcontrol/reg_WillSendControlFrame -0.083519 1.612822 -0.257547 -0.011102 -1.550501 -1.194355 0.547331 -0.787477 0.634684 0.804200 -0.339222 -0.400366 -0.422700 -0.412879 -0.010133 0.291606 0.200088 0.481648 0.715318 1.185377
eth_miim/assign_3_ScanStatusOp/expr_1/expr_1/expr_2 -0.766396 -1.128773 -0.903564 -1.470168 0.377842 2.988400 -0.173059 -1.666940 2.575490 -0.291097 0.226559 -2.088934 -2.004978 -0.342181 0.218889 -2.826679 1.831639 -2.034942 -0.415354 1.220960
eth_miim/assign_3_ScanStatusOp/expr_1/expr_1/expr_1 -1.720569 -1.003313 -0.090140 -0.021653 1.641774 0.353038 -0.696296 -0.961649 1.889255 -0.958517 0.318322 -2.019630 -0.313055 1.317828 1.093931 -2.026602 1.956586 -3.050032 0.341797 1.514301
eth_miim/always_7/block_1/if_1/block_2/if_1/block_1/if_1/block_1/stmt_1 1.569543 0.132257 0.294900 -3.744624 -1.798719 1.984130 0.158307 -0.210351 -0.581360 -0.794830 0.854145 -0.443539 -3.032961 0.400668 -0.806709 -2.632400 1.324517 2.694274 -2.010367 1.638581
eth_rxstatem/assign_7_StateData -0.106808 1.585575 -0.245286 -0.050452 -1.575305 -1.236236 0.580312 -0.831381 0.634881 0.774955 -0.350298 -0.435589 -0.433822 -0.365699 -0.000929 0.226674 0.215894 0.454569 0.695721 1.218022
eth_rxstatem/reg_StateDrop -0.086502 1.582562 -0.294881 0.002755 -1.581371 -1.203874 0.556137 -0.806226 0.696802 0.814504 -0.346398 -0.413150 -0.457003 -0.430419 -0.004881 0.258001 0.158788 0.444791 0.744377 1.194034
eth_registers/wire_MAC_ADDR0Out 1.305130 2.869012 -0.717196 0.341105 -3.060954 -6.354434 -0.060030 0.825359 -4.581261 0.753578 0.941832 0.410814 -0.701052 1.296805 -0.231959 -0.443746 -2.366899 2.856876 0.259260 3.346255
eth_wishbone/always_2/block_1/if_1/if_1/if_1 0.629340 -0.438783 -0.435218 -0.885430 -1.435699 3.404535 2.105934 -1.081434 1.095859 2.039022 -1.212423 0.215935 -0.216728 -2.723959 0.098822 0.439008 0.899838 -0.199336 -0.608386 -0.946968
eth_miim/assign_1_WriteDataOp/expr_1/expr_1 0.074970 -1.361480 -0.011793 -2.087292 0.720402 3.470856 0.094534 0.448037 1.570353 -4.437416 2.409581 1.388089 -3.782307 0.117744 -0.850497 -3.683797 0.598324 2.471505 -1.160771 -2.458736
eth_clockgen/always_2/block_1/if_1/stmt_1 -3.692838 2.837531 6.742892 2.272777 -0.956042 1.603238 3.040962 2.368120 -4.447110 -0.141242 -3.376362 -1.369565 -0.350050 1.880446 0.141532 0.361988 2.043456 3.017931 -4.039972 -1.867572
eth_clockgen/always_1 -0.694868 0.546922 2.333266 -0.555144 -0.528686 -1.323079 0.918826 0.204767 -2.498159 -0.449825 -0.849978 0.799134 1.587947 2.070828 0.984260 -0.723334 1.287625 0.508198 -2.029887 1.927575
eth_clockgen/always_2 -1.870417 -0.351397 4.080179 -1.665866 -0.052965 -0.080693 0.164943 1.114196 -2.927046 -0.033469 -2.350840 0.516081 1.963382 3.208610 0.043487 -0.890453 0.604827 0.600793 -3.715869 0.242205
eth_rxstatem/assign_1_StartIdle -0.096530 1.601737 -0.249967 -0.007656 -1.563198 -1.179009 0.557887 -0.775483 0.639790 0.784766 -0.357163 -0.428793 -0.391537 -0.414006 -0.045310 0.282677 0.200004 0.475110 0.680975 1.194199
eth_miim/always_1/block_1/if_1/block_2/stmt_2 0.455706 0.562027 2.347328 -1.179671 -0.736584 2.025118 1.032215 2.047148 -1.477548 -2.726793 0.699028 1.537825 -2.477358 0.269499 -1.066772 -0.709905 0.273423 4.646368 -1.687482 -2.563174
eth_registers/assign_113_r_RGAD -0.743458 -0.871192 -1.026551 0.054029 1.037873 2.059940 -1.251653 -0.402528 2.542374 -0.100947 -0.061475 -1.702222 -1.341962 -0.928721 0.053634 -0.829033 -0.003078 -1.780461 0.766517 -0.774363
eth_miim/always_1/block_1/if_1/block_2/stmt_1 0.603883 0.348939 2.241955 -1.408439 -0.710963 2.227145 0.954007 2.038244 -1.438800 -2.562296 0.517978 1.402986 -2.359257 0.131965 -1.080009 -0.691519 0.313763 4.516711 -1.716630 -2.567085
eth_txstatem/assign_3_StartPreamble -0.125926 1.563792 -0.245728 -0.030348 -1.532715 -1.199519 0.544334 -0.800562 0.629289 0.757820 -0.305300 -0.402734 -0.424639 -0.380412 -0.018599 0.222369 0.222433 0.446823 0.691197 1.186892
eth_miim/always_8/block_1 0.973305 -1.397134 0.524615 -3.438360 0.158398 -1.289763 -0.496326 0.109458 -1.011807 1.504926 -1.143625 -1.412816 2.405053 2.100790 0.280378 0.360116 2.186221 -1.380669 -0.953344 2.710339
check_ethernet/input_wb_adr_i 1.079676 3.058150 1.642653 3.502187 -1.778180 -1.417455 1.179679 0.229894 -2.691867 1.774781 -0.723548 -0.694049 1.462023 -1.805153 0.716181 3.026063 -1.440457 2.158269 0.388228 1.674954
eth_miim/always_6/block_1/if_1/block_2/if_1 -0.317086 -0.699169 0.817522 -1.704711 0.796904 0.703580 -0.468252 0.549844 0.197834 -2.641929 1.285054 -0.192303 -1.742625 1.684971 0.203031 -2.439596 1.367118 0.759581 -0.960449 0.180151
eth_registers/assign_2_Read -0.342285 1.326206 -0.882073 0.013620 -0.537757 -5.156521 -2.740150 -0.501010 0.317478 -0.534738 3.302553 2.080332 -3.182894 3.344536 2.031187 -1.496366 -1.788576 -1.264814 2.076757 1.348584
eth_txethmac/inst_txstatem1 -0.110747 1.559344 -0.280692 -0.005780 -1.493400 -1.149772 0.524889 -0.804704 0.627093 0.774735 -0.329898 -0.427619 -0.420533 -0.410792 -0.044611 0.270719 0.188273 0.465110 0.678246 1.168716
eth_top/always_1/block_1/if_1 1.324812 1.104103 1.332107 -1.400930 -2.289059 -3.958520 1.910667 1.259950 -3.888051 3.040056 -1.062458 1.471702 1.623559 1.125744 1.930516 2.423137 1.552572 0.345538 -0.552508 1.355247
eth_txstatem/always_1/block_1/if_1/block_2/if_5/if_1/cond -0.055416 1.616299 -0.236340 -0.027960 -1.555399 -1.233345 0.555109 -0.804694 0.618883 0.777190 -0.354777 -0.403962 -0.374722 -0.369998 -0.014956 0.266600 0.191889 0.453266 0.711097 1.243182
eth_transmitcontrol/always_1/block_1/if_1/if_1/if_1 -0.078970 1.547239 -0.295168 0.003531 -1.509907 -1.110293 0.522010 -0.786434 0.705097 0.765212 -0.350358 -0.392515 -0.415695 -0.501528 -0.056067 0.295979 0.168773 0.417018 0.716479 1.122757
eth_top/input_wb_stb_i -0.597102 -1.359594 0.300767 -0.885318 -1.865135 2.450876 1.866220 -3.121782 -1.818628 3.401241 1.949460 3.360069 -2.327029 0.405915 0.809015 -3.780454 -3.963187 -0.350118 -3.828403 0.778822
eth_miim/always_8/block_1/if_1/block_1/if_1/block_1/if_1/stmt_1 0.720257 -2.954071 -0.726674 -4.498724 1.476758 -1.007117 -3.871523 -1.308634 0.625722 1.760308 -1.918703 -4.736778 2.987450 2.905024 -0.071715 -1.531592 1.668960 -4.456731 -0.576958 6.107880
eth_registers/inst_MIICOMMAND0 -1.685710 -0.982715 -0.121588 -0.051667 1.605115 0.398384 -0.713134 -0.936940 1.930787 -1.042878 0.387122 -1.937739 -0.452499 1.290438 1.088928 -2.076401 1.866827 -2.971060 0.326816 1.454370
eth_registers/inst_MIICOMMAND1 -1.185226 -2.052644 -1.971046 -0.047286 2.790764 -0.811187 -1.766752 -1.101790 2.756028 -3.341697 2.582695 0.086008 -0.630802 1.707945 0.858665 -3.228382 0.316352 -2.805583 1.102283 0.466192
eth_registers/inst_MIICOMMAND2 -1.626629 -0.956378 -0.136431 -0.119893 1.517021 0.409365 -0.643937 -0.950376 1.865083 -1.055696 0.391671 -1.901223 -0.522562 1.253324 1.027930 -2.139589 1.875042 -2.835613 0.278453 1.487672
eth_miim/always_6/block_1/if_1/block_2/if_1/block_1/stmt_2 0.217036 -1.386120 -0.004884 -2.250161 0.597693 3.476390 0.195996 0.461581 1.411507 -4.410043 2.400617 1.477145 -3.777231 0.095085 -0.865925 -3.667484 0.640837 2.661827 -1.261686 -2.451763
eth_miim/always_6/block_1/if_1/block_2/if_1/block_1/stmt_3 -1.213472 -1.943585 -1.857009 -0.013991 2.754053 -0.916062 -1.763778 -1.047221 2.672854 -3.324497 2.580296 0.090475 -0.659711 1.751848 0.826618 -3.226160 0.364016 -2.714582 1.075184 0.507490
eth_shiftreg/always_1/block_1/if_1/block_2/if_1/block_1/if_1/block_2/stmt_1 -2.145643 0.117393 0.982564 0.270984 0.368110 3.742567 -0.289999 -0.670602 2.128603 1.672915 -1.967283 -4.144871 -1.771583 -0.727559 0.321854 -0.717072 1.893645 -2.526822 -0.320067 0.427823
eth_miim/always_6/block_1/if_1/block_2/if_1/block_1/stmt_1 -1.364769 -0.339324 2.257741 -0.560731 0.936677 1.798822 0.558485 1.062171 0.191555 -2.932005 0.508008 -0.421768 -1.816608 1.415080 0.222440 -1.830053 2.056914 1.001676 -1.078950 -1.043738
eth_miim/always_6/block_1/if_1/block_2/if_1/block_1/stmt_4 -0.321437 -2.236509 -2.767725 -1.436522 1.701746 1.733885 -1.380578 -1.809618 3.555316 -2.568007 2.425134 -0.166806 -2.146158 0.091112 0.037378 -4.021453 0.301867 -2.049925 0.432220 0.266228
eth_rxethmac/input_Transmitting -0.102510 1.636265 -0.315208 -0.036281 -1.586350 -1.198241 0.591463 -0.867924 0.715961 0.828770 -0.347563 -0.459047 -0.434061 -0.435466 -0.045173 0.248158 0.213329 0.433746 0.721208 1.258430
eth_registers/input_Address 4.542467 -0.841254 1.905229 5.152879 5.477645 -2.251763 -3.799754 2.367987 -2.876471 -3.871011 2.382509 -3.485452 5.101501 2.212233 1.827754 4.339421 4.135718 -2.119634 3.343902 6.170713
eth_miim/always_6/block_1/if_1/block_2/if_1/block_1/stmt_9 -0.892908 -1.245439 -1.016878 -1.359155 0.615227 3.189968 -0.382265 -1.736082 2.911422 -0.297687 0.195372 -2.328491 -2.092719 -0.392286 0.239963 -2.945058 1.818817 -2.344346 -0.319409 1.130698
eth_registers/wire_MIIMODER_Wr -2.935154 0.738970 2.957316 0.083542 1.839544 -1.353055 1.989174 -1.044084 -1.751928 -4.613801 2.964720 1.859299 -0.223655 5.463826 -1.024259 -4.113263 3.028039 1.868669 -3.262517 2.278300
eth_wishbone/always_24/block_1/if_1/if_1/cond/expr_1 -0.073426 1.551422 -0.293795 0.004530 -1.557265 -1.191365 0.528296 -0.815319 0.666841 0.767536 -0.327303 -0.409917 -0.429838 -0.390324 -0.022989 0.264298 0.193203 0.448373 0.701181 1.159416
eth_miim/always_6/block_1 -0.274023 -0.636711 0.800267 -1.644436 0.696995 0.399538 -0.464971 0.539195 0.076677 -2.629397 1.374983 -0.052742 -1.683493 1.772633 0.216204 -2.385515 1.240828 0.822746 -0.913260 0.284717
eth_outputcontrol/always_1/block_1/if_1 3.664384 -0.467138 -0.838735 -4.804098 -2.053817 -0.700474 0.270429 0.237003 -2.052761 -2.677850 2.812378 3.022165 -1.858926 1.076998 -1.122323 -2.700617 -0.004705 4.828347 -1.882150 1.383880
eth_top/input_wb_we_i 2.302556 2.223142 2.072563 -0.127915 -3.488394 -3.729908 1.368706 1.294995 -6.387184 2.573480 -0.070136 2.345665 0.291285 1.751167 1.537769 1.465970 0.008396 2.070101 -1.270503 2.767370
eth_wishbone/always_6/block_1/if_1/if_1 -0.095771 1.632988 -0.307080 0.004918 -1.591912 -1.181886 0.536655 -0.845161 0.717803 0.799397 -0.350266 -0.424864 -0.452526 -0.452926 -0.043817 0.270448 0.176316 0.436665 0.763177 1.205448
eth_miim/always_7/block_1 0.873610 0.027224 0.901919 -2.567988 -0.517110 -0.217139 -0.352083 0.529401 -1.188555 -1.720259 1.133615 -0.070624 -1.646948 1.817029 -0.111286 -2.000603 1.199480 1.941957 -1.329586 1.542106
eth_wishbone 0.602929 2.303083 0.843225 -0.990735 -3.367318 -0.504587 3.418393 -0.896781 -0.768937 2.400265 -1.880389 0.163211 0.867650 -1.237921 0.334367 1.596550 2.443038 1.406034 -0.376286 1.669951
eth_txstatem/always_1/block_1/if_1/block_2/if_4/if_1/cond -0.070490 1.601008 -0.269635 -0.033839 -1.527908 -1.234354 0.563735 -0.824760 0.644971 0.768048 -0.331833 -0.395641 -0.410245 -0.366186 -0.016896 0.252579 0.200928 0.450590 0.715182 1.244202
eth_wishbone/always_77/block_1/if_1 0.591821 -0.393277 -0.441594 -0.834532 -1.389631 3.112691 2.033525 -1.031297 1.038041 1.941571 -1.128037 0.277415 -0.225726 -2.626396 0.077558 0.440740 0.824096 -0.169875 -0.522739 -0.883645
eth_top/assign_7_BDCs/expr_1/expr_1/expr_1 0.715815 0.878434 1.343509 -1.105932 -1.976007 0.561712 3.055147 -0.134137 -1.716717 1.703104 -1.601466 0.662077 1.353746 -0.646314 0.379165 1.329668 2.440834 1.124801 -1.333219 0.741839
eth_rxstatem/reg_StatePreamble -0.109134 1.598562 -0.269244 -0.009536 -1.516389 -1.222858 0.542951 -0.772975 0.615798 0.791004 -0.337007 -0.394792 -0.400870 -0.389861 -0.011374 0.246310 0.177206 0.459393 0.693398 1.172921
eth_rxstatem/always_1/block_1/if_1/block_2/if_3 -0.058408 1.657181 -0.295755 -0.021988 -1.589061 -1.252205 0.557320 -0.828891 0.686112 0.790880 -0.358357 -0.423122 -0.425288 -0.431437 -0.009727 0.283180 0.185939 0.454857 0.749625 1.244594
eth_rxstatem/always_1/block_1/if_1/block_2/if_2 -0.112339 1.593270 -0.254635 -0.023139 -1.538839 -1.223320 0.578866 -0.810839 0.619692 0.773137 -0.348155 -0.388526 -0.407887 -0.366260 -0.048903 0.246502 0.218129 0.447941 0.669141 1.182343
eth_rxstatem/always_1/block_1/if_1/block_2/if_5 -0.094785 1.552071 -0.280732 0.018884 -1.532347 -1.103119 0.556124 -0.778122 0.709187 0.770700 -0.359767 -0.436960 -0.442248 -0.474404 -0.016417 0.289612 0.174018 0.442880 0.729001 1.098360
eth_rxstatem/always_1/block_1/if_1/block_2/if_4 -0.106310 1.606171 -0.242080 -0.022165 -1.578854 -1.195776 0.589558 -0.827964 0.619725 0.788606 -0.323290 -0.414157 -0.416424 -0.417540 -0.011861 0.252375 0.241865 0.450865 0.666016 1.212248
eth_wishbone/always_30/block_1/if_1/if_1/if_1 -0.047899 1.598288 -0.305404 0.019054 -1.594719 -1.184670 0.584307 -0.832119 0.662847 0.817173 -0.366281 -0.418741 -0.411449 -0.506280 -0.011443 0.328920 0.157522 0.468510 0.764339 1.207100
eth_rxstatem/always_1/block_1/if_1/block_2/if_6 -0.038576 1.614798 -0.284157 0.015329 -1.555311 -1.134617 0.592233 -0.801538 0.681027 0.831337 -0.379032 -0.422959 -0.404956 -0.487974 -0.042310 0.306467 0.142492 0.467947 0.757131 1.129542
eth_miim/input_WCtrlData -1.633114 -1.053436 -0.189672 -0.040610 1.671924 0.393509 -0.748439 -0.952035 1.959742 -1.098184 0.429505 -1.918457 -0.446038 1.283072 1.065030 -2.109547 1.828613 -2.972502 0.372078 1.380583
eth_miim/always_7/block_1/if_1/block_2 0.910949 -0.215617 0.872679 -2.765886 -0.367634 0.028413 -0.590677 0.572032 -1.080709 -1.570911 0.948252 -0.408414 -1.513815 1.806279 -0.122163 -1.979813 1.349570 1.665049 -1.379460 1.652543
eth_miim/always_7/block_1/if_1/block_1 1.301118 -1.539058 -2.252864 -1.766633 0.318668 -0.440223 -0.189310 -1.189018 1.004979 -2.069561 2.291362 1.846030 -0.293421 0.256457 -0.084937 -2.374663 -0.066029 0.016063 0.083224 0.703153
eth_top/assign_2_RegCs/expr_1/expr_1/expr_1/expr_1 0.631344 -0.454858 -0.481777 -0.850595 -1.372003 3.294396 2.077062 -1.089702 1.113653 1.926125 -1.174494 0.219476 -0.258057 -2.712013 0.067207 0.397694 0.855378 -0.242392 -0.534593 -0.905351
eth_wishbone/always_77/block_1/if_1/if_1 0.636045 -0.388351 -0.425704 -0.838728 -1.431534 3.209355 2.097266 -1.073350 1.054122 2.020536 -1.194375 0.265874 -0.191002 -2.687343 0.117650 0.452106 0.863440 -0.186723 -0.573194 -0.880279
eth_registers/always_1/block_1/if_1/cond -0.325213 1.375071 -0.916387 0.123206 -0.547998 -5.182666 -2.768267 -0.511696 0.354707 -0.496907 3.257105 2.055557 -3.162226 3.230920 2.032936 -1.419656 -1.898926 -1.278102 2.141649 1.318520
eth_top/wire_WillTransmit -0.084450 1.573457 -0.325211 -0.015361 -1.557679 -1.186246 0.525440 -0.816982 0.690686 0.788403 -0.352047 -0.432081 -0.453587 -0.442631 -0.030088 0.260365 0.144333 0.433767 0.766392 1.177830
eth_top/always_4/block_1/stmt_2 -0.092848 1.584451 -0.283753 -0.018567 -1.571300 -1.197295 0.570469 -0.814100 0.669596 0.773509 -0.339238 -0.430070 -0.445895 -0.435525 -0.037058 0.287687 0.214267 0.475212 0.685777 1.189749
eth_top/always_4/block_1/stmt_1 -0.080946 1.583571 -0.306239 0.034902 -1.579278 -1.196783 0.566079 -0.791099 0.676387 0.806613 -0.360565 -0.419253 -0.429037 -0.488715 -0.007987 0.333602 0.132709 0.449184 0.732599 1.177698
eth_outputcontrol/always_1/block_1/if_1/block_2 3.744625 -0.395681 -0.817059 -4.876949 -2.055735 -0.891658 0.201366 0.255792 -2.228404 -2.651994 2.823165 3.022700 -1.791434 1.159114 -1.144163 -2.703005 -0.015912 4.907160 -1.893153 1.554848
eth_txstatem/assign_6_StartPAD/expr_1 -0.093988 1.524756 -0.285538 0.041865 -1.502567 -1.126604 0.535788 -0.746295 0.665172 0.784010 -0.317077 -0.413100 -0.381939 -0.466563 -0.015399 0.286690 0.105340 0.427590 0.738532 1.080900
eth_top/assign_6_BDCs 0.726441 0.842004 1.221141 -1.046698 -1.958297 0.665060 2.985198 -0.134410 -1.525832 1.759068 -1.644307 0.611144 1.301252 -0.807915 0.339488 1.358136 2.344137 1.084997 -1.185053 0.587064
eth_wishbone/input_BDCs 0.714392 0.856780 1.190617 -1.009795 -1.941668 0.531510 2.904677 -0.145791 -1.562758 1.663098 -1.536748 0.603814 1.250159 -0.683574 0.376890 1.259364 2.295438 1.075163 -1.190370 0.675500
eth_registers/assign_2_Read/expr_1 -0.330074 1.367866 -0.851004 0.083127 -0.557090 -5.229592 -2.768807 -0.455865 0.235434 -0.573123 3.321744 2.116694 -3.142449 3.354670 2.010356 -1.429812 -1.848675 -1.211689 2.060779 1.367129
eth_wishbone/always_30/block_1 -0.044543 1.550371 -0.318201 -0.005501 -1.576330 -1.104367 0.528414 -0.810523 0.722914 0.818615 -0.351937 -0.403304 -0.448265 -0.545289 -0.026755 0.317078 0.157533 0.437390 0.743043 1.110741
eth_miim/always_4/block_1/if_1/block_2/if_1/block_2/if_1/cond/expr_1 0.166904 -1.262588 0.094936 -2.148719 0.566376 3.259882 0.223343 0.468554 1.295009 -4.221903 2.297386 1.422766 -3.573740 0.199168 -0.797864 -3.531488 0.707855 2.568632 -1.280523 -2.299345
eth_registers/assign_2_Read/expr_2 -0.373492 1.379191 -0.881197 0.081084 -0.545071 -5.181499 -2.754992 -0.510651 0.356109 -0.533798 3.316606 2.090735 -3.199260 3.337475 2.042831 -1.469913 -1.833482 -1.300502 2.124174 1.284932
eth_miim/always_3/block_1/if_1/block_2/stmt_8 -1.548296 -0.906583 -0.103834 -0.120011 1.480160 0.356380 -0.581480 -0.964374 1.814823 -1.020357 0.424757 -1.802519 -0.486822 1.260603 1.034606 -2.087866 1.843803 -2.781101 0.250064 1.487745
eth_miim/reg_RStatStart_q2 0.727838 -1.989017 -4.041119 -2.307058 1.038489 -0.231764 -2.218911 -2.379283 3.050598 -1.913388 3.160341 0.166887 -1.963487 0.595728 0.145655 -4.362899 -0.588232 -1.996318 0.578533 2.089237
eth_registers/assign_43_MIIADDRESS_Wr/expr_1 -0.724805 -0.881831 -0.982863 0.063202 1.004579 1.940190 -1.216693 -0.388481 2.460274 -0.095964 -0.047508 -1.632937 -1.266238 -0.883514 0.029615 -0.810213 -0.065154 -1.737568 0.740462 -0.757127
eth_miim/always_3/block_1/if_1/block_2/stmt_4 -1.150334 -2.094767 -2.028913 -0.049049 2.834794 -0.753108 -1.839052 -1.117626 2.849406 -3.387658 2.622265 0.058860 -0.685970 1.703148 0.828218 -3.295064 0.309879 -2.811952 1.137806 0.454867
eth_top/assign_17_MRxDV_Lb -0.091062 1.597652 -0.348584 0.033252 -1.570142 -1.167147 0.556815 -0.829691 0.685244 0.791204 -0.354820 -0.443507 -0.435641 -0.475014 -0.019869 0.297561 0.149108 0.433015 0.758063 1.171567
eth_miim/always_3/block_1/if_1/block_2/stmt_6 -0.252011 -2.211748 -2.728006 -1.458099 1.617321 1.713969 -1.331037 -1.811975 3.438190 -2.536973 2.398451 -0.132373 -2.081514 0.066457 0.021814 -3.976445 0.313610 -1.951250 0.393071 0.285500
eth_miim/always_3/block_1/if_1/block_2/stmt_7 -1.672668 -1.134535 -0.294806 -0.063804 1.763204 0.438789 -0.769874 -1.003745 2.094757 -1.101294 0.393654 -1.987319 -0.326873 1.258618 1.072284 -2.091536 1.886110 -3.205366 0.442416 1.467539
eth_miim/always_3/block_1/if_1/block_2/stmt_1 -1.641075 -1.134699 -0.275689 0.001719 1.798984 0.281577 -0.796444 -0.980617 1.995886 -1.213042 0.543710 -1.800465 -0.302000 1.327674 1.076192 -2.125902 1.762830 -3.052708 0.416627 1.380786
eth_miim/always_3/block_1/if_1/block_2/stmt_2 -1.089973 -0.466542 2.205409 -0.889498 0.817324 2.089497 0.491256 1.172754 0.131938 -2.932641 0.514661 -0.351044 -1.961079 1.249528 0.114839 -1.898268 2.014986 1.280754 -1.197212 -1.224378
eth_miim/always_3/block_1/if_1/block_2/stmt_3 0.129285 -1.367702 0.039080 -2.120543 0.679291 3.402564 0.155908 0.479776 1.419204 -4.423538 2.395960 1.489177 -3.736790 0.153781 -0.842548 -3.647481 0.667994 2.556268 -1.264488 -2.403346
eth_miim/always_4/block_1/if_1/block_2/if_1/block_2/if_1 -1.300806 -0.487240 2.191775 -0.596700 1.027855 1.946975 0.478165 1.098837 0.271189 -3.111469 0.609454 -0.275774 -1.905646 1.377615 0.183625 -1.894972 1.949887 1.113817 -1.053365 -1.303501
eth_miim/always_4/block_1/if_1/block_2/if_1/block_2/if_2 -1.270866 -2.220474 -2.060646 -0.023069 2.974534 -0.648473 -1.896082 -1.119239 2.992753 -3.413047 2.607315 -0.056095 -0.677249 1.667727 0.822503 -3.324389 0.321564 -3.061124 1.172805 0.409366
eth_miim/always_4/block_1/if_1/block_2/if_1/block_2/if_2/cond/expr_1 -0.357105 -2.301194 -2.850235 -1.392029 1.741588 1.952877 -1.483794 -1.811633 3.749554 -2.609040 2.441675 -0.204138 -2.333985 -0.038421 -0.005975 -4.082099 0.228427 -2.045124 0.467597 0.110846
eth_txstatem/wire_StartData -0.044775 1.575124 -0.272886 0.015221 -1.577881 -1.187154 0.539868 -0.804853 0.647991 0.776011 -0.317101 -0.399034 -0.396946 -0.435925 -0.003188 0.252180 0.162768 0.447128 0.725053 1.173713
eth_top/reg_WillTransmit_q -0.079652 1.615991 -0.360696 -0.006852 -1.607952 -1.164065 0.570213 -0.798141 0.702152 0.804441 -0.342807 -0.439410 -0.449657 -0.529055 -0.053537 0.302885 0.142802 0.434414 0.775297 1.137263
eth_txethmac/wire_StatePreamble -0.074304 1.599728 -0.316541 -0.020123 -1.596563 -1.187267 0.574890 -0.827920 0.661177 0.804704 -0.343428 -0.436633 -0.410959 -0.460932 -0.052057 0.273187 0.160739 0.454678 0.756902 1.190886
eth_rxstatem/wire_StartIdle -0.070720 1.608323 -0.305345 0.019812 -1.569925 -1.204664 0.541261 -0.795939 0.710187 0.786871 -0.313765 -0.433380 -0.457167 -0.453593 -0.044757 0.276042 0.115266 0.470893 0.793602 1.159391
eth_rxstatem/assign_2_StartPreamble/expr_1/expr_1 -0.045762 1.592901 -0.314138 0.009880 -1.554355 -1.204643 0.534689 -0.785583 0.660847 0.772548 -0.302874 -0.411755 -0.407298 -0.435938 -0.018532 0.273425 0.141503 0.424299 0.762794 1.163174
eth_top/assign_3_RegCs 0.697886 0.864888 1.334232 -1.079704 -1.959087 0.577564 2.986411 -0.097242 -1.644253 1.725570 -1.614987 0.621629 1.334002 -0.678720 0.382197 1.337023 2.402752 1.074816 -1.248542 0.694198
eth_wishbone/always_24 -0.089830 1.642648 -0.240927 0.010880 -1.565516 -1.238808 0.594425 -0.794411 0.620648 0.800776 -0.321805 -0.367158 -0.412470 -0.412388 -0.035654 0.311701 0.164442 0.502864 0.716821 1.209041
eth_wishbone/always_26 -0.088275 1.558415 -0.293697 0.001685 -1.504175 -1.157451 0.556846 -0.776943 0.616574 0.792675 -0.347120 -0.402477 -0.385973 -0.403915 -0.029453 0.279200 0.162665 0.422832 0.733755 1.189576
eth_wishbone/always_27 -0.084757 1.639776 -0.264184 -0.026708 -1.599197 -1.243600 0.561000 -0.841834 0.708602 0.810228 -0.352360 -0.460972 -0.441287 -0.403718 -0.027685 0.233852 0.215451 0.436139 0.705756 1.252969
eth_rxstatem/always_1/block_1/if_1/block_2/if_1/if_1 -0.115425 1.598727 -0.269557 -0.042064 -1.582028 -1.177972 0.607224 -0.821111 0.661427 0.774266 -0.332157 -0.432960 -0.419685 -0.376676 -0.005010 0.236288 0.243235 0.474852 0.707414 1.210962
eth_clockgen/always_1/block_1/if_1/block_1/if_1/cond -0.744963 -0.345993 2.370655 -2.417552 -0.301603 -1.831305 1.254603 -0.151046 -2.645217 -1.169129 -0.301625 1.898368 1.674163 3.390917 1.496935 -1.674469 1.877114 0.500364 -2.766870 2.170574
eth_clockgen/assign_4_MdcEn/expr_1/expr_1 1.752389 0.126022 0.234016 -3.809169 -1.827698 1.783175 0.164818 -0.178801 -0.751351 -0.758266 0.878585 -0.320057 -2.790514 0.427025 -0.839885 -2.532743 1.223529 2.799847 -2.001436 1.733128
eth_top/reg_temp_wb_err_o_reg -0.048758 0.817783 3.039039 -3.179110 -1.278420 -2.783812 -0.286444 1.790347 -2.117497 2.958814 -1.637332 -0.301613 1.858074 2.233876 1.175977 1.859524 0.302063 1.001905 -1.271622 1.048101
eth_clockgen/always_1/block_1/if_1/stmt_1 -1.383184 3.049935 2.271354 3.896954 -0.097612 -2.892021 2.058546 0.620879 -1.820816 -2.234260 0.627363 -0.328363 0.826571 1.143344 1.454362 0.440602 2.240749 1.220212 0.649706 1.977844
eth_miim/assign_7_ByteSelect/expr_1/expr_1 -2.188108 0.069714 0.956213 0.301351 0.451814 3.847778 -0.323211 -0.665220 2.251202 1.741404 -2.021366 -4.249630 -1.806827 -0.817758 0.338991 -0.769137 1.925489 -2.641561 -0.292671 0.404473
eth_miim/assign_2_ReadStatusOp -0.101834 -1.829705 -3.185189 -0.955719 2.187788 -2.803147 -2.652900 -1.613783 2.254017 -2.790966 3.368334 0.405264 -0.502147 2.202656 0.896103 -3.626975 -0.498557 -2.750100 1.254549 2.245995
eth_miim/always_4/block_1/if_1/block_2/if_1/cond 0.526770 0.428112 2.230842 -1.307295 -0.738867 2.070221 0.939682 2.028088 -1.459270 -2.597926 0.609675 1.455400 -2.398668 0.211085 -1.086598 -0.720154 0.275374 4.517590 -1.699471 -2.473987
eth_top/assign_17_MRxDV_Lb/expr_1/expr_1 -0.058979 1.544777 -0.280754 -0.013370 -1.498147 -1.109831 0.562145 -0.753487 0.615411 0.746308 -0.325618 -0.402794 -0.394433 -0.450054 -0.035001 0.279057 0.172468 0.429740 0.668468 1.126815
eth_clockgen/always_2/block_1 -1.890128 -0.217020 3.921855 -1.566345 -0.097950 -0.293502 0.137208 1.021385 -2.837613 -0.014730 -2.257330 0.513410 1.914105 3.202899 0.003484 -0.867196 0.658218 0.588175 -3.579110 0.371404
eth_maccontrol -0.075100 1.633162 -0.301455 0.027319 -1.559308 -1.181351 0.552767 -0.779021 0.685166 0.807835 -0.348891 -0.397744 -0.418872 -0.483958 -0.020451 0.334518 0.135200 0.451538 0.761348 1.115471
eth_registers/wire_r_RGAD -0.672873 -0.865622 -1.001987 0.047119 1.024711 2.029599 -1.223952 -0.368652 2.480009 -0.134050 -0.015963 -1.591107 -1.366599 -0.891618 0.014281 -0.815470 -0.045124 -1.684005 0.769310 -0.782787
eth_top/wire_r_RGAD -0.703632 -0.855623 -0.989489 0.077438 1.034145 1.964023 -1.196184 -0.374167 2.448282 -0.129511 -0.035532 -1.577942 -1.262408 -0.889714 0.029667 -0.816702 -0.080532 -1.734716 0.753930 -0.773911
eth_rxstatem/assign_2_StartPreamble/expr_1/expr_2/expr_1 -0.083136 1.594027 -0.338475 0.015494 -1.567126 -1.142097 0.557738 -0.819393 0.703043 0.829906 -0.385118 -0.413838 -0.444467 -0.520173 -0.042836 0.283073 0.152521 0.465243 0.761282 1.135998
eth_clockgen/wire_MdcEn 1.700079 0.024707 0.275079 -3.866347 -1.781722 2.163246 0.095758 -0.147512 -0.604769 -0.690333 0.738339 -0.498540 -2.911342 0.305563 -0.865420 -2.512941 1.344681 2.741336 -2.050790 1.572774
eth_top/assign_12_temp_wb_err_o/expr_1 0.345235 -0.285004 0.707739 -2.136482 -1.840511 -0.820603 -0.144539 -0.054688 -0.652536 2.860384 -0.513490 0.598958 -0.075421 0.706660 0.294048 0.435415 -1.927181 0.339528 -0.961325 0.710263
eth_wishbone/always_3/block_1/if_1/block_2/case_1/cond 0.613808 -0.443044 -0.472802 -0.876846 -1.322305 3.262790 1.998652 -1.077156 1.120731 1.876186 -1.106209 0.246272 -0.262333 -2.644814 0.102454 0.368369 0.853748 -0.220837 -0.555847 -0.912636
eth_txethmac/always_13/block_1/if_1/stmt_2/expr_1/expr_1 -0.085335 1.606273 -0.315908 -0.002066 -1.565458 -1.219774 0.541399 -0.797646 0.670860 0.810897 -0.347730 -0.421648 -0.452699 -0.427876 -0.030258 0.252339 0.183947 0.461377 0.733076 1.176952
eth_top/wire_MRxDV_Lb -0.074964 1.562766 -0.309793 0.027523 -1.532846 -1.139853 0.532159 -0.757854 0.684644 0.791104 -0.361069 -0.417337 -0.407172 -0.472505 -0.022962 0.307789 0.124892 0.472238 0.726714 1.109889
eth_top/assign_7_BDCs/expr_1/expr_1 0.742066 0.879725 1.332114 -1.042226 -1.991940 0.527387 2.998244 -0.076145 -1.664122 1.778960 -1.680115 0.642155 1.399777 -0.724459 0.357973 1.449513 2.360964 1.104593 -1.213933 0.631174
eth_top/assign_17_MRxDV_Lb/expr_1 -0.085624 1.581107 -0.306380 0.032102 -1.578343 -1.213496 0.565826 -0.819804 0.670903 0.770878 -0.325196 -0.405833 -0.423821 -0.453617 -0.032535 0.308103 0.179999 0.420332 0.741910 1.165840
eth_clockgen/always_2/block_1/if_1/block_1/if_1 -1.832232 -0.267553 3.229127 -1.829992 -0.546536 -1.398162 1.011698 0.510911 -2.423310 -0.233209 -1.497228 2.065927 2.220009 2.742271 1.055737 -1.215526 0.235669 0.396755 -3.219084 0.323470
eth_registers/assign_47_MAC_ADDR0_Wr/expr_1 0.742503 -0.231935 -0.041925 4.520182 3.167901 -1.127170 -0.412287 -0.295988 -1.907449 -1.872443 1.516618 -1.468784 3.228052 0.657699 -0.822342 0.539636 -0.124460 -0.552527 0.404709 3.418184
eth_wishbone/always_3/block_1/if_1/block_2/case_1 0.785743 0.956602 1.341317 -1.078632 -2.086620 0.396892 3.053816 -0.075769 -1.750309 1.785797 -1.661196 0.672445 1.410222 -0.687890 0.388073 1.459604 2.366367 1.187377 -1.258694 0.746680
eth_rxethmac/input_MRxDV -0.064770 1.547116 -0.278174 0.010162 -1.519708 -1.171960 0.527483 -0.768188 0.660823 0.747909 -0.330876 -0.391608 -0.399204 -0.390396 -0.015689 0.288288 0.159673 0.426633 0.698178 1.167275
eth_miim/always_6/block_1/if_1/block_1/stmt_3 0.653704 -1.127555 -1.399644 -0.794973 0.520412 0.089028 -0.410123 -0.474044 0.938368 -1.444638 1.415170 1.048325 -0.390490 -0.055445 -0.113956 -1.290837 -0.385838 -0.050915 0.266083 -0.242340
eth_clockgen/assign_1_TempDivider/expr_1 -0.601084 2.251294 1.308971 2.275219 1.260337 -1.634711 0.882031 -0.723013 -1.361524 -2.977092 2.660959 -0.911564 -0.488460 3.051199 -0.963623 -1.289115 3.387856 1.467678 -0.246939 4.074828
eth_miim/always_6/block_1/if_1/block_1/stmt_7 0.458583 0.326507 2.241261 -1.292677 -0.599944 2.249037 0.909309 1.993756 -1.298374 -2.737927 0.642349 1.389817 -2.493975 0.189332 -1.119326 -0.776451 0.302543 4.448783 -1.650874 -2.628167
eth_wishbone/always_1/block_1/stmt_1/expr_1 0.736487 0.858086 1.321007 -1.043554 -1.943175 0.521894 2.935657 -0.069984 -1.635798 1.704887 -1.632697 0.651382 1.383134 -0.649394 0.381660 1.370994 2.316764 1.102189 -1.226435 0.648003
eth_miim/reg_RStat_q3 -0.378622 -2.250212 -2.798532 -1.383528 1.736325 1.916192 -1.406381 -1.846913 3.706064 -2.574521 2.419724 -0.265874 -2.279373 0.023735 0.053547 -4.085310 0.293803 -2.083440 0.436961 0.188581
eth_miim/reg_RStat_q2 -1.199970 -2.148900 -2.046257 -0.075458 2.901784 -0.767065 -1.909478 -1.137082 2.888867 -3.391796 2.675271 0.044512 -0.682505 1.732783 0.815488 -3.370516 0.251580 -2.930605 1.153501 0.521470
eth_miim/reg_RStat_q1 -1.249744 -2.181209 -2.036222 -0.060744 2.936810 -0.721456 -1.874528 -1.146183 2.945838 -3.397660 2.604295 -0.026894 -0.638496 1.687725 0.856681 -3.359500 0.357291 -3.009814 1.136928 0.528276
eth_wishbone/always_30/block_1/if_1/if_1 -0.093452 1.644055 -0.264761 -0.000177 -1.588737 -1.226014 0.592958 -0.789557 0.650492 0.821258 -0.352353 -0.387664 -0.396452 -0.457756 -0.040518 0.303187 0.152087 0.496054 0.722992 1.190140
eth_registers/always_1/block_1/if_1/block_1/case_1/stmt_16 1.463994 2.933392 -0.620452 0.273559 -3.206383 -6.362101 0.084897 0.930163 -4.766909 0.905057 0.783275 0.433506 -0.593371 1.198852 -0.216070 -0.268443 -2.305896 3.046616 0.162782 3.323053
eth_registers/wire_MIICOMMANDOut -1.833223 -1.202015 -0.343339 0.020712 1.879623 0.623537 -0.899710 -1.099343 2.297768 -1.126226 0.441261 -2.125326 -0.506890 1.253095 1.086496 -2.233975 1.897942 -3.335231 0.428552 1.368987
eth_outputcontrol/always_1/block_1/if_1/block_2/if_1/block_1 3.655545 -0.281784 -0.706945 -4.733938 -2.117091 -0.954482 0.254240 0.230932 -2.247022 -2.688764 2.808742 3.003931 -1.843089 1.223943 -1.090475 -2.698510 0.025724 4.957059 -1.878070 1.596315
eth_registers/always_1/block_1/if_1/block_1/case_1/stmt_19 1.960153 -0.476086 1.716652 0.742101 0.664894 1.501707 -0.756699 1.645829 -1.586110 -0.011611 -0.029840 0.168331 0.679647 -0.602378 0.976810 2.288618 0.016347 0.826311 -0.092594 -0.665615
eth_outputcontrol/assign_1_SerialEn/expr_1 -0.183233 -1.410712 0.439175 -1.736933 0.472632 -4.131146 1.506614 -1.259678 -1.470412 0.514634 -0.364352 0.694209 4.732516 3.223580 1.460905 -0.257760 2.565853 -2.515660 -0.645313 3.668096
eth_shiftreg/reg_ShiftReg -2.157963 0.199485 1.046659 0.358921 0.320532 3.605366 -0.247061 -0.617465 2.053144 1.725447 -1.971571 -4.116260 -1.798782 -0.737164 0.349128 -0.692379 1.892018 -2.478011 -0.314681 0.461816
eth_register/always_1/block_1/if_1/if_1/cond -7.049696 3.109515 1.025460 1.875298 -0.453210 -6.641118 -0.643892 -2.028054 1.629205 0.546770 3.558561 3.674890 -6.274316 7.027235 4.541625 -4.046854 -0.536072 -4.684368 1.330892 -0.501123
eth_rxstatem/always_1 -0.060785 1.569903 -0.342690 -0.015808 -1.572503 -1.160730 0.545152 -0.822032 0.705278 0.808133 -0.367567 -0.401515 -0.459726 -0.501844 -0.010254 0.263633 0.160976 0.439272 0.762350 1.120257
eth_outputcontrol/input_InProgress 3.724094 -0.462937 -0.743700 -4.924184 -2.070035 -0.788935 0.220825 0.234796 -2.218664 -2.655668 2.782845 3.032907 -1.755577 1.204440 -1.126071 -2.734934 0.065533 4.860699 -1.964029 1.556155
eth_miim/wire_StartOp -0.293230 -0.713206 0.858382 -1.679667 0.795947 0.583986 -0.494815 0.534686 0.123102 -2.573562 1.233328 -0.207163 -1.636865 1.783377 0.243470 -2.395904 1.423956 0.730955 -0.980505 0.312536
eth_top/assign_9_BDCs/expr_1/expr_1/expr_1/expr_1 0.719037 0.910730 1.348640 -1.068849 -1.970083 0.404846 2.960078 -0.077685 -1.750618 1.685468 -1.612328 0.609465 1.343916 -0.596243 0.348190 1.316990 2.389807 1.134324 -1.257480 0.776200
eth_wishbone/always_3 0.719003 0.885112 1.241046 -0.965485 -1.938581 0.521971 2.919783 -0.104435 -1.618505 1.741741 -1.604475 0.643001 1.335305 -0.696447 0.367034 1.388560 2.241394 1.048843 -1.179054 0.649860
eth_top/assign_4_RegCs/expr_1/expr_1 -0.131467 -0.344547 0.111425 -1.975510 -0.932588 2.406632 1.874120 -1.384831 1.031456 1.007726 -1.089552 -1.374679 -0.309751 -0.619299 0.661336 -1.197660 3.433211 -1.220621 -1.035156 1.648322
eth_wishbone/always_3/block_1/if_1/block_2/case_1/block_7/stmt_6/expr_1 0.748843 0.912643 1.358641 -1.076615 -2.015102 0.471201 3.023050 -0.089363 -1.735580 1.779622 -1.668350 0.624752 1.372589 -0.672943 0.355400 1.384257 2.399885 1.175471 -1.273441 0.717866
eth_registers/assign_109_r_ClkDiv -2.771217 0.461179 2.666660 -0.140567 1.991091 -1.118404 1.807287 -1.057031 -1.459725 -4.682157 3.003997 1.847713 -0.179417 5.303116 -1.167535 -4.114352 2.927819 1.834050 -3.203288 2.172088
eth_registers/assign_40_MIIMODER_Wr/expr_1 -0.777119 -1.249419 -1.086319 -1.440741 0.553776 3.042940 -0.310046 -1.724905 2.837099 -0.385639 0.292508 -2.127900 -1.966730 -0.412068 0.222553 -2.900812 1.792859 -2.210074 -0.292990 1.148983
eth_registers/wire_Write -0.609673 2.061567 0.516459 -0.754605 -1.401042 -4.735486 -0.545725 -2.011394 0.004953 -0.299951 1.245643 0.728227 -0.464325 3.215528 0.542374 -1.254641 0.077573 0.017659 0.533023 3.967555
eth_wishbone/always_27/block_1/if_1 -0.066717 1.608389 -0.301237 -0.020133 -1.593288 -1.193753 0.549652 -0.805024 0.679483 0.816221 -0.341924 -0.418326 -0.443871 -0.464664 -0.020255 0.300384 0.186164 0.440155 0.703626 1.159192
eth_txethmac/always_13/block_1/if_1/stmt_2/expr_1/expr_1/expr_1/expr_1 -0.093692 1.572000 -0.307419 -0.014487 -1.563434 -1.189334 0.546876 -0.785459 0.698511 0.807054 -0.336716 -0.429488 -0.435373 -0.488707 -0.015844 0.277496 0.169326 0.465661 0.748440 1.190107
eth_txstatem/always_1/block_1 -0.078900 1.599387 -0.286176 0.027195 -1.578159 -1.192226 0.579959 -0.815914 0.668967 0.820650 -0.365798 -0.412611 -0.429377 -0.463884 -0.029903 0.316454 0.140738 0.453710 0.740687 1.143213
eth_miim/always_8/block_1/if_1/block_1/if_1/cond 3.106955 -1.676538 -1.202274 -6.336813 -1.773585 3.409273 -1.472075 -0.644704 0.167822 0.435376 0.291417 -1.890271 -2.944407 -0.195371 -1.008006 -3.311827 1.338457 1.333490 -2.189367 2.855014
eth_miim/always_6/block_1/if_1/block_2/if_1/cond -0.525289 -0.324827 1.594945 -1.802700 -0.280102 4.148013 1.054194 0.390955 0.758288 -2.465672 0.588357 -0.406060 -3.523041 -0.012728 -0.573108 -2.751505 1.987803 2.201922 -1.819367 -1.282952
eth_miim/input_RStat -1.196213 -2.081757 -1.999856 -0.046582 2.875703 -0.727227 -1.848914 -1.099644 2.866534 -3.402684 2.642990 0.052447 -0.720097 1.678620 0.808155 -3.292110 0.277911 -2.828513 1.153934 0.401249
eth_registers/assign_1_Write -0.692540 2.042902 0.583044 -0.859439 -1.367751 -4.813829 -0.633563 -1.990147 -0.087763 -0.363017 1.115438 0.504717 -0.373578 3.390624 0.458765 -1.441895 0.157710 0.068586 0.413356 4.163202
eth_rxstatem/reg_StateIdle -0.064062 1.604987 -0.319740 -0.025743 -1.584408 -1.181277 0.589259 -0.843191 0.721454 0.855009 -0.356058 -0.432092 -0.414775 -0.518035 -0.035495 0.321303 0.190589 0.443905 0.742072 1.172172
eth_top/wire_mdc_pad_o -1.751514 3.762688 5.505016 -0.871724 -3.783310 -3.910305 5.449794 2.069432 -5.569671 -0.571473 -1.172049 4.168048 0.437827 2.828626 2.564254 0.583145 2.693916 4.805886 -3.344737 -0.593327
eth_registers/assign_111_r_RStat -1.161862 -1.926411 -1.820881 -0.070637 2.682394 -0.989693 -1.693860 -1.092573 2.603194 -3.251802 2.518632 0.098832 -0.567459 1.816723 0.877887 -3.201401 0.389238 -2.742404 1.030918 0.660237
eth_wishbone/always_6/block_1/if_1/if_1/cond/expr_1 -0.071358 1.613219 -0.304504 0.013980 -1.585039 -1.221789 0.548147 -0.848983 0.704434 0.817784 -0.321749 -0.425926 -0.433556 -0.462203 -0.034709 0.278027 0.183117 0.437942 0.740799 1.224047
eth_txethmac/always_13/block_1/if_1/stmt_2/expr_1/expr_1/expr_1 -0.122718 1.584545 -0.215402 -0.018541 -1.548050 -1.259371 0.551241 -0.782824 0.593218 0.741476 -0.316102 -0.407678 -0.381059 -0.303393 -0.013460 0.207673 0.244979 0.476398 0.662900 1.271901
eth_txstatem/assign_6_StartPAD/expr_1/expr_1/expr_1 -0.094795 1.618139 -0.260679 0.008262 -1.588804 -1.280530 0.552773 -0.799590 0.645494 0.806423 -0.356331 -0.421963 -0.408818 -0.366183 -0.035859 0.263202 0.173042 0.466741 0.705625 1.242537
eth_txethmac/always_13/block_1/if_1 -0.116566 1.591677 -0.236109 -0.020056 -1.530642 -1.231948 0.548198 -0.808086 0.625815 0.726212 -0.298340 -0.391429 -0.414861 -0.365697 -0.013211 0.254525 0.202387 0.468393 0.700086 1.216934
eth_maccontrol/input_TxStartFrmIn -0.042552 1.638822 -0.286632 -0.027348 -1.646142 -1.243463 0.601597 -0.844092 0.668338 0.872365 -0.354054 -0.400681 -0.416023 -0.476740 -0.040964 0.328875 0.159796 0.486831 0.726514 1.228850
eth_txstatem/assign_7_StartFCS -0.050139 1.617155 -0.340681 -0.016487 -1.630470 -1.137692 0.613927 -0.849918 0.756965 0.853076 -0.406425 -0.435202 -0.431767 -0.565865 -0.020581 0.344480 0.152763 0.449516 0.762825 1.184492
eth_wishbone/always_1/block_1/stmt_1/expr_1/expr_1/expr_1 0.715578 0.927369 1.354566 -1.009328 -1.994633 0.506081 3.020525 -0.078766 -1.715719 1.797391 -1.672648 0.645109 1.408608 -0.679624 0.390902 1.410555 2.344185 1.133656 -1.244861 0.692115
eth_shiftreg/always_1 -2.137948 0.105030 0.952038 0.303338 0.429188 3.651085 -0.319052 -0.627051 2.155335 1.613752 -1.839488 -4.068020 -1.805129 -0.712905 0.306984 -0.807198 1.825590 -2.461647 -0.334919 0.440255
eth_shiftreg/wire_ShiftedBit -2.134706 0.051076 0.952206 0.337378 0.415661 3.791382 -0.307593 -0.647892 2.198947 1.707732 -1.999814 -4.173800 -1.787815 -0.813342 0.338336 -0.748194 1.909683 -2.617690 -0.278552 0.421279
check_ethernet/input_wb_we_i 1.088314 3.002932 1.712557 3.361616 -1.775887 -1.284149 1.172467 0.226739 -2.598286 1.720756 -0.686222 -0.676314 1.426534 -1.816154 0.721528 2.950077 -1.409979 2.174428 0.321117 1.629443
eth_miim/always_4/block_1/if_1/block_2/if_1/block_2/if_1/stmt_1 0.417286 0.446042 2.255962 -1.209717 -0.645442 2.000891 0.904935 1.998774 -1.446178 -2.693641 0.674075 1.419135 -2.377555 0.298878 -1.068940 -0.747656 0.294122 4.475205 -1.632406 -2.423287
eth_top/wire_temp_wb_err_o 0.035564 0.813922 2.896052 -3.241654 -1.338243 -2.703706 -0.276307 1.652807 -2.148824 2.844907 -1.539080 -0.210630 1.690967 2.231621 1.130868 1.626270 0.287754 1.022314 -1.341570 1.133827
eth_txstatem/assign_8_StartJam/expr_1 -0.083128 1.646629 -0.267166 -0.018823 -1.624016 -1.249925 0.562289 -0.796319 0.656051 0.848537 -0.335346 -0.388447 -0.419337 -0.440587 -0.037822 0.291003 0.184040 0.502202 0.752870 1.191943
eth_outputcontrol/always_1/block_1/if_1/block_2/if_1/block_1/stmt_1/expr_1/expr_1/expr_1 2.628580 0.573593 0.909758 -3.649877 -1.995889 0.045668 -0.077863 1.347780 -2.675250 -1.598621 1.273697 1.412582 -2.256887 1.009400 -1.364724 -1.312852 -0.154032 5.107426 -2.049929 0.591644
eth_miim/reg_WCtrlDataStart_q1 -1.287548 -0.357538 2.384906 -0.652146 0.882022 1.938632 0.617178 1.118266 0.085691 -2.933110 0.473602 -0.372263 -1.842443 1.439358 0.233325 -1.827906 2.120943 1.186225 -1.180221 -1.123176
eth_miim/reg_WCtrlDataStart_q2 0.112496 -1.246666 0.021300 -2.017105 0.626671 3.259208 0.217237 0.455152 1.404860 -4.300260 2.355777 1.505061 -3.670634 0.166354 -0.809927 -3.549953 0.590115 2.544386 -1.193574 -2.363819
eth_registers/wire_MIIMODER_Sel 1.016400 -3.366835 -1.013319 1.707426 5.562864 0.761046 -2.582023 0.653832 0.807835 -5.245502 1.997168 -1.185391 3.250250 1.168080 -1.260715 -0.568329 1.623457 -1.817632 0.974852 1.038547
eth_miim/wire_WriteDataOp -1.308437 -0.614612 2.188851 -0.738593 1.172961 2.129428 0.348283 1.144871 0.358778 -3.169506 0.586071 -0.420518 -1.926618 1.415705 0.198231 -2.003020 2.077136 0.952490 -1.129963 -1.228185
eth_top/reg_WillTransmit_q2 -0.081076 1.604120 -0.274412 -0.015268 -1.600796 -1.227341 0.605134 -0.826841 0.619921 0.807980 -0.365221 -0.420193 -0.404146 -0.385806 -0.033470 0.249219 0.219144 0.486266 0.678729 1.232728
eth_miim/always_8/block_1/if_1/block_1/if_1/block_1/if_1/block_1/if_1/stmt_2 3.125625 -1.559316 -1.251163 -6.256455 -1.831485 3.298633 -1.435877 -0.683920 0.174216 0.406303 0.351098 -1.800307 -2.987742 -0.262332 -1.059210 -3.306029 1.219125 1.429826 -2.134707 2.868813
eth_miim/always_8/block_1/if_1/block_1/if_1/block_1/if_1/block_1/if_1/stmt_1 -0.745716 -1.077982 -0.857312 -1.455521 0.328058 2.824529 -0.175303 -1.662455 2.547278 -0.165849 0.184631 -2.077911 -1.857943 -0.339580 0.306522 -2.761122 1.829612 -2.077937 -0.393103 1.299073
eth_txethmac/wire_StateJam -0.097305 1.580089 -0.276549 0.000798 -1.528058 -1.191366 0.520838 -0.783785 0.682485 0.783833 -0.306799 -0.417643 -0.438021 -0.440656 -0.010098 0.276915 0.158227 0.453209 0.728894 1.143954
eth_clockgen/wire_MdcEn_n -0.591801 -0.471922 2.864398 -0.971877 1.116960 0.297765 -0.694022 0.962557 -2.348362 0.156272 -1.756255 -2.320885 1.655640 3.182467 -1.368388 0.251955 1.905023 0.269314 -2.176889 1.487792
eth_outputcontrol/reg_Mdo_d -2.401986 -0.212328 3.138099 0.200325 1.141384 -1.275417 1.400028 -0.674926 -1.085271 1.764926 -2.422729 -3.299386 3.544791 2.996602 1.580259 0.450084 4.288429 -3.711788 -1.120544 3.844280
eth_txstatem/assign_5_StartData/expr_1 -0.071575 1.657120 -0.354058 0.015918 -1.599838 -1.204908 0.588656 -0.812696 0.679073 0.813497 -0.360451 -0.413597 -0.441054 -0.524165 -0.027399 0.337757 0.125631 0.447455 0.798918 1.161995
check_ethernet/always_1/if_1 1.130576 2.937326 1.731488 3.451443 -1.657349 -1.194551 1.222333 0.257461 -2.576930 1.687720 -0.716397 -0.704799 1.463725 -1.834722 0.721548 3.009259 -1.377729 2.138516 0.317912 1.575249
eth_top/wire_r_ScanStat -1.696569 -1.055098 -0.151100 -0.047024 1.697579 0.376944 -0.712434 -1.019934 1.990242 -1.066288 0.397174 -1.937559 -0.373470 1.326300 1.087251 -2.139181 1.926638 -3.099270 0.361861 1.505410
eth_miim/input_Mdi -1.533268 0.791356 1.826761 0.313533 -0.425883 1.951478 0.788977 -0.338491 -0.035662 1.767783 -1.916159 -2.711009 -0.510942 0.074466 0.290174 0.012946 1.927625 -1.138702 -0.963011 1.059373
eth_rxstatem/assign_1_StartIdle/expr_1/expr_1 -0.090523 1.669211 -0.287381 -0.019445 -1.635117 -1.240777 0.583112 -0.845051 0.686904 0.821690 -0.378257 -0.399802 -0.412534 -0.475765 -0.005565 0.310599 0.159164 0.484382 0.729418 1.228181
eth_rxstatem/always_1/block_1/if_1/block_2/if_1/cond -0.100856 1.637254 -0.230812 -0.022412 -1.563315 -1.222388 0.599112 -0.812736 0.564645 0.791107 -0.367375 -0.420745 -0.397236 -0.362941 -0.024524 0.280864 0.196717 0.492049 0.698777 1.218521
eth_rxstatem/assign_1_StartIdle/expr_1/expr_2 -0.100370 1.592558 -0.276018 -0.005482 -1.527039 -1.217768 0.571482 -0.760611 0.625287 0.796572 -0.341038 -0.378797 -0.390864 -0.422525 -0.030804 0.271309 0.170022 0.444906 0.697920 1.165073
eth_top/wire_wb_ack_o -0.156777 1.129889 3.473158 -1.873502 -1.996201 -1.779683 3.646559 0.684477 -4.139492 1.519798 -1.942044 1.235256 2.912350 2.358238 1.010643 1.338757 3.665059 1.630163 -2.774060 2.179709
eth_outputcontrol/always_2/block_1/if_1/block_2/if_1/block_1/stmt_3 -2.343650 -0.318214 3.086886 0.017104 1.096423 -1.355740 1.382495 -0.678775 -1.127263 1.802565 -2.406367 -3.178687 3.612077 3.010878 1.578329 0.408712 4.155235 -3.649737 -1.173610 3.860392
eth_outputcontrol/always_2/block_1/if_1/block_2/if_1/block_1/stmt_2 -2.410760 -0.361767 3.120939 0.187181 1.210273 -1.068643 1.513475 -0.730949 -1.040851 1.755892 -2.389533 -3.193463 3.691533 2.930470 1.575181 0.396304 4.337924 -3.782907 -1.201898 3.764459
eth_txstatem/always_1/block_1/if_1 -0.077332 1.556028 -0.250730 -0.004711 -1.546932 -1.177051 0.557677 -0.795028 0.635311 0.757485 -0.313455 -0.400707 -0.420699 -0.398854 -0.025730 0.259669 0.200171 0.435428 0.677290 1.167176
eth_miim/reg_WCtrlData_q3 0.202690 -1.309999 0.047763 -2.177678 0.538339 3.248573 0.237446 0.468845 1.314604 -4.283843 2.363426 1.478018 -3.647434 0.202516 -0.800689 -3.583130 0.678227 2.563298 -1.256969 -2.268979
eth_miim/reg_WCtrlData_q2 -1.234879 -0.583166 2.138835 -0.718966 1.021896 2.122776 0.393141 1.141316 0.331028 -2.861030 0.400533 -0.522693 -1.833151 1.285984 0.189779 -1.825563 2.069364 0.894309 -1.099153 -1.227323
eth_miim/reg_WCtrlData_q1 -1.589186 -1.064315 -0.223142 -0.120239 1.620417 0.382799 -0.715721 -0.950436 1.970289 -1.174104 0.504351 -1.777075 -0.475947 1.264001 1.021232 -2.128168 1.776334 -2.887701 0.349746 1.370152
eth_top/assign_11_temp_wb_dat_o/expr_1/expr_1/expr_1 2.267777 2.224647 1.889644 0.154428 -3.315104 -3.730291 1.280462 1.212279 -6.266199 2.395957 0.018514 2.197127 0.282273 1.710685 1.457731 1.318460 -0.078002 1.928373 -1.179263 2.788661
eth_top/assign_8_BDCs/expr_1/expr_1/expr_1/expr_1/expr_1 0.588134 -0.385503 -0.371895 -0.858102 -1.385816 3.124768 2.060707 -1.023539 0.958263 1.890827 -1.123494 0.251135 -0.228732 -2.542717 0.128787 0.403385 0.870489 -0.175086 -0.577945 -0.836411
eth_wishbone/always_77/block_1/if_1/if_1/cond 0.624098 -0.390970 -0.392915 -0.888315 -1.405933 3.218910 2.103264 -1.090254 0.988854 1.936045 -1.182688 0.269980 -0.217480 -2.603295 0.096720 0.420074 0.910075 -0.181918 -0.624262 -0.840674
eth_txethmac/always_13/block_1 -0.093606 1.581075 -0.287666 0.019292 -1.528087 -1.184516 0.540738 -0.799165 0.647396 0.776302 -0.341844 -0.375514 -0.414214 -0.436677 -0.012147 0.268030 0.160519 0.432720 0.704222 1.174087
eth_shiftreg/always_1/block_1/if_1/block_2/if_1 -2.165346 0.130335 1.008330 0.304728 0.375485 3.744030 -0.301288 -0.662162 2.166675 1.673473 -1.972923 -4.149790 -1.801871 -0.725320 0.339128 -0.764790 1.889916 -2.542488 -0.334593 0.438502
eth_registers/always_1/block_1/if_1 2.517103 2.055691 1.112469 0.278386 -2.285954 -4.458733 -0.585307 2.037548 -5.359480 0.804026 0.745332 0.791234 -0.287633 1.321016 0.910202 1.206112 -1.434092 2.771668 -0.107576 2.475431
eth_top/wire_RegCs 0.376248 0.125827 0.030619 0.516578 -0.810635 -0.215621 0.912480 -0.584778 -2.380416 0.616242 0.119426 0.820209 0.012594 0.445182 0.296951 -0.862120 0.040233 -0.177272 -0.964189 1.379638
eth_clockgen/reg_Mdc -1.862574 -0.325245 3.976626 -1.773201 -0.001196 -0.313050 0.118372 0.975269 -2.869261 -0.122089 -2.167473 0.486065 1.993987 3.387640 -0.032604 -1.044636 0.640020 0.626447 -3.700628 0.554633
eth_shiftreg/always_1/block_1/if_1/block_2/if_1/cond -2.191311 0.089950 1.015761 0.336395 0.385178 3.809924 -0.323626 -0.648714 2.218077 1.681125 -1.972506 -4.227613 -1.882914 -0.773839 0.327311 -0.791900 1.941385 -2.567945 -0.298342 0.402800
eth_shiftreg/always_1/block_1 -2.120775 0.182934 1.061389 0.294438 0.284281 3.659423 -0.248005 -0.636413 2.087945 1.775103 -2.014010 -4.148348 -1.758073 -0.766152 0.338736 -0.683085 1.915094 -2.476093 -0.345102 0.441624
eth_top/assign_2_RegCs/expr_1 0.715980 0.882659 1.299982 -1.012203 -1.955349 0.544137 2.933576 -0.105314 -1.686188 1.693314 -1.579848 0.654957 1.336005 -0.656294 0.346829 1.343591 2.334806 1.111936 -1.273750 0.711930
eth_wishbone/always_2/block_1/if_1/if_1 0.605657 -0.432822 -0.452710 -0.916552 -1.388356 3.298168 2.107671 -1.104312 1.085402 1.940977 -1.188362 0.219154 -0.225379 -2.649102 0.085411 0.379729 0.908677 -0.215604 -0.628923 -0.869285
eth_rxstatem/assign_2_StartPreamble -0.057296 1.632223 -0.325217 0.027291 -1.589592 -1.206856 0.541590 -0.802878 0.641055 0.823520 -0.371484 -0.398016 -0.403712 -0.510985 -0.005135 0.323232 0.132687 0.484280 0.756294 1.150709
eth_miim/inst_shftrg -2.203425 0.036889 0.947755 0.326631 0.507666 3.642530 -0.335829 -0.693924 2.200738 1.646069 -1.895898 -4.139763 -1.729414 -0.724919 0.352571 -0.749630 1.885981 -2.637561 -0.299504 0.446463
eth_miim/always_3/block_1/if_1/block_1/stmt_9 0.734608 -1.098642 -1.465965 -0.816547 0.512925 -0.005940 -0.399697 -0.464769 0.831561 -1.538608 1.477148 1.133812 -0.363416 -0.017645 -0.147518 -1.331749 -0.424300 0.024156 0.268208 -0.227636
eth_top/always_1/block_1/if_1/block_2/stmt_1 -0.211376 1.125557 3.465451 -1.839701 -1.957218 -1.893831 3.642765 0.645411 -4.105483 1.427898 -1.858873 1.229662 2.902665 2.469374 1.010376 1.282351 3.708162 1.606739 -2.727433 2.230356
eth_top/always_1/block_1/if_1/block_2/stmt_2 0.560700 2.434114 2.828074 0.462626 -2.241746 -4.433445 0.908958 2.062005 -5.856362 1.904631 -1.727978 0.390913 1.526642 2.959090 0.287446 1.804282 1.450058 1.174115 -1.204328 2.123071
eth_top/always_1/block_1/if_1/block_2/stmt_3 -0.028624 0.705512 2.942739 -3.338625 -1.211361 -2.657987 -0.356346 1.698214 -2.066732 2.743165 -1.457427 -0.205789 1.676535 2.289598 1.100932 1.564336 0.260140 1.043137 -1.372094 0.986685
eth_clockgen/always_2/block_1/if_1/block_1 -1.981118 -0.120325 3.148539 -1.686810 -0.629662 -1.514890 0.954407 0.419450 -2.426084 0.038974 -1.511812 2.056703 2.169604 2.714865 1.039022 -1.138932 0.041062 0.303979 -3.198439 0.278762
eth_txstatem/always_1/block_1/if_1/block_2/if_3/if_1/cond -0.078567 1.570324 -0.247714 0.011452 -1.553450 -1.233700 0.569621 -0.804940 0.643856 0.761958 -0.308458 -0.416471 -0.414531 -0.389659 -0.020747 0.276906 0.194304 0.467229 0.708515 1.215951
check_ethernet/input_wb_stb_i 1.063628 2.910759 1.750884 3.353503 -1.698727 -1.438481 1.179816 0.293456 -2.780079 1.652746 -0.714256 -0.641295 1.523086 -1.626233 0.674204 2.913903 -1.400135 2.130867 0.235144 1.695329
eth_txstatem/always_1/block_1/if_1/block_2/if_6 -0.069926 1.562005 -0.314742 -0.029868 -1.586298 -1.160458 0.596078 -0.783719 0.652990 0.797811 -0.364242 -0.424917 -0.417067 -0.439434 -0.044966 0.292211 0.170589 0.440766 0.739514 1.193749
eth_miim/assign_7_ByteSelect/expr_1/expr_1/expr_2 -2.168759 0.186211 1.040716 0.293018 0.295223 3.719820 -0.225611 -0.651253 2.066217 1.737538 -2.020716 -4.169475 -1.830914 -0.723181 0.366597 -0.728795 1.938812 -2.452230 -0.369045 0.451349
eth_miim/assign_7_ByteSelect/expr_1/expr_1/expr_1 -2.155631 0.107047 1.024124 0.254009 0.347137 3.720186 -0.267822 -0.641720 2.093493 1.738866 -2.006933 -4.183123 -1.771098 -0.727670 0.334556 -0.730191 1.981309 -2.527469 -0.388025 0.519542
eth_txethmac/wire_StateData -0.045547 1.561065 -0.305730 -0.004467 -1.552764 -1.138661 0.555213 -0.802521 0.687469 0.775862 -0.331148 -0.431379 -0.427469 -0.502871 -0.028688 0.284854 0.149763 0.432830 0.729603 1.138133
eth_txstatem/assign_4_StartData/expr_1/expr_2/expr_2 -0.071028 1.678051 -0.270117 -0.027244 -1.629124 -1.289546 0.601531 -0.846695 0.597966 0.823143 -0.370489 -0.405336 -0.412921 -0.396048 -0.042574 0.266662 0.226824 0.515018 0.724156 1.316051
eth_miim/wire_ShiftedBit -2.181628 0.071741 0.947695 0.283278 0.473103 3.725336 -0.326635 -0.674149 2.191621 1.629605 -1.913425 -4.175549 -1.837553 -0.700971 0.338312 -0.790682 1.914625 -2.598461 -0.327101 0.432408
eth_miim/assign_10_ByteSelect -2.174410 0.080618 0.992816 0.291683 0.426370 3.718698 -0.267949 -0.678476 2.143105 1.692529 -1.986019 -4.171685 -1.786922 -0.719285 0.364308 -0.776909 1.960062 -2.597568 -0.324539 0.488790
eth_miim/reg_SyncStatMdcEn -1.647221 -1.136233 -0.238603 -0.045199 1.780560 0.308983 -0.833156 -1.018900 2.033341 -1.091312 0.451824 -1.955721 -0.306469 1.312691 1.096660 -2.108156 1.840952 -3.176447 0.432361 1.506949
eth_top/assign_4_RegCs/expr_1/expr_1/expr_1 -0.023059 -1.397973 -1.288486 -2.089701 -0.961631 5.276472 1.759080 -2.559877 3.172443 1.626595 -0.846802 -1.548230 -1.752067 -2.654302 0.427656 -2.096893 2.515236 -2.130506 -0.856802 0.522674
eth_wishbone/always_2/block_1 0.626006 -0.459068 -0.488894 -0.888180 -1.391356 3.396589 2.101660 -1.073470 1.174028 2.016162 -1.190786 0.207957 -0.259778 -2.757375 0.085798 0.412728 0.847999 -0.247996 -0.551146 -0.970657
eth_top/assign_4_RegCs/expr_1/expr_1/expr_2 -0.736924 -0.902852 -1.037580 0.044594 1.083056 2.064279 -1.264138 -0.396680 2.587623 -0.122103 0.008681 -1.688424 -1.387221 -0.930531 0.026143 -0.858104 -0.038839 -1.796094 0.793880 -0.806445
eth_top/assign_7_BDCs 0.706773 0.882360 1.323991 -1.049374 -1.943025 0.360159 2.938291 -0.110273 -1.751971 1.619918 -1.523094 0.666776 1.319803 -0.516819 0.358608 1.287543 2.334592 1.124564 -1.268837 0.813086
eth_clockgen/wire_CounterPreset -0.481907 2.257112 1.345652 2.250223 1.169099 -1.949457 0.870114 -0.704896 -1.665265 -3.074299 2.768068 -0.744062 -0.398497 3.197491 -0.880707 -1.346914 3.324508 1.594302 -0.331404 4.187475
eth_rxstatem/always_1/block_1/if_1/block_2/if_3/if_1/cond -0.114875 1.574239 -0.300299 -0.020005 -1.532382 -1.127112 0.567091 -0.778033 0.697765 0.771440 -0.353634 -0.422271 -0.452641 -0.424320 -0.043276 0.278011 0.173775 0.439501 0.708179 1.151126
check_ethernet/always_1/if_1/if_1 1.145154 3.021260 1.649107 3.476002 -1.778698 -1.430844 1.193452 0.286503 -2.694046 1.762118 -0.723533 -0.685393 1.493236 -1.851944 0.702264 2.996951 -1.532893 2.214460 0.342471 1.613629
eth_shiftreg/input_MdcEn_n -2.186532 0.182065 1.096182 0.366838 0.319882 3.745887 -0.225730 -0.663212 2.053261 1.878920 -2.065056 -4.264755 -1.776449 -0.773300 0.344410 -0.639813 1.970305 -2.528126 -0.356902 0.504390
eth_miim/always_7/block_1/if_1/block_2/if_1/cond 1.615451 0.177451 0.306051 -3.765828 -1.851241 1.770048 0.180590 -0.245927 -0.723921 -0.768198 0.894200 -0.388766 -2.916948 0.495003 -0.816713 -2.636507 1.312233 2.786714 -2.017996 1.786711
eth_rxstatem/reg_StateData0 -0.091075 1.598359 -0.289260 -0.010427 -1.556596 -1.139050 0.576773 -0.786704 0.709519 0.790646 -0.366311 -0.407281 -0.409978 -0.492577 -0.024819 0.267116 0.161371 0.443169 0.714579 1.150610
eth_miim/always_1 0.508222 0.398162 2.291980 -1.289064 -0.701345 2.103744 0.950662 2.018652 -1.435486 -2.537700 0.577250 1.410668 -2.363565 0.211970 -1.071627 -0.687912 0.350660 4.442437 -1.698149 -2.486665
eth_miim/input_ScanStat -1.596561 -0.987366 -0.166595 -0.141253 1.566337 0.288059 -0.699503 -0.985520 1.871120 -1.159580 0.512169 -1.780203 -0.454556 1.328443 1.063774 -2.178391 1.851760 -2.865810 0.276477 1.479157
eth_miim/always_3 -1.342909 -0.504868 2.232621 -0.637701 1.116524 2.117607 0.447493 1.178550 0.336159 -3.117299 0.539026 -0.417922 -1.939302 1.339230 0.189277 -1.915380 2.014945 1.074071 -1.097605 -1.353581
eth_miim/always_4 -1.262517 -0.328773 2.415184 -0.702321 0.828340 1.950976 0.609177 1.203831 0.023468 -2.850451 0.407884 -0.378144 -1.832651 1.405686 0.220027 -1.782629 2.071768 1.202809 -1.204889 -1.129127
eth_miim/always_6 -0.310720 -0.624422 0.815962 -1.715189 0.684015 0.539426 -0.512371 0.489747 0.111388 -2.618115 1.345282 -0.201323 -1.795874 1.767068 0.243571 -2.480071 1.338159 0.808864 -0.963095 0.330057
eth_miim/always_7 0.825366 -0.095581 0.840997 -2.553141 -0.415304 -0.028839 -0.384617 0.544638 -0.983844 -1.531843 0.946112 -0.262666 -1.494019 1.691430 -0.112515 -1.887043 1.304894 1.693519 -1.281002 1.489273
eth_maccontrol/assign_4_TxStartFrmOut/expr_1/expr_1 -0.071776 1.586205 -0.314830 0.009895 -1.600064 -1.137871 0.552500 -0.810852 0.682584 0.827760 -0.359017 -0.419227 -0.427337 -0.523857 -0.039170 0.293973 0.185299 0.435330 0.773063 1.159678
eth_top/input_wb_dat_i 1.136223 2.989632 1.739637 3.499788 -1.697536 -1.404949 1.145738 0.328148 -2.716139 1.707915 -0.675102 -0.684160 1.541239 -1.788437 0.779211 3.116406 -1.433822 2.153433 0.386603 1.621408
eth_top/assign_12_temp_wb_err_o/expr_1/expr_2/expr_1 0.536803 -0.283744 0.444587 -2.252344 -1.956531 -0.771109 -0.199923 -0.146582 -0.589338 2.713705 -0.224758 0.799882 -0.400856 0.620915 0.234860 0.193976 -2.114865 0.535256 -0.908623 0.660125
eth_top/assign_4_RegCs/expr_1/expr_1/expr_1/expr_1 -0.086030 -1.381432 -1.259897 -2.086971 -0.947216 5.495901 1.749236 -2.508121 3.277612 1.656264 -0.919750 -1.613015 -1.852823 -2.731514 0.425923 -2.101005 2.473538 -2.140607 -0.841896 0.390505
eth_shiftreg/input_ByteSelect -2.107375 0.129155 1.004158 0.301399 0.358786 3.715090 -0.287848 -0.633319 2.112519 1.689089 -1.946382 -4.132916 -1.844778 -0.773955 0.331253 -0.736498 1.886853 -2.484448 -0.358605 0.443225
eth_wishbone/always_6/block_1/if_1/if_1/cond -0.073098 1.614092 -0.264968 -0.005600 -1.547634 -1.187499 0.556581 -0.794698 0.650227 0.801271 -0.339714 -0.401583 -0.441261 -0.429842 -0.009157 0.247826 0.185584 0.430902 0.730880 1.207063
check_ethernet/input_wb_cyc_i 1.135549 3.053484 1.746333 3.456756 -1.814080 -1.272191 1.257698 0.281485 -2.721586 1.819814 -0.849352 -0.743355 1.501592 -1.913391 0.718899 3.071022 -1.371364 2.224916 0.300106 1.591996
eth_top/assign_2_RegCs/expr_1/expr_1 0.737496 0.895951 1.220842 -0.992375 -1.984891 0.509351 2.900958 -0.111484 -1.623234 1.738030 -1.595482 0.644592 1.313005 -0.708492 0.370602 1.362997 2.281231 1.093766 -1.169581 0.658751
eth_top/assign_6_BDCs/expr_1/expr_1/expr_1/expr_1 0.731506 0.791927 1.231356 -1.101849 -1.945476 0.816469 2.982708 -0.158060 -1.487927 1.764072 -1.649822 0.578247 1.257699 -0.820884 0.328951 1.305825 2.368248 1.007983 -1.258898 0.572530
eth_wishbone/always_26/block_1/if_1 -0.053914 1.589027 -0.362132 0.049939 -1.517390 -1.115689 0.532228 -0.790604 0.719804 0.829488 -0.351489 -0.420706 -0.433449 -0.562349 -0.016012 0.338110 0.114778 0.433658 0.781618 1.067517
eth_top/assign_12_temp_wb_err_o/expr_1/expr_1 0.454996 -0.233818 0.672608 -2.189443 -1.951617 -0.883806 -0.122739 -0.064279 -0.693353 2.920794 -0.473690 0.686321 -0.110524 0.680812 0.300646 0.479692 -1.981871 0.443396 -0.942483 0.791304
eth_top/assign_22_Transmitting -0.110065 1.665616 -0.296227 -0.045382 -1.600687 -1.247192 0.594096 -0.861964 0.691686 0.788337 -0.321583 -0.435677 -0.467249 -0.438183 -0.011069 0.231442 0.251586 0.439906 0.734658 1.282151
eth_txstatem/assign_4_StartData/expr_1/expr_2/expr_1 -0.079771 1.631980 -0.308213 -0.010317 -1.599173 -1.254423 0.581613 -0.793882 0.648071 0.784021 -0.355903 -0.421713 -0.448610 -0.464781 -0.005529 0.281978 0.170982 0.448747 0.762626 1.181779
eth_txstatem/reg_StatePAD -0.077235 1.558250 -0.269108 0.004383 -1.528397 -1.166305 0.539759 -0.819786 0.686785 0.782829 -0.307786 -0.445868 -0.416584 -0.416400 -0.024864 0.245630 0.207096 0.416306 0.733705 1.195336
eth_txstatem/assign_5_StartData -0.075577 1.578513 -0.326961 -0.018309 -1.579452 -1.115852 0.553481 -0.800184 0.736170 0.800298 -0.342047 -0.429329 -0.444430 -0.517435 -0.029017 0.260920 0.153096 0.425842 0.750040 1.140486
eth_top/assign_6_BDCs/expr_1 0.695514 0.900907 1.300396 -0.979420 -1.920356 0.466947 2.906955 -0.075945 -1.701573 1.745846 -1.590206 0.605699 1.390229 -0.669884 0.376567 1.389566 2.289602 1.095950 -1.203215 0.679437
eth_shiftreg/always_1/block_1/if_1/block_2/if_1/block_1/if_1/block_1/case_1/cond -0.725689 -0.885396 -1.008536 0.026379 1.053255 2.056461 -1.227505 -0.403512 2.533729 -0.130617 -0.042889 -1.681112 -1.377623 -0.927226 0.050436 -0.848718 -0.042059 -1.777474 0.752499 -0.773701
eth_wishbone/always_6/block_1/if_1 -0.070783 1.583722 -0.215644 -0.006247 -1.562045 -1.203538 0.579912 -0.778225 0.616022 0.796881 -0.319358 -0.400176 -0.409365 -0.375682 -0.021237 0.245168 0.229880 0.462669 0.669169 1.189564
eth_miim/always_3/block_1/if_1/block_2/stmt_5 -1.217389 -2.097798 -1.942318 0.036691 2.882725 -0.890275 -1.864293 -1.095988 2.813684 -3.292710 2.541973 -0.002332 -0.536047 1.754267 0.870137 -3.171888 0.330481 -2.952236 1.151994 0.518571
eth_top/input_md_pad_i -1.559906 0.837522 1.870405 0.342102 -0.425286 1.949689 0.817357 -0.341781 -0.091663 1.743516 -1.933242 -2.657165 -0.508738 0.081571 0.317402 0.009836 1.963329 -1.074925 -0.990817 1.119391
eth_txstatem/assign_3_StartPreamble/expr_1 -0.110072 1.616986 -0.327231 0.007069 -1.560896 -1.250983 0.581336 -0.843788 0.684913 0.816920 -0.352997 -0.404935 -0.421380 -0.430769 -0.017104 0.254793 0.180360 0.452589 0.752808 1.233981
eth_wishbone/always_4/block_1 0.599110 -0.427860 -0.469577 -0.841232 -1.305981 3.262200 1.980034 -1.066319 1.144124 1.870076 -1.110593 0.199763 -0.305955 -2.659966 0.078270 0.376596 0.851244 -0.245085 -0.519378 -0.915648
eth_top/always_1/block_1/if_1/block_2/stmt_1/expr_1 1.149896 1.365537 3.203369 -2.931928 -2.899275 -1.917743 4.524735 0.949838 -4.202778 1.286442 -2.050802 1.950126 2.051141 1.098260 1.267839 2.089408 4.019677 3.169004 -2.585944 1.353275
eth_wishbone/reg_TxStartFrm_wb -0.061605 1.614875 -0.289870 0.012036 -1.565044 -1.200663 0.564042 -0.816401 0.653769 0.824046 -0.355579 -0.378679 -0.398223 -0.485675 -0.032965 0.317939 0.164184 0.448775 0.731702 1.198022
eth_shiftreg/always_1/block_1/if_1/block_2/if_1/block_1/if_1/cond -2.186084 0.086747 1.024009 0.344357 0.421951 3.724462 -0.260921 -0.674679 2.163186 1.697530 -1.983400 -4.211401 -1.744555 -0.716163 0.370214 -0.742778 1.937891 -2.613458 -0.308078 0.493817
eth_miim/always_1/block_1/if_1 0.449633 0.393734 2.244256 -1.284481 -0.655861 2.046092 0.926474 1.962858 -1.448355 -2.656567 0.614760 1.397764 -2.387230 0.311040 -1.060043 -0.778309 0.301157 4.433343 -1.660480 -2.432692
eth_clockgen/always_1/block_1/if_1/block_1/if_1/block_1 -0.499425 2.161544 1.302695 2.274779 1.288323 -1.509224 0.796809 -0.667311 -1.379221 -2.915362 2.556999 -1.062970 -0.441887 2.966780 -0.897456 -1.256265 3.454725 1.368165 -0.260490 4.096467
eth_shiftreg/always_1/block_1/if_1/block_2/if_1/block_1 -2.117597 0.056742 0.902358 0.274796 0.454538 3.634722 -0.333262 -0.672854 2.131916 1.610840 -1.845885 -4.046593 -1.796009 -0.708071 0.354856 -0.786578 1.865616 -2.510139 -0.299930 0.424693
eth_miim/always_4/block_1 -1.200506 -0.586504 2.285419 -0.898493 0.971644 2.195661 0.492273 1.178736 0.155228 -2.995011 0.459015 -0.365513 -1.902034 1.323927 0.120750 -1.929332 2.125265 1.192160 -1.225499 -1.263493
eth_clockgen/always_1/block_1/if_1/block_1/if_1/stmt_1 -0.729397 -0.512475 2.377967 -2.473555 -0.293007 -1.677667 1.231211 -0.234461 -2.681682 -1.042604 -0.396718 1.785849 1.720052 3.372941 1.583631 -1.813968 1.824546 0.311156 -2.895206 2.289674
eth_top/always_1/block_1/if_1/block_2/stmt_3/expr_1 0.001441 0.660160 3.014854 -3.457622 -1.272531 -2.765918 -0.336352 1.789210 -2.218441 2.869906 -1.575976 -0.142674 1.757897 2.404046 1.150249 1.620485 0.284113 1.049493 -1.485246 1.007009
eth_wishbone/reg_WB_ACK_O 0.739956 0.868373 1.254429 -1.001817 -1.942122 0.535432 2.923008 -0.095564 -1.615620 1.715362 -1.587162 0.661304 1.352137 -0.708405 0.368052 1.358915 2.271631 1.093462 -1.221360 0.618895
eth_transmitcontrol/always_1/block_1/if_1/if_1 -0.099267 1.655737 -0.270817 -0.032698 -1.611340 -1.253881 0.584464 -0.832218 0.614669 0.766060 -0.347119 -0.423663 -0.396361 -0.379133 -0.016287 0.239027 0.195136 0.464980 0.709774 1.239982
eth_top/assign_9_BDCs/expr_1/expr_1/expr_1/expr_1/expr_1 0.657116 -0.345980 -0.404872 -0.890178 -1.477595 3.269921 2.182653 -1.069953 1.000176 1.995747 -1.186196 0.265637 -0.197661 -2.680585 0.112784 0.425761 0.930485 -0.161669 -0.614035 -0.882679
eth_outputcontrol/always_2/block_1/if_1/block_2/if_1/block_1/stmt_1 -2.401781 -0.079071 3.039066 0.258141 1.028073 -1.396359 1.418481 -0.641768 -1.008962 1.879841 -2.469819 -3.364669 3.534827 2.822393 1.528388 0.586987 4.147168 -3.614395 -1.011511 3.794585
eth_miim/always_7/block_1/if_1/block_2/if_1/block_1/if_1/cond -0.417767 -0.742691 0.854120 -1.603925 0.873333 0.706993 -0.535000 0.582302 0.257192 -2.719789 1.251585 -0.227563 -1.723344 1.705650 0.258418 -2.410368 1.358060 0.634282 -0.897879 0.130501
eth_outputcontrol/assign_1_SerialEn/expr_1/expr_2/expr_2 1.268672 -1.495469 -2.206081 -1.778481 0.263554 -0.427246 -0.149135 -1.139184 0.991536 -2.078334 2.284988 1.819229 -0.361402 0.239063 -0.071252 -2.315021 -0.127823 0.085915 0.075312 0.659266
eth_top/inst_miim1 -1.187933 1.761209 3.214387 -0.625867 -0.507843 -1.584876 1.019836 1.386978 -2.813134 0.063137 -1.638421 -1.012241 1.003927 2.948467 0.352554 0.806819 2.484394 1.747630 -1.666127 1.386753
eth_outputcontrol/assign_1_SerialEn/expr_1/expr_2/expr_1 1.268411 -1.470727 -2.175226 -1.758699 0.299367 -0.450152 -0.168447 -1.138933 0.947758 -2.076882 2.262407 1.869828 -0.281583 0.254021 -0.077920 -2.317853 -0.066991 0.102131 0.032431 0.675782
eth_txethmac/always_13/block_1/if_1/stmt_2/expr_1 -0.082878 1.582256 -0.263500 -0.011513 -1.549792 -1.221594 0.578262 -0.833259 0.636581 0.784654 -0.322797 -0.403344 -0.425988 -0.387556 -0.037402 0.216673 0.208484 0.424797 0.736411 1.252263
eth_wishbone/always_30 -0.096200 1.589735 -0.319536 0.005817 -1.554251 -1.186048 0.555567 -0.829027 0.680734 0.787133 -0.320870 -0.431739 -0.425926 -0.427827 -0.007477 0.255740 0.176667 0.464158 0.733516 1.175671
eth_rxstatem/wire_StartSFD -0.072192 1.587676 -0.287269 -0.032844 -1.567885 -1.227238 0.570360 -0.820160 0.635606 0.785608 -0.353796 -0.397882 -0.401656 -0.422172 -0.013554 0.256433 0.202716 0.441841 0.713724 1.211044
eth_txstatem/always_1/block_1/if_1/block_2/stmt_1 -0.081961 1.646446 -0.309062 -0.023961 -1.637051 -1.217343 0.587678 -0.825340 0.679708 0.816294 -0.348443 -0.418906 -0.457186 -0.497731 -0.052711 0.320236 0.195874 0.468519 0.740138 1.186124
eth_miim/always_6/block_1/if_1/block_2/if_1/block_1 -1.280008 -0.531901 2.153473 -0.736020 1.036022 2.114125 0.467022 1.065883 0.335728 -3.048597 0.555684 -0.442892 -1.954612 1.365968 0.167093 -2.009864 2.081819 1.061390 -1.113423 -1.174532
eth_wishbone/always_6/block_1 -0.084694 1.658682 -0.280382 -0.055862 -1.627662 -1.213783 0.602817 -0.832536 0.682507 0.781064 -0.367980 -0.420709 -0.450511 -0.436749 -0.026340 0.222381 0.240301 0.457470 0.722449 1.259534
eth_registers/assign_110_r_WCtrlData -1.622048 -0.988238 -0.193128 -0.043966 1.592772 0.253578 -0.712629 -0.991275 1.826700 -1.030778 0.422933 -1.849092 -0.293248 1.320946 1.065232 -2.046665 1.803341 -2.962630 0.352793 1.508147
eth_wishbone/always_1/block_1/stmt_1/expr_1/expr_1/expr_1/expr_1 0.757285 0.952178 1.371371 -1.127367 -2.084621 0.510308 3.064915 -0.074032 -1.756197 1.788047 -1.663618 0.661800 1.374671 -0.652157 0.389680 1.389398 2.423342 1.193746 -1.303394 0.775969
eth_top/assign_7_BDCs/expr_1/expr_1/expr_1/expr_1 0.754175 0.838920 1.220784 -1.048490 -1.972476 0.616510 2.975752 -0.146124 -1.566947 1.708191 -1.559372 0.639198 1.288494 -0.741849 0.337593 1.312438 2.336845 1.070577 -1.201963 0.690775
eth_top/assign_8_BDCs/expr_1 0.705005 0.896387 1.286155 -1.052659 -2.002840 0.526252 2.990571 -0.107800 -1.644130 1.720014 -1.625359 0.634906 1.347194 -0.686377 0.367028 1.381152 2.342160 1.117491 -1.236983 0.721492
eth_miim/always_8/block_1/if_1 0.915555 -1.694845 0.538524 -3.561436 0.357528 -1.033688 -0.470527 -0.085205 -0.903035 1.403735 -1.109086 -1.472682 2.533578 2.161736 0.271942 0.102112 2.324647 -1.607000 -1.126154 2.802442
eth_top/assign_15_wb_err_o 0.038685 0.719205 3.019550 -3.322984 -1.239167 -2.715626 -0.354778 1.783704 -2.194933 2.936419 -1.614875 -0.228086 1.841737 2.275496 1.147462 1.742689 0.265695 0.978149 -1.361281 1.027178
eth_shiftreg/always_1/block_1/if_1/block_2/if_1/block_1/if_1/block_1/case_1 -0.751525 -0.871833 -1.002381 0.067023 1.027025 2.011421 -1.221870 -0.387461 2.532650 -0.096459 -0.040971 -1.627724 -1.296743 -0.902185 0.043755 -0.828453 -0.032114 -1.758787 0.751316 -0.784784
eth_top/wire_temp_wb_dat_o 2.448666 2.281180 2.090471 -0.040751 -3.457432 -3.765807 1.333925 1.338946 -6.461231 2.467833 -0.002376 2.266161 0.273417 1.763200 1.534611 1.449561 -0.015962 2.185935 -1.291464 2.874025
eth_wishbone/always_4 0.613376 -0.414781 -0.427272 -0.890034 -1.394852 3.325261 2.104758 -1.072270 1.109344 1.979216 -1.164055 0.231050 -0.234245 -2.688791 0.114405 0.405700 0.939684 -0.229757 -0.599720 -0.900285
eth_wishbone/always_6 -0.075788 1.613721 -0.277612 0.018703 -1.587465 -1.213588 0.561952 -0.787634 0.676930 0.820426 -0.354491 -0.386849 -0.392031 -0.434977 -0.045386 0.313609 0.185525 0.470569 0.749191 1.191015
eth_wishbone/always_1 0.695936 0.829338 1.265818 -1.066662 -1.934823 0.597020 2.951871 -0.116295 -1.604414 1.732042 -1.613404 0.587812 1.305982 -0.732598 0.353987 1.318311 2.363596 1.061566 -1.249827 0.617134
eth_txstatem/always_1 -0.082885 1.577349 -0.285042 -0.025285 -1.522944 -1.171053 0.562560 -0.804642 0.714589 0.764860 -0.331210 -0.410385 -0.422329 -0.413509 -0.003335 0.220760 0.193268 0.436173 0.711411 1.178233
eth_top/wire_ByteSelected 2.276893 1.121690 2.403124 -1.736759 -3.796801 -3.903540 0.504211 1.227150 -5.904394 4.498550 -0.236061 2.374206 0.560022 2.169106 2.039515 1.591864 -2.011549 1.488849 -1.831847 2.976686
eth_wishbone/always_2 0.596323 -0.419998 -0.395667 -0.892862 -1.414115 3.214262 2.071268 -1.074930 1.005926 1.963090 -1.159940 0.273317 -0.204271 -2.584474 0.117057 0.378617 0.888540 -0.192926 -0.610668 -0.846755
eth_registers/assign_41_MIICOMMAND_Wr/expr_1 -1.673313 -0.992842 -0.120011 -0.003628 1.654833 0.199353 -0.700228 -0.953350 1.827419 -1.046223 0.371577 -1.879154 -0.308051 1.350998 1.119104 -2.035614 1.876889 -3.034603 0.334043 1.503118
eth_top/assign_3_RegCs/expr_1/expr_1 0.708970 0.881317 1.310016 -1.006037 -1.955976 0.496824 2.980122 -0.055819 -1.707225 1.697791 -1.601528 0.679369 1.373210 -0.667834 0.351388 1.354096 2.308090 1.122630 -1.236108 0.685915
eth_registers/wire_MIIMODEROut -2.907888 0.555683 2.791331 -0.054724 1.944255 -1.290957 1.842422 -1.056565 -1.540699 -4.620385 2.996068 1.896904 -0.235005 5.501668 -1.110343 -4.130217 2.973228 1.780121 -3.210695 2.151771
eth_miim/wire_MdoEn 3.741524 -0.426196 -0.700568 -4.952823 -2.077730 -0.714995 0.279765 0.339648 -2.254144 -2.870019 2.865241 3.160729 -1.962283 1.168896 -1.171892 -2.785702 0.051106 5.120478 -2.033099 1.390628
eth_outputcontrol/always_1/block_1/if_1/block_2/if_1/cond 3.680173 -0.389215 -0.692014 -4.887588 -2.026531 -0.784506 0.220597 0.304521 -2.193612 -2.841196 2.868433 3.071945 -1.920504 1.227553 -1.155974 -2.809657 0.019592 5.022949 -1.996459 1.494006
eth_top/assign_12_temp_wb_err_o/expr_1/expr_2 0.425055 -0.310875 0.590866 -2.159315 -1.861862 -0.796697 -0.196244 -0.100805 -0.601116 2.862814 -0.428721 0.657259 -0.137615 0.640927 0.247999 0.398369 -1.980027 0.381227 -0.916882 0.693891
eth_register/input_SyncReset -7.046403 3.182928 0.990187 1.860441 -0.660246 -6.317288 -0.566637 -2.088181 1.752105 0.754677 3.502567 3.582961 -6.620230 6.815256 4.524096 -4.091866 -0.473973 -4.692554 1.340721 -0.612461
eth_outputcontrol/wire_SerialEn -0.203902 -1.225641 0.597288 -1.582748 0.467073 -4.149910 1.553001 -1.158711 -1.481860 0.594130 -0.478739 0.493799 4.818176 3.159086 1.401071 -0.003166 2.695037 -2.416108 -0.580940 3.653016
eth_register/always_1/block_1/if_1 -1.057755 2.293447 -1.720877 1.524705 -1.268265 -4.883276 -0.039059 -1.332770 -1.677059 -0.698114 0.592780 -1.707507 -0.243151 0.821381 -1.471447 -2.418916 -2.321564 1.297451 0.338659 3.859064
eth_shiftreg/always_1/block_1/if_1/block_2/if_1/block_1/if_1/block_2 -2.216372 -0.017797 0.844860 0.332098 0.573560 3.766128 -0.425629 -0.704741 2.308151 1.539980 -1.839209 -4.146108 -1.822858 -0.723579 0.328346 -0.877538 1.878451 -2.684529 -0.262383 0.364709
eth_shiftreg/always_1/block_1/if_1/block_2/if_1/block_1/if_1/block_1 -0.698290 -0.882193 -0.999682 0.074652 1.051749 1.963003 -1.203453 -0.407603 2.482601 -0.137974 -0.028780 -1.626171 -1.298122 -0.885753 0.027276 -0.829525 -0.080198 -1.715600 0.777446 -0.765619
eth_top/assign_11_temp_wb_dat_o/expr_1/expr_1/expr_2 2.449895 2.294092 2.012047 0.000423 -3.522359 -3.823486 1.427620 1.326383 -6.557230 2.481813 -0.027699 2.275743 0.359138 1.716680 1.472709 1.461271 0.012370 2.256356 -1.245457 2.942275
eth_miim/assign_3_ScanStatusOp/expr_1 -1.724900 -1.158653 -0.259104 0.011106 1.797721 0.475642 -0.812041 -0.993559 2.095350 -1.073191 0.401940 -1.978025 -0.384132 1.268781 1.041272 -2.113862 1.817672 -3.201545 0.415660 1.382875
eth_wishbone/always_1/block_1/stmt_1/expr_1/expr_2 0.729374 0.856929 1.238388 -1.037559 -1.948666 0.588820 2.920268 -0.093724 -1.560617 1.712705 -1.617689 0.603470 1.308936 -0.720433 0.357183 1.322030 2.326086 1.078495 -1.239698 0.636794
eth_wishbone/always_1/block_1/stmt_1/expr_1/expr_1 0.728193 0.910757 1.291419 -1.042006 -2.021389 0.520013 3.021106 -0.101058 -1.660483 1.760907 -1.662805 0.650169 1.348936 -0.743066 0.393946 1.418704 2.353006 1.093851 -1.213274 0.683978
eth_rxstatem/always_1/block_1/if_1/block_2/if_1/cond/expr_1 -0.100222 1.650299 -0.293293 -0.022593 -1.571713 -1.232160 0.551573 -0.834109 0.670939 0.787869 -0.330485 -0.449136 -0.413717 -0.428000 -0.006077 0.274916 0.178017 0.451323 0.736680 1.216948
eth_top/wire_md_pad_o -0.587165 1.556271 3.083175 -0.218886 -0.427156 -0.623482 0.536145 0.743564 -2.888256 0.825149 -1.407830 -1.273218 0.797176 2.979275 -0.520939 0.870943 2.358325 1.372060 -1.477464 2.543551
eth_outputcontrol/always_2/block_1/if_1/block_2/if_1/block_1 -2.364518 -0.329097 2.892184 0.186194 1.179254 -0.956311 1.341748 -0.826107 -0.769150 1.867553 -2.446548 -3.492009 3.487015 2.671844 1.569480 0.387720 4.204173 -3.913660 -1.021771 3.830041
eth_txstatem/assign_6_StartPAD -0.102653 1.623747 -0.305995 0.015737 -1.559471 -1.211692 0.573472 -0.804946 0.635381 0.818321 -0.346089 -0.402724 -0.417034 -0.416401 -0.018359 0.270208 0.170366 0.454829 0.738130 1.179603
check_ethernet/always_1/if_1/cond 1.423481 2.285422 2.336823 1.420281 -2.104324 0.184977 0.862524 0.888882 -2.296309 1.727115 -1.045479 -0.383733 0.442234 -1.767455 0.977639 2.710179 -0.977147 2.657281 -0.299201 0.341115
eth_miim/always_7/block_1/if_1/block_2/if_1 0.814774 -0.199380 0.969664 -2.693602 -0.383865 0.081630 -0.456694 0.610325 -1.019485 -1.603472 0.847147 -0.414492 -1.489190 1.773982 -0.129125 -1.919457 1.420943 1.653538 -1.346904 1.495178
eth_rxstatem/assign_2_StartPreamble/expr_1/expr_2 -0.057569 1.601363 -0.315796 -0.027720 -1.609329 -1.149340 0.587625 -0.841770 0.690944 0.818128 -0.379648 -0.429380 -0.436098 -0.482286 -0.024487 0.304940 0.175770 0.474283 0.738590 1.192177
eth_top/assign_1_ByteSelected 2.327717 0.991075 2.506681 -1.854577 -3.756943 -3.691605 0.551229 1.220736 -5.997022 4.429355 -0.186544 2.326532 0.553721 2.259638 2.056764 1.479160 -1.994459 1.569142 -2.054433 3.051249
eth_registers/assign_13_MIICOMMAND_Sel -0.996974 -0.163378 0.576608 1.448867 1.546203 -2.452597 -0.660584 0.586884 -0.409041 -0.887514 0.240711 0.035754 1.646569 1.678972 0.836878 0.615236 0.066792 -1.315849 0.817047 0.226044
eth_transmitcontrol -0.093359 1.597487 -0.322974 0.011700 -1.538063 -1.172827 0.554936 -0.801287 0.699401 0.766853 -0.321870 -0.404579 -0.458739 -0.457272 -0.014664 0.272872 0.168731 0.439653 0.740917 1.177473
eth_wishbone/always_2/block_1/if_1/if_1/cond/expr_1 0.629170 -0.424798 -0.467733 -0.874602 -1.412020 3.239947 2.046092 -1.040045 1.041647 1.963891 -1.182385 0.245799 -0.239076 -2.685142 0.074733 0.445863 0.875501 -0.178575 -0.559888 -0.912442
eth_miim/always_1/block_1/if_1/block_1/stmt_1 0.459140 0.396806 2.197110 -1.221308 -0.642961 2.101741 0.991334 1.977433 -1.341702 -2.681787 0.647013 1.467991 -2.431286 0.178634 -1.059708 -0.728982 0.275556 4.484274 -1.638385 -2.587547
eth_outputcontrol/always_2/block_1/if_1/block_2/if_1/block_1/stmt_1/expr_1 -2.329648 -0.335644 3.144778 0.155654 1.133519 -1.174217 1.500477 -0.696793 -1.137815 1.938875 -2.522936 -3.323908 3.748233 2.844739 1.651430 0.521867 4.327299 -3.825805 -1.178597 3.892522
eth_clockgen/always_1/block_1/if_1/block_1/if_1 -0.846522 -0.165883 2.340807 -2.273589 -0.465819 -1.950684 1.281832 -0.270840 -2.675757 -0.946489 -0.391644 1.766894 1.585068 3.303054 1.573271 -1.691794 1.758134 0.464504 -2.694999 2.348263
eth_miim/wire_MdcEn 1.618236 0.243492 0.316377 -3.681841 -1.855721 1.807688 0.215920 -0.188255 -0.747208 -0.720371 0.826036 -0.407395 -2.927535 0.396313 -0.772562 -2.522488 1.304356 2.769037 -1.962687 1.723903
eth_top/assign_22_Transmitting/expr_1 -0.051476 1.630258 -0.251359 0.002059 -1.575173 -1.234904 0.570752 -0.786160 0.643447 0.806629 -0.373895 -0.414662 -0.392823 -0.464228 -0.031578 0.316678 0.136998 0.490564 0.761586 1.173349
eth_clockgen/reg_Counter -0.693740 0.593997 2.291030 -0.366177 -0.374733 -1.348444 0.731980 0.271231 -2.367023 -0.697773 -0.667577 0.689851 1.524944 2.092309 0.899278 -0.702750 1.250238 0.574775 -1.878819 1.867295
eth_rxstatem/always_1/block_1 -0.083264 1.568774 -0.290314 -0.029491 -1.536600 -1.176820 0.543679 -0.781468 0.636985 0.764473 -0.356377 -0.398667 -0.410034 -0.417988 -0.048495 0.261594 0.173498 0.440208 0.736181 1.155341
