eth_miim/assign_7_ByteSelect -2.327163 -1.323611 0.450236 1.575857 1.840056 2.896105 -0.831020 0.705008 1.561834 2.661613 -0.216807 -2.454068 -4.677845 2.268981 0.044692 -0.032113 0.749190 -0.388647 0.420018 0.003240
eth_top/input_wb_adr_i 4.436454 0.400249 -0.891560 -1.640874 -1.012820 0.924305 1.400603 -2.842421 -3.675327 -3.995267 3.522211 -2.013929 -0.702950 0.658818 -0.347793 3.188080 2.827343 4.501446 1.814492 2.306242
eth_outputcontrol/always_2/block_1/if_1/block_2 -1.664016 1.405366 1.932448 -0.937395 -0.110709 -0.545798 2.709334 0.279563 -2.140245 -0.762694 -0.461221 -1.162026 -0.741600 3.508096 0.064046 2.558765 2.184616 1.502315 -0.645390 0.897319
eth_outputcontrol/always_2/block_1/if_1/block_1 -0.186906 1.022252 3.208405 -1.344329 -0.484781 -0.349372 2.988495 0.501960 -2.928330 1.187932 -1.314063 -2.433862 -0.233831 2.682710 -0.049848 3.291670 1.977048 2.128808 -0.582620 0.264888
eth_miim/assign_4_StartOp -0.135888 -0.132495 1.674891 -2.074772 0.437056 0.345248 -0.230360 0.241661 0.524626 -2.179508 1.339683 -0.062388 -1.537267 0.352123 0.566515 -2.768113 -0.117365 0.951173 -1.726634 0.523156
eth_top/assign_14_wb_dat_o -0.519570 2.678461 2.324131 -1.095748 -2.063036 -3.944433 3.906516 -0.657216 -4.856006 -0.787010 -0.349362 0.502213 1.491561 4.092063 0.652350 4.081099 1.658550 1.001847 -0.058154 0.514527
eth_outputcontrol/reg_MdoEn_2d 3.360092 -0.016882 0.828176 -5.589579 -3.550058 -0.655635 0.944737 -3.169094 -1.678762 -1.411080 2.327620 0.955568 1.598015 -1.335340 -0.042697 -3.131171 0.115437 2.918269 -2.741980 2.329557
eth_top/assign_8_BDCs/expr_1/expr_1 0.233798 -1.298911 0.174402 -0.903495 -0.284562 0.078903 3.252151 -1.644521 -1.147793 2.211768 0.768895 0.305812 1.073821 1.636398 -0.677123 1.964970 2.688449 0.192449 0.658112 0.184973
eth_miim/always_4/block_1/if_1/block_2/if_1 -0.069244 -1.134931 3.338773 -2.105520 1.721551 1.179571 1.204408 0.977618 1.049822 -1.379593 1.400028 -0.152125 -1.841875 0.132643 0.197227 -2.664983 0.144362 0.815334 -1.742976 -1.032519
eth_register/always_1/block_1/if_1/if_1/if_1/cond -3.029057 6.194022 -2.502019 3.729424 -2.981920 -3.790845 0.186821 -1.236435 -1.404891 -5.364639 -0.147264 0.602619 -0.439103 0.859758 -0.304449 -1.372589 0.806852 1.486047 0.069711 4.422938
eth_miim/assign_3_ScanStatusOp/expr_1/expr_1 -2.632211 -0.356033 -0.554338 0.380475 1.695253 0.563968 -1.847379 0.946575 1.885314 -1.900431 0.414151 -0.180055 -2.383138 2.017734 0.710647 -1.853162 0.422892 -1.052607 -0.289770 0.935118
eth_miim/assign_3_ScanStatusOp/expr_1/expr_2 -1.657160 -1.711980 -0.984276 -0.316571 0.916250 2.554540 -2.147469 -0.400977 2.336631 0.589935 1.011086 -0.857826 -3.471572 1.437722 0.045308 -2.896546 0.365797 -0.484328 -0.682612 1.141926
eth_top/inst_check_eth_top 0.591378 1.778650 -0.478116 3.061410 -1.471054 -0.520716 3.112794 -1.577272 -2.668581 0.930689 -0.235347 -0.711624 1.059288 -0.437851 0.464370 4.284406 1.129028 0.955228 2.196996 0.468775
eth_miim/wire_MdcEn_n -1.229098 -0.077232 1.878788 -1.736104 0.739421 0.465366 0.809098 1.095913 -1.791980 -1.234053 -1.296542 -2.231460 0.083670 3.203191 -0.273574 1.728147 2.006916 0.995199 -1.755446 0.472366
eth_wishbone/reg_TxEn_needed 0.661077 -2.771037 -0.923235 0.073106 0.184764 2.428980 0.838877 -1.498679 1.044652 3.827993 0.680598 0.149308 -0.244166 -0.151823 -0.769372 0.350193 0.930164 -0.698989 0.679186 -0.617596
eth_top/always_4/block_1 -0.247706 1.087146 -0.283984 0.456256 -1.199137 -1.068982 0.475047 -0.634378 0.460359 1.466059 -0.134010 -0.056411 -0.601055 -0.024453 -0.397534 0.017880 0.578069 0.355641 1.067745 1.134782
eth_register/reg_DataOut -0.979878 3.979965 -1.786722 2.310083 -2.741084 -3.484516 0.371733 -0.363523 -2.857484 -1.451753 -0.748041 -1.428305 -0.605761 0.614746 -1.392200 -1.953890 -0.788286 1.862693 -0.343861 3.022085
eth_registers/wire_r_MiiNoPre -1.662094 -1.781584 -1.091138 -0.200646 1.025705 2.632060 -2.367870 -0.303550 2.484785 0.595941 0.968357 -0.862556 -3.518601 1.313808 0.048198 -2.975299 0.257729 -0.577446 -0.662102 1.048000
eth_top/always_4 -0.265156 1.140603 -0.288125 0.408284 -1.273591 -1.140882 0.535494 -0.632651 0.434731 1.477036 -0.135652 -0.048739 -0.635651 0.043932 -0.407259 0.008821 0.611867 0.397327 1.076051 1.237072
eth_wishbone/always_26/block_1/if_1/stmt_2 -0.208687 1.089431 -0.328077 0.497980 -1.258752 -1.106804 0.496961 -0.634673 0.531063 1.620459 -0.138521 -0.104197 -0.637772 -0.099206 -0.398764 0.045966 0.554631 0.349052 1.184537 1.164113
eth_txstatem/reg_StateFCS -0.273958 1.105333 -0.277520 0.472150 -1.227165 -1.128640 0.465102 -0.616736 0.466721 1.465099 -0.161132 -0.067384 -0.630507 0.003475 -0.389859 -0.009024 0.571827 0.366227 1.089413 1.163307
eth_outputcontrol/reg_MdoEn_d 3.156600 -0.170595 0.695572 -5.590862 -3.387619 -0.512762 0.643946 -3.052796 -1.582816 -1.508552 2.266105 0.857126 1.500750 -1.104073 0.022606 -3.167647 0.155972 2.732037 -2.759408 2.369244
eth_txethmac/always_13/block_1/if_1/stmt_2 -0.257843 1.079357 -0.268497 0.427312 -1.193349 -1.075912 0.480554 -0.582073 0.445377 1.382223 -0.149838 -0.054964 -0.589299 0.009467 -0.380694 -0.011399 0.547176 0.380707 1.028972 1.142597
eth_miim/always_6/block_1/if_1 -0.173964 -0.170593 1.637981 -2.250223 0.263347 0.233997 -0.098014 0.041421 0.247865 -2.116488 1.225668 -0.131522 -1.339936 0.615731 0.684965 -2.407287 0.082051 0.972894 -1.694196 0.689879
eth_miim/always_4/block_1/if_1/block_2/if_1/block_2/if_2/cond -1.714039 0.198157 -1.365563 0.059090 1.588011 -0.123481 -3.530757 1.397596 2.684150 -4.347631 0.763790 1.176183 -1.119035 -0.055884 0.730911 -3.993979 -1.179122 -1.307147 -0.936675 0.661148
eth_registers/input_Rw -1.290348 4.807580 0.824251 -0.195426 -2.514324 -3.972065 -1.758856 0.137332 0.802691 -2.380449 0.338264 3.025050 -1.663667 -0.522934 2.420629 -1.549521 -3.018962 -0.271883 0.060889 0.847230
eth_wishbone/reg_TxBDReady -0.262493 1.112432 -0.281615 0.454610 -1.241302 -1.136536 0.509069 -0.631985 0.432288 1.476364 -0.158994 -0.082257 -0.584048 0.009900 -0.375589 0.018740 0.596071 0.370169 1.057657 1.146822
eth_rxstatem/assign_1_StartIdle/expr_1/expr_2/expr_1/expr_1 -0.253176 1.165793 -0.285919 0.451473 -1.272300 -1.154930 0.558091 -0.642820 0.445192 1.524876 -0.164500 -0.052971 -0.609954 0.027823 -0.393538 0.036169 0.625684 0.413480 1.128477 1.204972
eth_outputcontrol/reg_MdoEn 3.412294 -0.092503 0.681360 -5.798353 -3.607703 -0.588134 0.633594 -3.204425 -1.717576 -1.454043 2.269556 0.863263 1.615489 -1.225673 0.072436 -3.147815 0.138685 2.892819 -2.815271 2.508223
eth_register/always_1/block_1 -1.148742 4.056949 -1.870059 2.129880 -2.882611 -3.727565 0.406838 -0.466232 -2.975101 -1.781971 -0.804146 -1.153106 -0.304783 0.767645 -1.334208 -2.046050 -0.726444 1.748394 -0.580433 3.163247
eth_top/assign_16_temp_wb_ack_o/expr_1/expr_1 0.246370 -1.236485 0.156302 -0.859893 -0.306624 0.029311 3.242204 -1.654688 -1.196664 2.149642 0.730083 0.300909 1.133007 1.636710 -0.678659 2.000840 2.682240 0.241643 0.689143 0.179851
eth_top/reg_temp_wb_dat_o_reg -0.629823 2.770676 2.157764 -0.887246 -2.068672 -3.941621 3.950268 -0.691627 -4.954021 -0.757041 -0.453577 0.412520 1.615454 4.080462 0.693025 4.274110 1.713333 1.022597 0.043658 0.607539
eth_miim/reg_RStatStart_q1 -1.668196 1.317761 -2.933200 -0.097310 0.102049 -1.043689 -4.714299 0.439593 1.976293 -5.108033 0.758111 1.292312 -0.791022 0.170786 1.150329 -4.147157 -1.420160 -1.059779 -0.981066 2.281210
eth_miim/always_4/block_1/if_1/block_2/if_1/block_2 -0.181419 -1.027276 3.370613 -1.950420 1.742032 1.149965 1.167405 1.055099 1.056224 -1.405622 1.385437 -0.131418 -1.928289 0.152790 0.159543 -2.724970 0.153304 0.841960 -1.747584 -1.023202
eth_clockgen/input_Divider -3.416077 1.678500 2.561564 -1.944475 0.407460 -0.611839 3.572005 -0.229153 -0.389968 -6.598541 2.365103 1.379605 -0.163022 1.860828 -1.826175 -4.792656 2.446173 1.767286 -4.705543 1.119802
eth_wishbone/always_1/block_1/stmt_1 0.233814 -1.172852 0.181938 -0.852839 -0.331057 -0.052284 3.163576 -1.603154 -1.144854 2.047566 0.741605 0.299033 1.089775 1.592846 -0.660907 1.973934 2.610684 0.244103 0.702152 0.180571
eth_top/inst_rxethmac1 -0.278337 1.100825 -0.309627 0.484933 -1.224059 -1.074646 0.444843 -0.616795 0.458072 1.497365 -0.136768 -0.089874 -0.611858 -0.015178 -0.396262 -0.024107 0.575731 0.387168 1.106137 1.171163
check_ethernet/reg_wb_wr_dat 0.644395 1.915823 -0.579666 3.323386 -1.449615 -0.534249 2.998654 -1.497591 -2.726014 0.724281 -0.298880 -0.767981 1.091559 -0.631005 0.478946 4.296834 0.919791 0.994791 2.217004 0.420328
eth_miim/reg_RStatStart -1.725601 0.124041 -1.439726 0.132255 1.636566 -0.027935 -3.614911 1.403858 2.729374 -4.323949 0.733611 1.190741 -1.115074 -0.103092 0.746046 -4.034008 -1.212383 -1.360476 -0.936137 0.619029
eth_outputcontrol/always_1/block_1/if_1/block_2/if_1 3.360381 0.002399 0.643195 -5.712507 -3.643637 -0.706083 0.698091 -3.209345 -1.751322 -1.492907 2.264049 0.924205 1.646545 -1.195098 0.030685 -3.116437 0.158551 2.907093 -2.762895 2.510005
eth_registers/wire_r_ScanStat -2.697113 -0.412759 -0.657735 0.458140 1.817637 0.652364 -2.053343 1.059744 2.012879 -1.989737 0.353055 -0.188806 -2.452915 1.940619 0.705639 -1.929472 0.330275 -1.141893 -0.250388 0.849190
eth_txstatem/assign_3_StartPreamble/expr_1/expr_1 -0.272865 1.162285 -0.287202 0.448098 -1.298810 -1.184376 0.558377 -0.648000 0.416161 1.542572 -0.129574 -0.088175 -0.612815 0.005738 -0.384002 0.013270 0.609291 0.415925 1.139116 1.223896
eth_top/assign_7_BDCs/expr_1/expr_1/expr_1/expr_1/expr_1 0.603148 -2.654839 -0.927253 0.036195 0.183169 2.335316 0.832491 -1.504156 0.988203 3.678809 0.723663 0.181473 -0.237629 -0.153950 -0.790400 0.270835 0.873480 -0.657460 0.602215 -0.586688
eth_miim/always_8/block_1/if_1/block_1/if_1/block_1/if_1/cond -2.706337 -0.335566 -0.587234 0.390751 1.650012 0.523637 -1.817440 0.930701 1.800876 -1.873569 0.388588 -0.177068 -2.367839 2.085478 0.698477 -1.765617 0.463654 -1.072769 -0.281501 0.942691
eth_top/assign_2_RegCs/expr_1/expr_1/expr_1/expr_1/expr_1 0.594346 -2.732886 -0.932327 0.040120 0.162100 2.406943 0.830656 -1.541858 0.978155 3.766215 0.699818 0.167675 -0.228261 -0.108337 -0.768762 0.323741 0.917491 -0.685772 0.626299 -0.596838
eth_top/assign_5_RegCs -3.304948 -1.373331 -1.176744 -0.463140 -0.044528 1.645253 2.685744 -3.052332 -0.871252 -2.203680 2.415828 1.659871 -0.329880 4.307806 -0.687005 -2.036592 3.473189 -0.419904 -2.485180 1.786039
eth_outputcontrol/always_2/block_1 -1.877372 1.346915 1.901749 -0.993591 -0.070793 -0.385171 2.749879 0.170833 -2.197569 -1.105214 -0.378945 -1.069956 -0.713041 3.685523 0.043632 2.447354 2.307279 1.509104 -0.939292 0.996104
eth_wishbone/always_27/block_1/if_1/stmt_2 -0.251826 1.098394 -0.285154 0.451099 -1.241602 -1.137661 0.510540 -0.644658 0.459756 1.551028 -0.163675 -0.075477 -0.594356 -0.004253 -0.414940 0.022337 0.587471 0.392686 1.133077 1.147545
eth_miim/assign_1_WriteDataOp -0.211974 -1.042515 3.364882 -1.929637 1.784009 1.173982 1.102410 1.093333 1.133990 -1.482346 1.364251 -0.174219 -1.950916 0.119052 0.160144 -2.795406 0.126215 0.797033 -1.779099 -1.051367
eth_miim/always_8 -1.617287 -1.206366 -0.827941 -3.103398 0.101500 -0.529130 -1.335289 -0.154189 -0.457993 -0.841556 -0.870990 -1.038838 0.706800 3.548337 0.987449 1.596284 2.046373 -0.540696 -0.568684 2.595169
eth_miim/inst_outctrl -0.437750 1.542027 0.907672 -1.202918 -0.613144 -0.498176 1.292833 0.275540 -1.665400 -0.778279 -0.697231 -0.899302 0.226179 1.869154 -0.618267 1.899268 1.337533 1.623993 -0.886304 0.717250
eth_wishbone/always_1/block_1 0.311054 -1.372010 0.126841 -0.857402 -0.270125 0.180738 3.206966 -1.667647 -1.096067 2.321151 0.787134 0.292040 1.061960 1.602687 -0.683271 1.974650 2.717878 0.173261 0.705029 0.155189
eth_top/assign_9_BDCs 0.186496 -1.183226 0.188003 -0.933145 -0.343387 -0.045854 3.237120 -1.709078 -1.179972 2.019924 0.793811 0.351123 1.060328 1.699815 -0.669107 1.898584 2.718411 0.230834 0.596834 0.294840
eth_outputcontrol/always_1/block_1 3.266884 -0.027916 0.596366 -5.671866 -3.594515 -0.616912 0.560999 -3.161541 -1.626064 -1.539871 2.276309 0.854855 1.501009 -1.167336 0.067729 -3.219503 0.114221 2.850161 -2.797456 2.569414
eth_outputcontrol/always_2/block_1/if_1 -1.716532 1.320283 1.887372 -0.973284 -0.129287 -0.348404 2.609885 0.196989 -2.147908 -0.979203 -0.384804 -1.027958 -0.644699 3.453752 0.063501 2.365238 2.104489 1.503017 -0.885096 0.898504
eth_txethmac -0.284125 1.153441 -0.325046 0.465511 -1.289731 -1.141445 0.563100 -0.699443 0.456020 1.561613 -0.119123 -0.063074 -0.687200 0.000055 -0.431054 -0.021557 0.639903 0.415793 1.117748 1.242101
eth_miim/reg_InProgress 0.559157 0.111640 1.451394 -3.103417 -1.015690 -0.036589 0.287802 -0.965243 -0.825753 -1.371185 1.232338 -0.589156 -1.074501 0.911301 0.604909 -1.756198 0.563047 1.805646 -1.740063 1.687404
eth_miim/always_7/block_1/if_1/block_2/if_1/block_1/if_1/block_2/if_1/cond 0.789668 -3.848633 1.017565 -3.830704 0.672064 4.531647 -2.442318 -0.870370 1.906703 1.453813 1.491834 -2.226730 -3.823301 0.704979 0.210588 -4.127132 0.058382 1.004742 -2.460591 1.068276
eth_wishbone/reg_WbEn 0.465698 -1.600348 -0.507550 0.130463 0.226530 1.428669 0.364299 -0.724765 0.591061 2.142712 0.292561 0.064541 -0.048202 -0.247029 -0.405422 0.323644 0.365892 -0.421060 0.389976 -0.529721
eth_txethmac/wire_StatePAD -0.263811 1.133237 -0.297020 0.481053 -1.242239 -1.111093 0.481955 -0.610513 0.461068 1.494071 -0.146286 -0.062104 -0.625821 -0.031775 -0.378006 0.022855 0.573479 0.407996 1.090269 1.151763
eth_clockgen/always_1/block_1/if_1/block_1/if_1/stmt_1/expr_1 -2.028519 -0.531611 1.674213 -2.165832 -0.403532 -1.380817 2.728732 -1.390368 -1.986295 -2.291558 0.343758 0.827908 1.641118 3.078630 1.070027 -1.270421 2.394709 -0.002117 -2.284054 1.626542
eth_registers/assign_112_r_ScanStat -2.633650 -0.431540 -0.700876 0.370929 1.783827 0.588147 -2.084298 0.985462 2.013699 -2.030775 0.401917 -0.115090 -2.368275 1.902768 0.691327 -2.030786 0.333523 -1.130116 -0.276258 0.892230
eth_miim/always_6/block_1/if_1/block_2/if_1/block_1/stmt_10 -1.694929 -1.765278 -0.950273 -0.308847 0.950067 2.609618 -2.140198 -0.376124 2.329106 0.662222 0.998603 -0.893337 -3.528414 1.474689 0.035886 -2.839732 0.407723 -0.499939 -0.691581 1.156061
eth_miim/always_6/block_1/if_1/block_2/if_1/block_1/stmt_11 2.759365 -0.695199 4.188914 -3.037542 -0.298495 0.904235 2.722682 -0.199274 -0.641293 0.179731 1.414315 -0.096763 -0.095686 -2.056545 -0.514325 -2.033601 -0.411916 2.350334 -2.070608 -1.544078
eth_top/assign_7_BDCs/expr_1 0.242623 -1.211318 0.226368 -0.912908 -0.299368 -0.045993 3.290209 -1.672434 -1.210714 2.069620 0.779633 0.309848 1.118872 1.712636 -0.688780 1.995020 2.754702 0.264410 0.674101 0.217387
eth_miim/always_8/block_1/if_1/block_1/if_1/block_1/if_1/block_1/if_1 1.436215 -2.562805 -0.987608 -4.909451 -2.211354 3.013901 -2.846886 -2.995137 -0.320570 1.729649 1.203102 -2.502234 -2.542768 1.716463 0.593628 -2.450033 0.737484 1.903633 -2.186076 3.759733
eth_txethmac/always_13 -0.178975 1.073727 -0.317217 0.502240 -1.190186 -1.068373 0.479111 -0.600573 0.479548 1.515749 -0.187218 -0.091025 -0.593614 -0.106222 -0.402032 0.039956 0.539024 0.358986 1.146646 1.111580
eth_register/always_1 -1.123923 4.107013 -1.710667 2.180944 -2.832676 -3.691405 0.362107 -0.341729 -2.691205 -1.453134 -0.743680 -1.167917 -0.664019 0.647360 -1.333863 -2.049007 -0.818263 1.738067 -0.328902 3.052373
eth_shiftreg/input_Rgad -0.413026 -0.928420 -0.604252 0.837290 1.367508 1.748373 -2.441987 0.976302 2.073042 0.629202 -0.156334 -0.886452 -2.170940 -0.412360 0.183469 -1.197980 -0.937455 -0.712485 0.303212 -0.402047
eth_top/assign_5_RegCs/expr_1 -3.531207 -1.432064 -1.150810 -0.540078 -0.049714 1.687200 2.793398 -3.100953 -0.836513 -2.240873 2.395173 1.764259 -0.310888 4.402474 -0.709629 -2.219929 3.553788 -0.504277 -2.684751 1.792917
eth_maccontrol/wire_TxStartFrmOut -0.231110 1.110561 -0.287770 0.457459 -1.228698 -1.127565 0.523247 -0.635257 0.463071 1.488185 -0.131672 -0.088879 -0.633710 -0.038113 -0.383461 -0.000321 0.614837 0.381272 1.084083 1.145253
eth_registers/wire_MIIADDRESSOut -0.365560 -0.893382 -0.529645 0.791044 1.269322 1.659704 -2.300691 0.905851 1.959943 0.616237 -0.101051 -0.839344 -2.127330 -0.386355 0.149705 -1.185313 -0.892467 -0.647455 0.283524 -0.348407
eth_miim/assign_9_ByteSelect -2.243368 -1.354206 0.370194 1.547703 1.879893 2.876036 -1.021863 0.770252 1.647861 2.411529 -0.229532 -2.341140 -4.517636 2.108119 0.037770 -0.188874 0.576358 -0.508674 0.400793 -0.051113
eth_clockgen/always_1/block_1 -1.205133 0.233141 1.398283 -0.351469 -0.439302 -0.896467 2.335161 -0.726858 -2.052044 -1.356155 0.057242 0.047636 1.053372 2.241621 0.616140 -0.066553 1.898370 0.296378 -0.966816 0.875160
eth_rxstatem/wire_StateData -0.201376 1.089456 -0.297717 0.471053 -1.213201 -1.096632 0.487546 -0.646677 0.456040 1.538935 -0.152904 -0.080650 -0.586752 -0.058477 -0.406303 0.054496 0.592104 0.392063 1.140158 1.160060
eth_miim/wire_Mdc -0.854394 1.693445 5.686018 -2.484224 -1.682128 -4.562173 9.823469 -1.796661 -4.009387 0.230082 1.832215 2.540950 2.350005 2.341673 0.485810 0.611653 3.193483 1.674932 -1.305228 -0.610478
eth_top/wire_TxStartFrmOut -0.256882 1.157178 -0.317586 0.466567 -1.273316 -1.137594 0.510669 -0.633306 0.480473 1.559186 -0.147627 -0.098552 -0.650112 -0.010129 -0.409146 -0.012329 0.631709 0.395817 1.134792 1.223661
eth_rxstatem/always_1/block_1/if_1 -0.252888 1.040016 -0.357664 0.450385 -1.226429 -1.085233 0.461155 -0.634138 0.490185 1.533334 -0.132766 -0.090879 -0.630510 -0.046628 -0.376694 -0.017639 0.578707 0.353668 1.079993 1.162917
eth_miim/always_1/block_1/if_1/block_2/stmt_2 2.780363 -0.743309 4.241192 -3.085132 -0.298834 0.850235 2.912041 -0.196839 -0.821785 0.376079 1.348422 -0.136416 0.037116 -1.971966 -0.504506 -1.696789 -0.329580 2.344795 -2.023192 -1.612937
eth_miim/wire_Mdo -1.576952 1.496740 1.792968 -0.945338 -0.285827 -0.431952 2.667269 0.042825 -2.283380 -0.870236 -0.353813 -1.023228 -0.722083 3.511539 0.045174 2.492956 2.122286 1.619372 -0.761230 1.001185
eth_top/inst_maccontrol1 -0.188558 1.084385 -0.341058 0.499808 -1.201681 -1.090802 0.481637 -0.620398 0.498245 1.557533 -0.157525 -0.082509 -0.622014 -0.053572 -0.391295 0.023507 0.541225 0.392591 1.162516 1.142952
eth_txstatem/assign_5_StartData/expr_1/expr_1/expr_1 -0.288023 1.120047 -0.254705 0.394126 -1.232958 -1.150641 0.551038 -0.614557 0.398555 1.399480 -0.140581 -0.078449 -0.572186 0.021164 -0.352822 0.016889 0.618149 0.386011 1.016655 1.178664
eth_txstatem/reg_StateData -0.233633 1.081995 -0.284878 0.470639 -1.228576 -1.103911 0.502925 -0.607968 0.491491 1.496283 -0.135260 -0.098334 -0.624071 -0.024231 -0.381843 -0.006125 0.580362 0.373529 1.099408 1.159386
eth_miim/always_3/block_1/if_1/block_2/if_1 -2.724178 -0.306319 -0.622092 0.470158 1.754097 0.498280 -1.926645 1.014943 1.891555 -2.002908 0.362873 -0.185285 -2.363187 2.054079 0.706229 -1.809485 0.402896 -1.119127 -0.234532 0.892792
eth_register/always_1/block_1/if_1/stmt_1 -3.199719 5.591448 -2.637097 3.431347 -2.697451 -3.208587 0.356965 -1.308466 -1.931337 -5.599267 -0.214728 0.388604 0.001187 1.332639 -0.200820 -0.918271 1.011373 1.345640 -0.498356 4.245744
eth_miim/always_1/block_1/if_1/block_2/stmt_1 2.611964 -0.589405 4.142970 -2.905365 -0.319040 0.697181 2.936067 -0.197571 -0.768120 0.274387 1.326885 -0.057758 -0.005703 -1.918948 -0.496832 -1.740099 -0.316356 2.351054 -1.953350 -1.539014
eth_txstatem/always_1/block_1/if_1/block_2/if_6/if_1 -0.256026 1.125271 -0.334791 0.467466 -1.231696 -1.085283 0.493233 -0.636057 0.514758 1.575380 -0.140555 -0.107074 -0.626588 -0.028676 -0.419766 0.006921 0.594993 0.398609 1.121192 1.165602
eth_wishbone/always_6/block_1/if_1/if_1/if_1 -0.214178 1.131226 -0.325884 0.490074 -1.257430 -1.152698 0.504141 -0.620870 0.489507 1.549992 -0.133150 -0.089205 -0.629789 -0.059910 -0.393565 0.051122 0.561821 0.378495 1.124295 1.186020
eth_registers/assign_39_MIIMODER_Wr -3.089589 1.439645 2.486747 -2.005462 0.399663 -0.349868 3.395410 -0.261369 -0.266263 -6.207845 2.363126 1.316494 -0.197447 1.531236 -1.884898 -4.853248 2.335279 1.780989 -4.667023 1.014129
eth_top/assign_9_BDCs/expr_1/expr_1 0.258294 -1.308438 0.168047 -0.881453 -0.264440 0.083613 3.183952 -1.624566 -1.149173 2.200264 0.738944 0.285810 1.086243 1.609208 -0.674291 2.029363 2.690705 0.202135 0.702556 0.158925
eth_miim/input_Rgad -0.381574 -0.966802 -0.567768 0.776898 1.359574 1.746771 -2.458312 0.993268 2.090323 0.649825 -0.082818 -0.837305 -2.212068 -0.474187 0.148648 -1.277570 -1.012830 -0.702076 0.248821 -0.403927
eth_miim/wire_EndOp 0.835504 -3.850034 1.097728 -3.895662 0.662544 4.572792 -2.309460 -0.866983 1.827268 1.561202 1.453646 -2.228387 -3.776039 0.738865 0.166777 -4.025445 0.063299 1.034576 -2.516560 0.996557
eth_wishbone/always_24/block_1 -0.300819 1.205589 -0.329554 0.446384 -1.310369 -1.216278 0.534010 -0.676581 0.467083 1.544644 -0.161860 -0.070427 -0.649999 0.041345 -0.398767 -0.014712 0.627111 0.409837 1.100028 1.246943
eth_top/wire_r_WCtrlData -2.660104 -0.358870 -0.584142 0.315244 1.578730 0.528423 -1.762344 0.835538 1.796351 -1.847582 0.431288 -0.130285 -2.341475 2.051651 0.701366 -1.868478 0.479290 -0.983862 -0.288030 0.987474
eth_top/assign_3_RegCs/expr_1 0.255915 -1.271098 0.166805 -0.901130 -0.254076 0.037603 3.230137 -1.652597 -1.174072 2.116223 0.773850 0.303347 1.111789 1.648705 -0.690348 2.014022 2.723949 0.211148 0.717856 0.204482
eth_txstatem/assign_7_StartFCS/expr_1/expr_1/expr_1 -0.224639 1.065749 -0.287956 0.505899 -1.203617 -1.084184 0.494869 -0.630976 0.467803 1.558712 -0.155750 -0.083452 -0.626188 -0.058781 -0.400892 0.024318 0.533998 0.362046 1.112725 1.136348
eth_top/assign_6_BDCs/expr_1/expr_1 0.207898 -1.213498 0.236650 -0.904100 -0.294633 -0.001890 3.290974 -1.688060 -1.232556 2.113573 0.766115 0.323337 1.109519 1.728267 -0.650981 2.036808 2.770895 0.223225 0.661053 0.207350
eth_top/always_1/block_1 -0.144886 1.018221 0.686681 -2.124302 -1.421865 -3.755422 2.936671 -1.298830 -2.522752 1.113981 0.258165 1.767966 1.731468 2.673295 1.200888 3.835267 1.335300 0.036524 0.897407 0.503879
eth_rxethmac -0.264278 1.144357 -0.339120 0.458813 -1.259879 -1.142274 0.509751 -0.629705 0.465883 1.583218 -0.166868 -0.107311 -0.659408 -0.012760 -0.424005 -0.000816 0.579500 0.370546 1.144804 1.165479
eth_registers/wire_r_WCtrlData -2.757850 -0.367433 -0.633124 0.499714 1.793584 0.604208 -1.926017 1.005388 1.971338 -1.886299 0.377046 -0.194584 -2.490699 2.048263 0.718696 -1.822269 0.401944 -1.157847 -0.181104 0.916644
eth_miim/reg_EndBusy 2.688599 -0.662269 4.041475 -3.046508 -0.392258 0.785933 2.717227 -0.294548 -0.747015 0.193143 1.341344 -0.107170 -0.049742 -1.935966 -0.486156 -1.833674 -0.350812 2.330131 -2.035909 -1.402983
eth_rxstatem/assign_3_StartSFD -0.274277 1.155628 -0.316548 0.500819 -1.303518 -1.199410 0.547779 -0.658840 0.430629 1.530061 -0.144958 -0.060801 -0.607876 -0.017050 -0.401411 0.028947 0.607180 0.386001 1.142765 1.217999
eth_miim/always_8/block_1/if_1/stmt_1 2.590252 0.603559 1.776120 -0.779524 -2.415116 -3.023226 6.499989 -1.826020 -3.321006 4.429301 -0.177073 1.630916 4.400218 -0.906659 -0.388172 5.645324 1.508368 0.756295 2.132398 -1.580302
eth_outputcontrol -0.572736 1.402948 0.966792 -1.262779 -0.511764 -0.496934 1.349073 0.337964 -1.561303 -0.574186 -0.761336 -0.874504 0.260798 1.922846 -0.661425 1.821961 1.327368 1.469386 -0.951318 0.662279
eth_outputcontrol/reg_Mdo_2d -5.472085 -0.404650 -0.062950 0.473359 2.106586 -0.752599 1.480082 0.865122 -0.377762 -1.688444 -0.970425 -1.104363 -0.955782 6.171823 0.797021 2.876477 3.926039 -1.431167 0.378920 1.965019
eth_top/wire_BDCs 0.195787 -1.231574 0.220013 -0.942981 -0.296169 0.026193 3.272789 -1.657942 -1.214256 2.010781 0.807210 0.337090 1.064577 1.732318 -0.660188 1.937795 2.718051 0.254584 0.617651 0.245994
eth_registers/always_1/block_1 1.752233 3.379577 0.849853 -1.026226 -3.454448 -3.313413 2.227390 -1.792037 -4.947340 -1.374984 0.467367 0.613313 1.180226 0.731532 1.915422 3.457965 -0.850254 2.229866 0.442394 1.268045
eth_outputcontrol/always_2/block_1/if_1/block_2/if_1/block_1/stmt_1/expr_1/expr_2 -6.028222 -0.158941 0.118868 -0.325631 1.497737 -1.439730 2.518209 0.317157 -1.477354 -2.756013 -0.871739 -0.516633 0.116788 7.179500 0.786261 2.915594 4.624670 -1.297930 -0.508913 2.517657
eth_transmitcontrol/reg_WillSendControlFrame -0.281898 1.172151 -0.258995 0.450110 -1.237109 -1.156916 0.533397 -0.615975 0.411242 1.475211 -0.148555 -0.060989 -0.607986 0.026199 -0.371848 0.049892 0.615495 0.423052 1.085333 1.172709
eth_miim/assign_3_ScanStatusOp/expr_1/expr_1/expr_2 -1.738929 -1.814848 -1.050495 -0.241906 1.008645 2.665772 -2.185289 -0.355176 2.388527 0.689383 0.962737 -0.915344 -3.580253 1.494171 0.014459 -2.803537 0.387057 -0.575698 -0.632748 1.132160
eth_miim/assign_3_ScanStatusOp/expr_1/expr_1/expr_1 -2.702434 -0.290853 -0.651438 0.393812 1.686127 0.413336 -1.854296 0.969777 1.839151 -2.011087 0.373707 -0.106852 -2.230556 2.011873 0.747399 -1.748029 0.435268 -1.092816 -0.180436 0.927670
eth_miim/always_7/block_1/if_1/block_2/if_1/block_1/if_1/block_1/stmt_1 1.410753 -0.685336 0.984482 -3.515997 -2.013094 1.452242 0.246785 -2.334355 -0.504555 0.744269 1.836901 -1.009632 -2.003726 0.312031 -0.079869 -2.592193 0.527975 2.388160 -2.013447 2.000051
eth_rxstatem/assign_7_StateData -0.238519 1.079320 -0.289336 0.446560 -1.214667 -1.116976 0.510056 -0.627873 0.437176 1.464756 -0.161956 -0.085796 -0.597538 -0.024345 -0.360965 0.029169 0.548164 0.370241 1.088657 1.099048
eth_rxstatem/reg_StateDrop -0.229976 1.047270 -0.314992 0.480873 -1.227675 -1.079797 0.465401 -0.613606 0.517934 1.596030 -0.149480 -0.081055 -0.673171 -0.025432 -0.383054 -0.021151 0.550904 0.373318 1.120705 1.160373
eth_registers/wire_MAC_ADDR0Out 0.785437 4.619056 -0.343740 -0.249614 -4.462998 -4.935838 1.779696 -1.363657 -4.662853 -0.603904 -0.228946 0.237812 0.779021 0.520574 0.322436 1.128108 -1.482174 2.345533 0.132436 2.266185
eth_wishbone/always_2/block_1/if_1/if_1/if_1 0.577084 -2.635013 -0.866796 0.037084 0.126534 2.338589 0.872205 -1.541490 0.935004 3.667981 0.736204 0.145709 -0.211801 -0.050270 -0.772474 0.289040 0.944223 -0.601474 0.577271 -0.538460
eth_miim/assign_1_WriteDataOp/expr_1/expr_1 2.017206 -1.625918 2.527806 -3.249934 0.458918 2.222416 -0.158709 -0.094000 1.851153 -1.139675 2.395849 0.558926 -1.531058 -2.471414 -0.472792 -5.565293 -1.310028 1.455189 -2.839569 -1.014497
eth_clockgen/always_2/block_1/if_1/stmt_1 -1.390044 0.447131 6.680794 0.807199 1.184117 0.331626 7.520648 1.027185 -4.127640 1.022996 -0.174751 -2.191031 -0.797259 2.949352 -0.809306 1.086689 2.538796 2.055875 -2.354344 -2.762695
eth_clockgen/always_1 -1.139451 0.168370 1.490523 -0.442486 -0.411176 -0.911543 2.320944 -0.724384 -2.076025 -1.243526 0.008269 0.068483 1.039542 2.232674 0.631754 0.000288 1.870067 0.238687 -0.947747 0.858891
eth_clockgen/always_2 -1.976263 -0.364768 3.707247 -1.433911 -0.148152 -0.268952 2.522038 0.563428 -2.610796 -0.695413 -1.811882 -1.287238 1.800260 2.918060 0.428292 -0.329190 1.972632 0.160752 -2.911582 0.298628
eth_rxstatem/assign_1_StartIdle -0.241178 1.134810 -0.299635 0.455286 -1.266048 -1.137860 0.544353 -0.639551 0.407826 1.498523 -0.141811 -0.084395 -0.566286 0.000108 -0.407434 0.070733 0.595255 0.412497 1.082372 1.186594
eth_clockgen/assign_4_MdcEn 1.400146 -0.810168 0.978978 -3.720524 -2.024341 1.526869 0.173019 -2.388553 -0.564566 0.775681 1.826083 -1.091655 -1.931328 0.440140 -0.028281 -2.639519 0.592125 2.367139 -2.121155 2.113784
eth_registers/assign_113_r_RGAD -0.341522 -0.923415 -0.581768 0.796282 1.311636 1.732876 -2.433322 0.959241 2.010573 0.640155 -0.115172 -0.857613 -2.163657 -0.451505 0.172002 -1.225729 -0.944434 -0.664652 0.268891 -0.400648
eth_top/wire_RegDataOut 1.552408 3.318240 0.861447 -1.116461 -3.420481 -3.313646 2.261722 -1.786146 -4.818921 -1.248267 0.445065 0.596085 1.072392 0.851490 1.796408 3.201629 -0.760408 2.164390 0.349871 1.295327
eth_txstatem/assign_3_StartPreamble -0.287885 1.113519 -0.275648 0.444620 -1.217857 -1.133727 0.498342 -0.615455 0.415685 1.430836 -0.121308 -0.061591 -0.601964 -0.001390 -0.370227 -0.003070 0.589070 0.380894 1.062723 1.151173
eth_miim/always_8/block_1 -1.653819 -1.439739 -0.802765 -3.341113 0.010565 -0.541849 -1.001612 -0.370964 -0.579234 -0.534002 -0.822244 -0.815287 0.886132 3.775084 1.060105 1.822545 2.212937 -0.662454 -0.576632 2.520665
check_ethernet/input_wb_adr_i 0.578158 1.916034 -0.587239 3.299639 -1.493239 -0.535959 3.046770 -1.501963 -2.726899 0.802678 -0.276972 -0.727119 1.091708 -0.550408 0.433080 4.265542 1.009273 0.978189 2.212636 0.446888
eth_miim/always_6/block_1/if_1/block_2/if_1 -0.083790 -0.193098 1.611152 -2.213904 0.388106 0.357122 -0.186312 0.117982 0.484527 -2.144897 1.354242 -0.046620 -1.437518 0.371575 0.597042 -2.737763 -0.062689 0.927788 -1.734664 0.560329
eth_registers/assign_2_Read -1.266286 4.872868 0.850264 -0.286732 -2.566410 -4.004679 -1.776997 0.111180 0.790548 -2.515876 0.391873 3.155217 -1.653843 -0.558540 2.495902 -1.629798 -3.067564 -0.231882 0.043559 0.826513
eth_txethmac/inst_txstatem1 -0.261267 1.091298 -0.283773 0.451260 -1.166047 -1.080002 0.482687 -0.618692 0.423594 1.467266 -0.142373 -0.098566 -0.601311 -0.027162 -0.402848 0.021269 0.560135 0.400727 1.037743 1.130268
eth_top/always_1/block_1/if_1 -0.318753 0.951081 0.749824 -2.324952 -1.532792 -3.780988 3.156561 -1.463723 -2.585236 1.269965 0.306710 1.744844 1.781175 2.782856 1.193444 3.721549 1.511539 0.033617 0.787488 0.696038
eth_txstatem/always_1/block_1/if_1/block_2/if_5/if_1/cond -0.205903 1.089311 -0.272141 0.447277 -1.176430 -1.078173 0.492387 -0.611924 0.450666 1.453081 -0.165405 -0.073276 -0.555161 -0.019305 -0.379161 0.039281 0.551626 0.353285 1.093834 1.117389
eth_transmitcontrol/always_1/block_1/if_1/if_1/if_1 -0.223803 1.077524 -0.283445 0.474923 -1.176675 -1.060194 0.464035 -0.595864 0.502987 1.500324 -0.170930 -0.070735 -0.596751 -0.092367 -0.415094 0.030797 0.569542 0.345014 1.088908 1.124529
eth_top/input_wb_stb_i -2.666762 -0.944963 -1.211624 -0.277242 -4.379837 2.819150 1.577413 -3.973563 -1.392350 2.870364 -0.065518 2.309194 0.772419 -0.468883 1.111878 -2.128277 -2.875407 -1.061956 -4.454310 0.350369
eth_miim/always_8/block_1/if_1/block_1/if_1/block_1/if_1/stmt_1 -3.300012 -1.114976 -2.840960 -1.930389 0.077696 0.222035 -5.414193 0.270236 -0.336261 -1.762226 -2.791427 -3.585690 -0.877072 5.629814 1.798877 0.900544 2.273898 -1.035700 -0.521435 5.440973
eth_registers/inst_MIICOMMAND0 -2.639988 -0.368996 -0.666283 0.303596 1.684611 0.593496 -2.026493 0.966021 1.982447 -2.066146 0.465117 -0.093187 -2.402599 1.920395 0.747970 -2.057837 0.311489 -1.060853 -0.339900 0.959435
eth_registers/inst_MIICOMMAND1 -1.751420 0.084948 -1.436690 0.175566 1.709982 0.044946 -3.653964 1.472446 2.769682 -4.255620 0.710562 1.125863 -1.201631 -0.076118 0.740242 -3.989948 -1.217542 -1.379372 -0.901705 0.558344
eth_registers/inst_MIICOMMAND2 -2.655563 -0.466108 -0.590147 0.375709 1.751372 0.700963 -1.932983 0.970328 1.987985 -1.802388 0.396172 -0.260468 -2.518817 1.953398 0.695294 -1.946745 0.386290 -1.061167 -0.260820 0.909529
eth_miim/always_6/block_1/if_1/block_2/if_1/block_1/stmt_2 1.925977 -1.568025 2.550624 -3.101331 0.514064 2.092152 0.054661 -0.077613 1.808880 -1.108856 2.372601 0.606832 -1.460864 -2.440830 -0.475202 -5.412497 -1.221833 1.402976 -2.743606 -1.099879
eth_miim/always_6/block_1/if_1/block_2/if_1/block_1/stmt_3 -1.820008 0.229136 -1.415244 0.165400 1.679454 -0.190485 -3.596223 1.487351 2.665787 -4.457981 0.714867 1.232844 -1.051555 -0.011927 0.748043 -3.937595 -1.146849 -1.367759 -0.905967 0.609952
eth_shiftreg/always_1/block_1/if_1/block_2/if_1/block_1/if_1/block_2/stmt_1 -2.218082 -1.290289 0.411250 1.474419 1.797086 2.857965 -0.925648 0.692524 1.577703 2.397333 -0.193480 -2.361305 -4.485940 2.122236 0.022956 -0.178989 0.592604 -0.410886 0.352688 -0.051388
eth_miim/always_6/block_1/if_1/block_2/if_1/block_1/stmt_1 -0.170730 -1.128150 3.326596 -2.044968 1.731559 1.150387 1.137570 1.070586 0.984649 -1.359849 1.286930 -0.209769 -1.814335 0.250263 0.192193 -2.502558 0.196807 0.761547 -1.729341 -0.992809
eth_miim/always_6/block_1/if_1/block_2/if_1/block_1/stmt_4 -0.579615 -1.167019 -1.660108 -0.711800 0.793668 1.904018 -3.778535 0.068162 3.094004 -1.780491 1.364272 0.503738 -2.193885 -0.773620 0.064174 -5.066243 -1.262652 -0.689912 -1.421788 0.792244
eth_rxethmac/input_Transmitting -0.251933 1.092756 -0.332406 0.443062 -1.223459 -1.091830 0.541596 -0.677469 0.483042 1.580732 -0.138389 -0.106162 -0.611053 -0.004911 -0.418642 0.028494 0.612868 0.364344 1.105296 1.199845
eth_registers/input_Address 0.438521 1.952740 -2.532730 1.645963 3.530488 0.036475 -2.970468 0.776621 -1.546429 -11.288555 2.046090 -0.263142 -0.239577 3.055129 3.051406 6.982096 2.974446 0.838665 3.821814 1.738089
eth_miim/always_6/block_1/if_1/block_2/if_1/block_1/stmt_9 -1.566070 -1.798777 -1.022768 -0.287490 0.982924 2.677420 -2.284919 -0.374649 2.440989 0.738674 0.978344 -0.932680 -3.611157 1.360528 0.021018 -2.926893 0.280046 -0.514383 -0.659387 1.110207
eth_registers/wire_MIIMODER_Wr -2.950285 1.630897 2.384509 -1.884592 0.247535 -0.647397 3.615080 -0.351111 -0.553590 -6.292959 2.319201 1.297815 0.111247 1.544303 -1.887251 -4.445265 2.491462 1.848830 -4.406967 1.080187
eth_wishbone/always_24/block_1/if_1/if_1/cond/expr_1 -0.236093 1.087542 -0.355701 0.499227 -1.258136 -1.116836 0.451284 -0.653479 0.492347 1.527139 -0.141107 -0.078909 -0.650919 -0.002864 -0.392864 0.002672 0.574216 0.375615 1.103085 1.163130
eth_miim/always_6/block_1 -0.044223 -0.246933 1.623406 -2.400890 0.282122 0.343567 -0.287017 0.089283 0.421398 -2.230568 1.363861 -0.083158 -1.418396 0.434064 0.625460 -2.812430 -0.075444 0.970131 -1.839431 0.679381
eth_outputcontrol/always_1/block_1/if_1 3.284824 -0.128657 0.659932 -5.598676 -3.507131 -0.562810 0.704194 -3.109284 -1.622829 -1.407026 2.269050 0.833481 1.505997 -1.143335 0.024887 -3.066409 0.183682 2.803219 -2.684155 2.406987
eth_top/input_wb_we_i 0.456904 2.364295 0.995162 -1.645125 -3.860481 -2.782356 4.090909 -3.035066 -4.990903 0.086854 0.970660 2.134039 1.678679 2.354316 1.613392 3.713654 0.463991 1.269360 -0.003140 0.810487
eth_wishbone/always_6/block_1/if_1/if_1 -0.269951 1.134835 -0.307205 0.465176 -1.255014 -1.106958 0.482218 -0.659969 0.474437 1.513183 -0.145574 -0.073138 -0.647820 0.008840 -0.412852 -0.012293 0.598556 0.380738 1.109596 1.207215
eth_miim/always_7/block_1 0.621123 -0.073329 1.328845 -3.127824 -0.901870 0.137476 0.041394 -0.943074 -0.738009 -1.297032 1.174072 -0.660695 -1.079985 0.899006 0.648261 -1.670836 0.488776 1.647049 -1.660188 1.660846
eth_wishbone 0.018663 -0.211204 -0.198957 -0.369907 -1.421053 -1.009060 3.570257 -2.183683 -0.570645 3.603005 0.636055 0.176323 0.406903 1.553443 -1.085313 1.909307 3.223496 0.564398 1.847218 1.321020
eth_txstatem/always_1/block_1/if_1/block_2/if_4/if_1/cond -0.207183 1.087677 -0.293676 0.445854 -1.177117 -1.084482 0.508324 -0.620985 0.459857 1.489981 -0.158976 -0.057973 -0.591042 -0.023735 -0.385337 0.036858 0.565991 0.377841 1.092587 1.134782
eth_wishbone/always_77/block_1/if_1 0.589301 -2.679308 -0.885470 0.028722 0.168140 2.329736 0.858436 -1.496524 0.995426 3.697186 0.699142 0.167006 -0.229017 -0.142736 -0.794730 0.310675 0.938501 -0.633461 0.633742 -0.589778
eth_top/assign_7_BDCs/expr_1/expr_1/expr_1 0.198721 -1.230481 0.178902 -0.931318 -0.301039 0.048869 3.279931 -1.694960 -1.197537 2.053994 0.799382 0.338636 1.098849 1.681398 -0.670392 1.963059 2.727201 0.223269 0.599211 0.215994
eth_rxstatem/reg_StatePreamble -0.273111 1.145356 -0.283702 0.437657 -1.212412 -1.143858 0.536239 -0.608172 0.401562 1.470661 -0.157961 -0.056323 -0.573164 0.000835 -0.369194 0.023628 0.586402 0.397891 1.062904 1.133834
eth_rxstatem/always_1/block_1/if_1/block_2/if_3 -0.223635 1.116041 -0.337205 0.488505 -1.205458 -1.115837 0.433858 -0.617312 0.529419 1.548116 -0.162564 -0.084147 -0.652384 -0.039401 -0.391014 -0.007843 0.555401 0.356194 1.142325 1.181125
eth_rxstatem/always_1/block_1/if_1/block_2/if_2 -0.328876 1.176826 -0.286062 0.413310 -1.282860 -1.199173 0.596016 -0.697568 0.413803 1.469943 -0.143295 -0.062556 -0.618086 0.079393 -0.414451 -0.004886 0.660477 0.400796 1.045734 1.233755
eth_rxstatem/always_1/block_1/if_1/block_2/if_5 -0.296720 1.150419 -0.277105 0.466268 -1.274860 -1.151464 0.557253 -0.643976 0.460863 1.497139 -0.153796 -0.095471 -0.642556 0.024059 -0.380607 0.017424 0.621214 0.407636 1.102917 1.192211
eth_rxstatem/always_1/block_1/if_1/block_2/if_4 -0.240957 1.118549 -0.329228 0.541619 -1.243412 -1.103397 0.464154 -0.637705 0.506385 1.613928 -0.147720 -0.094452 -0.645177 -0.098184 -0.397252 0.022220 0.569380 0.351406 1.140047 1.152063
eth_wishbone/always_30/block_1/if_1/if_1/if_1 -0.217439 1.065118 -0.292861 0.492865 -1.177618 -1.093173 0.483882 -0.603841 0.433658 1.452725 -0.153519 -0.072653 -0.584644 -0.052426 -0.365920 0.048743 0.531023 0.375832 1.104422 1.137441
eth_rxstatem/always_1/block_1/if_1/block_2/if_6 -0.222982 1.122824 -0.256188 0.441850 -1.210089 -1.100239 0.587117 -0.642606 0.398865 1.484160 -0.154409 -0.077704 -0.556871 0.023486 -0.396224 0.054089 0.587910 0.408804 1.089231 1.136630
eth_miim/input_WCtrlData -2.607639 -0.385242 -0.650551 0.400467 1.755439 0.561702 -2.009729 1.019193 1.916432 -2.009367 0.387672 -0.159899 -2.353646 1.954012 0.754321 -1.894646 0.338441 -1.085404 -0.238780 0.875045
eth_miim/always_7/block_1/if_1/block_2 0.609059 0.024303 1.449304 -3.110570 -0.885352 0.132557 0.093825 -0.875510 -0.597088 -1.446205 1.290887 -0.555983 -1.159347 0.699899 0.548696 -1.997707 0.426684 1.728668 -1.800001 1.560555
eth_miim/always_7/block_1/if_1/block_1 0.639402 -0.594938 -1.630159 -1.793601 -0.709523 -0.039225 -1.747615 -0.997337 1.086403 -1.929242 1.228279 1.509073 0.916658 -0.920432 0.011476 -3.044873 -0.469604 -0.233157 -1.080416 1.133084
eth_top/assign_2_RegCs/expr_1/expr_1/expr_1/expr_1 0.650238 -2.712788 -0.944839 0.118068 0.208240 2.390398 0.763540 -1.493009 1.056042 3.719219 0.672417 0.118414 -0.265479 -0.218041 -0.806828 0.266026 0.843868 -0.696235 0.672146 -0.590800
eth_wishbone/always_77/block_1/if_1/if_1 0.612345 -2.755292 -0.953048 0.126472 0.220613 2.440077 0.752313 -1.527641 1.101160 3.804322 0.703784 0.143752 -0.268457 -0.170354 -0.772862 0.248217 0.889203 -0.708677 0.638665 -0.591411
eth_registers/always_1/block_1/if_1/cond -1.283246 4.881612 0.905024 -0.265501 -2.529604 -4.039116 -1.782043 0.121172 0.767330 -2.509702 0.333010 3.130027 -1.603599 -0.536978 2.505199 -1.568228 -3.105514 -0.259025 0.033672 0.799084
eth_top/wire_WillTransmit -0.270187 1.094670 -0.281866 0.389319 -1.235447 -1.118108 0.529761 -0.644274 0.423179 1.441969 -0.146721 -0.082472 -0.625290 0.038940 -0.383332 -0.009170 0.598172 0.399220 1.069747 1.185494
eth_top/always_4/block_1/stmt_2 -0.233376 1.051200 -0.310761 0.458844 -1.205572 -1.079701 0.504850 -0.629910 0.480969 1.507477 -0.129127 -0.093726 -0.638755 -0.052139 -0.409523 0.031449 0.581615 0.389916 1.066284 1.118964
eth_top/always_4/block_1/stmt_1 -0.286836 1.080163 -0.287564 0.471047 -1.222808 -1.118223 0.512885 -0.617689 0.495418 1.513966 -0.149651 -0.104827 -0.659956 -0.011042 -0.384328 0.002011 0.578893 0.374273 1.081889 1.192819
eth_outputcontrol/always_1/block_1/if_1/block_2 3.286040 -0.059727 0.650838 -5.571560 -3.460660 -0.625384 0.645025 -3.080531 -1.643914 -1.496085 2.252598 0.908367 1.593371 -1.264734 0.023802 -3.161778 0.074636 2.766575 -2.708272 2.340502
eth_txstatem/assign_6_StartPAD/expr_1 -0.295176 1.137652 -0.340803 0.504679 -1.319890 -1.126711 0.526406 -0.668621 0.537162 1.680246 -0.140578 -0.112583 -0.675023 -0.023874 -0.414102 -0.017989 0.600576 0.394667 1.189080 1.233088
eth_top/assign_6_BDCs 0.192462 -1.245816 0.196664 -0.907551 -0.241748 0.016495 3.240325 -1.637788 -1.154980 2.060039 0.767114 0.297299 1.092272 1.716099 -0.683271 1.954043 2.752390 0.233042 0.670306 0.200522
eth_wishbone/input_BDCs 0.237805 -1.175009 0.181998 -0.862271 -0.324535 -0.066916 3.283931 -1.644388 -1.251093 2.102064 0.752356 0.295543 1.122295 1.717291 -0.644817 2.052577 2.733888 0.255587 0.705262 0.204709
eth_registers/assign_2_Read/expr_1 -1.382429 4.856251 0.849053 -0.227061 -2.498665 -3.966807 -1.842034 0.156867 0.842553 -2.608055 0.392064 3.102148 -1.681947 -0.495944 2.432931 -1.705960 -3.035690 -0.254105 -0.025580 0.866674
eth_wishbone/always_30/block_1 -0.239940 1.058975 -0.295686 0.420933 -1.230233 -1.059590 0.458154 -0.633045 0.469414 1.474805 -0.130562 -0.062562 -0.644026 -0.019266 -0.377773 0.001094 0.595775 0.382458 1.053770 1.158053
eth_miim/always_4/block_1/if_1/block_2/if_1/block_2/if_1/cond/expr_1 2.119416 -1.672752 2.608971 -3.404304 0.404144 2.184261 -0.003935 -0.198950 1.768345 -1.064230 2.475262 0.573625 -1.426877 -2.468967 -0.485940 -5.602060 -1.226997 1.523829 -2.945413 -1.023685
eth_registers/assign_2_Read/expr_2 -1.383732 5.051383 0.875543 -0.252376 -2.629994 -4.142184 -1.839221 0.153526 0.852970 -2.548638 0.345504 3.197423 -1.703968 -0.532333 2.510610 -1.717493 -3.147798 -0.292859 0.028105 0.845274
eth_miim/always_3/block_1/if_1/block_2/stmt_8 -2.619603 -0.417308 -0.593184 0.373713 1.784444 0.630129 -1.969983 0.992139 1.986892 -1.953595 0.445760 -0.166364 -2.452137 1.959699 0.733209 -1.955256 0.336890 -1.084429 -0.284200 0.908573
eth_miim/reg_RStatStart_q2 -0.676329 0.045389 -3.402498 -0.817234 -0.784546 0.744664 -4.850302 -0.930361 2.257088 -2.640618 1.261110 0.661720 -1.619617 -0.306340 0.523830 -4.855538 -1.372278 -0.451352 -1.352694 2.608152
eth_registers/assign_43_MIIADDRESS_Wr/expr_1 -0.363573 -0.907920 -0.528539 0.780485 1.255287 1.646115 -2.319440 0.919257 1.952342 0.648506 -0.132569 -0.854517 -2.076698 -0.418897 0.149747 -1.155620 -0.938991 -0.664816 0.269835 -0.393887
eth_miim/always_3/block_1/if_1/block_2/stmt_4 -1.720627 0.227440 -1.425601 0.164349 1.579394 -0.133606 -3.524700 1.405892 2.653506 -4.334082 0.706205 1.185253 -1.062488 -0.043047 0.741257 -3.921759 -1.152322 -1.320948 -0.878266 0.626916
eth_top/assign_17_MRxDV_Lb -0.288744 1.098254 -0.294046 0.449107 -1.208284 -1.096857 0.524660 -0.630862 0.421909 1.435281 -0.152179 -0.102248 -0.610031 0.027421 -0.371897 -0.007118 0.598740 0.372244 1.048782 1.180714
eth_miim/always_3/block_1/if_1/block_2/stmt_6 -0.646309 -1.234008 -1.772949 -0.621329 0.862670 1.965884 -3.911419 0.089118 3.170223 -1.745563 1.331120 0.450475 -2.256752 -0.726238 0.074509 -5.040478 -1.255742 -0.765178 -1.348605 0.821364
eth_miim/always_3/block_1/if_1/block_2/stmt_7 -2.672649 -0.406070 -0.583877 0.404518 1.742835 0.695066 -1.855039 0.972644 1.926659 -1.812684 0.398260 -0.230133 -2.484296 2.010547 0.673116 -1.852967 0.417379 -1.072275 -0.234390 0.890937
eth_miim/always_3/block_1/if_1/block_2/stmt_1 -2.760910 -0.348544 -0.545861 0.331620 1.675853 0.574326 -1.781104 0.884687 1.845878 -1.854270 0.452358 -0.212677 -2.486525 2.167021 0.724145 -1.872170 0.502813 -1.003384 -0.291491 1.024816
eth_miim/always_3/block_1/if_1/block_2/stmt_2 -0.080728 -1.038877 3.337025 -2.210631 1.525718 1.079798 1.150995 0.919385 0.895039 -1.453429 1.387970 -0.171407 -1.785280 0.205502 0.246609 -2.665503 0.222095 0.911399 -1.815358 -0.869898
eth_miim/always_3/block_1/if_1/block_2/stmt_3 2.036468 -1.551797 2.640738 -3.241563 0.367090 2.071002 0.139589 -0.166852 1.667623 -1.002897 2.394799 0.592476 -1.467924 -2.419673 -0.489670 -5.358781 -1.165963 1.528429 -2.818947 -0.990190
eth_miim/always_4/block_1/if_1/block_2/if_1/block_2/if_1 -0.235770 -1.045223 3.321470 -1.946046 1.638111 1.073512 1.229916 0.978886 0.913095 -1.310744 1.255247 -0.185537 -1.836117 0.335306 0.234090 -2.417470 0.241853 0.804260 -1.651228 -0.940426
eth_miim/always_4/block_1/if_1/block_2/if_1/block_2/if_2 -1.758405 0.141512 -1.414141 0.037395 1.586401 -0.060960 -3.588184 1.396834 2.713211 -4.417541 0.825358 1.236521 -1.171990 -0.058039 0.708038 -4.178677 -1.209057 -1.342229 -1.024261 0.664009
eth_miim/always_4/block_1/if_1/block_2/if_1/block_2/if_2/cond/expr_1 -0.614961 -1.242917 -1.729779 -0.652582 0.853417 1.971686 -3.901861 0.102121 3.195780 -1.756561 1.337857 0.481845 -2.265805 -0.758416 0.056318 -5.067822 -1.266539 -0.713140 -1.392552 0.816063
eth_txstatem/wire_StartData -0.222913 1.092482 -0.300336 0.477232 -1.257696 -1.093741 0.511017 -0.655309 0.461086 1.496664 -0.127525 -0.075349 -0.587176 -0.022156 -0.369820 0.018042 0.583886 0.370085 1.113701 1.145403
eth_top/reg_WillTransmit_q -0.272943 1.113515 -0.305911 0.438269 -1.223923 -1.118584 0.519012 -0.586195 0.436078 1.452843 -0.135815 -0.096233 -0.614452 -0.020376 -0.407456 0.010439 0.571313 0.363929 1.088276 1.132482
eth_txethmac/wire_StatePreamble -0.244631 1.144067 -0.334083 0.465937 -1.293284 -1.158137 0.528683 -0.662812 0.457671 1.570264 -0.149870 -0.104112 -0.620838 -0.027188 -0.431672 0.006152 0.575917 0.392951 1.162639 1.210448
eth_rxstatem/wire_StartIdle -0.242806 1.073189 -0.256316 0.427431 -1.194087 -1.077216 0.521215 -0.598538 0.461516 1.451470 -0.121261 -0.099519 -0.620169 0.009641 -0.398355 -0.001267 0.565614 0.398594 1.090334 1.122277
eth_rxstatem/assign_2_StartPreamble/expr_1/expr_1 -0.217714 1.101957 -0.301053 0.438666 -1.229983 -1.099237 0.518099 -0.621102 0.469188 1.494518 -0.119126 -0.088938 -0.604470 -0.010574 -0.385987 0.004705 0.589750 0.361363 1.117670 1.145959
eth_top/assign_3_RegCs 0.210938 -1.256451 0.212761 -0.944178 -0.297552 0.044334 3.293233 -1.676442 -1.196166 2.107221 0.812648 0.307514 1.081108 1.711302 -0.676904 1.970811 2.781342 0.228209 0.661463 0.228306
eth_wishbone/always_24 -0.260317 1.132111 -0.290237 0.475160 -1.222048 -1.118181 0.533835 -0.642582 0.466682 1.530148 -0.123604 -0.059938 -0.627156 -0.017575 -0.408230 0.033653 0.577161 0.398303 1.108869 1.190285
eth_wishbone/always_26 -0.234006 1.074632 -0.271999 0.425923 -1.164197 -1.066727 0.548601 -0.592212 0.364992 1.431054 -0.162582 -0.063308 -0.522821 0.004702 -0.373159 0.070538 0.554702 0.362779 1.064583 1.112486
eth_wishbone/always_27 -0.187189 1.107446 -0.310366 0.496382 -1.232275 -1.112096 0.469111 -0.618185 0.491311 1.563827 -0.174142 -0.100429 -0.601878 -0.067263 -0.394816 0.036611 0.544678 0.351367 1.107413 1.135010
eth_rxstatem/always_1/block_1/if_1/block_2/if_1/if_1 -0.255527 1.065114 -0.344064 0.473527 -1.217558 -1.062203 0.490216 -0.635237 0.514069 1.533054 -0.110669 -0.093842 -0.647041 -0.006649 -0.385277 -0.021796 0.585945 0.388109 1.131149 1.150531
eth_clockgen/always_1/block_1/if_1/block_1/if_1/cond -1.889028 -0.416150 1.807088 -2.283396 -0.534558 -1.523094 2.834848 -1.368505 -1.999194 -2.049860 0.285747 0.835509 1.692512 2.958600 1.058776 -1.134951 2.354709 0.037317 -2.214029 1.567520
eth_clockgen/assign_4_MdcEn/expr_1/expr_1 1.281970 -0.713391 0.867247 -3.493169 -2.040920 1.443336 0.249327 -2.365021 -0.605695 0.916358 1.718334 -1.098574 -1.936851 0.535524 -0.045445 -2.364522 0.627972 2.317222 -1.926523 2.093819
eth_top/reg_temp_wb_err_o_reg -1.311479 0.753476 2.371007 -3.207092 -1.405160 -2.456986 1.702135 0.231287 -1.393853 1.520134 -1.623900 -0.572009 1.517836 1.845152 1.969260 3.059996 1.285761 0.180281 -0.254474 1.760437
eth_clockgen/always_1/block_1/if_1/stmt_1 -1.000013 2.686109 1.305321 2.142974 0.758178 -2.239696 4.018155 0.301209 -1.233565 -3.499283 1.854508 0.784345 -0.555498 0.913290 -0.054689 0.977717 1.876342 1.384350 1.505549 -0.045463
eth_miim/assign_7_ByteSelect/expr_1/expr_1 -2.263898 -1.384111 0.399736 1.572028 1.948068 2.981755 -1.049466 0.798137 1.741909 2.568741 -0.213271 -2.439315 -4.697426 2.099592 0.031811 -0.263181 0.563096 -0.457434 0.404315 -0.101734
eth_miim/assign_2_ReadStatusOp -1.719205 1.312613 -2.952376 -0.032834 0.137050 -1.073142 -4.786374 0.507192 2.068257 -5.122168 0.715166 1.299366 -0.786798 0.146358 1.162658 -4.103635 -1.425477 -1.097002 -0.925194 2.247197
eth_miim/always_4/block_1/if_1/block_2/if_1/cond 2.752090 -0.618089 4.124982 -2.990757 -0.423844 0.792660 2.792234 -0.225671 -0.758661 0.292971 1.329850 -0.108294 -0.012065 -2.074458 -0.525915 -1.819477 -0.413878 2.356327 -1.995564 -1.519477
eth_top/assign_17_MRxDV_Lb/expr_1/expr_1 -0.213022 1.142941 -0.358212 0.494578 -1.266630 -1.105471 0.504697 -0.638529 0.482274 1.591579 -0.149597 -0.098824 -0.638241 -0.078330 -0.419764 0.020952 0.570006 0.364330 1.137159 1.193280
eth_clockgen/always_2/block_1 -1.938600 -0.470762 3.730747 -1.481259 -0.102491 -0.200646 2.480465 0.611599 -2.674302 -0.798280 -1.848433 -1.296079 1.889094 2.847572 0.437002 -0.366179 1.940511 0.171262 -3.041963 0.201635
eth_maccontrol -0.259252 1.133224 -0.325788 0.469443 -1.239188 -1.096276 0.497494 -0.633759 0.499411 1.561669 -0.143145 -0.080474 -0.651711 -0.020998 -0.396664 0.001156 0.596732 0.368121 1.122901 1.176541
eth_registers/wire_r_RGAD -0.311760 -0.879385 -0.492208 0.759288 1.264644 1.677197 -2.285574 0.916504 1.908163 0.636737 -0.105426 -0.819589 -2.116220 -0.383219 0.149555 -1.148502 -0.891620 -0.613176 0.273128 -0.364133
eth_top/wire_r_RGAD -0.320118 -0.886062 -0.530550 0.765924 1.278433 1.697812 -2.347193 0.934335 1.972748 0.614195 -0.116314 -0.820902 -2.099264 -0.461296 0.158213 -1.230586 -0.969742 -0.668196 0.261409 -0.393683
eth_rxstatem/assign_2_StartPreamble/expr_1/expr_2/expr_1 -0.301611 1.156962 -0.305374 0.463533 -1.239472 -1.170522 0.505241 -0.638843 0.446320 1.474875 -0.160452 -0.063926 -0.645149 0.012340 -0.400721 -0.045966 0.587983 0.417588 1.091115 1.211477
eth_clockgen/wire_MdcEn 1.283995 -0.631324 0.881869 -3.486818 -2.107028 1.407811 0.272578 -2.426922 -0.622320 0.805869 1.777213 -1.067868 -1.964224 0.506406 -0.058770 -2.476666 0.683231 2.420354 -2.008496 2.144806
eth_top/assign_12_temp_wb_err_o/expr_1 -0.649619 0.333584 0.351643 -1.827893 -2.660009 -0.446219 0.161116 -0.956799 -0.549860 2.454986 -1.372332 -0.169077 0.223078 0.029076 1.309536 1.380042 -1.302532 0.222628 -0.645819 0.933081
eth_wishbone/always_3/block_1/if_1/block_2/case_1/cond 0.619834 -2.634248 -0.912000 0.085312 0.187368 2.360687 0.748231 -1.476422 1.001022 3.665771 0.680540 0.157608 -0.242254 -0.174473 -0.742610 0.301753 0.849413 -0.643774 0.612478 -0.594666
eth_txethmac/always_13/block_1/if_1/stmt_2/expr_1/expr_1 -0.238070 1.077291 -0.334147 0.478410 -1.208825 -1.089611 0.461259 -0.599932 0.483237 1.570068 -0.160321 -0.085353 -0.661482 -0.022145 -0.405285 -0.018090 0.582200 0.385509 1.105984 1.129332
eth_top/wire_MRxDV_Lb -0.301080 1.146414 -0.313660 0.447749 -1.277007 -1.153732 0.527212 -0.646851 0.484814 1.522312 -0.139585 -0.093554 -0.663033 0.046587 -0.403203 -0.037391 0.621248 0.435107 1.095709 1.243336
eth_top/assign_7_BDCs/expr_1/expr_1 0.235818 -1.219756 0.185195 -0.888182 -0.328266 -0.004655 3.254985 -1.693159 -1.201057 2.106942 0.782020 0.330838 1.107548 1.689451 -0.696742 1.982917 2.728079 0.231521 0.679066 0.233424
eth_top/assign_17_MRxDV_Lb/expr_1 -0.276716 1.113722 -0.274326 0.434984 -1.272309 -1.162025 0.592883 -0.663973 0.373578 1.418579 -0.121726 -0.050551 -0.580319 0.044346 -0.383325 0.062942 0.645285 0.384421 1.051593 1.178626
eth_clockgen/always_2/block_1/if_1/block_1/if_1 -1.954752 -0.473388 2.774973 -1.230110 -0.611375 -1.390905 2.941358 -0.185888 -2.276301 -0.746982 -1.295665 0.112976 2.844490 2.281344 0.711367 -0.806491 1.961264 -0.532008 -2.255504 0.649996
eth_registers/assign_47_MAC_ADDR0_Wr/expr_1 -0.834701 1.308524 -3.292288 2.796171 1.025714 0.243425 -0.898361 0.055723 -1.682828 -5.969547 0.330329 -0.191560 1.349752 0.750782 -0.308812 1.596625 0.973263 0.353292 0.201018 1.186641
eth_wishbone/always_3/block_1/if_1/block_2/case_1 0.239325 -1.143010 0.249695 -0.935039 -0.358526 -0.138519 3.342494 -1.647810 -1.302341 2.033887 0.738849 0.302703 1.182507 1.737223 -0.648960 2.098297 2.741474 0.268774 0.660521 0.249792
eth_rxethmac/input_MRxDV -0.244925 1.124077 -0.321961 0.473412 -1.263026 -1.140480 0.494032 -0.638065 0.504032 1.520047 -0.138232 -0.070043 -0.639448 0.013363 -0.393820 0.012628 0.579853 0.375462 1.112176 1.215573
eth_miim/always_6/block_1/if_1/block_1/stmt_3 0.649666 -0.468290 -0.815400 -0.896818 -0.145323 0.190924 -1.360732 -0.237748 0.912041 -1.180962 0.655259 0.870416 0.461284 -1.047835 0.037340 -1.906629 -0.753553 -0.188632 -0.608651 0.218025
eth_clockgen/assign_1_TempDivider/expr_1 -1.518156 3.095067 0.126307 0.394847 0.209997 -0.626234 2.375346 -0.700590 -0.842400 -5.429881 2.897654 0.405306 -2.060936 1.793975 -1.543531 -0.472045 2.458170 2.690415 -0.636446 1.512187
eth_miim/always_6/block_1/if_1/block_1/stmt_7 2.689269 -0.629383 4.132884 -3.005443 -0.385462 0.783969 2.798191 -0.247786 -0.742089 0.208280 1.354849 -0.105846 -0.077984 -1.974780 -0.520077 -1.819721 -0.359648 2.353384 -1.980935 -1.482201
eth_wishbone/always_1/block_1/stmt_1/expr_1 0.239289 -1.160877 0.231792 -0.891454 -0.322376 -0.016506 3.193584 -1.611849 -1.179241 2.038087 0.699301 0.293960 1.114037 1.673161 -0.628588 1.958117 2.652645 0.239033 0.649092 0.230457
eth_miim/reg_RStat_q3 -0.500231 -1.190063 -1.713281 -0.659363 0.811714 1.909101 -3.799224 0.066047 3.111115 -1.738333 1.349483 0.496061 -2.144288 -0.826170 0.096501 -4.982229 -1.312508 -0.687374 -1.367218 0.753135
eth_miim/reg_RStat_q2 -1.723459 0.106744 -1.392094 0.116841 1.658920 0.012472 -3.661584 1.455121 2.765300 -4.257286 0.759624 1.179685 -1.182682 -0.100288 0.731476 -4.084622 -1.256023 -1.371343 -0.920846 0.615912
eth_miim/reg_RStat_q1 -1.759417 0.190127 -1.325060 0.108802 1.598270 -0.128640 -3.448780 1.429376 2.601113 -4.296631 0.698743 1.179504 -1.062114 -0.036307 0.763288 -3.900487 -1.129002 -1.330186 -0.928979 0.639731
eth_wishbone/always_30/block_1/if_1/if_1 -0.262992 1.120234 -0.296786 0.465714 -1.210899 -1.109646 0.507272 -0.611057 0.470374 1.490350 -0.136348 -0.059010 -0.601327 -0.036750 -0.406607 0.007064 0.545893 0.397314 1.089329 1.147242
eth_registers/always_1/block_1/if_1/block_1/case_1/stmt_16 0.741990 4.704778 -0.376768 -0.087581 -4.437641 -4.927063 1.976625 -1.457977 -4.799480 -0.794741 -0.196344 0.176130 0.820183 0.596794 0.421364 1.326652 -1.300291 2.404588 0.157641 2.370209
eth_registers/wire_MIICOMMANDOut -2.794376 -0.409505 -0.691523 0.482507 1.828977 0.651630 -2.074626 1.036651 2.011901 -1.973020 0.381849 -0.213156 -2.506912 2.071619 0.741546 -1.907884 0.404664 -1.138430 -0.257952 0.902810
eth_outputcontrol/always_1/block_1/if_1/block_2/if_1/block_1 3.413596 0.024972 0.742599 -5.635642 -3.613787 -0.686976 0.743665 -3.144672 -1.706584 -1.540394 2.298992 0.946654 1.616563 -1.351460 0.036083 -3.202361 0.078316 2.910016 -2.744696 2.352767
eth_registers/always_1/block_1/if_1/block_1/case_1/stmt_19 1.696376 -0.927236 0.841823 -0.214263 0.719591 1.519167 0.515277 -0.443083 -1.097367 -0.747660 0.482141 -0.056340 0.822130 -0.441794 1.507308 3.047805 0.256010 0.279952 0.625304 -1.058313
eth_outputcontrol/assign_1_SerialEn/expr_1 -3.838506 -0.321073 -1.776085 -1.735231 0.118955 -2.743791 0.845343 -0.348171 -0.503204 -2.805346 -0.662672 1.528836 2.901922 4.537742 0.843566 1.375024 3.147217 -1.939620 -0.249440 2.773520
eth_shiftreg/reg_ShiftReg -2.265262 -1.280371 0.424742 1.570747 1.811519 2.812178 -0.870900 0.747670 1.564348 2.507418 -0.236136 -2.401717 -4.558454 2.155312 0.039043 -0.066004 0.663754 -0.419173 0.432988 -0.043800
eth_register/always_1/block_1/if_1/if_1/cond -7.962471 7.071364 3.405185 1.580720 -1.649837 -5.920624 0.939536 1.643930 3.173899 -1.722148 0.640072 6.642206 -4.705542 2.143205 2.750855 -5.224824 -3.895632 -2.774138 -1.954793 -1.079052
eth_rxstatem/always_1 -0.265171 1.110698 -0.341147 0.427330 -1.276552 -1.145519 0.517864 -0.681622 0.459497 1.528327 -0.148995 -0.062418 -0.666395 0.013767 -0.377247 -0.026382 0.622378 0.396173 1.118047 1.197951
eth_outputcontrol/input_InProgress 3.365253 -0.116720 0.583471 -5.715092 -3.560605 -0.542025 0.458344 -3.161127 -1.570302 -1.554073 2.306109 0.914465 1.548405 -1.277246 0.031549 -3.342590 0.065313 2.806343 -2.794157 2.479103
eth_miim/wire_StartOp -0.098582 -0.022517 1.754856 -2.290699 0.286386 0.143586 -0.012921 0.090942 0.315141 -2.366286 1.369008 0.029790 -1.340717 0.457944 0.600065 -2.765860 0.026170 1.055554 -1.855577 0.636266
eth_top/assign_9_BDCs/expr_1/expr_1/expr_1/expr_1 0.192047 -1.394648 0.224347 -0.969990 -0.234265 0.170135 3.238785 -1.669418 -1.152492 2.171453 0.773606 0.276938 1.039899 1.701505 -0.701941 1.893208 2.739604 0.185477 0.576203 0.162880
eth_wishbone/always_3 0.234898 -1.233363 0.159009 -0.838086 -0.297766 0.070603 3.201437 -1.651359 -1.168822 2.166412 0.736594 0.314555 1.074950 1.660923 -0.661029 1.981515 2.640383 0.185522 0.667712 0.200361
eth_top/assign_4_RegCs/expr_1/expr_1 -1.296038 -2.320563 -0.749487 -0.909933 0.776583 1.817832 0.612072 -1.361707 1.052278 1.932949 1.276179 -0.447079 -1.875688 2.678692 -0.362275 -0.557794 2.526578 -0.429202 0.178482 1.105026
eth_wishbone/always_3/block_1/if_1/block_2/case_1/block_7/stmt_6/expr_1 0.244309 -1.307170 0.198099 -0.883368 -0.276259 0.050757 3.282124 -1.696998 -1.204006 2.214050 0.760060 0.292238 1.122140 1.682152 -0.696954 2.001065 2.743954 0.216568 0.661908 0.182855
eth_registers/assign_109_r_ClkDiv -3.082959 1.628083 2.396626 -1.823738 0.323279 -0.569393 3.692997 -0.340599 -0.420783 -6.339300 2.401209 1.290249 -0.044816 1.591833 -1.976470 -4.580853 2.553947 1.892107 -4.451315 1.133243
eth_registers/assign_40_MIIMODER_Wr/expr_1 -1.585270 -1.721480 -0.966628 -0.375318 0.878102 2.595688 -2.105215 -0.441251 2.328475 0.656777 1.023038 -0.864850 -3.476264 1.369724 0.012531 -2.881789 0.365359 -0.442956 -0.697492 1.151747
eth_registers/wire_Write -2.240171 3.928038 0.262362 -0.284287 -2.826388 -3.656205 0.142003 -1.077140 -0.075333 -2.081254 -0.330716 0.960967 -0.632468 1.549627 0.546899 -1.392549 1.023541 0.719536 -0.184489 3.506224
eth_wishbone/always_27/block_1/if_1 -0.227816 1.109841 -0.359499 0.474661 -1.272007 -1.116978 0.467680 -0.652754 0.520926 1.612237 -0.135303 -0.092940 -0.677818 -0.050505 -0.404437 0.020707 0.589378 0.358406 1.125735 1.170421
eth_txethmac/always_13/block_1/if_1/stmt_2/expr_1/expr_1/expr_1/expr_1 -0.246842 1.089441 -0.295815 0.445634 -1.212227 -1.141412 0.497629 -0.588737 0.443165 1.462302 -0.123932 -0.075367 -0.601807 -0.051883 -0.372468 0.010061 0.553212 0.406518 1.091454 1.163141
eth_txstatem/always_1/block_1 -0.258172 1.148336 -0.318040 0.509298 -1.280729 -1.147139 0.511317 -0.659040 0.521043 1.594288 -0.174854 -0.088639 -0.668989 -0.048240 -0.410420 0.020966 0.558108 0.384247 1.157783 1.170859
eth_miim/always_8/block_1/if_1/block_1/if_1/cond 1.592150 -2.553236 -0.840828 -4.901876 -2.158501 3.170730 -2.949897 -2.940670 -0.204812 1.657068 1.279743 -2.529084 -2.696912 1.456962 0.598303 -2.764175 0.543629 1.990592 -2.304095 3.642306
eth_miim/always_6/block_1/if_1/block_2/if_1/cond 0.729998 -2.121375 3.035453 -2.577629 0.734396 2.903500 1.099713 -0.378914 1.320848 1.022684 1.945291 -0.843490 -3.012498 -0.329919 -0.461080 -3.633166 0.214693 1.490384 -2.159847 -0.632004
eth_miim/input_RStat -1.724972 0.148842 -1.373409 0.100695 1.711030 -0.024889 -3.675869 1.482027 2.773877 -4.366787 0.775625 1.168520 -1.206983 -0.101161 0.740563 -4.106575 -1.263670 -1.346066 -0.942512 0.587423
eth_registers/assign_1_Write -2.187214 4.016740 0.416821 -0.128295 -2.693455 -3.664739 0.075427 -0.831995 0.034809 -2.130235 -0.420952 0.816454 -0.700365 1.308002 0.456013 -1.521405 0.902334 0.794665 -0.164561 3.369558
eth_rxstatem/reg_StateIdle -0.230279 1.082397 -0.334304 0.460119 -1.208524 -1.106084 0.464675 -0.646935 0.529252 1.574056 -0.131433 -0.091861 -0.635622 -0.058337 -0.411162 0.000375 0.582273 0.366754 1.117957 1.166542
eth_top/wire_mdc_pad_o -0.800221 1.505372 5.683732 -2.552098 -1.684081 -4.496643 9.632070 -1.772313 -3.856503 0.421570 1.779316 2.565555 2.374850 2.256071 0.519969 0.610562 3.164547 1.540464 -1.262062 -0.611201
eth_registers/assign_111_r_RStat -1.779770 0.230891 -1.376357 0.146346 1.627420 -0.154266 -3.572149 1.442557 2.687458 -4.383238 0.695614 1.209966 -1.087795 -0.027198 0.769760 -3.968152 -1.194962 -1.378456 -0.924854 0.638192
eth_wishbone/always_6/block_1/if_1/if_1/cond/expr_1 -0.222323 1.094389 -0.300864 0.484459 -1.228737 -1.120456 0.509618 -0.657798 0.448007 1.521544 -0.123307 -0.070328 -0.588000 -0.025456 -0.398518 0.051285 0.599111 0.373000 1.101199 1.169799
eth_txethmac/always_13/block_1/if_1/stmt_2/expr_1/expr_1/expr_1 -0.222430 1.080725 -0.312820 0.508028 -1.230908 -1.091175 0.474903 -0.603654 0.471648 1.548858 -0.157358 -0.083939 -0.584194 -0.053605 -0.394103 0.034379 0.565144 0.391144 1.119748 1.141461
eth_txstatem/assign_6_StartPAD/expr_1/expr_1/expr_1 -0.246841 1.105775 -0.327855 0.499911 -1.254331 -1.126222 0.471159 -0.623519 0.509390 1.570169 -0.175622 -0.097150 -0.638315 -0.020493 -0.419452 0.012475 0.550260 0.381132 1.120146 1.168145
eth_txethmac/always_13/block_1/if_1 -0.263417 1.087498 -0.285928 0.450435 -1.206101 -1.080263 0.479338 -0.627974 0.494181 1.493563 -0.124232 -0.072142 -0.648398 -0.032501 -0.389004 -0.015143 0.576413 0.388405 1.085773 1.158874
eth_maccontrol/input_TxStartFrmIn -0.229394 1.084819 -0.311419 0.456971 -1.251727 -1.117273 0.503243 -0.658812 0.496708 1.596240 -0.134318 -0.064308 -0.632786 -0.023894 -0.422580 0.040310 0.565847 0.391425 1.111594 1.171538
eth_txstatem/assign_7_StartFCS -0.247126 1.094082 -0.297617 0.427833 -1.222047 -1.098627 0.540087 -0.634456 0.451673 1.440099 -0.160496 -0.067300 -0.593753 -0.019405 -0.371772 0.030142 0.565735 0.383480 1.054738 1.179601
eth_wishbone/always_1/block_1/stmt_1/expr_1/expr_1/expr_1 0.195915 -1.145967 0.281192 -0.961640 -0.322833 -0.092515 3.398363 -1.659397 -1.290987 2.018748 0.759122 0.320761 1.190602 1.770460 -0.651619 2.039714 2.810632 0.294478 0.653342 0.248765
eth_shiftreg/always_1 -2.321300 -1.290401 0.400609 1.586275 1.884525 2.861499 -0.947495 0.783737 1.662166 2.445529 -0.210657 -2.376439 -4.522578 2.134495 0.014084 -0.189221 0.606297 -0.441455 0.349392 -0.044354
eth_shiftreg/wire_ShiftedBit -2.240611 -1.336643 0.381514 1.558789 1.832100 2.870982 -0.917276 0.747385 1.606569 2.468292 -0.241136 -2.368333 -4.537313 2.130229 0.034913 -0.143506 0.659046 -0.456924 0.419355 -0.041917
check_ethernet/input_wb_we_i 0.673379 2.065605 -0.546839 3.365796 -1.618084 -0.669091 3.184246 -1.551649 -2.820957 0.875088 -0.313626 -0.724424 1.224893 -0.663730 0.473121 4.516320 0.974610 1.039681 2.347713 0.465151
eth_miim/always_4/block_1/if_1/block_2/if_1/block_2/if_1/stmt_1 2.720158 -0.710423 4.105968 -3.042730 -0.339481 0.907711 2.652168 -0.197271 -0.689931 0.219546 1.370479 -0.141856 -0.078593 -2.047696 -0.511597 -1.924343 -0.405785 2.356745 -2.018472 -1.482059
eth_top/wire_temp_wb_err_o -1.289696 0.806820 2.404354 -3.249877 -1.376678 -2.544751 1.780885 0.262477 -1.470183 1.478622 -1.663527 -0.548229 1.536740 1.932190 1.999654 3.241107 1.360838 0.151956 -0.187564 1.710753
eth_txstatem/assign_8_StartJam/expr_1 -0.247533 1.126656 -0.306637 0.475394 -1.252671 -1.130902 0.474309 -0.613908 0.492561 1.570522 -0.136307 -0.063172 -0.630677 -0.041233 -0.417260 0.010565 0.577458 0.400636 1.153719 1.136235
eth_outputcontrol/always_1/block_1/if_1/block_2/if_1/block_1/stmt_1/expr_1/expr_1/expr_1 3.109152 0.369723 2.105088 -4.439654 -2.954808 -0.293098 1.586143 -2.248335 -2.403915 -0.176719 1.337701 -0.569339 0.526814 -0.867132 -0.009619 -1.335012 0.113585 3.241095 -2.224862 1.495881
eth_miim/reg_WCtrlDataStart_q1 -0.135839 -1.188804 3.403254 -2.037024 1.705538 1.252224 1.222710 0.982941 1.003826 -1.167374 1.336955 -0.251974 -1.945818 0.290994 0.224237 -2.506590 0.224368 0.841220 -1.688298 -1.031711
eth_miim/reg_WCtrlDataStart_q2 2.028399 -1.587059 2.575036 -3.178629 0.481761 2.169866 0.001501 -0.071534 1.833455 -1.007206 2.352885 0.577452 -1.525147 -2.460027 -0.486427 -5.410408 -1.269320 1.460660 -2.775488 -1.068255
eth_registers/wire_MIIMODER_Sel 0.651271 -1.269832 -1.891874 0.263392 3.847564 1.695772 -3.924005 2.138081 0.580545 -7.826087 0.568319 -1.122022 1.026581 -0.009165 -0.501306 -0.597006 0.863211 -0.028512 -0.361032 0.143489
eth_miim/wire_WriteDataOp -0.051267 -0.976079 3.380284 -2.095481 1.593972 1.069817 1.197642 0.987859 0.930468 -1.460925 1.360062 -0.105701 -1.781498 0.113489 0.255744 -2.591716 0.153627 0.872654 -1.769557 -0.937953
eth_top/reg_WillTransmit_q2 -0.274318 1.100872 -0.336733 0.465158 -1.280900 -1.122679 0.544029 -0.683355 0.494249 1.592519 -0.154825 -0.097072 -0.656890 0.023821 -0.423025 -0.021314 0.635147 0.406649 1.105945 1.218705
eth_miim/always_8/block_1/if_1/block_1/if_1/block_1/if_1/block_1/if_1/stmt_2 1.598247 -2.452711 -0.898200 -4.870783 -2.239671 3.041237 -2.926165 -2.979199 -0.197224 1.717015 1.278527 -2.474610 -2.695983 1.419502 0.563923 -2.759664 0.510979 1.993764 -2.231390 3.698302
eth_miim/always_8/block_1/if_1/block_1/if_1/block_1/if_1/block_1/if_1/stmt_1 -1.739122 -1.803915 -0.976562 -0.227072 1.025136 2.703295 -2.252117 -0.306985 2.475006 0.748518 0.971670 -0.964433 -3.677560 1.453454 0.068775 -2.870852 0.342747 -0.562525 -0.635473 1.105600
eth_txethmac/wire_StateJam -0.274160 1.113597 -0.289865 0.438516 -1.247760 -1.140085 0.510617 -0.645845 0.461965 1.549914 -0.107969 -0.084561 -0.647946 0.011010 -0.382135 -0.002263 0.611813 0.402109 1.093363 1.202235
eth_clockgen/wire_MdcEn_n -1.343543 -0.178715 1.880853 -1.683665 0.733724 0.491729 0.988724 1.012635 -1.827609 -0.972493 -1.299111 -2.273867 0.016303 3.390599 -0.308941 1.835246 2.173798 0.956523 -1.702366 0.493051
eth_outputcontrol/reg_Mdo_d -5.443088 -0.462929 0.129849 0.368031 2.036803 -0.831453 1.664921 0.891009 -0.498667 -1.422385 -1.154408 -1.045586 -0.741688 6.191729 0.856302 3.039009 3.853902 -1.559988 0.360363 1.831769
eth_txstatem/assign_5_StartData/expr_1 -0.280775 1.157334 -0.351770 0.454674 -1.252901 -1.127606 0.519941 -0.643095 0.453450 1.487304 -0.142134 -0.074322 -0.658700 -0.019426 -0.395055 -0.000713 0.579628 0.378611 1.126632 1.200891
check_ethernet/always_1/if_1 0.669226 1.902677 -0.384534 3.209305 -1.503770 -0.575684 3.271072 -1.522751 -2.787802 0.881967 -0.285599 -0.760321 1.143010 -0.532494 0.490636 4.420618 1.050003 1.034844 2.208016 0.420228
eth_top/wire_r_ScanStat -2.670401 -0.519122 -0.652794 0.388071 1.805813 0.819459 -2.079285 0.978787 2.091059 -1.805696 0.407717 -0.242181 -2.586147 1.967662 0.683241 -2.035263 0.373672 -1.113260 -0.276312 0.906860
eth_miim/input_Mdi -1.948225 -0.564965 0.841348 0.894941 0.756256 1.414033 1.144883 -0.044195 -0.126692 1.869030 -0.134985 -1.653135 -2.624795 2.511350 -0.144325 0.922600 1.448464 0.073448 0.144468 0.193210
eth_rxstatem/assign_1_StartIdle/expr_1/expr_1 -0.250360 1.160663 -0.342807 0.487216 -1.291552 -1.146991 0.499663 -0.678303 0.495363 1.571514 -0.175128 -0.056869 -0.611992 -0.060935 -0.384571 0.061764 0.557465 0.396595 1.149721 1.191922
eth_rxstatem/always_1/block_1/if_1/block_2/if_1/cond -0.280601 1.138565 -0.284190 0.434791 -1.216715 -1.103583 0.536573 -0.652821 0.418670 1.458126 -0.151813 -0.091235 -0.618795 0.023421 -0.393448 0.009242 0.581643 0.405191 1.087011 1.161171
eth_rxstatem/assign_1_StartIdle/expr_1/expr_2 -0.240635 1.105674 -0.317465 0.468981 -1.198264 -1.127265 0.523432 -0.603507 0.446460 1.511468 -0.142026 -0.051824 -0.571476 -0.053980 -0.396909 0.041648 0.546169 0.363151 1.100603 1.111975
eth_top/wire_wb_ack_o -1.820251 -0.454652 1.693980 -2.457191 -0.547776 -2.006910 5.298346 -1.354076 -2.964098 0.253471 0.557367 0.605559 2.080468 4.320851 0.015400 2.797607 4.247445 0.614695 -0.527279 1.159492
eth_outputcontrol/always_2/block_1/if_1/block_2/if_1/block_1/stmt_3 -5.479779 -0.359388 0.069476 0.339356 2.028129 -0.913594 1.616148 0.896610 -0.440718 -1.692531 -1.061834 -1.022351 -0.760715 6.170457 0.762239 2.868603 3.922726 -1.424593 0.331444 1.995916
eth_outputcontrol/always_2/block_1/if_1/block_2/if_1/block_1/stmt_2 -5.420445 -0.459146 -0.030038 0.337539 2.044724 -0.698864 1.729550 0.728980 -0.399263 -1.678629 -0.799187 -0.875159 -0.778226 6.112127 0.732692 2.849862 3.931567 -1.464035 0.314926 1.849316
eth_txstatem/always_1/block_1/if_1 -0.221655 1.119898 -0.307271 0.510105 -1.263532 -1.130108 0.511326 -0.638993 0.456015 1.536662 -0.142450 -0.076175 -0.616069 -0.041084 -0.398768 0.049747 0.575034 0.365217 1.117228 1.149202
eth_miim/reg_WCtrlData_q3 1.930888 -1.591771 2.492183 -3.091697 0.503326 2.176963 -0.124467 -0.045080 1.940676 -1.122165 2.436248 0.605171 -1.637815 -2.468522 -0.470405 -5.594429 -1.308739 1.390903 -2.797324 -1.040587
eth_miim/reg_WCtrlData_q2 -0.109695 -0.785556 3.331734 -1.978269 1.443439 0.897596 1.305681 0.936466 0.874757 -1.531696 1.372806 -0.028838 -1.779836 0.111426 0.188102 -2.662189 0.143228 0.918003 -1.779520 -0.931482
eth_miim/reg_WCtrlData_q1 -2.683059 -0.297671 -0.563340 0.348143 1.643357 0.422318 -1.754801 0.935686 1.815146 -1.998795 0.403816 -0.064581 -2.242499 2.037014 0.725989 -1.769728 0.428505 -1.067814 -0.245010 0.923363
eth_top/assign_11_temp_wb_dat_o/expr_1/expr_1/expr_1 0.428717 2.506843 0.958058 -1.533649 -3.876207 -2.998943 4.125942 -2.926668 -5.176726 0.103555 0.801561 2.047292 1.746221 2.522582 1.640517 3.953799 0.451620 1.224097 0.068074 0.772932
eth_top/assign_8_BDCs/expr_1/expr_1/expr_1/expr_1/expr_1 0.603220 -2.730705 -0.941762 0.094338 0.182616 2.431495 0.790184 -1.523156 1.053935 3.763337 0.726667 0.123483 -0.300353 -0.169905 -0.768358 0.264918 0.891504 -0.691130 0.663714 -0.591572
eth_wishbone/always_77/block_1/if_1/if_1/cond 0.612406 -2.651482 -0.913746 0.105810 0.178809 2.337482 0.805186 -1.535414 0.971769 3.688757 0.680053 0.165506 -0.215069 -0.141678 -0.780033 0.328120 0.872970 -0.680371 0.627208 -0.582773
eth_txethmac/always_13/block_1 -0.259657 1.132942 -0.317252 0.487701 -1.310186 -1.147709 0.525267 -0.656827 0.487660 1.619978 -0.123246 -0.100508 -0.667441 -0.004239 -0.437385 0.000243 0.629378 0.387395 1.163090 1.232273
eth_shiftreg/always_1/block_1/if_1/block_2/if_1 -2.296618 -1.328544 0.371550 1.597906 1.897462 2.920274 -1.040483 0.794392 1.708494 2.465613 -0.264238 -2.398892 -4.580252 2.156147 0.045364 -0.148011 0.587839 -0.490980 0.419294 -0.086305
eth_registers/always_1/block_1/if_1 1.525219 3.497244 0.714941 -1.021857 -3.543104 -3.474859 2.100503 -1.725592 -4.798725 -1.301438 0.425461 0.637575 1.023386 0.748098 1.684081 3.043857 -0.906586 2.155303 0.336136 1.373299
eth_top/wire_RegCs -0.319954 0.352287 -0.570869 0.320525 -1.195717 -0.068918 1.330978 -1.470864 -2.140906 -0.241902 0.713909 0.827118 0.199021 1.390665 -0.086685 0.012066 0.045313 0.142916 -0.646173 0.161746
eth_clockgen/reg_Mdc -1.815058 -0.345051 3.674622 -1.502404 -0.208060 -0.171122 2.452527 0.557370 -2.750040 -0.902835 -1.794764 -1.399940 1.846733 2.837060 0.411457 -0.309121 1.973669 0.330874 -2.980217 0.341471
eth_shiftreg/always_1/block_1/if_1/block_2/if_1/cond -2.277784 -1.353617 0.444811 1.589229 1.847784 2.877813 -0.926446 0.756933 1.618663 2.523004 -0.228213 -2.428502 -4.594588 2.184281 0.034985 -0.119990 0.680041 -0.440433 0.431927 -0.065452
eth_shiftreg/always_1/block_1 -2.321612 -1.275671 0.411606 1.605225 1.808493 2.785550 -0.835337 0.723225 1.555433 2.537560 -0.286355 -2.399431 -4.466714 2.223144 0.030436 0.016253 0.712757 -0.465678 0.438116 -0.061202
eth_top/assign_2_RegCs/expr_1 0.254270 -1.325022 0.172569 -0.899870 -0.246912 0.140889 3.160305 -1.652142 -1.109294 2.136315 0.806850 0.309776 1.062361 1.643319 -0.707380 1.904657 2.717427 0.210541 0.624760 0.198343
eth_wishbone/always_2/block_1/if_1/if_1 0.596152 -2.719329 -0.933974 0.042367 0.191713 2.409692 0.837406 -1.544088 1.033064 3.720649 0.695236 0.134312 -0.234734 -0.127583 -0.792920 0.275872 0.911810 -0.665333 0.584770 -0.580615
eth_rxstatem/assign_2_StartPreamble -0.243540 1.105094 -0.302466 0.441474 -1.206988 -1.100283 0.492330 -0.622802 0.414039 1.456602 -0.161625 -0.071004 -0.579723 -0.023178 -0.356739 0.021860 0.587157 0.394347 1.070931 1.141291
eth_miim/inst_shftrg -2.299228 -1.318481 0.458088 1.536512 1.848624 2.862249 -0.871590 0.708170 1.600551 2.575776 -0.205135 -2.444061 -4.620363 2.169396 0.033110 -0.078910 0.676396 -0.409522 0.396198 -0.032147
eth_miim/always_3/block_1/if_1/block_1/stmt_9 0.584991 -0.406210 -0.847155 -0.839516 -0.119857 0.130720 -1.270445 -0.247745 0.801011 -1.196490 0.589894 0.805013 0.525036 -0.930640 0.023486 -1.769374 -0.664332 -0.228686 -0.549742 0.247803
eth_top/always_1/block_1/if_1/block_2/stmt_1 -1.812655 -0.499976 1.704923 -2.449606 -0.505101 -1.994657 5.271195 -1.344758 -2.899891 0.265238 0.582096 0.609505 2.047106 4.300807 0.019559 2.737815 4.228597 0.585382 -0.528853 1.138408
eth_top/always_1/block_1/if_1/block_2/stmt_2 -0.592574 2.668796 2.296715 -1.019787 -2.074476 -3.819119 3.971882 -0.686932 -4.801248 -0.660347 -0.382921 0.365947 1.426098 4.085833 0.564403 4.027246 1.729418 1.046111 -0.058752 0.557633
eth_top/always_1/block_1/if_1/block_2/stmt_3 -1.248397 0.767282 2.212343 -3.038862 -1.319759 -2.373596 1.515934 0.260347 -1.218813 1.457881 -1.567265 -0.610138 1.392233 1.677682 1.852417 2.878922 1.293640 0.158754 -0.152235 1.767619
eth_clockgen/always_2/block_1/if_1/block_1 -2.264358 -0.391371 2.930939 -1.467093 -0.625209 -1.340820 2.995458 -0.223120 -2.240427 -0.959871 -1.153018 0.126437 2.606992 2.463193 0.753971 -1.051525 1.995623 -0.453447 -2.576042 0.748767
eth_txstatem/always_1/block_1/if_1/block_2/if_3/if_1/cond -0.266965 1.166111 -0.293649 0.443729 -1.232410 -1.162803 0.504525 -0.608772 0.420010 1.439500 -0.148731 -0.084239 -0.579380 -0.019427 -0.386526 0.013584 0.582308 0.414878 1.074928 1.162992
check_ethernet/input_wb_stb_i 0.661573 2.018760 -0.517044 3.332441 -1.615168 -0.691379 3.165891 -1.513791 -2.808466 0.873200 -0.351038 -0.757379 1.168797 -0.626179 0.382455 4.355197 0.928006 1.020296 2.255667 0.482713
eth_txstatem/always_1/block_1/if_1/block_2/if_6 -0.212696 1.089295 -0.291357 0.476999 -1.243951 -1.127710 0.527298 -0.639885 0.453490 1.489104 -0.124625 -0.081906 -0.600708 -0.035254 -0.384728 0.052350 0.570254 0.397906 1.098556 1.162879
eth_miim/assign_7_ByteSelect/expr_1/expr_1/expr_2 -2.349539 -1.332412 0.365059 1.633327 1.888730 2.904350 -0.947546 0.763435 1.642855 2.512480 -0.269645 -2.427212 -4.617084 2.208724 0.065141 -0.111189 0.639451 -0.457211 0.418645 -0.090022
eth_miim/assign_7_ByteSelect/expr_1/expr_1/expr_1 -2.317328 -1.362240 0.313414 1.603787 1.930529 2.907938 -1.120462 0.832544 1.711550 2.396445 -0.243317 -2.385987 -4.577570 2.103776 0.045423 -0.223096 0.568205 -0.515311 0.354261 -0.059472
eth_txethmac/wire_StateData -0.239515 1.125527 -0.302401 0.462852 -1.248135 -1.133769 0.514813 -0.637214 0.439059 1.459776 -0.128136 -0.089095 -0.613779 -0.019379 -0.388359 0.021171 0.572908 0.388179 1.090628 1.177791
eth_txstatem/assign_4_StartData/expr_1/expr_2/expr_2 -0.193463 1.022933 -0.340457 0.473675 -1.159137 -1.012313 0.438055 -0.619069 0.487296 1.550566 -0.159977 -0.080463 -0.626456 -0.071330 -0.421169 -0.001851 0.552664 0.373657 1.111651 1.129107
eth_miim/wire_ShiftedBit -2.237689 -1.294387 0.420347 1.529737 1.828201 2.822938 -0.851832 0.713766 1.548024 2.573581 -0.236995 -2.421903 -4.548466 2.171917 0.043644 -0.025202 0.665144 -0.434084 0.416574 -0.054518
eth_miim/assign_10_ByteSelect -2.308438 -1.351610 0.392574 1.594822 1.898751 2.893959 -0.906798 0.753069 1.619859 2.541198 -0.257066 -2.421547 -4.623745 2.194412 0.047139 -0.119237 0.677554 -0.473174 0.429096 -0.043563
eth_miim/reg_SyncStatMdcEn -2.615697 -0.351283 -0.560619 0.323107 1.617024 0.515033 -1.752183 0.848563 1.763143 -1.838285 0.421233 -0.165683 -2.306168 2.049013 0.698698 -1.739462 0.471834 -1.014062 -0.236595 0.968803
eth_top/assign_4_RegCs/expr_1/expr_1/expr_1 -0.987560 -3.923029 -1.787092 -0.133923 0.901178 4.303242 -1.039090 -1.818586 2.877157 4.028268 1.485965 -0.569984 -3.265419 1.250880 -0.628706 -2.039030 1.257198 -1.088629 0.058652 0.536955
eth_wishbone/always_2/block_1 0.613822 -2.771145 -0.931980 0.069276 0.195744 2.446525 0.850974 -1.518731 1.036018 3.841748 0.716635 0.143466 -0.244336 -0.112904 -0.792334 0.310605 0.901985 -0.683610 0.644263 -0.617856
eth_top/assign_4_RegCs/expr_1/expr_1/expr_2 -0.335599 -0.901287 -0.524879 0.767240 1.295177 1.685866 -2.357011 0.929567 1.978900 0.673734 -0.079107 -0.867950 -2.153366 -0.427337 0.157392 -1.198643 -0.925205 -0.662469 0.280257 -0.374817
eth_top/assign_7_BDCs 0.257756 -1.425880 0.162645 -0.959329 -0.259610 0.169469 3.295728 -1.729577 -1.135880 2.241568 0.827822 0.292421 1.032759 1.708647 -0.734751 1.966526 2.792919 0.211038 0.648287 0.207695
eth_clockgen/wire_CounterPreset -1.433783 3.062920 -0.118833 0.395326 0.112361 -0.689693 2.032495 -0.749772 -0.841106 -5.418435 2.824920 0.363413 -1.974795 1.743632 -1.445901 -0.480216 2.356991 2.576460 -0.595854 1.589333
eth_rxstatem/always_1/block_1/if_1/block_2/if_3/if_1/cond -0.223450 1.124902 -0.334632 0.517418 -1.250026 -1.130559 0.484467 -0.647977 0.489450 1.602626 -0.144609 -0.101772 -0.631180 -0.063433 -0.400876 0.043302 0.593790 0.374599 1.156489 1.201740
check_ethernet/always_1/if_1/if_1 0.672799 1.941303 -0.533890 3.249485 -1.544619 -0.649565 3.124654 -1.494054 -2.786490 0.837150 -0.308871 -0.733827 1.183327 -0.571408 0.471146 4.353348 0.954505 1.009531 2.222427 0.430042
eth_shiftreg/input_MdcEn_n -2.255054 -1.358542 0.424424 1.583159 1.829585 2.900724 -0.845225 0.685995 1.553681 2.683422 -0.222237 -2.465866 -4.605423 2.196542 0.015826 0.017892 0.701031 -0.394630 0.463569 -0.050794
eth_miim/always_7/block_1/if_1/block_2/if_1/cond 1.243808 -0.652046 0.821616 -3.352408 -2.005113 1.381390 0.155990 -2.316493 -0.464441 0.828466 1.746380 -1.041937 -2.021507 0.413020 -0.060340 -2.495607 0.556036 2.290523 -1.865161 2.043025
eth_rxstatem/reg_StateData0 -0.269801 1.139756 -0.255792 0.440478 -1.262998 -1.173621 0.576312 -0.621150 0.418477 1.469906 -0.155531 -0.057950 -0.627315 0.019344 -0.379209 0.004428 0.616588 0.397758 1.092657 1.220624
eth_miim/always_1 2.707721 -0.678674 4.161118 -2.996865 -0.362939 0.807469 2.812157 -0.228588 -0.755656 0.328693 1.346492 -0.127474 -0.043242 -1.967185 -0.526381 -1.773381 -0.326835 2.333302 -1.989354 -1.511164
eth_miim/input_ScanStat -2.734132 -0.335869 -0.634347 0.422749 1.762729 0.555463 -2.023204 1.014581 1.969784 -2.007382 0.370403 -0.185490 -2.407963 2.004389 0.748309 -1.896973 0.385390 -1.136738 -0.260284 0.936934
eth_miim/always_3 -0.109659 -0.995880 3.385321 -2.066231 1.610315 1.033766 1.359220 0.958392 0.884787 -1.364619 1.352815 -0.106838 -1.742250 0.210383 0.219996 -2.529913 0.219084 0.885642 -1.736817 -0.975815
eth_miim/always_4 -0.050603 -1.119578 3.421802 -2.138875 1.626489 1.137957 1.290447 0.990293 0.905134 -1.282660 1.332216 -0.176141 -1.751074 0.212769 0.248827 -2.478948 0.215269 0.844059 -1.703921 -1.000981
eth_miim/always_6 -0.175596 -0.161898 1.630323 -2.122790 0.445939 0.336210 -0.257742 0.225938 0.531111 -2.232282 1.315071 -0.039984 -1.472374 0.368042 0.613571 -2.766623 -0.087464 0.887798 -1.741039 0.481026
eth_miim/always_7 0.290424 0.279332 1.319015 -2.852625 -0.977570 -0.049477 0.193742 -0.918878 -0.688418 -1.426200 1.192226 -0.631191 -1.285523 1.038311 0.574324 -1.779697 0.589394 1.726549 -1.652619 1.795217
eth_maccontrol/assign_4_TxStartFrmOut/expr_1/expr_1 -0.257422 1.127010 -0.312590 0.478365 -1.278222 -1.132184 0.489366 -0.643447 0.458854 1.539097 -0.139383 -0.076584 -0.636819 -0.039103 -0.412271 -0.009587 0.606086 0.381922 1.149794 1.199551
eth_top/input_wb_dat_i 0.640036 1.879743 -0.429766 3.203549 -1.519915 -0.586553 3.176814 -1.471327 -2.818521 0.884806 -0.280515 -0.772439 1.150571 -0.545321 0.473278 4.378740 0.986078 1.029476 2.201753 0.391269
eth_top/assign_12_temp_wb_err_o/expr_1/expr_2/expr_1 -0.510289 0.274585 0.528189 -2.073937 -2.563436 -0.303662 0.079298 -0.912782 -0.355979 2.320647 -1.198034 -0.200570 0.107985 -0.122311 1.269973 1.012445 -1.315021 0.361369 -0.798593 0.884940
eth_top/assign_4_RegCs/expr_1/expr_1/expr_1/expr_1 -1.013930 -3.977972 -1.889795 -0.163500 0.992944 4.423394 -1.297323 -1.746057 3.083614 3.896055 1.543960 -0.514088 -3.371094 1.217341 -0.610327 -2.332956 1.130985 -1.138817 0.022341 0.558963
eth_shiftreg/input_ByteSelect -2.338255 -1.393730 0.331545 1.649663 1.953362 2.908133 -1.021415 0.796375 1.665842 2.527983 -0.275446 -2.439614 -4.598156 2.218516 0.055077 -0.048388 0.662424 -0.534253 0.429842 -0.033343
eth_wishbone/always_6/block_1/if_1/if_1/cond -0.250981 1.137947 -0.291327 0.479212 -1.215408 -1.112904 0.479572 -0.604831 0.460221 1.513646 -0.145739 -0.059298 -0.650601 -0.021126 -0.377631 -0.013548 0.559553 0.364529 1.112398 1.170856
check_ethernet/input_wb_cyc_i 0.579924 2.005201 -0.532894 3.316436 -1.547282 -0.631700 3.089981 -1.490813 -2.735582 0.828557 -0.319146 -0.724901 1.073870 -0.597077 0.433368 4.176719 0.972496 1.007075 2.169328 0.465274
eth_top/assign_2_RegCs/expr_1/expr_1 0.204591 -1.191215 0.212051 -0.938503 -0.349298 -0.010105 3.268096 -1.684416 -1.252707 2.044419 0.785651 0.340781 1.100933 1.744303 -0.648917 1.935320 2.743032 0.258702 0.609402 0.254454
eth_top/assign_6_BDCs/expr_1/expr_1/expr_1/expr_1 0.233049 -1.168174 0.164795 -0.880158 -0.270878 0.027274 3.120209 -1.594140 -1.134480 1.995705 0.754913 0.276709 1.029682 1.649183 -0.682168 1.904104 2.647193 0.208879 0.643958 0.216931
eth_wishbone/always_26/block_1/if_1 -0.278994 1.183990 -0.349110 0.476603 -1.280447 -1.135861 0.509054 -0.666973 0.499660 1.597003 -0.149250 -0.094560 -0.698093 -0.022277 -0.398195 -0.027604 0.626564 0.417025 1.134035 1.236225
eth_top/assign_12_temp_wb_err_o/expr_1/expr_1 -0.752324 0.260874 0.400559 -1.888274 -2.481214 -0.449086 0.214604 -0.855678 -0.476526 2.466647 -1.396825 -0.223048 0.233942 0.191879 1.319819 1.565346 -1.115341 0.215765 -0.561259 0.898488
eth_top/assign_22_Transmitting -0.226754 1.122539 -0.318157 0.484523 -1.220466 -1.124552 0.535079 -0.645671 0.446313 1.544118 -0.134880 -0.076238 -0.605260 -0.067739 -0.384708 0.073496 0.599634 0.362312 1.146896 1.140691
eth_txstatem/assign_4_StartData/expr_1/expr_2/expr_1 -0.223355 1.102775 -0.314009 0.468401 -1.244229 -1.130533 0.531033 -0.604131 0.452190 1.561030 -0.178014 -0.089546 -0.629039 -0.073029 -0.382378 0.035486 0.576441 0.360870 1.146229 1.117387
eth_txstatem/reg_StatePAD -0.244365 1.061307 -0.269710 0.466439 -1.183654 -1.065237 0.485036 -0.620531 0.494904 1.494495 -0.116230 -0.108283 -0.618633 -0.013545 -0.391964 -0.010463 0.591142 0.358115 1.092394 1.140340
eth_txstatem/assign_5_StartData -0.245908 1.144762 -0.329152 0.492951 -1.307905 -1.127714 0.509195 -0.638279 0.526417 1.646272 -0.155786 -0.088902 -0.665287 -0.059398 -0.421729 0.009051 0.581555 0.395961 1.184908 1.185687
eth_top/assign_6_BDCs/expr_1 0.198669 -1.154022 0.207028 -0.901116 -0.306933 -0.048253 3.242275 -1.649070 -1.220442 2.073415 0.766305 0.287051 1.122583 1.689889 -0.659795 2.003155 2.704610 0.240022 0.658837 0.243604
eth_shiftreg/always_1/block_1/if_1/block_2/if_1/block_1/if_1/block_1/case_1/cond -0.293280 -0.872061 -0.509192 0.729238 1.239828 1.646714 -2.259190 0.882534 1.909016 0.637908 -0.100986 -0.824353 -2.103554 -0.454803 0.175265 -1.158813 -0.939897 -0.630987 0.264471 -0.382336
eth_wishbone/always_6/block_1/if_1 -0.251906 1.103877 -0.253444 0.447447 -1.237817 -1.122226 0.555091 -0.627898 0.428400 1.483404 -0.109701 -0.073314 -0.610887 0.034607 -0.388727 0.002923 0.628642 0.389826 1.053472 1.157392
eth_miim/always_3/block_1/if_1/block_2/stmt_5 -1.738319 0.251085 -1.264377 0.099489 1.543883 -0.179327 -3.371640 1.375333 2.579289 -4.313035 0.757305 1.205151 -1.119752 0.006098 0.737619 -3.907568 -1.120110 -1.254216 -0.952110 0.624089
eth_top/input_md_pad_i -2.072304 -0.536377 0.879868 1.000382 0.805629 1.408645 1.242917 -0.042094 -0.178634 1.959605 -0.202260 -1.673622 -2.656319 2.630861 -0.105985 1.090967 1.567319 0.073692 0.217972 0.248432
eth_txstatem/assign_3_StartPreamble/expr_1 -0.312093 1.166948 -0.352326 0.476138 -1.284585 -1.201889 0.556146 -0.693938 0.477161 1.582402 -0.159440 -0.056566 -0.649348 0.021788 -0.400487 -0.016391 0.625444 0.411497 1.142424 1.266806
eth_wishbone/always_4/block_1 0.622191 -2.684092 -0.911879 0.113137 0.218903 2.394929 0.777876 -1.497461 1.035890 3.747790 0.689935 0.115125 -0.270295 -0.173012 -0.783803 0.335089 0.904525 -0.685009 0.670821 -0.605602
eth_top/always_1/block_1/if_1/block_2/stmt_1/expr_1 0.285637 -0.503662 2.432151 -3.828914 -0.772502 -2.509828 6.218394 -2.589323 -2.947352 1.069240 1.219626 1.056141 2.214899 3.345411 -0.078001 2.805870 4.322235 1.613531 -0.206970 0.850923
eth_wishbone/reg_TxStartFrm_wb -0.228484 1.100124 -0.292414 0.477774 -1.183342 -1.088428 0.483610 -0.616632 0.439122 1.479050 -0.162687 -0.050149 -0.570675 -0.057048 -0.387056 0.045824 0.561021 0.354604 1.075387 1.147529
eth_shiftreg/always_1/block_1/if_1/block_2/if_1/block_1/if_1/cond -2.276652 -1.367938 0.407077 1.591470 1.876524 2.902801 -0.895710 0.747849 1.623251 2.520369 -0.241859 -2.427264 -4.546161 2.180107 0.050675 -0.071374 0.651746 -0.463174 0.439629 -0.059062
eth_miim/always_1/block_1/if_1 2.689948 -0.691720 4.207844 -3.036114 -0.345298 0.788996 2.971206 -0.249029 -0.823938 0.304962 1.329066 -0.092891 0.008146 -1.919826 -0.509039 -1.722117 -0.301806 2.346568 -1.956521 -1.561988
eth_clockgen/always_1/block_1/if_1/block_1/if_1/block_1 -1.214598 3.082793 -0.067708 0.550709 0.225391 -0.589264 2.207578 -0.711909 -0.678495 -5.414317 2.943748 0.372004 -2.058908 1.454432 -1.602900 -0.543145 2.405724 2.734152 -0.442966 1.477224
eth_shiftreg/always_1/block_1/if_1/block_2/if_1/block_1 -2.219035 -1.290115 0.393503 1.484589 1.795764 2.762919 -0.821505 0.689938 1.482506 2.495945 -0.223188 -2.336283 -4.422938 2.156694 0.060148 -0.008907 0.697105 -0.400654 0.411677 -0.044435
eth_miim/always_4/block_1 -0.133357 -1.056209 3.353472 -2.041859 1.596535 1.159403 1.189704 0.926350 0.915998 -1.284431 1.320812 -0.202247 -1.874331 0.159917 0.181914 -2.616772 0.178331 0.887725 -1.743497 -0.941696
eth_clockgen/always_1/block_1/if_1/block_1/if_1/stmt_1 -2.025052 -0.466731 1.866489 -2.381671 -0.544215 -1.539433 2.942403 -1.423797 -2.075343 -2.225909 0.302150 0.874887 1.782232 3.113626 1.101641 -1.210729 2.423602 0.006986 -2.393485 1.623465
eth_top/always_1/block_1/if_1/block_2/stmt_3/expr_1 -1.266940 0.844505 2.370046 -3.115743 -1.459275 -2.558767 1.817458 0.218127 -1.504354 1.498293 -1.654880 -0.570554 1.571105 1.837684 1.915819 3.150402 1.334754 0.238406 -0.224643 1.761721
eth_wishbone/reg_WB_ACK_O 0.243051 -1.226045 0.181571 -0.918262 -0.255351 0.031202 3.169811 -1.608241 -1.125282 2.017726 0.774829 0.321910 1.094233 1.656212 -0.658165 1.909979 2.682341 0.226196 0.627658 0.178887
eth_transmitcontrol/always_1/block_1/if_1/if_1 -0.270317 1.156339 -0.321990 0.453848 -1.282180 -1.125879 0.536771 -0.663819 0.460353 1.521544 -0.163003 -0.093469 -0.612937 -0.018367 -0.397614 -0.007987 0.584523 0.377099 1.117283 1.174551
eth_top/assign_9_BDCs/expr_1/expr_1/expr_1/expr_1/expr_1 0.608042 -2.584724 -0.876092 0.062841 0.128033 2.298183 0.890051 -1.505911 0.916302 3.651844 0.706352 0.161929 -0.180063 -0.102689 -0.751482 0.308843 0.930473 -0.642212 0.608095 -0.573996
eth_outputcontrol/always_2/block_1/if_1/block_2/if_1/block_1/stmt_1 -5.379917 -0.435968 -0.043282 0.425081 2.096040 -0.824475 1.432749 0.991982 -0.246570 -1.514925 -1.071983 -1.015221 -0.803425 5.942316 0.709656 2.772854 3.753644 -1.528391 0.369936 1.859427
eth_miim/always_7/block_1/if_1/block_2/if_1/block_1/if_1/cond -0.134124 -0.117843 1.627364 -2.284762 0.267945 0.299586 -0.199184 0.094647 0.410695 -2.266049 1.319876 -0.045284 -1.439120 0.427943 0.624283 -2.779787 -0.028796 0.959580 -1.799709 0.669208
eth_outputcontrol/assign_1_SerialEn/expr_1/expr_2/expr_2 0.524158 -0.617609 -1.646526 -1.715946 -0.635336 -0.019599 -1.797736 -0.916235 1.156036 -1.935199 1.208550 1.446450 0.817973 -0.852862 0.051380 -3.017022 -0.511489 -0.294908 -1.052014 1.143573
eth_top/inst_miim1 -1.219397 0.973923 2.785890 -1.769405 0.267148 -1.472369 3.659362 0.387828 -2.066532 -0.743211 -0.055066 -0.731920 0.213144 2.808488 0.171797 1.670923 2.361312 1.444000 -0.931685 0.257102
eth_outputcontrol/assign_1_SerialEn/expr_1/expr_2/expr_1 0.561853 -0.580805 -1.619606 -1.783566 -0.689009 -0.033714 -1.733966 -1.001497 1.099461 -1.919546 1.233001 1.501261 0.878706 -0.862214 0.032123 -3.035013 -0.421024 -0.223585 -1.100258 1.172503
eth_txethmac/always_13/block_1/if_1/stmt_2/expr_1 -0.222641 1.100098 -0.296597 0.484445 -1.245588 -1.125460 0.543029 -0.657153 0.437622 1.576394 -0.152354 -0.061809 -0.610408 -0.023754 -0.416800 0.019470 0.595245 0.367137 1.151749 1.190305
eth_wishbone/always_30 -0.257292 1.125918 -0.333499 0.487474 -1.234252 -1.135709 0.506645 -0.649017 0.456506 1.499418 -0.126463 -0.086966 -0.609163 -0.011039 -0.372644 0.008392 0.569083 0.404720 1.113331 1.161039
eth_rxstatem/wire_StartSFD -0.220519 1.041519 -0.327552 0.443624 -1.187415 -1.067325 0.475916 -0.628137 0.468757 1.489000 -0.151752 -0.064663 -0.598074 -0.048639 -0.380778 0.002053 0.564260 0.348894 1.087755 1.113851
eth_txstatem/always_1/block_1/if_1/block_2/stmt_1 -0.208072 1.036660 -0.329838 0.465025 -1.196806 -1.053416 0.453600 -0.602201 0.501468 1.557572 -0.124827 -0.081874 -0.658615 -0.090115 -0.429964 0.014959 0.560435 0.353737 1.107092 1.099466
eth_miim/always_6/block_1/if_1/block_2/if_1/block_1 -0.144991 -1.033946 3.338708 -1.881463 1.707034 1.164078 1.257826 1.021164 1.091502 -1.256126 1.338910 -0.151013 -1.909074 0.102921 0.159481 -2.625752 0.165521 0.830983 -1.644913 -1.055575
eth_wishbone/always_6/block_1 -0.253436 1.134234 -0.285702 0.403896 -1.263969 -1.115661 0.544464 -0.629289 0.431511 1.456119 -0.149444 -0.055113 -0.630071 0.006576 -0.389409 -0.032855 0.628201 0.399784 1.061297 1.209778
eth_registers/assign_110_r_WCtrlData -2.719120 -0.406243 -0.580971 0.311360 1.678035 0.623868 -1.818598 0.873174 1.904200 -1.843513 0.467142 -0.184225 -2.455313 2.088110 0.687794 -1.919195 0.464542 -1.032215 -0.267100 0.952178
eth_wishbone/always_1/block_1/stmt_1/expr_1/expr_1/expr_1/expr_1 0.263410 -1.365318 0.141448 -0.898995 -0.276973 0.193816 3.180464 -1.656965 -1.087369 2.294661 0.780149 0.277509 1.026251 1.650017 -0.694643 1.954252 2.697420 0.200288 0.684617 0.186520
eth_top/assign_7_BDCs/expr_1/expr_1/expr_1/expr_1 0.236064 -1.282213 0.174022 -0.909051 -0.295887 0.101980 3.207689 -1.661334 -1.143245 2.083138 0.818319 0.327244 1.053271 1.666497 -0.692896 1.888955 2.685446 0.222836 0.618107 0.234891
eth_top/assign_8_BDCs/expr_1 0.248334 -1.263001 0.186874 -0.927006 -0.329812 0.034052 3.303681 -1.682932 -1.196345 2.160754 0.761526 0.313436 1.140498 1.673718 -0.681493 2.049503 2.736763 0.239817 0.680156 0.218969
eth_miim/always_8/block_1/if_1 -1.447592 -1.374880 -0.631778 -3.302554 0.097678 -0.570396 -0.918790 -0.291293 -0.545065 -0.621628 -0.690842 -0.792414 0.852099 3.490249 1.036895 1.719788 2.089349 -0.576982 -0.565820 2.312339
eth_top/assign_15_wb_err_o -1.250881 0.822698 2.403471 -3.171166 -1.387215 -2.529879 1.846626 0.180889 -1.483853 1.457310 -1.558778 -0.532626 1.578345 1.870953 1.880298 3.074054 1.454527 0.209234 -0.185724 1.797639
eth_shiftreg/always_1/block_1/if_1/block_2/if_1/block_1/if_1/block_1/case_1 -0.389635 -0.950296 -0.586373 0.833719 1.355841 1.793268 -2.480832 1.003855 2.104669 0.627687 -0.135213 -0.851247 -2.174248 -0.470054 0.164970 -1.264315 -0.972800 -0.709332 0.260194 -0.439292
eth_top/wire_temp_wb_dat_o 0.553054 2.518425 0.980099 -1.665177 -3.944644 -2.959878 4.124022 -2.994091 -5.056493 -0.012376 0.927525 2.074819 1.694886 2.310788 1.585961 3.649496 0.412758 1.383949 -0.051885 0.832188
eth_wishbone/always_4 0.539047 -2.662014 -0.883570 0.057913 0.200500 2.377359 0.800307 -1.494155 1.026324 3.664073 0.732450 0.133286 -0.270296 -0.073939 -0.749426 0.252422 0.950829 -0.672845 0.577403 -0.552255
eth_wishbone/always_6 -0.237109 1.140152 -0.320789 0.501638 -1.278193 -1.138758 0.499939 -0.631447 0.506410 1.581229 -0.159722 -0.056822 -0.615037 -0.034427 -0.425389 0.033704 0.594812 0.397234 1.157735 1.191997
eth_wishbone/always_1 0.217617 -1.259427 0.201679 -0.974364 -0.320001 0.015617 3.279105 -1.697811 -1.199836 2.110106 0.805976 0.305729 1.084648 1.675091 -0.684248 1.904937 2.757499 0.242263 0.600920 0.206752
eth_txstatem/always_1 -0.279328 1.113446 -0.278574 0.418848 -1.193500 -1.134444 0.512133 -0.615044 0.450613 1.395602 -0.112525 -0.050047 -0.609045 0.064723 -0.352167 -0.046372 0.586194 0.399573 1.031721 1.184457
eth_top/wire_ByteSelected -0.615676 2.111040 1.084740 -2.771549 -4.812498 -2.572820 3.155749 -2.818898 -4.456647 1.288087 -0.574200 1.595835 1.784122 1.987218 2.945970 4.325284 -0.807931 0.890737 -0.737227 1.340385
eth_wishbone/always_2 0.620631 -2.744115 -0.927648 0.061333 0.175866 2.448070 0.777241 -1.533553 1.040784 3.762240 0.717278 0.156720 -0.264276 -0.153433 -0.785814 0.229193 0.898863 -0.663368 0.616286 -0.587539
eth_registers/assign_41_MIICOMMAND_Wr/expr_1 -2.660035 -0.239758 -0.616566 0.284676 1.602355 0.333229 -1.780826 0.905110 1.758377 -2.140715 0.414221 -0.017972 -2.207386 2.013607 0.759623 -1.857099 0.458852 -1.048269 -0.303904 0.986809
eth_top/assign_3_RegCs/expr_1/expr_1 0.192711 -1.217318 0.217857 -0.885939 -0.244411 0.037881 3.191499 -1.551424 -1.158933 1.998899 0.741080 0.294891 1.072424 1.654006 -0.676323 1.929306 2.663297 0.235133 0.645963 0.190783
eth_registers/wire_MIIMODEROut -3.287441 1.595077 2.380446 -1.662094 0.396640 -0.561783 3.583030 -0.261580 -0.388950 -6.256636 2.269035 1.274918 -0.129975 1.768569 -1.859969 -4.516977 2.529451 1.708262 -4.424088 1.101184
eth_miim/wire_MdoEn 3.437943 -0.064084 0.719247 -5.787326 -3.689000 -0.628139 0.744649 -3.252951 -1.795262 -1.367761 2.268061 0.851810 1.564783 -1.238578 0.044728 -3.094593 0.165264 2.941348 -2.784768 2.499060
eth_outputcontrol/always_1/block_1/if_1/block_2/if_1/cond 3.352668 -0.033564 0.669975 -5.632605 -3.540599 -0.640464 0.662754 -3.141222 -1.593161 -1.508493 2.300882 0.959523 1.608428 -1.323764 0.017481 -3.259130 0.084054 2.808799 -2.770265 2.412357
eth_top/assign_12_temp_wb_err_o/expr_1/expr_2 -0.556893 0.222361 0.431221 -1.931681 -2.489698 -0.373377 0.070765 -0.894536 -0.347044 2.409617 -1.236786 -0.123629 0.147435 -0.070425 1.249048 1.124356 -1.256256 0.244111 -0.667991 0.839267
eth_register/input_SyncReset -7.825194 6.902770 3.371694 1.592302 -1.641835 -5.764913 0.974499 1.592934 3.096228 -1.538276 0.677572 6.569334 -4.689944 2.136250 2.661714 -5.142074 -3.810541 -2.762663 -1.925810 -1.125310
eth_outputcontrol/wire_SerialEn -3.791537 -0.041176 -1.829425 -1.670043 0.117171 -3.067735 0.774028 -0.272528 -0.557346 -3.084485 -0.649986 1.557018 2.971134 4.522892 0.862973 1.530877 3.181666 -1.861496 -0.066882 2.863219
eth_register/always_1/block_1/if_1 -1.136720 4.208591 -1.848912 2.341117 -2.879178 -3.607977 0.353876 -0.480640 -2.777240 -1.803236 -0.675127 -1.087743 -0.518082 0.494712 -1.388423 -2.291082 -0.919434 1.809874 -0.554666 3.088516
eth_shiftreg/always_1/block_1/if_1/block_2/if_1/block_1/if_1/block_2 -2.358277 -1.364656 0.382033 1.653562 1.933281 2.955073 -0.950697 0.780367 1.634060 2.624488 -0.265619 -2.483056 -4.668984 2.239309 0.029655 -0.047477 0.705718 -0.486909 0.455119 -0.085309
eth_shiftreg/always_1/block_1/if_1/block_2/if_1/block_1/if_1/block_1 -0.329277 -0.882164 -0.498684 0.778359 1.252221 1.637260 -2.236188 0.871075 1.900654 0.663816 -0.122104 -0.858938 -2.091728 -0.384161 0.151425 -1.131127 -0.915632 -0.607817 0.295754 -0.358197
eth_top/assign_11_temp_wb_dat_o/expr_1/expr_1/expr_2 0.445243 2.424047 0.951824 -1.448377 -3.837401 -2.892876 4.207812 -2.936049 -5.078723 0.216263 0.842715 2.007570 1.721711 2.387710 1.556656 3.859741 0.501570 1.293152 0.116563 0.769025
eth_miim/assign_3_ScanStatusOp/expr_1 -2.683791 -0.361707 -0.669177 0.358739 1.649474 0.495671 -1.834585 0.920340 1.825265 -1.925327 0.391521 -0.098312 -2.299660 2.080024 0.693858 -1.789111 0.459326 -1.081209 -0.224248 0.989607
eth_wishbone/always_1/block_1/stmt_1/expr_1/expr_2 0.194223 -1.208162 0.145927 -0.889169 -0.315471 0.030941 3.167690 -1.668585 -1.119488 2.035707 0.811435 0.323483 1.042770 1.691478 -0.671601 1.817973 2.692877 0.228074 0.576665 0.270237
eth_wishbone/always_1/block_1/stmt_1/expr_1/expr_1 0.176221 -1.254339 0.209085 -0.928749 -0.288950 0.057397 3.228649 -1.638224 -1.160919 2.075404 0.755004 0.310600 1.039407 1.694586 -0.646044 1.936077 2.720032 0.208306 0.628987 0.219355
eth_rxstatem/always_1/block_1/if_1/block_2/if_1/cond/expr_1 -0.291273 1.147548 -0.294238 0.415991 -1.233364 -1.121624 0.514041 -0.651034 0.448245 1.468210 -0.128096 -0.099385 -0.618394 0.018752 -0.372930 -0.007505 0.605365 0.396641 1.068762 1.193205
eth_top/wire_md_pad_o -1.761143 1.555174 1.853295 -0.959943 -0.313720 -0.568250 2.785866 0.054413 -2.287273 -0.891218 -0.435318 -1.064811 -0.631675 3.624208 -0.003024 2.531533 2.276951 1.636345 -0.802038 1.075490
eth_outputcontrol/always_2/block_1/if_1/block_2/if_1/block_1 -5.514225 -0.573596 -0.087546 0.270582 2.012860 -0.736015 1.420382 0.803061 -0.397832 -1.399976 -1.123393 -1.111504 -0.841091 6.293168 0.842192 2.775629 3.900027 -1.592232 0.288495 2.063226
eth_txstatem/assign_6_StartPAD -0.249657 1.159568 -0.335838 0.498038 -1.238523 -1.159371 0.526051 -0.635182 0.404830 1.512511 -0.150070 -0.058067 -0.582576 -0.011076 -0.377416 0.040554 0.560102 0.382688 1.129107 1.157853
check_ethernet/always_1/if_1/cond 1.416522 0.600198 1.039394 1.475338 -1.179450 0.473128 2.973686 -1.469361 -2.281836 1.776392 -0.094080 -0.991149 0.796645 -0.771950 1.064993 3.946223 0.820903 1.088992 1.601523 -0.201427
eth_miim/always_7/block_1/if_1/block_2/if_1 0.458318 0.085443 1.421928 -3.031029 -1.002846 -0.020729 0.345891 -0.979739 -0.767802 -1.275168 1.181566 -0.607595 -1.107098 1.002176 0.529188 -1.640508 0.633825 1.712627 -1.630170 1.656638
eth_rxstatem/assign_2_StartPreamble/expr_1/expr_2 -0.245321 1.135067 -0.321794 0.454007 -1.285286 -1.148176 0.528368 -0.673391 0.440985 1.533076 -0.154967 -0.077157 -0.633367 0.013157 -0.395466 0.024631 0.591161 0.422346 1.116899 1.231960
eth_top/assign_1_ByteSelected -0.589459 2.233514 0.985961 -2.671656 -4.815560 -2.714004 3.112449 -2.789033 -4.479860 1.122492 -0.548486 1.601006 1.800552 1.992440 2.950496 4.391570 -0.847972 0.881318 -0.639105 1.314791
eth_registers/assign_13_MIICOMMAND_Sel -1.324587 1.236132 0.175429 0.874816 1.104506 -1.847249 -0.161773 1.578373 -0.153625 -2.854819 -0.636089 0.663979 0.937785 0.731756 0.723629 0.800724 0.006189 -0.797030 0.389629 -0.227839
eth_transmitcontrol -0.263548 1.181458 -0.348422 0.489601 -1.284009 -1.168090 0.536518 -0.648963 0.459957 1.534498 -0.144500 -0.055043 -0.653752 -0.019944 -0.382853 0.034647 0.599007 0.398726 1.138181 1.229473
eth_wishbone/always_2/block_1/if_1/if_1/cond/expr_1 0.585376 -2.688290 -0.920305 0.019060 0.139390 2.372120 0.810090 -1.512802 0.965410 3.677225 0.708853 0.154880 -0.270240 -0.118544 -0.797321 0.265153 0.934862 -0.615037 0.576368 -0.563000
eth_miim/always_1/block_1/if_1/block_1/stmt_1 2.672153 -0.522544 4.163988 -2.960530 -0.440345 0.623907 3.007946 -0.285221 -0.852521 0.230636 1.329075 -0.061289 0.049263 -1.964257 -0.509447 -1.720548 -0.320756 2.398688 -1.971342 -1.476542
eth_outputcontrol/always_2/block_1/if_1/block_2/if_1/block_1/stmt_1/expr_1 -5.417375 -0.642667 -0.042422 0.279511 2.159554 -0.599336 1.388570 0.863824 -0.290515 -1.589429 -0.974283 -1.105350 -0.875851 6.112163 0.772639 2.712835 3.865853 -1.507795 0.270561 1.972049
eth_clockgen/always_1/block_1/if_1/block_1/if_1 -1.897797 -0.573989 1.729899 -2.186146 -0.448479 -1.373115 2.710186 -1.353369 -1.964813 -1.978840 0.275416 0.836862 1.707829 2.862164 1.041938 -1.357116 2.245302 -0.059062 -2.299970 1.479310
eth_miim/wire_MdcEn 1.420360 -0.654367 0.972484 -3.619033 -2.024163 1.459967 0.161451 -2.320934 -0.502997 0.609243 1.855115 -1.009526 -2.008656 0.233554 -0.048640 -2.815280 0.491520 2.412208 -2.116677 2.040343
eth_top/assign_22_Transmitting/expr_1 -0.226431 1.130521 -0.291547 0.451521 -1.259247 -1.148960 0.538369 -0.663480 0.474655 1.560231 -0.151057 -0.091908 -0.625041 -0.026594 -0.418787 0.007258 0.588253 0.409593 1.159132 1.197539
eth_clockgen/reg_Counter -1.248936 0.337195 1.272837 -0.271929 -0.545118 -0.983238 2.104978 -0.773740 -1.990569 -1.267885 -0.001943 0.047434 0.953303 2.219806 0.670131 -0.180656 1.772291 0.235018 -0.952473 0.996618
eth_rxstatem/always_1/block_1 -0.245467 1.065961 -0.318292 0.431637 -1.222178 -1.080407 0.508376 -0.635703 0.477799 1.565768 -0.160990 -0.082855 -0.633068 -0.011827 -0.432244 -0.001498 0.597853 0.367042 1.140023 1.146502
