eth_miim/assign_7_ByteSelect 2.153178 -0.560565 -0.154799 -1.087715 -0.330865 1.642464 0.463786 2.345768 2.370149 1.001646 -2.639679 -1.828134 -3.864604 0.289145 1.798323 -0.454289 -0.040270 -2.422640 -2.218669 1.126312
eth_top/input_wb_adr_i 2.284606 3.274749 -0.656135 -0.709333 0.480348 -0.362750 -4.365108 1.626884 -2.886224 -3.766603 3.137808 -0.449854 1.048107 -1.454571 -0.736233 -2.212725 1.084084 4.096363 2.119759 4.957601
eth_outputcontrol/always_2/block_1/if_1/block_2 -1.622827 3.469670 0.845489 -1.702302 -1.729149 -0.993711 0.205684 0.194750 0.279643 -2.211719 -0.120984 -1.137158 0.450375 1.601230 1.970207 0.328208 0.146510 0.201842 -1.923608 4.754051
eth_outputcontrol/always_2/block_1/if_1/block_1 -1.311951 4.158239 0.647451 -2.740377 -4.089113 0.457662 0.097069 0.171556 -0.574272 -1.697000 0.118656 -2.549765 0.624644 1.608903 0.962688 0.555118 -0.639901 1.955149 -2.322301 3.371712
eth_miim/assign_4_StartOp -1.056643 -1.686987 1.745396 0.010218 1.598578 -0.875788 -1.087459 1.029305 -1.471127 -1.135051 1.199395 0.379038 -2.643837 1.919404 0.310080 0.120296 0.524973 1.105387 -0.598333 0.124205
eth_top/assign_14_wb_dat_o -2.793553 5.680311 0.590863 -1.117724 -3.590694 -3.641947 -0.459429 -3.111459 -1.352813 -1.682195 0.326223 -0.580131 3.057509 0.924168 1.874476 0.297489 0.309767 2.141666 -0.818524 3.867335
eth_outputcontrol/reg_MdoEn_2d -1.254925 -1.538593 0.860692 -0.641742 0.286450 -0.638668 -2.854110 -1.218185 -4.432220 -1.522398 3.542152 2.414927 -0.398522 2.975507 -2.673669 -3.241860 1.789721 5.194889 0.660907 -0.292699
eth_top/assign_8_BDCs/expr_1/expr_1 -0.138267 1.780305 -0.056064 -1.881317 -2.258469 -0.269863 0.663486 0.100558 -1.197350 1.288668 0.471701 0.181639 0.814337 0.045083 0.739930 -2.455255 -0.863453 0.149573 0.767523 2.593943
eth_miim/always_4/block_1/if_1/block_2/if_1 -1.070856 -1.459840 2.443031 -0.576482 0.923947 -0.730362 -0.126743 1.993415 -2.261471 -0.445092 1.198899 -0.214747 -3.741861 1.191083 0.858710 0.335298 -1.480616 0.549166 -0.722906 0.547903
eth_register/always_1/block_1/if_1/if_1/if_1/cond -1.686860 2.113057 2.639631 2.465339 3.062065 -2.756321 -0.684874 -1.833834 1.786676 -6.494621 -4.437092 1.501064 3.808743 0.515067 -2.214344 -0.073893 4.145073 0.488949 -1.176459 1.582602
eth_miim/assign_3_ScanStatusOp/expr_1/expr_1 0.134969 -1.901693 0.818493 0.425178 2.660894 -0.724974 -0.132853 1.913407 1.948209 -0.424484 -1.091369 -0.167301 -1.972347 1.401703 1.659377 0.635777 1.766287 -2.446526 -0.610811 0.902267
eth_miim/assign_3_ScanStatusOp/expr_1/expr_2 1.751656 -2.918458 0.000995 -0.401470 1.856129 1.007462 -0.566925 2.320146 1.341415 0.752997 -1.116469 0.033704 -3.632175 1.569460 0.629349 -1.736452 1.433148 -1.875908 -0.940006 0.383351
eth_top/inst_check_eth_top 1.264372 4.402259 -0.444897 0.012556 -2.599170 0.345690 0.450833 -1.868557 0.474272 -2.007072 -1.352339 -0.334771 2.774583 -3.333578 0.098383 -0.761241 -0.840357 1.338902 -0.235666 1.954220
eth_miim/wire_MdcEn_n -1.175384 1.578928 0.703812 -2.016108 -1.199318 0.440972 -0.010793 1.309174 0.156381 -2.052333 1.328669 -2.478643 0.313997 2.503943 0.606523 0.908902 0.119280 0.051065 -2.342692 3.086788
eth_wishbone/reg_TxEn_needed 1.665124 -0.346627 -0.917781 -1.436957 -1.642423 1.445360 0.962371 0.664664 -0.460483 2.846501 0.222783 0.377795 -0.928442 -0.670263 0.263634 -2.945460 -1.566662 -1.011477 0.597998 0.883892
eth_top/always_4/block_1 0.143660 0.693759 0.208029 -0.659177 -1.015595 -0.272785 0.134739 -0.159515 0.305290 -0.030055 -2.052793 0.553221 0.839323 -0.082895 -0.961446 -1.023918 0.956321 0.421403 0.508609 -0.095322
eth_register/reg_DataOut -0.759525 0.736278 0.358542 1.386473 0.445895 -3.167490 -1.265094 -1.567752 -0.111740 -4.508201 -4.443357 -0.500764 2.335485 0.110816 -1.737784 -0.978129 2.160240 1.752485 -2.339094 -0.435683
eth_registers/wire_r_MiiNoPre 1.648030 -2.897721 0.048732 -0.440222 1.829385 0.919863 -0.612023 2.260842 1.223307 0.709238 -1.082253 0.082793 -3.580175 1.616866 0.599549 -1.793247 1.459452 -1.766378 -0.947183 0.435139
eth_top/always_4 0.180600 0.688967 0.179570 -0.680869 -1.034120 -0.266463 0.155833 -0.154678 0.290419 -0.013946 -2.039215 0.553176 0.856418 -0.093236 -0.964375 -0.995144 0.928662 0.442672 0.511069 -0.087804
eth_wishbone/always_26/block_1/if_1/stmt_2 0.168688 0.658804 0.216515 -0.730402 -1.056129 -0.274808 0.163807 -0.108456 0.303113 -0.018012 -2.066913 0.524369 0.816418 -0.063425 -0.945293 -1.087024 0.957020 0.421192 0.524312 -0.059263
eth_txstatem/reg_StateFCS 0.064385 0.726297 0.246972 -0.655014 -1.006825 -0.346234 0.155332 -0.196116 0.261327 -0.116206 -1.981972 0.548964 0.868851 -0.003524 -0.900503 -0.989734 0.978552 0.471379 0.466848 -0.030008
eth_outputcontrol/reg_MdoEn_d -1.244371 -1.499042 0.869659 -0.761031 0.187927 -0.584343 -2.890164 -1.101822 -4.462543 -1.514012 3.647541 2.308675 -0.491892 3.099086 -2.591191 -3.251664 1.762355 5.164933 0.606074 -0.206885
eth_txethmac/always_13/block_1/if_1/stmt_2 0.176134 0.676188 0.200077 -0.735829 -1.072647 -0.263206 0.143274 -0.131502 0.308274 -0.039869 -2.157329 0.579939 0.876744 -0.038149 -0.998092 -1.137487 0.992167 0.461023 0.506271 -0.072065
eth_miim/always_6/block_1/if_1 -0.984131 -1.759051 1.612348 -0.002684 1.641629 -0.791363 -1.137732 0.983692 -1.411181 -1.088304 1.267978 0.411220 -2.524797 1.928445 0.231126 0.097675 0.705837 1.135580 -0.483012 -0.015236
eth_miim/always_4/block_1/if_1/block_2/if_1/block_2/if_2/cond -0.458362 -4.070693 0.899311 2.222151 5.254421 -1.252589 -0.682857 1.615762 1.381877 -0.829979 0.019682 1.137974 -1.596746 1.250164 0.314632 1.845482 2.135022 -2.186370 0.652649 -1.671643
eth_registers/input_Rw -1.827581 0.055099 1.075078 2.374962 2.165634 -3.518142 -0.881032 -3.846275 1.312827 -1.505792 -2.210432 4.014304 -0.970936 0.539475 -0.182594 1.912818 3.407629 1.168034 0.854168 -2.098218
eth_wishbone/reg_TxBDReady 0.276640 0.642685 0.101279 -0.675801 -1.082734 -0.208277 0.170505 -0.134734 0.341668 0.105450 -2.136813 0.519801 0.842528 -0.164130 -0.983399 -1.064379 0.928798 0.385818 0.542433 -0.204678
eth_rxstatem/assign_1_StartIdle/expr_1/expr_2/expr_1/expr_1 0.180852 0.701439 0.194243 -0.695399 -1.037908 -0.264930 0.173911 -0.158697 0.301101 -0.000511 -2.069623 0.562823 0.864680 -0.071086 -0.950690 -1.038598 0.964485 0.459905 0.533336 -0.088160
eth_outputcontrol/reg_MdoEn -1.214202 -1.517577 0.837620 -0.706354 0.295341 -0.596545 -2.910245 -1.157824 -4.375807 -1.523368 3.622523 2.363607 -0.387216 3.098239 -2.609646 -3.236527 1.931518 5.177948 0.624133 -0.226254
eth_register/always_1/block_1 -0.601540 0.360421 0.289800 1.465868 0.631667 -3.032991 -1.359684 -1.561128 -0.002449 -4.497771 -4.353466 -0.433243 2.359552 0.258404 -1.803252 -1.105860 2.496767 1.737263 -2.313815 -0.587693
eth_top/assign_16_temp_wb_ack_o/expr_1/expr_1 -0.181067 1.775161 -0.018182 -1.829877 -2.169406 -0.331983 0.613979 0.049826 -1.180571 1.174643 0.376503 0.193089 0.903851 0.100367 0.695518 -2.429046 -0.725232 0.211234 0.786723 2.593523
eth_top/reg_temp_wb_dat_o_reg -2.731162 5.590602 0.620047 -0.953697 -3.272933 -3.500089 -0.477098 -3.031435 -1.255048 -1.764029 0.341645 -0.540683 2.990353 0.933787 1.769801 0.418242 0.299797 1.994769 -0.833311 3.759073
eth_miim/reg_RStatStart_q1 -0.572656 -3.819965 0.295485 2.599779 5.585993 -1.554927 -1.618511 0.354884 2.167143 -1.764889 -0.263815 1.783147 -0.368819 2.093632 -0.215945 1.285863 4.296393 -1.420205 0.634871 -1.789798
eth_miim/always_4/block_1/if_1/block_2/if_1/block_2 -0.994176 -1.511156 2.370839 -0.552378 0.865014 -0.651976 -0.162113 2.028672 -2.330690 -0.297079 1.269755 -0.232851 -3.747621 1.121986 0.856040 0.430011 -1.551824 0.583235 -0.705938 0.448273
eth_clockgen/input_Divider -5.714212 -0.399608 5.163866 0.086283 3.738175 -2.646533 -0.512530 1.355886 -2.295459 -4.288194 1.225895 1.468269 -1.220510 3.523584 -0.962384 -0.633075 -0.251460 -0.006420 -1.454585 2.960664
eth_wishbone/always_1/block_1/stmt_1 -0.231595 1.799778 0.055157 -1.895820 -2.235720 -0.366304 0.621783 0.068455 -1.189418 1.126615 0.446511 0.152294 0.904684 0.122718 0.736451 -2.401603 -0.778056 0.225409 0.758108 2.613292
eth_top/inst_rxethmac1 0.183847 0.703216 0.185479 -0.724569 -1.111253 -0.244014 0.141564 -0.149641 0.298789 0.014553 -2.197624 0.566968 0.912748 -0.085910 -1.030669 -1.161042 1.023570 0.478435 0.562641 -0.106951
check_ethernet/reg_wb_wr_dat 1.317806 4.505447 -0.420018 -0.019327 -2.680255 0.401128 0.466639 -1.859586 0.481015 -2.076833 -1.345087 -0.420781 2.743619 -3.409011 0.209841 -0.691840 -0.935702 1.388736 -0.292590 2.044858
eth_miim/reg_RStatStart -0.594968 -3.866232 0.949305 2.190811 5.174942 -1.342709 -0.612306 1.530766 1.441043 -0.916690 -0.017830 1.130939 -1.364802 1.243287 0.438212 1.866859 2.160723 -2.211254 0.626429 -1.499855
eth_outputcontrol/always_1/block_1/if_1/block_2/if_1 -1.292145 -1.510929 0.883246 -0.583546 0.398461 -0.736291 -2.943134 -1.272268 -4.375566 -1.666396 3.485348 2.497594 -0.286954 3.070140 -2.694583 -3.236480 1.984082 5.207716 0.640180 -0.305952
eth_registers/wire_r_ScanStat 0.078673 -1.867694 0.773190 0.397071 2.634026 -0.735024 -0.072236 1.878831 1.927868 -0.376364 -1.058338 -0.157101 -1.857827 1.394194 1.657543 0.652054 1.812884 -2.447387 -0.507298 0.928015
eth_txstatem/assign_3_StartPreamble/expr_1/expr_1 0.102800 0.686281 0.224325 -0.693868 -1.020901 -0.319565 0.153185 -0.161322 0.262580 -0.039662 -2.013783 0.525252 0.852678 -0.031601 -0.916562 -1.054898 0.966618 0.456836 0.501206 -0.039606
eth_top/assign_7_BDCs/expr_1/expr_1/expr_1/expr_1/expr_1 1.649634 -0.339663 -0.954858 -1.438819 -1.583072 1.429666 0.933140 0.664829 -0.449044 2.832445 0.211742 0.382217 -0.938555 -0.684614 0.211176 -2.975037 -1.572182 -1.012867 0.586016 0.854831
eth_miim/always_8/block_1/if_1/block_1/if_1/block_1/if_1/cond 0.173577 -1.881114 0.678948 0.407888 2.649252 -0.704933 -0.053634 1.913419 2.107053 -0.306290 -1.117755 -0.218646 -1.752705 1.343956 1.708890 0.764566 1.842767 -2.641565 -0.530184 0.929101
eth_top/assign_2_RegCs/expr_1/expr_1/expr_1/expr_1/expr_1 1.693854 -0.398962 -0.946701 -1.486689 -1.640046 1.485331 0.920193 0.708110 -0.511804 2.910286 0.204225 0.408357 -0.975263 -0.665208 0.245541 -3.052320 -1.615745 -1.048033 0.609902 0.868419
eth_top/assign_5_RegCs -2.134899 -0.527175 2.457403 -0.512803 2.185240 -1.368296 0.354423 0.469308 -0.840057 -1.185789 0.717250 1.926848 -0.499759 3.322343 1.105150 -4.497550 0.663366 -2.476159 -0.978573 5.325140
eth_outputcontrol/always_2/block_1 -1.829896 3.206917 0.932627 -1.835002 -1.848152 -0.611065 -0.119438 -0.011137 -0.309847 -2.221730 0.145127 -0.595476 0.040490 1.900952 0.890241 0.402947 0.192891 1.326008 -1.837276 3.732533
eth_wishbone/always_27/block_1/if_1/stmt_2 0.181613 0.645872 0.183683 -0.708671 -1.030897 -0.270341 0.140608 -0.150680 0.314690 0.018565 -2.106890 0.542377 0.861030 -0.065024 -0.983133 -1.073568 0.964558 0.436627 0.538294 -0.124689
eth_miim/assign_1_WriteDataOp -0.985289 -1.349384 2.412323 -0.635136 0.731992 -0.681409 -0.090843 2.048737 -2.244778 -0.299795 1.146989 -0.321490 -3.717445 1.068063 0.925941 0.383994 -1.556680 0.543028 -0.737835 0.555305
eth_miim/always_8 -0.776523 0.323541 -0.722729 -1.951156 -0.345187 -0.178527 -0.548559 0.500861 1.724219 0.023920 1.715299 -0.763069 1.495006 3.497927 1.497632 -0.358216 3.481497 -0.376516 -0.311998 3.071339
eth_miim/inst_outctrl -1.503493 2.479755 0.134992 -1.686459 -1.421989 -0.034338 -0.087027 0.088801 0.012851 -1.736691 0.282887 -0.556421 0.723372 1.720349 -0.161797 0.677525 0.383205 1.167399 -1.252901 2.345282
eth_wishbone/always_1/block_1 -0.196135 1.863437 0.019101 -1.887127 -2.261745 -0.346467 0.623502 0.045691 -1.220769 1.156722 0.443885 0.223937 0.914847 0.130277 0.756669 -2.505152 -0.734113 0.204035 0.742899 2.712471
eth_top/assign_9_BDCs -0.258242 1.944159 0.033981 -1.894900 -2.302829 -0.419814 0.629051 -0.017721 -1.189911 1.123048 0.406518 0.169008 1.026606 0.093230 0.753832 -2.364520 -0.751141 0.223442 0.762311 2.683345
eth_miim/assign_1_WriteDataOp/expr_1/expr_1 -0.277024 -4.030489 2.061545 0.142774 2.146301 0.288034 -1.144965 2.013687 -3.790835 0.098362 2.205903 1.213980 -4.969882 1.170874 -1.423258 -0.957700 -1.689063 1.796412 -0.093760 -2.129811
eth_outputcontrol/always_2/block_1/if_1 -1.813264 3.162526 0.876456 -1.847805 -1.796431 -0.462836 -0.097727 0.039930 -0.299120 -2.194507 0.296108 -0.619429 0.255297 1.967325 0.913109 0.261429 0.180431 1.187123 -1.826852 3.916952
eth_txethmac 0.166634 0.696199 0.168795 -0.706474 -1.055327 -0.246890 0.188720 -0.175546 0.272774 -0.024806 -2.079365 0.563346 0.849285 -0.091310 -0.976933 -1.092771 0.970076 0.448361 0.501613 -0.088746
eth_miim/reg_InProgress -0.665794 -0.841971 1.064912 -0.731876 0.437235 -0.455171 -1.731412 0.393480 -1.543730 -1.324187 1.354499 0.249328 -1.913826 2.597278 -0.045094 -0.967048 1.626666 2.268286 -0.821154 0.819993
eth_miim/always_7/block_1/if_1/block_2/if_1/block_1/if_1/block_2/if_1/cond 2.468675 -4.290314 0.030477 -1.737399 0.727089 2.718039 -1.792767 3.246902 -1.213144 1.340694 1.611231 -0.817259 -6.036247 3.181084 0.117718 -2.734709 0.723824 0.537776 -1.766914 0.071443
eth_wishbone/reg_WbEn 1.055831 -0.309163 -0.659172 -0.702525 -0.880714 0.999651 0.558746 0.432520 -0.199878 1.743765 0.202478 0.096494 -0.616489 -0.555203 0.174592 -1.434066 -1.080149 -0.637953 0.334335 0.272013
eth_txethmac/wire_StatePAD 0.093151 0.759925 0.212140 -0.677596 -1.068717 -0.314979 0.133011 -0.175494 0.254102 -0.082779 -2.053941 0.565203 0.898094 -0.057604 -0.923114 -1.036467 0.955283 0.498810 0.483304 -0.056072
eth_clockgen/always_1/block_1/if_1/block_1/if_1/stmt_1/expr_1 -3.925089 0.438751 2.834050 -0.500633 -0.245783 -1.732881 0.068222 -1.153630 -1.699158 -1.294137 1.604767 0.200443 1.451555 4.026651 2.078386 -1.365453 1.177837 0.272943 -1.054515 3.183420
eth_registers/assign_112_r_ScanStat 0.189347 -2.003756 0.705671 0.430832 2.765171 -0.709845 -0.079010 1.951101 2.065818 -0.331390 -1.109431 -0.188856 -1.851533 1.366850 1.670341 0.715784 1.852812 -2.618804 -0.500893 0.874555
eth_miim/always_6/block_1/if_1/block_2/if_1/block_1/stmt_10 1.790744 -2.892518 0.006913 -0.449173 1.826987 1.032471 -0.540463 2.390407 1.416737 0.759930 -1.194064 -0.006715 -3.632149 1.557062 0.672452 -1.723445 1.469422 -1.963890 -1.010851 0.474010
eth_miim/always_6/block_1/if_1/block_2/if_1/block_1/stmt_11 -0.921956 -0.533576 1.934757 -0.965284 -1.211669 0.306873 -0.573306 0.594760 -4.589900 -0.196551 2.448275 0.050661 -2.931340 0.405773 -1.081075 -0.623506 -2.881905 3.380265 -0.467724 -0.783924
eth_top/assign_7_BDCs/expr_1 -0.265964 1.936400 0.076459 -1.916464 -2.280103 -0.436624 0.634140 -0.018548 -1.237343 1.072911 0.455161 0.194945 1.007698 0.159818 0.731364 -2.457018 -0.725381 0.284810 0.763485 2.725991
eth_miim/always_8/block_1/if_1/block_1/if_1/block_1/if_1/block_1/if_1 2.447942 -2.761613 -1.288130 -2.010619 -0.259687 2.499434 -3.243368 0.971951 -0.585039 0.120003 1.513742 -0.065791 -3.377174 4.343773 -0.914499 -4.201249 3.823903 2.611721 -1.701744 0.712994
eth_txethmac/always_13 0.176904 0.642671 0.196934 -0.676373 -0.975318 -0.248763 0.146965 -0.132878 0.307768 -0.050831 -2.049119 0.510953 0.818424 -0.086983 -0.941382 -1.055167 0.950654 0.428068 0.503842 -0.077548
eth_register/always_1 -0.724269 0.576057 0.278431 1.450890 0.587735 -3.095337 -1.390818 -1.622684 0.153673 -4.688906 -4.486224 -0.458315 2.570161 0.335833 -1.905086 -0.992537 2.703337 1.785637 -2.310368 -0.456483
eth_shiftreg/input_Rgad 1.684619 -1.971024 -0.614548 0.364980 1.230935 1.214630 -0.026367 1.501687 1.492835 1.008909 -1.021491 -0.514953 -2.306744 -0.226524 0.312026 0.603198 0.269367 -1.480278 -0.326063 -1.427333
eth_top/assign_5_RegCs/expr_1 -1.762853 -0.267247 2.151321 -0.541517 1.951670 -1.202187 0.322351 0.460489 -0.681297 -1.049734 0.492692 1.802089 -0.588008 2.954437 1.215866 -4.398859 0.605979 -2.468751 -0.934447 5.269179
eth_maccontrol/wire_TxStartFrmOut 0.201510 0.644201 0.185493 -0.680351 -0.993196 -0.266445 0.144227 -0.124561 0.332003 -0.034982 -2.084028 0.529666 0.805058 -0.096343 -0.948469 -1.076951 0.997088 0.408394 0.498032 -0.132176
eth_registers/wire_MIIADDRESSOut 1.605209 -1.872116 -0.565202 0.350505 1.129391 1.132251 -0.027326 1.387731 1.376866 0.932594 -0.932777 -0.456425 -2.201486 -0.217110 0.247575 0.523721 0.248553 -1.360948 -0.306479 -1.329220
eth_miim/assign_9_ByteSelect 2.257503 -0.482839 -0.161821 -1.188421 -0.492214 1.731875 0.519073 2.378032 2.465276 1.073659 -2.803830 -1.932150 -3.968378 0.279917 1.868652 -0.509292 -0.096598 -2.520955 -2.266721 1.206850
eth_clockgen/always_1/block_1 -2.051709 1.368265 1.911350 -0.120999 -0.820446 -1.157386 -0.076360 -0.775198 -1.087237 -1.563486 0.685773 -0.405320 1.327101 1.772409 1.506569 -0.838469 0.189190 0.271046 -1.011431 2.442946
eth_rxstatem/wire_StateData 0.137342 0.709108 0.204526 -0.646965 -1.003944 -0.299570 0.143691 -0.162060 0.327633 -0.049202 -2.064499 0.545244 0.900408 -0.080250 -0.939792 -1.020551 0.989132 0.425960 0.505906 -0.112899
eth_miim/wire_Mdc -5.899484 4.462811 4.518658 -2.089179 -4.644548 -4.830368 1.495806 -2.887366 -5.666097 -0.878156 0.946246 1.138890 1.165952 0.821796 2.289892 -2.274313 -3.204871 3.609442 -0.236889 3.519425
eth_top/wire_TxStartFrmOut 0.191818 0.681920 0.199126 -0.714576 -1.029613 -0.279803 0.148775 -0.105731 0.292947 -0.051227 -2.163747 0.555120 0.871695 -0.045557 -0.985672 -1.094750 1.042864 0.437912 0.518044 -0.097650
eth_rxstatem/always_1/block_1/if_1 0.174713 0.662741 0.145733 -0.716497 -1.076568 -0.289660 0.152605 -0.151581 0.301169 0.001311 -2.112573 0.548161 0.856905 -0.100407 -0.965621 -1.116919 0.987525 0.439570 0.506214 -0.086301
eth_miim/always_1/block_1/if_1/block_2/stmt_2 -0.943626 -0.432516 1.821990 -1.017535 -1.287429 0.286275 -0.661844 0.525384 -4.567080 -0.234732 2.461701 0.014511 -2.788205 0.468252 -1.071623 -0.637751 -2.768967 3.452558 -0.507552 -0.693928
eth_miim/wire_Mdo -1.742291 3.447566 0.813121 -2.022467 -2.017610 -0.547266 0.005469 0.082242 -0.336267 -2.039619 0.258814 -0.645137 0.255949 1.721773 1.005609 0.188117 -0.067685 1.170065 -1.686068 4.091146
eth_top/inst_maccontrol1 0.166273 0.693295 0.154917 -0.670396 -1.008170 -0.287559 0.139299 -0.180212 0.298375 -0.045760 -2.038732 0.538864 0.859471 -0.050325 -0.925757 -1.054892 0.941873 0.471903 0.526104 -0.046806
eth_txstatem/assign_5_StartData/expr_1/expr_1/expr_1 0.144798 0.653225 0.218309 -0.739105 -1.034817 -0.302696 0.157557 -0.112269 0.278340 -0.022629 -2.091769 0.538857 0.837379 -0.027206 -0.933834 -1.092260 1.013081 0.425046 0.477595 -0.045692
eth_txstatem/reg_StateData 0.175853 0.706014 0.197044 -0.683907 -1.074669 -0.301923 0.159143 -0.154763 0.311296 -0.050895 -2.106682 0.542975 0.888361 -0.086950 -0.963029 -1.081468 0.974726 0.458069 0.529277 -0.089428
eth_miim/always_3/block_1/if_1/block_2/if_1 0.024309 -1.637402 0.750805 0.351735 2.471570 -0.862395 -0.039566 1.749745 1.945557 -0.409387 -1.074120 -0.180375 -1.650679 1.364709 1.716110 0.662853 1.776167 -2.460739 -0.516916 1.091900
eth_register/always_1/block_1/if_1/stmt_1 -1.915341 2.214097 2.501880 2.406976 3.067531 -2.575377 -0.641319 -1.995356 1.721829 -6.497266 -3.684064 1.398657 3.553020 0.660326 -1.976688 -0.000734 3.815764 0.561395 -1.483363 1.777418
eth_miim/always_1/block_1/if_1/block_2/stmt_1 -1.047365 -0.295203 1.866307 -1.024651 -1.383999 0.147590 -0.566270 0.396358 -4.621909 -0.235786 2.400527 0.109875 -2.650637 0.371098 -1.072769 -0.677537 -2.869092 3.537808 -0.448429 -0.661005
eth_txstatem/always_1/block_1/if_1/block_2/if_6/if_1 0.177097 0.684767 0.165261 -0.714379 -1.029499 -0.243576 0.157402 -0.129817 0.317331 0.012765 -2.104208 0.529169 0.860787 -0.053465 -0.984671 -1.081744 1.000465 0.453450 0.518203 -0.096931
eth_wishbone/always_6/block_1/if_1/if_1/if_1 0.143290 0.709582 0.196294 -0.679680 -1.040929 -0.322303 0.137564 -0.139276 0.313369 -0.061923 -2.076871 0.535534 0.849808 -0.075351 -0.952798 -1.029214 0.950585 0.444578 0.497323 -0.060354
eth_registers/assign_39_MIIMODER_Wr -5.727921 -0.398936 5.180769 -0.004525 3.634698 -2.588927 -0.513454 1.328801 -2.356290 -4.239432 1.245801 1.453043 -1.424505 3.716481 -0.904013 -0.739674 -0.196279 0.030850 -1.645330 3.066468
eth_top/assign_9_BDCs/expr_1/expr_1 -0.209002 1.878989 -0.017394 -1.923126 -2.298746 -0.324881 0.626031 0.038677 -1.228716 1.181990 0.431760 0.174634 0.946288 0.073290 0.762881 -2.430930 -0.791930 0.206326 0.772003 2.695045
eth_miim/input_Rgad 1.643599 -1.930003 -0.580410 0.305413 1.167811 1.169609 -0.017017 1.491593 1.467490 1.022336 -0.990760 -0.479590 -2.298662 -0.225270 0.294262 0.555349 0.227921 -1.459886 -0.367146 -1.349425
eth_miim/wire_EndOp 2.441359 -4.265056 0.027130 -1.777649 0.726451 2.734429 -1.796553 3.285522 -1.212197 1.365542 1.636437 -0.814468 -6.059988 3.287988 0.127035 -2.737867 0.761244 0.554643 -1.811033 0.122497
eth_wishbone/always_24/block_1 0.156389 0.714481 0.151649 -0.711277 -1.049158 -0.300123 0.127596 -0.171037 0.306491 -0.011263 -2.082862 0.550433 0.871039 -0.050998 -0.941620 -1.090959 0.965834 0.444338 0.488491 -0.071025
eth_top/wire_r_WCtrlData 0.133923 -1.982515 0.760302 0.424435 2.707546 -0.707766 -0.091600 1.956931 2.002061 -0.329824 -1.085122 -0.172943 -1.945295 1.417016 1.724386 0.675377 1.824478 -2.537348 -0.540121 0.924130
eth_top/assign_11_temp_wb_dat_o/expr_1/expr_1/expr_1 -1.468984 4.879464 -0.382004 -0.400869 -3.194044 -2.978819 -0.993732 -4.798566 -1.767628 -1.797270 1.229363 1.693265 2.061574 -0.329779 1.161653 -1.952598 0.254720 3.383957 -0.439747 3.707725
eth_txstatem/assign_7_StartFCS/expr_1/expr_1/expr_1 0.174774 0.649685 0.142744 -0.668384 -1.045785 -0.251760 0.177237 -0.155222 0.307199 -0.011543 -2.096422 0.536327 0.822864 -0.110216 -0.965574 -1.070481 0.967761 0.411235 0.510667 -0.110447
eth_top/assign_6_BDCs/expr_1/expr_1 -0.196254 1.831694 0.026504 -1.852790 -2.210627 -0.309822 0.598459 0.019927 -1.191464 1.153707 0.417504 0.231437 0.853439 0.113357 0.751423 -2.485696 -0.767959 0.167396 0.719349 2.641563
eth_top/always_1/block_1 -2.211888 3.872732 -0.242951 -1.480846 -3.263283 -3.155747 0.413876 -3.175858 -0.990872 0.955922 0.712179 0.566313 3.017116 0.683863 2.034308 -0.845850 0.832951 1.880299 1.018252 2.909762
eth_rxethmac 0.180952 0.696984 0.160872 -0.746336 -1.061330 -0.277581 0.158081 -0.101936 0.303221 0.012263 -2.178980 0.534530 0.832448 -0.051325 -1.004281 -1.141438 0.987069 0.413701 0.540295 -0.118219
eth_registers/wire_r_WCtrlData 0.150590 -1.816255 0.769336 0.350106 2.592940 -0.721408 -0.017876 1.927623 2.009749 -0.343171 -1.091432 -0.213644 -1.873882 1.358314 1.754749 0.699736 1.754035 -2.565479 -0.530202 1.014072
eth_miim/reg_EndBusy -0.899850 -0.702997 1.913795 -0.922573 -1.130531 0.349946 -0.627751 0.623287 -4.688625 -0.164395 2.532515 0.060390 -3.106026 0.377793 -1.169037 -0.558781 -2.963780 3.454356 -0.475773 -0.940859
eth_rxstatem/assign_3_StartSFD 0.165360 0.657047 0.169361 -0.634037 -1.032442 -0.279625 0.181057 -0.165646 0.257417 0.003756 -1.979792 0.527531 0.856520 -0.124857 -0.923985 -0.976642 0.903247 0.418987 0.527146 -0.097510
eth_miim/always_8/block_1/if_1/stmt_1 -1.309386 5.553442 -0.787924 -2.367603 -6.722891 -1.115808 1.829630 -3.548432 -3.088808 1.962679 1.331533 0.609218 4.211093 -2.874972 -0.063574 -1.990486 -3.473100 3.281947 1.876860 1.604481
eth_outputcontrol -1.498188 2.496834 0.003474 -1.640544 -1.400347 0.053859 -0.017001 -0.004957 0.055988 -1.587951 0.408859 -0.478794 0.758289 1.593511 -0.115203 0.654920 0.223608 1.026041 -1.155305 2.387987
eth_outputcontrol/reg_Mdo_2d -1.494849 2.007084 0.858817 -1.956784 -0.259086 -1.496006 1.485469 1.669143 3.285152 -0.573202 -0.833695 -1.755176 1.541803 2.032058 3.686620 0.318909 1.840340 -3.657918 -1.152338 5.811156
eth_top/wire_BDCs -0.257712 1.932482 0.048469 -1.884221 -2.290738 -0.380732 0.643004 0.010956 -1.224431 1.074593 0.433305 0.169911 0.985990 0.127123 0.753823 -2.352195 -0.767623 0.269186 0.757118 2.673198
eth_registers/always_1/block_1 -0.654923 4.161021 -0.657720 0.573936 -2.245817 -2.729535 -1.854675 -4.331604 -1.439518 -3.100437 0.711253 0.820987 2.160433 -0.821100 0.503800 0.020077 1.302638 4.629081 -0.464056 1.718173
eth_outputcontrol/always_2/block_1/if_1/block_2/if_1/block_1/stmt_1/expr_1/expr_2 -2.841431 2.584830 1.666718 -2.002861 -0.316399 -2.307358 1.414121 0.956320 2.722981 -1.693834 -0.420470 -1.574668 2.333691 3.174620 3.840585 -0.137431 2.164922 -3.371464 -1.792394 7.091180
eth_transmitcontrol/reg_WillSendControlFrame 0.124262 0.726447 0.215136 -0.685205 -1.022071 -0.289861 0.139266 -0.148775 0.274337 -0.024567 -2.044346 0.538942 0.857211 -0.052212 -0.916645 -1.013658 0.955846 0.466171 0.496674 -0.070547
eth_miim/assign_3_ScanStatusOp/expr_1/expr_1/expr_2 1.701235 -2.801858 0.008708 -0.496231 1.756614 0.990265 -0.533189 2.292253 1.301348 0.698425 -1.124337 0.009091 -3.551737 1.574202 0.645718 -1.755407 1.401314 -1.874938 -0.988270 0.548116
eth_miim/assign_3_ScanStatusOp/expr_1/expr_1/expr_1 0.158461 -2.007185 0.704729 0.457181 2.761099 -0.681817 -0.105770 1.922436 2.066665 -0.339807 -1.118336 -0.161821 -1.910727 1.339771 1.650574 0.707935 1.845721 -2.551936 -0.506947 0.804464
eth_miim/always_7/block_1/if_1/block_2/if_1/block_1/if_1/block_1/stmt_1 0.557540 -1.145031 0.513222 -1.501493 -0.554926 0.704246 -2.208676 0.278335 -2.147626 -0.790707 0.964650 0.745430 -2.902102 2.664396 -1.192796 -3.389047 1.537562 3.123509 -1.142834 0.693804
eth_rxstatem/assign_7_StateData 0.137777 0.647621 0.201630 -0.683549 -0.999923 -0.309745 0.142891 -0.168432 0.297545 -0.049784 -2.074106 0.530230 0.819724 -0.041025 -0.928156 -1.050722 0.965317 0.434403 0.500056 -0.107958
eth_rxstatem/reg_StateDrop 0.129512 0.667743 0.218987 -0.675677 -1.015363 -0.320940 0.142275 -0.128858 0.279159 -0.032329 -2.019868 0.545850 0.814449 -0.007952 -0.886637 -1.045452 0.940587 0.440385 0.486183 -0.022233
eth_registers/wire_MAC_ADDR0Out -1.236472 3.276255 -0.728168 0.909092 -1.894716 -3.945328 -2.067598 -4.501730 -1.125431 -3.878305 -1.835862 0.646497 3.141523 -0.302727 -0.911314 -0.684263 2.377449 4.668181 -1.258263 0.316487
eth_wishbone/always_2/block_1/if_1/if_1/if_1 1.636019 -0.311552 -0.910468 -1.452696 -1.677095 1.464235 0.921827 0.659913 -0.495044 2.873921 0.258547 0.356916 -0.913803 -0.625142 0.252543 -3.036914 -1.589811 -0.976956 0.580952 0.935387
eth_outputcontrol/always_1/block_1 -1.308613 -1.371766 0.871919 -0.696253 0.269626 -0.721232 -2.914535 -1.289613 -4.330040 -1.698580 3.547730 2.425839 -0.184340 3.130975 -2.619552 -3.303104 2.011226 5.196658 0.638737 -0.107231
eth_clockgen/always_2/block_1/if_1/stmt_1 -2.910366 3.945217 4.192750 -2.101262 -4.239580 -1.215485 1.804825 0.663111 -3.468887 -2.581197 -0.228914 -3.718667 -1.762434 0.052527 2.283144 -0.186186 -5.564225 0.830053 -4.364518 3.676375
eth_clockgen/always_1 -2.139754 1.449893 1.989982 -0.293384 -1.042128 -1.124325 0.103392 -0.733306 -1.092516 -1.345799 0.590373 -0.467318 1.488411 1.764791 1.554927 -0.832528 0.131313 0.191125 -0.925376 2.484169
eth_clockgen/always_2 -3.076874 0.611312 2.611052 -1.041884 -2.109997 0.099977 0.760387 -0.363876 -1.210864 -1.343757 1.806396 -2.308682 0.955352 3.499380 1.576755 0.225554 -0.830884 -0.146245 -3.032751 1.934257
eth_rxstatem/assign_1_StartIdle 0.161504 0.707042 0.178343 -0.679412 -1.046788 -0.295798 0.127312 -0.151967 0.293465 -0.035988 -2.080133 0.544562 0.876278 -0.064407 -0.983188 -1.067844 0.979390 0.473799 0.503470 -0.054265
eth_clockgen/assign_4_MdcEn 0.583742 -1.027638 0.521169 -1.640603 -0.692948 0.776700 -2.116036 0.399863 -2.053646 -0.659003 0.913544 0.534552 -2.904537 2.670616 -0.985955 -3.380636 1.421309 2.930878 -1.235197 0.888005
eth_registers/assign_113_r_RGAD 1.660677 -1.883398 -0.590411 0.312955 1.128949 1.169066 -0.048532 1.472010 1.394862 0.984556 -0.985634 -0.499478 -2.276826 -0.200248 0.316875 0.545919 0.264841 -1.406029 -0.351361 -1.328864
eth_top/wire_RegDataOut -0.803452 3.822190 -0.643700 0.684703 -1.917249 -2.894461 -1.947746 -4.336950 -1.524807 -2.945595 0.843322 1.008490 1.908618 -0.584870 0.546721 0.166712 1.437148 4.598411 -0.309065 1.506482
eth_txstatem/assign_3_StartPreamble 0.129535 0.688896 0.199249 -0.699103 -1.041449 -0.295626 0.141690 -0.164377 0.280114 -0.028242 -2.065571 0.557757 0.877713 -0.068268 -0.945855 -1.075324 0.986415 0.439803 0.511774 -0.080037
eth_miim/always_8/block_1 -0.635255 0.276763 -0.896881 -2.013603 -0.594922 -0.018372 -0.346181 0.407124 1.814161 0.356864 1.675340 -0.865710 1.549308 3.460718 1.698571 -0.420100 3.324510 -0.655600 -0.346546 3.073746
check_ethernet/input_wb_adr_i 1.236900 4.451664 -0.443596 -0.073430 -2.687115 0.367434 0.425974 -1.815306 0.498342 -1.995099 -1.405904 -0.347375 2.748334 -3.212200 0.185942 -0.856261 -0.771231 1.311454 -0.256633 2.120595
eth_miim/always_6/block_1/if_1/block_2/if_1 -1.060148 -1.708673 1.670597 0.150626 1.774354 -0.904008 -1.071717 0.973123 -1.294580 -1.214435 1.171674 0.384306 -2.494801 1.878844 0.298109 0.266135 0.664135 0.994412 -0.542198 -0.007456
eth_registers/assign_2_Read -1.698450 0.019042 0.964944 2.333946 2.113500 -3.335938 -0.865316 -3.782434 1.246861 -1.444417 -2.095186 3.955791 -0.935114 0.442458 -0.209218 1.862897 3.328948 1.209666 0.923976 -2.115147
eth_txethmac/inst_txstatem1 0.092028 0.682285 0.219480 -0.690423 -0.981729 -0.300226 0.117607 -0.152699 0.257351 -0.049707 -2.064665 0.520610 0.820582 -0.007710 -0.958948 -1.048451 0.982834 0.465637 0.461582 -0.028979
eth_top/always_1/block_1/if_1 -2.327885 3.645795 -0.202220 -1.519951 -3.152906 -3.273658 0.560977 -3.245455 -0.866820 1.061277 0.533645 0.892232 3.102359 0.756319 2.044667 -1.029256 1.117945 1.767665 1.265624 2.919458
eth_txstatem/always_1/block_1/if_1/block_2/if_5/if_1/cond 0.196291 0.665649 0.207322 -0.724428 -1.011677 -0.247305 0.131963 -0.126633 0.317873 -0.030719 -2.122564 0.543344 0.856159 -0.039084 -0.963151 -1.097694 0.968250 0.411970 0.522382 -0.079992
eth_transmitcontrol/always_1/block_1/if_1/if_1/if_1 0.166615 0.696572 0.198315 -0.725520 -1.052905 -0.265407 0.139317 -0.151616 0.309031 -0.034073 -2.125023 0.564572 0.873255 -0.079592 -0.988898 -1.097062 1.009491 0.433335 0.494643 -0.045580
eth_top/input_wb_stb_i -0.505163 -2.354650 -0.617456 1.237407 -0.323235 1.249827 1.157804 -5.091702 0.450763 0.116410 1.452621 3.178442 -1.720300 1.096095 -1.065994 -5.235401 -1.423167 -0.393928 -4.343284 0.380338
eth_miim/always_8/block_1/if_1/block_1/if_1/block_1/if_1/stmt_1 1.064816 -1.208684 -1.532420 -1.148332 0.999352 1.478145 -1.578925 1.410949 4.813174 -1.187136 -0.214468 -2.534114 1.924986 5.663084 1.825910 0.426502 7.239353 -2.033371 -1.936236 2.893784
eth_registers/inst_MIICOMMAND0 0.210147 -2.021676 0.691351 0.463663 2.736506 -0.637498 -0.068584 1.962404 2.057539 -0.303550 -1.080095 -0.148119 -1.976117 1.298082 1.679001 0.756210 1.744071 -2.568078 -0.519248 0.768157
eth_registers/inst_MIICOMMAND1 -0.610635 -3.730321 0.917479 2.132746 5.020525 -1.345168 -0.574358 1.482278 1.397584 -0.911834 -0.048941 1.091544 -1.304163 1.244713 0.457557 1.843032 2.128279 -2.176841 0.595680 -1.432978
eth_registers/inst_MIICOMMAND2 0.131263 -1.912990 0.710431 0.379709 2.636846 -0.729230 -0.083942 1.897785 1.981007 -0.355797 -1.090902 -0.155668 -1.860082 1.386611 1.658457 0.591100 1.843945 -2.482043 -0.507298 0.966304
eth_miim/always_6/block_1/if_1/block_2/if_1/block_1/stmt_2 -0.284381 -4.012356 1.980071 0.114477 2.119691 0.285017 -1.149486 1.883156 -3.780530 0.080800 2.244112 1.242552 -4.800767 1.240234 -1.416427 -1.085015 -1.543304 1.815649 -0.039198 -2.081282
eth_miim/always_6/block_1/if_1/block_2/if_1/block_1/stmt_3 -0.571343 -3.853084 0.910795 2.203707 5.137017 -1.337241 -0.644889 1.533144 1.385512 -0.878077 0.010595 1.151403 -1.408906 1.221717 0.341652 1.844567 2.171550 -2.121702 0.651099 -1.608741
eth_shiftreg/always_1/block_1/if_1/block_2/if_1/block_1/if_1/block_2/stmt_1 2.224569 -0.762994 -0.169818 -1.028173 -0.174601 1.732399 0.428046 2.414424 2.430067 0.998243 -2.684188 -1.847356 -3.999990 0.310135 1.729366 -0.376443 -0.062404 -2.515774 -2.188567 0.925648
eth_miim/always_6/block_1/if_1/block_2/if_1/block_1/stmt_1 -0.851968 -1.620925 2.328746 -0.584431 0.901154 -0.554692 -0.163493 2.161973 -2.164211 -0.274967 1.168776 -0.329707 -3.889527 1.153127 0.890134 0.453953 -1.468657 0.447029 -0.785912 0.422925
eth_miim/always_6/block_1/if_1/block_2/if_1/block_1/stmt_4 1.042202 -4.845848 0.219800 1.271654 4.315981 0.395549 -1.120480 2.000008 0.741423 0.204254 -0.059841 1.308612 -3.177213 1.501986 -0.644573 -0.625624 1.851077 -1.554936 0.141294 -1.953146
eth_rxethmac/input_Transmitting 0.187104 0.681911 0.152751 -0.728789 -1.051361 -0.249176 0.169692 -0.162153 0.324725 0.027219 -2.145212 0.535928 0.872212 -0.076600 -1.007919 -1.112886 0.984696 0.422618 0.518184 -0.083464
eth_registers/input_Address 1.907477 4.961807 -0.680585 2.101888 5.339654 -0.589043 -3.031807 2.515240 3.146532 -5.071673 3.906137 -0.842243 3.812215 -2.100437 2.978204 5.734683 3.933975 -0.890355 4.048840 6.909359
eth_miim/always_6/block_1/if_1/block_2/if_1/block_1/stmt_9 1.745043 -2.924398 0.010373 -0.399090 1.922406 0.972230 -0.596482 2.314135 1.342581 0.718231 -1.137989 0.038464 -3.603421 1.603412 0.611655 -1.742669 1.445110 -1.906821 -0.962981 0.428151
eth_registers/wire_MIIMODER_Wr -5.688621 -0.428960 5.208412 -0.021839 3.573136 -2.614468 -0.504214 1.369175 -2.442119 -4.208055 1.255992 1.429983 -1.478528 3.579084 -0.890549 -0.739575 -0.360450 0.051315 -1.590476 2.965502
eth_wishbone/always_24/block_1/if_1/if_1/cond/expr_1 0.171999 0.646321 0.165216 -0.646076 -1.029853 -0.281695 0.137611 -0.168490 0.290423 -0.021408 -2.021499 0.528569 0.825561 -0.058113 -0.931109 -1.004858 0.929971 0.433661 0.489549 -0.116046
eth_miim/always_6/block_1 -0.954725 -1.616969 1.646216 0.024854 1.572866 -0.853793 -1.018110 1.015162 -1.208136 -1.121407 1.003925 0.294253 -2.541262 1.797412 0.344565 0.237387 0.593564 0.932734 -0.583265 0.066991
eth_outputcontrol/always_1/block_1/if_1 -1.131556 -1.687317 0.772884 -0.692783 0.319267 -0.522693 -2.943834 -1.119655 -4.397003 -1.510862 3.682966 2.353339 -0.500646 3.149880 -2.678452 -3.278721 1.957141 5.194465 0.624517 -0.345684
eth_top/input_wb_we_i -1.585119 4.861181 -0.363413 -0.262095 -3.095536 -3.064820 -0.977391 -4.970003 -1.751740 -1.894570 1.185729 1.772131 2.314630 -0.358281 1.027896 -1.922875 0.249595 3.365722 -0.459037 3.676046
eth_wishbone/always_6/block_1/if_1/if_1 0.125148 0.729151 0.216730 -0.701520 -1.060251 -0.294587 0.124235 -0.189580 0.301325 -0.074047 -2.148602 0.570792 0.889735 -0.032443 -1.001133 -1.089798 1.018258 0.464149 0.511413 -0.066947
eth_miim/always_7/block_1 -0.638758 -0.832030 1.108949 -0.699311 0.446177 -0.467288 -1.710629 0.326513 -1.534693 -1.356989 1.226887 0.291829 -1.973543 2.512560 -0.064852 -0.942553 1.577936 2.220332 -0.800689 0.759118
eth_wishbone 0.127729 2.301753 0.114300 -2.492228 -3.145272 -0.510547 0.803445 0.009533 -0.841834 1.254632 -1.709839 0.722113 1.655386 -0.051048 -0.233753 -3.463014 0.181009 0.513671 1.332777 2.389505
eth_txstatem/always_1/block_1/if_1/block_2/if_4/if_1/cond 0.204449 0.664437 0.181320 -0.701190 -0.991877 -0.266176 0.159542 -0.150806 0.307080 -0.018243 -2.102733 0.566873 0.852352 -0.062672 -0.960306 -1.043169 0.972980 0.438348 0.516901 -0.100411
eth_wishbone/always_77/block_1/if_1 1.628378 -0.351271 -0.923440 -1.480775 -1.657238 1.441681 0.948365 0.661913 -0.475675 2.859264 0.234874 0.394315 -0.937223 -0.678901 0.206378 -3.019705 -1.547949 -0.965578 0.607082 0.884563
eth_top/assign_7_BDCs/expr_1/expr_1/expr_1 -0.190602 1.813534 0.005311 -1.906430 -2.235857 -0.307819 0.641648 0.048030 -1.199276 1.168774 0.426467 0.174334 0.905311 0.101914 0.731307 -2.396096 -0.743589 0.201706 0.747986 2.612007
eth_rxstatem/reg_StatePreamble 0.152494 0.688972 0.189094 -0.735279 -1.029203 -0.277169 0.146663 -0.119760 0.295795 -0.000022 -2.152699 0.567988 0.863637 -0.042178 -0.971901 -1.136360 1.007312 0.449477 0.498274 -0.104131
eth_rxstatem/always_1/block_1/if_1/block_2/if_3 0.158643 0.708817 0.214261 -0.717523 -1.021298 -0.309516 0.130626 -0.135417 0.275285 -0.060906 -2.087246 0.547370 0.863617 -0.030205 -0.934615 -1.063954 0.953291 0.442038 0.503898 -0.047931
eth_rxstatem/always_1/block_1/if_1/block_2/if_2 0.130210 0.684894 0.161768 -0.636321 -0.991177 -0.291942 0.165073 -0.182974 0.273069 -0.005298 -1.981432 0.518421 0.831599 -0.082866 -0.929450 -0.981246 0.903403 0.409154 0.480108 -0.099414
eth_rxstatem/always_1/block_1/if_1/block_2/if_5 0.131215 0.663898 0.221121 -0.684850 -1.030271 -0.268764 0.159521 -0.118730 0.305323 -0.037118 -2.085631 0.519219 0.803104 -0.031742 -0.936560 -1.068942 0.972789 0.441503 0.502808 -0.090800
eth_rxstatem/always_1/block_1/if_1/block_2/if_4 0.141354 0.737680 0.212830 -0.686500 -1.084486 -0.311476 0.171796 -0.181866 0.281050 -0.024198 -2.129231 0.558983 0.899933 -0.089040 -0.969557 -1.068342 1.016945 0.450235 0.501317 -0.082223
eth_wishbone/always_30/block_1/if_1/if_1/if_1 0.189349 0.685193 0.169082 -0.668864 -1.036713 -0.283727 0.151535 -0.176710 0.265461 -0.041464 -2.056757 0.547086 0.882186 -0.098792 -0.928834 -1.041761 0.933951 0.460538 0.534101 -0.045825
eth_rxstatem/always_1/block_1/if_1/block_2/if_6 0.119323 0.727757 0.274806 -0.724109 -1.016871 -0.320721 0.157297 -0.143509 0.288297 -0.075029 -2.160562 0.567829 0.888305 0.037981 -0.981127 -1.127663 1.035246 0.479376 0.509854 -0.028068
eth_miim/input_WCtrlData 0.108041 -1.746951 0.754153 0.326592 2.504357 -0.744240 -0.052189 1.856941 1.928266 -0.371157 -1.054717 -0.204722 -1.797037 1.386948 1.730934 0.604179 1.753165 -2.425899 -0.533053 1.025499
eth_miim/always_7/block_1/if_1/block_2 -0.751666 -0.413676 1.088908 -0.783682 0.200225 -0.653585 -1.668182 0.160562 -1.458539 -1.444420 1.083836 0.311547 -1.604981 2.406608 -0.012943 -0.981213 1.652217 2.284623 -0.765745 1.028150
eth_miim/always_7/block_1/if_1/block_1 -0.235394 -2.888948 0.079940 0.918587 2.756911 -0.521416 -1.119315 0.242258 -0.792092 -0.158006 1.518173 1.914957 -0.032795 1.281723 -1.177646 -1.093180 1.642961 0.204041 1.276786 -1.024124
eth_top/assign_2_RegCs/expr_1/expr_1/expr_1/expr_1 1.721292 -0.397561 -0.971240 -1.407602 -1.616171 1.470642 0.959509 0.664428 -0.460339 2.890465 0.188177 0.365971 -0.961322 -0.728852 0.194461 -3.005477 -1.607302 -1.049989 0.640370 0.856610
eth_wishbone/always_77/block_1/if_1/if_1 1.586652 -0.319700 -0.877407 -1.398476 -1.596244 1.364552 0.913879 0.600956 -0.467360 2.783395 0.220667 0.408711 -0.877388 -0.628245 0.242595 -2.999509 -1.508969 -0.969926 0.571114 0.930829
eth_registers/always_1/block_1/if_1/cond -1.794264 0.174665 0.965778 2.346641 1.999125 -3.445397 -0.863798 -3.945227 1.259470 -1.449474 -2.132813 3.943490 -0.812599 0.459380 -0.152412 1.859550 3.320488 1.252210 0.904892 -2.043817
eth_top/wire_WillTransmit 0.156539 0.667666 0.220869 -0.714874 -1.023897 -0.291750 0.119786 -0.123705 0.291292 -0.038399 -2.061034 0.545910 0.837251 -0.021491 -0.930329 -1.060776 0.992705 0.452425 0.472543 -0.051191
eth_top/always_4/block_1/stmt_2 0.101329 0.719557 0.194383 -0.689337 -1.046902 -0.323727 0.140892 -0.194435 0.284886 -0.092696 -2.050488 0.540330 0.874970 -0.064712 -0.951450 -1.040779 0.977891 0.484389 0.473115 -0.043524
eth_top/always_4/block_1/stmt_1 0.120161 0.668070 0.182328 -0.652199 -1.015609 -0.296234 0.142445 -0.159172 0.293273 -0.061686 -2.042057 0.517849 0.838721 -0.066645 -0.918296 -1.022817 0.928259 0.435526 0.478351 -0.056587
eth_outputcontrol/always_1/block_1/if_1/block_2 -1.200640 -1.620539 0.796051 -0.719940 0.366940 -0.579433 -2.952031 -1.094908 -4.361890 -1.527534 3.684433 2.311729 -0.474350 3.205839 -2.575104 -3.301389 1.988893 5.106403 0.601272 -0.193063
eth_txstatem/assign_6_StartPAD/expr_1 0.169521 0.666497 0.169399 -0.654992 -1.024230 -0.260455 0.167092 -0.182217 0.326552 -0.029966 -2.070196 0.518776 0.869871 -0.098421 -0.938358 -1.033516 0.914228 0.410186 0.495501 -0.129053
eth_top/assign_6_BDCs -0.161605 1.861601 -0.036571 -1.924469 -2.324743 -0.294621 0.683227 0.028149 -1.187060 1.253096 0.417230 0.174411 0.937847 0.084144 0.725848 -2.507219 -0.797615 0.196880 0.796393 2.646211
eth_wishbone/input_BDCs -0.307875 1.967175 0.047233 -1.835474 -2.263357 -0.468506 0.591549 -0.036828 -1.227953 1.013766 0.398244 0.180672 1.051023 0.151072 0.751230 -2.361027 -0.683846 0.313848 0.759829 2.662314
eth_registers/assign_2_Read/expr_1 -1.879693 0.068417 1.066319 2.393533 2.129956 -3.494615 -0.883787 -3.901189 1.306237 -1.503250 -2.158976 4.044516 -0.954630 0.555368 -0.135059 1.941549 3.402788 1.178484 0.874047 -2.089633
eth_wishbone/always_30/block_1 0.174959 0.635114 0.204244 -0.697177 -1.025557 -0.240726 0.133844 -0.140706 0.286680 -0.018826 -2.012340 0.538542 0.798531 -0.085127 -0.920214 -1.020198 0.942129 0.434263 0.473307 -0.094763
eth_miim/always_4/block_1/if_1/block_2/if_1/block_2/if_1/cond/expr_1 -0.257615 -4.109030 2.013165 0.202567 2.270578 0.277850 -1.160327 1.976744 -3.734446 0.111040 2.229688 1.254924 -4.941975 1.217766 -1.426767 -1.003038 -1.596374 1.717037 -0.068326 -2.183570
eth_registers/assign_2_Read/expr_2 -1.778686 0.057716 1.025312 2.360429 2.107079 -3.406611 -0.856532 -3.854275 1.253110 -1.477210 -2.157907 3.959582 -0.926850 0.479667 -0.216261 1.887672 3.340237 1.191342 0.889869 -2.135973
eth_miim/always_3/block_1/if_1/block_2/stmt_8 0.065763 -1.825781 0.817073 0.404578 2.660470 -0.828866 -0.049509 1.881490 1.958523 -0.403093 -1.034578 -0.124961 -1.822978 1.414716 1.721220 0.664417 1.796877 -2.483096 -0.505866 1.020670
eth_miim/reg_RStatStart_q2 0.768864 -4.422783 -0.470832 1.781916 4.640671 -0.082322 -2.048152 0.469981 1.606984 -0.856827 -0.326158 2.036089 -1.440635 2.255184 -1.204167 -1.036219 4.062212 -0.694925 0.250895 -1.998514
eth_registers/assign_43_MIIADDRESS_Wr/expr_1 1.714919 -2.013755 -0.606289 0.351367 1.194547 1.218763 -0.039776 1.529393 1.506641 1.049983 -1.048490 -0.541691 -2.343085 -0.227932 0.307605 0.580634 0.236375 -1.522473 -0.361086 -1.413907
eth_miim/always_3/block_1/if_1/block_2/stmt_4 -0.542355 -3.796814 0.920741 2.085141 5.008516 -1.279406 -0.653082 1.527723 1.355649 -0.896691 -0.008096 1.090738 -1.445529 1.329454 0.398048 1.691406 2.158518 -2.093042 0.589690 -1.405955
eth_top/assign_17_MRxDV_Lb 0.190841 0.606911 0.165253 -0.709464 -1.018114 -0.223446 0.162555 -0.101347 0.290880 0.000510 -2.153548 0.524701 0.806807 -0.024244 -0.966718 -1.115534 1.001922 0.391209 0.506489 -0.093438
eth_miim/always_3/block_1/if_1/block_2/stmt_6 1.071421 -5.047236 0.218708 1.365868 4.436354 0.404394 -1.217354 1.963815 0.572547 0.190301 0.084124 1.401715 -3.265632 1.481500 -0.775095 -0.628156 1.811116 -1.429683 0.199794 -2.137724
eth_miim/always_3/block_1/if_1/block_2/stmt_7 0.075188 -1.784180 0.750123 0.384890 2.603261 -0.756896 -0.024583 1.889252 1.993917 -0.383856 -1.122925 -0.174625 -1.804163 1.351439 1.705461 0.730394 1.783857 -2.519890 -0.490415 0.966037
eth_miim/always_3/block_1/if_1/block_2/stmt_1 0.109199 -1.914437 0.753608 0.435340 2.734053 -0.734380 -0.069033 1.923728 2.027164 -0.356897 -1.044598 -0.181450 -1.814266 1.371271 1.720538 0.769014 1.790984 -2.555107 -0.512602 0.917609
eth_miim/always_3/block_1/if_1/block_2/stmt_2 -0.894989 -1.660316 2.378172 -0.503019 1.033274 -0.605174 -0.190894 2.168789 -2.096772 -0.348949 1.146833 -0.312842 -3.901610 1.158250 0.921698 0.501939 -1.363199 0.423978 -0.777861 0.368600
eth_miim/always_3/block_1/if_1/block_2/stmt_3 -0.200833 -4.085273 1.945700 0.168776 2.185847 0.325966 -1.172230 2.005991 -3.694956 0.156231 2.211473 1.224790 -4.945038 1.181569 -1.380873 -0.976772 -1.582667 1.702054 -0.070110 -2.128179
eth_miim/always_4/block_1/if_1/block_2/if_1/block_2/if_1 -0.995064 -1.699223 2.450800 -0.538377 0.986702 -0.620929 -0.162015 2.127926 -2.330865 -0.325465 1.334035 -0.234213 -3.856193 1.213797 0.890266 0.481687 -1.531183 0.529657 -0.712203 0.394015
eth_miim/always_4/block_1/if_1/block_2/if_1/block_2/if_2 -0.548455 -3.880004 0.909952 2.135523 5.142147 -1.293914 -0.579271 1.625369 1.505033 -0.887870 -0.059082 1.075588 -1.453140 1.308061 0.461402 1.808143 2.172700 -2.349175 0.551752 -1.418234
eth_miim/always_4/block_1/if_1/block_2/if_1/block_2/if_2/cond/expr_1 1.093118 -5.016153 0.174166 1.354823 4.412257 0.433480 -1.182922 2.024656 0.724021 0.264066 0.007510 1.361265 -3.245085 1.472947 -0.712431 -0.590662 1.828577 -1.526452 0.198005 -2.063288
eth_txstatem/wire_StartData 0.142403 0.723604 0.228208 -0.690018 -1.080655 -0.319281 0.121609 -0.197281 0.331682 -0.096769 -2.169527 0.583592 0.933741 -0.047988 -0.977535 -1.126516 1.043906 0.467809 0.528636 -0.078518
eth_top/reg_WillTransmit_q 0.139274 0.687297 0.170039 -0.723552 -1.045460 -0.298981 0.146847 -0.118220 0.276752 -0.059502 -2.074080 0.533371 0.830162 -0.037962 -0.975826 -1.100148 0.988947 0.429753 0.510772 -0.064389
eth_txethmac/wire_StatePreamble 0.191907 0.645395 0.155084 -0.717342 -1.044370 -0.270113 0.152420 -0.147978 0.284942 -0.008180 -2.088113 0.527887 0.840306 -0.052557 -0.993857 -1.102121 0.968047 0.432942 0.534967 -0.081644
eth_rxstatem/wire_StartIdle 0.175407 0.674137 0.182537 -0.667786 -1.016968 -0.255599 0.154965 -0.149042 0.320937 -0.035294 -2.039413 0.509286 0.831941 -0.089244 -0.963946 -1.033885 0.913841 0.453561 0.536179 -0.131029
eth_rxstatem/assign_2_StartPreamble/expr_1/expr_1 0.117404 0.728354 0.220629 -0.712801 -1.029246 -0.334262 0.129992 -0.166421 0.274551 -0.110217 -2.014367 0.546438 0.867918 0.001077 -0.922934 -1.094781 0.994994 0.450972 0.504252 -0.002913
eth_top/assign_3_RegCs -0.050337 1.801033 -0.092004 -1.924324 -2.322614 -0.204374 0.688048 0.093361 -1.166639 1.354320 0.423540 0.172498 0.870882 -0.019814 0.732586 -2.492008 -0.846186 0.118188 0.848865 2.564573
eth_wishbone/always_24 0.101910 0.694094 0.252672 -0.692204 -0.994201 -0.310420 0.164034 -0.133838 0.285948 -0.048792 -2.057867 0.570815 0.826672 -0.004400 -0.956201 -1.048623 0.980696 0.452789 0.494372 -0.025012
eth_wishbone/always_26 0.114439 0.717551 0.187624 -0.690115 -1.019706 -0.281962 0.161824 -0.170972 0.270687 -0.047353 -2.089790 0.545397 0.895539 -0.040508 -0.959782 -1.044907 0.968318 0.449711 0.520662 -0.043121
eth_wishbone/always_27 0.217265 0.669487 0.169486 -0.666262 -1.031268 -0.261650 0.153574 -0.152624 0.316054 0.030272 -2.048356 0.501769 0.833897 -0.108026 -0.945107 -1.026036 0.916520 0.409730 0.486646 -0.117944
eth_rxstatem/always_1/block_1/if_1/block_2/if_1/if_1 0.169192 0.658159 0.220441 -0.680807 -0.996305 -0.266577 0.175045 -0.137203 0.298274 -0.030861 -2.094092 0.526624 0.843571 -0.081126 -0.952388 -1.035139 0.971157 0.443632 0.520565 -0.130667
eth_clockgen/always_1/block_1/if_1/block_1/if_1/cond -3.603318 0.539811 2.672002 -0.560521 -0.297674 -1.574681 0.083283 -0.899031 -1.723267 -1.144114 1.518696 0.101280 1.123233 3.634308 2.097653 -1.333844 0.848168 0.187436 -0.973579 3.149184
eth_clockgen/assign_4_MdcEn/expr_1/expr_1 0.571186 -1.199355 0.489802 -1.413741 -0.418819 0.751406 -2.189192 0.316865 -2.048195 -0.747558 0.894222 0.719497 -2.860197 2.577837 -1.228492 -3.288015 1.494058 3.022058 -1.105366 0.530330
eth_top/reg_temp_wb_err_o_reg -2.680183 2.632704 0.464508 -1.985562 -3.629456 -0.410096 0.480002 -2.073011 0.665774 0.760844 1.349893 -0.671001 1.800148 2.427867 1.433860 0.310177 1.587778 1.850696 -0.598323 1.394815
eth_top/assign_16_temp_wb_ack_o/expr_1 -0.291703 1.964875 0.021284 -1.875753 -2.290541 -0.412189 0.641924 -0.001045 -1.221907 1.098023 0.447869 0.198054 1.032037 0.152516 0.769278 -2.422549 -0.755196 0.269635 0.739735 2.707343
eth_miim/assign_7_ByteSelect/expr_1/expr_1 2.171790 -0.440747 -0.176750 -1.166999 -0.457968 1.649643 0.481931 2.335806 2.388009 1.025331 -2.707826 -1.879931 -3.864083 0.271215 1.831014 -0.537665 -0.114832 -2.413260 -2.222888 1.178174
eth_miim/assign_2_ReadStatusOp -0.686744 -3.565806 0.241803 2.588132 5.447837 -1.708025 -1.642394 0.126596 2.266063 -1.889092 -0.327126 1.795820 -0.016879 2.078498 -0.204579 1.225669 4.473462 -1.346903 0.638169 -1.606026
eth_miim/always_4/block_1/if_1/block_2/if_1/cond -1.026707 -0.371205 1.903149 -0.994856 -1.411544 0.254957 -0.617911 0.461979 -4.759870 -0.213372 2.512214 0.074181 -2.844892 0.306910 -1.163053 -0.669880 -3.002348 3.598182 -0.428396 -0.771320
eth_top/assign_17_MRxDV_Lb/expr_1/expr_1 0.142452 0.638473 0.196723 -0.722042 -0.987671 -0.276339 0.164179 -0.118153 0.288610 -0.026176 -2.130587 0.535513 0.842260 -0.030038 -0.966380 -1.092316 0.999301 0.429028 0.520354 -0.113866
eth_clockgen/always_2/block_1 -3.203540 0.742055 2.640758 -1.180334 -2.189840 -0.080238 0.787660 -0.419100 -1.236152 -1.333310 1.646739 -2.113256 1.007627 3.511396 1.457431 0.088568 -0.740730 -0.084591 -2.971202 2.050563
eth_maccontrol 0.158878 0.689990 0.182488 -0.689631 -1.010139 -0.243751 0.151941 -0.134142 0.273462 -0.016189 -2.007297 0.530255 0.837573 -0.072104 -0.911600 -1.025081 0.924404 0.422764 0.496050 -0.095163
eth_registers/wire_r_RGAD 1.706924 -1.928710 -0.580766 0.341047 1.186685 1.219420 -0.028992 1.506160 1.450739 1.002349 -1.011745 -0.497150 -2.309337 -0.182271 0.304991 0.576785 0.279743 -1.460599 -0.336402 -1.338329
eth_top/wire_r_RGAD 1.628692 -1.834760 -0.569556 0.318990 1.116146 1.173807 -0.012461 1.437375 1.417973 0.969960 -1.004206 -0.488755 -2.200272 -0.216506 0.304221 0.517527 0.232161 -1.437043 -0.339572 -1.306926
eth_rxstatem/assign_2_StartPreamble/expr_1/expr_2/expr_1 0.122754 0.689774 0.212909 -0.733389 -1.042034 -0.326075 0.136191 -0.131484 0.281226 -0.035422 -2.169417 0.578992 0.839982 0.016099 -0.984002 -1.169545 1.033583 0.468198 0.513796 -0.019600
eth_clockgen/wire_MdcEn 0.555764 -1.256455 0.515597 -1.468083 -0.502292 0.798260 -2.229048 0.370583 -2.221157 -0.710192 1.075227 0.689703 -3.028576 2.658903 -1.181656 -3.294176 1.420281 3.143470 -1.167598 0.542511
eth_top/assign_12_temp_wb_err_o/expr_1 -0.713544 -0.036063 -0.856946 -0.820254 -2.316114 0.549841 0.641962 -2.720224 1.175116 0.722807 0.472306 1.095494 0.351076 0.981634 -0.597420 -0.618200 0.596049 1.251585 -1.154149 -0.186359
eth_wishbone/always_3/block_1/if_1/block_2/case_1/cond 1.685529 -0.369011 -0.912563 -1.450044 -1.600571 1.456249 0.917945 0.686902 -0.486457 2.857184 0.223837 0.394536 -0.950398 -0.669495 0.249360 -2.970395 -1.572623 -0.991061 0.580439 0.859434
eth_txethmac/always_13/block_1/if_1/stmt_2/expr_1/expr_1 0.146896 0.707768 0.191462 -0.712072 -1.055200 -0.302732 0.146884 -0.141989 0.273133 -0.030895 -2.125608 0.556900 0.860241 -0.043361 -0.977575 -1.101799 0.997005 0.483933 0.495841 -0.103676
eth_top/wire_MRxDV_Lb 0.177525 0.660607 0.144946 -0.666907 -1.017572 -0.227382 0.146877 -0.132979 0.300293 -0.012537 -2.026376 0.508106 0.844359 -0.105398 -0.932518 -1.025362 0.880932 0.455092 0.499529 -0.132229
eth_top/assign_7_BDCs/expr_1/expr_1 -0.245159 1.830180 0.057312 -1.802716 -2.175699 -0.388208 0.619387 0.001660 -1.175656 1.093633 0.424630 0.180745 0.961865 0.119428 0.724634 -2.284069 -0.731601 0.199759 0.743612 2.588469
eth_top/assign_17_MRxDV_Lb/expr_1 0.174845 0.665904 0.180172 -0.687438 -1.078043 -0.272923 0.187741 -0.152583 0.278544 -0.018536 -2.091281 0.556019 0.852387 -0.086047 -0.973131 -1.048827 0.972665 0.418314 0.510722 -0.117601
eth_clockgen/always_2/block_1/if_1/block_1/if_1 -3.636533 0.176820 2.818136 -0.431299 -1.683955 -0.905545 1.107493 -1.252621 -1.358122 -0.682306 1.510613 -0.901893 2.064404 3.192252 1.660757 -0.715688 -0.351833 -0.310976 -1.880545 1.494911
eth_registers/assign_47_MAC_ADDR0_Wr/expr_1 0.076080 1.604107 -0.106419 2.175297 3.527647 0.019448 -0.810708 0.844463 1.486304 -4.025201 1.073597 -1.212176 3.899920 -1.162100 -0.597494 1.921202 0.867768 -1.047867 -0.139365 2.383232
eth_wishbone/always_3/block_1/if_1/block_2/case_1 -0.196118 1.909656 -0.012035 -1.874019 -2.288190 -0.385799 0.630561 -0.005149 -1.163149 1.105501 0.407532 0.138211 1.020624 0.062096 0.725792 -2.320512 -0.761572 0.242151 0.768264 2.610205
eth_rxethmac/input_MRxDV 0.178338 0.680415 0.181784 -0.680889 -1.040690 -0.291926 0.128614 -0.140468 0.316543 -0.048487 -2.105825 0.561971 0.869719 -0.041843 -0.961430 -1.048668 0.957741 0.432521 0.511368 -0.078438
eth_miim/always_6/block_1/if_1/block_1/stmt_3 0.008563 -1.947459 -0.018329 0.763722 1.744598 -0.139832 -0.626299 0.205647 -0.550854 0.066184 1.061445 1.068436 -0.250549 0.450412 -0.784053 -0.206097 0.617463 0.193423 0.845088 -1.164012
eth_clockgen/assign_1_TempDivider/expr_1 -2.117270 2.476440 2.588205 0.212954 3.195235 -2.279991 -1.784996 1.486237 -0.534940 -4.722561 -0.795799 1.350194 -0.973982 0.461164 -0.852149 -0.296497 0.853251 0.715454 -0.052415 4.039179
eth_miim/always_6/block_1/if_1/block_1/stmt_7 -0.930813 -0.500325 1.926403 -1.017716 -1.300019 0.278708 -0.569952 0.560855 -4.667212 -0.182965 2.475542 0.047793 -2.945794 0.352292 -1.117860 -0.612549 -2.952003 3.457307 -0.419923 -0.770512
eth_wishbone/always_1/block_1/stmt_1/expr_1 -0.151726 1.870626 -0.001954 -1.939303 -2.355195 -0.268500 0.674108 0.031612 -1.183157 1.235141 0.422194 0.145345 0.964879 0.098776 0.769530 -2.436587 -0.823687 0.201473 0.754910 2.654560
eth_miim/reg_RStat_q3 1.112831 -5.050210 0.153842 1.391328 4.489277 0.440297 -1.165886 2.035202 0.754210 0.249558 0.036031 1.358876 -3.239195 1.493047 -0.677332 -0.587347 1.838221 -1.567438 0.211454 -2.114079
eth_miim/reg_RStat_q2 -0.500744 -3.943836 0.924387 2.157848 5.160869 -1.248658 -0.646072 1.609705 1.425856 -0.827909 -0.026647 1.124782 -1.516441 1.294471 0.387863 1.788807 2.145357 -2.228602 0.600489 -1.530115
eth_miim/reg_RStat_q1 -0.647861 -3.887990 0.989410 2.171895 5.173844 -1.370065 -0.643746 1.529459 1.379786 -0.955488 -0.018023 1.171883 -1.401412 1.314353 0.407261 1.782889 2.227274 -2.166073 0.581378 -1.460970
eth_wishbone/always_30/block_1/if_1/if_1 0.166651 0.702707 0.174686 -0.701210 -1.053030 -0.257040 0.180286 -0.136409 0.300544 0.012740 -2.063523 0.552639 0.861181 -0.110844 -0.971917 -1.070388 0.903744 0.456343 0.517335 -0.108728
eth_registers/always_1/block_1/if_1/block_1/case_1/stmt_16 -1.182726 3.232820 -0.739945 0.880584 -1.968653 -3.920214 -2.018272 -4.562488 -1.182177 -3.724327 -1.794963 0.733288 3.037349 -0.338546 -0.880402 -0.752115 2.315828 4.708396 -1.211489 0.265038
eth_registers/wire_MIICOMMANDOut 0.087900 -1.771998 0.730341 0.343367 2.515567 -0.728951 -0.090402 1.857536 1.920960 -0.349979 -1.026609 -0.189381 -1.848656 1.409081 1.725406 0.630688 1.777589 -2.418103 -0.547364 1.002451
eth_outputcontrol/always_1/block_1/if_1/block_2/if_1/block_1 -1.128637 -1.534356 0.764818 -0.669012 0.240045 -0.540643 -2.916841 -1.157926 -4.337113 -1.506366 3.559339 2.301920 -0.383262 3.045764 -2.611315 -3.211501 1.926075 5.157358 0.651775 -0.322533
eth_registers/always_1/block_1/if_1/block_1/case_1/stmt_19 1.158312 1.655122 -0.536276 0.059260 -0.603870 1.324789 -0.197104 -0.274903 -0.417542 -0.012646 2.726047 -0.247895 -0.203979 -1.396943 1.298762 1.086394 -1.144872 0.790426 0.630883 1.431312
eth_outputcontrol/assign_1_SerialEn/expr_1 -2.720233 0.454055 0.264099 -1.133489 0.657724 -2.836466 0.984897 -0.172445 1.862955 -0.437200 1.210566 0.552980 4.615941 2.958160 2.043148 -0.429509 3.352769 -2.282954 1.016964 4.179671
eth_shiftreg/reg_ShiftReg 2.155953 -0.380176 -0.142656 -1.194093 -0.517311 1.621280 0.505498 2.348026 2.429269 0.976656 -2.733142 -1.921585 -3.837804 0.298155 1.870908 -0.535126 -0.045542 -2.441941 -2.249229 1.303486
eth_register/always_1/block_1/if_1/if_1/cond -5.937227 -0.304891 4.468691 2.473801 2.681796 -7.351358 2.387040 -4.950247 2.537008 -0.576315 -6.596546 6.209211 -5.304182 1.644727 2.567975 2.215391 1.600755 -2.387433 -1.585593 -1.738182
eth_rxstatem/always_1 0.181463 0.666458 0.161323 -0.713694 -1.048822 -0.287086 0.144873 -0.153932 0.297093 -0.012759 -2.117340 0.564333 0.825712 -0.078915 -0.941267 -1.098987 0.968694 0.436606 0.530838 -0.114717
eth_outputcontrol/input_InProgress -1.261943 -1.613839 0.958914 -0.653922 0.342706 -0.623938 -2.965497 -1.182207 -4.511394 -1.643082 3.566158 2.429892 -0.532330 3.117329 -2.743040 -3.256887 1.880473 5.258110 0.570817 -0.367599
eth_miim/wire_StartOp -0.921008 -1.804997 1.604193 0.067171 1.745147 -0.822728 -1.180590 1.028772 -1.259789 -1.117515 1.125627 0.390143 -2.600687 1.996162 0.285239 0.105581 0.810481 1.030844 -0.555524 0.045827
eth_top/assign_9_BDCs/expr_1/expr_1/expr_1/expr_1 -0.201822 1.829656 0.001804 -1.862239 -2.228391 -0.332567 0.623174 0.005993 -1.187402 1.160795 0.392811 0.170430 0.937876 0.061049 0.707725 -2.403673 -0.764429 0.190379 0.749431 2.583163
eth_top/assign_4_RegCs/expr_1/expr_1 1.205364 -0.900626 -0.005807 -1.741977 -0.065393 0.310898 0.001663 1.948123 0.347568 1.462930 -0.675476 0.139554 -1.934281 1.387268 1.206988 -3.013265 0.863656 -1.469240 0.007802 2.396332
eth_wishbone/always_3/block_1/if_1/block_2/case_1/block_7/stmt_6/expr_1 -0.083027 1.773944 -0.026509 -1.915964 -2.258212 -0.278380 0.656083 0.088032 -1.194699 1.299109 0.382192 0.161087 0.849949 0.087206 0.714787 -2.539973 -0.775403 0.155964 0.769273 2.635217
eth_registers/assign_109_r_ClkDiv -5.864124 -0.532117 5.348226 0.021205 3.747278 -2.709907 -0.570483 1.338757 -2.582582 -4.373212 1.233274 1.633114 -1.423694 3.685978 -1.172209 -0.851902 -0.271696 0.238321 -1.536858 2.919389
eth_registers/assign_40_MIIMODER_Wr/expr_1 1.693540 -2.821058 0.003959 -0.388802 1.874334 0.953845 -0.530512 2.274048 1.389185 0.697045 -1.156122 0.044635 -3.484964 1.525829 0.641550 -1.687553 1.463712 -1.915361 -0.932803 0.459483
eth_registers/wire_Write -2.158474 1.048808 2.312341 0.287887 0.665975 -2.607558 -0.489727 -2.081854 0.938213 -2.701198 -3.154356 2.427220 1.479013 2.424086 -1.006516 -0.523600 4.306087 0.895080 0.240765 0.769441
eth_wishbone/always_27/block_1/if_1 0.126999 0.740848 0.198160 -0.708996 -1.075539 -0.334705 0.131190 -0.179654 0.292477 -0.055670 -2.077320 0.547959 0.864604 -0.060450 -0.951504 -1.046406 0.984629 0.455815 0.482044 -0.065136
eth_txethmac/always_13/block_1/if_1/stmt_2/expr_1/expr_1/expr_1/expr_1 0.212703 0.663878 0.115466 -0.674440 -1.048197 -0.260828 0.152285 -0.137881 0.314385 0.026332 -2.055330 0.525486 0.856228 -0.181448 -0.951855 -1.032938 0.895113 0.451031 0.552226 -0.127196
eth_txstatem/always_1/block_1 0.152188 0.645091 0.211054 -0.754110 -1.017682 -0.277294 0.127162 -0.096384 0.265963 -0.025105 -2.144638 0.562362 0.838815 -0.002255 -0.949702 -1.138995 1.003900 0.458603 0.489978 -0.078648
eth_miim/always_8/block_1/if_1/block_1/if_1/cond 2.463302 -2.673445 -1.291961 -2.015413 -0.312945 2.544239 -3.178708 0.977542 -0.608409 0.152661 1.564065 -0.143936 -3.308942 4.305387 -0.818397 -4.134617 3.748466 2.568731 -1.695244 0.779752
eth_miim/always_6/block_1/if_1/block_2/if_1/cond 0.398232 -2.265212 1.843861 -1.267689 0.129029 0.757539 -0.606525 2.303051 -2.798074 0.459265 0.845787 0.031695 -5.234458 1.246384 -0.143663 -1.908936 -1.712727 1.119528 -1.172971 0.129609
eth_miim/input_RStat -0.653178 -3.706259 0.961352 2.104231 5.033029 -1.421160 -0.627974 1.450053 1.308964 -0.934540 0.052962 1.153009 -1.272805 1.308277 0.398592 1.775935 2.153049 -2.082561 0.654984 -1.377991
eth_registers/assign_1_Write -2.167660 1.029679 2.315825 0.402701 0.638552 -2.594050 -0.468575 -2.033757 0.776806 -2.693693 -3.020425 2.232431 1.596734 2.234795 -1.026641 -0.374396 4.062897 0.965008 0.257335 0.619914
eth_rxstatem/reg_StateIdle 0.180431 0.668186 0.178189 -0.720333 -1.026539 -0.277003 0.171874 -0.160592 0.309769 0.006455 -2.074499 0.535221 0.864175 -0.092216 -0.972916 -1.054852 0.966320 0.433975 0.505171 -0.109913
eth_top/wire_mdc_pad_o -5.951938 4.398862 4.678673 -2.065276 -4.627330 -4.832469 1.479321 -2.831531 -5.719815 -1.023624 0.956039 1.040386 1.092349 0.899582 2.308570 -2.208428 -3.250765 3.575572 -0.425831 3.571284
eth_registers/assign_111_r_RStat -0.740874 -3.667230 1.068413 2.118779 4.986002 -1.437813 -0.652786 1.426997 1.235922 -0.992944 0.012487 1.157810 -1.381008 1.341219 0.383070 1.743461 2.103829 -2.002059 0.564366 -1.381486
eth_wishbone/always_6/block_1/if_1/if_1/cond/expr_1 0.146795 0.690538 0.201317 -0.660188 -1.014564 -0.283223 0.137428 -0.184586 0.288551 -0.047137 -2.005675 0.531821 0.879443 -0.086156 -0.935055 -1.019592 0.941549 0.436807 0.483045 -0.064683
eth_txethmac/always_13/block_1/if_1/stmt_2/expr_1/expr_1/expr_1 0.194740 0.681395 0.180895 -0.694987 -1.094922 -0.272082 0.159795 -0.126516 0.302920 0.017720 -2.175014 0.563290 0.888632 -0.083151 -1.007696 -1.114039 0.997937 0.474451 0.532126 -0.117114
eth_txstatem/assign_6_StartPAD/expr_1/expr_1/expr_1 0.173830 0.674891 0.193925 -0.700199 -1.066154 -0.288367 0.137541 -0.123628 0.324783 -0.000463 -2.163894 0.544544 0.851911 -0.046967 -1.006889 -1.102623 0.970178 0.455210 0.513971 -0.099575
eth_txethmac/always_13/block_1/if_1 0.166983 0.692692 0.194881 -0.709210 -1.052167 -0.274178 0.168201 -0.169255 0.306085 -0.036485 -2.097951 0.566776 0.859681 -0.084443 -0.966847 -1.058141 0.986474 0.459768 0.519140 -0.098858
eth_maccontrol/input_TxStartFrmIn 0.170592 0.732469 0.214906 -0.772620 -1.126886 -0.325307 0.157926 -0.183235 0.294760 -0.007161 -2.157566 0.599907 0.913120 -0.036510 -1.014110 -1.143015 1.004058 0.502392 0.509885 -0.042760
eth_txstatem/assign_7_StartFCS 0.191977 0.684978 0.160344 -0.690063 -1.046888 -0.257557 0.180920 -0.183986 0.325248 -0.036097 -2.139249 0.555205 0.901541 -0.137416 -0.966923 -1.020327 0.941721 0.446613 0.516463 -0.107350
eth_wishbone/always_1/block_1/stmt_1/expr_1/expr_1/expr_1 -0.178221 1.814552 0.008584 -1.858637 -2.231792 -0.296098 0.653018 0.069110 -1.184155 1.219491 0.405944 0.175666 0.908225 0.094560 0.749525 -2.417551 -0.784536 0.192017 0.775508 2.593355
eth_shiftreg/always_1 2.110029 -0.443370 -0.114974 -1.135970 -0.428618 1.637508 0.492800 2.327376 2.393523 0.999493 -2.678890 -1.882594 -3.819335 0.289766 1.795180 -0.507290 -0.088436 -2.373330 -2.256919 1.201189
eth_shiftreg/wire_ShiftedBit 2.171347 -0.433459 -0.148418 -1.196458 -0.522007 1.677134 0.482083 2.342566 2.366675 0.982796 -2.701733 -1.890308 -3.862764 0.293806 1.840265 -0.588053 -0.073345 -2.403741 -2.230153 1.272390
check_ethernet/input_wb_we_i 1.332312 4.580056 -0.417382 -0.090310 -2.767661 0.534216 0.486153 -1.828611 0.489861 -2.004468 -1.210362 -0.363526 2.768867 -3.418447 0.196876 -0.819104 -0.963164 1.382024 -0.244868 2.199764
eth_miim/always_4/block_1/if_1/block_2/if_1/block_2/if_1/stmt_1 -1.021244 -0.397805 1.900324 -0.979762 -1.263727 0.207344 -0.602100 0.513981 -4.536193 -0.292573 2.377138 0.045771 -2.753298 0.397793 -1.055787 -0.594368 -2.775016 3.408195 -0.448088 -0.636014
eth_top/wire_temp_wb_err_o -2.906924 2.947060 0.507284 -2.096582 -3.867356 -0.545232 0.507836 -2.296926 0.615845 0.682380 1.468935 -0.703990 2.004609 2.551429 1.608959 0.335407 1.640818 1.946362 -0.666274 1.613616
eth_txstatem/assign_8_StartJam/expr_1 0.182990 0.658246 0.182181 -0.715588 -1.037928 -0.222708 0.174832 -0.117183 0.296175 0.036635 -2.129743 0.557574 0.815716 -0.112685 -0.979166 -1.069560 0.978581 0.428926 0.546008 -0.096678
eth_outputcontrol/always_1/block_1/if_1/block_2/if_1/block_1/stmt_1/expr_1/expr_1/expr_1 -0.827623 0.063440 0.760522 -1.187195 -1.447006 0.190061 -2.382984 -1.116145 -3.949464 -1.538653 2.591383 0.718325 -1.139111 2.234960 -2.046978 -2.129878 0.580198 5.273784 -0.606410 -0.201808
eth_miim/reg_WCtrlDataStart_q1 -0.996592 -1.562711 2.464020 -0.473691 0.993803 -0.700525 -0.136247 2.077216 -2.214647 -0.406895 1.147672 -0.222066 -3.805751 1.091161 0.891511 0.535423 -1.534363 0.502941 -0.703039 0.370476
eth_miim/reg_WCtrlDataStart_q2 -0.181362 -4.369946 2.023376 0.201393 2.433748 0.388958 -1.256202 2.142404 -3.764478 0.135127 2.292498 1.285205 -5.197172 1.341959 -1.479123 -1.015885 -1.565642 1.740639 -0.078356 -2.257542
eth_registers/wire_MIIMODER_Sel 0.139674 -1.944499 0.198660 2.057307 5.889028 0.864875 -1.848282 4.029589 0.779508 -2.403092 3.415862 -1.830854 1.303188 0.491167 -0.017882 3.857536 1.280773 -2.086308 1.611337 0.795872
eth_miim/wire_WriteDataOp -0.954472 -1.476321 2.362052 -0.567277 0.858958 -0.593988 -0.155227 2.085504 -2.246558 -0.338011 1.275203 -0.272350 -3.732898 1.120743 0.929325 0.450017 -1.487595 0.522899 -0.723568 0.518889
eth_top/reg_WillTransmit_q2 0.179256 0.661839 0.155430 -0.668634 -1.043194 -0.255622 0.179410 -0.157344 0.292700 0.008559 -2.075395 0.524252 0.858150 -0.086069 -0.955165 -1.043867 0.933187 0.441104 0.497191 -0.111574
eth_miim/always_8/block_1/if_1/block_1/if_1/block_1/if_1/block_1/if_1/stmt_2 2.327534 -2.581379 -1.221765 -1.992530 -0.273133 2.338454 -3.225012 0.852388 -0.636528 0.008345 1.490898 0.006717 -3.159628 4.337082 -0.893685 -4.191750 3.825147 2.641054 -1.656231 0.829620
eth_miim/always_8/block_1/if_1/block_1/if_1/block_1/if_1/block_1/if_1/stmt_1 1.757356 -2.878801 0.030729 -0.472566 1.804987 1.002081 -0.548516 2.356076 1.407756 0.764718 -1.152200 0.003725 -3.631848 1.542682 0.707096 -1.729275 1.413699 -1.938625 -0.992529 0.461210
eth_txethmac/wire_StateJam 0.123832 0.705840 0.197381 -0.691359 -1.046358 -0.286030 0.149983 -0.159641 0.317949 -0.042367 -2.106451 0.564048 0.875220 -0.065085 -0.962689 -1.070988 1.012725 0.459661 0.488392 -0.094800
eth_clockgen/wire_MdcEn_n -1.262146 1.499575 0.678226 -2.015449 -1.284504 0.325147 0.099003 1.227403 0.139523 -1.896996 1.324720 -2.483025 0.430198 2.481761 0.705951 0.979330 0.135157 0.016381 -2.230197 2.972292
eth_outputcontrol/reg_Mdo_d -1.663314 2.135347 1.032955 -1.907142 -0.312548 -1.599786 1.521411 1.520959 3.259508 -0.783339 -0.946029 -1.826042 1.545545 2.160735 3.751804 0.439912 1.842574 -3.627798 -1.316404 5.851179
eth_txstatem/assign_5_StartData/expr_1 0.159432 0.697938 0.151229 -0.689155 -1.016568 -0.256309 0.180949 -0.135481 0.270895 -0.035656 -2.055406 0.533114 0.837517 -0.103138 -0.934786 -1.019226 0.919150 0.413812 0.528411 -0.104056
check_ethernet/always_1/if_1 1.305466 4.620043 -0.461626 0.032020 -2.658905 0.397127 0.466827 -1.851513 0.508832 -2.122826 -1.217502 -0.457445 2.896023 -3.400640 0.228897 -0.684767 -0.926355 1.367070 -0.259999 2.192787
eth_top/wire_r_ScanStat 0.207168 -1.882091 0.739381 0.336642 2.614464 -0.667481 -0.023926 1.983467 2.079359 -0.274919 -1.108488 -0.233844 -1.946373 1.365675 1.773219 0.698797 1.803885 -2.593257 -0.531815 0.990837
eth_miim/input_Mdi 0.679387 1.186219 0.369204 -1.443776 -1.430027 0.627946 0.548173 1.049951 1.122190 0.098326 -1.768338 -1.483428 -1.828670 0.497847 1.539630 -0.965780 -0.328758 -1.229304 -1.936540 2.363300
eth_rxstatem/assign_1_StartIdle/expr_1/expr_1 0.147713 0.697506 0.185920 -0.691166 -1.036373 -0.272500 0.149711 -0.164706 0.308211 -0.026427 -2.067525 0.554310 0.850523 -0.102780 -0.927603 -1.025956 0.911147 0.451484 0.495652 -0.098099
eth_rxstatem/always_1/block_1/if_1/block_2/if_1/cond 0.147317 0.715850 0.198259 -0.728113 -1.053910 -0.254219 0.173573 -0.158622 0.262533 -0.018033 -2.121557 0.524102 0.845481 -0.036414 -0.972530 -1.098346 0.956700 0.463093 0.523370 -0.083131
eth_rxstatem/assign_1_StartIdle/expr_1/expr_2 0.134353 0.691038 0.177067 -0.686002 -1.009203 -0.302545 0.158189 -0.112639 0.299367 -0.011147 -2.077932 0.561655 0.853626 -0.076685 -0.963398 -1.062938 0.937662 0.421440 0.515402 -0.101966
eth_top/wire_wb_ack_o -3.536946 3.742184 1.643556 -2.913256 -3.174793 -2.293194 1.004060 -0.563703 -2.078860 -0.414215 1.605425 -0.007164 2.632188 2.302443 2.113787 -2.272634 -0.282614 1.049408 0.128686 5.676464
eth_outputcontrol/always_2/block_1/if_1/block_2/if_1/block_1/stmt_3 -1.605133 2.069216 0.992388 -2.068133 -0.264113 -1.494069 1.509779 1.736451 3.251259 -0.652766 -0.741203 -1.809825 1.421325 2.240834 3.786745 0.259868 1.783532 -3.699852 -1.274643 6.111029
eth_outputcontrol/always_2/block_1/if_1/block_2/if_1/block_1/stmt_2 -1.865379 1.974452 1.177931 -2.012447 -0.241692 -1.571706 1.578961 1.689704 3.133647 -0.660742 -0.604875 -1.812298 1.395749 2.403902 3.885296 0.246275 1.728485 -3.764452 -1.373005 6.096860
eth_txstatem/always_1/block_1/if_1 0.171133 0.669759 0.208306 -0.684077 -1.052929 -0.276813 0.161147 -0.146313 0.292378 -0.027572 -2.081043 0.546677 0.835311 -0.059556 -0.966531 -1.064027 0.974349 0.425119 0.491893 -0.101021
eth_miim/reg_WCtrlData_q3 -0.301597 -4.011379 2.006017 0.178702 2.168179 0.202273 -1.191393 1.890972 -3.738622 0.003271 2.217965 1.322204 -4.788656 1.301206 -1.445147 -1.085384 -1.452633 1.813006 -0.057088 -2.054664
eth_miim/reg_WCtrlData_q2 -0.999876 -1.360127 2.385369 -0.518610 0.829108 -0.667057 -0.018125 2.090267 -2.082646 -0.339009 1.064679 -0.338720 -3.685792 1.011733 0.989431 0.567995 -1.555846 0.347103 -0.758679 0.519482
eth_miim/reg_WCtrlData_q1 0.073257 -1.951755 0.831108 0.362193 2.680801 -0.754150 -0.140484 1.919790 1.919422 -0.421009 -1.062066 -0.090705 -1.960196 1.472606 1.649486 0.598496 1.822329 -2.420415 -0.542276 0.928122
eth_top/assign_3_RegCs/expr_1 -0.019256 1.744798 -0.081230 -1.861079 -2.248315 -0.189587 0.662170 0.092401 -1.153408 1.330901 0.384395 0.173869 0.831007 0.001021 0.719136 -2.499383 -0.853344 0.075978 0.777157 2.521184
eth_top/assign_8_BDCs/expr_1/expr_1/expr_1/expr_1/expr_1 1.680379 -0.387711 -0.945175 -1.387573 -1.596896 1.461693 0.937303 0.671053 -0.466203 2.859619 0.213298 0.375413 -0.974477 -0.714772 0.223853 -2.970840 -1.573588 -1.021749 0.646086 0.803729
eth_wishbone/always_77/block_1/if_1/if_1/cond 1.668111 -0.350278 -0.930926 -1.413371 -1.596857 1.443734 0.917430 0.635716 -0.482145 2.839930 0.207461 0.385392 -0.939291 -0.663744 0.225865 -2.987441 -1.590376 -1.033381 0.587785 0.885311
eth_txethmac/always_13/block_1 0.125406 0.710322 0.204413 -0.646818 -1.031958 -0.314379 0.141608 -0.158475 0.282870 -0.055603 -2.000448 0.527851 0.856694 -0.066636 -0.948534 -1.030924 0.958421 0.441433 0.509414 -0.055551
eth_shiftreg/always_1/block_1/if_1/block_2/if_1 2.040835 -0.372041 -0.102356 -1.125767 -0.480317 1.564152 0.426752 2.189857 2.292090 0.885822 -2.635212 -1.783112 -3.693244 0.312921 1.742730 -0.533218 -0.072994 -2.258685 -2.171105 1.169484
eth_outputcontrol/always_2/block_1/if_1/block_2/if_1/block_1/stmt_2/expr_1 -1.585473 2.026203 0.982332 -1.997784 -0.369090 -1.494587 1.590403 1.550887 3.287809 -0.582005 -0.915090 -1.821252 1.539205 2.206862 3.812618 0.254376 1.799355 -3.771072 -1.352817 5.969278
eth_top/wire_RegCs -0.048579 0.863155 -0.381219 0.420659 -0.208785 -1.089490 -0.429314 -1.401337 -0.676025 -1.147679 0.135598 0.393083 0.513502 0.069085 0.466964 -1.615748 -0.147635 0.101416 -0.949193 1.768221
eth_clockgen/reg_Mdc -3.232161 0.699741 2.662280 -1.184219 -2.084558 -0.082676 0.707513 -0.388033 -1.214174 -1.474939 1.748781 -2.147630 0.951447 3.696718 1.520635 0.100742 -0.597040 -0.013613 -3.023520 2.116084
eth_shiftreg/always_1/block_1/if_1/block_2/if_1/cond 2.076026 -0.393950 -0.114492 -1.140712 -0.518887 1.573485 0.462596 2.245590 2.325631 0.931957 -2.637950 -1.847790 -3.702391 0.301595 1.795159 -0.532351 -0.040398 -2.327571 -2.164139 1.214352
eth_wishbone/always_3 -0.229015 1.889753 0.062077 -1.956751 -2.281974 -0.396284 0.645049 0.072148 -1.257992 1.167050 0.480759 0.225740 0.945014 0.195786 0.803178 -2.569809 -0.800711 0.218059 0.752684 2.786976
eth_top/assign_2_RegCs/expr_1 -0.199483 1.879166 -0.000649 -1.850565 -2.254623 -0.353351 0.609942 0.001892 -1.233781 1.138829 0.433588 0.237076 0.977776 0.089478 0.704067 -2.437031 -0.739689 0.233641 0.774024 2.664004
eth_wishbone/always_2/block_1/if_1/if_1 1.737663 -0.358931 -1.012863 -1.450058 -1.658069 1.507341 0.973351 0.653807 -0.436634 2.911328 0.170891 0.356518 -0.910972 -0.743066 0.201539 -3.004175 -1.604836 -1.021664 0.606006 0.819426
eth_rxstatem/assign_2_StartPreamble 0.176389 0.713433 0.150736 -0.691947 -1.050593 -0.255363 0.145853 -0.163940 0.252980 -0.010667 -2.029525 0.519574 0.864132 -0.120582 -0.901414 -1.042457 0.908462 0.456861 0.502659 -0.078570
eth_miim/inst_shftrg 2.163986 -0.431620 -0.108912 -1.228262 -0.497921 1.660820 0.507390 2.336425 2.407112 1.010617 -2.756830 -1.939176 -3.944379 0.270723 1.849644 -0.532824 -0.098335 -2.422790 -2.316782 1.245037
eth_miim/always_3/block_1/if_1/block_1/stmt_9 0.038634 -1.960411 -0.079979 0.799749 1.798419 -0.114166 -0.624931 0.214585 -0.550038 0.060581 1.027131 1.020489 -0.243631 0.433630 -0.814806 -0.201348 0.617338 0.130055 0.870688 -1.204851
eth_top/always_1/block_1/if_1/block_2/stmt_1 -3.517888 3.700983 1.644588 -2.831507 -3.102419 -2.282569 1.015056 -0.626230 -1.985866 -0.474945 1.615867 -0.023037 2.608239 2.321994 2.109474 -2.204883 -0.221960 1.002648 0.059057 5.646519
eth_top/always_1/block_1/if_1/block_2/stmt_2 -2.778671 5.514103 0.575231 -0.996894 -3.319448 -3.572718 -0.503326 -3.021067 -1.244170 -1.738058 0.343290 -0.540851 2.980230 0.983927 1.745527 0.432120 0.315496 2.021668 -0.841560 3.695152
eth_top/always_1/block_1/if_1/block_2/stmt_3 -2.665436 2.749614 0.483375 -2.009708 -3.613336 -0.459057 0.475736 -2.017353 0.693304 0.664777 1.279336 -0.781643 1.894684 2.417211 1.527441 0.345630 1.661943 1.776336 -0.632417 1.466756
eth_clockgen/always_2/block_1/if_1/block_1 -3.756340 0.315725 2.830924 -0.521869 -1.763619 -1.017797 1.197649 -1.320072 -1.345199 -0.587096 1.445325 -0.839041 2.022106 3.081172 1.718196 -0.690218 -0.416157 -0.321853 -1.855136 1.553960
eth_txstatem/always_1/block_1/if_1/block_2/if_3/if_1/cond 0.094790 0.710791 0.239742 -0.720001 -1.008123 -0.340962 0.127301 -0.136232 0.261705 -0.081128 -2.059395 0.530692 0.864949 -0.007674 -0.938426 -1.070274 1.002807 0.478473 0.473271 -0.024896
check_ethernet/input_wb_stb_i 1.334532 4.567357 -0.469626 0.046261 -2.710219 0.426134 0.473212 -1.922008 0.534679 -2.104719 -1.364616 -0.343718 2.866930 -3.479508 0.131966 -0.735774 -0.905634 1.369744 -0.235438 2.108247
eth_txstatem/always_1/block_1/if_1/block_2/if_6 0.145158 0.666988 0.222121 -0.672174 -1.025187 -0.326677 0.147911 -0.166808 0.288714 -0.072225 -2.034596 0.540981 0.837315 -0.022533 -0.943573 -1.058231 0.995826 0.474064 0.491228 -0.021742
eth_miim/assign_7_ByteSelect/expr_1/expr_1/expr_2 2.183808 -0.590842 -0.165955 -1.079699 -0.348918 1.676393 0.482882 2.377891 2.394016 1.008574 -2.719193 -1.868072 -3.970245 0.305507 1.817292 -0.458572 -0.078134 -2.431597 -2.229563 1.053728
eth_miim/assign_7_ByteSelect/expr_1/expr_1/expr_1 2.022353 -0.388366 -0.115262 -1.165352 -0.476221 1.539306 0.448689 2.253252 2.326119 0.915574 -2.656291 -1.841499 -3.701794 0.344426 1.816703 -0.513219 -0.018927 -2.346480 -2.245286 1.300135
eth_txethmac/wire_StateData 0.182279 0.698753 0.168089 -0.690352 -1.070631 -0.299500 0.181683 -0.155179 0.285123 -0.017886 -2.111663 0.548644 0.870960 -0.096884 -0.995168 -1.025411 0.962186 0.446685 0.516873 -0.111496
eth_txstatem/assign_4_StartData/expr_1/expr_2/expr_2 0.164272 0.677131 0.189035 -0.690986 -1.004173 -0.276644 0.146409 -0.148203 0.263666 -0.034552 -2.085792 0.554070 0.849207 -0.055765 -0.965908 -1.061431 0.971975 0.457670 0.505474 -0.046207
eth_miim/wire_ShiftedBit 2.198314 -0.385917 -0.172783 -1.225670 -0.516839 1.673881 0.519629 2.342404 2.414488 1.032260 -2.762796 -1.959638 -3.900146 0.277516 1.876826 -0.513708 -0.113545 -2.471141 -2.295422 1.258289
eth_miim/assign_10_ByteSelect 2.199812 -0.584098 -0.142505 -1.134909 -0.345702 1.678979 0.486038 2.386459 2.400397 0.993176 -2.734502 -1.884920 -3.988846 0.309290 1.830400 -0.505093 -0.059337 -2.476358 -2.258637 1.149006
eth_wishbone/always_3/block_1/if_1/block_2 -0.300331 1.904314 0.093872 -1.838323 -2.176272 -0.445863 0.572241 -0.034765 -1.188530 0.989525 0.459513 0.161538 1.034848 0.116218 0.746482 -2.277818 -0.709788 0.267143 0.749963 2.658754
eth_top/assign_4_RegCs/expr_1/expr_1/expr_1 3.026106 -2.981584 -0.865436 -1.565835 0.351512 2.039118 0.286028 2.574205 0.804387 3.213402 -0.825976 0.541716 -3.923484 0.774529 0.739357 -4.273280 0.043150 -2.628313 -0.188903 1.161763
eth_wishbone/always_2/block_1 1.690104 -0.387790 -0.932469 -1.424363 -1.576334 1.449099 0.938063 0.697501 -0.438762 2.849737 0.201287 0.390193 -0.953950 -0.655518 0.214717 -3.004780 -1.567561 -1.014151 0.591346 0.844640
eth_top/assign_4_RegCs/expr_1/expr_1/expr_2 1.653622 -1.920955 -0.568016 0.342358 1.205860 1.163637 -0.031522 1.485819 1.441687 1.003198 -0.963833 -0.518377 -2.281394 -0.194847 0.295464 0.574801 0.277073 -1.471825 -0.327836 -1.346122
eth_top/assign_7_BDCs -0.257309 1.820537 0.052688 -1.893409 -2.232708 -0.373129 0.643984 0.049657 -1.227225 1.115410 0.473074 0.171879 0.889439 0.180593 0.759963 -2.378189 -0.756890 0.194348 0.722927 2.710165
eth_clockgen/wire_CounterPreset -2.027200 2.455750 2.584574 0.081318 3.124958 -2.254853 -1.805184 1.646441 -0.595517 -4.601641 -0.810470 1.274184 -1.022581 0.449661 -0.867700 -0.306200 0.863210 0.710197 0.057547 4.046933
eth_rxstatem/always_1/block_1/if_1/block_2/if_3/if_1/cond 0.138900 0.691691 0.180311 -0.717715 -1.040768 -0.271622 0.169694 -0.118391 0.316927 -0.023913 -2.120373 0.542315 0.821562 -0.024456 -0.974411 -1.069892 0.980506 0.436327 0.501009 -0.060756
check_ethernet/always_1/if_1/if_1 1.374812 4.499640 -0.474833 -0.015873 -2.647215 0.586104 0.533888 -1.712903 0.534247 -1.951185 -1.133080 -0.440676 2.810346 -3.436157 0.200643 -0.764426 -1.035347 1.248390 -0.219776 2.163840
eth_shiftreg/input_MdcEn_n 2.068599 -0.368576 -0.085360 -1.195090 -0.531977 1.603111 0.466334 2.242247 2.282505 0.947704 -2.652554 -1.879621 -3.832704 0.320253 1.807763 -0.566328 -0.095376 -2.288617 -2.269380 1.297005
eth_miim/always_7/block_1/if_1/block_2/if_1/cond 0.604503 -1.439540 0.536119 -1.460345 -0.325396 0.795980 -2.254329 0.463350 -2.048713 -0.767397 0.962868 0.641940 -3.133665 2.780378 -1.165893 -3.306483 1.578289 2.977512 -1.232676 0.560225
eth_rxstatem/reg_StateData0 0.173956 0.631213 0.206370 -0.657767 -0.993889 -0.278131 0.166017 -0.103642 0.258039 -0.003402 -1.999440 0.533712 0.786669 -0.071392 -0.898954 -1.019170 0.905025 0.408701 0.508000 -0.063243
eth_miim/always_1 -0.978429 -0.583787 1.946227 -0.880486 -1.129593 0.246217 -0.658294 0.546701 -4.598584 -0.258003 2.443683 0.109764 -2.935429 0.393960 -1.180737 -0.602304 -2.828272 3.435061 -0.465976 -0.857726
eth_miim/input_ScanStat 0.072132 -1.746343 0.764782 0.349465 2.548121 -0.774770 -0.088043 1.813183 2.011766 -0.399155 -1.121842 -0.178860 -1.732645 1.368663 1.705381 0.648194 1.846754 -2.480880 -0.553995 1.013080
eth_miim/always_3 -1.017107 -1.439711 2.434246 -0.592523 0.896650 -0.688645 -0.100548 2.096167 -2.220208 -0.415456 1.164254 -0.287601 -3.729985 1.133420 0.940936 0.438559 -1.538982 0.490916 -0.778591 0.559262
eth_miim/always_4 -1.027754 -1.586382 2.395650 -0.510608 0.962898 -0.673327 -0.148497 2.070353 -2.250511 -0.322893 1.299789 -0.200319 -3.705775 1.163424 0.884987 0.450272 -1.476501 0.502257 -0.645691 0.409349
eth_miim/always_6 -0.944404 -1.791021 1.662451 -0.009617 1.689623 -0.781720 -1.124495 1.125570 -1.249646 -1.126034 1.105766 0.281828 -2.745945 1.990804 0.400442 0.179848 0.701434 0.941636 -0.670053 0.060013
eth_miim/always_7 -0.812728 -0.674201 1.209433 -0.700777 0.408030 -0.630461 -1.665749 0.289611 -1.640832 -1.434262 1.258050 0.370840 -1.810739 2.477493 -0.141781 -0.957329 1.537985 2.352713 -0.733412 0.841129
eth_maccontrol/assign_4_TxStartFrmOut/expr_1/expr_1 0.132392 0.699474 0.203659 -0.689146 -1.065258 -0.299674 0.131069 -0.166155 0.279063 -0.050013 -2.116390 0.562142 0.873631 -0.074751 -0.986987 -1.087229 1.005260 0.449926 0.538371 -0.077617
eth_top/input_wb_dat_i 1.396453 4.495260 -0.487374 0.010823 -2.712674 0.510197 0.497414 -1.788572 0.521318 -1.995904 -1.315335 -0.430478 2.760746 -3.499073 0.188129 -0.672687 -0.976793 1.352916 -0.242234 1.973002
eth_top/assign_12_temp_wb_err_o -2.809119 2.854162 0.475088 -2.063577 -3.807182 -0.483537 0.516384 -2.212899 0.738591 0.703880 1.402775 -0.749840 1.975720 2.554878 1.538091 0.364980 1.699502 1.908823 -0.680905 1.509481
eth_top/assign_4_RegCs/expr_1/expr_1/expr_1/expr_1 3.016299 -2.976010 -0.804422 -1.644316 0.324541 2.056290 0.231278 2.620227 0.707614 3.158181 -0.809071 0.577809 -4.024799 0.866367 0.731069 -4.363454 0.006445 -2.498611 -0.219453 1.178424
eth_shiftreg/input_ByteSelect 2.095674 -0.357276 -0.120865 -1.184244 -0.551546 1.578552 0.516586 2.256241 2.393038 0.970720 -2.720090 -1.868881 -3.744398 0.296471 1.847923 -0.531758 -0.055385 -2.392627 -2.264711 1.296360
eth_wishbone/always_6/block_1/if_1/if_1/cond 0.175243 0.710380 0.193806 -0.684541 -1.022310 -0.269461 0.133952 -0.130466 0.262916 -0.004798 -2.033494 0.557679 0.830269 -0.064981 -0.916522 -1.090305 0.932217 0.428619 0.518480 -0.052472
check_ethernet/input_wb_cyc_i 1.315384 4.513020 -0.427290 0.015291 -2.648705 0.464157 0.519880 -1.815691 0.487608 -2.023946 -1.325859 -0.362957 2.791459 -3.425956 0.149508 -0.755650 -0.926101 1.318208 -0.249732 2.056347
eth_top/assign_2_RegCs/expr_1/expr_1 -0.220570 1.820978 0.030399 -1.905221 -2.260771 -0.323146 0.622130 0.066737 -1.241696 1.196024 0.468798 0.196608 0.874919 0.188302 0.792002 -2.484253 -0.776770 0.166965 0.733935 2.722078
eth_top/assign_6_BDCs/expr_1/expr_1/expr_1/expr_1 -0.140324 1.909528 -0.033483 -1.935575 -2.349952 -0.295042 0.657810 0.023006 -1.200087 1.221964 0.410989 0.148833 0.949324 0.065767 0.716003 -2.463802 -0.805435 0.191693 0.775740 2.654802
eth_wishbone/always_26/block_1/if_1 0.154891 0.683670 0.194017 -0.708878 -1.047874 -0.263312 0.178639 -0.127607 0.299186 -0.020065 -2.137627 0.571747 0.844346 -0.075161 -0.948128 -1.065803 0.983534 0.411225 0.522948 -0.103837
eth_top/assign_12_temp_wb_err_o/expr_1/expr_1 -0.791047 -0.286181 -0.814680 -0.822197 -2.251317 0.567601 0.576346 -2.804944 1.038399 0.701638 0.606846 1.235562 0.221021 1.156490 -0.705030 -0.722014 0.588057 1.383883 -1.236195 -0.339085
eth_top/assign_22_Transmitting 0.167116 0.702319 0.167393 -0.711011 -1.033648 -0.274996 0.160817 -0.146625 0.303863 -0.018900 -2.072224 0.548324 0.825547 -0.092480 -0.950208 -1.102434 0.988015 0.420556 0.526080 -0.080283
eth_txstatem/assign_4_StartData/expr_1/expr_2/expr_1 0.116314 0.693492 0.209371 -0.698954 -1.025368 -0.319057 0.173514 -0.127286 0.251562 -0.072432 -2.055978 0.525272 0.824690 -0.062725 -0.911151 -1.031817 0.955283 0.432325 0.501702 -0.088416
eth_txstatem/reg_StatePAD 0.212925 0.651400 0.183319 -0.681957 -1.037408 -0.238180 0.145526 -0.144726 0.327528 0.016457 -2.098139 0.528126 0.856410 -0.090640 -0.980661 -1.088413 0.978051 0.418157 0.550033 -0.122010
eth_txstatem/assign_5_StartData 0.158074 0.701493 0.203977 -0.718078 -1.068549 -0.272426 0.152705 -0.121980 0.313165 -0.042205 -2.115017 0.557045 0.847831 -0.072803 -0.976972 -1.107038 0.974224 0.462296 0.514801 -0.104328
eth_top/always_1 -2.300896 4.093861 -0.231391 -1.484864 -3.319586 -3.260408 0.338686 -3.372656 -0.979778 0.856884 0.817122 0.684801 3.013349 0.662423 2.114434 -0.830097 0.885745 1.979570 1.039877 3.114647
eth_shiftreg/always_1/block_1/if_1/block_2/if_1/block_1/if_1/block_1/case_1/cond 1.690048 -1.899900 -0.600418 0.302008 1.149379 1.205217 -0.004939 1.462708 1.459295 0.986599 -1.026508 -0.517397 -2.294874 -0.245627 0.330112 0.555808 0.226854 -1.474966 -0.359541 -1.348212
eth_wishbone/always_6/block_1/if_1 0.133707 0.709736 0.257347 -0.709447 -1.062197 -0.332282 0.142232 -0.153276 0.315463 -0.064367 -2.169557 0.589265 0.893462 0.002067 -1.004171 -1.148100 1.081657 0.467251 0.499346 -0.067294
eth_miim/always_3/block_1/if_1/block_2/stmt_5 -0.673264 -3.681342 1.002231 2.102177 4.978446 -1.412817 -0.587343 1.468333 1.376621 -0.930226 -0.022757 1.114076 -1.316653 1.275344 0.459148 1.825649 2.113855 -2.135592 0.581921 -1.349157
eth_top/input_md_pad_i 0.635683 1.317524 0.392036 -1.436523 -1.498638 0.606845 0.579659 1.002973 1.098176 0.076302 -1.824353 -1.464295 -1.784585 0.441056 1.601977 -0.959481 -0.353836 -1.187532 -1.945913 2.463648
eth_txstatem/assign_3_StartPreamble/expr_1 0.148422 0.691289 0.145228 -0.678089 -1.030646 -0.287044 0.184416 -0.172305 0.281140 0.012869 -2.068696 0.554817 0.871052 -0.094544 -0.937448 -1.061003 0.920633 0.449401 0.521091 -0.080876
eth_wishbone/always_4/block_1 1.659837 -0.313590 -0.930960 -1.461977 -1.631206 1.455042 0.958558 0.633222 -0.469029 2.880522 0.213738 0.392205 -0.924673 -0.705437 0.232584 -3.043717 -1.579148 -0.996068 0.612440 0.890979
eth_top/always_1/block_1/if_1/block_2/stmt_1/expr_1 -2.567130 3.740897 1.436820 -3.850565 -4.140710 -2.538653 0.716485 -0.729515 -3.796265 0.688013 1.587279 0.101634 2.117574 1.484437 1.833280 -2.795912 -0.940885 2.342845 1.283742 5.475783
eth_wishbone/reg_TxStartFrm_wb 0.162015 0.674477 0.206957 -0.680346 -0.986306 -0.286585 0.139373 -0.161970 0.300207 -0.038556 -2.109455 0.581253 0.878065 -0.068164 -0.966536 -1.048097 1.013073 0.424477 0.492406 -0.061381
eth_shiftreg/always_1/block_1/if_1/block_2/if_1/block_1/if_1/cond 2.198028 -0.522676 -0.122889 -1.159959 -0.441034 1.705041 0.502507 2.385472 2.411052 1.001290 -2.729839 -1.916296 -3.955999 0.310232 1.854044 -0.523465 -0.102788 -2.442115 -2.258613 1.184756
eth_miim/always_1/block_1/if_1 -1.091418 -0.345173 1.959550 -0.953315 -1.273420 0.129263 -0.561555 0.404095 -4.610764 -0.369871 2.315194 0.124435 -2.726582 0.368547 -1.111199 -0.622200 -2.833589 3.473149 -0.434024 -0.693553
eth_clockgen/always_1/block_1/if_1/block_1/if_1/block_1 -2.131308 2.632612 2.608387 0.125986 3.154866 -2.359964 -1.821401 1.520798 -0.487902 -4.856046 -0.805224 1.242095 -0.798953 0.553270 -0.720905 -0.255230 1.009226 0.720088 -0.111296 4.293971
eth_shiftreg/always_1/block_1/if_1/block_2/if_1/block_1 2.200097 -0.583432 -0.175190 -1.149744 -0.346911 1.687098 0.460482 2.375916 2.383556 1.039788 -2.671296 -1.870777 -3.931810 0.293222 1.834414 -0.467988 -0.061142 -2.442590 -2.225035 1.114653
eth_miim/always_4/block_1 -0.953770 -1.402318 2.300751 -0.606932 0.797591 -0.628089 -0.075476 2.063398 -2.114222 -0.235319 1.210683 -0.314866 -3.611787 1.097583 0.997210 0.453769 -1.427270 0.384251 -0.687575 0.601256
eth_clockgen/always_1/block_1/if_1/block_1/if_1/stmt_1 -3.777065 0.261280 2.723021 -0.539001 -0.320751 -1.565411 0.112083 -1.107831 -1.791362 -1.024340 1.718182 0.139009 1.242268 3.900997 2.071476 -1.464326 0.967270 0.230488 -1.065829 3.028828
eth_top/always_1/block_1/if_1/block_2/stmt_3/expr_1 -2.719175 2.573003 0.429854 -1.917110 -3.593183 -0.481149 0.441677 -2.252811 0.627617 0.666293 1.462823 -0.592108 1.769144 2.521572 1.461778 0.271475 1.595720 1.898125 -0.769339 1.398286
eth_wishbone/reg_WB_ACK_O -0.180404 1.811803 0.007919 -1.864363 -2.258549 -0.290720 0.654510 0.086900 -1.166532 1.202114 0.402203 0.143606 0.949760 0.066586 0.738546 -2.394339 -0.785262 0.193610 0.782781 2.566113
eth_transmitcontrol/always_1/block_1/if_1/if_1 0.240262 0.672502 0.139645 -0.719826 -1.071807 -0.224772 0.164679 -0.134419 0.337787 0.032769 -2.155161 0.570735 0.869997 -0.105610 -0.986673 -1.115852 0.970780 0.428544 0.523611 -0.152503
eth_top/assign_9_BDCs/expr_1/expr_1/expr_1/expr_1/expr_1 1.644029 -0.342236 -0.944527 -1.455060 -1.632740 1.474786 0.940876 0.652800 -0.488884 2.843730 0.217477 0.369835 -0.931711 -0.666069 0.237705 -3.024795 -1.583295 -1.023363 0.593860 0.863144
eth_outputcontrol/always_2/block_1/if_1/block_2/if_1/block_1/stmt_1 -1.810870 2.328356 1.106243 -1.931069 -0.431233 -1.759679 1.553625 1.399812 3.029499 -0.794752 -0.837729 -1.670345 1.583557 2.062733 3.720613 0.329002 1.678530 -3.435565 -1.264639 5.906308
eth_miim/always_7/block_1/if_1/block_2/if_1/block_1/if_1/cond -0.981518 -1.589735 1.576770 -0.067521 1.470106 -0.760751 -1.067485 0.970565 -1.253603 -1.093269 1.165403 0.240335 -2.501903 1.918779 0.444546 0.182706 0.659078 1.005554 -0.619536 0.191803
eth_outputcontrol/assign_1_SerialEn/expr_1/expr_2/expr_2 -0.294655 -2.754160 0.110766 0.845342 2.574281 -0.606503 -1.102262 0.147018 -0.884839 -0.188665 1.536501 1.951388 0.093250 1.311734 -1.154065 -1.147999 1.645877 0.370682 1.314108 -0.909263
eth_top/inst_miim1 -2.681086 3.292069 1.531134 -2.141108 -2.148522 -1.450752 0.154198 0.232075 -0.834190 -1.859783 0.371170 -0.953576 0.259949 1.531488 1.670895 0.465948 -0.285478 1.563879 -1.225163 3.509937
eth_outputcontrol/assign_1_SerialEn/expr_1/expr_2/expr_1 -0.252017 -2.723945 0.103826 0.837930 2.588451 -0.531828 -1.091636 0.199927 -0.835903 -0.178524 1.471644 1.884961 -0.040646 1.238094 -1.148536 -1.116793 1.581701 0.309489 1.200455 -0.961890
eth_txethmac/always_13/block_1/if_1/stmt_2/expr_1 0.195830 0.728992 0.154126 -0.690508 -1.053195 -0.257381 0.177867 -0.163448 0.286751 -0.037320 -2.094252 0.533146 0.892879 -0.135871 -0.977660 -1.043929 0.955319 0.436672 0.506174 -0.096028
eth_wishbone/always_30 0.152051 0.663583 0.220372 -0.675312 -1.007525 -0.289855 0.170527 -0.161959 0.269035 -0.029122 -2.075058 0.562025 0.857613 -0.047197 -0.964537 -1.061679 0.974866 0.421710 0.517562 -0.066651
eth_rxstatem/wire_StartSFD 0.133232 0.671472 0.156818 -0.627426 -0.982570 -0.282314 0.147957 -0.175458 0.279536 -0.036916 -1.971919 0.509466 0.836413 -0.078414 -0.901596 -0.993127 0.897741 0.450673 0.504190 -0.108290
eth_txstatem/always_1/block_1/if_1/block_2/stmt_1 0.161579 0.682031 0.188918 -0.732499 -1.047558 -0.309638 0.143100 -0.167424 0.308738 -0.058201 -2.185541 0.592110 0.905748 -0.053439 -0.988690 -1.128380 1.039716 0.444405 0.524271 -0.090080
eth_miim/always_6/block_1/if_1/block_2/if_1/block_1 -0.974230 -1.667589 2.451235 -0.531910 0.980091 -0.619415 -0.113423 2.196913 -2.358519 -0.297237 1.278800 -0.252875 -3.994500 1.036204 0.846399 0.533085 -1.666845 0.477303 -0.723170 0.307477
eth_wishbone/always_6/block_1 0.144167 0.689442 0.185317 -0.696353 -1.026016 -0.291946 0.170708 -0.173136 0.301113 -0.050800 -2.096390 0.545186 0.888070 -0.032418 -0.957243 -1.085664 1.003156 0.477281 0.517734 -0.040861
eth_registers/assign_110_r_WCtrlData 0.101586 -1.836463 0.783093 0.392284 2.595224 -0.749142 -0.059667 1.869183 1.889387 -0.387847 -1.052268 -0.130312 -1.860777 1.337118 1.673016 0.697228 1.749696 -2.421608 -0.521632 0.899252
eth_wishbone/always_1/block_1/stmt_1/expr_1/expr_1/expr_1/expr_1 -0.286837 1.873005 0.032911 -1.899303 -2.239435 -0.406771 0.596933 -0.001770 -1.198421 1.067257 0.440781 0.191256 0.998030 0.167959 0.747808 -2.416629 -0.704324 0.233973 0.771311 2.678276
eth_top/assign_7_BDCs/expr_1/expr_1/expr_1/expr_1 -0.076717 1.778195 -0.046550 -1.914827 -2.268975 -0.242316 0.632747 0.126595 -1.181566 1.276617 0.396410 0.188584 0.848370 0.072553 0.717214 -2.476452 -0.793681 0.177313 0.801583 2.590545
eth_top/assign_8_BDCs/expr_1 -0.140527 1.769992 -0.026057 -1.806023 -2.201438 -0.302946 0.654809 0.058649 -1.172493 1.209173 0.439403 0.203879 0.919421 0.048913 0.698259 -2.315570 -0.781476 0.172034 0.812732 2.536094
eth_miim/always_8/block_1/if_1 -0.650985 0.161059 -0.785049 -1.939503 -0.461653 0.030888 -0.283244 0.599798 1.940295 0.286562 1.529627 -1.004220 1.542645 3.426461 1.691081 -0.299934 3.386704 -0.813400 -0.382889 2.982110
eth_top/assign_15_wb_err_o -2.799157 2.617430 0.406405 -1.953416 -3.713225 -0.452116 0.525314 -2.353595 0.618554 0.739518 1.559032 -0.669020 1.852825 2.522505 1.528283 0.367258 1.551777 1.874261 -0.750072 1.369037
eth_shiftreg/always_1/block_1/if_1/block_2/if_1/block_1/if_1/block_1/case_1 1.662125 -1.877428 -0.552519 0.336232 1.148834 1.186762 -0.056740 1.454087 1.388611 1.008049 -0.992317 -0.464696 -2.235830 -0.211209 0.292253 0.533917 0.224396 -1.420020 -0.326513 -1.353659
eth_top/wire_temp_wb_dat_o -1.655920 4.713382 -0.354269 -0.412778 -3.169886 -3.184450 -0.985573 -4.877803 -1.858131 -1.697489 1.252193 1.781163 2.044920 -0.090341 1.122199 -2.004764 0.312045 3.423199 -0.439561 3.628592
eth_wishbone/always_4 1.701969 -0.447964 -0.928189 -1.405544 -1.533107 1.480310 0.900669 0.721529 -0.459587 2.885702 0.231010 0.380117 -1.018143 -0.682360 0.226327 -2.963308 -1.570071 -1.030134 0.583032 0.785044
eth_wishbone/always_6 0.124348 0.697584 0.224939 -0.712247 -1.059856 -0.301666 0.149445 -0.128388 0.286945 -0.020846 -2.052510 0.564231 0.855535 0.001418 -0.950595 -1.078300 0.987531 0.461628 0.500402 -0.010975
eth_wishbone/always_1 -0.232705 1.855223 0.046920 -1.846886 -2.186794 -0.424723 0.583916 -0.004350 -1.173438 1.067157 0.367745 0.235622 0.962726 0.114996 0.684595 -2.396191 -0.704607 0.199800 0.734138 2.615149
eth_txstatem/always_1 0.130593 0.708777 0.178796 -0.726232 -1.060454 -0.310808 0.153270 -0.178621 0.270351 -0.018528 -2.081980 0.527099 0.862709 -0.065365 -0.964112 -1.102448 1.001318 0.454749 0.489802 -0.081378
eth_top/wire_ByteSelected -2.279166 3.708480 -0.769971 -0.791587 -4.194364 -1.892078 -0.114660 -6.395404 -0.001650 -0.896932 2.041556 2.168253 2.302117 0.960217 0.913761 -1.600943 0.984867 3.558597 -1.470214 2.941588
eth_wishbone/always_2 1.696940 -0.388143 -0.959141 -1.364127 -1.553359 1.481889 0.935417 0.660344 -0.442596 2.862549 0.175087 0.405352 -0.975448 -0.678911 0.205530 -2.933358 -1.567509 -1.046308 0.588266 0.801016
eth_registers/assign_41_MIICOMMAND_Wr/expr_1 0.021016 -1.959882 0.799802 0.482209 2.741535 -0.814650 -0.127639 1.809690 1.907933 -0.424885 -1.000831 -0.040426 -1.758685 1.408949 1.616973 0.715814 1.842173 -2.416078 -0.459527 0.841465
eth_top/assign_3_RegCs/expr_1/expr_1 -0.166202 1.820464 -0.014628 -1.949731 -2.313612 -0.298105 0.682752 0.072796 -1.243375 1.253226 0.484944 0.162990 0.871868 0.070427 0.791623 -2.473738 -0.836432 0.167839 0.756966 2.635675
eth_registers/wire_MIIMODEROut -5.804203 -0.437373 5.295345 0.021912 3.622148 -2.640797 -0.521997 1.375788 -2.581119 -4.303770 1.248978 1.572760 -1.517940 3.572504 -1.080692 -0.797267 -0.386951 0.243655 -1.548703 2.927080
eth_miim/wire_MdoEn -1.158043 -1.696137 0.818215 -0.681378 0.344996 -0.544491 -2.953144 -1.137725 -4.415258 -1.532287 3.676274 2.405450 -0.431698 3.209675 -2.665989 -3.368966 2.011723 5.170953 0.621714 -0.270027
eth_outputcontrol/always_1/block_1/if_1/block_2/if_1/cond -1.295096 -1.470184 0.878052 -0.649690 0.325229 -0.718280 -2.868461 -1.215872 -4.358406 -1.624788 3.486080 2.421790 -0.320724 3.045708 -2.602259 -3.210585 1.947200 5.099568 0.612242 -0.204791
eth_top/assign_12_temp_wb_err_o/expr_1/expr_2 -0.768853 0.044679 -0.789391 -0.914816 -2.318715 0.533648 0.624028 -2.681874 1.162709 0.668981 0.453616 1.103096 0.389113 1.025810 -0.576436 -0.708584 0.614573 1.249007 -1.170408 -0.071509
eth_register/input_SyncReset -5.891418 -0.600765 4.504122 2.640609 2.970191 -7.271690 2.300940 -4.828057 2.587912 -0.614922 -6.499349 6.221903 -5.429333 1.764193 2.521937 2.263193 1.731764 -2.530705 -1.601504 -1.840794
eth_outputcontrol/wire_SerialEn -2.731862 0.493506 0.418685 -1.019868 0.816853 -2.923994 1.024089 -0.082231 1.809632 -0.481859 1.210497 0.573648 4.345403 2.831463 2.125225 -0.248190 3.128683 -2.369512 0.914890 4.199618
eth_register/always_1/block_1/if_1 -0.600638 0.705667 0.288287 1.480533 0.650233 -2.937397 -1.426301 -1.487002 0.104586 -4.761071 -4.268878 -0.646747 2.681200 0.254589 -1.767830 -0.868277 2.608912 1.763498 -2.299686 -0.280452
eth_shiftreg/always_1/block_1/if_1/block_2/if_1/block_1/if_1/block_2 2.102688 -0.461154 -0.104152 -1.164018 -0.430011 1.610978 0.466098 2.244609 2.274577 0.939699 -2.609245 -1.804697 -3.833237 0.302550 1.750117 -0.555122 -0.089257 -2.271904 -2.205882 1.155397
eth_shiftreg/always_1/block_1/if_1/block_2/if_1/block_1/if_1/block_1 1.657861 -1.888318 -0.560473 0.348970 1.162173 1.150628 -0.004764 1.433627 1.436602 0.965450 -1.023847 -0.515527 -2.256128 -0.201692 0.300533 0.550687 0.237312 -1.416915 -0.334728 -1.321508
eth_top/assign_11_temp_wb_dat_o/expr_1/expr_1/expr_2 -1.575809 4.703121 -0.221901 -0.394448 -3.124518 -3.006242 -0.969542 -4.771117 -1.829948 -1.787635 1.291801 1.751032 1.945423 -0.181286 1.171729 -1.920292 0.271806 3.379851 -0.430775 3.664008
eth_miim/assign_3_ScanStatusOp/expr_1 0.104293 -1.904016 0.733760 0.425039 2.655775 -0.764147 -0.110275 1.859768 1.868280 -0.398230 -1.012712 -0.066575 -1.817133 1.361590 1.624775 0.653100 1.770861 -2.397427 -0.455942 0.855598
eth_wishbone/always_1/block_1/stmt_1/expr_1/expr_2 -0.238685 1.860131 0.042792 -1.909370 -2.299344 -0.348199 0.645791 0.025490 -1.254324 1.150864 0.448781 0.205792 0.935576 0.146043 0.720117 -2.443511 -0.779279 0.249663 0.734283 2.674949
eth_wishbone/always_1/block_1/stmt_1/expr_1/expr_1 -0.153054 1.839596 -0.014768 -1.866713 -2.257591 -0.343342 0.610786 0.041356 -1.199646 1.182734 0.397241 0.207554 0.920225 0.118894 0.711538 -2.518062 -0.752580 0.205053 0.739379 2.661574
eth_rxstatem/always_1/block_1/if_1/block_2/if_1/cond/expr_1 0.156729 0.719599 0.193938 -0.722040 -1.044815 -0.271193 0.153252 -0.164766 0.293727 -0.038959 -2.130458 0.534505 0.896905 -0.087142 -0.968942 -1.064069 0.976888 0.458105 0.514795 -0.122187
eth_top/wire_md_pad_o -1.695040 3.118026 0.840359 -1.820882 -1.689206 -0.473587 -0.146215 0.140425 -0.313714 -2.127932 0.162545 -0.540970 0.084806 1.779081 0.787616 0.305981 0.183361 1.271776 -1.661982 3.679665
eth_outputcontrol/always_2/block_1/if_1/block_2/if_1/block_1 -1.707754 2.040413 1.038454 -2.071489 -0.366887 -1.541269 1.576515 1.616503 3.336379 -0.622280 -0.881613 -1.878606 1.590753 2.387447 3.849592 0.203120 1.916784 -3.754997 -1.420053 6.074779
eth_txstatem/assign_6_StartPAD 0.166676 0.764234 0.166107 -0.732445 -1.084131 -0.312224 0.166085 -0.204116 0.280257 -0.061844 -2.121309 0.554918 0.931096 -0.089494 -0.956342 -1.106417 0.986724 0.464558 0.529277 -0.067956
check_ethernet/always_1/if_1/cond 1.469819 3.653473 -0.337729 -0.742206 -3.328685 1.224085 0.296902 -1.511124 -0.406634 -0.878402 0.127453 -0.359008 0.798024 -2.491512 0.685905 -0.856751 -1.359172 1.993740 -0.325324 1.756151
eth_miim/always_7/block_1/if_1/block_2/if_1 -0.807882 -0.566983 1.209612 -0.805163 0.240479 -0.544347 -1.660705 0.300463 -1.613609 -1.404537 1.320984 0.193634 -1.834594 2.511472 0.033815 -0.941441 1.451107 2.321628 -0.840650 0.953805
eth_rxstatem/assign_2_StartPreamble/expr_1/expr_2 0.156146 0.677404 0.180032 -0.673579 -1.025398 -0.283687 0.147779 -0.166799 0.290834 -0.049395 -2.035837 0.509107 0.850540 -0.091852 -0.956099 -1.003969 0.911614 0.426046 0.516821 -0.106343
eth_top/assign_1_ByteSelected -2.207682 3.761430 -0.822906 -0.908169 -4.374099 -1.873714 -0.137366 -6.338803 -0.100768 -0.874711 1.943669 2.041916 2.296354 1.044432 0.957923 -1.632595 1.023895 3.668118 -1.483742 2.973852
eth_registers/assign_13_MIICOMMAND_Sel -1.446329 0.506748 0.634736 1.033267 1.329142 -1.587119 0.551867 -0.034267 1.050154 -0.969380 0.005070 -0.339177 1.460632 -0.121313 1.182815 2.705295 0.469177 -1.192104 0.430954 0.293286
eth_transmitcontrol 0.150447 0.722668 0.180525 -0.676231 -1.064032 -0.285427 0.178352 -0.153923 0.266193 -0.028785 -2.044298 0.527471 0.874632 -0.074892 -0.924338 -1.040178 0.949324 0.472682 0.516882 -0.100676
eth_wishbone/always_2/block_1/if_1/if_1/cond/expr_1 1.663263 -0.269465 -0.971608 -1.444788 -1.673759 1.438005 0.961034 0.619000 -0.475423 2.846478 0.205733 0.418889 -0.898609 -0.716887 0.235501 -3.021179 -1.558776 -0.970948 0.615457 0.908642
eth_miim/always_1/block_1/if_1/block_1/stmt_1 -0.954480 -0.505525 1.884122 -0.961016 -1.260350 0.224551 -0.616784 0.556524 -4.633129 -0.201045 2.433066 0.068032 -2.876281 0.361743 -1.117181 -0.569125 -2.885914 3.454450 -0.439096 -0.781860
eth_registers/always_1/block_1/if_1 -0.825595 3.886732 -0.465419 0.442049 -2.102148 -2.735088 -1.842919 -4.270815 -1.561490 -2.901858 0.955063 1.073025 1.694755 -0.476539 0.647877 0.009471 1.387360 4.649448 -0.377707 1.767683
eth_outputcontrol/always_2/block_1/if_1/block_2/if_1/block_1/stmt_1/expr_1 -1.618569 2.044960 1.019087 -1.947247 -0.189646 -1.569200 1.491833 1.668315 3.412222 -0.794563 -0.965592 -1.866191 1.529485 2.310148 3.815460 0.295884 2.013142 -3.773803 -1.403567 6.052970
eth_clockgen/always_1/block_1/if_1/block_1/if_1 -3.670089 0.207316 2.577184 -0.591246 -0.268598 -1.379636 0.083482 -0.878625 -1.732544 -0.919495 1.766942 0.056114 1.191243 3.876168 1.960166 -1.285767 0.951271 0.194473 -0.936651 2.868952
eth_miim/wire_MdcEn 0.488730 -1.135447 0.568048 -1.537862 -0.577549 0.716710 -2.193332 0.299934 -2.326925 -0.756870 1.003907 0.720653 -2.954722 2.606192 -1.208065 -3.394125 1.385323 3.175484 -1.125923 0.631595
eth_top/assign_22_Transmitting/expr_1 0.182636 0.695856 0.203519 -0.709050 -1.027624 -0.292117 0.146150 -0.164319 0.304870 -0.050197 -2.120483 0.546694 0.888597 -0.085893 -0.984516 -1.089124 0.958977 0.465994 0.545821 -0.100186
eth_clockgen/reg_Counter -1.985356 1.253989 1.925625 -0.182134 -0.702684 -1.048283 -0.026112 -0.646462 -0.915366 -1.441858 0.536430 -0.345544 1.383745 1.806510 1.472930 -0.918483 0.347451 0.078505 -0.910282 2.472071
eth_rxstatem/always_1/block_1 0.120277 0.685771 0.197172 -0.730996 -1.024739 -0.292442 0.133084 -0.142210 0.260345 -0.061709 -2.066762 0.550611 0.850629 -0.018422 -0.957512 -1.092291 0.961841 0.438570 0.512753 -0.051945
